-0.513085 -0.612155 1.112384 -0.699310
0.466663 -0.354428 -0.113790 -0.779684
0.515598 0.166394 -0.546118 -0.684628
-0.908881 1.161908 -0.286837 -0.827143
-0.728277 0.778713 0.008708 0.294711
1.035987 -0.097945 -0.976466 0.035823
0.052429 0.506976 0.666637 0.373093
-0.213979 -0.053011 -0.748385 0.350011
0.584153 0.065291 -0.472857 0.560542
0.289293 -0.485448 0.078801 -0.041979
-0.856684 -0.784762 -0.676306 -0.720763
-0.003429 -0.390856 -0.770141 -0.293888
0.900260 0.355097 0.022981 -0.767349
-0.537883 -0.327377 0.630295 -0.462054
0.570687 -0.266923 0.193135 -0.565323
0.208377 0.214757 0.801796 0.253469
0.333128 -0.523993 -0.437048 -0.030701
-0.926840 0.167832 -0.960738 -0.276294
-0.251116 0.419090 1.120486 -1.135853
0.287054 0.438302 -0.386651 -0.533213
0.074198 -0.456289 0.351982 0.518801
-0.468824 0.004165 0.321164 0.811601
-1.059452 0.971031 -0.736013 0.808175
0.408441 0.068261 -0.743770 -0.267602
0.495821 -0.182483 -0.003871 0.502940
-0.348834 -0.951330 0.272559 -0.412497
0.933036 0.669815 0.687485 -0.445153
0.575071 0.026395 0.024436 0.044832
0.664349 0.043227 0.203910 -0.551410
0.036540 0.970424 0.210964 0.073094
0.496236 -0.600128 -0.014199 0.638431
-0.018037 -0.387052 1.107125 0.367674
-0.219615 0.257329 0.761158 -0.015880
-0.483373 -0.784153 0.428513 0.489290
-0.869750 -0.043863 0.154061 -0.723551
-0.536327 0.314396 -0.638871 0.684879
-0.835769 -0.515803 -0.665622 -0.184729
0.086174 0.802287 0.693415 -0.714551
0.455291 0.809708 0.967197 0.707726
-0.952551 0.790513 0.749920 0.900994
-0.107072 -0.874702 -0.776340 0.394909
-0.612613 0.441332 0.761335 -1.155979
-0.579463 0.349446 -0.762340 0.063709
-0.496608 -0.601739 -0.558619 0.599004
0.242022 0.368662 -0.811893 0.307782
0.864782 0.674898 -0.167895 0.171271
0.118679 0.337346 1.164541 0.174616
-0.732585 -0.273694 -0.769707 -0.341653
-0.341099 0.469511 0.571169 1.039347
0.921943 0.975693 0.451007 0.863350
-1.062100 -0.951314 1.177333 0.663751
0.745634 -0.250039 -0.814116 -0.261027
0.418810 0.399674 -0.349252 -0.926882
-0.959167 1.399001 -0.896172 0.453904
-0.965521 -0.547943 0.545911 -0.241688
0.069647 -0.577806 0.008586 0.016910
-0.806181 -0.704304 0.086375 -0.515660
-0.731454 1.098196 0.201844 -1.303393
-0.841726 -0.459002 0.911435 -0.298227
0.384928 -0.123290 0.484851 0.515495
0.321255 0.178088 -0.303305 0.569083
0.528439 0.719324 -0.550619 -0.663563
0.916433 0.361161 -0.610463 0.083838
0.533194 -1.207708 -0.236176 0.047364
-0.466978 -0.512974 0.570882 -0.259456
0.655135 0.109442 -0.419550 -1.150256
0.814633 -0.949160 0.930498 -0.316737
0.160246 1.007782 0.854928 -0.134082
0.943830 0.792841 -0.777229 -0.284692
-0.116696 -0.433215 -0.140836 0.335329
0.609415 -0.218181 -0.474905 0.077158
0.327457 0.550347 -0.718503 -0.395055
0.136038 0.356134 0.799099 0.500126
-0.486516 -0.491566 -0.899800 1.091640
-0.935339 -0.662722 0.647104 -0.668497
-0.438875 0.700088 -0.681218 0.555282
0.953229 -0.397591 -0.129343 -0.167457
-0.695306 0.566390 0.755800 -0.194076
-0.345899 -0.351640 -0.451711 0.280729
-0.195477 0.241568 -0.168122 -0.406534
-0.845400 0.001926 0.193630 0.263312
0.724153 0.365337 -0.713888 0.175135
0.174495 0.135877 -0.415855 0.443818
0.493980 0.344942 0.607388 -0.653063
0.091652 -0.254071 0.268116 -0.219380
-0.364822 -0.270184 0.405783 1.035124
-0.304149 0.367345 -0.364780 -0.267066
-0.340315 -0.548271 0.387776 0.294305
-0.572300 0.353963 0.083600 0.507974
1.340506 0.404574 0.609732 -0.285816
1.081642 0.030874 -0.915230 0.065614
0.821647 0.776917 -0.144334 -0.692110
0.725660 -0.466948 0.671403 0.381544
0.414182 -0.650433 -0.052114 -0.215782
0.139579 1.580637 -0.911993 -0.880760
1.080912 -0.676782 -0.385130 -0.825661
-0.376723 -0.312724 0.824660 -0.349770
-0.656812 -0.257063 -0.805026 -0.012793
-0.889167 0.779667 -0.615730 0.830245
-0.288989 -0.355063 -0.850352 -0.453619
0.146470 0.447200 0.314718 1.201484
0.831008 -0.982428 0.240731 0.237740
-0.749193 0.970494 -0.335713 -0.885464
0.006125 0.491200 0.894168 0.200803
-0.368206 0.553092 -1.038602 -0.518990
-0.757499 -0.448217 0.819231 -0.315096
0.069231 0.374260 1.246816 -0.027203
-0.458831 0.481657 0.604586 -0.543279
0.539688 -0.975419 0.779449 -0.242360
-0.402231 0.112283 0.474262 0.791087
0.912078 -0.464100 0.140882 -0.427453
0.302462 -0.551930 -0.175647 -1.209406
0.529861 -0.283427 0.756603 0.849694
-0.145375 -0.733478 0.285798 0.565678
0.478290 0.697536 0.319277 0.172794
0.193480 0.659250 0.245401 -0.516466
-0.079801 0.966712 -0.077463 0.341036
1.134120 0.044789 -0.869852 0.621498
0.626488 0.059766 0.561777 0.187517
-0.478363 0.364145 -0.441792 -0.279011
-0.057178 -0.442378 -0.388383 -0.783419
0.427937 0.286281 0.592762 -0.319526
-0.010282 -0.712368 0.895606 -0.051128
-0.816999 -0.583432 0.316803 0.596885
0.953105 0.154113 -0.236321 -0.222833
-0.259979 0.198615 -0.079831 0.393129
1.233865 -1.068974 0.696632 0.472480
-0.313977 0.189923 0.808584 0.871019
