0.357493 0.428302 -0.060366 -0.036061 -0.043236 0.107791 -0.529704 -0.122713 -0.030246 0.674948 0.336531 0.626184 -0.576564 -0.708128 -0.055681 -0.481050 0.534106 -0.806457 0.499380 -0.685491 -0.275684 -0.196838 -0.060373 -0.241261 -0.616519 -0.733080 0.266480 0.512763 -0.200725 0.009180 -0.912813 0.436673 0.911447 -0.987249 -0.463787 0.668347 -0.458492 0.800192 -0.869700 0.338449 0.213396 0.278024 -0.818094 0.759469 -0.768932 0.351124 0.011646 0.149115 -0.485365 -0.176953 -0.677837 0.402459 0.274181 0.355990 0.967546 0.136685 -0.311647 -0.540579 0.914943 0.470189 0.409549 -0.118634 -0.679565 -0.108799 -0.010556 0.283466 0.802999 -0.610745 0.253819 0.522759 -0.748232 0.716004 0.261402 -0.289857 -0.967666 -0.416923 0.273877 0.245246 -0.170519 -0.870415 -0.641336 0.034236 0.525356 0.543664 -0.073101 0.343364 -0.290763 -0.902740 0.519497 -0.221030 -0.231845 -0.603026 -0.793726 -0.103511 -0.443009 0.630448 -0.679647 -0.672236 -0.403006 0.847635 0.514491 -0.136572 -0.790484 0.499212 -0.538739 -0.343121 -0.349972 -0.162519 0.710994 -0.506831 -0.582990 0.430237 -0.701396 0.139589 -0.648613 0.880649 -0.778526 -0.679041 -0.539635 0.861997 0.885025 -0.931758 0.348663 0.086922 -0.155143 -0.843560 -0.729969 0.399523
0.079488 0.734468 0.939570 -0.256805 -0.122576 0.852899 0.157952 -0.391248 0.034214 -0.057196 -0.474292 0.925973 -0.289268 -0.535080 0.297512 0.727468 -0.033758 -0.179959 -0.730669 0.967302 -0.970063 -0.169739 -0.611391 -0.131615 -0.555160 0.189762 0.185997 0.328644 -0.274364 0.766248 -0.315366 0.988213 0.504734 -0.132531 -0.005136 0.124884 0.532314 -0.290229 -0.710197 0.242366 0.802330 -0.407766 -0.865376 0.617637 -0.004062 -0.384392 -0.344677 -0.441448 -0.262310 0.926633 -0.189192 -0.491000 -0.818721 0.210735 0.987105 -0.452849 -0.135108 0.593405 0.569188 -0.530676 -0.915095 0.492605 0.519472 -0.504842 -0.762564 -0.868222 0.356471 0.644647 -0.606113 0.818659 0.095328 0.316189 -0.465629 -0.708223 -0.708653 -0.590111 0.863720 -0.781927 -0.269963 -0.442067 -0.100069 0.090234 -0.266829 -0.246948 0.053628 -0.097795 0.614226 0.696475 -0.709359 -0.371359 0.524553 -0.537427 0.764196 0.953466 -0.782928 0.263276 0.332516 -0.090264 -0.997134 -0.538925 -0.407866 -0.833640 -0.575134 0.185981 -0.021115 -0.528092 0.136085 0.407190 -0.953089 0.968513 0.762344 -0.358354 0.056403 -0.713681 -0.714700 0.773622 0.751191 -0.653123 -0.322721 0.601815 0.447160 0.121510 -0.275579 0.058380 -0.395109 -0.631092 0.660177 0.046436
0.047256 -0.511797 -0.214960 0.048767 0.668626 -0.753660 -0.000541 0.134727 0.608738 -0.418260 -0.284738 0.684803 0.600957 0.981968 0.675502 0.815578 -0.370763 -0.726443 -0.418705 0.592631 0.469631 0.792560 -0.010766 0.735821 0.852157 -0.896443 -0.175794 -0.767684 0.305851 -0.405879 -0.344092 -0.678728 -0.924897 0.003085 -0.669716 0.775448 -0.613007 0.504503 0.393031 0.876600 0.529247 0.109168 -0.410709 0.666228 -0.353810 -0.141968 -0.356870 -0.298569 -0.188982 -0.250959 0.641830 -0.375633 0.677829 0.806200 0.348411 0.830803 0.707218 0.439657 -0.480403 0.641837 -0.123148 0.582611 0.203208 0.484863 -0.135948 0.551238 0.763396 -0.630782 -0.893067 -0.352713 -0.825148 0.113670 0.884508 0.421446 -0.885225 -0.477503 0.248278 -0.511487 0.611398 0.687964 0.852307 -0.844788 0.469558 -0.051056 -0.670439 0.495970 0.053256 0.358588 0.982175 0.865495 -0.921294 0.018446 -0.688707 0.271361 -0.063431 0.344290 0.550970 0.988655 0.970446 0.818627 -0.037196 0.326752 -0.778867 0.270015 -0.510457 -0.211926 0.962250 -0.790916 -0.231336 -0.892365 -0.148956 0.955612 -0.540936 0.600383 0.439327 -0.586099 -0.176188 -0.412863 0.836389 0.670461 -0.186349 0.037673 -0.874191 0.857893 0.295641 0.644554 -0.234142 0.499282
0.426961 0.361198 -0.126406 0.569150 -0.809406 0.810335 -0.260282 0.506144 -0.194522 -0.727290 0.948762 0.568947 0.928310 0.117077 0.285166 0.497855 0.560952 -0.428184 0.204176 0.760431 0.233352 0.790066 0.749211 0.312173 -0.670341 0.172877 -0.220693 0.060560 -0.749666 0.003950 -0.894633 -0.120106 -0.830020 0.035573 -0.027825 0.427598 -0.689298 0.835299 0.257661 -0.893925 -0.133810 -0.407331 -0.341714 -0.080570 0.470401 0.218173 -0.950366 0.352370 0.538191 -0.117818 0.078364 -0.828099 -0.637504 -0.266826 0.446275 -0.296839 -0.391146 -0.833648 0.400411 0.266242 0.546983 0.546675 0.546745 -0.954945 0.418087 0.469843 -0.123154 -0.390889 0.558369 0.544971 -0.642156 0.663609 0.848986 0.249491 0.895365 -0.319862 -0.521451 0.628322 0.215614 -0.451305 -0.657959 0.108504 -0.906874 0.688022 0.131850 0.490975 0.784631 0.197872 -0.079900 -0.813863 0.773470 -0.612643 0.260548 0.192563 1.038228 0.431635 -0.937459 -0.031407 0.015940 0.084621 0.895675 0.813452 0.127006 -0.294199 0.026163 0.677384 -1.152456 -0.618855 -0.573174 -0.334403 -0.443878 -0.503771 -0.608883 0.493224 0.682945 0.494077 0.434438 0.636601 -0.419954 -0.857465 -0.807236 0.635703 0.625919 0.949163 -0.784908 0.876091 0.605947 0.720357
-0.146358 -0.807506 -0.173288 -0.286403 -0.868628 0.272452 0.835911 -0.994705 -0.694241 0.682753 0.805398 0.192881 -0.335361 -0.991024 0.114253 -0.610986 0.129935 -0.675157 -0.012604 0.977780 0.448554 0.329027 0.875052 0.653885 -0.297284 0.060338 0.733061 0.359859 -0.720789 -0.961090 -0.481159 -0.602397 0.293313 -0.266161 0.920651 -0.317239 0.986392 0.713224 0.452814 -0.344350 -0.454429 0.348121 -0.836241 -0.872267 -0.809811 -0.861157 -0.775223 0.712887 -0.349080 -0.596998 -0.807026 -0.341657 0.822769 -0.777117 -0.247802 -0.795830 -0.005296 0.909640 0.715314 0.152859 0.241081 0.537115 -0.649259 -0.446798 0.378249 0.341119 -0.942953 0.319858 -0.135286 -0.311955 -0.831701 0.002950 -0.754910 -0.197376 -0.288422 -0.555400 -0.719402 -0.655745 -0.734776 -0.994682 0.616879 0.170230 0.817483 -0.465631 0.596313 -0.893961 0.759830 0.924743 -0.768278 0.301719 -0.822834 0.498642 -0.742749 0.344672 0.774503 0.536426 0.102130 -0.383414 0.474610 0.176485 0.340572 -0.697581 0.424424 -0.591094 -0.720196 0.591992 0.155943 0.268313 -0.903711 -0.918870 0.056996 -0.832029 0.307679 0.991261 0.034324 -0.204653 0.548592 -0.021312 0.248953 0.213875 -0.147499 0.810643 -0.091499 -0.324160 0.842021 0.780850 0.428147 0.922993
-0.243935 -0.623236 -0.260333 0.063727 -0.605929 -0.311942 -0.338565 -0.791488 -0.676740 -0.610117 0.576959 0.635223 -0.331789 0.397280 0.148734 -0.756282 -0.494720 -0.829645 -0.696485 -0.809752 0.985948 -0.546745 -0.417192 0.554023 -0.664331 0.858238 -0.225489 0.930242 -0.093066 -0.355232 0.846374 0.480847 0.080683 0.796658 0.215283 -0.164072 0.331335 0.532676 0.944306 0.128571 0.553835 0.876436 -1.005555 -0.304474 0.509020 -0.040087 0.950228 0.467524 0.817250 0.459467 -0.344628 -0.172026 -0.097104 0.587641 0.821816 -0.699205 0.583135 0.231394 -0.133584 0.530699 -0.081687 -0.662707 0.508925 -0.185122 0.120432 0.398104 0.124904 -0.454070 -0.676516 -0.015256 -0.336181 -0.957952 0.823078 0.491742 0.185695 -0.231313 -0.318472 0.006631 -0.473537 -0.353134 -0.342638 -0.733697 -0.781202 0.088388 -0.249117 -0.526838 -0.783026 0.561940 -0.009902 0.050191 0.340827 0.369276 -0.449026 -0.381533 -1.068632 0.860089 -0.798921 -0.011517 0.872042 0.461492 -0.720299 -0.995322 -0.506714 -0.935473 0.037935 0.896356 0.824120 -0.027868 0.661530 0.174500 0.631412 -0.375467 0.095940 0.820796 -0.366218 0.817007 -0.017999 0.450629 -0.207639 0.855657 0.467580 -0.706536 -0.662835 -0.721209 -0.791182 0.690634 -0.557229 0.842130
0.909639 0.482632 0.415469 0.714686 0.419978 -0.001779 0.301848 0.590680 0.790495 -0.724407 0.574750 -0.997716 -0.961066 0.396465 0.942657 0.484019 -0.387540 -0.976264 -0.111082 0.336595 0.843074 -1.024709 -0.633693 0.651818 0.125604 0.379633 -0.449772 0.008912 -0.477291 -0.472847 -0.222439 0.236198 -0.213491 0.557495 -0.303492 -0.863573 0.525838 -0.178503 -0.372155 0.257591 0.180214 0.149419 -0.696618 0.857677 -0.230533 -0.804609 0.978933 -0.431407 -0.125089 0.855671 -0.517010 -0.725201 0.056627 0.108078 -0.412118 -0.430497 0.550017 -0.133050 -0.181765 -0.664953 -0.588432 -0.932543 0.273715 -0.641325 -0.589924 0.173518 0.443666 -0.288373 0.755341 -0.932657 0.320585 -0.455826 0.677997 -0.087202 -0.295865 -0.074390 -0.244493 0.110902 0.736023 0.665812 -0.913436 -0.551843 0.497744 1.003849 -0.845678 0.161797 0.726378 0.771123 0.367804 -0.794777 0.516194 -0.766183 0.607869 -0.441801 0.863357 -1.020724 -0.494405 -0.337288 0.732566 -0.516389 -0.299839 -0.998760 -0.662716 0.156638 0.491049 -0.505244 0.198029 -0.108286 -0.639942 -0.927903 0.204538 0.856394 0.232198 -0.321809 0.335867 -1.008136 -0.601189 0.245960 0.620829 0.573761 -0.908966 0.531689 0.845855 0.257698 0.726114 -0.098362 -1.048318 -0.221027
0.516910 0.507561 -0.373470 -0.508667 0.090635 -0.751793 -0.670405 0.973269 -0.988799 0.363472 0.562618 0.785455 -0.923305 -0.487439 -0.330182 -0.001485 0.568653 -0.260451 0.440100 0.702563 0.861719 -0.070053 -0.158369 0.766589 -0.159788 0.828043 0.296834 -0.538554 -0.763073 0.084515 0.362258 0.463760 -0.062421 0.212687 0.863235 -0.106531 -0.834049 -0.662566 0.910698 0.823379 -0.310968 -0.321272 -0.868456 -0.131630 -0.751468 0.829736 -0.138509 0.737604 -0.824277 -0.071496 -0.294057 -0.991836 0.531561 -0.220134 0.093819 0.907837 0.793247 -0.651614 0.109370 0.657813 0.034763 -0.076885 0.737321 0.407918 0.972710 -0.748577 -0.008424 -0.689709 -0.889424 -0.172954 -0.186693 -0.886487 -0.722515 0.880282 -0.275081 0.352731 0.149552 -0.433645 0.833270 0.396372 -0.197918 -0.323578 0.852001 -0.683465 0.070454 -0.777812 -0.087767 -0.555521 0.179675 0.881330 -0.477565 -0.411663 0.561319 -0.681477 -0.670030 0.567130 0.414708 0.147979 -0.848670 -0.912134 0.070866 0.392782 -0.493909 -0.973304 -0.049838 -0.468638 -0.057093 0.122092 -0.717307 0.144172 0.036745 -0.676328 -0.669181 -0.917944 -0.117293 0.910331 0.869001 0.280188 0.733553 0.702704 -0.031049 0.819643 -0.488302 0.938091 0.744737 -0.272339 0.088867 0.910378
-0.687004 0.095332 0.760460 0.486451 -0.402128 -0.931601 0.224365 -0.385218 0.890691 0.527202 0.200240 -0.921407 -0.822118 0.687697 -0.093367 -0.824608 0.079677 0.459076 -0.605439 -0.587701 -0.228940 0.174360 0.501677 0.501539 -0.963203 0.086046 -0.603824 0.751693 1.019358 -0.521177 0.916517 0.921357 0.847793 0.823118 -0.117957 0.761892 -0.417035 -0.265810 -0.771519 0.807308 -0.416327 -0.078333 -0.774964 0.717618 -0.623020 0.516334 -0.404100 -0.186610 0.897981 0.408152 0.838538 0.416341 -0.202321 -0.453952 0.632790 0.157035 -0.144047 -0.618373 0.808222 0.596325 0.877331 0.583414 0.441330 -0.555704 -0.229529 -0.159643 -0.734355 -0.525273 0.360336 0.630800 0.050417 0.235500 0.256117 0.106299 0.019076 0.064049 -0.279946 0.547353 0.159848 -0.815886 0.334071 -0.456979 0.449228 -0.699681 0.914386 0.127882 -0.322652 0.623026 0.323191 0.162972 0.433121 -0.199272 0.617376 -0.497434 -0.456242 -0.250947 -0.773106 0.103959 0.481021 0.687033 0.110487 0.470111 -0.371795 -0.255246 0.216488 0.571778 0.599556 0.790539 -0.220322 -0.167699 -0.405436 0.254302 0.549526 0.613421 -0.107263 -0.654848 0.058457 0.348042 0.458625 -0.124581 0.255015 0.941623 0.018594 0.089584 -0.687556 -0.537720 0.358050 -0.901403
0.438983 0.477171 0.710963 0.766312 -0.601076 0.267888 0.938263 -0.158806 -0.093494 0.814050 1.018711 0.309124 -0.107241 0.020548 0.115972 0.422659 -0.322320 0.929625 -0.812146 0.295257 -0.983036 0.485216 0.189249 0.476667 -0.958703 -0.901582 0.722977 -0.163416 -0.905944 0.587630 0.111573 -0.718786 0.365439 -0.051540 -0.481889 1.017399 0.052012 -0.326817 0.602309 0.892624 0.878938 -1.016719 -0.689600 -0.913085 0.580456 0.849470 0.111867 -0.270744 -0.111901 -0.604574 0.330991 0.444329 -0.441137 -0.078414 0.206452 -0.625259 -0.764502 -0.629237 -0.553116 -0.943957 -0.828721 -0.025367 0.619242 -0.734285 0.076271 0.453404 -0.107500 -0.978001 -0.491591 -0.770569 -0.660625 0.080820 -0.594395 0.581680 -0.553339 -0.244497 0.442425 0.346405 -0.620452 -0.188299 0.943166 -0.211617 -0.850993 -0.021796 0.425695 -0.261291 0.593349 -0.190035 -0.879392 0.696899 -0.461524 -0.348267 -1.058123 0.018240 1.055887 -0.089828 -0.398966 0.549479 -0.365515 0.644783 0.116428 -0.535989 0.063549 -0.155987 0.797128 -0.157023 0.134300 0.257677 0.128103 0.406417 0.152043 -0.927816 0.518688 0.736790 -0.504467 -0.761372 -0.914686 0.073707 -0.717478 -0.994507 0.175262 0.002595 -0.028422 -0.515730 -0.138213 -0.428765 0.836335 0.856164
0.856999 0.404385 0.080962 0.361328 0.684814 0.918667 0.227345 -0.427738 0.443016 0.289965 0.673642 0.506243 -0.512611 -0.333055 -0.365609 -0.392565 0.926441 -0.374958 0.822425 -0.038973 0.232709 -0.078920 0.698191 0.338856 0.731347 -0.371994 0.361260 -0.282456 0.039611 0.699539 0.958087 0.444625 -0.694371 0.595564 -0.918990 -0.168215 0.059086 -0.433164 -0.936609 0.313639 -0.529961 0.976557 0.707762 0.837625 -0.974464 0.753601 -0.757324 0.454395 0.053969 -0.206310 0.369185 0.347132 0.231514 0.103405 -0.162007 0.812128 -0.894495 -0.343647 -0.361035 -0.798610 -0.362982 -0.350654 0.730991 -0.037325 0.396463 0.932110 -0.744928 -0.062398 0.768648 -0.148323 -0.738427 0.517036 0.072474 0.903189 0.491834 -0.647569 0.267083 -0.730950 0.474819 -0.254940 -0.793070 0.104698 0.155173 0.619949 -0.103295 0.991029 -0.512912 0.614023 -0.773744 -0.646300 -0.542555 0.847267 0.257710 0.455801 0.303255 -0.631665 0.116821 0.401702 -0.296096 0.150984 0.227451 0.926396 0.815802 0.726086 0.654007 -0.384916 0.544269 -0.696646 0.898864 0.912106 0.385136 -0.974094 0.973532 -0.215554 -0.696677 -0.255083 -0.723589 0.943919 0.648930 0.899373 0.735669 -0.012966 0.674856 0.281194 0.762257 -0.802685 0.091034 -0.648535
0.259986 -0.016937 -0.943187 -0.224572 -0.883347 -0.908647 -0.642910 0.821181 -0.905840 0.625078 0.420843 0.070963 -0.916151 -0.500595 -0.737950 0.988860 0.496937 0.827229 0.942997 0.144194 0.811843 0.505456 0.861978 0.871134 0.077877 -0.755228 -0.809185 0.259220 0.364236 -0.733477 -0.320675 -0.088483 -0.863379 0.791481 0.219862 -0.503068 0.477823 0.881447 -0.155021 0.152692 0.021401 0.716331 0.817798 0.943443 -0.795799 -0.705856 -0.317342 -0.093826 0.083891 0.424058 -0.712347 0.333062 0.065350 0.037687 -0.988737 -0.637835 -0.639096 -0.125352 -0.654853 -0.371930 0.978942 0.313160 -0.595025 -0.265963 0.511723 0.334108 -0.573131 -0.434707 -0.147700 -0.517665 -0.978317 0.114776 -0.122954 -0.035186 -0.150586 -0.888698 0.887539 0.498697 0.363200 0.947086 -0.231226 -0.393314 0.432590 0.682515 -0.883523 -0.445173 -0.364693 0.320449 -0.582193 0.890450 0.505078 0.454596 -0.201017 -0.290195 0.279112 -0.933278 -0.243082 -0.995726 -0.249716 0.512730 -0.301818 -0.400774 -0.319396 0.542751 -0.400546 0.405938 -0.944855 -0.064650 -0.255002 -0.942331 0.988288 0.429086 -0.278322 0.817732 0.081721 0.577364 0.881087 0.951137 -0.056923 -0.539101 0.350387 0.199773 -0.924224 0.358847 -0.801525 0.113946 0.418530 0.685294
-0.027333 0.026851 -0.174306 0.282628 -0.092942 -0.594130 -0.111982 -0.411713 0.333301 0.930274 -0.484294 -0.323570 0.121227 -0.943156 0.897518 -0.493747 0.534474 -0.720936 0.219859 -0.047777 -0.164097 0.856871 -0.261570 -0.283606 0.630541 -0.021475 -0.543263 0.549657 -0.580148 0.958736 -0.562707 -0.521236 0.326756 -0.952664 -0.862451 0.550572 0.656211 0.241886 0.913991 0.202407 -0.227698 -0.131235 -0.180825 0.067026 -0.187872 0.944337 0.093375 0.249776 -0.769135 0.035708 -0.557084 0.344146 -1.019773 -0.890148 -0.075057 -0.781710 0.042998 -0.862522 -0.768223 0.679843 0.047518 -0.290426 -0.577287 -0.485848 0.301839 -0.326479 -0.348929 -0.535682 -0.182877 -0.506090 0.878142 0.731500 0.527675 0.290862 0.118322 -0.652285 -0.695942 -0.797517 0.029583 0.642413 -0.225332 -0.770853 -0.702164 0.899064 0.789015 0.608226 -0.581561 1.018330 0.025814 -0.622466 0.685847 -0.214675 0.317106 -0.356413 0.246940 0.278597 0.334675 -0.214273 0.440325 -0.456407 -0.679263 0.161178 0.249495 -0.002592 0.361230 -0.010128 -0.628192 -0.260787 0.456101 -0.560797 -0.429811 -0.996319 -0.544752 -0.913152 0.802714 0.354263 0.049461 -0.102415 0.956134 -0.353132 0.063862 -0.062364 -0.716586 0.472703 -0.629223 0.481420 0.559474 0.555241
-0.489814 0.841145 0.331396 -0.776919 -0.322281 0.679876 -0.736987 -0.438396 -0.155783 0.397434 -0.085730 -0.122994 0.551490 -0.106903 0.773131 0.909288 0.202370 0.844893 0.154947 0.968331 0.379703 0.801703 -0.512605 0.221014 0.536021 -0.238805 -0.193764 -0.336702 -0.732357 0.105514 0.717505 0.574416 -0.164312 0.937685 0.755135 0.993036 0.927506 -0.520222 0.688131 0.372161 0.804337 -1.025916 0.334472 -0.960142 0.669741 0.573510 -0.638530 0.579471 -0.258232 -0.814326 0.151908 -0.884356 0.921336 0.658190 0.834828 -0.924952 -0.778880 0.805443 -0.490068 -0.940870 0.444817 0.347241 -0.831302 -0.323277 0.637804 0.884661 -0.344868 -0.314059 -0.318386 -0.138553 0.140096 0.457495 0.838920 -0.490916 0.639607 -0.372458 -0.827704 -0.799929 0.342921 0.584157 0.567557 0.898567 0.988638 0.402396 0.759530 -0.531415 0.745453 -0.053463 0.752614 0.510135 0.784062 -0.436379 0.523551 0.897976 -0.682956 0.661762 0.259900 0.080674 -0.056179 0.250321 0.387713 0.814077 -0.410956 0.676855 0.467729 0.582154 -0.264528 -0.025273 -0.117097 -0.248384 0.327949 -0.562222 0.529716 0.080401 -0.106783 0.484530 -0.584448 -0.818890 0.746314 -0.059540 -0.521220 0.719661 -0.590367 -0.528971 0.303498 0.033795 -0.979481 0.719828
-0.003995 -0.289619 -0.304537 0.263363 0.211508 -0.717524 -0.361250 -0.762833 -0.144407 0.824550 -0.271931 0.713880 -0.410909 0.542373 -0.528792 0.138899 0.947270 0.446044 -0.589762 0.218194 -0.987455 -1.007527 -0.960298 -0.724358 0.009369 0.070624 0.094961 -0.484387 -0.893579 -0.419671 -0.340482 0.213594 0.941045 0.985018 0.132011 -0.817459 0.759764 0.707142 -0.193012 -0.653029 0.757187 -0.276043 -0.547792 0.929887 -1.012028 -0.106721 0.730736 0.799085 0.617495 0.095311 -0.052905 -0.971720 1.020928 -0.881201 0.456555 0.513822 1.018336 -0.158778 -0.283750 0.385689 0.469559 -0.214634 -0.901972 0.829681 0.945928 0.331616 0.301803 -0.498868 0.867915 -0.834817 -1.027118 -0.529009 -0.352937 0.601705 -0.252752 -0.960990 -0.025724 -0.498286 0.907252 -0.234045 0.348506 -0.727712 0.258321 -0.271600 -0.099402 0.373216 -0.913444 -0.752362 -0.475358 -0.434465 0.907598 0.256208 -0.425391 -0.165400 -0.536848 0.451724 0.498542 -0.445454 -0.741248 0.094739 0.888262 -0.100301 -0.994987 0.152164 -0.143795 -0.874870 0.345736 0.769491 0.277773 -0.360553 -0.898083 -0.058277 -0.553222 -0.125685 0.193165 -0.281970 -0.463145 -1.044024 0.701873 0.421583 -0.799088 -0.167511 -0.133349 -0.732825 0.384222 0.874447 0.009907 0.141845
-0.147518 0.961067 0.031885 -0.621563 -0.824710 0.419421 -0.359803 -0.846324 0.201170 0.119089 -0.876608 0.212153 0.414073 0.115813 -0.537708 -0.096045 0.446627 0.155271 -0.118214 -0.148333 -0.354093 -0.804962 0.371390 -0.503745 -0.455187 -0.284469 0.379197 0.589159 0.219386 -0.113595 -0.210147 -0.019431 0.612850 0.850628 0.257954 0.267334 0.123943 0.083804 0.503411 0.615466 0.383883 0.327871 -0.653443 0.202134 -0.496795 0.872892 0.733592 0.978250 -0.977679 0.073032 0.465166 0.801925 -0.095536 0.552057 -0.722039 -0.792152 -0.080034 0.808825 0.659153 0.129605 0.261875 0.845594 -0.685284 0.659557 0.083787 0.278026 0.966692 -0.489573 0.868653 0.226042 -0.284687 -0.296668 -0.843364 0.328729 -0.000668 -0.953341 -0.590412 -0.651677 0.673933 -0.014058 -0.484058 0.806674 0.220068 0.422966 -0.612953 -0.928274 -0.927468 -0.749138 0.814439 0.612236 0.703984 0.933765 -0.302306 -0.401202 -0.898667 0.787815 -0.823040 -0.423182 0.957838 -0.286872 0.645964 -0.001646 0.215134 -0.662965 0.053294 -0.621716 0.052423 0.149805 0.893392 0.258345 -0.815825 -0.129418 0.682467 0.720494 0.261185 0.668777 -0.522729 0.488271 0.457698 0.396685 0.368539 0.040851 -0.110579 -0.203702 -0.532824 -0.514930 -0.372678 -0.703468
-0.086087 0.489425 0.984428 0.846523 -0.749008 -0.691805 1.105579 0.348299 -0.498294 0.777259 0.407631 -0.026033 -0.601216 0.639867 0.462636 0.636671 -0.306352 -0.782730 0.741140 -0.123736 -0.560266 0.795066 0.567317 -0.899532 0.096571 -0.454994 -0.327779 -0.996852 0.847385 0.148965 -0.550291 0.147836 -0.961405 -0.940296 -0.132911 -0.296579 0.653548 0.500912 -0.325766 -0.857958 -0.563486 -0.445967 -0.482787 0.477675 0.026502 -0.056772 -0.924664 -0.262890 -0.495384 0.928797 0.136730 0.676385 -0.332163 0.782302 -0.510766 0.986907 -0.627695 -0.787194 0.225432 -0.134414 0.281231 0.142416 -0.833944 0.519625 -0.564142 -0.354052 0.641410 0.710693 0.932424 -0.760874 -0.414272 -0.165474 -0.322658 0.357382 0.523054 -0.319436 0.087515 1.326342 0.833220 0.445563 -0.107412 -0.457493 0.631028 -0.522891 0.498506 0.829037 0.257744 -0.005704 -0.559891 -0.927337 -0.687467 -0.240854 0.305636 0.433339 0.505665 -0.400688 0.779138 0.605355 -0.603845 0.429428 -0.861611 0.818280 -0.803778 -0.043042 -0.233403 -0.129560 -0.485610 -0.499481 -0.074397 0.507044 -0.848662 0.507219 -0.626269 0.705297 -0.357790 0.329418 -0.327938 0.531028 0.128647 0.442748 0.219958 0.511208 -0.136674 -0.042537 -0.008091 0.477982 0.566051 0.387904
-0.156020 0.304501 0.477452 0.494743 0.342883 0.841064 0.726095 0.156361 0.036463 -0.930855 0.067073 0.362891 0.892316 -0.733304 0.163674 0.751562 0.585177 0.156563 -0.271785 -0.631811 -0.478714 -0.527000 0.336584 0.602842 0.017392 0.198199 0.488142 -0.474812 0.168051 -0.242760 -0.774238 -0.905055 -0.338669 -0.421810 0.416812 -1.065688 0.833926 0.297699 -0.425582 0.939576 0.725784 -0.456136 -0.123030 -0.553083 -0.721059 0.404312 0.092137 0.638850 -0.368405 -0.777889 0.346516 0.217555 0.223544 -0.587789 0.161955 -0.281005 -0.506717 0.641364 0.144893 -0.084956 -0.881753 0.190360 -0.068784 -0.205584 0.759475 0.921470 0.873900 0.900019 -0.006391 0.588637 0.749940 -0.495893 -0.934022 -0.965900 0.692210 0.760192 0.276087 -0.223700 -0.972260 -0.516683 0.815548 -0.247769 0.564213 -0.685408 0.927763 0.315141 0.353884 -0.842166 0.759255 0.203914 -0.425079 -0.942947 -0.488811 -0.376597 0.606042 -0.529860 -0.803317 -0.864112 0.241653 -0.544109 -0.057572 -0.574816 0.201098 -0.029376 -0.394334 -0.124282 -0.556980 0.658468 -0.499853 -0.171213 -0.628267 -0.416211 0.486376 -0.302669 0.696240 0.720222 0.344190 -0.663491 -0.915604 0.958895 -0.675180 -0.438499 0.857538 -0.686425 0.164361 0.319268 -0.341975 1.026491
0.827592 0.097783 -0.215794 0.936747 -0.428263 0.529617 0.547028 0.802960 -0.684321 0.915096 -0.619326 0.374867 0.137146 0.784271 -0.862395 -0.988809 -0.022017 -0.634742 -0.465872 0.879783 0.052380 -0.203402 -0.790614 -0.956775 0.435014 -0.154574 0.233724 -0.672311 0.683049 0.909412 -0.789813 0.619815 0.977788 0.386472 -0.006704 0.255270 -0.835057 0.587724 -0.537314 0.894283 -0.102659 -0.131112 0.909435 -0.820641 0.785839 0.220288 -0.302764 -0.916560 0.223434 0.488173 -0.907185 0.677744 -0.768019 -0.169815 -0.616151 0.145034 0.731154 0.934113 -0.345777 0.569602 -0.706014 -0.782724 -0.431605 -0.498023 -0.003674 0.545268 -0.008855 0.357928 1.003825 -0.790914 0.658970 -0.884159 -0.795518 -0.913569 0.773565 0.377961 0.295690 0.530343 -0.743857 0.656384 -0.779203 -0.575565 -0.285139 -0.626154 0.259507 0.863916 -0.302573 -0.547676 0.714920 0.857486 0.517849 -0.620028 -1.087352 -0.021540 0.272912 0.780768 -0.612135 -0.042768 0.418389 0.781014 -0.377108 -0.702930 -0.876834 -0.098104 0.271969 -0.757382 0.595124 0.636249 0.173296 0.765993 0.515847 -0.962196 -0.666955 0.117055 -0.297719 0.084662 0.535862 -0.619918 0.684349 0.411286 0.928386 0.062799 0.334192 -0.259048 0.297498 0.538218 0.006884 0.974390
0.224296 -0.199113 -0.687142 0.476755 -0.067434 -0.585949 0.306907 0.301941 0.706746 -0.771790 0.305281 0.332142 -0.548704 0.836192 -0.517030 -0.612270 -0.756784 -0.515125 -0.952881 -0.831408 0.112254 0.723977 -0.023436 0.958285 -0.738406 0.083612 -0.877960 0.011623 0.971730 -0.287961 0.015845 -0.364192 0.523799 0.163166 -0.085366 0.036139 -0.244977 -0.636826 -0.038024 -0.942933 0.533854 -0.648560 -0.671133 -0.252440 -0.275940 0.006298 -0.509187 -0.492400 0.349944 -0.236789 -0.906755 0.544157 -0.572025 -0.037082 0.480941 -0.251084 0.249184 0.435247 0.921276 0.135175 0.309810 -0.493708 0.059798 -0.604059 0.231874 -0.785782 -0.582216 -0.792059 -0.414335 0.428284 0.213971 -0.332780 0.495891 -0.088927 -0.460481 0.613288 0.854939 -0.793840 -0.428415 -0.600251 -0.090845 -0.657811 0.380145 -0.963235 -0.314614 -0.983334 0.652199 -0.559901 -0.839843 -0.050457 -0.645223 -0.909153 0.920364 -0.386284 -0.710029 0.008435 -0.943673 0.770733 0.676440 -0.647896 -0.881922 0.989054 0.908961 0.557050 0.414470 -0.242036 -0.820098 -0.832128 0.136743 0.448388 0.610909 0.316801 0.266442 0.560864 -0.925210 -0.688188 -0.574240 -0.940207 -0.400033 0.335382 0.969494 0.475836 0.298721 -0.587638 -0.605225 -0.821018 -0.470770 -0.272294
-0.335175 0.405812 0.758413 0.228901 0.033217 0.803927 1.018453 -0.011068 -0.032798 0.317089 0.152877 0.849613 -0.870721 0.835412 0.706020 0.910295 0.413817 0.622662 0.515543 -0.110894 0.552210 0.007773 -0.250428 0.576466 0.841622 0.311022 -0.900433 -0.133180 -1.013133 -0.563625 -0.170992 -0.970930 -0.795174 0.373984 0.779112 0.396967 -0.211981 -0.388762 -0.654081 -0.561434 -0.206734 0.629670 -0.406874 -0.790549 0.900836 0.938975 -0.720327 -0.888430 0.151622 -0.398051 0.203892 0.229345 0.267284 0.915114 0.838024 -0.128382 -0.251762 0.076427 -0.778799 0.328211 0.639557 -0.138997 0.506995 -0.305194 -0.309735 -0.065673 0.945998 -0.850543 0.809282 0.752139 -0.653550 -0.261450 -0.667464 -0.969585 -0.401676 -1.026786 -0.871616 -0.569385 0.877723 -0.855494 0.723226 0.142691 0.990512 0.847388 -0.577279 -0.788252 -0.650775 0.833789 -0.516062 -0.309598 -0.911064 -0.958834 -0.671693 -0.893405 -0.953631 0.847145 0.761012 0.761764 -0.094045 0.070419 -0.348979 -0.884647 -0.351657 0.216933 0.019570 0.335128 0.360017 -0.680636 -0.472193 0.110939 -0.770470 0.356754 -0.843507 0.118787 0.617332 -0.782039 0.570638 0.106907 -0.677106 0.799824 0.343746 -0.272512 0.859148 0.556963 -0.747619 0.093833 0.829712 0.218618
0.356820 -0.725226 -0.987504 0.481980 0.939103 -0.797673 0.375562 -0.568942 -0.307384 0.105711 0.912140 -0.706749 0.443282 0.078789 -0.644344 0.485441 -0.537332 -0.809214 0.897834 -0.785623 -0.351562 0.434555 -0.079744 -0.160983 0.074308 0.753394 -0.508579 0.845224 0.935921 -0.647244 -0.977852 -0.928241 -0.368335 0.792244 0.816799 0.059735 0.707315 -0.230251 -0.206685 -0.818076 0.393058 -0.666316 0.963310 -0.879461 0.449093 0.233554 0.763427 -0.889183 0.870779 0.056728 -0.717342 -0.115720 0.120177 -0.585297 0.694367 -0.621550 0.435350 -0.421520 0.948871 -0.963371 -0.647510 0.505416 -0.431661 -0.936126 0.832254 -0.299732 0.787346 -0.215984 0.777811 0.288138 -0.156159 0.381500 0.346230 0.886357 -0.404270 0.205421 0.319329 0.294842 0.710732 -0.000179 0.155224 0.916527 0.184841 -0.532073 -0.792436 0.110884 0.622083 0.886148 0.782721 -0.404531 -0.493169 -0.785108 -0.610363 -0.570511 0.638468 0.397359 -0.333357 -0.371451 -0.835383 -0.756096 0.034894 -0.013376 -0.785051 -0.838404 -0.091125 0.700080 0.124264 0.328445 -0.233316 0.692926 0.709734 -0.066943 0.586176 -0.230729 -0.367604 0.426889 0.962835 0.499411 -0.991153 -0.597133 0.824150 0.619962 -1.021777 -0.673300 -0.887373 0.707181 -0.065776 1.012288
-0.455993 0.790751 0.358456 -0.565664 0.663497 0.670470 0.422650 -0.739033 0.780064 -0.522631 -0.598894 0.857489 0.468215 -0.919972 -0.619665 0.984568 -0.908451 -0.973569 0.677626 0.480304 0.560296 0.353513 -0.674704 -0.999510 0.390886 -0.959964 -0.590825 0.852063 0.737707 0.003885 -0.996751 -0.589929 0.852649 -0.253446 0.667713 0.167543 -0.555565 0.957800 0.613303 0.546861 0.996160 -0.285478 0.755241 -0.767310 -0.238085 0.780796 -0.408460 -0.966559 0.827328 -0.439122 0.920091 -0.721666 -0.676905 0.537422 -0.025671 -0.976931 -0.910925 -0.129187 -0.461116 0.831271 -0.392068 -0.772365 -0.737081 -0.550839 -0.764374 0.120956 -0.540837 -0.978988 0.724989 0.212794 -0.807538 -0.020840 -0.088769 -0.473757 -0.723438 -0.683142 0.242454 0.382210 -0.030887 0.921394 -0.360214 0.579202 0.653111 -0.816764 -0.390263 0.127533 -0.675994 -0.469625 -0.259579 0.080023 0.023945 0.606139 -0.566268 0.618619 0.072222 -0.066954 -0.568131 -0.365050 -0.584553 0.440563 0.807724 -0.882617 0.113389 0.082822 0.995529 -0.526690 -0.671405 -0.268829 0.497152 -0.489191 0.346216 0.456181 -0.034410 -0.109863 -0.382178 -0.369236 -0.104813 -0.350199 -0.996932 0.890394 0.101180 0.375197 0.033782 -0.640718 0.776373 0.974955 -0.899694 -0.034946
0.305022 0.532884 0.144790 -0.259429 0.721004 -0.454207 -0.697122 -0.092611 0.858320 -0.300756 0.273942 -0.813376 0.220582 0.239844 0.233440 -0.896345 0.673414 0.751278 0.248243 0.327266 -0.254190 -0.018851 0.850308 -0.631830 0.192881 0.259073 0.989384 0.933711 0.888572 -0.883186 -0.804252 0.724425 -0.512887 -0.196879 0.026549 0.044981 -0.480888 -0.444424 -0.997350 0.055259 -0.212480 -0.129995 -0.839376 0.998702 -0.390798 0.658272 0.921086 0.761388 0.885859 0.718466 0.339526 -0.852568 -0.570413 -0.158371 0.396594 -0.498022 0.989018 -0.152737 -0.928162 -0.997922 0.886240 0.555102 -0.058306 0.993615 0.484459 -0.001054 0.338845 0.348226 0.493226 0.610932 0.142236 0.284703 -0.995883 -0.326958 0.625630 -0.908265 -0.316193 0.363769 0.128617 -0.139393 -0.112564 -0.024495 0.146890 0.509212 0.609221 0.728861 -0.218032 -0.175988 -0.682826 -0.061097 0.041463 -0.537366 -0.777709 -0.583090 -0.259442 -0.095233 0.416011 0.255604 -0.943782 0.408946 0.551678 0.762603 -0.509824 0.350642 -0.905678 0.164105 0.866795 -0.228622 -0.827999 0.262539 -0.750146 0.923887 0.002864 -0.640626 0.715086 -0.285527 -0.780757 -0.093406 -0.412191 -0.839976 -0.927354 -0.220852 0.829573 0.956239 0.912807 -0.036012 0.125125 -0.344351
0.470383 0.948575 0.560303 -1.023672 0.779234 -0.394849 -1.000829 -0.276347 0.065489 0.503872 0.792639 -0.692701 -0.093488 0.086173 0.462467 -0.561263 -0.856918 0.317321 0.638512 -0.616847 -0.243079 -0.226294 -0.824548 0.416524 0.859831 -0.456755 -0.234211 -0.507836 -0.206203 -0.609392 0.916545 -0.288759 -0.483650 0.927102 0.492630 -1.133255 -0.259920 -0.543838 -0.416951 0.910736 -0.005960 -0.785487 0.743142 0.438100 -0.210336 0.693083 -0.427725 -0.952668 -0.026939 -1.026445 0.858749 0.389191 0.933934 -0.270377 -0.917046 -0.036624 0.038123 0.643985 -0.557629 -0.540727 -0.802503 -0.392842 0.427849 -0.531047 -1.009574 -0.782045 0.218243 0.177212 0.867936 0.562670 -0.155880 -0.120114 -0.497617 -0.154590 -0.291186 0.937931 0.865698 0.173492 0.883879 0.750096 0.369295 -0.441946 -0.552112 -0.515421 0.286736 0.726530 0.756396 0.689536 -0.007348 0.621671 -0.683354 -0.253989 -0.198733 -0.565742 -0.666229 -0.660413 -0.425318 0.883840 -0.365204 -0.224053 0.709689 0.020976 0.211494 -0.119044 1.012921 0.069378 0.279526 0.831982 -0.927097 -0.705974 -0.843634 0.379917 0.510819 -0.564568 -0.422170 -0.278812 -0.050492 -0.100763 0.890986 -0.218044 0.946919 -0.849863 -0.915464 0.847195 0.650929 0.745422 -0.256996 0.219771
0.557950 -0.104821 -0.488715 -0.216180 0.417421 -1.012750 -0.009541 0.171857 0.059040 0.521079 -0.917457 0.333407 0.688022 0.262392 0.729607 -0.413022 -0.313476 -0.160890 -0.860076 -0.899475 -0.312003 0.463802 -0.652531 -0.921194 0.209813 0.390286 -0.214678 0.674209 0.704508 -0.173518 0.339488 -0.283278 -0.714313 -0.714781 0.690476 0.239880 -0.012737 -0.352795 0.486686 -0.351506 0.078367 -0.932197 0.151405 0.611903 0.334755 0.411857 0.326988 -0.724218 0.455432 0.042530 0.155469 0.386019 0.910132 -0.696228 -0.548118 -0.059196 0.639395 0.870345 0.184073 0.506008 0.873508 -0.626296 -0.955431 0.629898 -0.632529 0.324285 0.799681 0.254207 0.328236 0.624486 -0.045010 0.057945 -0.619562 -0.154124 0.370221 0.728090 0.744642 -0.848452 0.702740 -0.929809 -0.155455 -0.850340 -0.744966 0.619436 -0.788343 -0.124360 -0.635472 0.241380 0.210770 -0.500415 0.076711 0.428365 -0.182299 0.491844 1.063386 -0.424161 0.124921 -0.471371 -0.469439 0.093847 0.035149 -0.550132 -0.134526 0.698825 -0.752316 -0.496066 1.111207 -0.846054 -0.755958 -0.638928 0.946742 -0.044006 0.473840 -0.472189 0.637771 -0.634947 0.402294 0.191161 -0.128411 -0.519128 0.965447 0.292655 0.775290 -0.221682 -0.137810 0.931531 1.031824 0.131437
0.027905 0.672066 0.011426 0.051601 -0.934677 -0.355835 -0.358712 0.502970 0.094592 -0.321049 0.886998 -0.368422 -0.348698 0.768259 0.968528 0.037124 -0.630085 0.810861 -0.874890 0.963207 -0.411297 -0.404519 -0.394433 -0.389403 0.558266 -0.530471 0.387256 0.480342 -0.688611 0.886237 -0.538327 -0.890092 0.053857 -0.385173 0.558235 -0.095932 -0.023962 -0.631611 0.623472 0.078128 -0.368092 0.669695 0.184839 0.385115 0.119937 0.803445 0.145609 0.152594 0.926287 0.381694 -0.837968 -0.061779 0.333778 0.181008 -0.717728 -0.656280 0.853254 -0.478563 -0.770247 -0.654906 -0.676107 -0.196233 -0.286200 -0.268223 -0.219514 -0.049993 -0.104177 -0.991290 -0.051801 -0.736117 -0.651208 -0.897411 -0.131898 -0.116400 0.601846 -0.515331 -0.788947 -0.199711 0.400074 0.055379 -0.006471 0.260595 0.556696 -0.143483 -0.892337 0.204962 0.151412 -0.163976 0.512548 0.973605 0.296306 -0.317294 0.320684 0.963136 -0.255566 1.009495 -0.270124 -0.372079 0.961058 -0.072012 0.621746 0.165054 1.039117 -0.150225 -0.848671 0.158892 0.500867 0.010898 -0.058443 -0.773843 -0.791539 0.872520 -0.246538 0.831432 0.064752 -0.520055 -0.911056 0.058489 -0.735389 -0.961509 -0.561073 0.072221 -0.342481 0.626920 0.646588 0.729592 0.916682 0.191203
-0.984361 0.800506 0.617751 0.096594 0.695721 0.784221 -0.797205 0.026026 0.244313 -0.670597 0.450164 0.581746 -0.562035 -0.119239 0.583563 -0.551059 0.592776 -0.569543 -0.304181 0.509739 -0.112918 0.394058 0.721100 -0.508797 -0.268963 0.407876 0.021020 0.971531 -0.011152 0.011395 -0.058739 -0.245084 -0.582847 -0.819117 -0.158196 -0.389965 -0.252301 0.581126 -0.630589 0.807326 -0.282400 0.342883 -0.355080 0.504183 -0.204363 -0.537870 0.883115 0.981786 -0.619090 0.416196 0.884935 -0.188879 -0.737874 -0.364312 -0.021719 -0.015557 0.043339 -0.279592 -0.054149 -0.230535 -0.049013 -0.014638 0.615286 0.020144 -0.272600 0.175822 -0.710751 -0.470045 0.663307 0.058777 0.570305 -0.792906 0.544164 -0.828071 -0.244747 0.799562 0.464658 0.643488 0.008459 -0.270866 -0.627695 0.110121 -0.438259 0.225593 0.495663 -0.559143 0.804894 -0.104428 0.238981 0.127856 0.798012 0.031899 0.279851 0.996081 0.035309 -0.007646 0.951180 -0.108680 0.089323 -0.952145 -0.769934 0.650536 0.318851 -0.294193 -0.404290 -0.014419 0.799490 -0.009432 0.935935 -0.883252 -0.711860 -0.618329 -0.679014 -0.606949 -0.221327 0.910869 0.637939 -0.946560 0.389093 -0.848122 -0.524439 0.957232 0.975906 -0.520913 -0.094379 -0.201646 -0.280596 -0.130364
-0.897503 -0.556765 0.130466 -0.573920 0.827905 0.286288 -0.104760 0.434536 -0.633671 -0.151269 0.407936 -0.035333 0.907967 0.901032 -0.469673 -0.553369 -0.709205 0.063527 -0.539997 -0.430489 -0.405446 0.593404 0.355992 -0.828199 0.212947 0.342880 0.797719 -0.253447 -0.199151 -0.375880 0.830007 0.892704 -0.034137 -0.213290 0.460327 -0.039098 -0.952443 0.602828 -0.367369 -0.770797 -0.568910 -0.907662 0.432151 -0.135625 0.227083 -0.212433 0.193165 -0.404243 -0.513592 -0.608576 0.503297 0.637507 0.669939 0.512113 0.604066 -0.495191 -0.811578 0.919272 -0.029352 0.137282 -0.562400 -0.365189 0.412668 0.780567 -0.719410 -0.760704 -0.645341 -0.074392 0.580962 -0.046609 -0.436356 0.661393 0.028689 -0.203416 0.134775 -0.235431 0.360065 -0.196081 -0.030189 0.884581 0.420357 0.768889 0.644088 -0.200758 0.845509 -0.122913 -0.640036 0.344203 -0.321057 0.658621 -0.023607 -0.749602 0.660973 0.017440 -1.010937 0.367962 -0.709400 0.661187 0.760485 0.690724 -0.928279 0.849668 -0.806716 0.588290 -0.734012 0.826519 -0.433070 -0.109921 0.050075 -0.332421 1.117789 -0.512946 -0.365097 0.000259 -0.157062 0.901581 -0.423360 0.930845 0.576133 0.863823 -0.045143 0.798920 0.646824 -0.966182 0.877822 -0.686396 0.189517 -0.935185
0.283072 0.044577 -0.937998 -0.041801 -0.753830 0.804694 0.021928 0.773492 0.523482 0.223464 -0.422941 0.309021 -0.656986 -0.594390 -0.185425 0.908164 0.577913 -0.064708 -0.468074 -0.817809 0.459130 -0.773887 -0.652228 -0.565784 0.191482 -0.426002 -0.339335 0.094335 -0.600120 -1.043816 -0.795999 0.505085 0.836699 -0.630543 0.112880 -1.158991 0.849007 -0.791762 0.454742 -0.785387 -0.000104 0.809802 -0.814866 0.954745 -0.228420 0.948505 -0.935974 -0.271750 -0.191164 -0.006465 -0.499534 -0.962717 0.853882 -0.981855 0.762897 -0.285781 -0.555018 -0.593869 -0.603584 0.447371 -0.322501 -0.928785 -0.932325 -0.551290 0.727508 -0.181791 -0.376330 0.618578 0.651278 -0.435692 -0.316781 0.949470 0.742228 0.492132 -0.395133 -0.650989 -0.298816 -0.560345 0.573727 -0.833607 -0.297714 0.064141 0.212273 -0.598583 0.237165 -0.342442 -0.174038 -0.255113 0.701808 -0.642600 0.868195 -0.749438 -0.808596 0.556660 0.884176 -0.210133 0.640991 -0.944122 -0.193389 -0.025200 0.652681 -0.933768 0.508207 0.323659 0.994408 -0.871597 -0.369730 -0.645443 0.112836 0.047180 -0.120045 -0.114718 -0.761517 -0.806289 -0.497914 -0.697445 0.073856 -0.892030 -0.774217 0.177495 0.222722 0.272649 -0.752387 -0.159825 -0.809804 -0.838023 0.835537 0.216365
0.889627 -0.875906 0.551355 -0.180984 -0.307566 -0.850802 0.456929 0.573714 -0.888622 -0.141347 0.822172 0.440476 -0.954944 0.111372 0.893993 -0.050211 0.463194 0.648019 -0.563021 -0.429064 0.849191 -0.940906 -0.819862 -0.370927 -0.826397 -0.041170 -0.548530 -0.004071 -0.771151 -0.730854 -0.980378 0.728270 -0.746915 -0.643546 -0.950606 0.712536 -0.819753 -0.513769 0.960473 -0.044254 0.080693 -0.560124 0.845464 -0.750319 0.313395 0.756447 -0.789103 0.699733 0.994293 0.081986 -0.896767 -0.694017 -0.434132 -0.591599 0.220988 0.333833 0.288012 -0.839707 -0.873456 -0.259692 -0.304379 0.700955 -0.728738 -0.588742 0.619872 -0.804306 0.248428 -0.241066 0.616114 0.199540 -0.363776 0.898201 -0.391073 0.382855 -0.692282 0.985203 0.818748 0.594733 -0.336684 -0.662903 0.165488 0.769326 0.690431 0.915177 0.082835 -0.019135 -0.915150 -0.697021 -0.972248 -0.946551 -0.381284 -0.170114 0.348309 0.233198 -0.441605 0.346599 0.127299 -0.656158 0.937385 -0.038073 0.080282 -0.264971 -0.878716 -0.411495 0.131366 0.549299 0.189789 -0.231841 0.944428 0.103722 0.893367 -0.470205 -0.858777 -0.051191 0.922401 -0.174530 -0.054810 -0.488041 0.782638 -0.601408 -0.148100 0.707064 -0.593646 0.312116 0.580088 0.302814 -0.167535 0.736908
0.328348 0.351467 0.088038 0.512338 -0.897290 -0.100344 0.005712 0.117105 -0.847120 0.550820 -0.568803 -0.091509 0.872815 -0.540728 0.073692 0.076311 0.376844 0.387101 -0.079277 -0.116831 0.930694 -0.124779 -0.695091 -0.990929 0.134720 -0.362589 -0.343462 -0.055590 0.573984 0.726422 0.537581 -0.739554 -0.641008 0.723349 0.572612 0.969126 -0.017739 -0.584249 0.242506 0.772850 -0.572118 -0.003989 0.341474 0.623670 -0.866937 -0.330785 -0.882602 -0.202975 0.944057 0.694690 0.447934 0.784042 -0.581752 0.285089 -0.543944 -0.181909 -0.919267 0.147241 0.541891 -0.046568 -0.703348 0.901225 0.034448 0.452492 -0.750761 0.664974 0.534920 -0.526703 0.201674 0.583354 0.271418 0.091541 0.436905 0.379472 -0.587599 -0.689938 0.052547 0.014689 -0.343433 -0.801428 0.866211 0.904341 -0.040953 0.298284 0.863912 0.215574 0.546550 -0.096283 0.781649 -0.463514 -0.463555 0.391993 -0.657365 0.337176 0.910746 -0.829467 0.940239 0.289799 -0.145716 -0.762006 -0.196668 -0.330549 0.468158 0.449785 0.701667 0.173430 -0.825427 0.609739 -0.208730 -0.883269 0.595803 -0.014045 0.479923 0.800701 -0.400942 0.983006 -0.373036 0.621784 -0.857547 0.303528 0.477337 0.076887 -0.656460 0.815031 0.342078 -0.646393 -0.722663 -0.071072
1.018033 -0.000913 -0.751399 -0.935637 -0.163851 -0.488234 -0.125765 -0.123698 0.383594 -0.816287 -0.472424 -0.007674 0.153140 0.557306 0.932832 -0.121509 -0.310077 -0.555775 -0.031894 0.507365 -0.688385 0.732219 0.464619 0.835301 0.135594 -0.792669 0.012202 0.019112 -0.692649 -0.437919 0.047585 -0.399966 -0.868129 -1.110249 0.865285 0.165820 0.776451 0.062171 0.054174 -0.508866 -0.276598 0.245090 -0.413935 0.654299 0.847576 0.010782 0.836954 -0.138486 1.043754 -0.132495 -1.034851 0.425875 0.579924 0.196476 0.051535 -0.359796 -0.993083 -0.344613 -0.319162 -0.229969 -0.218303 -0.692647 0.576213 0.836323 -0.938499 -1.064532 -0.810321 -0.677576 -0.581585 0.285470 0.602612 0.000362 -0.720650 -0.493631 -0.295513 0.601368 -0.299592 0.071955 0.243022 -0.076937 -1.030912 -0.211471 -0.397002 0.676453 -0.114825 -0.383248 0.904019 -0.063250 -0.513106 -0.754180 0.170531 0.554404 -1.161217 -0.531309 -0.565313 0.657176 0.876676 -0.400142 -0.073325 -0.257841 0.628081 0.189569 0.189137 -0.772907 -0.813539 -0.359804 0.425119 0.340613 -0.867746 0.321442 0.869732 0.092842 -0.919819 -0.988719 -0.986587 0.445911 0.352950 -0.401824 0.663772 -0.250430 -0.566619 -0.297438 1.047448 0.194230 -0.762174 -0.664663 0.087276 0.245624
-1.000860 -0.331725 0.364673 -0.117124 -0.609711 -0.004655 -0.620273 -0.742971 0.560423 0.828550 -1.022858 -0.800202 -0.922346 0.845214 0.251537 0.016015 -0.367798 0.252157 0.896982 -0.293623 -0.962522 -0.513243 0.075005 -0.853499 -0.494977 -0.766781 0.800831 -0.570812 -0.692294 -0.228300 -0.829229 0.435981 -0.407889 -0.093785 -0.742964 -0.775551 -0.476349 0.493836 0.805409 -0.538556 -0.392663 -0.501660 -0.199145 -1.021615 -0.037118 -0.375708 -0.940270 -0.327452 0.623044 0.142805 0.844489 -0.091513 0.343971 -0.523053 -0.827844 0.515642 0.242914 0.252404 -0.287180 0.863335 0.895101 0.603226 -0.500051 0.953494 0.357894 0.013022 -0.167641 0.194821 0.411865 0.525826 0.858271 -0.984051 -0.824208 -0.212416 0.037856 0.919896 -0.419094 -0.552075 0.547919 0.403320 0.581839 0.049786 -0.587604 -0.805597 -0.966020 0.322983 -0.331811 -0.775854 -0.534275 0.590163 0.318511 0.413689 0.951426 -0.512380 -0.780413 0.078584 -0.628043 -0.404746 -0.968235 0.912024 0.499936 -0.378640 -0.341382 0.552241 -0.055723 -0.289961 -0.785847 0.106359 -0.113246 -0.200843 0.183872 0.361686 -0.413512 -0.666699 -0.146618 0.752674 0.363121 -0.954874 -0.494032 0.356676 0.218568 -1.001318 -0.087166 0.516544 0.722454 0.432382 0.187092 -0.160727
-0.716694 0.324815 -0.070882 0.780715 -0.259019 -0.821961 -0.905637 0.664782 0.699177 -0.421933 0.097840 -0.394904 0.891031 0.851554 0.232780 0.318100 0.294034 -0.433666 0.521720 -0.876834 -0.882251 0.072551 -0.579253 -0.145183 0.003215 -0.354093 0.848060 -0.917994 -0.497029 0.217138 0.165963 0.432462 0.899402 -0.762902 -0.858455 -0.557761 1.025596 -0.496473 -0.610719 0.675839 0.900311 -0.562835 -0.729993 0.448392 -0.696821 -0.691405 -0.781948 -0.599297 0.028715 0.174338 0.280591 -0.357204 -0.378345 -0.737632 0.675029 0.190394 0.404394 -0.768531 0.840226 0.107467 0.075283 0.114401 -0.375393 -0.409459 -0.518461 0.041315 0.624666 -0.357245 -0.137789 0.068606 -0.040361 0.616996 -0.351581 0.865326 0.959692 0.620949 0.968849 0.333667 -0.139163 0.160779 0.626957 0.025763 -0.916438 0.962044 0.766091 0.092242 0.955212 0.429613 0.687271 -0.819412 0.376763 -0.147381 0.761799 -0.933517 0.947906 0.803657 0.188521 0.361120 -0.114912 0.685818 0.688729 -0.094792 0.635130 -0.965641 0.090484 0.313879 0.827322 -0.464976 0.844505 0.543341 1.111250 0.614733 -0.942984 -0.769539 0.493229 -0.615394 0.017426 0.247693 0.754251 0.229718 0.246514 -0.889396 0.652758 -0.125442 0.317269 0.750156 -0.535238 -0.465732
-0.713374 0.328109 0.505010 0.218201 0.174861 0.179729 0.363268 -0.175833 0.057995 0.000778 0.860534 0.086938 0.188203 -0.786382 -0.632608 0.403553 0.110482 0.863074 -0.178330 -0.517608 -0.767376 -0.476022 -0.378544 -0.522971 -0.476295 0.275749 0.794444 -0.363682 -0.113597 0.548804 -0.967845 0.145244 -0.321956 0.294387 -0.408961 0.041887 -0.218036 0.636241 0.550683 -0.710952 0.643355 -0.211590 0.561287 0.180417 0.859770 0.816005 -0.320531 0.818038 -0.494030 -0.109665 -0.391388 -1.046737 -0.492261 0.537150 -0.739771 -0.607046 -0.055615 0.792431 -0.679696 -0.044924 -0.230430 0.735579 0.531867 -1.022025 -0.231598 0.889586 -0.174779 0.933246 0.795160 -0.134640 0.846883 0.675624 0.471201 0.152769 -0.609690 -0.335975 -0.130387 -0.653877 0.632448 -0.357749 -0.393524 -0.427220 -0.663385 -0.525404 0.488127 -0.614126 -0.906053 0.214476 0.176795 0.335431 0.396549 0.234025 -0.706155 0.415006 0.263145 0.305418 -0.335169 -0.851790 0.687884 0.197652 0.662314 0.813377 0.921157 -0.679069 -0.012117 -0.555303 0.938109 0.883093 -0.095517 0.221841 -0.664405 0.602315 0.023198 0.603993 -0.824998 -1.048599 0.518107 -0.365679 -0.453353 -0.760884 -0.995940 -0.218379 0.888649 0.200532 -0.978256 0.386438 -0.962542 0.694732
-0.742605 -0.644846 -0.272226 -0.232818 0.132662 0.580623 -0.211991 0.749453 1.043499 -0.043612 -0.415582 -0.951563 0.033085 0.496754 0.864664 -0.888425 0.248595 -0.017070 0.851833 -0.168041 0.080912 -0.892749 0.040147 0.435267 -0.152523 -0.276600 -0.586175 0.044018 0.059581 -0.951424 0.729566 -0.223478 -0.004415 0.625039 -0.085945 -0.517187 -0.872823 0.451087 0.979119 0.485448 0.134867 0.566689 -0.710759 0.524050 0.205696 0.838998 -0.247920 0.035799 -0.835654 0.116835 -0.247038 -0.599165 -0.263331 0.560611 -0.222614 0.769077 -0.703867 0.917811 0.332246 0.481526 0.006863 -0.267690 0.004838 0.393679 -0.051915 0.388645 -0.523026 0.539093 -0.031619 0.246768 -0.828783 -0.907063 -0.293020 0.153490 -0.305264 0.643295 -0.830514 0.361599 -0.887522 -0.501712 0.257196 -0.470032 -0.645614 0.680881 0.490139 0.653203 -0.807037 0.219522 0.921767 -0.980659 -0.957626 -1.017611 0.915300 -0.195319 0.380733 -0.475091 0.654462 -0.353662 -0.592161 0.454619 0.814029 -0.076078 0.495493 0.574628 -0.142599 0.427437 -0.756686 0.762216 0.924381 0.650931 0.334689 -0.439233 -0.641256 0.781333 0.613464 0.415341 -0.040287 -0.259624 0.398431 0.968102 0.310042 0.465746 -0.546128 -0.601547 -0.800917 0.016675 -0.798815 -0.605898
0.771216 -0.657884 -0.345508 -0.548709 0.744440 0.158524 -0.293252 0.580243 0.549074 0.686498 0.897607 -0.711462 -0.581145 -0.882052 0.020129 0.773159 0.220853 -0.479597 0.202263 -0.770595 0.503745 -0.725340 -0.171450 -0.121823 -0.024074 -0.530845 -0.255214 -0.458826 0.880710 -0.639098 -0.126690 0.557633 -0.953634 -0.600889 -0.639317 -0.192705 0.727153 0.252431 -0.548021 -0.933750 0.644699 0.839121 0.485197 -0.791702 0.732535 0.380046 -0.466017 -0.096107 -0.504255 -1.000998 0.336294 0.884390 0.284492 0.418836 0.320840 -0.977340 0.641023 0.886270 0.279763 0.021199 -0.368862 0.998671 -0.702680 -0.167525 0.282513 -0.633358 -0.261912 0.455895 -0.438131 0.853956 -0.615950 0.931823 0.653910 -0.495589 0.002758 0.278664 -0.305190 0.886685 0.139193 0.556101 -0.154905 -0.209116 0.133154 -0.622861 -0.397304 1.064035 0.134400 -0.590207 0.822054 1.058356 0.553560 0.421903 0.627014 0.405793 -0.488541 0.768774 0.636085 0.278440 -0.315895 0.501238 -0.296388 0.806984 -0.052615 -0.044959 0.792306 -0.659453 0.435033 0.344254 -0.308744 0.399182 0.457109 -0.938576 -0.968406 0.428401 -0.595774 0.155658 0.360055 0.978403 0.217704 -0.716864 -0.295431 0.763917 0.392479 0.877958 -0.750329 -0.572192 0.449270 0.914944
-0.325587 -0.473770 -0.078838 -0.210952 -0.409152 0.405631 0.458590 -0.623086 0.132132 -0.232645 0.410183 -0.454854 -0.327725 -0.766075 0.665035 -0.985572 0.831401 -0.286282 0.721242 -0.764700 0.077399 0.915921 0.267980 0.323066 -0.210647 -0.296995 0.614660 0.347282 0.936172 -0.751656 0.436829 -0.473803 -0.941741 0.468511 0.391846 -0.935981 -0.368953 0.520856 0.706667 -0.591851 -0.874644 -0.519924 -0.377079 0.725705 -0.424623 0.277310 0.060688 0.498500 -0.481868 0.312191 0.886933 -0.242136 0.360915 0.500215 0.964427 -0.986684 -0.323018 -0.756255 -0.570122 0.607260 0.442093 -0.335197 -0.900950 0.446540 -0.114155 -0.745004 0.948851 0.028267 0.565207 -0.492420 -0.322119 0.172164 0.957648 0.976013 -0.378151 0.109735 -0.342611 -0.748113 -0.598123 -0.638283 0.078060 -0.614091 0.026878 0.119910 0.122756 -0.499016 -0.113092 -0.084755 0.984777 0.238231 0.608546 -0.628785 0.231819 -0.628179 0.875197 -0.224423 0.044506 -0.214734 -0.382842 0.161150 -0.147546 -0.774039 -0.804822 -0.901435 0.754694 -0.059147 -0.640847 0.247115 -0.697849 -0.558156 -0.946456 -0.136278 -0.747433 0.334846 0.507322 -0.972948 0.269678 0.176549 0.802085 0.202909 -0.533362 -0.687021 -0.690159 0.060629 -0.971092 0.491728 -0.395475 -0.755999
0.656146 -0.400083 -0.847963 -0.289007 -0.537930 0.138519 -0.008380 0.840178 0.427109 0.399559 -0.469528 -0.329665 0.915096 0.826647 0.412471 0.936464 -0.162170 -0.025965 0.239410 -0.603034 -0.094327 0.582081 -0.177818 -0.447831 -0.870764 0.952767 0.070562 0.626043 -0.043012 -0.069297 -0.639902 0.647211 -0.324938 0.943793 0.407606 0.558824 -1.023135 -0.401272 0.680432 0.165069 0.908990 -0.075293 -0.637947 0.949956 0.135403 -0.826018 0.284670 -0.640468 0.439383 -0.235326 -0.170482 0.974877 0.123670 0.246678 0.447278 0.034397 0.248336 0.680662 -0.019991 -0.459570 0.042037 0.533780 -0.473235 0.842467 -0.337621 -0.169775 0.102377 -0.625113 -0.772317 -0.765264 -0.182254 0.689421 -0.061401 0.446444 -0.090752 0.456995 0.024307 0.463826 -0.394943 0.109264 0.071208 -1.005396 0.661972 0.178215 -0.310331 -0.536534 -0.487578 -0.270771 -0.556789 0.907625 0.375000 -0.003096 0.357471 0.023779 -0.652602 0.326078 0.921812 -0.613170 -0.325287 0.128169 -0.594802 0.960741 0.469830 -0.411281 0.115675 0.573357 -0.025133 -1.026563 0.222148 -0.410205 0.790509 0.731269 -0.285786 0.491433 -0.646489 -0.818515 -0.774553 0.371927 -0.730444 -0.046785 0.622602 0.687566 0.250735 -0.009270 0.871249 -0.196658 -0.128398 0.453352
0.856570 -0.398800 -0.737244 0.994444 0.064492 0.551127 0.090278 0.182219 0.297003 1.045220 0.915526 -0.151548 -0.115882 -0.029211 -0.564918 -0.066492 -0.872108 -0.526509 0.142202 -0.003995 -0.260383 -0.309127 1.034467 0.823332 0.360094 0.749071 -0.024105 0.449581 0.085737 0.085642 0.481236 -0.517975 -0.374019 -1.024392 0.288365 -0.162113 0.441889 -0.378209 0.917847 0.046868 0.073064 -0.060279 0.733099 0.835433 0.537366 -0.719331 0.059162 0.596833 0.986647 0.115441 -0.169806 -0.594937 0.358160 -0.708307 -0.695635 -0.475343 -0.237542 0.593266 0.947066 -0.210280 -0.589267 0.218778 -0.604415 0.029693 0.385892 -0.589217 -0.659255 0.050852 -0.357967 -0.348784 -0.875681 0.449497 0.132409 0.226749 -0.820672 -0.758908 0.601813 -0.773314 -0.094177 0.536825 0.508362 -0.415498 0.642077 0.499517 -0.063227 0.855992 -0.620214 0.018502 0.508323 -0.210647 0.090040 0.513438 0.389331 0.599554 0.915467 -0.035958 0.232634 -0.770972 -0.344625 0.201214 0.379679 -0.288399 -0.143068 0.621471 -0.864562 -0.942575 -0.555408 -0.219810 -0.418209 0.035931 -0.518081 0.079388 0.665172 0.607975 0.745528 0.368187 -0.712629 0.277459 0.843459 -0.562366 -0.431004 0.306291 -0.965058 0.900990 -0.087653 -0.602008 1.007201 -0.928052
-0.525752 -0.819261 -0.285344 -0.310628 -0.647057 0.460760 0.983970 0.248550 0.517800 -0.738396 -0.818635 0.557794 0.395163 0.289759 -0.023339 -0.852925 0.849660 0.270452 -0.746735 -0.642383 -0.218727 -0.491170 0.577067 0.551873 0.791858 -0.840190 0.211486 -0.529559 -0.815294 0.961118 -0.480982 -0.167078 0.714865 -0.082204 -0.641914 -0.757509 -0.204623 0.074508 0.148264 0.061279 0.750934 -0.460686 0.714188 -0.345207 0.475125 -1.021351 -0.859242 -0.701449 -0.627376 0.484178 0.168601 -0.199508 -0.075117 -0.241406 0.344515 0.277644 -0.740420 0.119146 0.634380 0.957629 -0.746778 0.173409 -0.533876 0.545857 -0.231961 0.336000 -0.467558 0.024281 0.582965 -0.808485 -0.121064 -0.385116 0.351242 0.997633 -0.929835 0.643422 0.122724 0.585900 -0.348000 0.622240 -0.782291 0.314814 -0.425212 -0.456137 0.573672 -0.228560 -0.492520 0.814157 0.224095 -0.694212 0.448262 0.058681 0.335344 -0.046087 -0.913120 -0.541608 -0.025666 -0.947655 0.481835 0.688511 -0.401781 0.318865 0.379266 0.151357 0.373681 0.553182 -0.893158 0.537282 0.831053 0.347774 -0.305583 -0.164009 -0.554820 0.828397 -0.805130 0.730361 -0.237694 0.403993 0.877667 0.624168 -0.600947 0.799662 -0.286951 -0.463019 -0.602740 0.681860 0.651740 0.225497
-0.169831 0.296473 -0.657559 -0.786093 -0.575462 -0.683986 -0.483498 0.008948 -0.794662 0.969405 -0.932897 0.832956 0.745636 0.901323 0.112849 0.957003 0.260786 -0.684321 -0.996656 -0.183809 -0.380964 0.265640 0.017346 -0.693790 -0.579154 -0.396120 0.911575 0.107356 -0.322561 0.012517 0.779999 0.529655 -0.698287 0.073510 0.102268 -0.871446 0.080681 -0.986596 0.188073 -0.107383 0.816205 -0.648227 -0.556749 -0.693567 -0.966337 -0.675553 0.014807 0.751587 -0.674773 0.082224 -0.651109 -0.095610 -0.263135 0.501122 0.149289 0.933992 0.448103 0.953187 -0.738237 0.879931 -0.301448 0.042357 -0.886346 -0.119740 -0.044525 -0.085985 0.719872 -0.368132 -0.772797 0.614055 -0.529775 -0.256681 -0.672231 0.815538 -0.034967 -0.421531 -0.439681 -0.664471 -0.956092 -0.299541 0.345910 -0.089417 0.863514 0.087364 -0.515427 0.261693 -0.485743 -0.913203 -0.727199 -0.910087 -0.600783 0.601234 0.413109 0.478854 0.129064 -0.713256 -0.243802 -0.673455 0.716208 -0.214010 0.751786 -0.876047 -0.887720 -0.470706 -0.130839 -0.196316 0.543136 0.813745 0.416240 0.034516 -0.047364 0.102760 -0.150744 0.062782 0.872843 0.420082 0.460487 -0.547607 -0.733601 0.147793 0.218419 0.745726 0.741953 -0.409574 -0.930842 -0.402242 0.756659 -0.054520
0.523355 0.001682 0.830684 0.652376 -0.129755 0.107952 -0.914225 -0.051669 -0.697948 0.247161 0.501480 0.987410 0.087543 -0.941747 0.098381 0.192033 0.267318 0.185979 0.409310 -0.728449 0.224741 -0.105008 0.419155 -0.147345 -0.525906 -0.936869 0.535687 -0.348244 -0.201474 -0.035801 -0.704691 0.420911 -0.867769 -0.227658 0.577855 0.985278 -0.823683 0.175895 -0.011967 0.405205 -0.592815 -0.443882 0.852127 -0.306410 0.794519 0.312604 0.642222 0.727378 0.419437 -0.104276 -0.731119 0.399670 -0.380453 -0.259852 0.938102 -0.096562 0.661991 -0.449607 -0.205639 0.335967 0.126159 0.345014 0.073369 0.846630 -0.641249 0.360873 0.910668 0.218982 -0.565504 -0.359495 0.804739 0.252228 0.114331 -0.245760 0.868246 -0.717005 -0.627070 -0.554139 0.194096 -0.760058 0.094058 0.408081 -0.145699 0.595397 0.817997 0.118626 0.710205 -0.570378 0.631802 0.700975 0.067493 0.499746 -0.333194 -0.466003 -0.627704 -0.039029 -0.915437 0.144810 -0.595824 -0.876713 -0.898997 -0.801779 -0.490390 -0.983765 -0.691526 -0.072273 -0.140598 0.449289 0.811180 -0.389447 0.690924 0.507660 -0.025727 -0.093501 -0.820715 0.790453 0.333581 0.963406 0.535880 0.852860 -0.658576 -0.139210 0.261551 -0.666312 0.757849 -0.791740 -0.444983 0.832482
0.756939 -0.512743 -0.910039 0.134911 -0.073828 0.452786 -0.738279 -0.420621 -0.577220 0.444861 -0.089961 -0.517002 -0.936542 0.852772 -0.743381 0.838902 0.787678 0.423097 -0.691114 -0.349806 -0.337396 0.769589 -0.543213 -0.065975 0.967869 0.100545 -0.594756 -0.041497 0.754648 0.206785 -0.259059 -0.310343 0.178215 0.288150 -0.774834 0.733630 0.485634 0.577266 -0.060484 -0.322279 -0.481467 -0.402746 -0.540465 -0.941424 0.134359 0.396745 0.144643 0.552270 0.033885 -0.716233 0.356101 -0.263552 0.604325 0.665973 -0.315057 -0.930317 -0.270348 -0.900655 -0.575293 -0.590364 -0.660363 -0.894925 0.067242 0.301648 0.278869 0.876713 -0.920852 0.906021 0.277158 0.423806 -0.915999 0.911329 -0.771587 -0.025845 -0.524813 0.160681 -0.428636 -0.376079 0.450010 0.715213 0.924410 0.914746 -0.805179 0.775885 -0.690673 0.898201 -0.092817 -0.633332 -0.563986 0.003896 0.724025 0.636602 0.461875 0.989478 0.616204 0.182817 -0.079403 0.604110 -0.751129 -0.381017 0.605532 -0.490549 0.256747 0.178564 0.542876 -0.888185 -0.913270 0.757529 -0.416391 -0.257392 0.410057 0.523010 0.321865 -0.151624 0.839054 -0.034608 -0.173816 0.238422 -0.747961 -0.617366 -0.956068 -0.719114 -0.012934 0.764789 -0.999547 -0.683218 0.376406 -0.387081
-0.266607 0.328104 -0.157003 -0.461363 -0.104361 0.354730 0.616962 0.088208 0.712361 0.570159 -0.211545 0.109523 -0.111214 0.577621 0.072532 -0.083068 -0.990840 -0.772580 -0.749224 -0.271280 -0.004718 0.566354 -0.811366 -0.900672 -0.702892 -0.852526 0.796804 -0.599614 -0.466354 0.226556 0.379225 -0.273651 -0.323266 -0.640655 0.808800 0.581227 0.859221 -0.353970 -0.659602 -0.704074 0.626960 0.048040 -0.276700 0.383147 0.190017 0.051235 0.628362 0.366112 -0.434081 -0.767337 0.558122 -0.160763 -0.825608 0.516840 -0.765466 0.584701 -0.623301 0.132687 -0.948457 0.307429 -0.710892 -0.334873 -0.309864 -0.305623 0.555261 -0.986052 -0.816625 0.840104 -0.202783 -0.083078 -0.027673 -0.289818 0.479215 -0.506504 0.754438 -0.242955 -0.079145 0.687158 0.175967 -0.142561 -0.358811 0.506223 0.539154 0.008574 0.448909 0.562159 0.080216 0.195241 -0.376418 0.213157 -0.855453 0.508539 -0.794338 -0.124639 -0.267972 -0.104081 -0.765751 -0.259694 -0.211272 -0.068411 0.633791 -0.221338 0.488580 -0.112380 0.141459 0.750907 0.680299 -0.210716 0.874914 -0.055442 -0.358780 0.935040 0.915543 -0.678403 0.275994 0.663556 -0.012800 0.294362 0.449733 -0.604093 0.234344 -0.524540 0.679938 0.027953 -0.184794 -0.854136 0.015419 0.083398
-0.731124 -0.476095 -0.793014 1.145588 0.591973 -0.260248 0.558357 0.851640 -0.568065 0.371102 -0.116228 -0.894915 -0.761234 -0.567670 -0.153259 -0.256639 0.851654 0.906036 -0.731122 0.241498 -0.561994 -0.056974 0.797900 0.359731 0.219860 -0.674000 0.870567 0.961892 0.547710 0.324345 -0.556165 -0.420199 -0.771548 -0.944753 -0.810426 0.198165 0.449493 -0.213229 -0.114725 -0.434526 -0.959431 0.020935 -0.213708 0.391739 -0.105676 -0.373644 0.095805 0.604234 -0.092948 -0.596002 0.358492 -0.026729 -0.680058 -0.213682 0.421032 -0.948573 0.743264 1.074484 -0.779070 -0.521675 0.460981 -0.871118 -0.996969 -0.309705 0.789050 -0.385145 -0.625494 0.681215 -0.421499 0.086796 0.783635 -0.888143 -0.164824 0.714305 0.050380 -0.121194 0.907219 0.030732 -0.657680 0.455276 -0.474318 -0.418076 0.007383 0.810053 0.812706 -0.769129 -0.097586 0.016357 -0.226036 -0.737146 -0.096848 -0.485351 0.131479 -0.803188 -0.122145 0.805861 0.335656 -0.950960 0.074814 0.665670 -1.004448 -0.259085 0.818857 0.040924 -1.018163 -0.297189 0.287474 0.627540 0.434066 0.440523 1.028438 -0.696800 0.194335 0.807676 0.787518 0.180075 0.620525 0.232164 0.420730 -0.388056 0.805151 0.253497 0.085348 0.944898 -0.593135 0.707974 0.217810 0.776108
-0.444085 0.525173 -0.194043 -0.120247 1.016719 -0.650744 0.847348 -0.760374 0.695359 -0.582533 0.742027 0.323728 -0.286811 0.285569 -0.503104 -0.436867 0.626425 0.337440 0.897483 -0.480441 -0.409311 -0.614964 0.230942 0.517615 0.666018 0.735730 -0.497703 -0.742597 0.869763 0.513859 0.095671 -0.092228 0.878597 -0.998014 0.993357 0.794743 0.051222 -0.482073 0.163343 -0.211034 -0.394058 0.776215 -0.555057 -0.927261 0.221741 0.365809 0.751506 -0.700423 0.739074 0.468423 1.039035 0.490117 0.848053 -0.013122 -1.006104 0.823616 0.551764 0.547707 -0.245562 -0.790275 1.017380 -0.020880 -0.067520 -0.013095 0.427568 -0.800349 0.665684 0.608066 -0.523244 0.758124 -0.924739 -0.437547 0.068965 -0.909625 0.288336 -0.218652 0.574663 0.666760 0.275541 0.987554 -0.745657 -0.023086 -0.288566 -0.447612 -0.526693 -0.714977 0.803368 -0.527502 0.918692 -0.250969 -0.212676 0.677092 -0.860211 0.584902 -1.125118 -0.537341 -0.107964 0.266684 -0.083423 -0.024034 -0.916000 -0.865436 -0.100864 -0.542913 -0.151730 0.542634 -0.388398 0.811677 -0.614528 0.925161 -0.412275 -0.349486 -0.419124 -0.321649 0.464861 -0.186393 0.478785 -0.425707 -0.119750 0.329976 -0.434085 -0.000625 0.684576 0.386444 -0.399422 -0.052868 0.654504 -0.916621
0.824867 -0.342005 0.596188 -0.216282 0.422253 0.040453 -0.235998 0.886484 -0.241964 0.018784 0.352313 -0.699865 -0.966011 0.398772 -0.992030 0.778333 -0.770502 -0.575422 0.057815 -0.579877 -0.343891 0.648379 -0.348429 -0.583664 -0.235981 -0.566358 0.434966 -0.966362 0.997875 -0.265661 0.020962 -0.284152 -0.333663 0.437581 0.447701 0.894953 0.203665 -0.996630 -0.449700 0.889023 0.259948 0.525816 -0.702883 -0.648371 -0.537309 -0.936743 -0.442409 0.018191 0.422218 0.505287 0.902815 0.013192 -0.225062 0.681282 -0.111796 0.705397 0.285671 -0.274539 0.045840 -0.217549 -0.497060 0.315758 -0.524636 0.979643 0.522791 -0.589316 0.817178 -0.316026 -0.653497 0.065954 -0.822099 -0.565627 0.589568 0.216922 -0.579831 0.128715 0.116484 0.370011 0.899056 -0.834022 -0.045215 -0.777570 0.903521 -0.361174 -0.061520 0.976255 -0.934247 -0.763320 0.358942 0.514887 -0.800858 -0.715029 0.027531 0.293556 -0.275981 -0.214111 -0.879485 -0.697686 -0.244658 0.403792 0.193844 0.291987 -0.392486 -0.174144 0.444899 0.203477 -0.014449 -0.125127 -0.884548 -0.782239 0.844461 0.267138 0.163693 -0.753587 -0.542936 -0.830115 0.243085 -0.922068 -0.172922 0.520170 -0.497789 -0.179413 0.416730 -0.431453 0.345519 0.877719 0.282367 -0.336810
0.730690 -0.572512 -0.074541 -0.664795 -0.475545 0.336151 -0.854523 -0.817170 0.097837 0.080488 0.632243 -0.957795 -0.253382 -0.380855 -0.702600 -0.331558 -0.371176 0.704144 -0.343495 0.457724 0.277515 -0.991927 -0.409216 0.842723 -0.638229 -0.110440 -0.700444 0.390518 -0.364643 -0.321809 -0.391437 -0.131451 -0.361044 0.608467 0.528964 0.991234 -0.570822 0.117637 0.783336 -0.624907 -0.685035 -0.168211 0.100344 0.127659 0.166161 0.465421 -0.355886 -0.514028 -0.526210 0.747975 -0.085254 0.227703 0.784263 0.746236 -0.141296 0.065942 -0.672007 0.692811 -0.066175 -0.342961 -0.733824 0.073563 -0.911181 0.345887 0.901564 0.914833 0.593489 -0.930257 -0.400807 -0.030964 0.785535 0.353803 -0.507998 -0.853014 -0.804071 0.394149 -0.701828 0.729895 0.646688 0.619078 -0.561882 0.442519 0.435332 0.311009 -0.893681 0.651975 -0.186754 -0.077044 0.773279 -0.234151 -0.968675 0.702214 -0.106996 0.236222 0.014485 0.710481 0.122648 -0.887255 0.130851 0.568098 0.915355 0.779502 -0.645150 -0.543801 0.808420 0.298132 -0.001118 0.712297 -0.777547 0.351335 -0.497096 0.870144 0.581304 0.350812 -0.384080 -0.639734 -0.399986 -0.743514 -0.151399 -0.167410 0.952404 -0.950464 0.704274 0.509596 0.251278 0.876864 -0.207246 -0.633358
-0.819467 0.342811 0.835271 0.181354 0.135845 -1.018278 -0.924367 -0.230970 -0.168170 0.850495 -0.225806 0.335912 0.289947 0.604082 -0.330369 0.637972 -0.487317 0.070193 0.279202 -0.305029 0.148422 0.960236 1.215979 -0.084925 0.587748 -0.493868 -1.027828 -0.832927 0.668188 -0.391135 0.853420 -0.208735 0.414001 0.257449 -0.795568 -0.227227 0.394790 0.184482 -0.530838 0.572190 -0.354150 -0.215397 0.141192 0.208075 -0.414424 0.829256 -0.444146 0.363472 0.086942 0.315900 0.032449 -0.223185 -0.909638 0.800414 0.336877 -0.432493 0.773638 -0.440289 0.532983 0.730181 0.686623 0.469816 0.236601 0.120754 -0.823607 0.532843 0.966438 -0.185325 -0.596329 0.628866 -0.319913 -0.906207 -0.840878 0.329862 0.007413 0.805828 -0.640273 -0.041180 0.505881 0.849753 -0.840511 0.703133 0.425411 0.158263 0.118201 -0.910217 0.844240 -0.321371 -0.209686 0.516947 -0.650133 0.367500 -0.432808 0.055289 0.943389 -0.828737 0.927727 0.564204 0.027440 0.567664 0.504209 -0.063663 -0.317131 -0.765927 -0.784908 -0.755510 -0.032835 0.264871 -0.909137 0.099779 0.546574 -0.679264 0.885775 -0.099919 0.083747 -0.489754 0.586869 -0.697585 0.962099 -0.662264 0.907373 0.191937 0.165821 -0.272274 -0.804533 0.846759 -0.309172 -0.047448
-0.428929 -0.775240 0.607513 0.766285 0.329729 -1.009070 -0.654117 -0.032675 0.894620 0.802803 0.694268 0.756756 0.103656 -0.889695 -0.544990 -0.807194 0.435126 -0.170043 0.905304 -0.989886 0.587763 -0.119796 -0.131207 0.587900 0.328246 -0.380513 -1.064234 -0.018951 0.472599 -0.591155 0.786507 0.610011 -0.914884 -0.756447 -0.611108 -0.797893 0.341745 -0.121042 -0.326789 -0.591793 -0.942019 -0.790100 0.650621 -0.524149 -0.014318 -0.611004 0.847288 0.385255 0.498203 0.721915 0.776628 0.152309 -0.565461 -0.058015 -0.446412 -0.933840 0.871422 -0.556691 0.914266 0.885361 -0.860556 0.800226 -0.979634 -0.102188 0.920470 -0.156744 0.120073 -0.237671 0.347804 -0.873398 0.682759 -0.383874 -0.102807 0.375440 -0.001305 0.629066 -0.599137 -0.645472 0.604393 -0.180758 -0.582941 0.538875 0.746096 -0.033949 0.450415 -0.024863 -0.068868 0.187664 -0.470343 0.428858 0.982170 0.292403 -0.928845 -0.196361 0.132731 0.023304 -0.538984 0.387161 -0.280064 0.617820 0.120082 -0.961356 -0.312619 0.481899 0.773913 -0.085386 -0.044711 0.720610 -0.615046 -0.816551 0.160290 -0.841575 -0.200146 -0.744417 -0.585570 -0.477562 0.294485 -0.567580 -0.222794 0.345647 -0.869244 -0.625945 -0.185245 0.667097 0.194765 0.166334 -0.679768 -0.092171
-0.384201 0.796371 0.933328 -0.346522 -0.620869 0.942272 -0.443149 -0.202388 -0.199571 0.647880 0.317635 -0.705260 -0.924637 -0.354324 0.728870 0.775360 -0.175819 -0.990491 0.066986 0.121819 -0.573179 0.149390 0.268782 -0.005709 -0.403219 -0.512009 0.480025 0.886645 0.115194 -0.547986 -0.769441 0.390983 -0.847291 -0.486196 0.601862 0.513029 -0.545613 0.414655 0.473578 -0.090846 0.714661 0.920042 -0.869054 0.252209 -0.245569 -0.914115 -0.869840 -0.736281 0.719589 0.008541 0.814283 0.525918 0.588628 0.717979 -0.079581 -0.181726 -0.860639 0.701461 0.329970 0.305116 0.738479 0.641580 -0.793866 0.536597 0.192399 0.224953 -0.564096 0.498536 0.804843 0.030160 -0.525212 0.434330 0.510108 0.913558 -0.486280 0.872297 0.635690 -0.388235 0.911304 0.646909 0.794201 -0.875401 -0.596205 0.002893 0.723343 0.708956 -0.565414 0.665623 -0.015030 -0.446460 0.556336 0.840292 0.860100 0.097935 -0.137085 -0.347862 -0.825982 0.170844 -0.077508 -0.166813 -0.829067 -0.803664 -0.916144 -0.131079 -1.002581 0.458700 -0.109006 0.780079 0.520179 -0.066500 -0.190323 -0.715920 -0.900712 0.773146 -0.486467 -0.156736 -0.940546 -0.305715 -0.222240 -0.956253 -0.418906 0.203412 0.928775 -0.555166 -0.884948 -0.227126 -0.271501 0.828685
0.777231 0.942273 -0.551991 -0.807354 -0.303474 -0.912672 0.272346 0.228531 0.997227 -0.399528 0.572241 -0.331383 -1.005014 -0.263973 0.049047 0.746888 -0.322732 0.645686 -0.472033 -0.964422 -0.991483 0.268305 -0.024842 0.720954 0.128028 -0.193008 -0.332901 0.961222 -0.466070 -0.878950 0.344723 -0.207483 -0.496467 0.542942 -0.089939 0.866213 0.701759 0.818306 0.715344 -0.752394 -0.699398 0.782651 -1.016675 -0.606450 -0.039178 -0.425994 -0.358041 -0.655621 0.987349 0.587236 -0.214140 0.863989 -0.442362 -0.957203 -0.106669 0.073401 0.444245 0.382890 0.308023 -0.364699 0.933497 -0.685343 -0.481878 0.680545 0.353519 0.094222 0.829888 0.125394 0.225661 -0.503248 -0.162017 0.192888 0.143848 -0.701173 -0.099867 -0.647150 0.468845 -0.232606 0.429970 -0.505652 -0.846072 0.956216 -0.325985 0.002342 1.007909 0.729786 0.114938 -0.298685 -0.167823 0.007723 0.642933 -0.453172 -0.962171 -0.619742 -0.388353 0.281725 0.260037 0.898414 0.627578 0.094993 -0.402920 0.449793 0.528439 0.795005 0.717804 -0.393346 -0.635453 0.491056 0.253029 -0.511222 0.804403 -0.918273 0.168296 -0.001444 -0.922416 0.833116 0.350891 0.450987 -0.172102 0.758393 -0.083797 -0.090492 0.201727 -0.507004 -0.055656 0.106048 0.001764 -0.765176
-0.435017 -0.173156 -0.679465 -0.409554 0.802754 -0.633627 -0.687553 0.803800 -0.704300 -0.495157 0.062642 -0.489417 0.553719 -0.352619 0.531828 -0.134470 0.160417 -0.359831 0.456541 -0.385860 -0.894331 0.452052 -0.079065 -1.009461 0.918048 0.787014 0.871081 -0.765113 0.250073 0.016134 0.677270 0.664954 0.519563 0.595087 0.119704 0.985472 0.539412 -0.631660 -0.657819 -0.910899 -0.717138 -0.523307 0.698984 -0.757673 -0.555461 0.469318 -0.428699 0.530525 0.579818 0.567501 0.926099 0.250583 -0.342821 -0.462946 -0.259627 -0.388428 -0.999741 0.299867 -0.934086 -0.619415 0.949635 0.816248 0.449947 -0.629729 -0.329767 -0.227274 -0.511966 -0.467440 0.702983 0.804600 0.506507 0.645162 -0.003961 -0.608617 0.235016 0.146345 -0.275348 0.391407 0.427349 0.317500 -0.308937 -0.370980 -0.929974 0.338162 -0.880873 -0.399640 -0.186164 -0.044850 0.266704 -0.574028 -0.365482 1.146460 -0.256822 0.296164 0.181565 0.784015 -0.216288 -0.232516 0.075512 -0.229335 -0.009354 0.209022 -0.383609 0.793083 0.140835 -0.559245 0.667780 0.416775 0.194188 0.817497 0.904654 0.562019 -0.483352 0.491609 -0.752880 -0.848982 -0.568457 -0.540062 -0.818249 -0.947550 -0.857963 -1.019046 -0.394743 -0.327345 -0.312741 0.833927 0.485769 -0.804215
0.643549 0.272027 0.712286 -0.578957 0.779750 0.696211 0.257100 0.596996 0.532820 0.121789 -0.739344 -0.655573 0.491807 0.620791 0.321236 1.002201 0.751193 -0.068016 -0.387500 0.571626 -0.505804 0.175670 0.372309 -0.894432 -0.195901 -0.102135 1.007686 0.025070 -0.022248 0.310182 -0.766187 0.174491 0.498975 0.048784 -1.102126 -0.193457 0.351497 -0.243700 0.561921 0.515473 -0.113778 0.869387 0.560015 0.056750 -0.319083 -0.005055 -0.557563 0.556641 -0.336873 -0.327254 0.433663 -0.401121 -0.981252 0.018365 -0.501474 -0.031106 0.472604 -0.136115 -0.091288 0.933434 0.534661 0.005777 0.274837 -0.200459 -0.557988 -0.744446 -0.665929 0.205894 0.273491 0.125453 0.705574 0.248094 -0.493867 0.072647 0.779344 0.802449 -0.245659 -0.558543 -0.875975 0.740478 0.792837 -0.440809 -0.681512 -0.448337 0.697014 0.799407 0.265040 0.686352 0.645331 -0.577493 0.576052 -0.869189 0.234848 0.007458 -0.899042 -0.166778 0.720556 -0.673105 0.276765 0.710657 0.858649 0.785480 0.645814 0.212221 0.743933 -0.437150 -0.111776 0.937159 -0.845015 -0.321751 0.582468 0.611313 -0.915198 0.443857 0.116161 0.753794 -0.716148 0.113625 -0.973683 0.278974 0.557468 -0.762598 0.660146 0.147762 0.583656 0.809688 -0.544363 -0.799323
-0.752292 -0.888262 0.633656 -0.969732 -0.208085 0.186489 -0.941162 0.642749 0.057985 0.861156 -0.359609 0.231880 0.241703 0.643420 -0.188672 0.674971 -0.104987 0.739696 0.487913 0.813466 -0.199665 -0.533113 0.650774 -0.189161 0.391261 -0.036938 0.498098 -0.755881 -0.748404 0.400046 0.707432 0.594281 -0.593981 -0.857582 -0.528927 0.654353 0.791222 0.897928 -0.467094 -0.721623 -0.365411 0.759776 0.435558 -0.494402 -0.637734 -0.805239 -0.767909 -0.101333 0.343580 -0.197788 0.661399 -0.024163 0.244727 -0.787705 -0.716886 0.637968 0.139089 0.467913 -0.876506 0.027256 -0.661514 0.421133 -0.391739 0.616229 0.963191 0.691442 -0.263281 -0.921440 0.264971 -0.245561 0.262148 -0.065030 0.642147 0.319132 -0.081841 0.298772 0.789163 0.784297 -0.565914 -0.973376 -0.650708 0.611947 0.697946 0.172292 0.730034 -0.068691 0.841729 0.431039 -0.966785 0.480560 -0.407509 0.898671 0.603186 0.330751 0.272654 0.081786 -0.144575 0.859982 -0.876415 -0.911848 0.678192 -0.128786 0.257820 -0.839273 0.372668 0.891606 -0.956099 -0.545704 -0.859594 -0.452549 -0.145030 -0.774968 -0.191298 -0.375272 0.230380 0.689460 0.726018 -0.029357 0.648921 -0.181497 -0.530649 -0.049694 -0.182274 -0.948781 0.414178 0.626733 -0.601709 -0.733910
-0.152349 0.187434 -0.279372 0.417855 0.542012 -0.369036 0.335403 0.126079 -0.126704 0.431761 -0.441815 -0.118411 -0.087720 -0.145575 0.859183 -0.653265 0.185563 -0.929763 -0.911324 0.138232 -0.828540 0.928527 1.038023 0.989940 0.284188 0.716708 0.513738 -0.774690 -0.773866 0.074590 1.071528 -0.830908 0.038113 -0.396423 0.359181 -0.019881 0.584373 -0.246108 0.746236 -0.701467 -0.251718 -0.238296 0.599612 0.180190 0.400480 0.317066 -0.009257 -0.579836 0.909567 0.633775 -0.811806 -0.130567 -0.009580 -0.000550 0.509087 -0.685528 0.466382 -0.525055 0.126936 0.713052 -0.078491 0.690648 -0.887598 -0.176078 0.996706 0.750830 0.150219 -0.497780 -0.390670 0.572101 0.482529 0.406201 0.714125 1.110631 0.491567 0.404601 0.168459 -0.132766 1.071951 -0.098824 -0.537590 -0.168389 -0.174400 0.427294 0.881265 -0.675621 -0.832339 0.008278 0.541663 0.135790 0.858664 0.230211 -0.845978 -0.502795 0.625899 0.469744 0.421571 -0.225995 0.692709 -0.217509 0.708831 -0.808213 0.158020 0.914725 -0.945163 -0.568380 0.781387 -1.092571 -0.907995 -0.892847 0.147987 -0.558107 0.835186 0.787497 0.413891 0.715322 -0.403435 -0.053577 -0.718282 -0.978330 -0.150984 -0.554291 0.117275 -0.038405 -0.973605 -0.061384 -0.057137 0.231815
-0.828071 -0.315861 0.372041 -0.808662 0.371920 0.489585 0.929277 -0.955117 0.118585 0.853214 -0.264406 -0.841181 -0.893160 -0.329510 -0.845680 -0.788778 0.811980 0.252525 0.908359 -0.935947 -0.186080 -0.754673 0.520337 0.668252 0.096674 0.437918 0.704591 0.100450 0.145341 -0.783599 -0.054398 -0.196808 0.447935 0.178881 -0.267695 -0.080620 -0.178877 -0.061365 -0.102811 0.949411 -0.448482 0.869639 0.070543 -0.987423 -0.339234 -0.453702 -0.610042 0.709725 -0.363566 -0.619911 -0.310592 -0.175661 0.483665 -0.581018 -0.506768 -0.749823 -0.193612 0.450661 0.145110 -0.356603 -0.184257 0.319834 -0.878060 0.510552 0.750370 -0.227103 0.886908 -0.372300 0.253558 -0.990052 0.796822 -0.803546 0.574837 0.620780 -0.003019 -0.982152 -0.116071 -0.191527 -1.025530 0.880007 -0.715930 0.395510 -0.009540 -0.618693 0.301691 0.606782 0.903797 -0.812905 0.863891 0.224243 -0.633960 -0.668891 0.862133 0.165105 0.215314 -0.094450 0.796343 -0.541658 0.134929 0.011168 0.892800 0.925694 -0.225759 -0.010136 0.785380 -0.231305 -0.689293 -0.707951 -0.231904 -0.033874 0.492583 -0.243433 -0.780320 0.298109 0.895652 -0.495399 0.927665 0.067360 0.303767 -0.756516 -0.061748 -0.241816 -0.713325 0.517101 0.729435 -0.896662 -0.541793 -0.621519
0.382341 0.014732 -0.119152 -0.490827 -0.289243 -0.300117 -0.526308 -0.111810 0.669707 0.254274 -0.058128 -0.544594 0.546393 -0.262131 -0.975338 0.754136 0.424863 -0.789286 0.918429 -0.710214 0.748888 -0.956560 -0.261635 -0.288821 0.279562 0.171628 -0.465448 -0.584362 0.519948 -0.972401 0.306918 -0.783884 0.845033 -0.561931 -0.867021 0.627438 -0.828547 -0.162772 0.476390 -0.574095 -0.416587 0.134545 -0.418941 -0.171700 0.331615 0.660877 0.456379 -0.580264 -0.588761 0.807202 -0.264124 0.513174 -0.840981 -0.018553 -0.791304 0.640029 0.722206 -0.576571 -0.926960 -0.265678 -0.136379 0.376115 -0.514997 -0.138093 0.120763 0.648858 -0.257755 -0.354686 -0.307180 0.401973 0.507568 -0.226573 -0.740566 0.969749 0.829906 0.453058 0.810276 -0.036378 0.041718 0.380135 -0.743590 0.533555 0.334802 -0.990460 0.636580 -0.185598 0.229675 -0.203383 -0.002273 0.353639 -0.893808 -0.047913 0.001017 -0.116994 -0.355071 0.355698 -0.380579 -0.869856 0.758252 0.174281 0.831404 -0.879318 -0.938724 0.905778 0.345657 -0.027279 0.721177 -0.625768 -0.504407 -0.970834 -0.244897 0.865487 -0.606679 0.098066 0.075212 -0.237891 -0.787011 0.773081 0.607215 0.647123 0.941520 0.835405 0.876889 0.845140 0.274929 -0.901225 0.571068 -0.078327
0.862727 -0.278040 0.564673 -0.555579 -0.756308 0.573745 -0.180804 0.225767 -0.678011 -0.358799 -0.310214 -0.575701 0.457456 0.830508 -0.141340 0.107933 -0.637150 0.794102 0.932599 -0.004631 0.819712 0.513091 0.003877 0.354576 0.435014 0.381414 0.117148 0.483162 -0.880118 0.749023 -0.331300 -0.724338 0.216822 -0.391809 0.258243 0.573961 -0.753201 0.661431 -0.932557 0.632878 -0.199392 -0.664119 -0.906166 0.368033 -0.927957 0.511561 0.634749 -0.806730 0.618185 0.460300 0.430940 -0.276074 0.526087 0.633937 -0.715108 0.810116 0.983221 -0.349014 -0.154171 0.522890 -0.069950 0.718385 0.752675 -0.519423 0.823527 -0.552998 -0.932781 0.658108 0.594754 0.567235 0.358618 0.883853 0.569785 -0.231337 0.424847 0.708136 0.924937 -0.458917 0.281548 -0.578383 -0.779935 -0.098994 -0.317041 0.152696 -0.068430 0.837132 -0.462215 -0.242352 0.613128 0.457121 -0.392726 -0.868672 -0.839530 -0.841760 0.154289 0.986586 -0.943189 0.432577 -0.106612 -0.694893 0.619009 0.295475 -0.316051 0.499969 -0.853144 -0.933166 -0.224327 -0.460963 -0.998474 0.220735 -0.754183 -0.925493 -0.156479 0.965696 0.021546 0.317453 -0.974581 -0.142550 -0.289811 0.323125 -0.639812 0.475579 -0.883359 -0.911698 -0.121712 0.966184 0.495367 -0.430415
-0.239854 -0.932204 0.915875 0.271562 0.588894 -0.655193 -0.697758 0.680728 -0.259036 -0.155065 0.016208 -0.183684 0.415939 0.863171 -0.073767 -0.517952 -0.660919 -0.991031 -0.795670 0.738729 -0.033233 0.941986 -0.203824 0.462449 0.945732 0.056518 0.778060 -0.967446 -0.615783 -0.730128 0.209212 0.539690 -0.151625 0.111341 -0.140312 -0.894350 0.264046 -0.483671 -0.882990 0.220042 -0.027724 -0.652734 -0.084157 0.419918 -0.687624 0.700257 0.703980 0.026148 0.520415 0.073841 0.869651 -0.037244 0.352443 -0.875637 -0.680580 -0.066181 0.154863 0.602448 0.458334 -0.410437 -0.192295 0.967735 0.564529 -0.992969 0.198065 0.414241 -0.495918 -0.718215 -0.878419 -0.143308 0.765788 -0.971501 0.823394 0.202280 0.315923 -0.465406 0.769043 0.934925 -0.064467 0.317110 -0.238660 -0.701128 0.028131 -0.710363 0.630978 -0.396854 -0.275990 -0.495395 0.408639 0.035487 0.952295 0.905570 -0.378132 0.104300 0.218952 -0.591394 -0.256031 0.915956 0.551337 -0.348731 0.854797 0.692488 0.549531 0.345694 -0.726777 -0.723664 -0.175398 -0.605495 0.465435 0.332397 0.273129 0.268300 0.255188 0.547660 -0.318973 0.828274 0.522516 0.083949 -0.704896 0.610748 -0.760896 0.289226 0.288279 0.132621 0.988339 -0.664308 -0.900852 0.781494
0.797338 -0.920970 -0.469992 -1.008173 0.856898 -0.790045 0.014873 0.669117 0.572850 0.980675 0.943834 -0.393490 0.968084 -0.951296 -0.387325 0.332028 0.032665 -0.366132 0.234898 -0.465218 -0.941103 -0.388512 -0.264637 -0.543743 -0.870184 0.821540 -0.810479 -0.004655 -0.474796 -0.025146 -0.245494 -0.342137 0.664582 -0.779566 0.025999 -0.132915 0.312311 -0.884040 -0.719166 0.609984 0.230520 -0.243789 0.329626 0.070029 0.659113 -0.467633 -0.950140 -0.640169 0.623369 -0.039381 -0.292349 -0.113205 -0.800512 0.186965 -0.839885 -0.925592 0.958520 0.089732 -0.998503 -0.305784 -0.927887 -0.444331 -0.500024 -0.730207 -0.004313 -0.614214 0.721710 -0.866419 0.101182 0.964290 0.021906 -0.035876 0.985178 0.412914 -0.015217 0.919426 0.579116 -0.750911 0.520941 -0.771896 0.904851 -0.737443 -0.112368 0.695236 0.110092 0.025236 0.093700 0.822861 0.694292 -0.881951 -0.875037 -0.279161 0.322822 -0.229819 -0.397554 0.856432 0.717842 -0.785995 0.663818 -0.686608 -0.010524 -0.183764 -0.149552 0.569863 0.966370 0.655688 0.193473 0.555924 -0.152285 0.287762 0.127164 0.402245 -0.989439 -0.046934 -0.822832 -0.586268 0.801658 -0.865792 -0.047683 0.901939 0.425276 -0.299342 -0.536615 0.081171 -0.074606 -0.417160 -0.130089 0.051415
0.556541 -0.707080 0.504106 0.843388 -0.916166 0.131714 0.841904 -0.050590 -0.014363 0.835786 -0.142352 -0.301940 0.506574 0.151491 -0.334510 0.688972 -0.192205 0.086159 -0.532530 -0.634066 0.374747 0.098221 1.127351 0.521867 0.689557 -0.107121 -0.496722 0.406272 0.584993 -0.962112 -0.039140 0.758383 0.420666 -0.092676 0.040861 -0.676847 0.318681 0.659247 -0.258995 -0.000185 0.238644 0.800048 -0.447229 -0.941143 0.155727 -0.694899 0.552172 0.509104 -0.690037 -0.949649 -0.600045 -0.623639 0.382667 -0.033187 0.912141 0.590952 0.581964 -0.856872 0.539085 -0.764590 -0.034458 0.026100 0.521674 -0.293398 -0.564396 -0.601620 0.161104 -0.703736 -0.388711 0.540775 0.488839 0.023990 -0.935658 0.807774 0.941524 0.750998 0.506603 0.333398 -0.088309 -0.274807 0.784666 0.056343 -0.551014 -0.394156 0.346559 0.359506 -0.767832 -0.574962 0.983511 0.620209 -0.357741 0.725072 -1.008669 0.055242 -0.335860 0.796429 -0.439007 -0.389088 -0.348184 -0.237187 -0.320183 0.420811 0.071459 -0.162978 -0.991929 -0.363686 0.022266 0.198111 -0.537000 0.868009 0.316505 -0.189624 -0.271202 0.347291 0.142432 -0.077632 -0.264817 0.446396 -0.206819 -0.380612 0.197252 -0.636040 0.461710 -0.318662 0.052429 0.814502 -0.465267 -0.472624
0.849938 -0.325933 0.617180 -0.173630 -0.806656 0.650758 0.604376 -0.406374 0.898237 0.695717 -0.533575 0.296684 -0.383493 0.940882 0.691257 -0.346877 0.972116 0.026427 0.284732 0.123684 0.412970 -0.115884 -0.529909 -0.765392 0.196135 0.878745 0.397065 0.138986 -0.639835 0.485656 0.537570 0.792271 -0.129365 0.298675 0.337738 -0.186332 -0.170840 0.968200 0.641617 0.164446 -0.507001 -0.702767 -0.533429 0.155043 0.161325 0.727568 0.620742 0.740998 -0.008946 0.581734 0.606634 -0.196037 -0.224620 0.203164 0.823511 -0.422979 -0.881976 -0.774817 -0.549426 0.101877 0.507656 -0.575956 0.070639 0.465237 -0.305814 0.849184 0.632053 0.585377 -0.764848 -0.497017 -0.730945 0.972081 0.947109 -0.609666 0.611084 -0.199289 0.647379 -0.205723 -0.491256 -0.812424 0.476710 0.787456 0.613349 0.926956 0.735407 0.754614 0.525494 0.079648 -0.601910 0.781754 0.516026 0.241448 0.288461 -0.519670 0.822500 0.128992 -0.335414 -0.801260 -0.630076 0.207806 -0.468175 -0.499848 0.551894 0.180503 0.698030 -0.996735 -0.826688 -0.749627 -0.923456 -0.514277 0.582144 0.380539 0.376390 0.156550 0.734290 0.422458 0.609468 -0.938209 -0.031752 -0.632047 -0.195484 0.307659 -0.135023 -0.963435 0.219768 -0.146785 -0.457406 0.179026
-0.333787 0.589345 -0.069640 0.786637 0.519559 0.007814 0.791925 0.062779 0.844096 -0.042156 -0.650531 -0.655057 -0.923531 -0.718331 0.106358 0.412429 -0.282434 -0.415338 -0.255483 0.832945 -0.031644 -0.714181 0.243853 -0.154746 0.817983 -0.861743 -0.393406 -0.355931 -0.094182 0.661712 0.934694 0.881653 0.506624 0.150581 0.880518 -0.703147 1.048168 0.171835 -0.492706 -0.056508 0.292744 0.164620 -0.054815 0.023725 0.903819 -0.721274 0.927422 -0.727048 -0.373849 -0.361223 -0.101575 0.096018 0.727826 0.763737 -0.063938 0.098195 0.610906 0.321683 -0.964802 -0.239661 -0.337599 -0.566767 0.456513 0.424372 -0.442991 0.596481 -0.140457 0.594282 0.749719 0.899235 -0.753547 0.396509 0.015331 0.659870 0.182924 0.111966 0.462851 0.709256 -0.557994 0.478375 0.551667 0.933470 0.797182 -0.713394 0.040618 0.579031 0.560715 0.105702 -0.477060 -0.140738 -0.948268 -0.984276 0.593044 0.374408 0.990852 0.107846 -0.267754 0.546691 0.560368 -1.049366 0.062330 -0.468732 -0.685908 -0.183928 -0.501890 -0.846262 0.007547 0.762619 -0.170240 0.917681 -0.187718 -0.697933 0.303423 0.105715 -0.789895 -0.596053 0.443530 0.680012 0.901544 -0.433438 -0.884833 0.560611 -0.708377 -0.627268 0.295088 0.136956 -1.057687 -0.597416
-0.791016 0.487328 0.827977 0.503596 0.831621 -0.069999 0.422445 0.645939 -0.054034 -0.961205 -0.935787 0.325119 0.934002 -1.004503 -0.179889 0.738795 -0.719202 -0.532712 0.302155 0.196707 0.953600 -0.022938 -0.661832 0.826980 -0.699668 -0.776265 -0.496607 -0.601116 0.820063 -0.650407 0.894860 -0.148952 0.335138 0.251669 -0.849928 -0.574080 -0.283148 -0.152390 0.888882 0.576904 0.891076 0.098704 -0.749597 -0.687083 0.323776 0.872411 0.032506 -0.282376 -0.842603 0.405242 -0.792517 -0.003775 -0.250996 0.819241 0.802580 0.259944 -1.093870 0.278509 -0.521631 0.801651 -0.755569 0.300641 -0.848505 0.278963 -0.825270 -0.158621 0.801428 -0.788935 -0.391341 -0.435500 -0.227524 -0.271504 -0.119960 0.731949 0.067493 -0.475583 0.622716 -0.145826 0.865021 -0.379845 0.626994 -0.071789 -0.728329 0.078132 -0.010934 0.110877 -0.372815 -0.747595 0.906907 0.941976 0.111846 1.038433 -0.721951 -0.355431 0.268598 0.048210 0.887085 0.646529 0.891600 -0.916520 -0.377381 0.159418 0.736023 0.795856 0.237306 0.653651 -0.638397 0.145855 0.456900 -0.810104 0.180302 0.861621 -0.348269 -0.199868 0.940016 0.276406 -0.178727 0.327867 -0.697182 -0.534791 -0.694128 -0.836502 -0.900220 -0.998101 -0.458295 -0.365769 -0.568850 0.110176
-0.560806 -0.902477 0.873312 0.113556 -0.219544 -0.254630 -0.373230 -0.968128 0.145900 0.422182 -0.617092 -0.903394 -0.066149 0.474606 -0.328224 0.136767 -0.290772 0.293907 0.393695 0.718960 0.938293 0.748855 0.223019 -0.100241 -0.001655 -0.777828 0.532970 0.774074 -0.660229 0.031947 -0.297197 -0.132116 -0.340160 0.573322 0.611043 -0.491142 -0.768508 0.986764 0.723755 0.335158 0.637024 0.658841 -0.060294 0.299787 -0.638153 -0.803805 -0.294497 0.913414 0.417580 0.527190 -0.767839 0.963982 -0.566804 -0.887401 -0.549959 0.749384 -0.022499 0.247574 0.965586 0.926015 -0.896552 -0.925645 -0.847096 -0.509316 0.051771 0.376517 0.338666 -0.032204 -0.319446 -0.108754 0.546218 -0.780908 0.333615 0.225962 0.453129 -0.398797 -0.226174 1.053022 0.102682 -0.844603 0.550687 0.736254 0.198070 0.679430 0.558229 -0.136475 -0.476893 -0.127467 -0.003742 -0.460375 -0.025889 -0.716872 0.649689 -0.736107 -0.891105 -0.116859 -0.341498 0.186676 0.890975 0.003813 -0.795667 0.393972 -0.040646 0.699265 0.539510 0.151368 0.684513 0.421604 0.181086 0.544797 0.951305 -0.534751 0.681525 0.451493 0.064727 0.386597 0.230134 -0.583467 -0.611351 -0.795139 -0.622082 -1.005051 0.453440 0.797867 -0.039943 -0.885004 0.276799 0.626916
-0.418600 -0.585124 -0.012283 -0.446731 -0.230894 0.006518 0.508231 0.071619 0.540651 -0.782446 -0.353677 -0.057453 0.017631 -0.869487 0.980967 -0.336121 0.717644 0.923305 0.672911 -0.389724 -0.025870 0.935668 0.319934 0.576766 -0.842888 0.641198 -0.368156 0.709019 -0.888007 -0.480686 0.484921 -0.342919 0.010138 0.254806 -0.499431 -0.277831 -0.535123 0.849922 0.599614 0.353924 0.055740 0.578505 -0.350865 -0.906473 0.954627 -0.287956 0.166261 0.638174 0.729309 0.211538 0.060270 -0.386279 0.065543 -0.198966 -0.509388 0.755650 -0.714782 -0.873328 0.126257 0.207685 0.543159 0.323969 -0.256055 -0.480347 0.269040 -0.507563 -0.467915 0.591524 -0.486810 0.007324 0.546789 0.270144 -0.092747 -0.294860 0.257830 0.235575 0.924352 0.079845 -0.639995 0.394804 0.067881 0.144475 0.570560 -0.029715 -0.010856 -0.848713 -0.733050 0.007239 0.662017 0.274693 -0.683934 -0.172235 -0.695577 0.006658 0.781989 -0.143375 -0.140917 -0.570293 0.059911 0.222341 -0.095270 0.400158 -0.977296 0.202069 0.891569 0.369747 0.490484 -0.662080 0.540679 0.136123 -0.935662 -0.898907 -0.866281 -0.990931 0.496267 0.558089 0.459893 -0.946068 -0.685761 -0.519376 0.033044 -0.754476 0.059934 -0.883777 0.619917 -0.224817 0.121413 0.015840
0.086126 0.020088 0.054223 -0.821620 -0.888376 -0.620674 -0.085349 -0.288486 -0.446150 0.168832 0.997030 0.797748 0.127324 0.081237 -0.413834 -0.105323 0.750587 0.987946 0.077207 -0.936990 -0.440646 -0.091633 0.789276 -0.458577 -0.195297 -0.199764 0.635736 0.080581 -0.071990 0.528628 0.421852 -0.684868 0.885038 -0.539106 0.426824 -0.012500 0.608843 -0.717201 -0.510717 -0.410456 0.069556 -0.150967 1.065692 -0.634881 -0.873296 0.723047 -0.205630 -0.321536 -0.289214 0.288052 -0.447595 0.893669 -0.173364 -0.110825 -0.606707 0.560288 -0.893109 1.204012 -0.161115 0.325522 -1.015405 0.816564 -0.950309 0.311146 0.118812 0.298294 -0.321588 -0.117239 -0.797679 -1.085550 -0.203171 -0.001332 -0.076265 -0.131678 0.248842 -0.953767 0.670553 -0.463385 -0.596928 0.459581 0.444614 -0.833379 0.625387 -0.551455 -0.463997 -0.278886 -0.901355 0.257176 0.497943 -0.959921 0.119550 0.627575 0.924060 -0.328597 0.346738 -0.969835 -0.492029 -0.673950 -0.860331 0.007038 0.944728 0.458813 -0.543609 0.688018 0.674646 -0.212348 -0.630489 -0.025033 -0.514035 0.791124 -0.599981 0.806268 -0.348829 0.089750 -0.860010 -0.106457 0.685441 -0.321028 0.841386 -0.602753 -0.455226 0.661990 0.618812 0.381947 0.824056 0.156782 -0.351694 -0.446097
-0.540028 0.314510 0.579812 0.669674 -0.341962 -0.169054 0.200029 0.630814 -0.594441 -0.348709 0.813275 0.058039 -0.125226 -0.164348 -0.664394 -0.530844 0.640997 -0.123348 0.359942 0.405814 0.708328 0.925145 0.883283 -0.502463 -0.365769 -0.039622 0.088290 0.352444 0.692200 0.584261 -0.136867 -0.237845 -0.080857 0.500829 -0.888290 -0.915049 -0.360081 0.570964 0.564476 -0.710003 -0.065182 -0.048207 0.853797 0.297217 -0.893099 -0.511160 -0.721383 -0.107659 0.743509 0.417284 0.727575 -0.757306 -0.943545 0.719162 -0.746649 0.107196 -0.304732 0.048228 0.079231 -0.062131 -0.732078 -0.378388 0.884866 0.107077 0.091787 0.715363 0.944051 -0.252629 -0.979241 0.191265 0.104785 -0.716680 -0.333631 -0.621207 -0.599335 0.218458 0.706298 -0.692395 -0.870329 -0.717052 -0.838661 -0.448673 -0.759554 0.009997 0.200230 -0.482406 -0.286305 -0.869210 0.503738 0.771146 -0.693469 0.857401 0.067715 -0.911449 0.721744 -0.647788 -0.532020 -0.535815 0.515098 -0.567025 -0.656690 0.349637 -0.594310 0.595827 0.882575 -0.489293 0.273508 0.086475 0.371406 0.916865 0.448410 0.771109 0.545549 0.951895 -0.193260 -0.353446 -0.623031 0.289463 -0.335432 0.825917 0.221748 0.837228 -0.558235 -0.425464 0.050186 -0.827460 -0.170255 -0.995726
0.073145 -0.759666 0.428758 0.416268 -0.107726 0.577694 -0.111543 -0.581792 -0.702874 0.390905 0.850708 0.554969 -0.118511 0.280632 0.340610 0.155379 -0.699363 0.055070 -0.740351 -0.084741 0.201109 -0.517782 -0.661054 0.869204 -0.904912 -0.009759 0.273616 -0.997348 -0.807862 -0.909132 -0.090922 -0.868066 0.677554 0.698559 -0.982072 0.127678 -0.043071 0.056741 0.128298 -0.580923 -0.709841 -0.517816 -0.351957 -0.619511 0.531111 0.005383 -0.297893 -0.763204 -0.797777 -0.087439 -0.254293 -0.902209 -0.379815 -0.573025 -0.882831 -0.191066 0.214819 -0.185425 0.529613 0.170478 -0.284647 -0.081085 -0.068961 0.948238 -0.006129 0.008541 -0.417551 -0.287768 0.694379 -0.494742 0.662734 0.445561 0.332709 -0.103927 0.751482 -0.054199 0.739586 -0.931159 -0.672333 0.075042 0.212903 -0.781217 -0.490633 -0.023925 -0.042983 0.917841 -0.261664 0.750209 -0.202117 -0.176331 -0.105921 -0.200441 -0.516692 0.878855 0.706654 -0.643159 -0.112659 -0.440745 0.914453 -0.429840 0.061932 -0.826768 0.060966 0.742938 -0.459390 -0.553776 -0.675571 0.787176 0.913136 0.219021 0.490248 -0.205305 0.907113 0.862965 0.984030 -0.802107 0.577496 0.893322 -0.008663 -0.655119 0.572770 0.708310 -0.708074 0.370953 0.263923 -0.373817 -0.675114 1.061170
-0.448658 0.858417 -0.790768 0.275951 -0.284508 0.115647 -0.904920 -0.864189 0.513272 0.523157 -0.707403 -0.077177 0.658288 0.685444 -0.979948 -0.221379 -0.975353 -0.767049 -0.239237 0.339896 -0.288317 0.068828 1.027506 -0.352414 0.825623 -0.632849 0.378846 0.029236 0.659241 0.238481 0.474379 -0.243478 -0.367893 0.473764 -0.348295 0.771782 -0.453392 -0.966667 0.103862 0.076868 -0.697990 0.618317 -0.592841 0.009070 0.138276 -0.329433 0.054710 -0.760115 -0.168857 -0.404035 -0.060023 0.541563 0.212302 -0.597804 -0.579564 0.226178 0.712868 0.577354 0.323987 0.753888 0.779017 0.820689 -0.179422 -0.561489 0.944749 -0.094959 -0.764786 0.162891 -0.905813 -0.348448 0.957647 -0.690872 -0.643924 -0.563742 0.401819 0.453534 0.600702 -0.988989 -0.610832 -0.822546 -0.805623 0.496602 -0.742449 -0.542195 0.160150 0.008592 -0.445269 0.637914 0.215893 -0.511944 1.026417 0.739184 -0.210295 -0.737562 0.739773 -0.947342 0.209684 -0.325276 -0.147620 0.296864 0.940767 -0.994718 -0.174658 -0.086318 -0.655916 -0.438005 -0.384633 -0.594555 0.808517 0.609387 0.568494 0.939812 0.120265 -0.389903 -0.312778 0.760995 -0.745482 -0.287156 -0.845268 0.152551 -0.249246 -0.692936 0.717106 -0.544358 -0.006035 0.359185 -0.958801 -0.560808
0.401504 0.651143 0.683772 0.796187 -0.488073 -0.046987 -0.636085 0.597362 0.269939 -0.739302 -0.990153 -0.830243 0.081867 0.187338 0.914705 -0.473968 0.199663 -0.830653 0.858599 0.107392 -0.811050 -0.459256 -0.219872 -0.678262 0.325375 -0.943109 -0.660285 0.770821 0.955571 0.839857 -0.167812 -0.682490 -0.277038 0.596356 0.935100 -0.743058 -0.596207 0.481405 -0.328011 0.746057 -0.976946 0.962931 0.009598 -0.723241 -0.597920 0.888344 0.756089 0.197462 -0.960247 -0.385933 0.770770 0.865139 -0.731712 0.532898 -0.671649 0.658392 -0.015284 0.554875 0.608793 -0.388480 -0.405927 -0.474200 -0.876313 0.301338 0.634153 0.073045 0.581166 0.052371 0.260121 0.328872 0.142695 0.345461 0.990491 -0.863828 -0.886736 0.307920 0.548880 0.311855 0.325224 0.815188 0.778890 -0.481397 -0.764353 1.007677 0.340646 -1.023687 0.063992 0.960636 0.721794 -0.775592 -0.091945 0.886009 -0.125982 0.903809 0.508273 0.885429 -0.572394 -0.747797 0.284642 -0.707586 -0.550946 0.392773 1.013392 -0.110208 0.166098 0.631946 -0.792881 -0.189647 0.979298 0.975266 0.873951 0.791928 -0.925485 0.524171 0.015186 0.412346 -0.646998 0.743782 0.851763 -0.128363 0.647600 0.457505 -0.186514 -0.436557 -0.178868 0.653738 0.488550 -0.092808
0.593858 -0.486553 -0.131244 0.966818 -0.663044 0.616026 -0.445960 0.938523 0.343513 0.153618 -0.052767 0.545738 -0.861231 0.768226 -0.156834 0.774268 -0.778423 0.911445 0.572675 -0.924590 0.081029 0.606856 0.532733 -0.411474 -0.766935 -0.855993 0.365122 0.573670 0.786711 0.700964 0.681224 0.273406 0.269056 0.991372 0.214655 0.112698 -0.982674 0.727338 0.218652 -0.467087 -0.858115 0.463556 -0.227883 0.358303 0.201592 0.533750 0.672936 0.805227 0.054164 -0.207564 -0.577349 -0.213171 -0.261652 -0.405340 0.585029 -0.959536 0.227884 -0.527145 -0.720295 -0.133901 -0.959213 0.919841 0.804184 0.116851 -0.655383 0.500603 0.961290 0.955527 0.140405 0.609918 0.939124 -0.124180 0.199063 -0.080192 -0.491531 -0.836128 0.172998 0.285835 0.709456 0.201226 -0.089430 -0.052228 -0.200535 -0.168734 0.400023 0.764756 -0.377726 0.103502 -0.776730 0.373087 -0.281326 0.426711 -0.374026 0.586434 -0.892280 0.969842 0.456955 0.104058 0.145085 0.041054 -0.167714 -0.053745 -0.290595 -0.793319 0.485732 0.418497 -0.718549 -0.331443 0.639965 -0.844804 0.605321 0.779929 -0.426932 0.669032 0.725167 0.385673 -0.268193 -0.063851 -0.976531 -0.360556 0.805117 -0.103971 -0.056005 0.078700 -0.821596 -0.563074 -0.766657 -0.325840
-0.783932 0.770526 -0.296587 0.290212 0.715664 -0.309443 -0.737823 0.378786 -0.385813 0.743220 0.702613 -0.696377 0.003931 0.432085 -0.151998 0.496242 -0.793303 -0.398107 -0.714174 -0.251151 0.374207 -0.991416 -0.163350 0.952638 -0.339862 0.383278 0.019751 0.609398 -0.455411 0.452591 -0.267612 0.405234 -0.215116 -0.132455 -0.063553 -0.999806 0.068927 -0.598912 -0.422845 0.128673 -0.592861 -0.337137 0.426900 -0.567967 -0.275401 -0.337868 -0.801089 0.304820 0.439620 0.457475 -0.615298 -0.159480 0.055076 0.518628 -0.294881 -0.003146 -0.660176 -0.001033 0.369568 -0.646432 -0.835230 -0.715497 -0.629672 0.733961 0.120976 -0.713785 0.797827 -0.559975 -0.494860 0.495115 0.001103 -0.373239 -0.613433 -0.637098 -0.063807 -0.430999 -0.915325 -0.323637 -0.542237 0.728490 -0.145364 -0.855314 0.762247 -0.130576 0.290227 -0.810055 0.838547 0.505573 0.183538 0.744136 0.575812 0.127189 0.612089 -0.551196 -0.783534 0.655077 0.397952 -0.928668 -0.454095 -0.034766 0.911634 0.544955 -0.254416 -0.562980 -0.293891 0.282237 0.052467 -0.540121 -0.851087 0.582073 -0.951785 0.009088 0.891634 -0.980491 0.455971 0.124708 0.344625 -0.662409 0.777520 -0.892882 0.829904 0.895603 -0.822471 0.161410 -0.723694 0.203458 -0.269547 0.280488
-0.089086 -0.031746 0.844853 0.677641 0.550831 0.284856 -0.385341 0.991353 -0.231822 -0.911540 -0.425171 -0.799171 -0.190487 -0.860962 -0.118674 0.965510 -0.187253 -0.603839 0.101383 -0.629604 -0.063585 -0.551970 -0.604436 0.011479 -0.495068 0.271901 -0.339134 0.808972 -0.409881 0.313939 0.039298 -0.858625 -0.493906 -0.553996 -0.826276 0.223535 0.100132 0.809920 -0.884089 -0.451775 0.915658 -0.350873 0.052056 -0.224893 -0.878141 -0.050104 -0.113881 -0.942541 0.548599 0.301470 -1.104463 0.741539 0.122172 0.967477 0.055466 0.810296 -0.824016 -0.539549 0.006272 0.025764 -0.901662 0.622914 0.407548 -0.364310 0.474303 -1.035350 0.751369 0.067595 0.094601 -0.554766 0.576378 0.865692 -0.658311 0.817554 -0.126055 -0.748390 -0.903734 -1.091513 0.420233 0.814104 -0.339472 -0.987617 -0.216253 0.387109 -0.529327 -0.955243 -0.540948 0.448272 -0.217172 0.097402 1.068261 0.025235 0.753672 0.764086 -1.016092 -0.731273 0.354466 0.425600 0.431203 1.000280 0.784470 -0.920182 -0.112588 -0.360537 -0.185914 0.014523 -0.643726 0.883219 0.004522 0.867655 0.989660 -0.368338 -0.210925 -0.405967 0.236090 0.266850 -0.009148 -0.084751 0.766079 -0.887416 0.326905 -0.804303 0.248632 -0.790787 -0.260774 -0.551886 0.745764 0.095959
0.859703 -0.152565 -0.169260 0.671961 -0.525298 -0.403051 0.232685 -0.070652 0.522859 0.369493 0.275138 0.224789 0.353335 -0.292233 0.318518 0.366938 -0.736670 -0.744691 -0.221439 -0.526523 0.275424 -0.327327 0.388123 -0.261418 0.212894 0.295498 0.740840 -0.845340 0.609187 0.711236 0.954307 0.736740 -0.727056 0.286341 0.713125 0.103155 0.593843 -0.534496 -0.105812 0.277186 -0.510387 -0.684200 0.589607 -0.055110 -0.851807 0.118974 -0.484562 0.398571 0.840465 -0.679938 0.847490 -1.006706 0.519565 1.034974 0.517032 0.965462 -0.098469 -0.765695 0.235405 -0.615127 0.222481 -0.545090 0.978198 -0.825398 -0.589247 -0.033004 -0.040317 0.394353 -0.714825 0.509100 -0.050173 -0.181686 0.784566 -0.277017 -0.809090 0.344519 0.207841 0.067342 -0.637272 -0.045466 -0.718218 -0.454333 0.168291 0.641188 0.815105 -0.036535 -0.609561 0.868243 0.008058 0.018079 0.591045 0.409244 -1.011894 0.357405 -0.358032 0.888715 -0.968666 0.644332 -0.399936 -0.266928 -0.274305 -0.682545 0.215863 0.448788 0.360006 -0.206795 0.956046 -0.854369 -0.384468 -0.212947 0.755535 -0.186580 0.200682 0.216735 -0.304964 -0.535035 0.651644 -0.909612 -0.647015 -0.201936 0.904138 -0.038764 -0.854933 -0.528112 0.731272 -0.653242 0.791474 -0.349249
-0.929690 -0.950367 -0.836064 0.443587 0.661287 -0.358856 0.469500 0.302319 -0.633020 -0.741845 -0.245623 -0.587156 -0.198914 0.582480 -0.274856 -0.161063 0.518492 -0.239647 0.723983 -0.932237 0.447490 0.893509 -0.075499 -0.986099 -0.155417 0.574033 0.042096 0.455966 -0.681869 -0.959146 0.492303 -0.071463 0.763152 0.493476 -0.544372 0.660142 -0.304686 -0.759271 -0.908552 -0.080604 0.386675 0.722524 -0.233601 0.684467 0.479723 -0.466144 0.129710 -0.516016 -0.473491 0.553009 -0.123796 -0.139052 0.458384 0.636204 -0.785774 0.141443 -0.275975 -0.629405 0.095308 -0.223132 0.880783 -0.355476 -0.530683 0.271090 0.493008 0.602744 0.255743 0.880606 -0.129311 -0.676776 0.374223 -0.097522 -0.398495 0.498399 -0.245584 0.208171 0.000269 -0.573795 0.342433 1.003472 0.437851 -0.127094 0.590707 -1.001642 -0.471598 -0.057916 0.206155 -0.669912 0.608762 -0.161281 -0.728737 -0.092726 -0.938631 0.797438 -0.418478 -0.064023 -0.504962 0.370195 0.250495 -0.319134 -0.954687 -0.786380 0.292028 -0.563825 -0.511238 0.448699 0.676254 0.945461 0.050561 -0.404836 0.098266 0.475146 -0.204180 0.887618 -0.147099 -0.315831 -0.294344 0.269162 0.397653 -0.468938 -0.131523 -0.243935 -0.411203 0.068938 0.752761 -0.915390 0.769603 0.695577
-0.319131 -0.765042 0.452055 -0.351985 -0.921357 0.631415 0.595920 0.230681 -0.955993 0.120267 0.798733 -0.479127 -0.474336 -0.861495 0.367399 0.243838 0.580454 0.147317 0.770974 -0.979734 -0.254109 0.672919 -0.615313 -0.303884 -0.020275 -0.918736 0.972082 0.261437 -0.569762 0.824950 0.281958 -0.813575 0.875043 0.570756 0.806727 -0.337553 0.937923 0.297377 0.567134 0.979617 -0.288874 0.863006 0.203776 0.600263 -0.448837 0.792337 -0.374113 -0.318163 -0.021657 0.603194 0.890848 -0.401446 0.579712 -0.591944 0.236417 0.658960 0.301001 -0.996174 0.210311 -0.658895 -0.744120 0.269946 -0.928758 0.929456 0.107092 0.933024 0.495126 -0.495205 -0.000167 0.290437 0.632873 0.710472 0.941424 -0.211564 -0.395108 -0.299459 0.355473 -0.676719 -0.210865 -0.225440 -0.590249 0.590141 -0.576778 -0.611058 -0.677635 -0.709893 -0.407452 -0.532849 -0.859004 -0.965453 0.781949 0.472180 0.538018 0.139807 -0.948478 0.840407 -0.591765 0.727185 0.497937 0.561245 0.007847 -0.775225 -0.637446 0.758488 -0.054813 -0.199446 0.594683 -0.387946 -0.310455 0.696997 -0.586265 0.433061 0.891387 -0.400862 0.060126 0.447987 -0.613408 -0.932948 -0.893757 0.153386 0.409025 -0.227749 -0.189507 -0.190088 -0.645961 0.806790 0.161853 -0.827917
-0.833343 -0.264987 0.942559 0.445714 0.987819 0.537838 -0.246645 0.531601 -0.792457 0.813208 0.288386 -0.532641 0.455471 -0.552104 -0.275433 -0.628492 -0.494766 0.534014 -0.541518 -0.385483 0.218048 0.094013 -0.096901 0.415610 -0.741745 -0.914622 -0.260978 -0.542868 -0.466068 -0.001140 -0.453981 0.042145 0.104521 -0.009926 -0.319623 -0.453876 0.090950 0.391972 0.748896 0.407404 -0.117602 -0.743286 -0.410365 -0.037417 0.872785 0.992386 -0.024562 0.247085 -0.735453 0.191411 0.879368 -0.891215 -0.351320 0.932147 -0.772817 0.195907 -0.834462 -0.397296 -0.489892 0.632558 -0.010191 0.189809 -0.064168 -0.509306 -0.914125 -0.658860 0.448014 0.810263 0.218431 -0.780464 -0.399084 0.617865 -0.551660 0.355602 0.414112 -0.197937 -0.951538 0.287499 -0.556478 0.515679 -0.290076 0.656653 0.966103 0.719460 -0.231052 0.625440 0.246392 -0.562525 -0.570777 0.220338 0.933592 0.765680 0.757957 -0.321881 -0.844582 -0.292760 -0.516587 -0.109758 0.824142 0.013994 0.844656 0.754354 -0.153980 0.886427 0.522423 -0.383155 0.947618 0.034106 0.580283 0.195218 0.733812 -0.531434 -0.511567 0.455630 -0.428109 0.666752 -0.164512 0.228902 -0.783767 0.461087 -0.910304 -0.281818 0.502454 -0.772115 -0.486813 -0.323781 0.729678 0.768469
-0.898715 0.114201 -0.110243 0.160237 -0.770416 -0.912591 -0.713385 -0.209557 0.522102 -0.710109 -0.833202 0.316162 0.931805 -0.790596 0.577177 0.639237 -0.076353 -0.517067 0.372518 0.632690 -0.574616 -0.309599 -0.851653 0.976766 0.756502 0.381398 -0.758199 0.110719 -0.246567 0.745417 -0.404936 -0.706178 0.431588 0.866788 -0.070523 -0.270214 0.595470 0.015125 -0.554917 0.004061 -0.835845 0.421152 -0.068332 -0.214953 0.377288 0.062967 0.664586 0.921182 0.465612 -0.172860 -0.836538 0.011233 0.187412 0.062379 -0.417325 -0.734602 0.189564 -0.124990 0.154782 -0.739992 0.366247 0.439926 0.187849 0.576445 -0.448266 -0.500420 -0.194880 0.806889 0.348554 0.209902 -0.220886 0.145977 0.777631 0.648048 0.498522 0.177487 -0.116717 0.964024 0.212563 0.903932 0.818979 -0.215719 0.340222 -0.564956 0.030216 -0.517406 0.366916 -0.827765 -0.899043 -0.692855 0.501448 -0.823806 -0.775325 0.858055 0.363277 0.181788 -0.480885 0.463258 0.705360 -0.059896 -0.738131 0.150930 -0.071426 -0.191470 -0.482216 -0.765819 0.689950 0.191551 0.272188 -0.900755 -0.584466 -0.218006 -0.197251 -0.103402 -0.580325 0.398086 -0.521384 0.497508 0.292158 -0.843551 0.992522 0.885128 -0.751827 -0.307642 -0.470924 0.285230 0.345671 0.003383
