-1.058259 -1.094416 -0.679296 1.085829 0.826106 0.792482 0.609167 -0.573111 0.092769 -0.071466 0.218511 0.034513 0.614476 -0.064997 0.172416 1.321448 0.903009 0.373274 0.860908 0.271105 0.481951 0.867280 -0.220858 1.168863 -0.606996 -0.952538 -0.183289 0.316321 -0.744805 1.104374 -0.664366 -0.276780 0.600876 -0.207198 0.248462 -0.683676 -0.198789 -0.281282 -0.152186 -1.301618 1.299424 -0.040165 0.401468 -0.339147 -0.663293 0.617225 1.271501 0.371674 -0.073517 -0.057587
-0.950543 0.504493 0.002563 0.938674 -0.385737 0.218311 -0.882822 0.616809 -0.490445 0.134627 -0.958439 -0.756263 0.667255 0.187876 -0.664373 0.304140 0.927055 -0.602302 0.993101 -0.508545 0.428868 0.719233 0.650518 0.099242 -0.742150 -0.496150 -0.853911 -0.186731 -0.212667 0.217254 -0.743078 0.235992 0.472489 -0.029586 0.967241 -0.062073 0.965269 -0.522617 -0.898108 0.752302 -0.039352 0.741809 -0.290783 0.585335 -0.587583 0.849257 0.847006 0.832053 0.154976 -0.776919
-0.152091 0.484606 -0.203958 -0.771702 -0.294012 0.992646 0.392272 -0.439462 -0.974104 -0.952789 -0.125957 -0.779510 0.299602 1.142425 -0.096455 0.366694 -0.560962 0.655916 -0.773094 0.790528 -0.461754 -0.124559 -1.094794 0.524483 -0.348315 0.359019 0.585752 0.879558 -0.956716 0.483030 0.662905 -0.083592 0.363796 -0.639620 -0.010599 -0.199127 0.364760 0.541800 0.186131 -0.103630 0.125845 0.793677 -1.425914 -0.319254 1.288909 -0.569815 0.046630 -0.111563 0.702143 0.315498
-0.173600 -0.434494 0.171893 1.096148 0.781130 -0.612251 0.439838 -0.756324 0.290174 0.737191 -0.006015 -0.718693 -1.314210 -1.037468 0.164539 0.381354 0.402807 -0.096868 -0.087333 -0.510407 0.336986 0.303212 0.944381 0.605994 0.069620 0.297018 0.319354 0.308543 0.259762 0.478442 0.567569 -0.081597 1.264906 -1.209085 1.570746 -0.368719 -0.391166 0.291740 -0.812034 0.001061 0.902083 -0.855657 1.234464 -0.051173 -1.216444 -0.722188 0.287372 0.466448 -1.281628 0.018695
-0.292782 0.274123 -0.922701 0.388318 -0.776836 0.020123 0.811071 0.588277 -0.215032 -0.257873 0.108608 0.699358 0.559717 -0.508419 -0.432073 -0.629324 -0.477301 0.603481 0.245046 -0.385747 0.955595 -0.429350 -0.528793 0.661214 -0.566094 -0.601194 -0.442054 0.855657 -0.629200 0.084305 -0.304678 -0.969928 0.829594 -0.127198 -0.450212 -0.213030 -0.340092 -0.849964 -0.950097 -0.907229 -0.087969 0.657242 -0.222589 -0.540864 0.005694 -0.892794 0.353544 0.511811 0.016684 -0.087422
-0.373375 0.052774 -0.226612 0.635525 -0.184724 0.336046 0.420766 0.897611 0.598784 -0.044759 0.645043 -0.574520 -0.439263 0.498424 -0.077566 -0.043907 -0.949246 0.229327 0.842068 -0.721168 -0.487802 0.934063 -0.883117 -0.996424 -0.355763 0.369255 -0.572184 0.132847 0.677322 0.366336 0.653305 0.292657 -0.111610 -0.278888 -0.705285 0.460910 0.290187 -0.701552 -0.317095 0.493887 -1.059395 -0.342204 -0.844594 0.907985 -0.278942 0.264951 -0.383614 -0.512935 0.811380 -0.251801
-0.159101 -1.004031 0.196692 0.973839 0.479540 0.548888 0.024648 -0.083966 0.182286 1.269228 0.232907 0.276822 -0.344293 -0.103615 -1.096774 0.011733 -0.814655 -0.505055 0.906018 -0.028342 -0.891246 -0.345321 1.223246 0.959894 -0.601664 -1.006092 -0.299009 -0.774079 0.797118 1.107092 0.094545 0.924064 0.867488 -0.263427 0.265588 -0.193008 0.620742 -0.032546 0.387354 0.064812 1.131480 0.280223 0.044481 -0.262506 -0.529000 0.437094 1.066760 0.132436 0.061591 1.084947
-0.146542 0.439007 -0.441266 -0.887784 -0.662943 -0.096124 -0.805291 0.640817 -0.628380 0.907016 0.183437 -0.497832 0.224947 0.289585 -0.930828 -0.797807 0.101917 0.326515 -0.658164 -0.311433 0.906101 0.596878 -0.866615 -0.755022 0.016061 -0.150398 -0.249367 0.597296 0.574569 -0.590873 -0.832908 -0.214921 -0.936216 -0.080660 -0.415097 -0.943879 -0.468342 0.699924 -0.263267 0.664991 0.427865 -0.933042 -0.252837 0.021436 -0.789412 0.810667 -0.917667 0.501942 0.644452 0.479246
-0.745074 1.069574 0.281285 0.066964 -0.647885 -0.867444 -1.045082 -0.429232 0.083757 -0.497828 0.602069 -0.240353 0.655213 -0.578232 -0.595736 0.173683 0.342522 0.574269 0.039855 -0.105310 1.180499 0.548133 -0.537871 0.262244 0.170919 -0.439309 0.365054 0.596453 -0.427443 0.521499 0.805540 0.769335 -0.357037 -0.488094 -0.019035 0.486707 0.562440 -0.592343 0.327336 1.277112 0.500777 0.227455 0.224437 0.800988 0.398828 -0.435801 0.092925 0.643330 0.881816 -0.150250
0.311964 -1.048738 0.035602 0.945697 0.618500 -0.747487 1.018543 0.296099 0.452809 -0.246023 -0.762292 -0.765437 0.222574 -0.404970 0.513899 -0.047183 0.917091 -0.532222 -1.023578 -1.023144 -0.636077 -1.085013 1.083696 0.766979 0.108493 -0.350909 -0.863808 0.519375 0.307180 1.048977 0.751719 -0.509729 -0.626559 -0.267605 -0.239585 0.682077 0.693672 0.315757 0.537183 -0.305882 -0.601776 0.406815 0.282127 0.133330 0.896601 -0.211218 0.328649 -0.306412 -0.476952 0.265955
-0.780969 -0.242407 0.053425 0.419849 0.860363 -0.682918 0.184884 -0.990655 0.783679 -0.325030 0.826882 -0.990457 0.177548 -0.898411 -0.663975 -0.177661 0.876355 0.021267 -0.133249 -0.677563 0.808003 0.210960 0.897488 0.806849 0.784503 0.308651 -0.754637 0.347790 0.762318 -0.550946 -0.718230 -0.426329 0.864383 0.502617 -0.646224 0.240494 -0.281206 0.545759 0.713558 0.207970 -0.442460 -0.815937 0.938714 0.614493 0.106528 -0.317210 -0.356795 -0.207416 0.543935 0.603935
0.073473 -0.579798 0.151798 -0.690537 -1.237761 -0.576796 -1.025520 0.593355 -0.320809 0.483082 0.229771 -0.410336 0.777090 0.312505 -0.396519 0.316683 -0.189951 -0.371598 -0.435117 -0.005374 0.069121 -0.673572 -0.062084 -0.558122 -0.190615 -0.298520 0.612006 -0.445753 0.580856 -0.365862 -0.837142 -0.648051 -0.912443 -0.154465 -0.706925 -0.281956 -0.494704 -0.112299 -0.393260 1.041323 0.512866 -0.352304 -0.607615 0.481568 0.126415 0.052106 0.183505 0.010390 -0.320253 0.467231
0.307583 -0.668870 -0.549162 0.462384 0.061134 0.674556 -0.046604 0.114688 0.168360 0.489559 -0.657035 0.906066 0.791646 0.418781 0.223488 -0.845818 -0.055216 0.432729 0.208131 -0.332702 -0.515331 0.069882 0.172307 0.852784 0.668370 -0.650389 -0.236119 0.167383 0.898168 -0.318514 -0.441735 -0.165990 1.035838 -0.420324 1.200766 -0.524750 0.193662 -0.474762 -1.035256 -0.369799 0.122112 -0.792676 0.626228 -0.406617 0.302186 1.217152 0.211613 0.231543 -0.302123 -0.155963
0.172747 0.774453 0.633380 -0.154592 0.616201 -0.702060 -0.649420 0.198766 0.184126 0.253216 -0.726988 0.775935 0.262970 -0.081196 -0.285065 -0.702793 -0.619317 0.088532 0.916012 0.421905 -0.534043 -0.583198 -0.519850 -0.586000 -0.306295 0.761650 -0.069179 0.742347 0.271074 0.882784 0.874890 0.599955 -0.723792 0.852218 0.848050 0.716724 -0.633713 0.105764 0.463423 -0.616342 -0.567857 0.474730 -0.282530 0.494238 0.954209 -0.330402 0.602484 0.688626 -0.990831 -0.197269
-1.159500 -0.285328 0.587636 -0.069468 -0.011765 -0.821248 -0.800065 0.224500 0.390128 -0.585672 0.456270 0.018382 0.615578 -0.229115 -0.518548 0.312093 -0.812562 -0.253126 -0.409843 -0.353693 -0.814623 0.291237 -1.014331 -0.458128 -0.207969 -0.154784 0.838304 0.677269 0.600378 -0.500741 -0.452263 0.504555 0.628612 0.242425 -0.762433 0.287363 0.317912 0.221004 -0.393128 -0.175989 -1.117121 -0.414448 -0.825065 0.921109 0.104367 -0.052746 0.559705 -0.523109 -0.553710 1.045230
0.134851 0.637291 0.599314 0.385858 0.114427 0.461062 0.896185 -0.942674 1.032386 0.161241 -0.750292 0.753821 -1.003531 -1.391167 -0.609882 0.937256 -0.422181 1.085029 0.216674 -0.282404 0.203873 -0.231950 1.041476 -0.127570 -0.484181 -0.844749 0.426329 0.174795 0.642680 0.918327 0.581595 -0.564507 0.012110 0.483705 1.107606 -0.811441 0.233475 -0.289726 -0.174192 0.280944 -0.248954 -0.626691 -0.223554 0.171137 -0.273674 -0.235205 1.047108 -0.736982 0.313622 0.284880
0.794376 -0.798868 -0.541065 -0.712791 0.357809 0.310087 -0.360411 0.728396 0.520319 0.362716 -0.409773 0.549145 0.606020 -0.542052 0.351655 -0.067711 0.097450 0.530752 -0.609891 0.485976 0.465762 0.294534 -0.308483 -0.090930 -0.390288 0.107822 0.740367 -0.990907 -0.441355 0.063053 -0.109124 -0.979258 -0.988470 0.956693 0.113293 0.591198 -0.287939 0.136111 0.555921 0.844721 0.335713 0.264977 0.214974 0.507000 0.473973 -0.315372 -0.172298 -0.943380 -0.633519 0.968483
0.897146 1.048106 0.206567 -0.150842 0.602699 0.879883 -0.555748 0.421614 -0.444534 -1.235927 0.948585 0.942893 0.787619 0.313622 1.180491 -0.338907 -0.112002 -0.437073 0.616975 -0.134874 -0.530660 0.453576 -0.902774 0.548035 -1.130021 0.335860 0.684499 1.010702 -0.788188 0.299404 -0.572288 -0.577324 0.818523 0.766763 -1.056577 -0.136534 0.736474 0.811338 -0.314233 -0.351409 -0.116891 -0.239228 -0.574299 -1.015278 0.155013 0.315918 -0.691466 0.174581 -0.119309 -1.016075
-1.302643 -1.199090 -0.228550 -0.330419 0.750280 0.360195 0.064039 -0.740652 0.803283 0.177472 0.183915 0.385100 0.380388 -0.708340 -0.353023 1.283366 -0.331746 1.061437 -0.700482 -0.445861 -1.233325 0.654665 1.699991 0.876282 0.706922 -1.658666 0.100561 0.212861 0.034065 1.095806 -0.555787 -0.988692 0.152948 -0.655550 1.531821 0.007925 -0.417994 -0.697996 -0.787759 -1.032242 1.072126 0.288233 1.342619 -0.828987 -1.547690 -0.988932 0.710291 0.326618 -0.750922 -0.111074
-0.826302 -0.031337 -0.351540 0.707384 0.072599 -0.903911 -0.117823 -0.542158 0.297652 -0.378530 0.230202 0.037249 0.247851 -0.901032 0.805491 -0.429179 -0.521792 0.558622 -0.670092 -0.539480 0.322618 0.176832 -0.517799 0.831676 0.610139 0.722045 -0.140534 -0.453645 -0.389935 0.383099 0.876919 0.207281 -0.809456 0.901906 -0.953028 0.625064 0.200887 0.765757 -0.903078 0.612257 -0.538688 0.330712 -0.165665 -0.429181 0.567622 -0.372894 0.293834 -0.436668 0.382133 -0.854030
1.014663 0.255719 0.268871 -0.848350 -0.628564 0.142951 0.109472 1.523539 -0.976910 -1.467374 0.291876 0.547517 0.978736 0.684900 0.997947 0.129831 -0.179959 -0.201969 0.607576 -0.172636 0.344504 -0.507655 -1.570541 -0.403369 -0.249113 0.835661 -0.387017 0.919868 -0.829754 -1.216958 0.033077 0.516305 -0.252591 1.016820 -0.450254 0.162446 0.879296 0.966111 0.788549 1.219144 -0.139005 0.090913 -0.941322 -0.523607 -0.126818 -0.498630 -0.967460 -0.463532 1.080199 0.204734
-0.423004 0.515031 0.104425 0.494274 -0.066786 -1.005261 -0.378706 0.332452 0.312579 0.856744 0.376814 -0.947475 -1.151356 0.030173 -0.113265 0.599408 -0.786531 -0.616267 0.255574 0.443778 -0.678108 0.396497 1.084408 -0.532045 0.244494 0.455645 0.180857 -0.223632 -0.406044 0.946885 0.599811 -0.088253 0.993107 -0.893804 1.000396 -0.889624 -0.229369 0.429714 -0.658429 -0.594345 0.731189 -0.874761 -0.323616 0.792380 -0.908639 -0.887849 0.611120 -0.745400 0.243541 -0.201198
0.962060 0.711832 0.786429 -0.089571 -0.426169 0.726980 0.956614 -0.081288 0.255801 -0.186059 0.211603 -0.464278 0.622219 -0.568169 -0.789963 -0.964108 0.276325 0.015220 0.189173 0.429635 -0.655829 -0.552543 0.174156 -0.658818 0.052600 0.259091 -0.144255 0.198459 -0.416824 0.289659 -0.624211 0.145483 0.828828 -0.139604 -0.826464 0.643050 -0.816609 -0.973940 0.012937 0.304920 0.613563 0.728713 0.064913 0.787148 0.434978 -0.654282 0.629193 0.372636 0.907107 -0.886170
0.076306 -0.193972 -0.840910 -0.162292 -0.236533 0.005674 0.119861 -0.244501 -0.086709 -0.480175 -0.298913 0.891262 -1.101650 0.498541 -0.444726 0.481261 -0.444381 -0.322456 0.374317 0.016862 0.154380 0.291866 -0.976967 -0.546296 -0.334077 0.629922 -0.377867 0.300484 -0.945756 -0.923133 0.707537 0.253320 -0.212676 0.431593 -0.842610 -0.088079 -0.758118 -0.607576 -0.044631 0.314605 -0.962555 1.149732 0.618241 0.375931 -0.069472 -0.771961 -0.837801 -0.008363 0.141941 -0.389871
-0.129061 1.139551 0.182797 0.532776 -0.045520 0.859719 -0.030129 0.424865 -0.415123 -0.381393 0.652579 -0.880146 -0.156792 0.800222 -0.125690 -0.385513 0.529085 0.683016 -0.116473 -0.443286 0.908943 -0.272975 -0.868196 -0.177745 -0.002880 0.085497 0.199160 0.662499 -0.741482 0.123308 -0.063898 -0.225390 -0.733399 0.875046 -1.059739 -0.579917 -0.732842 0.096620 -0.110356 -0.645083 -1.032617 -0.313884 -0.255323 -0.886297 0.262031 -1.264449 -0.419145 0.873519 -0.118191 -0.743265
-0.960073 -0.828891 -0.413986 -0.941029 0.334210 0.222912 0.138993 0.893627 -0.061902 0.722134 0.514121 -0.513829 -0.262095 0.416109 0.377055 -0.047410 0.446495 0.429909 -0.457865 -0.745695 0.068965 0.275740 -0.513803 0.504702 0.962920 -0.969349 -0.203233 -0.716146 -0.302976 0.483484 0.954149 -0.868417 -0.632678 -0.928150 -0.474830 0.329259 -0.899226 -0.381478 -0.554288 0.608771 0.357186 -0.951874 -0.853482 -0.167125 0.154780 -0.507317 0.479993 -0.351485 0.749651 0.489943
-0.831703 0.216935 1.006991 -0.566481 1.253109 -1.228436 -0.253541 -0.736560 0.609241 -1.408863 -0.336820 -0.190198 0.508839 -0.399099 0.842279 0.269113 -1.075475 -0.472024 -0.816561 -0.939732 0.565447 -0.585647 0.216971 -0.426151 -0.351949 -0.516001 0.524958 -1.178486 -0.639978 0.472341 -1.198494 -0.093636 -0.425784 -0.805534 1.473863 -1.043825 0.127127 -0.088862 -0.116977 0.449538 0.869552 0.842452 0.672038 -0.560437 0.165431 -0.509563 -0.003032 0.398742 -0.928741 -0.936611
-0.620335 0.055171 0.339115 0.542588 1.182310 0.573139 0.233936 -0.619399 -0.178501 -0.011885 -0.706768 1.059639 -1.081820 -0.281905 -0.550742 0.602113 0.642264 1.019668 -0.143739 0.955169 0.504458 -1.246352 0.437732 -0.335840 -0.341003 -0.572365 0.231616 0.841610 -0.332716 -0.036259 0.725337 -0.431743 -0.996905 -0.956546 0.261305 -0.918735 0.337510 0.217279 -0.317084 0.654492 -0.462333 -0.068026 0.912716 0.452307 0.742235 -0.287183 -0.498056 -0.681177 -0.280085 -0.311403
-0.509731 -0.201853 -0.495502 -0.170442 -0.244852 0.803986 0.743058 0.677209 -0.568161 -0.012076 0.974685 -0.286066 -0.616353 -0.465151 0.113317 -0.989522 -0.534440 0.172031 -0.988881 -0.785656 -0.523226 -0.576010 -0.125405 -0.412491 -0.639021 -0.243082 0.558881 -0.643148 0.230584 -0.509988 0.194248 -0.743883 -0.722973 -0.264213 -0.161297 0.171656 0.382955 -0.679135 -0.137362 0.343505 0.437578 -0.511190 0.890530 0.079352 0.271688 0.383758 -0.727167 0.260700 0.494557 0.639846
-0.192632 0.538117 -0.483747 0.373529 -0.400061 0.464373 0.602013 0.228626 0.051337 -0.371520 0.093315 -1.191512 0.663218 -0.630643 0.679648 -0.519965 0.207229 -0.719482 0.434185 0.622411 -0.416260 -0.632269 -0.485884 0.831442 0.874838 0.041348 0.399191 0.657879 -0.388393 0.947927 0.196799 0.409921 -0.509582 0.847284 -0.327205 -0.746052 -0.754669 -0.247141 0.613894 0.136257 0.194098 0.760619 -0.877438 -0.729918 0.550371 -0.432622 -1.198220 0.408349 0.302741 -0.395930
-1.039404 0.607864 -0.748954 -0.186377 -0.799248 0.657563 -0.482585 0.391834 0.746519 0.802864 -0.806558 0.289099 0.323048 -0.754617 0.173543 -0.779931 0.022380 0.750289 1.050440 -1.048511 0.354862 -0.068512 0.357406 -0.190534 0.763663 0.665087 -0.712287 -0.473669 0.052775 0.877513 -0.567988 -0.192129 -0.726971 -0.318410 0.124645 0.148084 0.196004 -0.237010 -0.366420 -0.441251 -0.682026 -0.894901 -0.072681 0.785648 -1.112112 0.255484 0.064555 -0.592119 -0.863159 0.430305
-0.446576 0.338839 -0.476991 -0.513110 0.726403 -0.462254 0.145369 -0.992501 0.688291 -0.526103 0.911526 0.494175 0.203155 -0.607385 0.668846 0.738273 0.473749 -0.668306 0.984714 0.248862 0.438970 0.752643 -0.520896 -0.763173 -0.285224 -0.426582 0.128711 0.363287 0.732701 -0.779962 -0.825547 0.190214 -0.878578 0.038175 -0.408516 0.529320 -0.663477 0.835890 0.995914 -0.032388 -0.555743 0.761997 0.495776 0.200989 0.438884 -0.636693 -0.146279 -0.403125 0.732258 0.183583
-0.304568 -0.383496 -0.729707 -0.813408 -0.480592 -0.329557 0.580305 0.950700 -0.593534 0.303477 -0.191079 -1.021901 0.557540 -0.469002 0.495042 -1.349603 0.808340 -1.050298 0.873097 0.790948 1.017007 0.555929 0.131941 -0.232345 0.730839 -0.392328 0.295283 1.017622 -0.698012 -0.838592 0.480072 0.429734 -0.748887 0.038775 -0.670725 0.573205 0.644285 -0.916140 -0.194193 0.060181 -0.196378 0.740011 0.553302 -0.293655 0.376881 0.361006 -0.383239 0.381981 0.993642 0.321553
-1.186580 -0.155788 0.796227 1.181266 0.249993 0.272176 -0.453832 -1.385948 -0.268752 0.881031 -0.289334 0.540932 -1.097894 0.032448 -1.237472 1.207149 0.886815 -0.305585 -0.348611 -0.412724 0.761040 0.803902 -0.409325 -0.259020 1.182339 0.158502 0.266322 -0.850794 0.743645 -0.792012 -0.782695 -0.412453 1.031897 -0.382237 0.780621 -0.008091 -0.817502 0.222204 -0.387010 -0.660737 0.900716 0.146090 0.015773 -0.344643 -0.238470 0.651005 -0.260166 0.034564 0.895127 0.253793
0.317514 0.413282 -0.405842 -0.386009 0.093267 0.296251 0.317490 0.735571 0.241295 0.456115 -0.308878 -0.263811 -0.297734 0.971573 -0.703724 0.658788 0.276747 0.305218 -0.702874 -0.425623 -0.620342 -0.299957 0.944930 0.796566 0.451733 -0.870941 -0.596170 -0.358887 0.226349 0.823283 -0.771817 0.135375 0.538202 0.288508 -0.498663 0.302636 -0.099483 0.627873 -0.042295 -0.778338 0.270922 0.844861 -0.116656 -0.941847 -0.995954 -0.718406 0.833994 -0.796551 -0.077585 -0.359637
1.004767 -0.609561 -0.071449 -1.051707 -0.827764 -0.141572 -0.665463 0.382583 0.834075 0.219080 1.012353 0.554914 -0.955243 0.130935 1.047020 -0.407306 -0.312820 -1.211061 -0.762927 -0.239810 -0.318927 0.104346 -0.933101 -0.948965 -0.265316 0.216439 0.681877 0.078680 -0.230760 0.046094 0.339939 -0.576232 -0.801044 0.958904 -1.022135 0.899772 0.774508 0.321464 -0.316363 0.329506 0.288348 -0.122033 0.124202 -0.209959 -0.347738 -0.780336 0.537421 -0.718148 0.488536 0.103318
0.090885 -0.375474 -0.790861 -1.527298 0.300577 0.096388 0.994022 -0.363252 0.405301 -0.197900 -0.023318 -0.907069 -0.441889 -0.319861 0.870008 -0.710650 0.539551 0.428405 -0.441945 0.925975 0.606695 0.373920 -0.473766 0.081963 -1.139553 -0.054716 0.555719 0.770151 -0.752199 0.536271 -0.341330 0.379669 0.210203 0.100120 -1.129709 -0.677767 -1.051964 0.078515 1.203506 0.226001 -0.550599 0.610915 -0.581121 -0.158362 1.082640 -0.466561 -0.616912 0.230616 0.701689 -0.551400
0.586972 -0.614154 0.959818 -0.282814 -0.745648 0.575750 0.401985 -0.624429 -0.822430 0.321129 0.182926 -0.962857 0.478916 0.724162 -0.153904 -0.020472 -0.361360 -0.365741 -0.961146 0.200717 -0.490150 0.205219 -0.681527 0.185295 -0.178924 -0.620713 0.541000 -0.722111 0.153885 -0.923317 0.307175 0.361161 0.679625 0.292301 0.663518 -0.930664 -0.293365 0.979506 -0.747931 -0.632787 -0.847925 0.067585 -0.724723 0.624659 0.040153 0.669046 -0.202749 0.020828 0.883685 0.063576
0.161455 -0.405963 0.280192 0.469003 0.178882 -1.039670 0.412839 0.002262 0.544987 0.279529 -1.108777 0.907548 0.489405 0.370589 -0.646182 -0.668319 0.742001 0.895126 -1.365900 0.894608 -0.105580 -0.194831 0.980970 1.186037 0.476405 -0.754672 -0.096631 -1.276376 0.408005 0.269937 -1.019511 -0.826478 -0.207549 0.447033 0.906828 -0.294876 0.780567 -0.220451 -0.631142 -1.287637 0.374410 -0.421803 0.662035 -0.636919 -0.185474 1.320126 0.538549 -1.478104 0.446710 0.176009
2.509984 0.849763 0.318622 -0.850332 -1.498020 0.356146 -0.070915 1.093342 -0.256984 0.877978 1.076883 -0.112685 0.308331 0.950713 1.022813 -0.602729 1.151349 1.087569 0.659525 0.890337 0.389489 2.157141 -1.760301 -1.023776 -1.410381 1.634400 0.559074 2.507873 -1.498900 -0.271586 0.761626 -1.114034 -0.845877 0.505242 -3.196506 -0.098388 -2.100845 0.243795 2.163810 1.127165 -2.357040 0.758123 -1.252441 -0.229155 -0.278241 -0.958624 -1.206586 0.624964 0.971035 0.550430
0.956550 0.507483 0.140970 -0.514783 0.584480 -0.708698 0.990852 0.872241 0.622315 0.492489 0.672283 -0.660157 -0.912908 -0.212898 -0.865422 0.809459 0.416807 0.098536 0.161773 -0.087093 0.349743 0.118196 0.473867 0.977237 -0.418871 -0.121669 -0.134896 -0.976862 -0.728477 -0.786676 -0.979866 -0.964179 0.267409 0.954108 0.171156 0.265078 0.298434 0.337773 -0.690124 -0.189523 -0.345166 0.038932 0.330508 0.444202 -0.172303 -0.142897 0.087805 0.888084 0.824554 -0.450530
-2.336979 -0.383381 -0.697565 1.166000 1.736417 -1.013021 0.032515 -0.383154 1.820802 -0.028214 -2.442662 -0.085018 0.180404 -1.490251 -0.664650 0.569039 -0.243555 -1.413829 -0.583815 -1.633651 -0.549456 -1.830145 0.246666 0.690900 0.416901 -0.822157 -1.455657 -2.491664 1.822422 0.439911 -1.118837 -0.052655 -0.308482 -1.789218 2.892163 -0.641171 1.129099 0.014873 -1.942276 -2.469528 1.159044 -0.844979 1.927036 -0.154942 -0.738622 1.345643 0.055980 -0.746391 -0.401702 0.207955
1.047536 -0.183761 -0.706213 0.948605 -0.207620 1.038927 0.240986 0.646940 -0.285944 0.845825 0.364115 0.499156 -0.551093 0.592471 -0.331700 0.258174 0.788140 -0.698375 0.406018 0.907709 0.019012 -0.464852 0.675183 -0.149200 0.139091 0.324673 0.007171 0.062945 -0.149890 -0.584798 -0.278848 0.783997 0.572293 -0.256323 -0.323957 -0.063194 0.155971 0.513126 -0.407149 -0.537482 0.140405 0.739002 0.287321 -0.187709 -0.415590 -0.634702 0.890783 0.073645 0.982084 0.772145
-0.995720 -0.621157 -0.038311 -0.714059 0.940149 -0.427847 -0.773940 -0.385198 -0.733251 0.413679 -0.231573 -0.700759 -0.077644 0.753814 -0.201921 -0.910453 0.682144 0.696874 -0.588727 0.710396 0.233377 0.749351 -0.841269 0.892410 0.461644 0.668139 -0.567140 0.695199 0.046695 -0.160588 -0.409875 0.706997 -0.695140 0.956314 0.887429 0.445662 -0.480097 -0.530180 0.628861 -0.761132 0.976487 0.225523 0.653391 0.873515 -0.007307 0.858536 -0.796957 0.665564 0.074730 0.412996
-0.033318 -0.400770 0.914473 -0.608403 0.195198 0.010393 -0.763944 -0.544390 1.028762 -0.621481 0.108069 -0.005849 -0.396189 -0.808327 -0.316450 -0.148575 0.840767 -0.980873 -0.033045 0.483194 -0.217584 0.343597 0.838312 -0.251169 0.197969 0.759456 -0.938742 -1.217416 0.212769 -0.569843 0.501543 0.463531 -0.047906 0.215653 0.331003 0.565071 -0.311771 -0.971098 -0.152560 0.485996 -0.572184 -0.326941 -0.187133 0.786859 -0.492356 0.088324 -0.101410 0.736792 0.641869 -0.620944
0.619912 -0.538914 0.070339 0.917605 -0.276724 0.634023 0.603997 -0.401194 0.943105 0.243182 0.254495 -0.720817 0.798755 -1.080982 -1.090405 0.443267 0.601767 1.126724 0.092355 0.657820 0.009165 -0.726741 -0.207281 -0.159086 -0.447162 -0.311769 -0.011593 0.138107 0.418205 -0.722803 0.823286 -0.648095 0.237198 -0.309027 0.647358 0.539634 0.242260 -0.499704 -0.390675 0.105793 0.187415 -0.479026 0.626838 -0.047757 -0.394568 -0.210603 -0.354610 -0.657970 -0.015665 0.605232
-0.832584 -0.991688 0.618241 0.222954 0.155523 -0.268334 0.460995 -0.468417 0.780508 0.947962 0.151727 -0.672875 0.178258 -0.679023 0.663518 -0.352962 -0.176983 -0.646174 0.838360 0.367759 0.958695 -0.277665 -0.878924 0.627692 -0.918613 -0.460831 0.594859 -0.647727 -0.856512 0.821580 -0.897587 -0.008417 0.108187 0.373343 0.350501 0.239456 -0.319139 -0.751778 0.004411 -0.289690 0.137550 0.803747 0.352252 -0.627637 -0.342048 -0.171650 0.728019 0.444855 -0.127825 -0.771790
0.676256 0.070469 0.232801 -0.458845 1.087281 0.168228 0.227947 0.105420 -0.857996 -0.206546 -0.036804 0.474645 -0.562998 -0.012226 -0.760428 -0.851241 0.903145 0.328263 0.500519 0.333653 0.314809 0.243233 0.597439 1.055481 -0.814959 0.959693 0.831317 0.472533 0.255119 0.567271 0.632436 0.348780 -0.601166 -0.318286 0.269232 -0.053543 -0.574614 -0.827583 0.479559 -0.409909 -0.962346 -0.650061 -0.072332 -0.097634 1.111714 0.598160 0.205820 -0.733757 0.164777 0.272519
-0.432946 0.274261 0.532602 -1.228133 -1.048761 0.790681 0.947783 0.236151 -0.619653 -0.022924 0.104283 0.572038 -0.041266 0.183609 -0.429157 0.285855 0.631165 -1.485995 -0.076918 -1.213574 -0.872072 -1.035858 0.091298 -0.239725 0.411346 0.178899 1.071441 0.265244 0.930446 0.459569 0.831866 1.092103 -1.089143 0.593910 -0.335219 -0.853144 0.794532 0.873551 0.013814 0.686651 -0.194941 1.025424 0.108357 1.080333 -0.038489 0.981605 -0.232006 0.357635 0.535717 0.379742
0.521955 0.293882 0.956937 0.122417 -0.681916 -0.928693 0.799672 -0.617808 -0.790470 -0.408058 -0.085861 -0.840585 -0.874331 -0.800172 0.286312 -0.316712 -0.975901 0.851775 0.466357 -0.723543 -0.736376 -0.359747 -0.088925 -0.800191 0.543862 -0.214735 -0.114686 0.737260 0.562734 0.980664 0.534020 0.986162 0.807404 0.036914 0.444752 0.228811 0.911455 -0.209533 -0.937069 -0.097411 0.158311 0.644981 0.636817 -0.488858 0.439431 -0.573971 0.733370 0.861976 0.214899 0.691605
1.135426 0.525703 0.451257 1.585129 0.312858 0.305738 0.398221 -0.702472 -0.366048 0.354235 -0.134622 -0.177334 -0.167673 0.508957 -1.130385 0.799955 -0.619395 1.316190 -0.190836 0.654773 -0.012187 0.714335 1.042336 -0.446538 0.909447 -0.034256 -0.151399 -0.603317 0.792710 0.990319 0.737775 -0.340153 1.165355 -0.350553 -0.828927 0.747514 -1.031306 0.641568 -0.042711 -0.032936 0.399185 -0.915298 -0.618803 0.800162 -0.866653 0.316915 1.172909 0.672385 -0.529114 -0.395190
-2.024252 -0.199385 1.177490 -2.879966 -1.018633 0.063399 0.721141 2.852662 -0.070354 -1.199622 -0.965511 0.204731 1.592543 -1.422730 3.185771 -1.540883 -0.409037 -3.268923 0.600099 -0.572389 0.838357 0.188201 -1.312819 -0.694831 -2.078525 0.625127 2.082420 -1.178792 -0.379090 -1.571635 -0.021784 0.850173 -1.226316 0.029622 -1.452007 0.288280 -0.700934 0.757309 -0.268641 1.384085 -1.407340 3.115097 -1.730452 1.053247 2.467007 0.710707 -2.930865 0.496522 -0.046851 -0.610420
-0.723192 -0.372992 0.477813 0.634082 -0.812119 -0.209619 0.849800 0.906197 -0.367664 0.939808 -0.764975 -0.347656 0.361124 0.751251 0.902969 0.421714 0.427482 -0.193232 0.456165 0.603540 0.217183 -0.088243 -0.386870 0.806408 0.728792 0.576008 -0.702416 -0.550671 0.722426 0.816653 0.059916 -0.478874 -0.198908 0.297766 0.077639 0.253168 -0.326886 -0.422190 0.767146 0.561350 -0.510546 -0.670785 0.305001 -0.214712 0.358924 -0.315644 0.588535 0.861090 -0.572756 0.817588
1.597933 -0.075817 -1.126047 2.403382 0.541543 0.649277 0.815923 -2.410467 -0.875841 2.202832 -0.043016 0.971425 -1.774151 0.641106 -2.374393 1.053965 1.952739 2.617419 -1.116479 0.759877 -0.959561 -0.067046 2.507141 0.214166 1.646252 -1.674652 -2.261527 0.468569 -0.891347 0.877623 -0.715337 -0.716470 1.114865 -0.237656 -0.012982 -1.356332 -0.459326 -0.690434 -0.263771 -2.156154 1.537313 -2.333422 0.516156 -0.622142 -2.304409 -0.242292 2.680097 0.174303 0.007287 0.218635
0.245064 -0.021558 -0.329555 0.766261 0.528923 -0.186476 -0.046157 -0.155006 0.009995 -0.733919 -0.238228 0.386455 -0.917364 0.435960 0.863055 -0.631686 -0.930915 -0.122344 -0.344022 0.600867 -0.005582 0.453285 0.030084 -0.234623 -0.570321 0.258632 -0.148418 0.005403 0.121626 0.503031 0.585126 -0.715999 0.888555 0.679693 -0.493374 -0.692125 0.357539 0.814802 0.754757 0.368851 -0.093802 -0.177135 -0.899637 -0.194301 0.223320 -0.424213 -0.792022 -0.493344 0.155992 -0.219005
-0.679500 -0.325387 -0.251935 0.564395 0.684302 0.565737 -0.689149 -0.700862 -0.429532 0.844952 0.613068 -0.159926 -0.452062 0.881969 -0.647967 0.148765 -0.754060 0.314581 0.455645 0.318209 0.834840 -0.147045 0.102364 -0.594778 -0.159494 -0.585583 0.774201 -0.862789 0.448011 0.071331 -0.973195 -0.671238 -0.204836 -0.405603 1.047301 0.008888 0.413719 0.813079 0.301594 -0.495193 0.803267 0.135840 -0.828205 -0.690375 0.537296 -0.106983 0.745662 -0.557848 -0.378758 0.063295
0.922446 -0.635973 0.893370 -0.038741 -0.351704 0.778022 0.084628 -0.162839 -0.148133 0.086220 0.675182 -0.226088 -0.619791 0.332393 -0.366556 0.968346 0.765558 -0.434655 -0.374287 0.206170 0.586655 -0.936484 0.700683 -0.045134 -0.474014 0.935473 0.301224 0.278836 -0.789253 -0.198597 0.683897 -0.687915 -0.653170 -0.082252 -0.687002 -0.417263 0.213424 0.875327 -0.448476 0.085046 -0.438099 0.552729 -0.924562 0.254566 -0.478722 0.786636 -0.735992 -0.447635 -0.064184 0.714963
2.485680 -0.346536 0.321842 -0.557733 1.440610 -0.874115 1.067448 0.989774 -1.023711 -2.389807 1.562972 0.404296 -0.199762 0.458108 0.036025 0.030544 -0.318852 -0.309097 -1.816061 -1.156902 1.470280 -1.412071 0.154179 -1.529353 -0.411778 0.386608 0.537335 0.897328 0.603422 -1.890800 -1.435843 -1.567018 -0.421599 -0.080817 -0.096426 0.239539 1.579687 1.347515 0.022434 -0.517612 -0.346972 -0.198197 -1.177215 -2.048139 0.202456 0.598210 -0.860217 0.685513 1.924945 -0.907939
-0.723618 0.356488 0.833901 -0.651401 -0.419325 -0.358450 -0.350421 0.656386 -0.436688 -0.778742 0.639923 0.823477 0.472903 0.068811 -0.182941 0.670956 0.884339 0.396225 -0.138863 -0.902752 0.771473 -0.502007 0.827229 -0.260742 0.999930 0.220093 -0.753162 0.306885 0.108714 0.419008 0.113335 -0.114170 -0.735070 0.056021 0.669114 0.656464 0.432073 -0.442290 0.176228 0.577719 -0.335460 0.880901 0.242862 0.702773 0.709923 0.002445 0.686520 -0.350289 -0.464230 -0.307153
-2.061740 0.369816 -0.569981 0.202880 -1.652964 0.802852 -0.430362 -1.820410 -0.431257 2.412256 -0.791018 -0.453415 -1.681117 -1.856250 -0.416541 0.606414 -0.101510 -0.418537 1.956068 0.925943 -1.170336 0.398747 1.261498 2.008240 0.587973 -1.580363 0.368731 -0.678034 -0.244988 0.545249 1.252607 0.610004 0.586342 -1.044374 0.650827 -0.113695 -1.452715 -1.530213 -0.488797 -0.822912 0.415404 0.783977 2.139005 1.495743 -1.601966 -0.257523 0.892147 -1.053324 -2.296967 0.343471
0.716340 0.129245 -0.566323 0.167713 0.356765 -0.719104 0.790283 -1.012662 0.676565 -0.756073 0.104164 -0.530015 -0.340280 0.322919 0.307944 -0.321451 0.363066 -0.330254 -1.006605 0.218769 -0.791792 0.821615 0.970435 0.414897 0.530801 -0.054798 -1.060189 0.278307 0.342979 0.095255 0.465851 0.161596 0.891125 -0.686940 0.871813 0.170335 -0.487420 -1.091357 -0.897531 -0.458605 0.274067 0.360713 -0.205771 0.756073 -0.875746 0.157668 -0.136248 -1.066927 -0.750739 0.262841
-0.977448 0.941244 0.943983 -0.660485 -0.522084 0.161023 0.774995 -0.398743 -0.433354 -0.876581 0.471341 0.855308 0.865513 0.855059 0.480866 -0.623828 -0.178616 0.573128 -0.331454 -0.432787 0.213801 0.132686 -0.725902 0.434151 -0.457804 -0.842757 0.961951 -0.057924 -0.136492 -0.584799 0.399484 0.293003 0.353173 0.630440 -0.898432 -0.835151 -0.276993 0.912695 0.814739 -0.004889 -0.843735 0.950110 -0.468158 0.072640 0.909945 0.543520 -0.550838 0.300927 0.923342 -0.364558
0.450219 0.058132 -0.190556 0.328258 0.295022 0.735164 -0.071900 -0.434768 -0.703591 0.903641 0.001102 0.125376 0.088519 0.793131 0.763727 -0.621301 0.173539 0.041562 -0.371452 -0.775407 -0.624229 0.441105 -0.123153 0.144533 -0.634954 0.697467 -0.447466 0.688540 -0.442631 -1.076677 -0.510642 0.689114 -0.291714 -0.496852 0.865597 -0.069057 0.515411 0.645390 1.130883 0.909568 0.038165 0.329202 0.765935 0.767802 -0.094077 -0.787245 -0.870695 0.602188 0.095100 0.335966
0.459536 -0.740130 -0.335018 0.442242 -0.967258 -0.316606 0.044818 -0.591298 -0.677207 -0.804200 -0.187192 -0.187003 -0.276354 -0.589968 0.714702 -0.309450 0.761905 1.030975 -0.299817 -0.167958 0.703516 0.687503 -0.422497 -0.672446 0.944292 -0.934943 -0.915358 -0.370752 0.869752 -0.627765 -0.614122 0.684811 1.017225 0.506923 -0.117813 -0.306914 0.152736 -0.458712 -0.763729 -0.026211 1.142784 -0.094953 1.100984 0.981148 0.765342 0.467451 0.490834 0.133595 -1.002793 0.231500
-0.180207 -0.737421 -0.261966 0.063885 0.789751 0.266697 -0.660526 -0.050390 -0.214138 -0.923862 -0.223785 -0.013104 0.501732 0.394023 -0.420889 0.586258 0.368706 -0.574645 0.928767 -0.932789 -0.525345 0.104089 0.124834 0.611592 0.122102 -0.974669 0.502276 0.557257 0.357893 0.994551 0.432841 -0.428938 -0.808410 -0.793594 -0.585411 -0.619560 -0.562338 0.041265 0.082374 -0.624288 -0.594534 -0.965732 0.624766 -0.718631 0.443831 0.475089 0.129625 0.558967 0.359536 0.114677
0.041200 -0.374311 0.623985 -0.414333 -0.236190 -0.079554 -0.211647 -0.157074 -0.029401 0.701859 0.483414 -0.166356 -0.227076 -0.241964 0.815040 -1.222399 -0.137582 0.161270 0.321107 0.542482 1.142369 -0.756633 0.187691 -0.654354 -0.147574 0.162762 -0.074568 0.233366 -0.681165 0.653289 -0.491535 -0.157652 -0.693328 0.817115 -0.387617 -0.353327 -0.861520 -0.098931 0.974749 -0.049413 -0.834312 0.234696 0.145097 -0.308358 0.675662 -0.359481 0.400281 0.417899 -0.791501 -0.371270
-0.955160 -0.830642 0.346968 -0.365329 0.532466 0.774732 -0.699011 0.041466 0.963743 -1.173129 0.140732 0.232595 -0.012068 0.589612 1.123796 -0.337035 -0.390320 -1.267295 -0.486290 -0.406568 0.398915 -1.106204 -0.182055 0.544104 0.887245 -0.876237 0.971002 -0.915312 0.440857 -1.014335 0.729258 0.516688 0.123305 -0.312438 1.096461 0.080009 0.745908 0.301744 -0.516748 -0.557978 0.878566 1.047323 0.236778 0.639191 0.814375 0.341828 -0.893970 0.355187 0.660779 0.520680
0.847192 0.672592 -0.889832 0.549394 0.322290 -0.204837 -0.188358 0.835733 -0.019949 -0.355434 0.383662 -0.921506 0.164947 0.946753 0.900662 0.956508 -0.988645 -0.729913 -0.219304 0.919580 0.050688 -0.434467 0.292209 -0.269766 0.032345 0.812249 -0.459368 -0.225888 -0.330635 -0.478047 0.298737 -0.548711 -0.259748 -0.721525 -0.915783 0.834146 0.409895 0.532020 -0.670697 0.030522 0.127286 -0.110071 0.025808 0.193340 -0.155771 -0.426774 -0.063834 -0.769979 -0.380183 0.222042
0.625637 0.287113 -0.216778 -0.213414 -0.742209 -0.124784 0.861278 0.139623 0.090240 0.742735 -0.200782 -0.983446 0.143994 -0.197144 -0.211514 0.285412 -0.113328 0.528548 -0.772968 -0.170024 -0.881752 -0.039265 0.627537 0.822965 -0.346921 0.122673 -0.225976 1.035888 0.719740 -0.785275 0.458703 0.388599 1.247988 0.401204 -1.053113 0.867443 -0.126822 0.637169 0.327226 0.902946 0.246499 -0.322255 0.442748 -0.193509 0.257637 0.004667 -0.233934 0.827834 0.472074 -0.371706
1.160409 -0.489845 0.368016 1.221586 -1.244784 -0.830912 -0.638656 -0.372045 0.449209 -2.674109 0.278963 1.312962 1.279429 0.510457 0.776977 -1.262035 -0.536439 0.039937 -1.200940 1.935889 0.075355 -1.927325 -2.487576 0.348192 0.641043 0.767375 -0.961649 -0.149426 0.168415 -0.399950 -0.936045 0.765292 -0.102350 -0.361231 -1.346734 0.735309 1.159579 -1.599001 1.446849 1.513276 -0.212592 0.164120 -1.093168 -0.579873 -0.246771 -0.543229 -1.453110 -2.246829 1.628798 -1.452689
-0.934529 0.537846 -0.911714 0.777177 0.603179 0.969124 -0.053544 0.320464 -0.691561 0.147884 0.775408 -0.169055 0.611968 0.925712 0.807572 -0.646134 -0.272969 -0.132663 -0.580096 0.360367 0.019808 -0.363446 0.047657 -0.148450 0.361383 -0.160306 -0.403150 0.103122 0.729587 -0.311992 -0.524332 0.396194 0.417823 0.340931 -0.302685 0.217219 -0.992659 0.319944 0.167276 -0.655664 -0.125330 0.095498 -0.552140 0.040698 0.494065 -0.461494 0.321168 -0.245886 0.252823 -0.338058
-0.161652 -0.547558 0.414396 -0.365935 0.698950 -0.129516 1.614997 0.834795 1.165745 1.963230 -0.409360 0.482683 0.046555 -1.390342 0.228091 1.307577 0.779437 1.094861 1.066969 -1.876800 0.229526 1.915126 2.096036 -0.625669 0.015593 -0.934227 0.152675 -0.518307 1.060569 0.557050 1.126434 -1.207840 1.398713 -1.469323 1.610584 -0.298101 -1.303203 0.477690 -1.481009 -1.370172 -0.604750 0.450187 0.765328 -1.059848 0.494235 0.794194 0.012237 2.314228 -1.791479 1.506357
-0.442257 -0.560658 0.042516 -0.443682 0.021465 -0.701350 0.693408 -0.725053 0.861038 0.016408 -0.229237 0.895680 -0.125618 -0.696343 0.021663 0.530316 0.096038 -0.646872 0.765933 -0.201542 -0.608052 -0.312306 0.524599 -0.971372 -0.478086 0.586864 -0.400948 -0.620893 -0.386258 0.869648 0.592216 -0.057992 0.745168 -0.346562 0.873839 0.479292 1.006025 -0.582220 -0.659451 0.487549 -0.625058 -0.571311 0.689360 0.453907 -0.347946 0.314563 0.122186 -0.091382 0.001236 0.795150
0.476333 0.008290 -0.184478 -0.668256 0.534084 0.162438 0.543240 -0.609140 0.409175 0.330515 -0.725007 -0.982247 -0.001196 -0.838055 -0.671780 -0.857750 -0.680614 -0.510801 -0.476318 0.264305 -0.622204 0.042487 0.533009 -0.867867 0.855447 0.107176 -0.863019 -0.847211 -0.225591 0.696548 -0.843810 -0.618473 0.612455 -0.163373 0.792597 0.134330 0.737451 0.376866 -0.091349 -0.458143 0.483067 0.193894 0.031716 -0.634312 0.775751 -0.564480 0.786944 -0.465871 0.387437 -0.164413
-0.598118 -0.282919 -0.281137 -0.350175 -0.317273 0.700947 -0.460412 0.757113 -0.310041 -0.518446 -0.385480 -0.416197 0.210007 0.477770 0.404659 0.603367 -0.115690 0.336385 -0.048519 0.117527 -0.410691 -0.090840 0.015571 -0.113133 0.715607 0.903393 -0.173277 -0.543934 0.751492 -0.312018 0.523768 -0.030575 0.393348 0.733362 0.151690 0.508046 -0.939228 0.615638 0.250161 0.129994 -0.172858 0.231151 -0.042843 0.566724 -0.197938 -0.108900 -0.902225 -0.347721 -1.158880 -0.040312
