0.358405 0.428198 -0.060451 -0.035747 -0.042985 0.106816 -0.529733 -0.123122 -0.030936 0.674706 0.336609 0.625843 -0.576939 -0.707047 -0.055995 -0.480828 0.533727 -0.806443 0.500261 -0.685812 -0.275559 -0.196947 -0.060491 -0.241894 -0.616776 -0.732519 0.266615 0.512447 -0.200716 0.009133 -0.913052 0.437123 0.911865 -0.986949 -0.463080 0.668149 -0.458499 0.800624 -0.869741 0.339182 0.213007 0.278943 -0.817966 0.759519 -0.769490 0.350570 0.011879 0.149190 -0.485110 -0.177216 -0.677075 0.401824 0.274027 0.355717 0.968444 0.136560 -0.310666 -0.540177 0.916094 0.470530 0.409151 -0.119218 -0.680370 -0.109237 -0.009787 0.283181 0.803264 -0.610625 0.252895 0.522728 -0.749147 0.715486 0.261664 -0.289904 -0.966844 -0.417321 0.273825 0.245960 -0.170420 -0.870153 -0.640763 0.033317 0.524915 0.543800 -0.072706 0.343476 -0.290756 -0.902403 0.519987 -0.221289 -0.233135 -0.603119 -0.793734 -0.104090 -0.443258 0.630000 -0.678907 -0.672358 -0.403061 0.847705 0.514325 -0.136857 -0.790211 0.499597 -0.538707 -0.342049 -0.349522 -0.161512 0.711319 -0.506528 -0.583232 0.430281 -0.701383 0.139844 -0.648830 0.880853 -0.778631 -0.680134 -0.539959 0.862046 0.885056 -0.931714 0.348930 0.087535 -0.155805 -0.843573 -0.729913 0.399765
0.079488 0.734468 0.939570 -0.256805 -0.122576 0.852899 0.157952 -0.391248 0.034214 -0.057196 -0.474292 0.925973 -0.289268 -0.535080 0.297512 0.727468 -0.033758 -0.179959 -0.730669 0.967302 -0.970063 -0.169739 -0.611391 -0.131615 -0.555160 0.189762 0.185997 0.328644 -0.274364 0.766248 -0.315366 0.988213 0.504734 -0.132531 -0.005136 0.124884 0.532314 -0.290229 -0.710197 0.242366 0.802330 -0.407766 -0.865376 0.617637 -0.004062 -0.384392 -0.344677 -0.441448 -0.262310 0.926633 -0.189192 -0.491000 -0.818721 0.210735 0.987105 -0.452849 -0.135108 0.593405 0.569188 -0.530676 -0.915095 0.492605 0.519472 -0.504842 -0.762564 -0.868222 0.356471 0.644647 -0.606113 0.818659 0.095328 0.316189 -0.465629 -0.708223 -0.708653 -0.590111 0.863720 -0.781927 -0.269963 -0.442067 -0.100069 0.090234 -0.266829 -0.246948 0.053628 -0.097795 0.614226 0.696475 -0.709359 -0.371359 0.524553 -0.537427 0.764196 0.953466 -0.782928 0.263276 0.332516 -0.090264 -0.997134 -0.538925 -0.407866 -0.833640 -0.575134 0.185981 -0.021115 -0.528092 0.136085 0.407190 -0.953089 0.968513 0.762344 -0.358354 0.056403 -0.713681 -0.714700 0.773622 0.751191 -0.653123 -0.322721 0.601815 0.447160 0.121510 -0.275579 0.058380 -0.395109 -0.631092 0.660177 0.046436
0.045522 -0.508188 -0.213400 0.050866 0.667483 -0.749731 -0.001313 0.135800 0.609635 -0.418041 -0.283328 0.687475 0.602920 0.979231 0.678301 0.813867 -0.369084 -0.724462 -0.421196 0.594890 0.467865 0.789870 -0.013050 0.739084 0.851695 -0.897722 -0.174469 -0.767124 0.305839 -0.406540 -0.346097 -0.680679 -0.927203 0.001100 -0.670214 0.775745 -0.611213 0.503278 0.390280 0.871940 0.530942 0.107186 -0.409549 0.663597 -0.352637 -0.140711 -0.359690 -0.296950 -0.193251 -0.253045 0.638318 -0.372623 0.681715 0.807009 0.346488 0.830872 0.705685 0.442151 -0.484488 0.638304 -0.122111 0.586032 0.206059 0.486739 -0.137823 0.553358 0.761465 -0.631158 -0.887982 -0.352645 -0.822313 0.116562 0.881666 0.418486 -0.886895 -0.477373 0.248949 -0.514245 0.610499 0.689755 0.850097 -0.841513 0.470589 -0.048901 -0.672080 0.492460 0.055081 0.356650 0.978150 0.865502 -0.918257 0.019375 -0.690607 0.273430 -0.060203 0.348514 0.550275 0.990568 0.970235 0.819787 -0.039737 0.326751 -0.777914 0.267491 -0.508810 -0.215633 0.960531 -0.792203 -0.233085 -0.896080 -0.146348 0.957256 -0.543790 0.598312 0.439009 -0.586311 -0.176861 -0.411283 0.835653 0.671489 -0.184640 0.036808 -0.875850 0.854860 0.297961 0.643734 -0.237696 0.496764
0.484797 0.378536 -0.094303 0.647845 -0.767739 0.798786 -0.104249 0.410939 -0.276529 -0.686293 0.713942 0.575960 0.922896 0.101021 0.351871 0.639808 0.600209 -0.417617 0.111953 0.758601 0.234711 0.786059 0.687014 0.326459 -0.617424 0.179716 -0.025248 0.062316 -0.805786 -0.045789 -0.904897 -0.028091 -0.728489 0.207258 -0.004801 0.511528 -0.814154 0.839286 0.294175 -0.890886 -0.105189 -0.334361 -0.464555 -0.265010 0.461426 0.223976 -1.007091 0.360024 0.414285 -0.076608 0.050611 -0.799968 -0.438393 -0.240952 0.314671 -0.291023 -0.338228 -0.851550 0.442495 0.342568 0.460300 0.541133 0.594819 -0.872707 0.437163 0.336438 -0.105161 -0.214177 0.529963 0.633260 -0.627078 0.631675 0.836257 0.163501 0.839286 -0.362674 -0.490304 0.440198 0.110866 -0.473165 -0.659994 0.128677 -0.915432 0.810612 0.191615 0.560904 0.754001 0.188628 -0.078594 -0.829077 0.804996 -0.524677 0.280146 0.153787 0.944724 0.448347 -0.890135 0.042933 -0.043604 0.011176 0.961746 0.820779 0.059869 -0.148521 -0.034508 0.707544 -1.000281 -0.544054 -0.568568 -0.342648 -0.431518 -0.627970 -0.613178 0.542058 0.681717 0.579750 0.446894 0.660477 -0.330390 -0.855171 -0.800621 0.627037 0.685192 0.971029 -0.780840 0.879222 0.926968 0.736287
-0.146358 -0.807506 -0.173288 -0.286403 -0.868628 0.272452 0.835911 -0.994705 -0.694241 0.682753 0.805398 0.192881 -0.335361 -0.991024 0.114253 -0.610986 0.129935 -0.675157 -0.012604 0.977780 0.448554 0.329027 0.875052 0.653885 -0.297284 0.060338 0.733061 0.359859 -0.720789 -0.961090 -0.481159 -0.602397 0.293313 -0.266161 0.920651 -0.317239 0.986392 0.713224 0.452814 -0.344350 -0.454429 0.348121 -0.836241 -0.872267 -0.809811 -0.861157 -0.775223 0.712887 -0.349080 -0.596998 -0.807026 -0.341657 0.822769 -0.777117 -0.247802 -0.795830 -0.005296 0.909640 0.715314 0.152859 0.241081 0.537115 -0.649259 -0.446798 0.378249 0.341119 -0.942953 0.319858 -0.135286 -0.311955 -0.831701 0.002950 -0.754910 -0.197376 -0.288422 -0.555400 -0.719402 -0.655745 -0.734776 -0.994682 0.616879 0.170230 0.817483 -0.465631 0.596313 -0.893961 0.759830 0.924743 -0.768278 0.301719 -0.822834 0.498642 -0.742749 0.344672 0.774503 0.536426 0.102130 -0.383414 0.474610 0.176485 0.340572 -0.697581 0.424424 -0.591094 -0.720196 0.591992 0.155943 0.268313 -0.903711 -0.918870 0.056996 -0.832029 0.307679 0.991261 0.034324 -0.204653 0.548592 -0.021312 0.248953 0.213875 -0.147499 0.810643 -0.091499 -0.324160 0.842021 0.780850 0.428147 0.922993
-0.238166 -0.618369 -0.229027 0.182290 -0.566982 -0.307303 -0.286282 -0.784595 -0.680516 -0.645942 0.592347 0.635787 -0.328875 0.359550 0.153724 -0.756395 -0.494439 -0.829711 -0.696153 -0.808728 0.985429 -0.555989 -0.345266 0.554811 -0.693982 0.858057 -0.157264 0.930167 -0.106013 -0.342377 0.776740 0.494000 0.065646 0.768707 0.225807 -0.177334 0.306553 0.532618 0.945817 0.127941 0.555205 0.890251 -0.974584 -0.357707 0.531708 -0.038052 0.951355 0.468116 0.820244 0.475338 -0.399968 -0.187108 -0.055860 0.688442 0.849758 -0.699341 0.522762 0.345368 -0.134147 0.490119 -0.075953 -0.661987 0.510596 -0.184992 0.120645 0.422816 0.124205 -0.362772 -0.587543 -0.018673 -0.330648 -0.956067 0.822399 0.424419 0.130139 -0.171944 -0.351690 -0.008743 -0.519643 -0.305990 -0.342859 -0.732714 -0.781116 0.130325 -0.268820 -0.557587 -0.767608 0.506608 -0.008303 0.057748 0.371286 0.375701 -0.450933 -0.415166 -0.999046 0.850434 -0.826174 -0.010169 0.872927 0.451392 -0.715113 -0.995697 -0.506818 -0.915337 0.039992 0.898323 0.838794 0.006576 0.660711 0.155295 0.615659 -0.379879 0.095010 0.819838 -0.366402 0.832771 -0.015416 0.441630 -0.208439 0.856106 0.468030 -0.698931 -0.714370 -0.721777 -0.790627 0.700605 -0.570807 0.826159
0.959731 0.676417 0.495704 0.823839 0.314496 -0.067618 0.224419 0.610455 0.775885 -0.787571 0.704311 -0.991795 -0.956036 0.354042 0.919419 0.459376 -0.366658 -0.952924 -0.150686 0.339356 0.842843 -0.992026 -0.648435 0.680261 0.103011 0.382384 -0.502154 0.017139 -0.598794 -0.471846 -0.330917 0.142490 -0.279137 0.914422 -0.264949 -0.896098 0.710204 -0.170584 -0.404358 0.271527 0.215684 0.126896 -0.660359 0.921541 -0.141268 -0.821658 0.960268 -0.428874 -0.118471 0.949977 -0.580069 -0.713574 0.149581 0.222492 -0.459367 -0.433829 0.526784 -0.098355 -0.143750 -0.838297 -0.751419 -0.932556 0.260276 -0.656122 -0.471795 0.251121 0.485966 -0.387610 0.715434 -0.925098 0.413205 -0.503938 0.666214 0.020087 -0.438836 -0.018902 -0.174345 0.098341 0.790239 0.771457 -0.898948 -0.532984 0.488398 1.000516 -0.885332 0.113348 0.744432 0.744762 0.314648 -0.797157 0.469503 -0.890049 0.644611 -0.408264 0.820801 -0.869549 -0.491384 -0.235841 0.782912 -0.269714 -0.361791 -0.989944 -0.620868 0.056267 0.401192 -0.460348 0.071825 -0.126828 -0.629029 -1.002944 0.156136 0.913116 0.228813 -0.271835 0.341770 -0.868048 -0.601257 0.210951 0.552891 0.574472 -0.902058 0.636511 0.782047 0.271066 0.747218 -0.126436 -0.978392 -0.310958
0.516630 0.515422 -0.369202 -0.493753 0.094814 -0.744134 -0.679101 0.987143 -0.991118 0.355580 0.585463 0.794340 -0.918539 -0.481717 -0.336555 -0.006555 0.573588 -0.252336 0.437391 0.708447 0.856051 -0.074343 -0.148121 0.774530 -0.171840 0.829599 0.272965 -0.539233 -0.762997 0.076554 0.350052 0.456497 -0.071103 0.222401 0.874336 -0.099468 -0.812520 -0.664776 0.898527 0.809049 -0.305737 -0.320007 -0.855492 -0.111262 -0.746562 0.828592 -0.149605 0.745515 -0.836765 -0.087667 -0.294563 -0.984071 0.533138 -0.212048 0.096230 0.907807 0.811913 -0.646404 0.103781 0.645478 0.034858 -0.068917 0.741873 0.413472 0.976083 -0.745474 -0.012316 -0.714649 -0.889076 -0.172348 -0.192636 -0.880592 -0.732689 0.901739 -0.271626 0.356574 0.138499 -0.438648 0.851500 0.400198 -0.201779 -0.320378 0.851909 -0.700227 0.066221 -0.784164 -0.080676 -0.549021 0.180729 0.863077 -0.484653 -0.410697 0.553581 -0.685840 -0.668217 0.559406 0.421835 0.158615 -0.850504 -0.891681 0.049818 0.391741 -0.487672 -0.989291 -0.040881 -0.473363 -0.076341 0.120483 -0.718627 0.147242 0.018518 -0.667336 -0.680793 -0.923191 -0.121740 0.905221 0.864549 0.275529 0.713842 0.706822 -0.022698 0.816372 -0.495434 0.932304 0.748143 -0.271377 0.075639 0.900817
-0.597326 0.037052 0.798611 0.421577 -0.310950 -0.924150 0.308987 -0.394166 0.882780 0.439943 0.176442 -0.920551 -0.799922 0.745502 -0.167472 -0.739851 0.115948 0.468179 -0.697203 -0.587721 -0.228942 0.199846 0.740712 0.504423 -0.990858 0.079166 -0.699518 0.758269 0.982409 -0.623309 0.886515 0.956826 0.974285 0.944810 -0.066906 0.870260 -0.387425 -0.264449 -0.804521 0.818128 -0.410133 -0.084270 -0.663701 0.714507 -0.612227 0.529645 -0.435256 -0.186607 0.892286 0.430512 0.847553 0.437037 -0.242900 -0.301254 0.680308 0.169244 -0.157989 -0.545599 0.833999 0.621600 0.919499 0.583419 0.502338 -0.525708 -0.186024 -0.133912 -0.734719 -0.515048 0.305511 0.632913 -0.018026 0.235021 0.248674 0.248726 -0.072768 0.144908 -0.358196 0.749905 0.211390 -0.792887 0.339769 -0.456387 0.444170 -0.754358 0.902674 0.300907 -0.296975 0.676289 0.474734 0.036662 0.320734 -0.066719 0.560608 -0.601811 -0.391997 -0.420384 -0.746496 0.160051 0.502549 0.736918 0.239913 0.466820 -0.420974 -0.187832 0.269352 0.598765 0.683615 0.892886 -0.217825 -0.083222 -0.625517 0.106522 0.549522 0.638146 -0.102104 -0.602411 0.094532 0.199722 0.398347 -0.123716 0.254992 0.931259 -0.029224 0.094333 -0.683419 -0.486255 0.380535 -0.756553
0.398930 0.487866 0.747169 0.575435 -0.530936 0.357743 0.984909 -0.200553 -0.074837 0.732681 0.718235 0.312349 -0.110724 -0.037598 0.118238 0.486824 -0.288668 0.878863 -0.803198 0.299175 -0.985178 0.550402 0.206418 0.507622 -0.935635 -0.902957 0.740039 -0.148831 -0.969937 0.629420 0.126012 -0.729400 0.407368 -0.094239 -0.534019 0.946501 -0.047716 -0.320994 0.597821 0.896958 0.894035 -0.920031 -0.658066 -0.983535 0.645704 0.886816 0.098812 -0.269710 -0.225883 -0.647890 0.424906 0.553483 -0.294748 -0.204174 0.008425 -0.619601 -0.841107 -0.574343 -0.536414 -0.961579 -0.918959 -0.020765 0.626679 -0.778872 0.166310 0.317434 -0.100810 -0.921837 -0.538401 -0.799270 -0.624313 0.056797 -0.598083 0.581289 -0.616573 -0.201723 0.416410 0.476148 -0.651725 -0.172699 0.922212 -0.190856 -0.854492 0.042917 0.440778 -0.316163 0.629887 -0.226096 -0.807707 0.706272 -0.354515 -0.401403 -0.993983 0.015158 0.829811 -0.057110 -0.433863 0.625257 -0.339815 0.663426 0.107078 -0.530048 0.105111 -0.087591 0.729078 -0.135262 0.183975 0.297339 0.131205 0.418349 0.085240 -0.896483 0.515545 0.765366 -0.500676 -0.691167 -0.931424 0.201927 -0.691679 -0.993423 0.177646 0.036451 -0.021684 -0.514237 -0.133502 -0.432347 0.923063 0.900349
0.869337 0.419772 0.081485 0.429580 0.694779 0.914061 0.243046 -0.424882 0.429586 0.268146 0.699735 0.507625 -0.512002 -0.336934 -0.363376 -0.402993 0.924192 -0.373152 0.823406 -0.038283 0.230778 -0.090368 0.730138 0.338150 0.706950 -0.364934 0.380313 -0.285146 0.042026 0.702549 0.910035 0.417660 -0.697470 0.571227 -0.899287 -0.172070 0.079093 -0.428308 -0.943046 0.310504 -0.531987 0.981669 0.736862 0.819776 -0.964433 0.749241 -0.753248 0.458319 0.057222 -0.216569 0.363825 0.326539 0.256825 0.147173 -0.147064 0.811074 -0.896114 -0.283167 -0.352832 -0.827600 -0.363866 -0.351120 0.735068 -0.037225 0.403743 0.956427 -0.741770 -0.036020 0.799004 -0.149040 -0.742718 0.515593 0.069479 0.877032 0.500616 -0.622090 0.239837 -0.720104 0.461772 -0.218279 -0.791277 0.099311 0.150156 0.634773 -0.114296 0.994136 -0.492996 0.595758 -0.778179 -0.649450 -0.548133 0.862586 0.256104 0.442199 0.366068 -0.631398 0.114199 0.406620 -0.301531 0.163673 0.224614 0.924686 0.821927 0.723220 0.684011 -0.374662 0.544435 -0.673543 0.902584 0.896588 0.372983 -0.961012 0.967782 -0.216272 -0.700767 -0.249641 -0.726542 0.919997 0.628987 0.901175 0.741432 -0.018172 0.645475 0.282777 0.759128 -0.800500 0.076074 -0.661048
0.260033 -0.016178 -0.943783 -0.220290 -0.883522 -0.908644 -0.641290 0.820414 -0.906505 0.623534 0.421271 0.070963 -0.916142 -0.500535 -0.737531 0.988812 0.496924 0.827236 0.944596 0.144194 0.811843 0.505108 0.863753 0.871154 0.075751 -0.755228 -0.807092 0.259220 0.364280 -0.732498 -0.323738 -0.089715 -0.863551 0.789898 0.221040 -0.503615 0.477736 0.881623 -0.155110 0.152692 0.021403 0.716331 0.818675 0.941327 -0.794960 -0.706029 -0.317329 -0.093826 0.083833 0.423703 -0.711822 0.333045 0.066154 0.039618 -0.989757 -0.637835 -0.641690 -0.123703 -0.654853 -0.373990 0.978728 0.313160 -0.595024 -0.265963 0.511705 0.334471 -0.573131 -0.432426 -0.144813 -0.517667 -0.978181 0.114776 -0.122954 -0.038224 -0.151483 -0.887010 0.886497 0.498887 0.362246 0.949371 -0.231278 -0.393072 0.432590 0.684410 -0.884219 -0.445685 -0.363435 0.319468 -0.582206 0.889957 0.505462 0.454901 -0.200798 -0.290885 0.281237 -0.932995 -0.243316 -0.995582 -0.249772 0.513303 -0.302039 -0.400774 -0.318734 0.543270 -0.400768 0.405933 -0.942685 -0.062485 -0.255042 -0.944042 0.987925 0.429727 -0.278322 0.817732 0.081721 0.577744 0.881087 0.949416 -0.058139 -0.539101 0.350387 0.200422 -0.925208 0.358847 -0.801525 0.113836 0.418286 0.683882
-0.028208 0.027138 -0.164556 0.299718 -0.086064 -0.593075 -0.115751 -0.409227 0.352594 0.932093 -0.517186 -0.323580 0.121204 -0.985312 0.907334 -0.500782 0.535956 -0.720298 0.218300 -0.047805 -0.164067 0.848091 -0.250343 -0.282009 0.646467 -0.021463 -0.504812 0.549935 -0.572018 0.970110 -0.566801 -0.512903 0.329769 -0.959724 -0.893107 0.551139 0.625923 0.242107 0.919536 0.202477 -0.226767 -0.129313 -0.180544 0.036911 -0.170446 0.944299 0.092191 0.249819 -0.755998 0.079565 -0.563440 0.346706 -0.999187 -0.858139 -0.074802 -0.781702 0.001052 -0.842966 -0.768176 0.680009 0.049556 -0.290510 -0.574011 -0.485912 0.306990 -0.317284 -0.348993 -0.493689 -0.131778 -0.506809 0.896683 0.729639 0.527689 0.263931 0.087438 -0.634389 -0.680528 -0.797929 -0.000202 0.647742 -0.226645 -0.770906 -0.702126 0.919697 0.783322 0.577332 -0.572013 0.984446 0.012646 -0.618533 0.705300 -0.214151 0.333013 -0.354510 0.275230 0.293575 0.307535 -0.216941 0.443198 -0.475628 -0.657839 0.161142 0.249542 0.001084 0.355538 -0.010143 -0.626811 -0.270923 0.457466 -0.572018 -0.409550 -0.987202 -0.544738 -0.913418 0.802679 0.359607 0.048860 -0.069703 0.974494 -0.353114 0.063997 -0.048707 -0.742300 0.473551 -0.629295 0.483992 0.568155 0.565361
-0.387339 0.911813 0.422546 -0.776454 -0.353303 0.664104 -0.821846 -0.314292 -0.153095 0.376178 -0.036002 -0.112658 0.556707 -0.063808 0.729916 0.908563 0.215283 0.863157 0.120308 0.968327 0.379562 0.822543 -0.506219 0.225630 0.563214 -0.228682 -0.227112 -0.340152 -0.815978 0.099606 0.765211 0.466373 -0.153484 0.838590 0.868519 0.858706 0.997845 -0.526668 0.602284 0.375381 0.835164 -0.981758 0.417425 -0.920188 0.712293 0.633760 -0.642209 0.595016 -0.397356 -0.729027 0.287439 -0.849779 0.836173 0.599491 0.693934 -0.915761 -0.757888 0.568805 -0.463764 -0.869263 0.367570 0.339936 -0.846380 -0.338179 0.719867 0.816075 -0.335089 -0.454737 -0.329896 -0.200097 0.179600 0.463726 0.815474 -0.345472 0.808154 -0.365567 -0.870230 -0.790332 0.418783 0.595243 0.550342 0.931362 0.987148 0.356519 0.763987 -0.488470 0.751054 -0.014244 0.836922 0.657216 0.771389 -0.493267 0.558904 0.944219 -0.806758 0.714334 0.280899 0.089644 -0.072171 0.396978 0.301775 0.826320 -0.433855 0.648307 0.466594 0.615605 -0.310711 -0.050802 -0.114005 -0.235774 0.222819 -0.574710 0.518471 0.099439 -0.120865 0.568148 -0.591359 -0.924479 0.709447 -0.054290 -0.509448 0.808429 -0.667958 -0.519107 0.307817 0.048697 -0.732921 0.694140
-0.014886 -0.289053 -0.295700 0.175569 0.178728 -0.708840 -0.382053 -0.724331 -0.091880 0.849177 -0.261816 0.724620 -0.410326 0.499434 -0.553081 0.131610 0.951691 0.459903 -0.602403 0.224878 -0.994764 -0.999840 -0.982308 -0.714050 0.045447 0.068676 0.047120 -0.486389 -0.895515 -0.426758 -0.277797 0.210021 0.929482 0.996713 0.096256 -0.807006 0.762863 0.701462 -0.212040 -0.665348 0.765469 -0.271043 -0.566265 0.986030 -0.978751 -0.108246 0.714124 0.810768 0.601533 0.071949 -0.067181 -0.959709 0.978123 -0.859321 0.445227 0.513187 0.988503 -0.260447 -0.293518 0.409888 0.498618 -0.205187 -0.901863 0.846943 0.939914 0.337850 0.289177 -0.574335 0.885490 -0.824850 -0.974950 -0.520408 -0.365383 0.685856 -0.247826 -0.953433 -0.005982 -0.544234 0.947002 -0.273231 0.345632 -0.720260 0.261054 -0.327963 -0.109542 0.406172 -0.923605 -0.736733 -0.491880 -0.446677 0.968643 0.248631 -0.404415 -0.136434 -0.529146 0.479666 0.461527 -0.429520 -0.737789 0.107975 0.893934 -0.105536 -0.983091 0.112785 -0.120967 -0.883675 0.303888 0.685586 0.267742 -0.346402 -0.886437 -0.072093 -0.568262 -0.132385 0.188046 -0.287804 -0.465653 -0.948941 0.715500 0.428764 -0.791599 -0.174672 -0.131691 -0.738727 0.386553 0.878193 0.096933 0.137102
-0.151438 0.873650 0.004198 -0.596616 -0.768243 0.418364 -0.307097 -0.862115 0.191071 0.092179 -0.907168 0.216716 0.403008 0.159970 -0.593507 -0.051156 0.448774 0.167509 -0.118777 -0.150931 -0.355043 -0.735012 0.476310 -0.504246 -0.460020 -0.277517 0.353038 0.583439 0.219431 -0.109652 -0.195812 -0.043247 0.656525 0.846413 0.274217 0.303452 0.088741 0.078936 0.489084 0.617602 0.389925 0.334748 -0.654624 0.234400 -0.515239 0.865083 0.717991 0.989720 -0.996461 0.059367 0.502672 0.779945 -0.180170 0.605123 -0.717570 -0.792008 -0.066913 0.811735 0.666691 0.187142 0.284425 0.840331 -0.692128 0.657468 0.090404 0.214258 0.959626 -0.442280 0.783993 0.231182 -0.347399 -0.297570 -0.849589 0.362383 -0.012630 -0.912532 -0.649587 -0.608126 0.682963 -0.026749 -0.476820 0.799039 0.218508 0.399876 -0.606531 -0.866832 -0.925184 -0.722295 0.902315 0.609752 0.629937 0.916789 -0.312937 -0.447880 -0.874521 0.658300 -0.806768 -0.413178 0.980395 -0.330886 0.709263 -0.006890 0.236208 -0.584657 0.074109 -0.614657 0.122173 0.206906 0.891900 0.334589 -0.893026 -0.141040 0.674151 0.721404 0.252159 0.672755 -0.529406 0.442719 0.461355 0.401792 0.373164 0.034829 -0.079786 -0.195140 -0.542085 -0.478880 -0.378550 -0.628227
-0.002119 0.637611 0.929918 0.967958 -0.825642 -0.646887 0.933817 0.419778 -0.539914 0.818895 0.489796 -0.010231 -0.609817 0.707422 0.473272 0.608983 -0.270463 -0.780107 0.738126 -0.118865 -0.567382 0.772192 0.437680 -0.871653 0.133155 -0.448711 -0.382952 -0.990249 0.717896 0.308084 -0.524485 0.171361 -0.948132 -0.899542 -0.091533 -0.399299 0.863348 0.509475 -0.334110 -0.873522 -0.537492 -0.496932 -0.335570 0.545578 -0.015826 -0.091200 -1.013549 -0.242563 -0.469911 0.765650 0.238983 0.657459 -0.548103 0.677639 -0.385273 0.988816 -0.553080 -0.610037 0.244619 -0.181713 0.220495 0.145742 -0.737895 0.513457 -0.442373 -0.389878 0.636984 0.464465 0.917690 -0.701196 -0.413373 -0.184156 -0.343111 0.508032 0.427643 -0.407611 0.152267 0.967456 0.942188 0.470942 -0.096742 -0.411347 0.622787 -0.555235 0.522205 0.821173 0.235074 0.029602 -0.603511 -0.922885 -0.687770 -0.229555 0.219019 0.494984 0.475037 -0.274498 0.934525 0.686909 -0.569977 0.612415 -0.966780 0.817858 -0.781904 -0.134579 -0.388932 -0.097424 -0.600790 -0.555204 -0.072796 0.478592 -0.843147 0.606831 -0.647739 0.711217 -0.365094 0.483983 -0.324918 0.456322 0.055179 0.454623 0.233672 0.583140 -0.164819 -0.024388 0.002155 0.465391 0.687812 0.260916
-0.040897 0.433844 0.441923 0.472614 0.277330 0.939536 0.646242 0.196399 0.046176 -0.894434 0.155139 0.368780 0.900148 -0.778130 0.365926 0.737388 0.640323 0.151000 -0.324290 -0.636160 -0.473726 -0.603456 0.174601 0.612152 0.090039 0.201084 0.562558 -0.470301 0.083014 -0.202470 -0.732337 -0.892018 -0.235556 -0.480982 0.429214 -0.862758 0.917107 0.287625 -0.501271 0.942873 0.752360 -0.426873 -0.093595 -0.744720 -0.759873 0.399125 0.123726 0.642510 -0.364760 -0.917853 0.419464 0.209572 0.296638 -0.475637 0.226445 -0.279811 -0.501353 0.581190 0.168358 -0.033360 -0.866610 0.182581 -0.064450 -0.260493 0.850837 0.863952 0.883424 0.833855 0.075208 0.553507 0.832806 -0.471755 -0.944756 -0.971113 0.971425 0.698745 0.362704 -0.059746 -0.984967 -0.507831 0.814427 -0.248902 0.560407 -0.644471 0.948579 0.229130 0.242966 -0.896854 0.672222 0.284636 -0.414573 -0.975005 -0.565080 -0.310024 0.575205 -0.357199 -0.770524 -0.833758 0.246181 -0.474450 -0.089489 -0.553302 0.217580 -0.075064 -0.413088 -0.097529 -0.597236 0.595266 -0.491140 -0.246644 -0.581564 -0.246859 0.489247 -0.277854 0.698216 0.782907 0.296969 -0.662658 -0.890876 0.958458 -0.672912 -0.428414 0.820976 -0.674052 0.167746 0.272797 -0.547070 0.951386
0.710156 0.031154 -0.207064 0.802809 -0.394409 0.665831 0.642887 0.828411 -0.691126 0.843231 -0.696725 0.385244 0.124397 0.774539 -0.899939 -0.876674 0.028384 -0.627936 -0.494539 0.882680 0.052584 -0.113682 -0.696968 -0.927622 0.469432 -0.144626 0.229338 -0.668672 0.732312 0.942278 -0.751960 0.596734 0.901467 0.478949 -0.066282 0.262580 -0.947964 0.592505 -0.396311 0.880306 -0.068760 -0.178313 0.888487 -0.781574 0.789646 0.229712 -0.304286 -0.908725 0.086034 0.436628 -0.868940 0.731178 -0.726594 -0.219514 -0.744058 0.160211 0.620180 0.866988 -0.323695 0.715421 -0.693563 -0.785190 -0.385685 -0.488204 0.055770 0.644491 0.013248 0.431467 0.946636 -0.827974 0.641927 -0.908419 -0.806953 -0.809783 0.429424 0.492620 0.144697 0.495916 -0.747357 0.641133 -0.774875 -0.567699 -0.289203 -0.669491 0.274491 0.828699 -0.384092 -0.536292 0.877894 0.859908 0.611419 -0.631101 -0.990537 -0.097598 0.420310 0.660307 -0.601994 0.036063 0.436520 0.768487 -0.275396 -0.687068 -0.945407 0.016947 0.258689 -0.730513 0.602447 0.654100 0.191830 0.867475 0.400861 -0.970008 -0.673483 0.122334 -0.301587 0.071504 0.565933 -0.565475 0.734555 0.412284 0.939040 0.063927 0.328028 -0.243022 0.306732 0.561254 0.076430 0.962722
0.224296 -0.199113 -0.687142 0.476755 -0.067434 -0.585949 0.306907 0.301941 0.706746 -0.771790 0.305281 0.332142 -0.548704 0.836192 -0.517030 -0.612270 -0.756784 -0.515125 -0.952881 -0.831408 0.112254 0.723977 -0.023436 0.958285 -0.738406 0.083612 -0.877960 0.011623 0.971730 -0.287961 0.015845 -0.364192 0.523799 0.163166 -0.085366 0.036139 -0.244977 -0.636826 -0.038024 -0.942933 0.533854 -0.648560 -0.671133 -0.252440 -0.275940 0.006298 -0.509187 -0.492400 0.349944 -0.236789 -0.906755 0.544157 -0.572025 -0.037082 0.480941 -0.251084 0.249184 0.435247 0.921276 0.135175 0.309810 -0.493708 0.059798 -0.604059 0.231874 -0.785782 -0.582216 -0.792059 -0.414335 0.428284 0.213971 -0.332780 0.495891 -0.088927 -0.460481 0.613288 0.854939 -0.793840 -0.428415 -0.600251 -0.090845 -0.657811 0.380145 -0.963235 -0.314614 -0.983334 0.652199 -0.559901 -0.839843 -0.050457 -0.645223 -0.909153 0.920364 -0.386284 -0.710029 0.008435 -0.943673 0.770733 0.676440 -0.647896 -0.881922 0.989054 0.908961 0.557050 0.414470 -0.242036 -0.820098 -0.832128 0.136743 0.448388 0.610909 0.316801 0.266442 0.560864 -0.925210 -0.688188 -0.574240 -0.940207 -0.400033 0.335382 0.969494 0.475836 0.298721 -0.587638 -0.605225 -0.821018 -0.470770 -0.272294
-0.368398 0.512114 0.683877 0.349858 0.079945 0.837864 0.957710 0.127770 -0.042405 0.247743 0.234585 0.865368 -0.875306 0.833765 0.743562 0.845388 0.446037 0.685199 0.559619 -0.108961 0.548879 -0.039703 -0.203609 0.594568 0.802334 0.330690 -0.969064 -0.135379 -0.987752 -0.532577 -0.253737 -0.886188 -0.733863 0.334062 0.857989 0.514443 -0.023745 -0.391414 -0.697212 -0.582739 -0.182197 0.661052 -0.403999 -0.753278 0.941068 0.938774 -0.677680 -0.873244 0.120427 -0.555144 0.202768 0.242709 0.313846 0.902460 0.907630 -0.121438 -0.253282 0.164112 -0.749798 0.214236 0.636502 -0.138924 0.567382 -0.265592 -0.266460 0.005035 0.961035 -0.985353 0.746687 0.710404 -0.624348 -0.215204 -0.685655 -0.862236 -0.272424 -0.999671 -0.943335 -0.383660 0.951283 -0.783061 0.753006 0.128774 0.975960 0.787782 -0.619730 -0.829376 -0.716239 0.838231 -0.548776 -0.401074 -0.920325 -0.983839 -0.722712 -0.855464 -0.936358 0.905367 0.758910 0.838259 -0.119724 0.233978 -0.344393 -0.885172 -0.304454 0.085833 -0.064489 0.377800 0.216651 -0.718072 -0.459292 0.072243 -0.863960 0.454151 -0.859822 0.142208 0.600310 -0.743429 0.523386 0.123930 -0.786733 0.802573 0.363636 -0.256854 0.786504 0.565793 -0.748043 0.105478 0.839552 0.115343
0.352788 -0.691344 -0.962328 0.477196 0.898672 -0.799930 0.389525 -0.626790 -0.318966 0.133946 0.899258 -0.706081 0.440530 0.111133 -0.615026 0.526332 -0.536877 -0.804195 0.895264 -0.785273 -0.351816 0.405301 -0.211030 -0.159233 0.087029 0.753040 -0.441024 0.845431 0.976242 -0.597668 -0.959327 -0.937397 -0.349532 0.794479 0.808357 0.008918 0.664703 -0.230089 -0.189774 -0.818988 0.393893 -0.666613 0.909142 -0.826974 0.402765 0.235512 0.766486 -0.888735 0.881501 0.053881 -0.695965 -0.112939 0.135846 -0.620136 0.713793 -0.621220 0.430139 -0.435623 0.947805 -0.934404 -0.634578 0.505979 -0.431034 -0.900082 0.833620 -0.286142 0.789128 -0.182078 0.784091 0.324521 -0.156549 0.387125 0.345579 0.817328 -0.359500 0.123183 0.355387 0.248064 0.687842 -0.015933 0.155004 0.917653 0.185178 -0.469787 -0.759442 0.113893 0.589731 0.897494 0.751941 -0.444404 -0.510848 -0.743303 -0.583440 -0.550292 0.590242 0.457538 -0.295438 -0.365890 -0.834723 -0.787030 -0.003071 -0.005194 -0.783601 -0.806796 -0.111410 0.699033 0.134171 0.349836 -0.233808 0.670792 0.777233 -0.019086 0.585686 -0.231000 -0.367758 0.440773 0.961667 0.496317 -0.954690 -0.596927 0.824470 0.635165 -0.963195 -0.673213 -0.886945 0.679524 -0.008140 0.977625
-0.456053 0.790788 0.358468 -0.565671 0.663475 0.670551 0.422632 -0.738985 0.780104 -0.522613 -0.598861 0.857536 0.468241 -0.920040 -0.619632 0.984537 -0.908408 -0.973551 0.677556 0.480332 0.560280 0.353500 -0.674710 -0.999452 0.390898 -0.959985 -0.590854 0.852079 0.737703 0.003866 -0.996752 -0.589976 0.852598 -0.253460 0.667677 0.167556 -0.555523 0.957755 0.613268 0.546774 0.996207 -0.285533 0.755251 -0.767301 -0.238042 0.780818 -0.408513 -0.966538 0.827274 -0.439148 0.920031 -0.721604 -0.676882 0.537439 -0.025719 -0.976917 -0.910968 -0.129202 -0.461196 0.831230 -0.392046 -0.772319 -0.737024 -0.550788 -0.764420 0.120988 -0.540857 -0.979029 0.725058 0.212802 -0.807469 -0.020799 -0.088815 -0.473742 -0.723475 -0.683120 0.242459 0.382149 -0.030879 0.921387 -0.360257 0.579265 0.653137 -0.816781 -0.390298 0.127509 -0.675984 -0.469646 -0.259638 0.080024 0.024025 0.606138 -0.566283 0.618672 0.072240 -0.066903 -0.568168 -0.365019 -0.584562 0.440585 0.807699 -0.882593 0.113375 0.082765 0.995542 -0.526763 -0.671468 -0.268906 0.497133 -0.489224 0.346236 0.456208 -0.034438 -0.109883 -0.382185 -0.369260 -0.104826 -0.350123 -0.996931 0.890400 0.101202 0.375182 0.033754 -0.640762 0.776419 0.974952 -0.899719 -0.034988
0.305022 0.532884 0.144790 -0.259429 0.721004 -0.454207 -0.697122 -0.092611 0.858320 -0.300756 0.273942 -0.813376 0.220582 0.239844 0.233440 -0.896345 0.673414 0.751278 0.248243 0.327266 -0.254190 -0.018851 0.850308 -0.631830 0.192881 0.259073 0.989384 0.933711 0.888572 -0.883186 -0.804252 0.724425 -0.512887 -0.196879 0.026549 0.044981 -0.480888 -0.444424 -0.997350 0.055259 -0.212480 -0.129995 -0.839376 0.998702 -0.390798 0.658272 0.921086 0.761388 0.885859 0.718466 0.339526 -0.852568 -0.570413 -0.158371 0.396594 -0.498022 0.989018 -0.152737 -0.928162 -0.997922 0.886240 0.555102 -0.058306 0.993615 0.484459 -0.001054 0.338845 0.348226 0.493226 0.610932 0.142236 0.284703 -0.995883 -0.326958 0.625630 -0.908265 -0.316193 0.363769 0.128617 -0.139393 -0.112564 -0.024495 0.146890 0.509212 0.609221 0.728861 -0.218032 -0.175988 -0.682826 -0.061097 0.041463 -0.537366 -0.777709 -0.583090 -0.259442 -0.095233 0.416011 0.255604 -0.943782 0.408946 0.551678 0.762603 -0.509824 0.350642 -0.905678 0.164105 0.866795 -0.228622 -0.827999 0.262539 -0.750146 0.923887 0.002864 -0.640626 0.715086 -0.285527 -0.780757 -0.093406 -0.412191 -0.839976 -0.927354 -0.220852 0.829573 0.956239 0.912807 -0.036012 0.125125 -0.344351
0.425113 0.991292 0.629659 -0.868982 0.798873 -0.355942 -0.962497 -0.268863 0.103162 0.442444 0.891461 -0.691775 -0.075000 0.087709 0.578534 -0.492927 -0.837802 0.284235 0.493715 -0.616925 -0.242344 -0.297012 -0.808153 0.448550 0.895519 -0.458283 -0.153044 -0.503198 -0.191024 -0.553394 0.927842 -0.380718 -0.613402 0.987304 0.522151 -0.949464 -0.322708 -0.532260 -0.412405 0.924493 0.003410 -0.781607 0.805523 0.294872 -0.176287 0.734092 -0.331985 -0.952540 -0.002154 -0.890668 0.957907 0.297006 0.991300 -0.122378 -0.970760 -0.031779 0.054930 0.446439 -0.552068 -0.495370 -0.898068 -0.394015 0.453342 -0.488156 -0.931543 -0.578026 0.225643 0.234806 0.765492 0.539979 -0.126191 -0.053216 -0.502640 -0.182772 -0.150562 0.987050 0.777758 0.070991 0.852194 0.814008 0.349284 -0.405458 -0.555710 -0.448862 0.269610 0.757203 0.701861 0.675786 0.020314 0.620128 -0.855758 -0.327756 -0.177240 -0.575792 -0.561544 -0.624689 -0.428430 0.976962 -0.327258 -0.223069 0.770287 0.047912 0.256274 -0.056292 0.995100 0.087649 0.390815 0.873537 -0.927383 -0.723292 -0.846954 0.453905 0.511468 -0.552416 -0.413659 -0.200869 -0.060620 -0.158993 0.912004 -0.216142 0.946236 -0.734900 -0.895384 0.858840 0.655491 0.691262 -0.526152 0.324600
0.631282 0.035088 -0.416222 -0.292916 0.355471 -0.977974 -0.049441 0.232482 0.133388 0.506218 -0.978349 0.347583 0.705071 0.200210 0.713414 -0.353377 -0.236904 -0.114844 -0.853506 -0.889809 -0.316756 0.542821 -0.786101 -0.863068 0.380554 0.382862 -0.221917 0.696160 0.622037 -0.030337 0.474584 -0.231219 -0.759340 -0.680350 0.744998 0.445070 0.029262 -0.341583 0.492229 -0.344880 0.139908 -0.961185 0.079415 0.756265 0.341199 0.457404 0.360499 -0.714112 0.382269 0.044113 0.296857 0.447932 0.926378 -0.703233 -0.527524 -0.061248 0.671001 0.679412 0.232820 0.622156 0.833439 -0.619217 -0.841174 0.550893 -0.405137 0.337278 0.821480 0.185193 0.416409 0.641120 0.100680 0.069570 -0.640429 0.038404 0.441737 0.744138 0.838092 -0.987436 0.733346 -0.949145 -0.117075 -0.805725 -0.753755 0.608101 -0.798973 -0.212083 -0.787105 0.191466 0.229339 -0.514241 0.045126 0.229124 -0.126758 0.626568 0.863644 -0.259704 0.166533 -0.294279 -0.379044 0.214322 -0.011455 -0.515635 -0.185007 0.718850 -0.844838 -0.443533 0.907046 -0.978994 -0.748790 -0.648733 0.938330 0.149819 0.462642 -0.420973 0.648188 -0.529325 0.387894 0.324044 -0.068564 -0.511965 0.970857 0.279662 0.708823 -0.200536 -0.119475 0.947134 0.905366 0.041670
0.117853 0.626375 0.038663 -0.045884 -0.962092 -0.301552 -0.335723 0.441112 -0.042511 -0.356236 0.862792 -0.368308 -0.375686 0.906420 0.929007 0.101205 -0.617564 0.810957 -0.803706 0.967134 -0.411297 -0.315223 -0.391583 -0.381990 0.575148 -0.532454 0.373995 0.482521 -0.716783 0.816805 -0.523157 -0.768045 0.027783 -0.281316 0.738261 -0.206958 -0.025424 -0.630956 0.680219 0.085461 -0.354588 0.652513 0.148956 0.323870 -0.015525 0.830950 0.202528 0.152594 0.805848 0.437596 -0.770176 -0.003596 0.190167 0.097398 -0.664329 -0.648686 0.845305 -0.507473 -0.753055 -0.590279 -0.645115 -0.196233 -0.294443 -0.248355 -0.208943 -0.072693 -0.102587 -0.968122 -0.108912 -0.686335 -0.748764 -0.910468 -0.133628 -0.087981 0.333263 -0.548640 -0.779212 -0.234500 0.402195 0.041976 0.020072 0.265530 0.554212 -0.136585 -0.852959 0.129745 0.100322 -0.095052 0.613872 0.910094 0.125329 -0.282587 0.441928 0.975344 -0.403660 0.913385 -0.148916 -0.337559 0.952215 -0.097165 0.726722 0.153624 0.981339 -0.023385 -0.750841 0.186871 0.542326 0.099100 -0.058362 -0.691558 -0.836877 0.915815 -0.246538 0.861287 0.067470 -0.528521 -0.872010 -0.113467 -0.731749 -0.961545 -0.561201 0.041669 -0.271451 0.628443 0.660115 0.769081 0.986478 0.197459
-0.985557 0.679483 0.623772 0.063898 0.774729 0.769383 -0.797977 0.118380 0.367355 -0.700438 0.449786 0.590638 -0.562821 -0.183782 0.468952 -0.562503 0.600372 -0.556164 -0.317869 0.509710 -0.113422 0.480619 0.938980 -0.498715 -0.224185 0.413332 -0.094628 0.972142 0.021726 0.034648 0.032135 -0.278764 -0.576617 -0.861237 -0.221328 -0.313942 -0.236020 0.577162 -0.608063 0.796195 -0.271897 0.302676 -0.332363 0.674102 -0.104852 -0.545207 0.873359 0.990467 -0.591005 0.465192 0.862691 -0.177272 -0.853904 -0.334519 -0.007714 -0.018299 -0.025057 -0.434900 -0.056227 -0.158299 0.006448 -0.015320 0.617931 -0.011868 -0.252984 0.056375 -0.711809 -0.537284 0.670314 0.086284 0.582177 -0.790112 0.535046 -0.607563 -0.290102 0.943881 0.387696 0.562060 0.091230 -0.316209 -0.632745 0.127948 -0.437401 0.070448 0.458346 -0.490539 0.784923 -0.099601 0.340195 0.102383 0.908691 -0.027085 0.305617 0.947547 0.038080 -0.151429 0.858480 -0.100626 0.102095 -0.954603 -0.654449 0.660698 0.338019 -0.289820 -0.390495 -0.016094 0.750374 -0.088617 0.938391 -0.792568 -0.822680 -0.660925 -0.685238 -0.605244 -0.229294 0.895470 0.604648 -0.822155 0.368032 -0.846589 -0.518287 0.965095 0.907236 -0.518653 -0.094891 -0.132517 -0.416866 -0.082315
-0.962915 -0.613626 0.213596 -0.643845 0.836185 0.280704 -0.147518 0.515186 -0.583748 -0.218016 0.585416 -0.025454 0.908486 0.940146 -0.584211 -0.471660 -0.698594 0.108751 -0.413943 -0.420265 -0.413761 0.709735 0.440019 -0.807069 0.281744 0.341075 0.717552 -0.253172 -0.119488 -0.331174 0.931905 0.906306 -0.008890 -0.011422 0.444877 0.077812 -0.940853 0.613516 -0.271086 -0.775928 -0.545300 -0.906983 0.441570 0.108152 0.201046 -0.206873 0.167060 -0.392878 -0.509220 -0.567065 0.559178 0.616227 0.591351 0.783571 0.587473 -0.500232 -0.658026 0.980592 -0.012629 0.286286 -0.495723 -0.355398 0.471688 0.796648 -0.641332 -0.767019 -0.652239 -0.133190 0.410713 0.006469 -0.491057 0.698477 0.014623 0.040007 0.007465 -0.193770 0.408070 -0.474692 0.055462 0.829061 0.438356 0.806919 0.638536 -0.346118 0.899450 -0.110706 -0.727524 0.389068 -0.191026 0.501214 0.039184 -0.724533 0.670583 -0.017268 -0.774473 0.237434 -0.645024 0.703363 0.776858 0.739236 -0.797699 0.858482 -0.795342 0.644289 -0.582818 0.858651 -0.566264 -0.111154 0.045390 -0.160195 0.994124 -0.526672 -0.381391 0.018725 -0.155270 0.996590 -0.404980 0.916656 0.585299 0.874626 -0.037551 0.818367 0.699949 -0.958952 0.898314 -0.622658 0.214215 -0.953129
0.280860 0.037681 -0.890886 0.043942 -0.845605 0.862126 0.047512 0.724378 0.605952 0.179309 -0.388880 0.311064 -0.628870 -0.613234 -0.151091 0.986475 0.612755 -0.050855 -0.548939 -0.814682 0.459378 -0.750054 -0.598526 -0.538482 0.266763 -0.427366 -0.329749 0.104685 -0.761941 -0.934230 -0.722674 0.603179 0.951043 -0.608696 0.096478 -0.947742 0.865106 -0.787096 0.427704 -0.785751 0.028036 0.718403 -0.777632 0.849974 -0.265400 0.989730 -0.864989 -0.271265 -0.300625 -0.095467 -0.410767 -0.964629 0.866435 -0.778957 0.834704 -0.284671 -0.597564 -0.840688 -0.584426 0.597499 -0.277208 -0.929023 -0.847100 -0.613217 0.854066 -0.218563 -0.373136 0.674855 0.674253 -0.423372 -0.315305 0.985881 0.731569 0.599824 -0.135956 -0.617914 -0.276968 -0.505827 0.595601 -0.819242 -0.292576 0.078884 0.202752 -0.617537 0.248122 -0.316420 -0.313902 -0.266769 0.795395 -0.755019 0.907922 -0.804630 -0.758370 0.514311 0.732273 -0.239924 0.669324 -0.842977 -0.143211 -0.007511 0.850421 -0.925207 0.522391 0.408415 0.881864 -0.837159 -0.287758 -0.639351 0.118593 0.105779 -0.205158 -0.141434 -0.761640 -0.791793 -0.489337 -0.638563 0.059691 -0.833730 -0.755212 0.180254 0.222340 0.335950 -0.798653 -0.145696 -0.810930 -0.820981 0.550758 0.293065
0.889627 -0.875906 0.551355 -0.180984 -0.307566 -0.850802 0.456929 0.573714 -0.888622 -0.141347 0.822172 0.440476 -0.954944 0.111372 0.893993 -0.050211 0.463194 0.648019 -0.563021 -0.429064 0.849191 -0.940906 -0.819862 -0.370927 -0.826397 -0.041170 -0.548530 -0.004071 -0.771151 -0.730854 -0.980378 0.728270 -0.746915 -0.643546 -0.950606 0.712536 -0.819753 -0.513769 0.960473 -0.044254 0.080693 -0.560124 0.845464 -0.750319 0.313395 0.756447 -0.789103 0.699733 0.994293 0.081986 -0.896767 -0.694017 -0.434132 -0.591599 0.220988 0.333833 0.288012 -0.839707 -0.873456 -0.259692 -0.304379 0.700955 -0.728738 -0.588742 0.619872 -0.804306 0.248428 -0.241066 0.616114 0.199540 -0.363776 0.898201 -0.391073 0.382855 -0.692282 0.985203 0.818748 0.594733 -0.336684 -0.662903 0.165488 0.769326 0.690431 0.915177 0.082835 -0.019135 -0.915150 -0.697021 -0.972248 -0.946551 -0.381284 -0.170114 0.348309 0.233198 -0.441605 0.346599 0.127299 -0.656158 0.937385 -0.038073 0.080282 -0.264971 -0.878716 -0.411495 0.131366 0.549299 0.189789 -0.231841 0.944428 0.103722 0.893367 -0.470205 -0.858777 -0.051191 0.922401 -0.174530 -0.054810 -0.488041 0.782638 -0.601408 -0.148100 0.707064 -0.593646 0.312116 0.580088 0.302814 -0.167535 0.736908
0.322834 0.346643 0.088118 0.523923 -0.887410 -0.096916 0.014910 0.121984 -0.842554 0.545793 -0.577549 -0.087958 0.870656 -0.548722 0.068090 0.078642 0.378655 0.392017 -0.082839 -0.116059 0.929502 -0.120890 -0.677248 -0.987966 0.132108 -0.363915 -0.339199 -0.056349 0.571616 0.725318 0.531443 -0.743687 -0.644950 0.718784 0.563251 0.973441 -0.021183 -0.588982 0.237826 0.770709 -0.567396 -0.004323 0.343162 0.623353 -0.857742 -0.331857 -0.884166 -0.198755 0.943985 0.699627 0.434794 0.786896 -0.580346 0.304108 -0.544501 -0.181291 -0.927839 0.155067 0.537838 -0.050955 -0.699697 0.902515 0.036246 0.453773 -0.753928 0.661256 0.529277 -0.519022 0.212816 0.584726 0.272902 0.093962 0.433201 0.381093 -0.603422 -0.676641 0.043915 0.016806 -0.344689 -0.799892 0.868808 0.907298 -0.038639 0.296123 0.859234 0.212206 0.548327 -0.101795 0.785927 -0.467110 -0.461955 0.390130 -0.663000 0.330828 0.912980 -0.838906 0.933933 0.295205 -0.143712 -0.764435 -0.191586 -0.331858 0.469026 0.452926 0.708675 0.169621 -0.823485 0.609912 -0.213184 -0.879577 0.587432 -0.018126 0.476490 0.800233 -0.402987 0.979554 -0.372624 0.627218 -0.857740 0.305651 0.478328 0.073194 -0.663863 0.815102 0.341714 -0.642020 -0.741392 -0.068107
0.969772 0.108207 -0.713615 -0.983107 -0.225293 -0.546026 -0.126602 -0.199341 0.406496 -0.936271 -0.538005 -0.001167 0.166004 0.505015 0.997538 -0.052188 -0.250723 -0.507216 0.049863 0.509932 -0.689198 0.785937 0.396980 0.878968 0.257123 -0.795501 0.052617 0.034440 -0.670514 -0.412803 0.107890 -0.412937 -0.996356 -0.934413 0.864746 0.287497 0.738927 0.070052 0.056062 -0.500612 -0.235450 0.312589 -0.523055 0.451718 0.851936 0.083956 0.849189 -0.133455 0.932525 -0.218090 -0.847704 0.566365 0.604115 0.218822 0.135294 -0.353198 -0.919434 -0.435178 -0.285048 -0.130811 -0.300860 -0.692680 0.685398 0.821236 -0.783593 -0.897218 -0.790073 -0.596829 -0.869926 0.321839 0.693768 -0.020521 -0.735054 -0.479556 -0.422182 0.605279 -0.256689 0.137967 0.155892 -0.042703 -1.000005 -0.185754 -0.405653 0.789846 -0.114686 -0.391774 0.908221 -0.100831 -0.460418 -0.827271 0.055719 0.590022 -1.000485 -0.441145 -0.553353 0.810288 0.924783 -0.296493 -0.027838 -0.207768 0.672963 0.250044 0.106696 -0.690661 -0.640204 -0.295995 0.441468 0.340251 -0.856066 0.293489 0.895012 0.200633 -0.924470 -0.932536 -0.973091 0.489535 0.341470 -0.392477 0.739867 -0.246734 -0.562098 -0.283949 0.995281 0.215878 -0.755300 -0.689891 0.038645 0.240213
-0.896708 -0.287540 0.510143 0.065218 -0.605076 -0.068079 -0.546812 -0.753218 0.593196 0.763373 -0.937688 -0.788467 -0.946665 0.898137 0.235855 0.109586 -0.335568 0.282712 0.800379 -0.292092 -0.963626 -0.483706 0.105225 -0.808927 -0.445049 -0.762912 0.936768 -0.558594 -0.722792 -0.072153 -0.831105 0.540016 -0.363479 -0.133499 -0.657546 -0.760850 -0.514137 0.499444 0.777483 -0.539388 -0.341465 -0.429199 -0.161174 -0.975824 -0.037641 -0.352801 -0.986181 -0.315713 0.718078 -0.141653 0.763277 -0.046800 0.326449 -0.314018 -0.865663 0.517876 0.289021 0.440904 -0.266803 0.928063 0.947784 0.602821 -0.425547 0.912857 0.497492 0.022396 -0.148684 0.304598 0.354828 0.623188 0.845192 -0.900696 -0.839627 -0.177867 0.169547 0.940399 -0.256282 -0.860447 0.525862 0.465307 0.603136 0.099777 -0.595228 -0.771012 -0.943603 0.311017 -0.420709 -0.811213 -0.455214 0.496341 0.233231 0.560909 0.966475 -0.518088 -0.909265 0.067999 -0.528770 -0.300039 -0.900312 0.942122 0.542618 -0.329297 -0.213468 0.666624 0.044556 -0.256987 -0.775775 0.178964 -0.105250 -0.156407 0.124040 0.531798 -0.421985 -0.632497 -0.145487 0.894102 0.365860 -0.974313 -0.495945 0.362969 0.224632 -1.000738 -0.052139 0.538852 0.744069 0.452170 0.024513 -0.310711
-0.711840 0.330424 0.005314 0.847025 -0.222536 -0.842944 -0.852701 0.602532 0.693527 -0.582275 -0.089805 -0.386965 0.906578 0.880138 0.230311 0.435114 0.330242 -0.452898 0.453675 -0.870122 -0.885936 0.184503 -0.493437 -0.102936 0.039655 -0.360192 0.839153 -0.893973 -0.599810 0.421340 0.198080 0.588731 0.993046 -0.738489 -0.864931 -0.442306 0.992531 -0.482644 -0.690009 0.677145 0.959094 -0.553591 -0.624642 0.410366 -0.700717 -0.644062 -0.805452 -0.593989 -0.148547 0.226390 0.381493 -0.401916 -0.381032 -0.913680 0.597662 0.202591 0.510534 -0.573398 0.855639 0.232380 0.109984 0.120953 -0.225016 -0.542949 -0.325707 0.087754 0.627538 -0.342341 -0.167093 0.081416 -0.056927 0.697281 -0.365794 0.981372 0.898926 0.688999 0.958170 0.260296 -0.101770 0.222297 0.666390 0.065064 -0.915530 0.987982 0.791174 0.245553 0.964634 0.407445 0.870792 -0.811436 0.411056 -0.213098 0.884871 -0.954411 0.779524 0.748683 0.248171 0.589297 0.001375 0.766825 0.818685 -0.063611 0.598734 -0.830611 0.172563 0.347007 0.881553 -0.371328 0.860615 0.617766 0.981645 0.619282 -0.949670 -0.749464 0.498360 -0.527123 0.072337 0.178850 0.728118 0.238522 0.247972 -0.848285 0.619406 -0.107588 0.345223 0.755723 -0.524695 -0.487316
-0.644475 0.392648 0.539951 0.021968 0.071487 0.288918 0.246716 -0.173560 0.064094 0.044839 0.758887 0.090475 0.203710 -0.856805 -0.553398 0.423965 0.145095 0.898976 -0.170313 -0.516212 -0.766340 -0.419565 -0.593270 -0.503834 -0.366035 0.277480 0.751750 -0.356818 -0.198256 0.593066 -0.833856 0.156760 -0.111222 0.400934 -0.576170 0.151384 -0.218070 0.647098 0.495100 -0.703298 0.667991 -0.231022 0.511109 0.177003 0.822520 0.832211 -0.266465 0.818996 -0.630960 -0.011654 -0.473462 -0.978516 -0.326223 0.445711 -0.790478 -0.603512 -0.002839 0.603429 -0.647316 0.009949 -0.128729 0.733783 0.557126 -0.983244 -0.164793 0.889042 -0.155546 0.840813 0.739814 -0.105109 0.925103 0.647955 0.464219 0.272433 -0.740436 -0.430731 -0.130759 -0.488638 0.690201 -0.446618 -0.438414 -0.422090 -0.665531 -0.531307 0.543605 -0.563576 -0.995946 0.223858 0.124559 0.490532 0.525375 0.250897 -0.695055 0.450013 -0.115553 0.442171 -0.330063 -0.775822 0.730054 0.274480 0.684157 0.819953 0.818844 -0.701186 0.067107 -0.516343 0.893323 0.778604 -0.082811 0.201748 -0.662847 0.701039 0.023015 0.634345 -0.827078 -0.985890 0.520046 -0.278557 -0.401209 -0.760406 -0.993256 -0.245001 0.920815 0.218805 -0.974397 0.391945 -0.697970 0.678202
-0.838895 -0.555799 -0.269850 -0.076292 0.117910 0.656754 -0.297695 0.737698 0.967772 -0.036581 -0.464476 -0.945338 0.029561 0.540339 0.927212 -0.818665 0.278367 0.024638 0.821419 -0.167592 0.081866 -0.895689 -0.171311 0.452023 -0.070860 -0.279424 -0.527896 0.053115 0.072755 -0.867359 0.804420 -0.133472 0.097892 0.707667 -0.022842 -0.694567 -0.837227 0.447008 0.932794 0.493088 0.169141 0.578786 -0.760176 0.397792 0.063255 0.898140 -0.215864 0.043888 -0.952412 -0.032304 0.304334 -0.582481 -0.291855 0.354165 -0.175720 0.791621 -0.706019 0.767565 0.363525 0.593556 -0.070866 -0.270963 0.048500 0.332965 0.064427 0.193124 -0.513735 0.523638 -0.097161 0.230235 -0.827678 -0.866280 -0.309886 0.157160 -0.116092 0.466994 -0.693974 0.371086 -0.922271 -0.536822 0.276008 -0.437296 -0.637898 0.741897 0.551169 0.730481 -0.888857 0.251276 0.948015 -0.864798 -0.978709 -1.002120 0.973949 -0.166970 0.055335 -0.374294 0.747720 -0.323443 -0.553147 0.475004 0.867781 -0.100198 0.482221 0.612090 -0.317632 0.449550 -0.793541 0.758612 0.930355 0.681652 0.358983 -0.335266 -0.644488 0.818500 0.616656 0.473799 0.011305 -0.340927 0.460887 0.973867 0.310917 0.559092 -0.541935 -0.594078 -0.788093 -0.006550 -0.950866 -0.580401
0.852190 -0.543261 -0.359232 -0.597186 0.569694 0.107503 -0.359950 0.583711 0.472581 0.717251 0.890090 -0.690890 -0.592799 -0.871396 0.098654 0.744010 0.258768 -0.433975 0.177646 -0.768032 0.497313 -0.724917 -0.319952 -0.110209 0.041683 -0.517158 -0.266744 -0.463038 0.785676 -0.713807 -0.101307 0.453767 -0.891998 -0.596358 -0.596327 -0.186366 0.800799 0.241623 -0.626710 -0.949085 0.698301 0.910292 0.519237 -0.883799 0.714462 0.365912 -0.446517 -0.069993 -0.674434 -0.970962 0.342502 0.937618 0.416631 0.266317 0.305794 -0.971032 0.794064 0.894438 0.304832 0.031176 -0.322846 0.999646 -0.681889 -0.183866 0.320352 -0.521542 -0.263005 0.362512 -0.394519 0.814962 -0.562703 0.928687 0.627115 -0.473894 0.079967 0.201161 -0.119058 0.727472 0.135284 0.575047 -0.118464 -0.213263 0.122917 -0.586009 -0.388776 0.913010 0.083971 -0.598432 0.729848 0.971430 0.527637 0.295619 0.694553 0.524386 -0.595001 0.937357 0.674401 0.386318 -0.345130 0.579045 -0.321218 0.803418 -0.140888 -0.099037 0.834618 -0.638072 0.373168 0.299515 -0.308900 0.347625 0.538950 -0.973324 -0.992966 0.448087 -0.608325 0.212475 0.280698 0.997554 0.213097 -0.706585 -0.276304 0.704095 0.391665 0.893757 -0.753570 -0.625223 0.351912 0.840404
-0.325225 -0.457074 -0.073666 -0.200600 -0.411603 0.412985 0.452493 -0.614802 0.131992 -0.232791 0.423914 -0.445062 -0.322867 -0.771306 0.674565 -0.994412 0.837276 -0.279019 0.720434 -0.759291 0.072219 0.902954 0.260958 0.330986 -0.213153 -0.292070 0.616204 0.346321 0.938622 -0.757792 0.426828 -0.482456 -0.949948 0.461565 0.393098 -0.940258 -0.355879 0.518409 0.694006 -0.609366 -0.868855 -0.516687 -0.368517 0.722570 -0.418609 0.274338 0.046840 0.507264 -0.497283 0.298042 0.875552 -0.232956 0.375253 0.501283 0.963119 -0.985854 -0.323164 -0.744428 -0.573471 0.595524 0.442009 -0.328353 -0.897670 0.454484 -0.113821 -0.738205 0.948370 0.021929 0.582197 -0.491658 -0.312991 0.177304 0.946154 0.970539 -0.377737 0.111137 -0.340243 -0.755162 -0.597467 -0.629078 0.074224 -0.609398 0.025360 0.124041 0.116406 -0.512823 -0.107207 -0.090948 0.969516 0.235378 0.614626 -0.628236 0.225004 -0.621232 0.887661 -0.208356 0.044223 -0.208979 -0.389633 0.171008 -0.160920 -0.772927 -0.800525 -0.915346 0.760778 -0.061656 -0.652624 0.242139 -0.697424 -0.570903 -0.939571 -0.124006 -0.759534 0.330751 0.500875 -0.970753 0.261629 0.181792 0.794907 0.206318 -0.522751 -0.690121 -0.700234 0.055109 -0.968068 0.488577 -0.405443 -0.771573
0.651189 -0.385434 -0.836074 -0.131820 -0.436901 0.164268 -0.013503 0.869890 0.397212 0.339605 -0.462412 -0.329532 0.916028 0.836084 0.384687 0.903428 -0.161387 -0.030788 0.217184 -0.603029 -0.094327 0.568778 -0.069470 -0.444325 -0.934931 0.952071 0.071578 0.626295 -0.052565 -0.056770 -0.738545 0.600706 -0.313794 0.867560 0.476163 0.592695 -0.931430 -0.400736 0.658967 0.165168 0.908798 -0.063218 -0.565404 0.918387 0.168621 -0.794164 0.280963 -0.640468 0.457470 -0.208335 -0.172885 0.909997 0.102474 0.414161 0.369195 0.033547 0.263483 0.780742 -0.019991 -0.553553 0.047285 0.533780 -0.459308 0.845146 -0.337254 -0.099566 0.098758 -0.608154 -0.736771 -0.757419 -0.209960 0.689977 -0.061401 0.437464 -0.150883 0.524473 -0.112821 0.491265 -0.391263 0.172154 0.064895 -0.999131 0.662394 0.183962 -0.327725 -0.473796 -0.426744 -0.304913 -0.523887 0.920029 0.397808 -0.000020 0.317327 -0.001411 -0.513896 0.294764 0.920680 -0.615216 -0.291183 0.190485 -0.612247 0.960953 0.513319 -0.430570 0.159862 0.586446 -0.031149 -0.965201 0.222005 -0.437327 0.727077 0.733957 -0.285786 0.500479 -0.646489 -0.818783 -0.770450 0.301210 -0.802517 -0.046785 0.622602 0.733093 0.187115 -0.009228 0.871386 -0.190769 -0.205902 0.399687
0.908656 -0.404083 -0.611155 0.994438 -0.023306 0.545097 0.158744 0.025343 0.276268 0.931689 0.859204 -0.128874 -0.090434 0.023460 -0.593079 0.095696 -0.807090 -0.494151 -0.054901 0.004256 -0.266722 -0.239731 0.973633 0.891015 0.448244 0.755619 0.075285 0.468803 0.131989 0.176877 0.538497 -0.408649 -0.453394 -0.932129 0.357609 -0.091307 0.284902 -0.374622 0.926742 0.029737 0.128466 -0.036128 0.550595 0.750749 0.437979 -0.697148 0.087227 0.617405 0.969089 0.073877 -0.122776 -0.471052 0.406291 -0.648890 -0.796448 -0.465613 -0.207433 0.603526 0.979791 -0.089349 -0.717316 0.225428 -0.589768 -0.046412 0.595093 -0.479889 -0.642965 0.263052 -0.539767 -0.230643 -0.944882 0.447946 0.103821 0.174870 -0.597357 -0.817837 0.773546 -0.989630 -0.169923 0.557539 0.526633 -0.361302 0.635497 0.640213 -0.013801 0.761154 -0.729011 0.000770 0.657791 -0.384320 -0.196632 0.513444 0.558218 0.617144 0.748811 -0.076118 0.343159 -0.657357 -0.234325 0.134678 0.506838 -0.245966 -0.088677 0.838149 -0.669099 -0.922782 -0.458108 -0.077402 -0.404218 0.116328 -0.521476 0.067261 0.644242 0.639004 0.740557 0.465686 -0.722157 0.223970 0.923887 -0.551777 -0.413551 0.313728 -0.901043 0.923320 -0.076751 -0.581768 0.814914 -0.839581
-0.474755 -0.675363 -0.172392 -0.133489 -0.707503 0.303081 0.938463 0.277319 0.444118 -0.866033 -0.656525 0.567799 0.409522 0.442715 -0.007852 -0.835223 0.851123 0.312695 -0.704240 -0.633463 -0.226408 -0.519073 0.486092 0.559224 0.718609 -0.830556 0.332824 -0.530563 -0.786760 0.980705 -0.612048 -0.318112 0.609243 -0.042040 -0.447030 -0.727849 -0.087441 0.088674 0.161364 0.045674 0.784138 -0.375091 0.926171 -0.384311 0.388533 -0.985830 -0.953526 -0.692395 -0.543967 0.492879 -0.056232 -0.022890 0.060858 -0.248156 0.290319 0.288700 -0.577578 0.177441 0.659911 0.907235 -0.829146 0.181933 -0.512843 0.631027 -0.216985 0.534199 -0.445491 0.061012 0.505071 -0.841617 -0.196668 -0.368490 0.335929 0.950522 -0.717109 0.624290 0.049174 0.662726 -0.373502 0.771818 -0.804546 0.339062 -0.436309 -0.351044 0.581987 -0.207039 -0.496386 0.854914 0.214940 -0.639878 0.392327 0.069357 0.498951 -0.026474 -0.847826 -0.465577 0.120972 -0.925209 0.465245 0.831503 -0.540034 0.357323 0.435730 0.148620 0.376189 0.593336 -0.899171 0.707856 0.838302 0.270132 -0.334256 0.047896 -0.571584 0.851349 -0.807685 0.788501 -0.250868 0.230565 0.759657 0.627556 -0.584575 0.843296 -0.262996 -0.467235 -0.588385 0.647439 0.733259 0.016031
-0.169649 0.296445 -0.657592 -0.786210 -0.575472 -0.684131 -0.483582 0.008869 -0.794789 0.969465 -0.932902 0.832913 0.745533 0.901552 0.112815 0.957039 0.260796 -0.684423 -0.996576 -0.183939 -0.380855 0.265609 0.017185 -0.693923 -0.579101 -0.395925 0.911558 0.107318 -0.322558 0.012406 0.780045 0.529796 -0.698254 0.073631 0.102370 -0.871507 0.080689 -0.986622 0.188070 -0.107336 0.816230 -0.648097 -0.556811 -0.693517 -0.966518 -0.675696 0.014809 0.751573 -0.674765 0.082174 -0.650884 -0.095696 -0.263207 0.500938 0.149446 0.934040 0.448350 0.953128 -0.738000 0.880071 -0.301542 0.042147 -0.886501 -0.119695 -0.044327 -0.086050 0.720084 -0.368146 -0.773087 0.614084 -0.529949 -0.256866 -0.672185 0.815565 -0.034750 -0.421735 -0.439584 -0.664380 -0.956086 -0.299601 0.346000 -0.089614 0.863429 0.087349 -0.515296 0.261692 -0.485853 -0.913105 -0.727147 -0.910143 -0.601082 0.601095 0.413220 0.478822 0.128861 -0.713299 -0.243628 -0.673505 0.716085 -0.214028 0.751698 -0.875938 -0.887849 -0.470658 -0.130906 -0.196092 0.543148 0.813861 0.416448 0.034607 -0.047339 0.102849 -0.150639 0.062941 0.872756 0.420028 0.460393 -0.547777 -0.733602 0.147716 0.218434 0.745744 0.742113 -0.409395 -0.930957 -0.402268 0.756827 -0.054439
0.523355 0.001682 0.830684 0.652376 -0.129755 0.107952 -0.914225 -0.051669 -0.697948 0.247161 0.501480 0.987410 0.087543 -0.941747 0.098381 0.192033 0.267318 0.185979 0.409310 -0.728449 0.224741 -0.105008 0.419155 -0.147345 -0.525906 -0.936869 0.535687 -0.348244 -0.201474 -0.035801 -0.704691 0.420911 -0.867769 -0.227658 0.577855 0.985278 -0.823683 0.175895 -0.011967 0.405205 -0.592815 -0.443882 0.852127 -0.306410 0.794519 0.312604 0.642222 0.727378 0.419437 -0.104276 -0.731119 0.399670 -0.380453 -0.259852 0.938102 -0.096562 0.661991 -0.449607 -0.205639 0.335967 0.126159 0.345014 0.073369 0.846630 -0.641249 0.360873 0.910668 0.218982 -0.565504 -0.359495 0.804739 0.252228 0.114331 -0.245760 0.868246 -0.717005 -0.627070 -0.554139 0.194096 -0.760058 0.094058 0.408081 -0.145699 0.595397 0.817997 0.118626 0.710205 -0.570378 0.631802 0.700975 0.067493 0.499746 -0.333194 -0.466003 -0.627704 -0.039029 -0.915437 0.144810 -0.595824 -0.876713 -0.898997 -0.801779 -0.490390 -0.983765 -0.691526 -0.072273 -0.140598 0.449289 0.811180 -0.389447 0.690924 0.507660 -0.025727 -0.093501 -0.820715 0.790453 0.333581 0.963406 0.535880 0.852860 -0.658576 -0.139210 0.261551 -0.666312 0.757849 -0.791740 -0.444983 0.832482
0.757038 -0.513025 -0.910064 0.134328 -0.073832 0.452448 -0.738529 -0.420577 -0.577375 0.445126 -0.089902 -0.517012 -0.937351 0.853427 -0.743829 0.839121 0.787866 0.422928 -0.691490 -0.350454 -0.336858 0.769716 -0.543386 -0.066394 0.968035 0.101148 -0.595339 -0.041676 0.754395 0.206304 -0.258752 -0.309899 0.178057 0.288948 -0.774532 0.733962 0.485766 0.576575 -0.060637 -0.321973 -0.480879 -0.402758 -0.540729 -0.940680 0.134005 0.396070 0.144442 0.552410 0.033998 -0.716447 0.356876 -0.263788 0.603717 0.665595 -0.314684 -0.929980 -0.269595 -0.901217 -0.574688 -0.589933 -0.660510 -0.895913 0.066756 0.301914 0.279348 0.876382 -0.920445 0.905550 0.276070 0.424089 -0.916486 0.910601 -0.771506 -0.025083 -0.524326 0.160118 -0.428423 -0.375980 0.450355 0.714641 0.924819 0.914202 -0.805210 0.775284 -0.690227 0.898458 -0.093251 -0.632863 -0.563618 0.003411 0.723263 0.635739 0.462288 0.989347 0.615296 0.182457 -0.078994 0.604272 -0.751091 -0.380901 0.605103 -0.490084 0.255977 0.178607 0.542719 -0.887626 -0.913510 0.757580 -0.415898 -0.256793 0.409825 0.523248 0.322351 -0.150824 0.838583 -0.035309 -0.174014 0.238224 -0.747984 -0.617625 -0.956159 -0.719350 -0.012375 0.765719 -1.000088 -0.683244 0.377044 -0.386659
-0.266607 0.328104 -0.157003 -0.461363 -0.104361 0.354730 0.616962 0.088208 0.712361 0.570159 -0.211545 0.109523 -0.111214 0.577620 0.072532 -0.083068 -0.990840 -0.772580 -0.749224 -0.271280 -0.004718 0.566354 -0.811366 -0.900672 -0.702892 -0.852526 0.796804 -0.599614 -0.466354 0.226556 0.379225 -0.273651 -0.323266 -0.640655 0.808800 0.581227 0.859221 -0.353970 -0.659602 -0.704074 0.626960 0.048040 -0.276700 0.383146 0.190018 0.051235 0.628362 0.366112 -0.434081 -0.767337 0.558122 -0.160763 -0.825607 0.516840 -0.765467 0.584701 -0.623301 0.132687 -0.948457 0.307429 -0.710892 -0.334873 -0.309864 -0.305622 0.555261 -0.986051 -0.816625 0.840104 -0.202783 -0.083078 -0.027673 -0.289818 0.479215 -0.506504 0.754438 -0.242955 -0.079145 0.687158 0.175967 -0.142561 -0.358811 0.506223 0.539154 0.008574 0.448909 0.562159 0.080216 0.195241 -0.376418 0.213157 -0.855452 0.508539 -0.794338 -0.124638 -0.267972 -0.104081 -0.765751 -0.259694 -0.211273 -0.068411 0.633791 -0.221338 0.488580 -0.112380 0.141459 0.750907 0.680298 -0.210716 0.874914 -0.055442 -0.358779 0.935041 0.915543 -0.678403 0.275994 0.663556 -0.012800 0.294362 0.449733 -0.604093 0.234345 -0.524540 0.679938 0.027953 -0.184794 -0.854136 0.015419 0.083398
-0.845608 -0.456812 -0.779563 0.929877 0.528260 -0.267595 0.547515 0.872074 -0.581774 0.343967 -0.179011 -0.874738 -0.715443 -0.599978 -0.138599 -0.172215 0.919350 0.862399 -0.591827 0.252588 -0.571626 0.074315 0.661251 0.417080 0.351245 -0.662295 0.804499 0.978645 0.476247 0.280761 -0.398767 -0.279476 -0.666253 -0.752401 -0.871496 0.197784 0.445985 -0.210788 -0.097589 -0.458610 -0.925307 0.019884 -0.312822 0.379499 -0.153870 -0.323760 0.161628 0.624547 -0.092612 -0.692475 0.493085 -0.026289 -0.832162 -0.272866 0.419378 -0.947227 0.772450 0.989119 -0.763277 -0.378867 0.393040 -0.861724 -0.932434 -0.319214 0.950896 -0.393525 -0.631642 0.648918 -0.575612 0.062641 0.812901 -0.905932 -0.189308 0.876890 0.194348 -0.192843 0.952805 -0.070250 -0.628751 0.370195 -0.472643 -0.406110 -0.002598 0.763323 0.860329 -0.867993 -0.257298 0.081711 -0.247951 -0.735475 -0.060977 -0.647080 0.206379 -0.665052 -0.434078 0.821012 0.405221 -0.823725 0.151839 0.660868 -0.972768 -0.247532 0.878390 0.092685 -0.957661 -0.248655 0.267071 0.541999 0.447269 0.526771 0.996906 -0.625956 0.169203 0.842987 0.783069 0.263604 0.552986 0.232703 0.497750 -0.376160 0.825436 0.280376 0.172024 0.962760 -0.599316 0.703937 0.354118 0.933210
-0.418519 0.550724 -0.095679 -0.122503 0.942148 -0.700635 0.864375 -0.774557 0.662195 -0.532314 0.969731 0.324009 -0.261234 0.335523 -0.455673 -0.391849 0.640989 0.309156 0.818098 -0.478899 -0.408958 -0.600115 0.180301 0.529607 0.710456 0.732602 -0.553536 -0.739206 0.799710 0.552864 0.146247 -0.067395 0.884595 -0.846879 0.987333 0.890798 0.087399 -0.480246 0.240384 -0.199303 -0.375517 0.781913 -0.596957 -0.841236 0.204398 0.371450 0.766741 -0.700486 0.650760 0.653579 0.957026 0.435313 0.963452 -0.056957 -0.990432 0.829484 0.603846 0.701307 -0.228450 -0.723537 0.961945 -0.021489 -0.114952 -0.016729 0.473437 -0.761561 0.673514 0.555824 -0.485869 0.712452 -0.920917 -0.404268 0.067251 -0.814038 0.300434 -0.236111 0.569158 0.321624 0.303258 0.977962 -0.737094 -0.024154 -0.289836 -0.494002 -0.505452 -0.738885 0.792430 -0.467682 0.889003 -0.336314 -0.278979 0.580172 -0.800658 0.665405 -0.919155 -0.547380 -0.056370 0.333148 -0.164395 0.015890 -0.900297 -0.856874 -0.134987 -0.531271 -0.107642 0.567568 -0.404555 0.788666 -0.613318 0.986644 -0.437237 -0.204422 -0.418743 -0.293189 0.470752 -0.159514 0.395951 -0.449694 -0.115392 0.331862 -0.434505 -0.045969 0.727834 0.391245 -0.409693 -0.059620 0.983082 -0.904227
0.824563 -0.341925 0.596251 -0.216182 0.422238 0.040706 -0.235965 0.886686 -0.241779 0.018755 0.352426 -0.699720 -0.965964 0.398485 -0.992005 0.778259 -0.770426 -0.575247 0.057560 -0.579755 -0.343995 0.648400 -0.348245 -0.583457 -0.236032 -0.566540 0.434836 -0.966335 0.997823 -0.265630 0.020911 -0.284361 -0.333820 0.437530 0.447592 0.895110 0.203784 -0.996763 -0.449819 0.888861 0.260081 0.525583 -0.702787 -0.648301 -0.537051 -0.936642 -0.442554 0.018297 0.422109 0.505230 0.902538 0.013368 -0.225010 0.681508 -0.111988 0.705392 0.285430 -0.274536 0.045510 -0.217759 -0.496931 0.315963 -0.524432 0.979694 0.522545 -0.589223 0.816909 -0.316174 -0.653168 0.065970 -0.821846 -0.565422 0.589423 0.217038 -0.580074 0.128940 0.116381 0.369813 0.899139 -0.834008 -0.045326 -0.777311 0.903653 -0.361273 -0.061687 0.976252 -0.934126 -0.763408 0.358832 0.514862 -0.800478 -0.714975 0.027393 0.293653 -0.275804 -0.214024 -0.879687 -0.697514 -0.244493 0.403905 0.193824 0.291920 -0.392425 -0.174313 0.445011 0.203167 -0.014614 -0.125373 -0.884796 -0.782327 0.844408 0.267122 0.163539 -0.753713 -0.542923 -0.830182 0.243146 -0.921772 -0.172962 0.520261 -0.497768 -0.179514 0.416537 -0.431611 0.345643 0.877747 0.282161 -0.336942
0.730690 -0.572512 -0.074541 -0.664795 -0.475545 0.336151 -0.854523 -0.817170 0.097837 0.080488 0.632243 -0.957795 -0.253382 -0.380855 -0.702600 -0.331558 -0.371176 0.704144 -0.343495 0.457724 0.277515 -0.991927 -0.409216 0.842723 -0.638229 -0.110440 -0.700444 0.390518 -0.364643 -0.321809 -0.391437 -0.131451 -0.361044 0.608467 0.528964 0.991234 -0.570822 0.117637 0.783336 -0.624907 -0.685035 -0.168211 0.100344 0.127659 0.166161 0.465421 -0.355886 -0.514028 -0.526210 0.747975 -0.085254 0.227703 0.784263 0.746237 -0.141296 0.065942 -0.672007 0.692812 -0.066176 -0.342961 -0.733824 0.073563 -0.911181 0.345887 0.901564 0.914833 0.593489 -0.930257 -0.400807 -0.030964 0.785535 0.353803 -0.507998 -0.853014 -0.804071 0.394149 -0.701828 0.729895 0.646688 0.619078 -0.561883 0.442519 0.435332 0.311009 -0.893681 0.651975 -0.186754 -0.077044 0.773279 -0.234151 -0.968675 0.702214 -0.106996 0.236222 0.014485 0.710481 0.122648 -0.887255 0.130851 0.568098 0.915356 0.779502 -0.645150 -0.543801 0.808420 0.298132 -0.001118 0.712297 -0.777547 0.351334 -0.497096 0.870144 0.581304 0.350812 -0.384080 -0.639734 -0.399986 -0.743514 -0.151399 -0.167410 0.952404 -0.950464 0.704274 0.509596 0.251278 0.876864 -0.207246 -0.633358
-0.665631 0.500263 0.965732 0.220460 0.016319 -0.963928 -0.992544 -0.297382 -0.166031 0.863851 -0.373439 0.336387 0.295729 0.619397 -0.205605 0.635523 -0.491868 0.129442 0.215786 -0.303228 0.148407 0.879268 0.982591 -0.077660 0.631707 -0.494950 -0.878824 -0.826398 0.603813 -0.365997 0.848148 -0.227104 0.449487 0.143775 -0.688792 -0.174953 0.376045 0.187405 -0.462948 0.582251 -0.349752 -0.179712 0.268363 0.200773 -0.466522 0.822787 -0.427460 0.363465 0.176857 0.279874 0.032689 -0.216400 -0.759744 0.671748 0.164610 -0.434324 0.679922 -0.421345 0.558636 0.669937 0.653057 0.469843 0.243810 0.147625 -0.785329 0.566760 0.981986 -0.185130 -0.375510 0.637698 -0.245732 -0.907823 -0.842131 0.245467 -0.027933 0.720484 -0.441412 0.042649 0.455070 0.902080 -0.832268 0.727479 0.423226 0.285942 0.131948 -0.910830 0.855106 -0.338549 -0.293501 0.492503 -0.692255 0.334360 -0.439705 0.066897 0.637115 -0.602823 0.981607 0.589434 -0.026118 0.630959 0.447666 -0.053567 -0.464390 -0.796883 -0.941245 -0.728546 -0.078168 0.251069 -0.907349 -0.014847 0.692605 -0.581669 0.885758 -0.058550 0.086647 -0.472971 0.589235 -0.692470 0.985507 -0.662207 0.907074 0.210589 0.218080 -0.272134 -0.783009 0.803150 -0.348534 -0.171287
-0.358723 -0.725845 0.600371 0.687802 0.337144 -0.905124 -0.624470 -0.093169 0.872426 0.783669 0.563956 0.772244 0.131974 -0.859396 -0.406998 -0.729201 0.494702 -0.133852 0.960357 -0.985086 0.583662 -0.150727 -0.341100 0.616393 0.396558 -0.378094 -0.935788 -0.010337 0.522728 -0.550037 0.837567 0.608440 -0.853854 -0.720673 -0.556553 -0.697662 0.163845 -0.124750 -0.288488 -0.609530 -0.928952 -0.743369 0.603822 -0.716999 -0.098958 -0.602941 0.823556 0.398048 0.554244 0.737005 0.862014 0.243216 -0.430151 -0.156315 -0.353984 -0.923503 0.796003 -0.400535 0.936515 0.897985 -0.947395 0.805479 -0.929439 -0.039457 0.997977 -0.010436 0.122355 -0.072849 0.395595 -0.860568 0.691631 -0.395811 -0.123689 0.196255 0.146209 0.531648 -0.558838 -0.560594 0.496017 -0.179815 -0.595055 0.573538 0.739991 0.149381 0.489203 -0.136486 -0.142936 0.184858 -0.508355 0.420363 0.810073 0.267958 -1.003098 -0.186793 0.147108 0.139746 -0.461860 0.406939 -0.231321 0.539107 0.163410 -0.957293 -0.398335 0.600025 0.797617 -0.075048 0.127800 0.844638 -0.612015 -0.897688 0.296271 -0.737674 -0.213391 -0.736551 -0.585761 -0.381060 0.287195 -0.651845 -0.151804 0.350247 -0.856957 -0.607073 -0.077317 0.670013 0.198028 0.115133 -0.699084 -0.002619
-0.393115 0.789343 0.936485 -0.359051 -0.623332 0.942372 -0.459228 -0.184434 -0.191303 0.648642 0.334225 -0.705162 -0.924457 -0.355882 0.713575 0.763681 -0.175750 -0.990467 0.066932 0.121962 -0.573277 0.162331 0.287667 -0.004830 -0.400012 -0.512075 0.443193 0.886703 0.117577 -0.549373 -0.756641 0.390417 -0.847746 -0.476127 0.600978 0.524353 -0.522681 0.414687 0.474273 -0.091113 0.714662 0.918159 -0.859005 0.284413 -0.236116 -0.913996 -0.887792 -0.736270 0.717032 -0.000911 0.817614 0.525188 0.574807 0.723277 -0.081003 -0.181760 -0.850118 0.685174 0.329778 0.307855 0.733644 0.641795 -0.793708 0.536773 0.192267 0.225935 -0.564106 0.464155 0.788833 0.030132 -0.521731 0.434376 0.510000 0.954290 -0.487300 0.882368 0.635411 -0.389360 0.933253 0.640931 0.794054 -0.875249 -0.596188 -0.026808 0.719507 0.709870 -0.564273 0.676663 -0.006910 -0.443624 0.568208 0.836175 0.860816 0.099269 -0.148793 -0.355753 -0.833068 0.171062 -0.066449 -0.150204 -0.831201 -0.803643 -0.914098 -0.147851 -0.999490 0.458529 -0.132556 0.762148 0.520158 -0.059256 -0.203840 -0.718308 -0.900833 0.773010 -0.486435 -0.156712 -0.940646 -0.296184 -0.234476 -0.956229 -0.418814 0.203929 0.924199 -0.555382 -0.884781 -0.222392 -0.266496 0.827841
0.754266 0.956808 -0.567123 -0.744511 -0.285023 -0.901988 0.268708 0.321834 0.979131 -0.471256 0.584350 -0.327365 -0.962212 -0.269633 0.089520 0.736554 -0.291759 0.625039 -0.381081 -0.961973 -0.991024 0.318579 0.055363 0.735113 0.121186 -0.190908 -0.424328 0.975519 -0.554454 -0.933598 0.346315 -0.286887 -0.367133 0.566372 0.011734 0.916357 0.786988 0.823689 0.671199 -0.760199 -0.682913 0.737331 -0.906102 -0.549170 0.009490 -0.423982 -0.337872 -0.654451 0.881809 0.563426 0.019052 0.795910 -0.387613 -0.923124 -0.036797 0.077365 0.510406 0.444747 0.341146 -0.319564 0.846551 -0.685303 -0.408105 0.626594 0.443894 0.029662 0.825179 0.064823 0.313693 -0.525399 -0.145960 0.199560 0.135947 -0.562995 -0.042606 -0.593179 0.448478 -0.214230 0.503090 -0.485263 -0.859670 0.996059 -0.325887 -0.057009 0.982293 0.851439 0.143682 -0.287610 -0.096454 0.054999 0.796288 -0.581387 -0.899364 -0.613378 -0.475973 0.247006 0.258711 0.994542 0.637817 0.201494 -0.406312 0.451320 0.562522 0.777283 0.677359 -0.369507 -0.644664 0.493815 0.263456 -0.500878 0.708175 -0.922002 0.167496 0.033224 -0.922939 0.897981 0.355635 0.400800 -0.242674 0.759090 -0.080621 -0.054218 0.104756 -0.503457 -0.054441 0.137704 -0.062404 -0.679882
-0.214081 -0.014856 -0.435386 -0.018005 0.823773 -0.593653 -0.652079 0.821007 -0.848830 -0.698228 0.024587 -0.449563 0.554743 -0.279661 0.482199 -0.068123 0.232411 -0.295847 0.244083 -0.371930 -0.907866 0.428338 0.000067 -0.948470 0.851817 0.804490 0.871784 -0.759236 0.303269 0.081047 0.471463 0.647944 0.410592 0.549273 0.382146 0.832440 0.653421 -0.636831 -0.786914 -0.936378 -0.631539 -0.370005 0.791980 -0.763621 -0.542608 0.520650 -0.449937 0.573170 0.412105 0.603419 0.852347 0.351961 -0.204586 -0.370285 -0.185053 -0.380074 -0.855180 0.549657 -0.906788 -0.688431 0.917262 0.826363 0.482672 -0.624609 -0.161411 -0.204706 -0.489689 -0.362227 0.733662 0.862799 0.463787 0.698316 -0.062407 -0.628043 0.286543 0.229844 -0.364814 0.253442 0.418008 0.529422 -0.264404 -0.349192 -0.942247 0.477298 -0.933933 -0.516965 -0.181201 -0.106379 0.340343 -0.555900 -0.677160 0.959787 -0.152221 0.257836 -0.016555 0.805010 -0.118037 -0.033227 0.173817 -0.058704 -0.058773 0.262269 -0.319585 0.849769 0.372140 -0.532283 0.628687 0.629111 0.204603 0.803463 0.734794 0.706465 -0.527369 0.526269 -0.773727 -0.763362 -0.534824 -0.798945 -0.940449 -0.929604 -0.821718 -1.010739 -0.552086 -0.303968 -0.295401 0.851380 0.354658 -0.856747
0.794225 0.396812 0.708445 -0.580870 0.646847 0.632427 0.201666 0.656580 0.523954 0.167201 -0.585479 -0.655380 0.478020 0.606695 0.332503 0.963631 0.764962 -0.056127 -0.356456 0.574119 -0.505804 0.099525 0.308072 -0.899106 -0.200263 -0.104223 0.976899 0.025461 -0.015079 0.319620 -0.828784 0.166446 0.327915 0.193378 -0.974457 -0.348824 0.442519 -0.241633 0.600226 0.517043 -0.100561 0.845241 0.536101 0.164894 -0.300676 -0.019942 -0.634636 0.556641 -0.264609 -0.251684 0.333118 -0.414783 -0.950605 0.071109 -0.475765 -0.038136 0.530919 -0.134695 -0.073193 0.873186 0.475536 0.005777 0.283200 -0.224226 -0.538830 -0.624831 -0.656963 0.143902 0.502202 0.118777 0.760021 0.232439 -0.495487 0.111065 0.893199 0.809064 -0.192312 -0.644352 -0.870875 0.799346 0.819791 -0.428174 -0.682554 -0.440093 0.653340 0.772451 0.270852 0.685219 0.557724 -0.581951 0.623765 -0.935161 0.317300 0.108243 -0.957070 -0.061144 0.741984 -0.666770 0.266495 0.824241 0.717137 0.792593 0.611126 0.112048 0.782970 -0.431238 -0.291647 0.878861 -0.844353 -0.358853 0.605790 0.644141 -0.915198 0.463421 0.118829 0.789766 -0.703504 0.053466 -0.996630 0.279353 0.557308 -0.736805 0.594961 0.151983 0.608243 0.801515 -0.588850 -0.937573
-0.752205 -0.888920 0.632982 -0.974522 -0.208843 0.186507 -0.940498 0.641170 0.058646 0.863562 -0.364313 0.231880 0.241706 0.641966 -0.187934 0.676316 -0.104917 0.739696 0.487756 0.813466 -0.199665 -0.532802 0.647168 -0.189150 0.394340 -0.036938 0.500109 -0.755863 -0.748337 0.399339 0.710758 0.596453 -0.593949 -0.857677 -0.531507 0.652888 0.787473 0.897928 -0.467094 -0.721623 -0.365401 0.759787 0.433070 -0.496134 -0.639033 -0.805239 -0.767905 -0.101333 0.344788 -0.194522 0.662566 -0.023991 0.244112 -0.790017 -0.716892 0.637968 0.137053 0.464441 -0.876506 0.029287 -0.661130 0.421133 -0.391689 0.616229 0.963284 0.690645 -0.263306 -0.919640 0.264983 -0.245596 0.263173 -0.064990 0.642147 0.318013 -0.083825 0.296513 0.792144 0.783875 -0.567676 -0.975738 -0.650800 0.611947 0.697946 0.173353 0.730958 -0.068357 0.840229 0.430842 -0.967889 0.481810 -0.407807 0.898672 0.604179 0.332131 0.270801 0.083027 -0.144676 0.859597 -0.876580 -0.915138 0.680137 -0.128786 0.257699 -0.837613 0.372034 0.891606 -0.954669 -0.547472 -0.859507 -0.451742 -0.141909 -0.774297 -0.191298 -0.375307 0.230380 0.689447 0.726016 -0.027186 0.652423 -0.181497 -0.530649 -0.049694 -0.180407 -0.948781 0.414178 0.626491 -0.600579 -0.731801
-0.188279 0.232944 -0.292965 0.559524 0.567635 -0.369980 0.400246 0.034586 -0.208257 0.417474 -0.478096 -0.118277 -0.087462 -0.101434 0.920360 -0.616255 0.185660 -0.929770 -0.867465 0.138232 -0.828540 0.872296 0.980133 0.993904 0.233885 0.716707 0.640405 -0.774690 -0.804022 0.072713 0.970358 -0.786643 0.100594 -0.353860 0.433745 -0.012000 0.567724 -0.246108 0.745689 -0.701467 -0.251718 -0.194380 0.619016 0.033978 0.345347 0.302366 -0.026818 -0.579836 0.873442 0.624052 -0.752959 -0.139387 0.092536 0.006071 0.555597 -0.685681 0.457164 -0.438435 0.126936 0.649008 -0.124998 0.690648 -0.885686 -0.175908 0.999198 0.751029 0.149946 -0.346402 -0.373230 0.576571 0.443617 0.395861 0.714056 0.923982 0.529009 0.361528 0.156217 -0.033624 0.982935 -0.040105 -0.537590 -0.168349 -0.175073 0.557756 0.906538 -0.708211 -0.815355 -0.032612 0.525883 0.113489 0.791417 0.269341 -0.856703 -0.518341 0.581263 0.498666 0.475264 -0.217597 0.703940 -0.248621 0.659229 -0.808213 0.160853 0.976332 -0.940457 -0.568380 0.868086 -0.970183 -0.907995 -0.953962 0.187432 -0.564391 0.835186 0.787497 0.413891 0.718885 -0.425608 -0.166854 -0.719518 -0.978330 -0.150984 -0.539013 0.141042 -0.038373 -0.973605 -0.088911 -0.121028 0.221938
-0.806614 -0.306423 0.432765 -0.808586 0.353415 0.491051 0.909506 -0.949671 0.124941 0.838421 -0.260599 -0.840505 -0.902270 -0.352004 -0.873773 -0.816799 0.835160 0.203310 0.853423 -0.936815 -0.186078 -0.789347 0.598919 0.679011 0.098343 0.438083 0.660239 0.101846 0.180211 -0.747299 -0.065056 -0.327952 0.444447 0.238550 -0.324661 -0.060244 -0.118688 -0.059126 -0.127302 0.952426 -0.446086 0.847007 0.153127 -0.981619 -0.294186 -0.437793 -0.592507 0.710210 -0.328571 -0.613565 -0.242474 -0.178490 0.512093 -0.446828 -0.505828 -0.756324 -0.136474 0.520569 0.144883 -0.365728 -0.198871 0.319906 -0.868864 0.469085 0.779817 -0.146463 0.897027 -0.432037 0.229618 -0.967104 0.814460 -0.779463 0.572393 0.689256 -0.052411 -0.949509 -0.065859 -0.297032 -0.989525 0.908778 -0.710220 0.395760 -0.012203 -0.670007 0.297407 0.628363 0.942160 -0.842761 0.876315 0.208796 -0.591418 -0.640604 0.771728 0.177520 0.262592 -0.086055 0.778257 -0.539235 0.141082 0.066893 0.947453 0.921612 -0.120470 -0.042181 0.766684 -0.228521 -0.726052 -0.731137 -0.232059 -0.026316 0.445522 -0.283914 -0.780625 0.301743 0.902759 -0.437545 0.952451 0.070574 0.275166 -0.755845 -0.061826 -0.253710 -0.774847 0.522699 0.730174 -0.885471 -0.786490 -0.658217
0.382341 0.014732 -0.119152 -0.490827 -0.289243 -0.300117 -0.526308 -0.111810 0.669707 0.254274 -0.058128 -0.544594 0.546393 -0.262131 -0.975338 0.754136 0.424863 -0.789286 0.918429 -0.710214 0.748888 -0.956560 -0.261635 -0.288821 0.279562 0.171628 -0.465448 -0.584362 0.519948 -0.972401 0.306918 -0.783884 0.845033 -0.561931 -0.867021 0.627438 -0.828547 -0.162772 0.476390 -0.574095 -0.416587 0.134545 -0.418941 -0.171700 0.331615 0.660877 0.456379 -0.580264 -0.588761 0.807202 -0.264124 0.513174 -0.840981 -0.018553 -0.791304 0.640029 0.722206 -0.576571 -0.926960 -0.265678 -0.136379 0.376115 -0.514997 -0.138093 0.120763 0.648858 -0.257755 -0.354686 -0.307180 0.401973 0.507568 -0.226573 -0.740566 0.969749 0.829906 0.453058 0.810276 -0.036378 0.041718 0.380135 -0.743590 0.533555 0.334802 -0.990460 0.636580 -0.185598 0.229675 -0.203383 -0.002273 0.353639 -0.893808 -0.047913 0.001017 -0.116994 -0.355071 0.355698 -0.380579 -0.869856 0.758252 0.174281 0.831404 -0.879318 -0.938724 0.905778 0.345657 -0.027279 0.721177 -0.625768 -0.504407 -0.970834 -0.244897 0.865487 -0.606679 0.098066 0.075212 -0.237891 -0.787011 0.773081 0.607215 0.647123 0.941520 0.835405 0.876889 0.845140 0.274929 -0.901225 0.571068 -0.078327
0.862727 -0.278040 0.564673 -0.555579 -0.756308 0.573745 -0.180804 0.225767 -0.678011 -0.358799 -0.310214 -0.575701 0.457456 0.830508 -0.141340 0.107933 -0.637150 0.794102 0.932599 -0.004631 0.819712 0.513091 0.003877 0.354576 0.435014 0.381414 0.117148 0.483162 -0.880118 0.749023 -0.331300 -0.724338 0.216822 -0.391809 0.258243 0.573961 -0.753201 0.661431 -0.932557 0.632878 -0.199392 -0.664119 -0.906166 0.368033 -0.927957 0.511561 0.634749 -0.806730 0.618185 0.460300 0.430940 -0.276074 0.526087 0.633937 -0.715108 0.810116 0.983221 -0.349014 -0.154171 0.522890 -0.069950 0.718385 0.752675 -0.519423 0.823527 -0.552998 -0.932781 0.658108 0.594754 0.567235 0.358618 0.883853 0.569785 -0.231337 0.424847 0.708136 0.924937 -0.458917 0.281548 -0.578383 -0.779935 -0.098994 -0.317041 0.152696 -0.068430 0.837132 -0.462215 -0.242352 0.613128 0.457121 -0.392726 -0.868672 -0.839530 -0.841760 0.154289 0.986586 -0.943189 0.432577 -0.106612 -0.694893 0.619009 0.295475 -0.316051 0.499969 -0.853144 -0.933166 -0.224327 -0.460963 -0.998474 0.220735 -0.754183 -0.925493 -0.156479 0.965696 0.021546 0.317453 -0.974581 -0.142550 -0.289811 0.323125 -0.639812 0.475579 -0.883359 -0.911698 -0.121712 0.966184 0.495367 -0.430415
-0.241309 -0.933090 0.916869 0.270393 0.587523 -0.645537 -0.698673 0.685231 -0.253814 -0.156048 0.017795 -0.182161 0.417715 0.858101 -0.076239 -0.519910 -0.660366 -0.990081 -0.795390 0.740395 -0.034469 0.949883 -0.197723 0.464334 0.946990 0.055522 0.774835 -0.966900 -0.615562 -0.730163 0.210658 0.538788 -0.152608 0.101700 -0.144402 -0.894522 0.264914 -0.483964 -0.884099 0.216955 -0.024542 -0.657881 -0.083119 0.415570 -0.682561 0.701458 0.702287 0.026822 0.524937 0.074028 0.852043 -0.034075 0.351411 -0.875319 -0.688615 -0.066252 0.151665 0.599865 0.455623 -0.409835 -0.187929 0.970258 0.566544 -0.990604 0.196572 0.415220 -0.496885 -0.721259 -0.865814 -0.145946 0.769061 -0.969512 0.821760 0.207692 0.315976 -0.460177 0.768025 0.931082 -0.062386 0.316712 -0.240299 -0.698912 0.028093 -0.714370 0.628356 -0.396720 -0.275582 -0.496791 0.408434 0.035893 0.958831 0.905897 -0.378031 0.105228 0.209989 -0.592419 -0.261249 0.916867 0.550557 -0.347495 0.860508 0.692507 0.550356 0.342622 -0.718337 -0.726114 -0.180226 -0.610087 0.464425 0.333149 0.271170 0.266734 0.253456 0.546066 -0.318840 0.827732 0.521706 0.090966 -0.705487 0.611325 -0.759831 0.288501 0.283993 0.130259 0.990145 -0.662681 -0.901800 0.778839
0.794005 -0.910555 -0.465536 -0.977607 0.862427 -0.787566 0.013207 0.673377 0.565622 0.971079 0.960241 -0.391404 0.968480 -0.945671 -0.386674 0.326314 0.034035 -0.364576 0.242489 -0.464036 -0.942048 -0.397721 -0.260129 -0.541411 -0.885707 0.821055 -0.811864 -0.004444 -0.471971 -0.024755 -0.267538 -0.345378 0.661119 -0.783617 0.044078 -0.130695 0.326041 -0.885654 -0.721379 0.606740 0.232471 -0.239333 0.344157 0.065980 0.661945 -0.467324 -0.952654 -0.638668 0.619910 -0.044059 -0.299429 -0.110958 -0.783902 0.199591 -0.842142 -0.925296 0.966430 0.114325 -1.001106 -0.324136 -0.927858 -0.442537 -0.498135 -0.727519 -0.004661 -0.612762 0.720372 -0.866982 0.109145 0.962274 0.016538 -0.034316 0.982992 0.405602 -0.013795 0.924283 0.570711 -0.750768 0.523020 -0.758456 0.903821 -0.735405 -0.111569 0.699213 0.107609 0.008658 0.102004 0.817146 0.693688 -0.889593 -0.877801 -0.278996 0.317907 -0.236190 -0.396062 0.857500 0.721364 -0.782341 0.663980 -0.672428 -0.017571 -0.183476 -0.147546 0.563144 0.969827 0.653309 0.186656 0.567997 -0.153398 0.277974 0.118599 0.407796 -0.991343 -0.047864 -0.823612 -0.586590 0.801472 -0.878791 -0.062695 0.902602 0.426531 -0.300316 -0.543970 0.080416 -0.073361 -0.419660 -0.137934 0.037797
0.443135 -0.573321 0.582772 0.789423 -0.961028 0.086491 0.837879 -0.044128 0.005159 0.888829 -0.083487 -0.294880 0.510274 0.147214 -0.326978 0.695382 -0.182079 0.119241 -0.592674 -0.630941 0.371095 0.016673 0.967894 0.539675 0.733325 -0.107973 -0.409301 0.415828 0.604144 -0.901600 -0.019808 0.650330 0.388337 -0.244720 0.035726 -0.675156 0.329044 0.664527 -0.298669 -0.002905 0.269970 0.870052 -0.493031 -0.978869 0.160700 -0.642494 0.559786 0.517135 -0.762440 -0.972301 -0.402832 -0.468789 0.479056 -0.082382 0.935244 0.603254 0.540406 -0.680270 0.535798 -0.796498 -0.086161 0.030151 0.579787 -0.375659 -0.504614 -0.471625 0.162024 -0.701068 -0.379334 0.504244 0.574385 0.083160 -0.943215 0.727264 0.848289 0.677364 0.492446 0.146681 -0.127746 -0.244673 0.804851 0.104455 -0.549771 -0.324122 0.369686 0.237627 -0.785887 -0.639348 0.919038 0.546101 -0.354620 0.556674 -0.930908 0.186607 -0.213122 0.987524 -0.395609 -0.306519 -0.316185 -0.191749 -0.412342 0.454223 0.026098 -0.179714 -0.990339 -0.352986 -0.040408 0.180044 -0.541560 0.788255 0.421355 -0.040353 -0.279856 0.349001 0.140720 -0.097763 -0.357212 0.490387 -0.176400 -0.376164 0.201025 -0.603755 0.485134 -0.316650 0.047501 0.773617 -0.478931 -0.585971
0.849938 -0.325933 0.617180 -0.173630 -0.806656 0.650758 0.604376 -0.406374 0.898237 0.695717 -0.533575 0.296684 -0.383493 0.940882 0.691257 -0.346877 0.972116 0.026427 0.284732 0.123684 0.412970 -0.115884 -0.529909 -0.765392 0.196135 0.878745 0.397065 0.138986 -0.639835 0.485656 0.537570 0.792271 -0.129365 0.298675 0.337738 -0.186332 -0.170840 0.968200 0.641617 0.164446 -0.507001 -0.702767 -0.533429 0.155043 0.161325 0.727568 0.620742 0.740998 -0.008946 0.581734 0.606634 -0.196037 -0.224620 0.203164 0.823511 -0.422979 -0.881976 -0.774817 -0.549426 0.101877 0.507656 -0.575956 0.070639 0.465237 -0.305814 0.849184 0.632053 0.585377 -0.764848 -0.497017 -0.730945 0.972081 0.947109 -0.609666 0.611084 -0.199289 0.647379 -0.205723 -0.491256 -0.812424 0.476710 0.787456 0.613349 0.926956 0.735407 0.754614 0.525494 0.079648 -0.601910 0.781754 0.516026 0.241448 0.288461 -0.519670 0.822500 0.128992 -0.335414 -0.801260 -0.630076 0.207806 -0.468175 -0.499848 0.551894 0.180503 0.698030 -0.996735 -0.826688 -0.749627 -0.923456 -0.514277 0.582144 0.380539 0.376390 0.156550 0.734290 0.422458 0.609468 -0.938209 -0.031752 -0.632047 -0.195484 0.307659 -0.135023 -0.963435 0.219768 -0.146785 -0.457406 0.179026
-0.361406 0.675102 0.011232 0.782721 0.538150 0.126739 0.721494 0.094745 0.882251 -0.066324 -0.790233 -0.654693 -0.940211 -0.809689 0.090647 0.444802 -0.244296 -0.394488 -0.326138 0.835775 -0.031729 -0.768224 0.281176 -0.125911 0.894957 -0.863693 -0.438977 -0.344714 -0.066886 0.687512 0.989685 0.912263 0.577373 0.173973 0.854758 -0.805867 0.977205 0.184070 -0.475819 -0.041681 0.315072 0.185446 -0.078284 -0.031776 0.978501 -0.688086 0.961417 -0.727056 -0.512491 -0.356958 0.114231 0.075643 0.715567 0.471476 -0.114230 0.110361 0.595099 0.219460 -0.961327 -0.262216 -0.364959 -0.566627 0.567839 0.423800 -0.363352 0.589112 -0.128878 0.590486 0.705270 0.904397 -0.669423 0.446595 0.009990 0.749886 0.236623 0.130365 0.472643 0.723510 -0.563107 0.497010 0.574478 0.952906 0.790267 -0.708157 0.036024 0.523937 0.481548 0.054251 -0.471607 -0.082124 -0.892643 -0.999816 0.593415 0.415875 0.872896 0.218718 -0.287870 0.639906 0.634392 -0.960882 0.110921 -0.458016 -0.654917 -0.195768 -0.507342 -0.823413 -0.084952 0.707651 -0.161136 0.926828 -0.249805 -0.763273 0.303322 0.140481 -0.784947 -0.558056 0.482129 0.681466 0.926723 -0.431387 -0.885363 0.685755 -0.756140 -0.611417 0.310724 0.101661 -0.922166 -0.554746
-0.794803 0.468916 0.813180 0.498611 0.856093 -0.070818 0.431666 0.621970 -0.088744 -0.961223 -0.898477 0.325595 0.937782 -0.949593 -0.195292 0.772559 -0.718395 -0.532712 0.312482 0.196707 0.953600 -0.017492 -0.682117 0.826122 -0.711551 -0.776265 -0.525534 -0.601116 0.783910 -0.637301 0.899784 -0.150895 0.372502 0.314534 -0.810377 -0.557191 -0.297291 -0.152094 0.889024 0.576904 0.891294 0.126081 -0.784612 -0.667377 0.282599 0.875067 0.084752 -0.282376 -0.865681 0.447062 -0.770653 0.002734 -0.287495 0.798665 0.800655 0.259962 -0.999249 0.270198 -0.521258 0.829198 -0.773009 0.300641 -0.846827 0.274503 -0.824800 -0.145711 0.798682 -0.825562 -0.492730 -0.443741 -0.273924 -0.275559 -0.119960 0.733578 0.158291 -0.502382 0.593120 -0.086874 0.880225 -0.397159 0.624735 -0.069539 -0.728329 0.075782 0.000744 0.146334 -0.390280 -0.714533 0.937365 0.949793 0.026531 0.916296 -0.722856 -0.381290 0.269917 -0.001728 0.937751 0.649017 0.863385 -0.927564 -0.406774 0.159418 0.740769 0.827347 0.182491 0.653651 -0.611556 0.180422 0.456789 -0.787233 0.147052 0.874443 -0.348269 -0.199868 0.940119 0.276155 -0.183593 0.268149 -0.694012 -0.534791 -0.694128 -0.832601 -0.852922 -0.998101 -0.458295 -0.365660 -0.561994 0.139175
-0.650327 -0.952394 0.905883 -0.013266 -0.226302 -0.229031 -0.449923 -0.876414 0.193844 0.450389 -0.589788 -0.903054 -0.071557 0.460224 -0.453173 0.117677 -0.274618 0.294916 0.403788 0.718917 0.938246 0.793924 0.281415 -0.093849 0.048939 -0.778183 0.306133 0.776094 -0.640766 0.009799 -0.189116 -0.110275 -0.338472 0.626137 0.530611 -0.512712 -0.700572 0.986657 0.719008 0.335034 0.639791 0.677715 -0.074852 0.470187 -0.602513 -0.804642 -0.274326 0.913531 0.471310 0.449138 -0.684202 0.980361 -0.687489 -0.727043 -0.521431 0.750661 0.037342 0.065239 0.968649 0.964402 -0.884101 -0.925531 -0.837856 -0.492177 0.063503 0.355315 0.340043 -0.206699 -0.464958 -0.047065 0.558277 -0.786086 0.333498 0.487212 0.375594 -0.380395 -0.227191 0.978642 0.224323 -0.949161 0.572185 0.735111 0.193345 0.482579 0.562630 -0.078020 -0.528584 -0.075236 0.053642 -0.555612 0.071226 -0.721115 0.647837 -0.717046 -0.865414 -0.186256 -0.364961 0.202102 0.932717 0.059572 -0.761635 0.393677 -0.020247 0.631431 0.602044 0.153620 0.538943 0.288256 0.184926 0.652696 0.852317 -0.577420 0.681429 0.451366 0.067941 0.368938 0.230329 -0.483541 -0.622996 -0.795063 -0.621862 -0.994647 0.472018 0.804673 -0.037267 -0.851984 0.247600 0.654406
-0.410699 -0.579429 -0.012189 -0.454498 -0.235095 0.003485 0.501357 0.079991 0.554997 -0.780686 -0.350749 -0.055986 0.019003 -0.884277 0.982094 -0.346048 0.718167 0.923799 0.677813 -0.389549 -0.026631 0.931001 0.324818 0.575835 -0.835991 0.648185 -0.370137 0.707454 -0.893062 -0.482947 0.490284 -0.345931 0.013593 0.245856 -0.515807 -0.282475 -0.532882 0.852666 0.594723 0.349365 0.054878 0.578482 -0.343640 -0.900962 0.971346 -0.292247 0.163418 0.640747 0.721488 0.203445 0.054537 -0.386651 0.069593 -0.205764 -0.501218 0.755721 -0.727223 -0.851871 0.133135 0.202534 0.553807 0.322986 -0.259758 -0.478429 0.273634 -0.500252 -0.462523 0.581001 -0.466007 0.007147 0.563435 0.267498 -0.095324 -0.283797 0.240985 0.246594 0.928650 0.061684 -0.636156 0.396324 0.069081 0.138579 0.566196 -0.037106 -0.017872 -0.850477 -0.729750 0.002002 0.652816 0.264377 -0.660801 -0.175279 -0.696219 0.011998 0.788652 -0.128963 -0.156275 -0.562532 0.052948 0.229528 -0.099393 0.401102 -0.972635 0.187404 0.891556 0.376505 0.480731 -0.678455 0.546276 0.128409 -0.928542 -0.893418 -0.869823 -0.990553 0.492519 0.560118 0.454279 -0.921816 -0.690904 -0.519050 0.038347 -0.755750 0.045962 -0.882575 0.618088 -0.224500 0.120855 0.004152
0.205651 0.121371 0.073907 -0.951338 -0.938349 -0.638526 -0.099296 -0.243016 -0.308847 0.255602 0.908761 0.801650 0.134933 -0.107368 -0.414813 -0.122365 0.737566 1.002054 -0.112428 -0.934706 -0.444712 -0.188416 0.661294 -0.458775 -0.072137 -0.206308 0.729754 0.081525 -0.118742 0.618730 0.520410 -0.549699 0.884459 -0.519909 0.259159 0.055598 0.546625 -0.717363 -0.554177 -0.408217 0.080426 -0.154152 0.996168 -0.576439 -0.780102 0.683176 -0.220506 -0.314770 -0.298207 0.232570 -0.277268 0.952672 -0.146852 -0.278617 -0.613309 0.561910 -0.954361 0.971008 -0.143636 0.334200 -0.990149 0.820047 -0.887133 0.320854 0.152278 0.229410 -0.331735 -0.137234 -0.658432 -0.998059 -0.010468 0.006964 -0.085641 -0.111491 0.161796 -0.967240 0.803967 -0.498875 -0.658955 0.410067 0.453642 -0.827570 0.627333 -0.531878 -0.486341 -0.131876 -0.923069 0.160173 0.388091 -0.841750 0.263559 0.755488 0.910360 -0.268496 0.249760 -0.750924 -0.561881 -0.608253 -0.833008 0.030637 0.934299 0.478312 -0.473520 0.643559 0.616013 -0.199599 -0.761278 -0.217500 -0.520380 0.726243 -0.465023 0.769200 -0.356989 0.110790 -0.858723 -0.089768 0.705332 -0.089508 0.953777 -0.597569 -0.453274 0.627037 0.511841 0.381564 0.827411 0.128175 -0.268820 -0.617324
-0.540028 0.315541 0.579980 0.671959 -0.341351 -0.169072 0.199839 0.630287 -0.596398 -0.349987 0.814746 0.058039 -0.125226 -0.161484 -0.664318 -0.530954 0.640997 -0.123348 0.359942 0.405814 0.708328 0.924562 0.882659 -0.502463 -0.367429 -0.039622 0.088880 0.352444 0.692200 0.584028 -0.139686 -0.237591 -0.080544 0.501277 -0.885195 -0.915154 -0.358181 0.570964 0.564476 -0.710003 -0.065182 -0.046854 0.855214 0.296228 -0.894903 -0.511160 -0.721383 -0.107659 0.743566 0.417229 0.728243 -0.757306 -0.942352 0.719287 -0.746234 0.107180 -0.301819 0.051896 0.079231 -0.063459 -0.732403 -0.378388 0.884861 0.105700 0.092324 0.715759 0.944053 -0.251824 -0.980792 0.190710 0.102335 -0.717159 -0.333631 -0.623134 -0.596979 0.217176 0.705708 -0.692044 -0.870901 -0.715218 -0.838661 -0.448678 -0.759554 0.011378 0.200391 -0.483727 -0.286078 -0.868915 0.503644 0.770430 -0.695465 0.857401 0.067782 -0.912586 0.721574 -0.648454 -0.529685 -0.535760 0.515098 -0.566449 -0.659068 0.349637 -0.592781 0.595806 0.882742 -0.489293 0.273867 0.089948 0.371406 0.916400 0.448424 0.771494 0.545549 0.951895 -0.193260 -0.351658 -0.623713 0.285601 -0.337453 0.825917 0.221748 0.837228 -0.557641 -0.425464 0.050186 -0.827686 -0.171371 -0.995704
0.092795 -0.665596 0.381778 0.560806 -0.087666 0.591565 -0.152880 -0.449591 -0.667783 0.341752 0.989580 0.559666 -0.116753 0.196374 0.314253 0.048523 -0.683798 0.060935 -0.695756 -0.082678 0.197782 -0.604968 -0.548045 0.871497 -0.964681 -0.003222 0.247379 -0.999904 -0.814655 -0.937185 -0.205445 -0.885840 0.610561 0.733123 -0.906493 0.176529 0.090136 0.061760 0.105460 -0.588161 -0.707895 -0.491269 -0.231275 -0.625383 0.674810 -0.004464 -0.342560 -0.756196 -0.771383 -0.097256 -0.371137 -0.867146 -0.282983 -0.456620 -0.855685 -0.185199 0.141045 -0.102525 0.534774 0.050302 -0.245195 -0.079564 -0.037203 0.969631 -0.005391 0.050434 -0.416741 -0.350862 0.893800 -0.501446 0.754864 0.462675 0.326237 -0.055955 0.744506 0.075225 0.740947 -0.995769 -0.651278 0.166310 0.225496 -0.783634 -0.498785 -0.082324 -0.112576 0.781226 -0.171955 0.676454 -0.246304 -0.209782 -0.045957 -0.230070 -0.515956 0.856571 0.978244 -0.561559 -0.201063 -0.394736 0.894869 -0.282314 0.026313 -0.829454 0.036562 0.596164 -0.442956 -0.545482 -0.812245 0.713378 0.914326 0.134994 0.448886 -0.141063 0.897965 0.861014 0.984535 -0.803874 0.585296 0.956332 -0.102532 -0.651737 0.580345 0.722099 -0.867138 0.374890 0.261695 -0.395794 -0.793527 0.887010
-0.395557 0.910797 -0.795780 0.304837 -0.235110 0.201303 -0.988484 -0.899295 0.454269 0.496787 -0.707647 -0.076871 0.652170 0.816828 -0.953238 -0.189979 -0.951750 -0.804861 -0.315018 0.343661 -0.288399 0.044956 0.993180 -0.346569 0.838377 -0.633505 0.339244 0.034182 0.605385 0.291934 0.489756 -0.285962 -0.387473 0.339707 -0.178816 0.721325 -0.406301 -0.963399 0.205081 0.091900 -0.684520 0.501003 -0.466058 0.029996 0.057143 -0.343425 0.059878 -0.760142 -0.161343 -0.355557 0.162587 0.517715 0.168285 -0.510696 -0.623769 0.222782 0.860020 0.514259 0.324982 0.786584 0.709339 0.820671 -0.195673 -0.616337 0.996119 -0.031480 -0.759153 0.118716 -0.914249 -0.279114 0.900830 -0.666097 -0.647854 -0.528249 0.489823 0.384860 0.528417 -0.937482 -0.591805 -0.796299 -0.818768 0.524062 -0.741812 -0.517146 0.189660 -0.058811 -0.477231 0.675130 0.287379 -0.489965 0.897459 0.735115 -0.167847 -0.715388 0.387899 -0.949702 0.301559 -0.306731 -0.173335 0.352148 0.739557 -0.976140 -0.166186 -0.069343 -0.676185 -0.436422 -0.480525 -0.513090 0.812190 0.616330 0.520468 0.903628 0.120106 -0.377248 -0.312945 0.721771 -0.773170 -0.449898 -0.886672 0.152360 -0.249258 -0.598261 0.809519 -0.542981 0.008146 0.353624 -0.909031 -0.557834
0.374782 0.669262 0.700826 0.635368 -0.517226 -0.047447 -0.686501 0.630029 0.296350 -0.692322 -0.961382 -0.829474 0.088247 0.170078 0.889719 -0.492470 0.200499 -0.817916 0.877052 0.107505 -0.811183 -0.480393 -0.324395 -0.672320 0.368025 -0.943455 -0.737689 0.775671 0.964789 0.814857 -0.093834 -0.686210 -0.265679 0.642701 0.913677 -0.771258 -0.567272 0.483241 -0.336899 0.745792 -0.973707 0.996965 -0.005212 -0.714028 -0.609431 0.898828 0.735293 0.197927 -0.910584 -0.379345 0.753955 0.902099 -0.713784 0.498570 -0.674840 0.658280 0.026240 0.469764 0.618564 -0.349240 -0.462283 -0.473981 -0.870343 0.293252 0.657374 0.071805 0.583108 -0.058302 0.244226 0.321247 0.171915 0.336695 0.989957 -0.759799 -0.791837 0.266594 0.548612 0.312698 0.376534 0.766974 0.775929 -0.473565 -0.766195 0.937551 0.352499 -0.941439 -0.017619 0.994656 0.690838 -0.831845 -0.075154 0.877274 -0.127167 0.945710 0.409727 0.924217 -0.574166 -0.725575 0.257313 -0.675590 -0.553753 0.392829 0.974993 -0.164615 0.160429 0.636011 -0.823954 -0.278501 0.981035 0.990239 0.896149 0.849449 -0.925826 0.529502 0.018459 0.419594 -0.647715 0.796736 0.857021 -0.128121 0.647456 0.471009 -0.180937 -0.432564 -0.178779 0.643754 0.530141 -0.088869
0.593858 -0.486553 -0.131244 0.966818 -0.663044 0.616026 -0.445960 0.938523 0.343513 0.153618 -0.052767 0.545738 -0.861231 0.768226 -0.156834 0.774268 -0.778423 0.911445 0.572675 -0.924590 0.081029 0.606856 0.532733 -0.411474 -0.766935 -0.855993 0.365122 0.573670 0.786711 0.700964 0.681224 0.273406 0.269056 0.991372 0.214655 0.112698 -0.982674 0.727338 0.218652 -0.467087 -0.858115 0.463556 -0.227883 0.358303 0.201592 0.533750 0.672936 0.805227 0.054164 -0.207564 -0.577349 -0.213171 -0.261652 -0.405340 0.585029 -0.959536 0.227884 -0.527145 -0.720295 -0.133901 -0.959213 0.919841 0.804184 0.116851 -0.655383 0.500603 0.961290 0.955527 0.140405 0.609918 0.939124 -0.124180 0.199063 -0.080192 -0.491531 -0.836128 0.172998 0.285835 0.709456 0.201226 -0.089430 -0.052228 -0.200535 -0.168734 0.400023 0.764756 -0.377726 0.103502 -0.776730 0.373087 -0.281326 0.426711 -0.374026 0.586434 -0.892280 0.969842 0.456955 0.104058 0.145085 0.041054 -0.167714 -0.053745 -0.290595 -0.793319 0.485732 0.418497 -0.718549 -0.331443 0.639965 -0.844804 0.605321 0.779929 -0.426932 0.669032 0.725167 0.385673 -0.268193 -0.063851 -0.976531 -0.360556 0.805117 -0.103971 -0.056005 0.078700 -0.821596 -0.563074 -0.766657 -0.325840
-0.783933 0.770527 -0.296587 0.290212 0.715664 -0.309443 -0.737823 0.378786 -0.385813 0.743220 0.702613 -0.696377 0.003932 0.432084 -0.151997 0.496242 -0.793303 -0.398107 -0.714174 -0.251151 0.374206 -0.991417 -0.163350 0.952639 -0.339862 0.383278 0.019751 0.609398 -0.455411 0.452591 -0.267612 0.405234 -0.215117 -0.132455 -0.063554 -0.999806 0.068927 -0.598912 -0.422845 0.128672 -0.592861 -0.337137 0.426900 -0.567967 -0.275400 -0.337868 -0.801089 0.304820 0.439620 0.457475 -0.615299 -0.159479 0.055076 0.518628 -0.294882 -0.003146 -0.660177 -0.001033 0.369567 -0.646432 -0.835230 -0.715496 -0.629671 0.733961 0.120976 -0.713784 0.797827 -0.559976 -0.494859 0.495115 0.001104 -0.373238 -0.613434 -0.637098 -0.063807 -0.430998 -0.915325 -0.323637 -0.542237 0.728491 -0.145365 -0.855314 0.762247 -0.130576 0.290227 -0.810055 0.838547 0.505573 0.183538 0.744136 0.575813 0.127189 0.612089 -0.551196 -0.783534 0.655077 0.397951 -0.928668 -0.454096 -0.034766 0.911634 0.544954 -0.254415 -0.562980 -0.293891 0.282236 0.052466 -0.540121 -0.851087 0.582072 -0.951785 0.009088 0.891634 -0.980492 0.455971 0.124708 0.344626 -0.662408 0.777520 -0.892881 0.829904 0.895603 -0.822471 0.161409 -0.723694 0.203458 -0.269548 0.280488
-0.199200 -0.019097 0.798674 0.691739 0.590353 0.377613 -0.363977 0.963533 -0.291516 -0.934847 -0.653298 -0.798970 -0.186364 -0.817934 -0.052798 0.989205 -0.169033 -0.592243 0.105705 -0.628836 -0.063624 -0.550427 -0.613397 0.026952 -0.481495 0.270206 -0.348595 0.815099 -0.357711 0.299611 0.033436 -0.885131 -0.428345 -0.536117 -0.806713 0.112532 0.032209 0.813755 -0.816183 -0.450692 0.923065 -0.485313 0.028331 -0.199910 -0.943139 -0.058124 -0.163420 -0.942555 0.375484 0.289106 -0.809210 0.701848 0.118528 0.772068 0.146175 0.812238 -0.856519 -0.426292 0.011741 0.070912 -0.997513 0.622981 0.452724 -0.354939 0.492450 -0.839493 0.761268 0.147571 0.084842 -0.519103 0.569345 0.903375 -0.661576 0.783652 -0.184156 -0.753109 -0.952147 -0.997226 0.378888 0.832591 -0.330360 -0.986456 -0.213064 0.434369 -0.537829 -0.908851 -0.525635 0.446299 -0.169486 0.128062 0.948915 0.036334 0.707334 0.797571 -0.934714 -0.742678 0.373350 0.428956 0.466418 0.983694 0.782772 -0.923470 -0.201517 -0.305739 -0.233289 0.021538 -0.666745 0.925991 0.014627 0.880767 0.960644 -0.340971 -0.210968 -0.406498 0.236147 0.238165 0.025434 -0.159400 0.794793 -0.887442 0.326935 -0.861328 0.261272 -0.789024 -0.249141 -0.559983 0.810962 0.125291
0.790389 -0.162130 -0.038309 0.483948 -0.503836 -0.437398 0.231715 -0.057949 0.542525 0.295811 0.367179 0.226380 0.354656 -0.314678 0.238756 0.432007 -0.721120 -0.748586 -0.306900 -0.525257 0.275451 -0.226597 0.472288 -0.239305 0.241580 0.291706 0.712152 -0.834944 0.477905 0.812899 0.996492 0.831643 -0.838617 0.181384 0.735389 0.192654 0.661840 -0.522102 -0.020406 0.292558 -0.498563 -0.766151 0.578163 0.121013 -0.822546 0.197525 -0.499037 0.398604 0.907494 -0.600675 0.792772 -0.988443 0.587232 0.999926 0.331613 0.976446 -0.025136 -0.852164 0.249541 -0.595418 0.242544 -0.545171 0.971675 -0.849307 -0.476417 0.004949 -0.026384 0.351922 -0.627645 0.522785 -0.037963 -0.198070 0.776177 -0.128727 -0.788001 0.431141 0.163641 -0.041587 -0.603639 -0.028909 -0.717814 -0.419024 0.165438 0.590440 0.827026 0.079204 -0.582026 0.882848 0.122417 -0.115626 0.492912 0.453806 -0.954112 0.334809 -0.556752 0.840950 -0.981973 0.748571 -0.447163 -0.198193 -0.270097 -0.660883 0.027687 0.479879 0.419663 -0.180997 0.929189 -0.872998 -0.378307 -0.175675 0.670738 -0.245749 0.200693 0.256263 -0.299268 -0.503278 0.608934 -0.958783 -0.670108 -0.199007 0.903716 -0.018599 -0.914638 -0.518060 0.729374 -0.635055 0.779532 -0.409036
-0.822381 -0.912153 -0.830221 0.311140 0.695016 -0.331257 0.516186 0.209183 -0.651926 -0.735239 -0.392868 -0.586055 -0.181457 0.622771 -0.228651 -0.086230 0.553146 -0.293414 0.541880 -0.931753 0.447490 0.914612 -0.167544 -0.981259 -0.063935 0.568785 0.129445 0.465732 -0.753953 -0.979914 0.583853 -0.080817 0.778527 0.371194 -0.605235 0.804087 -0.254314 -0.759010 -0.944243 -0.065314 0.403052 0.747666 -0.199385 0.619383 0.428890 -0.442056 0.154964 -0.516016 -0.429435 0.585885 -0.037036 -0.177613 0.375567 0.596678 -0.708405 0.140963 -0.276365 -0.587647 0.119191 -0.139228 0.844388 -0.355476 -0.541909 0.147137 0.541843 0.645400 0.261410 0.885647 -0.259100 -0.680420 0.398609 -0.115650 -0.402455 0.534546 -0.213292 0.123135 -0.024719 -0.631332 0.322418 0.944634 0.452244 -0.132530 0.585746 -0.981841 -0.429533 -0.086108 0.134098 -0.662290 0.575709 -0.159249 -0.900686 -0.052676 -0.805734 0.895311 -0.706597 -0.012627 -0.442297 0.435236 0.262070 -0.331831 -0.957830 -0.760584 0.370641 -0.506437 -0.424679 0.475496 0.701130 0.960474 0.051796 -0.411151 0.135212 0.528661 -0.204180 0.912149 -0.138475 -0.319886 -0.331589 0.231513 0.442040 -0.468286 -0.131504 -0.240189 -0.365446 0.073499 0.746082 -0.930414 0.681862 0.808975
-0.316268 -0.777351 0.446380 -0.368054 -0.869649 0.628683 0.601429 0.249471 -0.918324 0.118221 0.776742 -0.478754 -0.470053 -0.894068 0.332952 0.247573 0.577726 0.155749 0.763832 -0.979585 -0.254384 0.696294 -0.569568 -0.303700 -0.011673 -0.918600 0.951678 0.261358 -0.584168 0.857541 0.287486 -0.789464 0.848417 0.513334 0.823946 -0.363287 0.928080 0.297364 0.541284 0.979122 -0.287350 0.897029 0.215185 0.603878 -0.416794 0.792207 -0.367514 -0.317697 -0.045733 0.579788 0.832139 -0.406403 0.543272 -0.536344 0.246185 0.658566 0.293199 -0.998083 0.210220 -0.657826 -0.717479 0.270232 -0.928479 0.943298 0.102866 0.884845 0.493456 -0.512520 0.038958 0.273521 0.644603 0.712421 0.940968 -0.174243 -0.388860 -0.257966 0.295843 -0.734172 -0.203145 -0.227525 -0.591585 0.588361 -0.576827 -0.633435 -0.696306 -0.686974 -0.398505 -0.537894 -0.831106 -0.970650 0.796922 0.379247 0.541600 0.145896 -0.956194 0.822486 -0.609027 0.723613 0.474348 0.561854 0.010636 -0.774062 -0.616376 0.752221 -0.044373 -0.199359 0.586935 -0.412042 -0.310638 0.722243 -0.643852 0.412702 0.890780 -0.397455 0.059859 0.449514 -0.602217 -0.929710 -0.884833 0.153648 0.409417 -0.217981 -0.200999 -0.190251 -0.645118 0.825367 0.258228 -0.810613
-0.834791 -0.264454 0.943066 0.445689 0.987764 0.538603 -0.247418 0.533445 -0.792018 0.813441 0.290258 -0.531255 0.453741 -0.551921 -0.276271 -0.628796 -0.493695 0.535400 -0.543913 -0.386103 0.218383 0.093907 -0.096245 0.416112 -0.742081 -0.913869 -0.263620 -0.543383 -0.467089 -0.002543 -0.454196 0.041511 0.102781 -0.008161 -0.318994 -0.452076 0.093079 0.389348 0.746790 0.406587 -0.115036 -0.744298 -0.409791 -0.034901 0.873617 0.990902 -0.026739 0.248834 -0.736609 0.189336 0.879394 -0.890407 -0.352112 0.932782 -0.772527 0.196697 -0.833402 -0.398016 -0.490257 0.631735 -0.009909 0.188863 -0.064247 -0.508153 -0.914273 -0.658826 0.447046 0.807440 0.217979 -0.779582 -0.398753 0.617556 -0.553041 0.358446 0.414286 -0.197894 -0.951843 0.286413 -0.554678 0.514887 -0.289640 0.656769 0.966685 0.717241 -0.231244 0.625723 0.246504 -0.561853 -0.570960 0.218459 0.933710 0.763900 0.757506 -0.321611 -0.845431 -0.292803 -0.516451 -0.107645 0.825210 0.015749 0.842594 0.754801 -0.154960 0.884804 0.523251 -0.383509 0.945400 0.032832 0.579818 0.195844 0.732787 -0.530300 -0.512202 0.456612 -0.429686 0.664561 -0.165009 0.229971 -0.784836 0.461390 -0.909774 -0.283381 0.502193 -0.770824 -0.487556 -0.323744 0.729166 0.767998
-0.891781 0.166730 -0.101335 0.226209 -0.770139 -0.910957 -0.727385 -0.195212 0.506861 -0.725608 -0.793819 0.323013 0.941148 -0.785797 0.605012 0.608485 -0.069498 -0.513843 0.370324 0.630926 -0.573785 -0.351963 -0.872023 0.981481 0.729271 0.391727 -0.741592 0.109221 -0.245427 0.741924 -0.463404 -0.715246 0.427009 0.849655 -0.052946 -0.277213 0.637092 0.008882 -0.567361 -0.006429 -0.827563 0.431614 -0.021204 -0.246103 0.390185 0.054423 0.645871 0.928522 0.447643 -0.202522 -0.808644 0.029480 0.218210 0.033372 -0.413704 -0.731763 0.202589 -0.056704 0.159771 -0.783095 0.358098 0.436041 0.188430 0.584516 -0.430933 -0.479584 -0.189775 0.797563 0.382746 0.212173 -0.212781 0.158092 0.770747 0.610078 0.530090 0.182146 -0.124575 0.977462 0.206358 0.956667 0.819887 -0.222010 0.337532 -0.536110 0.009198 -0.523939 0.390740 -0.841671 -0.939899 -0.702075 0.498634 -0.824032 -0.777486 0.863036 0.413355 0.226854 -0.473091 0.480551 0.700146 -0.026156 -0.777379 0.156015 -0.072854 -0.229626 -0.467473 -0.760734 0.674602 0.208430 0.282657 -0.947353 -0.561736 -0.200784 -0.202070 -0.099391 -0.589410 0.391470 -0.521178 0.477648 0.256605 -0.843578 1.000350 0.882618 -0.788703 -0.301945 -0.473796 0.276290 0.330190 -0.044786
