-0.228645 -0.260336 0.958660 -0.808245
-0.015038 -0.318476 -0.574651 -0.947701
-0.149051 -0.002050 -0.298860 -0.034080
-0.964435 0.758098 -0.557860 -0.782205
-0.483126 0.297669 0.028856 0.062405
0.840588 -0.149762 -0.830027 -0.007841
-0.109633 0.745153 0.141463 0.407650
-0.223726 -0.239054 -0.960135 -0.018955
0.477214 0.262224 -0.431634 0.616591
0.572881 -0.587435 0.101155 0.153433
-0.706443 -0.497988 -0.924795 -0.771474
-0.003384 -0.400824 -0.761407 -0.311967
0.911689 0.397890 0.077311 -0.716980
-0.940511 -0.557260 0.659439 -0.315413
0.767813 -0.138634 -0.050466 -0.702222
-0.214884 0.160837 0.373893 0.470288
0.349849 -0.622036 -0.420887 -0.032760
-0.901458 0.271151 -0.892606 -0.292457
-0.305899 0.481835 0.953108 -0.871584
0.286737 0.451638 -0.352039 -0.515330
0.084092 -0.443481 0.385920 0.526170
-0.033883 0.354473 0.146478 0.802441
-0.815566 0.973333 -0.545733 0.726815
0.422611 0.059568 -0.745968 -0.287374
0.764314 -0.444687 0.292145 0.183224
-0.331370 -0.934175 0.290510 -0.390685
0.616481 0.579076 0.796740 -0.414587
0.604052 0.080960 0.099350 0.105545
0.370702 0.084318 0.280298 -0.327119
0.037380 0.968683 0.237175 0.256322
0.610634 -0.259364 0.390432 0.667304
-0.013273 -0.218403 0.828888 0.367440
-0.020278 0.531173 0.807938 0.052627
-0.687974 -0.652560 -0.108089 0.480234
-0.990015 -0.222693 0.034046 -0.400817
-0.629280 0.099539 -0.629548 0.794397
-0.580105 -0.686718 -0.973906 -0.764293
0.093629 0.830847 0.719116 -0.683055
0.708767 0.604650 0.973038 0.686410
-0.924482 0.824995 0.807766 0.955838
-0.090389 -0.846572 -0.756591 0.407607
-0.611845 -0.078370 0.604228 -0.922036
-0.652759 0.221294 -0.573286 -0.560332
-0.766255 -0.526709 -0.549542 0.662070
-0.114048 0.487723 -0.863917 0.217260
0.837255 0.696360 0.049575 0.072659
0.298160 0.760541 0.980580 0.467799
-0.748746 -0.258099 -0.749867 -0.295712
-0.083242 0.659498 0.766146 0.881660
0.821196 0.728206 0.820867 0.899215
-0.404021 -0.628610 0.839744 0.226346
0.541072 -0.284776 -0.704779 -0.292256
0.348851 0.176189 -0.197322 -0.882622
-0.575631 0.791631 -0.763107 0.234655
-0.948392 -0.385785 0.301915 -0.586210
0.179560 -0.466913 -0.046591 0.255416
-0.966700 -0.991442 0.291898 -0.607754
-0.607935 0.540196 -0.156767 -0.968039
-0.824177 -0.407572 0.933785 -0.240387
0.216096 -0.264302 0.878082 0.424626
0.133517 0.273443 -0.343262 0.346853
0.516605 0.732155 -0.553975 -0.641729
0.784408 0.253555 -0.512255 0.055543
0.634797 -0.906738 -0.338677 -0.115811
-0.411251 -0.596456 0.629102 -0.383521
0.271170 -0.006191 -0.367067 -0.447645
0.832186 -0.906404 0.987902 -0.229612
0.647623 0.727872 0.998084 0.033280
0.577465 0.885904 -0.947902 -0.402276
-0.109527 -0.301527 -0.151294 0.213239
0.755182 0.174234 -0.754057 0.012747
0.265643 0.607257 -0.607054 -0.348735
0.143022 0.357041 0.823502 0.497757
-0.872860 -0.512072 -0.754951 0.760311
-0.487369 -0.846388 0.475298 -0.733006
-0.229147 0.920427 -0.648545 0.177204
0.633423 -0.600698 0.372196 -0.103801
-0.500165 0.260200 0.732389 -0.076885
-0.811026 -0.254953 -0.624714 0.111449
-0.361822 0.438926 -0.168369 -0.950505
-0.793777 -0.033337 0.250324 0.209292
0.716070 0.397415 -0.686428 0.181464
0.154736 0.148665 -0.372398 0.470239
0.488181 0.390760 0.531686 -0.734495
-0.111258 -0.321635 0.579231 0.253212
-0.393610 0.298617 0.115191 0.761574
-0.487768 0.517161 -0.501101 -0.410879
-0.409326 -0.376743 0.147297 0.173226
-0.700408 0.411875 0.500435 0.793112
0.819083 0.415711 0.434216 -0.086281
0.857098 0.794583 -0.972784 0.511043
0.206526 0.948515 0.055203 -0.521293
0.584776 -0.439409 0.651305 0.503309
0.789115 -0.451946 -0.351668 -0.233284
-0.077516 1.026100 -0.484008 -0.497856
0.700225 -0.375777 -0.403753 -0.745878
-0.556617 -0.607963 0.382942 -0.561053
-0.721980 -0.214668 -0.954052 -0.054596
-0.905477 0.766973 -0.523368 0.844810
-0.762655 -0.279161 -0.810345 -0.380297
0.535268 0.974374 0.624606 0.601570
0.817661 -0.940127 0.225064 0.228625
-0.592709 0.952850 -0.226149 -0.790531
-0.011696 0.485639 0.891261 0.457952
-0.608476 0.174808 -0.610195 -0.309940
-0.758715 -0.411888 0.869591 -0.274554
-0.030350 0.794537 0.936961 0.177221
-0.817418 0.301527 0.790533 -0.420028
0.528301 -0.968665 0.784183 -0.242838
-0.462255 -0.178224 0.278800 0.726403
0.984356 -0.310203 0.313100 -0.461247
0.028448 -0.930317 -0.336465 -0.719433
0.562969 -0.206631 0.863340 0.929623
-0.148895 -0.733338 0.337608 0.569054
0.497999 0.712011 0.330907 0.191219
0.179127 0.704246 0.422315 -0.683957
-0.113842 0.742697 0.049502 0.566228
0.734053 0.045833 -0.877629 0.597416
0.847312 0.058228 0.476650 0.502216
-0.476801 0.375069 -0.408273 -0.244768
-0.051567 -0.387535 -0.339554 -0.742509
0.538687 0.156143 0.565799 -0.173622
0.242311 -0.581297 0.708189 0.344736
-0.819939 -0.583916 0.315582 0.601348
0.960020 0.218759 -0.194130 -0.170299
-0.133436 0.186304 -0.060313 0.158856
0.731397 -0.657557 0.933604 0.691774
-0.043876 0.059359 0.667992 0.810106
