-0.521925 0.840799 -0.898975 -0.003954 0.671045 -0.947381 -0.822266 -0.093092 0.537935 0.480765 0.574282 -0.375947 -0.696271 -0.589485 -0.392381 0.082190 -0.098155 -0.493422 -0.404983 0.945582 -0.594739 0.421652 0.618580 0.664075 -0.921427 -0.153791 -0.247992 -0.108855 -0.578861 -0.064243 0.333283 0.988004 -0.739529 0.758453 0.478285 0.108805 0.946027 0.609034 -0.519823 -0.121905 -0.589154 -0.267601 0.784004 -0.978983 0.729207 -0.300309 -0.650337 0.077852 0.472571 -0.051144 0.454933 0.387574 -0.722608 0.446027 -0.624765 -0.809757 0.871982 -0.212473 -0.580283 -0.951379 -0.843323 -0.134248 -0.085874 0.917552 -0.109460 -0.183927 0.130940 -0.005765 -0.826850 0.024813 -0.826633 -0.686385 0.888287 0.457284 0.803060 0.264046 0.430248 0.385978 0.379537 0.110777 -0.210932 0.595946 -0.766179 -0.027391 0.119640 -0.122352 0.676036 -0.835864 -0.335622 -0.516532 -0.910073 0.421806 0.598179 -0.021987 0.435819 0.835029 -0.622697 0.561077 -0.993882 0.686676 0.716649 -0.910525 -0.847409 0.567345 0.799832 0.452512 0.567247 -0.446622 -0.488057 -0.744483 -0.803899 0.293259 0.731718 -0.492500 -0.139892 0.747205 -0.250577 0.569688 0.500680 0.630875 0.890013 -0.495312 0.314365 -0.635370 0.851236 0.233330 -0.293840 -0.899975
0.959143 -0.403108 -0.809769 -0.858249 0.325436 -0.094417 0.985294 0.070351 0.530238 0.400585 0.254041 0.533216 0.996409 -0.461946 -0.278965 0.727735 -0.806942 0.290142 0.399289 0.778723 0.899598 -0.025393 0.806591 -0.992675 -0.967410 0.181818 -0.840693 -0.044225 -0.184653 0.756969 0.788833 0.744633 -0.838315 0.038836 -0.689903 0.825324 -0.086052 0.033203 -0.100303 0.767614 -0.239228 0.107329 -0.765795 0.310479 -0.297295 0.489106 0.049311 -0.898700 0.511653 0.420475 -0.963379 -0.180627 0.617629 -0.950069 0.906211 0.000926 0.984579 -0.132433 0.201932 0.335108 -0.847925 -0.132329 0.383377 -0.268063 0.152986 0.940514 0.998015 0.366986 -0.685687 0.097583 0.589913 -0.381680 -0.135643 -0.302456 0.142744 0.211186 -0.294142 -0.824909 0.296469 -0.182928 0.687189 0.029240 0.625346 -0.145508 0.562757 -0.456994 -0.397733 -0.379155 0.308056 0.302625 0.985628 -0.668208 -0.858384 -0.695459 0.059002 -0.795181 0.666172 -0.576414 -0.980152 0.333133 -0.229720 -0.229482 0.396735 0.594980 0.984014 0.088669 0.658828 0.796414 -0.344113 0.778510 -0.348866 0.151914 -0.068457 -0.179752 -0.910598 -0.316662 0.194597 -0.069912 0.324320 0.752468 0.364677 -0.617223 -0.704795 -0.490251 0.679577 0.865459 -0.011867 -0.886770
-0.022453 0.301343 0.897222 0.811289 -0.523955 -0.731487 0.904426 -0.817777 -0.791960 0.023329 0.089896 0.928092 -0.802451 -0.931803 -0.024410 -0.986982 -0.937106 -0.048247 0.405626 -0.296560 0.871073 0.904378 0.681584 0.306864 0.324875 0.508106 -0.223215 -0.796453 0.532275 0.360462 -0.282598 -0.950303 0.742197 0.257999 -0.883126 0.156782 -0.586656 0.623245 -0.932462 -0.456886 -0.563673 0.958448 0.882121 0.914307 0.491081 0.431415 -0.635557 0.328681 -0.931795 -0.833389 -0.210899 -0.913428 -0.168469 -0.801093 0.194276 0.973528 -0.754472 0.254875 -0.335354 -0.227353 -0.194886 0.552516 -0.445691 -0.628293 -0.202270 0.873275 0.792004 -0.887680 0.579907 -0.167081 0.114837 0.552625 0.829683 -0.932601 -0.942696 -0.746183 -0.954900 0.737326 -0.826159 0.113241 -0.739577 -0.192939 -0.477841 -0.082466 0.974586 0.874027 0.284628 0.259871 -0.952350 0.703771 0.045603 0.745879 0.035494 -0.016243 0.616140 -0.088386 -0.270272 0.017669 -0.741017 -0.234343 0.453216 0.487095 -0.376817 0.048126 0.872713 -0.394101 0.971120 0.673097 -0.666890 -0.271555 0.552362 0.963917 0.006836 -0.791176 -0.253298 0.458576 -0.472284 -0.279398 -0.536385 0.005144 0.802085 0.271511 0.221596 0.636728 0.427873 0.892722 -0.601200 0.988924
0.848444 0.208538 0.321679 -0.004770 -0.199294 0.773692 -0.063478 -0.199519 -0.877789 -0.176292 -0.868175 0.616685 -0.139041 0.393484 0.742814 0.004344 0.474419 0.085646 -0.029828 -0.963617 0.106604 0.173558 0.453581 -0.035053 -0.674634 -0.912876 0.663736 -0.549450 -0.262983 -0.986956 -0.395390 -0.545846 0.047652 0.585918 -0.405697 0.253616 -0.118830 -0.012704 -0.832821 -0.288107 0.112421 0.543798 0.704843 -0.184036 0.462924 0.508050 0.878219 -0.654114 0.626064 -0.894170 0.775804 -0.272839 -0.351382 0.466429 0.110112 -0.135407 -0.958134 -0.224893 -0.714799 -0.368597 0.860684 -0.350551 -0.285427 -0.441556 0.816118 0.492244 -0.981126 -0.463067 0.351124 0.780247 -0.513669 0.261931 0.999382 -0.621256 -0.359404 -0.186219 -0.133552 -0.200483 0.977574 -0.882714 -0.549953 0.364605 0.791736 -0.392545 -0.130850 0.575515 -0.799853 -0.890923 0.692213 0.683196 0.685055 -0.947530 -0.827159 0.221208 -0.346227 -0.272088 -0.575952 -0.952693 0.096033 0.348525 0.257772 0.172927 0.885879 -0.999703 -0.391783 0.191771 -0.227862 0.520533 0.133328 -0.754112 -0.970791 -0.127218 -0.914435 -0.681403 0.396732 -0.018936 -0.683143 0.148407 -0.153627 -0.415102 -0.963115 -0.941985 0.835534 -0.924321 0.664332 0.807544 -0.525904 0.812524
-0.267367 0.236744 -0.017911 -0.947982 0.240519 0.982818 0.719648 -0.457041 -0.057952 -0.007270 -0.009274 -0.338384 0.649494 -0.021090 -0.640002 -0.127835 -0.913130 0.166150 -0.305108 -0.297870 0.675832 -0.832982 0.479002 0.732208 -0.526190 0.343902 -0.764879 0.196956 -0.779725 0.881834 0.743153 -0.552059 -0.147725 0.348032 0.831436 0.496482 -0.150594 0.746163 -0.362762 -0.952946 0.674810 0.787920 -0.762148 0.084862 0.169384 0.315734 0.244279 0.846359 -0.754842 0.271847 -0.659579 -0.767826 -0.503767 -0.549188 0.696208 0.499064 0.946332 0.660944 -0.158500 0.793249 -0.614697 0.924467 0.438697 0.381948 -0.635060 -0.076219 0.168689 0.525427 -0.292331 -0.465046 -0.048086 -0.984373 0.031979 0.821810 0.033766 0.196385 -0.945031 -0.430606 -0.849248 0.829254 0.779926 0.628298 0.754943 0.572268 -0.561940 -0.218342 0.771400 -0.649001 0.724977 0.423299 0.666240 0.766047 0.180732 0.824805 -0.645424 -0.912861 -0.817991 -0.441582 -0.676126 0.451548 0.165333 -0.861149 -0.930082 -0.622984 -0.921970 -0.142518 0.107220 -0.954072 0.753699 -0.880759 -0.961800 0.576897 -0.354804 -0.790562 -0.293646 -0.512777 0.220039 -0.426529 0.825708 0.437013 -0.314564 0.471267 -0.641081 0.282604 0.214459 0.048471 -0.466537 0.019389
-0.480389 -0.119571 -0.064110 -0.937803 0.831814 -0.612209 0.075725 -0.397950 0.703058 0.996883 0.827998 -0.147024 -0.271864 -0.090709 -0.061047 0.106947 -0.118456 -0.393749 0.099673 -0.812981 -0.579763 -0.044760 -0.196666 0.408436 0.532622 0.516734 -0.315555 0.906070 -0.428643 0.213979 0.481741 -0.271543 0.637724 0.194187 -0.471461 0.318991 0.014537 -0.805220 0.684074 -0.131269 0.159049 -0.827886 -0.101479 -0.572296 0.198838 -0.531713 0.330408 0.083053 -0.292553 0.319640 0.435883 0.235922 -0.794297 -0.421863 0.269685 0.282599 0.502446 0.753421 0.705795 -0.434747 0.110656 -0.819431 0.634746 -0.447823 0.406456 0.328193 -0.046948 0.197346 -0.442071 0.403737 0.640672 0.281867 0.452448 0.380871 -0.817043 0.937879 0.025390 0.646769 -0.696069 0.004764 -0.844952 0.562962 0.959949 0.894928 0.692922 -0.015461 -0.365152 -0.507638 -0.144391 -0.013744 0.335080 -0.953775 -0.940171 -0.079778 0.606711 -0.690171 -0.170175 -0.735813 -0.825157 -0.735487 0.119153 0.107709 0.344302 -0.080117 0.871035 0.965887 -0.076876 0.980824 0.958329 -0.201812 -0.074609 0.046725 -0.870594 0.707959 -0.662334 0.149323 0.825191 0.727588 0.887858 0.964676 0.455755 0.853867 -0.528412 0.696919 0.316563 -0.924064 -0.860358 0.196365
0.509563 -0.632817 0.583011 0.251343 0.156818 -0.067205 0.071816 0.574153 0.733485 -0.331799 -0.179054 -0.020784 0.205080 0.279622 -0.341672 -0.049248 -0.155349 -0.036227 0.902783 -0.307198 0.104386 0.412884 0.563609 -0.202170 0.286545 -0.826234 0.185376 -0.862178 -0.012135 -0.623257 -0.373962 -0.384113 -0.937992 -0.699698 -0.407028 -0.683235 0.866908 -0.822685 -0.971171 0.852437 0.959245 0.131043 0.287504 -0.827390 0.896833 -0.444195 -0.325439 0.891956 -0.957189 -0.622683 -0.579435 0.029054 -0.545569 -0.657713 -0.616512 0.237681 -0.520782 0.423626 -0.796081 -0.761238 0.480547 -0.116412 -0.098246 -0.793636 0.935132 -0.550240 0.207752 0.617987 0.156372 0.217977 -0.463355 0.952331 -0.374564 -0.259339 0.716035 0.481878 0.011849 -0.029627 0.109549 0.103001 -0.152278 -0.190818 0.991669 0.864173 -0.420889 -0.394075 0.781291 0.245174 0.543877 0.945044 -0.332925 0.697020 -0.864886 -0.102556 0.608182 0.669301 0.060889 -0.896821 0.178107 -0.326332 -0.826790 -0.213370 -0.253936 0.608941 0.275769 -0.301198 0.334680 -0.162464 0.550387 0.562008 -0.258677 -0.477175 0.602521 0.796510 -0.091767 -0.927992 -0.031036 -0.681699 -0.802928 0.404342 -0.305206 0.716896 0.678661 -0.670592 -0.892004 -0.618615 -0.007565 -0.044315
0.951925 0.088772 -0.316909 -0.533177 -0.477380 -0.308437 -0.880610 0.593882 0.179160 -0.899428 -0.558599 0.855445 -0.424230 0.867936 0.138363 0.496234 0.048485 -0.555784 0.768877 0.695166 0.083094 0.657420 -0.344506 -0.215501 -0.765952 -0.201816 0.719850 -0.041881 -0.900140 0.777103 -0.161323 -0.282628 -0.303835 -0.983648 -0.017791 -0.256095 0.254351 -0.257944 -0.357926 0.333178 0.115202 -0.299319 -0.635014 0.600106 0.899018 0.909340 0.597104 -0.142537 0.479539 0.490669 0.181679 0.656634 0.316543 0.254188 0.982115 -0.589294 0.019940 0.562625 0.800007 0.256700 0.557693 -0.652215 -0.001351 -0.201115 -0.908217 -0.861302 -0.101629 -0.258639 0.200144 -0.596734 -0.089627 0.883230 0.232960 0.912309 -0.194982 -0.043334 -0.249236 -0.162464 -0.834867 -0.009236 -0.314973 -0.167964 -0.479510 -0.116860 0.670622 0.330406 0.322096 -0.189784 -0.463894 0.307062 0.610502 0.173501 -0.700076 -0.819520 0.293204 0.892663 -0.771386 -0.017580 -0.823961 -0.515620 -0.341414 0.023309 -0.644629 -0.224399 -0.158522 0.194709 0.841883 -0.670262 -0.308654 -0.883699 0.210117 -0.705292 -0.890289 -0.255646 -0.406574 -0.385770 0.884829 -0.016127 -0.927245 -0.840077 0.181722 0.152523 0.252126 0.965996 0.454811 0.624785 -0.075468 0.581327
-0.554553 -0.879674 -0.386550 -0.035794 -0.546798 -0.117000 0.053944 0.295084 -0.038972 0.767174 -0.678928 0.000043 -0.738775 -0.821051 -0.507380 -0.197892 0.435722 -0.836950 0.749849 0.989299 0.404962 0.840687 -0.962369 0.489495 -0.444313 0.701007 0.076967 -0.621832 0.242222 -0.400140 -0.088631 0.783017 -0.424723 0.536376 0.637840 -0.330554 -0.847098 0.269529 0.166577 0.558131 0.913306 0.624284 -0.881541 -0.961867 -0.921593 -0.359888 0.149084 -0.745237 0.769520 0.580450 0.438409 -0.078138 -0.161006 -0.194350 -0.148744 -0.122199 0.327024 -0.305049 0.082620 -0.019813 0.288222 -0.038983 0.485891 0.563088 -0.435478 0.206402 0.020791 0.534254 -0.400067 -0.081129 -0.168894 0.776754 0.694742 -0.131650 -0.634065 -0.623261 -0.580518 -0.853035 -0.063818 -0.131228 -0.866758 -0.098807 -0.086002 -0.556750 0.351716 0.038332 -0.366596 -0.569556 -0.857219 0.815556 -0.008617 0.191844 -0.259620 0.908972 -0.308144 0.464056 0.570413 -0.416132 -0.048986 0.381359 0.310045 0.626442 0.324905 -0.739193 -0.256141 0.438779 -0.303356 -0.009683 -0.419595 0.010965 -0.404490 0.692812 -0.488520 0.598943 0.155945 0.332824 0.322630 0.356189 0.267447 -0.881269 0.835568 -0.325706 0.682699 0.910241 -0.363678 -0.798168 0.949081 0.990940
0.420459 0.292823 0.678115 -0.070057 -0.456802 0.861110 0.046831 -0.903773 0.199010 0.247976 -0.936356 -0.165929 0.327218 0.771617 0.315147 0.295572 0.237689 0.811777 -0.945346 -0.675154 0.204584 -0.928459 -0.437523 -0.397136 -0.153245 0.150902 -0.640087 0.382024 -0.938667 0.911008 -0.811497 -0.030307 0.011310 -0.733200 -0.051420 0.845442 -0.959913 0.915710 0.590454 -0.652307 0.169814 -0.420618 -0.975592 -0.506741 -0.268001 0.452394 -0.038512 0.540646 -0.053060 -0.023666 0.463871 -0.652108 -0.640078 -0.811367 -0.721575 -0.042035 -0.083310 0.588601 -0.160504 -0.359640 -0.055264 0.317795 -0.700518 0.800218 -0.051337 -0.004679 0.021599 0.152248 0.309001 0.743588 -0.911570 -0.101005 0.063987 -0.710162 -0.755084 -0.657584 0.116256 0.605199 -0.918878 -0.131052 0.794814 -0.923606 0.020866 0.071921 0.217228 0.353686 0.339563 0.888743 -0.927311 0.348902 0.990864 -0.977953 -0.693299 0.066044 -0.955765 0.328643 0.070809 0.584303 -0.249570 -0.196205 0.550466 -0.742723 0.836477 -0.131855 0.869060 0.471649 -0.852831 0.771422 0.236121 0.602734 -0.507630 0.169180 0.262571 0.908738 -0.990767 0.838394 0.675566 -0.046767 0.378346 0.996076 0.005066 0.465369 0.417624 0.454716 -0.945604 -0.968013 0.255941 -0.508602
-0.419208 0.588666 -0.661621 0.980125 -0.915252 0.884324 0.559017 0.191871 0.997937 -0.898101 0.390815 0.866533 -0.927340 0.416615 -0.762311 0.337815 0.482273 -0.211228 0.571357 -0.403381 -0.257682 0.627937 0.693766 0.417922 -0.628032 0.623338 0.659494 0.864771 0.281849 -0.467031 0.313563 0.793486 -0.859756 -0.745780 0.269102 0.774483 -0.206807 -0.664090 -0.233009 0.225056 0.715844 -0.249876 -0.707811 0.314132 0.279102 0.358629 -0.283714 -0.566544 0.876637 -0.318087 0.156006 -0.901132 -0.008439 -0.206760 0.148393 0.047825 -0.527485 -0.878945 -0.503892 -0.310488 0.957889 0.736894 -0.967244 -0.826594 -0.337983 -0.824526 0.449941 0.307388 0.533277 -0.181877 -0.237207 -0.947813 0.214596 -0.173278 0.298479 0.381672 0.990848 0.156713 0.335011 -0.106258 0.811605 0.643057 0.008494 0.941034 -0.426926 -0.820211 -0.949410 -0.982442 -0.127138 -0.865200 0.603901 0.819064 -0.248774 -0.421473 0.321959 -0.921419 -0.593423 0.400580 -0.709736 0.018371 -0.673586 -0.361817 0.111499 0.971460 -0.295189 0.571362 0.055930 0.760056 -0.186089 0.616980 -0.161037 -0.294974 0.487739 -0.721932 -0.602520 0.640749 -0.817847 0.655620 -0.028601 0.439056 -0.283832 0.150752 0.586239 -0.257323 0.300950 -0.337528 -0.637546 0.428233
-0.688470 0.450769 -0.201989 -0.936967 -0.911712 -0.131006 -0.115534 0.159445 0.928082 0.754202 -0.253677 -0.381860 0.785988 0.726843 -0.481048 -0.862945 0.156685 0.225720 0.427058 -0.084362 0.770853 -0.792387 0.190343 -0.446445 0.077632 0.682914 0.120836 0.850524 0.975161 -0.035012 -0.341700 0.132507 0.098006 -0.795513 0.428941 0.138542 0.471984 -0.303433 0.895890 0.032038 0.871812 0.788417 -0.279968 -0.952806 0.649275 -0.431289 -0.632913 -0.700224 0.711832 -0.199112 0.866204 0.884265 -0.235615 0.394907 0.050156 -0.950548 -0.990980 -0.792555 -0.104155 0.869009 -0.107178 0.150677 -0.853301 0.850936 0.912411 -0.829824 -0.159714 -0.018384 -0.974919 0.161160 -0.935837 -0.582041 -0.501091 -0.150102 -0.306662 -0.612823 -0.016824 0.609857 0.472243 0.897235 0.772704 0.003676 -0.689432 -0.257888 0.298749 -0.472564 -0.143301 -0.473597 -0.225294 0.707088 -0.625814 0.214544 0.643541 0.874867 -0.826359 -0.640816 0.318457 -0.030299 0.043245 -0.483224 -0.208625 0.874663 -0.049133 -0.521953 -0.178805 0.158854 0.132818 0.867182 -0.211314 -0.119845 -0.493410 -0.754037 1.007944 -0.121396 -0.601084 0.036885 0.448027 0.874900 -0.886294 0.767168 -0.877494 0.696130 -0.150879 0.142940 0.330093 -0.502360 0.856115 0.034028
0.639868 -0.758981 0.953012 -0.958358 0.146559 0.385905 -0.161547 0.468096 0.593839 -0.786969 0.682380 0.713604 0.980336 -0.020144 -0.726017 0.745880 0.393747 0.281402 -0.493898 -0.858437 0.286788 -0.418738 0.804307 -0.274256 0.118981 -0.758954 -0.337917 0.220093 0.384715 -0.635761 0.283022 0.640417 0.907385 -0.850533 0.129430 0.171042 0.490592 -0.168739 -0.311065 -0.620058 -0.343133 -0.901663 -0.583644 0.900355 -0.616691 -0.917547 -0.700186 0.579715 -0.986198 -0.135642 0.105873 -0.534264 -0.925159 -0.511543 0.818483 0.080733 0.471301 0.002778 0.420932 0.226341 0.047342 -0.807633 -0.705654 0.102075 0.479783 0.423866 -0.952276 -0.310925 -0.789614 -0.488231 0.748104 -0.115206 -0.526948 0.171213 -0.031065 0.160064 0.703075 -0.630248 0.670182 -0.054861 -0.804107 -0.108319 -0.004832 -0.345792 0.326480 -0.192670 -0.440391 -0.360116 0.128951 0.271894 0.562345 -0.194952 0.504599 -0.812003 0.952246 0.908499 0.714551 -0.107306 0.232335 0.852289 -0.548058 -0.094497 -0.241464 0.294353 0.137942 -0.844669 0.336900 -0.416443 -0.174105 -0.488096 -0.894037 -0.169434 0.931415 0.519046 0.373496 -0.008859 0.677921 -0.370005 -0.605802 0.439575 -0.043913 -0.356528 -0.318604 0.213295 -0.733258 -0.238957 0.818839 -0.082215
0.641821 -0.244512 0.507603 -0.250595 -0.734251 -0.363969 0.446596 0.094331 0.395881 0.808886 -0.084043 0.616814 0.705623 -0.169956 0.350825 0.907387 -0.959601 0.762640 -0.093832 -0.985129 -0.682038 -0.151381 -0.586883 -0.170626 0.491067 -0.101249 0.238861 -0.687868 -0.091090 0.629706 -0.729482 0.004936 0.705245 -0.052385 0.458332 0.520477 -0.399687 -0.986988 0.248652 -0.993564 -0.341315 0.769400 0.532860 -0.682977 -0.639292 -0.949811 -0.893797 -0.930318 0.741610 -0.124575 -0.013187 0.474767 0.328431 0.591265 0.491265 0.672679 -0.181259 -0.853667 -0.755540 -0.639693 -0.098256 0.067715 -0.455990 0.647735 -0.272130 -0.259418 0.238326 0.945078 -0.447296 -0.819848 -0.327374 0.714939 -0.705626 -0.862499 0.621731 0.858716 -0.309483 -0.308603 -0.350409 0.672980 0.413253 -0.390947 -0.405093 -0.005112 -0.481195 -0.655060 -0.787912 -0.360244 0.563451 -0.405456 -0.516861 -0.366292 -0.673184 -0.700114 -0.179038 0.140644 0.935649 -0.515212 0.473534 -0.011174 -0.552283 -0.811724 0.482123 0.337727 -0.315503 -0.192894 0.398111 -0.682298 -0.777492 0.741388 0.990510 -0.356460 -0.138515 -0.765409 0.545041 -0.051602 0.978184 -0.440058 -0.808055 -0.311419 -0.211270 -0.636230 -0.202383 0.004312 0.348558 -0.727026 0.209626 -0.049318
0.360396 0.571891 0.883124 0.399141 0.206199 -0.795904 -0.116658 0.687734 0.293855 0.721669 -0.231082 -0.139790 -0.339630 -0.637476 0.334560 0.054897 0.781997 -0.971617 0.109953 -0.329321 0.290756 0.382339 -0.298001 -0.867712 -0.774172 -0.630118 0.479505 -0.572209 -0.023061 -0.116087 0.569834 -0.956734 0.912833 -0.012470 0.070281 -0.404914 -0.333634 -0.732649 -0.296605 0.635257 0.232589 -0.105821 -0.806556 0.964790 -0.232383 0.424628 -0.272905 -0.244856 -0.560530 0.412573 -0.031133 0.440103 0.287951 0.443930 -0.075364 -0.565382 -0.714111 -0.713295 0.937388 0.120851 0.528994 -0.223430 0.438721 -0.452276 -0.747916 -0.622648 -0.164492 0.328116 -0.641700 0.883515 0.228679 0.696021 -0.640172 -0.334507 -0.396963 -0.151406 -0.225090 0.898739 0.670695 -0.612313 -0.141934 -0.140822 -0.238653 0.384778 -0.305607 -0.759826 -0.468200 0.958859 0.061829 -0.906794 0.061756 0.171137 -0.721970 0.636318 -0.401804 -0.225341 -0.913806 0.142343 0.258543 0.374179 0.953586 -0.038408 -0.889767 0.811995 -0.993805 -0.151915 0.346303 -0.736157 -0.339429 -0.358977 -0.171025 0.596989 0.557192 0.251900 -0.232348 -0.931788 -0.229134 -0.875026 0.082545 -0.083502 -0.868700 -0.057391 -0.824104 0.926431 0.962094 0.226562 0.982008 0.990787
0.462450 0.240256 -0.201026 0.995852 -0.452933 -0.763982 0.807106 -0.035150 0.392076 -0.809057 0.551937 -0.753268 0.256279 0.578454 -0.022668 0.015048 -0.676449 -0.040195 0.619494 -0.987560 0.939360 -0.849061 -0.032509 0.698809 -0.375449 -0.257455 0.490753 -0.854422 -0.595117 -0.987273 0.063966 0.049997 -0.495731 -0.866216 -0.217200 0.289067 0.907555 0.520667 -0.505020 0.512537 0.893640 -0.511460 0.433886 -0.072392 -0.331075 -0.279329 0.449322 0.933785 -0.733397 -0.974720 0.892879 -0.822573 -0.392761 -0.257273 0.640216 -0.681136 0.812614 -0.409931 0.747264 -0.961608 -0.491878 -0.102815 0.743577 -0.263657 -0.665967 -0.776943 -0.426957 -0.519139 -0.088783 -0.335200 0.095636 -0.864999 -0.049494 -0.450716 -0.010224 -0.422797 0.820634 0.683888 0.685782 0.154770 0.880176 -0.014814 0.949000 -0.882038 0.927276 0.623046 -0.040687 0.032075 0.877696 0.038785 -0.342489 -0.145653 -0.517867 0.971385 0.344181 0.366365 0.691845 -0.439122 -0.519239 -0.712474 0.042061 0.385988 0.979288 0.431692 0.490636 -0.405113 0.147514 -0.119781 0.785210 0.705515 -0.693667 0.206050 -0.038729 -0.475767 0.608219 -0.884931 -0.227924 -0.972409 -0.030969 -0.822464 -0.306362 -0.150546 -0.299164 -0.364765 0.518042 0.916932 -0.452492 0.920819
-0.313869 -0.620761 0.380634 0.498289 0.678403 0.015194 -0.513591 -0.077158 0.235158 -0.335592 -0.828577 -0.918817 -0.650950 -0.883022 0.649933 -0.976898 0.278383 -0.908056 0.764781 0.233913 0.860951 -0.235265 -0.810255 0.484769 0.509320 -0.940934 -0.555339 -0.925680 -0.607207 -0.634978 -0.785234 -0.405782 0.310245 -0.473652 0.481269 -0.631426 -0.029315 -0.125138 0.855873 -0.086523 -0.416743 -0.778848 0.362117 -0.207272 0.802379 -0.134614 -0.118074 0.458813 0.533558 -0.187911 0.972362 -0.030496 0.686437 0.832169 -0.262148 0.750205 0.878111 0.376714 0.944965 0.609427 0.204472 -0.820164 0.605565 0.095059 0.690001 0.238198 -0.082833 -0.146940 0.657554 -0.050404 0.086194 0.355713 0.555645 -0.285781 0.895788 0.713829 -0.995065 -0.433295 -0.072013 -0.919955 -0.158143 0.197041 -0.257871 0.545348 -0.734538 0.808368 0.435516 0.226660 -0.443360 0.445667 0.279877 -0.829792 -0.007632 -0.267985 -0.565491 -0.752976 -0.034622 0.717693 -0.307562 0.078661 0.691643 0.533201 -0.427512 -0.134416 0.810181 0.903122 0.617063 0.433688 -0.506450 0.607244 -0.107089 0.227833 -0.573662 -0.167805 -0.302852 -0.649891 -0.264861 0.829757 -0.340212 0.433107 0.500220 -0.481583 -0.081809 -0.070263 -0.299283 0.533383 0.921780 0.815832
-0.984622 -0.418077 -0.712453 0.268740 0.858891 0.651150 -0.619128 0.924115 -0.174840 -0.191215 0.308565 0.723841 -0.400861 0.347414 -0.384289 -0.612413 0.726270 0.365903 -0.132051 0.609935 -0.291806 -0.079841 0.359838 0.166499 -0.713117 -0.227734 -0.382401 0.746962 -0.055246 0.789985 0.545000 -0.793325 0.468978 0.526598 0.619023 -0.563585 0.911130 -0.428793 -0.630616 -0.961592 0.872277 0.239943 -0.681344 -0.648992 -0.495420 0.761072 0.335075 -0.605297 -0.716680 -0.906980 0.472998 -0.129532 0.022218 0.555782 -0.877900 0.412313 -0.870939 -0.716719 -0.848038 -0.201213 0.031667 0.198565 0.117169 -0.186470 -0.522288 -0.930750 -0.855335 -0.623088 0.116139 0.799138 0.897820 -0.849248 -0.721384 0.149417 -0.171111 0.409802 -0.086513 -0.241480 -0.141652 0.425493 0.045646 0.797304 0.460236 0.004891 0.877957 -0.285237 0.696641 0.321731 0.743250 0.575999 0.980332 0.958433 0.421989 0.627990 0.588266 -0.877754 -0.028387 0.318103 0.086689 -0.269608 0.862765 -0.900473 0.219376 -0.535383 0.234180 0.409152 -0.957740 -0.050091 0.761109 -0.447017 -0.270925 -0.481098 0.983137 -0.263750 -0.704625 -0.414994 0.179166 0.581503 -0.199303 -0.970008 -0.791188 -0.898364 0.046248 0.266734 -0.853488 -0.182998 0.533647 -0.316443
-0.769278 0.401994 0.878167 0.164389 0.343118 -0.541625 0.770895 0.163877 -0.731929 0.479554 -0.876215 0.753884 -0.085103 0.279606 -0.753414 -0.635913 -0.752649 0.179701 0.611602 -0.465675 -0.916843 -0.702509 -0.959088 0.965246 -0.784689 -0.857236 -0.841183 -0.385930 0.025492 -0.177203 -0.798129 -0.569966 0.296325 -0.723476 0.512067 0.990998 0.890572 0.177332 0.185020 0.811017 0.608053 0.898148 0.515714 -0.113264 -0.921230 0.534542 0.768248 -0.680208 -0.671404 -0.179481 -0.963509 0.173196 0.560237 -0.230728 0.634441 -0.684872 0.721292 0.804750 0.802037 0.936129 0.881740 -0.026584 -0.085469 0.332854 0.458257 0.793260 0.792024 -0.437631 -0.885710 0.823226 0.807436 -0.050601 -0.397920 -0.547042 0.444863 -0.037834 -0.731201 -0.573750 -0.594054 0.162511 0.993878 0.530367 0.907879 0.623300 0.086646 0.304312 -0.136292 -0.051087 0.825801 -0.559279 0.247886 -0.191693 -0.327725 0.946731 0.866248 -0.504122 0.264955 -0.090825 0.706504 0.126611 -0.662268 0.797504 0.064246 -0.301862 -0.882030 -0.555348 0.756881 -0.407757 0.012224 0.137394 -0.541931 0.244595 -0.019103 0.887798 -0.566359 -0.421482 -0.135054 -0.866018 0.966575 -0.892830 -0.263138 0.154683 0.063471 0.006837 0.506736 0.802923 -0.225586 -0.652472
-0.529379 0.601603 0.236309 -0.197107 0.460203 0.932150 -0.139625 0.949263 -0.298803 -0.704769 0.444667 -0.761348 -0.588906 0.111909 -0.423792 0.173141 0.284199 0.591631 0.968959 0.103179 -0.167742 0.165616 -0.831488 0.747741 -0.593242 0.888653 0.048350 0.119711 -0.811943 0.969195 -0.728474 0.267479 -0.234162 0.926978 0.540253 0.746979 -0.402790 -0.040600 0.016536 0.213849 -0.067435 0.648615 -0.024423 -0.461159 0.321064 -0.058883 0.284459 0.186160 -0.417226 0.496643 0.680878 -0.674693 -0.429055 -0.598451 0.949296 0.508419 -0.111067 -0.289261 0.604736 -0.419509 -0.118810 -0.970338 -0.338375 -0.743091 -0.744499 -0.657657 -0.436898 -0.507390 0.509338 0.960497 -0.598548 0.537295 0.012096 -0.763652 -0.401151 0.689545 0.005499 0.496098 0.079345 0.763444 -0.908652 -0.895873 -0.427609 0.633043 0.843279 0.896916 0.937427 -0.250849 -0.920722 -0.054744 0.597465 -0.958426 0.801372 0.398867 -0.745617 -0.294587 -0.071129 -0.206279 -0.987496 0.331354 0.493699 0.843151 -0.144997 -0.904792 0.649393 -0.732645 0.519274 -0.964366 -0.033405 0.077010 0.263240 -0.352135 0.686369 -0.184229 -0.109363 0.376693 0.210693 0.301391 0.552004 -0.302863 0.443782 0.362339 -0.598032 -0.462505 -0.330041 0.430580 0.265976 -0.865712
-0.648299 -0.105251 -0.478550 0.382903 -0.440584 -0.982153 0.236864 -0.290657 -0.363237 0.124540 -0.842245 0.797093 -0.044774 0.074458 0.426399 0.627690 -0.259072 -0.518974 0.325428 -0.771548 0.497158 0.124233 0.566946 0.411692 -0.283228 0.819768 0.046769 0.169944 0.845936 -0.256054 -0.837364 0.502095 -0.531631 0.746119 0.032790 0.510502 -0.234719 -0.141247 0.116945 0.917784 -0.784239 0.535555 -0.263931 0.452132 -0.764993 -0.933054 0.959959 0.199519 0.074196 -0.897992 0.102112 0.027469 -0.419562 -0.280545 0.158022 -0.370553 -0.296757 0.373497 0.795730 -0.793950 -0.511814 -0.715808 0.338031 0.854979 -0.100691 -0.299205 -0.270628 0.370380 0.359195 -0.204389 0.356326 0.390376 0.110859 -0.675170 0.560379 0.113163 0.879744 -0.930821 0.682775 0.064137 0.469604 0.959148 0.019931 -0.397963 0.812441 -0.653451 -0.157930 0.892724 -0.367720 0.045459 0.946913 -0.978176 -0.542568 -0.946787 0.973275 -0.138776 -0.965128 0.471308 -0.161964 0.155717 -0.136188 0.766911 -0.928357 -0.185892 -0.765570 -0.922302 -0.920622 0.797197 -0.992275 0.857903 0.818316 -0.835559 -0.657550 0.084249 -0.743213 0.406640 0.079667 0.460220 0.347473 0.879831 -0.758092 0.441534 -0.232102 0.499522 -0.842547 0.454565 -0.370035 0.610130
0.391793 -0.310523 -0.711507 0.212679 0.417745 -0.505437 -0.737803 0.068512 0.092793 -0.064915 0.354854 -0.024593 0.318541 -0.706455 -0.070517 -0.554540 -0.820745 -0.239958 0.946253 0.385813 0.644703 -0.486019 0.132303 0.720988 -0.075535 -0.635703 0.067997 -0.723664 0.517004 -0.340839 -0.385339 0.143166 0.516658 -0.155612 -0.456087 -0.115095 -0.835049 0.231767 -0.403245 0.582191 -0.175239 0.890098 -0.781928 -0.912197 -0.179087 0.011173 0.247530 0.121833 0.900503 -0.403478 -0.903738 -0.829677 0.020597 0.351041 -0.228642 0.916185 -0.903423 -0.070081 -0.886617 -0.849974 -0.329690 0.873685 -0.723882 -0.446761 -0.747956 -0.000578 0.299606 -0.178497 -0.351772 0.873279 0.750062 0.103915 -0.554262 0.195021 0.528439 0.301400 0.188105 0.818122 -0.897865 0.093026 0.428357 0.570628 -0.372586 0.160796 0.304885 -0.837679 0.160588 0.988316 -0.051230 0.531218 -0.940913 -0.656575 -0.478141 -0.021922 0.456017 -0.998624 0.189963 -0.866883 0.544202 0.237269 0.064906 0.883410 -0.866584 0.865093 -0.808261 0.443156 -0.949610 -0.336598 -0.129062 0.504994 0.601944 -0.896758 0.276449 -0.071625 0.803748 0.886753 0.660272 -0.311472 0.433780 -0.366611 0.806570 0.674681 0.638118 -0.967307 0.894106 -0.662083 0.458468 0.129727
0.708784 -0.522184 0.395952 -0.755421 0.921368 -0.216345 0.805312 0.817443 0.010442 0.565015 -0.431540 0.650959 0.979364 0.989033 0.883471 -0.467012 0.793777 -0.157430 -0.296411 -0.495645 0.790827 0.587158 -0.555134 -0.063080 -0.757538 -0.481929 0.137107 -0.254240 -0.370521 -0.625114 -0.491244 -0.955087 -0.540090 0.287329 -0.065359 0.598257 0.605363 -0.072592 0.523686 -0.871467 0.116572 -0.799840 0.850372 0.263295 -0.654244 -0.577022 -0.892560 0.778692 -0.080895 0.773358 0.739741 0.297111 0.017536 -0.927931 0.640998 -0.338240 0.632097 -0.275445 -0.360303 -0.815332 -0.013138 -0.395593 0.814704 -0.800007 0.723860 -0.714779 0.343636 -0.908475 0.779489 -0.846253 -0.835088 0.348267 0.846605 -0.470917 -0.822961 -0.992945 0.714068 0.127949 -0.152765 0.554732 -0.249716 -0.301138 0.322314 -0.794096 -0.809636 -0.327593 -0.641189 0.109829 -0.688121 -0.105562 -0.284167 -0.450166 0.460868 0.454651 -0.716721 0.801307 -0.753326 -0.888202 -0.804739 0.665619 0.795687 -0.274519 0.756670 -0.732416 0.365981 0.889032 -0.651291 -0.004748 -0.149590 -0.288830 -0.209247 0.988921 -0.350284 -0.775265 -0.227598 -0.423896 -0.269184 0.941811 -0.723625 0.383290 0.006556 -0.354284 -0.343758 0.826178 -0.765893 -0.803954 0.901445 -0.587769
-0.463041 -0.583962 0.751613 0.265879 -0.955892 -0.926287 -0.586837 -0.511753 -0.258755 0.914081 -0.527942 -0.855847 0.060557 -0.919613 -0.197188 -0.494682 -0.288232 0.139808 0.493149 0.396339 0.585507 -0.297180 0.997886 0.986886 -0.622773 0.616600 -0.170339 0.483475 0.903356 0.834895 -0.253474 0.982383 0.303603 -0.169276 0.975089 0.232566 -0.127955 0.812465 -0.212047 -0.656995 0.516806 -0.934580 -0.276565 -0.273542 -0.932161 0.374949 -0.134563 -0.436839 0.516471 -0.719606 -0.981891 0.068207 0.122702 0.935992 0.614816 0.313012 -0.665990 0.151495 0.214392 -0.765518 -0.143878 0.416239 0.944410 -0.292657 0.370409 -0.644963 -0.934996 -0.139920 -0.566794 0.752278 -0.259607 -0.770904 -0.914107 0.558710 0.813683 0.692695 0.302529 0.893195 -0.876303 -0.928824 0.419796 0.801430 -0.104179 -0.040229 0.089280 0.381763 0.968153 -0.708135 0.418236 0.343116 0.649408 -0.345649 -0.958452 -0.279760 0.509890 0.331685 -0.073562 -0.389326 -0.641607 -0.134206 0.400554 -0.443606 -0.908304 0.468723 0.240123 -0.434360 -0.817692 0.022295 -0.730911 0.836780 -0.572931 -0.682123 -0.277261 -0.132360 0.839529 0.633772 -0.885664 0.342665 -0.297269 0.588313 -0.739238 0.364245 -0.718007 0.949161 0.167085 -0.935383 -0.905714 0.277250
0.702352 -0.425753 0.594226 0.980861 -0.820884 0.224407 0.986029 -0.782198 -0.063226 -0.333007 -0.766354 -0.429687 0.433266 -0.980283 0.857645 -0.718377 0.134073 0.104988 -0.234025 0.976421 0.869481 0.807090 -0.250712 0.906595 0.789157 0.239494 -0.831520 -0.146883 0.997577 0.050134 0.525395 0.920034 -0.829987 -0.152656 -0.748368 -0.966356 0.023713 -0.290085 0.453700 0.361467 -0.156654 -0.598278 0.659299 -0.102786 0.637973 0.762854 0.640051 0.663227 0.086260 0.495765 0.218258 0.221021 -0.053790 -0.154460 -0.397429 0.410768 0.668347 0.815775 0.228811 0.144408 -0.341131 0.844632 0.803062 0.461515 0.587167 0.690657 -0.796952 0.264857 -0.206603 -0.682480 -0.601262 0.171676 -0.239927 0.882480 0.793660 0.258340 -0.893680 -0.290150 0.504019 0.806408 0.987364 0.065319 0.148749 -0.898373 0.985787 -0.419016 0.460669 -0.177686 0.933155 0.023170 0.652015 -0.498411 -0.026700 -0.665883 -0.327270 -0.138487 -0.612682 -0.845171 -0.632229 -0.457528 -0.369851 -0.348812 0.552584 -0.463106 0.259873 0.690514 -0.941051 0.838396 0.128631 -0.768426 -0.363521 0.159270 0.424495 0.855047 -0.309054 -0.753641 -0.979376 -0.716043 -0.077720 -0.995433 -0.751199 0.849427 -0.528268 -0.530122 0.497126 0.336050 -0.357168 0.801280
-0.696642 0.948426 -0.867827 -0.543780 -0.226514 -0.686801 -0.427820 -0.850632 -0.786163 0.072717 0.259504 -0.288191 -0.325402 0.898306 0.830368 -0.672144 0.771208 -0.149179 -0.529819 0.710238 -0.450773 0.540403 0.070057 -0.182992 -0.313515 0.986140 0.003743 0.914328 -0.200310 -0.299702 -0.839198 0.688467 -0.414415 -0.155098 0.562685 -0.895605 0.453065 -0.313182 0.454090 0.092466 0.351938 -0.822727 0.324311 0.199658 -0.709195 0.413023 -0.636449 -0.474538 -0.956391 0.982305 0.042135 -0.489155 0.732244 0.295657 0.165887 -0.264754 -0.603488 0.470675 0.229500 -0.002433 0.023263 0.234776 0.857539 0.856773 -0.960439 0.266154 0.722477 -0.302820 -0.366220 -0.164357 0.446151 0.025774 0.558598 -0.251404 0.608720 0.261782 -0.659583 -0.837220 0.900760 0.229555 0.285439 -0.369168 0.299785 0.238199 0.077788 -0.409762 -0.252468 -0.999933 0.407274 -0.145846 0.526571 -0.831637 0.645613 0.269263 -0.892666 0.619191 0.783224 -0.062596 -0.449316 0.578061 0.244524 -0.061128 0.168140 -0.290002 0.702589 -0.603976 -0.340198 -0.269305 0.524553 0.102714 0.369287 0.132522 0.652121 -0.026601 -0.794599 0.610953 -0.545289 -0.752243 0.734028 -0.785900 -0.641113 -0.843119 0.072559 -0.941001 -0.385356 0.229160 -0.423952 0.799911
-0.430053 -0.729020 -0.044227 0.756880 0.337703 -0.657238 0.875943 0.152233 -0.395790 0.819791 0.727275 -0.500656 0.857051 0.030662 -0.922516 -0.596308 -0.122331 -0.680778 0.536988 0.253321 -0.821412 -0.347409 0.189235 -0.004687 0.759983 0.463629 -0.554079 -0.303569 0.379517 -0.918286 -0.692756 -0.290673 0.935427 -0.754740 -0.007748 0.524856 -0.460006 -0.904332 -0.558728 -0.034163 -0.514210 -0.492539 0.309948 -0.915225 -0.559009 0.582431 -0.463626 -0.150668 -0.694835 0.959809 0.564438 0.248935 0.574329 0.457942 -0.883625 -0.312796 0.560607 0.565504 0.223090 0.035737 -0.832022 -0.551893 -0.706753 0.251980 0.366398 -0.372288 0.016593 -0.866778 0.619949 -0.178263 -0.832351 -0.858299 0.258635 -0.847126 -0.831811 -0.688986 -0.397000 0.093969 0.023859 0.460128 -0.095287 0.295013 0.370668 0.477196 -0.734852 -0.757492 0.922944 -0.737428 -0.861815 0.454911 0.892816 0.670901 -0.476814 0.429199 0.459948 -0.951010 0.753016 0.474848 0.396704 0.069356 -0.618287 -0.557402 0.261855 -0.046403 -0.808656 -0.783879 0.000390 0.275158 0.948490 -0.866228 -0.364738 0.796142 -0.180287 -0.793222 0.244307 0.252184 -0.008959 -0.630374 -0.935067 -0.293869 -0.116779 -0.613927 -0.736690 0.986058 0.002141 0.171183 -0.374367 -0.524744
-0.956771 0.979286 0.631150 0.323460 0.056945 -0.414862 0.244507 0.992507 -0.487196 -0.413082 0.636798 0.463841 -0.144848 -0.776401 -0.683359 -0.553367 0.682088 0.742937 0.614139 0.896689 0.975246 0.127781 -0.808667 -0.985110 0.544970 0.356668 -0.658872 0.886393 -0.076218 0.092616 -0.573501 0.653122 -0.221515 0.089881 -0.736373 0.970672 -0.723147 -0.531319 -0.574148 0.498263 -0.990143 0.184721 0.827870 0.336664 -0.010454 0.540411 0.580654 0.057153 -0.989044 0.393272 -0.057175 0.968212 0.778525 0.374184 -0.904160 0.116485 0.151067 0.576468 -0.865977 -0.209662 -0.479708 -0.839112 -0.259566 -0.002999 -0.943221 -0.815424 0.724374 0.692289 -0.743297 -0.363164 0.565472 -0.435483 0.397926 0.384239 -0.743492 0.396583 0.051637 0.723432 0.949773 -0.485019 0.697228 -0.383506 -0.963333 -0.893392 -0.269188 -0.123709 -0.390525 0.811184 -0.611885 0.956767 -0.149377 -0.043496 -0.054706 -0.380294 -0.955031 -0.172599 -0.577168 0.781999 -0.841947 0.051501 -0.338805 -0.639717 -0.708741 -0.496809 0.228349 0.354795 -0.795620 -0.957945 -0.232418 -0.236990 -0.910605 0.278393 0.705302 0.344525 -0.985093 0.640834 -0.049318 0.458435 0.724343 -0.678239 -0.180241 0.529062 -0.488063 0.278337 -0.630116 0.195204 -0.557036 0.548513
0.696436 0.053108 -0.582771 -0.463202 0.497864 0.959453 0.258903 0.211419 -0.169594 0.901313 -0.894752 0.016940 0.409075 0.620201 -0.069198 -0.776249 -0.341901 0.309691 0.373274 0.717920 0.827018 -0.891512 0.008222 0.485766 -0.328859 -0.182296 -0.556809 0.592302 -0.115788 -0.048074 0.276926 0.513075 -0.808196 -0.629789 -0.228175 0.951341 -0.996794 0.860674 -0.989028 0.487039 -0.804095 -0.326114 0.766486 0.890159 0.358817 0.461495 -0.966299 0.866623 -0.728233 -0.844675 0.235992 0.806468 -0.669350 0.710396 0.776940 -0.713953 0.757187 0.315198 -0.479191 0.061004 -0.411597 0.552907 0.647483 -0.098470 -0.255511 -0.766534 0.937532 -0.192233 0.593622 0.855892 -0.512351 -0.452779 -0.420164 -0.614510 -0.231358 0.503550 -0.934300 0.164722 0.027811 0.828993 -0.550582 -0.351430 -0.036099 0.296555 0.328952 0.323540 0.463798 -0.325973 -0.293564 0.336758 -0.856663 -0.830270 -0.956879 -0.709757 -0.924803 -0.738592 0.267055 0.611773 0.282706 -0.584073 0.969627 -0.573501 -0.870232 0.223661 -0.375733 0.558154 -0.061337 -0.814234 -0.621903 -0.433786 -0.242019 -0.222181 0.403449 -0.092816 -0.145527 -0.916005 0.658862 -0.373672 -0.602517 0.826078 -0.944675 0.258914 -0.149157 0.317777 -0.763066 -0.771115 0.108482 -0.734878
0.436906 -0.058557 0.859548 -0.314118 -0.735234 0.036085 -0.156605 0.187487 -0.493104 0.770944 0.050437 -0.179155 0.519948 0.280440 0.878787 0.249452 0.867315 -0.150312 -0.408007 0.500253 0.820583 -0.743928 -0.519831 -0.506584 0.235269 -0.570455 0.115399 -0.552886 0.247621 -0.279922 -0.179274 -0.633996 0.306698 0.591910 0.148958 0.144732 0.479752 0.221908 0.134846 -0.188588 -0.035022 -0.020634 -0.417137 -0.909421 0.392069 -0.766827 -0.485777 0.039271 -0.982898 -0.045880 -0.036177 0.972161 0.070569 0.148890 0.622476 0.730995 -0.882420 -0.492837 0.619071 0.468994 -0.673260 -0.277141 0.309749 -0.424083 -0.822784 0.370703 -0.743445 0.890567 0.273720 0.188152 -0.109354 -0.113016 0.053113 0.152532 0.381403 0.636837 0.648168 -0.862699 -0.669488 0.095696 0.959899 -0.469274 0.843248 -0.117345 0.150909 0.861309 0.694053 -0.647503 -0.526463 0.733296 -0.044162 -0.550724 -0.735083 0.013863 0.609465 0.104578 0.485744 0.578496 -0.412539 -0.792522 0.456983 0.275779 -0.334944 -0.637299 -0.613657 -0.160921 0.010459 0.827365 0.746453 -0.564392 -0.286911 0.591706 -0.280937 0.322378 0.117344 0.349684 0.971922 0.667179 -0.167090 0.278072 -0.126682 0.920359 0.211311 0.443287 0.886884 0.561956 -0.315300 -0.036276
-0.975648 0.419683 -0.222631 0.781642 0.909292 0.476271 0.820305 -0.689643 0.446195 -0.619845 0.644883 0.676338 -0.901270 -0.060796 -0.234603 0.137701 0.002325 0.613111 0.095854 -0.018646 -0.157085 -0.626354 0.147482 -0.550017 -0.276332 0.776035 0.355519 0.503950 0.335232 -0.326102 0.275128 0.085380 0.024627 -0.246249 0.262094 0.544542 -0.610741 -0.583808 -0.892158 0.187916 -0.818870 -0.918025 -0.545178 0.094803 0.831951 -0.151151 -0.152295 0.895655 0.960042 0.692624 0.687414 -0.177256 0.856901 0.383535 -0.087183 -0.648135 0.385972 -0.185185 0.827989 -0.815550 0.364757 -0.166846 0.702254 -0.898279 -0.657774 0.720252 -0.972432 0.659362 -0.780129 -0.839378 0.697281 0.055846 -0.719876 -0.996551 -0.872506 0.057222 -0.456616 -0.417639 -0.681885 -0.316337 -0.422558 -0.772177 0.617566 -0.824149 0.406545 0.106956 -0.012717 -0.414300 -0.172550 -0.095881 0.338153 0.460381 -0.492990 -0.791457 -0.767945 -0.184057 -0.757526 -0.308386 0.213083 0.327346 0.472666 0.405775 0.735055 -0.813377 -0.978615 0.679530 0.372627 0.699626 -0.005637 -0.008961 -0.708122 -0.750209 0.197200 0.856512 0.805573 0.367822 -0.443439 -0.064755 -0.589856 0.003114 0.622207 -0.623476 0.545861 0.734566 0.745995 -0.807926 0.049562 0.168518
0.005425 -0.794763 0.492570 -0.432512 0.079649 -0.565358 -0.565012 -0.236537 -0.306193 -0.722274 0.801622 0.942751 0.143895 0.258727 -0.685823 0.309244 -0.697611 0.174028 -0.965762 -0.840580 -0.040882 0.768237 -0.085391 -0.428919 -0.755037 0.455397 0.958337 0.929258 -0.301126 -0.395200 -0.561410 0.806750 0.528111 0.327545 -0.085581 0.058763 -0.521807 -0.573292 -0.456503 0.925640 -0.174645 -0.027072 -0.713413 -0.908024 -0.606627 0.216135 -0.426630 0.164033 -0.596845 0.369158 -0.764753 -0.485162 -0.325285 -0.757452 0.410774 -0.777863 0.753321 0.903808 0.464006 0.389658 -0.295768 -0.497281 -0.606410 -0.849564 0.880308 -0.663978 0.829573 -0.447945 -0.733864 -0.339750 -0.724187 0.520177 0.205247 -0.387010 0.029580 0.511921 -0.952511 0.562921 0.562587 -0.310791 -0.390733 -0.550112 0.925506 0.389587 -0.191420 0.180500 -0.380999 0.200938 -0.922407 0.980176 0.390011 -0.392253 0.684615 -0.392618 0.960238 0.793623 0.608463 0.179949 0.717443 -0.106928 -0.046231 -0.516996 0.944771 0.543833 -0.135459 0.509365 -0.698331 0.766223 0.089036 -0.739732 -0.386481 0.499764 -0.227947 0.065013 -0.770102 -0.809730 -0.075542 0.622823 -0.401722 -0.976929 -0.882157 -0.174981 -0.677582 0.761638 -0.456034 0.663259 0.792056 -0.875016
0.957496 0.508260 0.583450 -0.852503 0.510766 0.865689 0.877950 -0.679369 0.841194 0.280905 -0.119836 -0.143756 -0.280951 0.896894 -0.277918 -0.960334 -0.717247 0.922481 -0.796213 -0.418524 -0.518330 -0.304510 0.190334 -0.667582 0.898666 -0.200320 -0.322918 0.316678 -0.622304 0.290967 0.302267 0.988846 0.616355 -0.954980 0.274995 -0.315937 -0.611407 0.533198 0.961850 -0.667053 0.969201 -0.615151 -0.951590 -0.305766 0.514128 -0.664162 0.072566 -0.452229 -0.492881 -0.298136 -0.041297 0.362907 -0.052079 0.909940 -0.105554 -0.477618 0.888810 -0.398090 0.382572 0.505867 -0.502927 0.595991 0.162209 -0.361489 0.092409 0.359355 0.857039 0.591363 0.504150 -0.737096 -0.173991 0.501960 0.743581 0.019787 -0.196122 -0.599091 -0.862473 0.465372 0.078127 -0.289534 0.444923 -0.090099 -0.322319 0.319061 -0.323954 -0.738742 -0.232421 0.955249 -0.573113 0.717769 -0.996013 0.461053 0.999616 -0.599035 0.430125 -0.780046 -0.573730 -0.665067 -0.003797 0.284447 -0.386695 -0.061158 0.626401 0.861642 -0.292305 0.665814 -0.437671 0.952477 0.407364 0.454828 0.319421 -0.889598 0.752581 0.411871 -0.698229 0.485311 -0.415141 0.646106 -0.921482 -0.688869 -0.595663 -0.403119 -0.043049 -0.822353 -0.089248 -0.997760 0.134225 -0.249713
-0.008116 0.966134 0.586756 0.106846 0.289939 0.408716 0.768476 -0.433086 -0.403893 0.111602 -0.733210 0.992703 0.396795 -0.574744 0.815579 -0.930702 -0.185208 -0.939173 0.403165 0.809742 -0.675775 0.984070 -0.077079 -0.733174 -0.769054 -0.280157 -0.808385 0.581990 -0.985695 0.865270 -0.452580 -0.051200 -0.958275 -0.475314 0.255865 0.887797 0.105350 -0.254034 -0.072957 -0.331829 -0.956466 0.239047 -0.006816 0.230762 -0.557618 -0.664237 -0.309406 0.912529 0.739326 -0.760805 -0.909044 -0.298145 0.368993 0.959474 -0.327982 -0.115060 -0.639700 -0.624802 0.954825 -0.205337 -0.635093 0.108186 -0.040448 -0.082693 0.832114 -0.975677 -0.762876 0.985077 -0.080267 0.237398 0.611360 0.018586 -0.736840 0.392950 -0.131274 0.034391 0.918812 -0.062385 -0.848655 -0.838283 0.520471 -0.572384 0.320681 -0.575776 -0.017849 -0.945187 0.316277 0.614480 0.585543 -0.606419 0.168693 -0.414701 0.912457 0.440518 0.308262 0.963974 0.143273 -0.203216 -0.658399 0.398788 -0.288631 -0.338590 0.987299 -0.882450 0.339943 -0.162976 -0.953161 0.974770 0.338982 0.221230 0.060665 -0.063792 0.324463 -0.864248 -0.210308 -0.947920 0.667383 -0.408360 -0.423513 -0.884972 -0.069859 0.062621 -0.219942 -0.758695 0.279479 0.534036 0.711561 0.572639
0.082052 -0.081858 0.377107 -0.442996 0.265131 -0.176655 0.393452 -0.638671 0.610960 0.561529 -0.017853 0.771254 0.406904 -0.226366 -0.222814 0.162305 -0.751588 0.156076 -0.955361 0.161466 0.058238 -0.808597 -0.179252 0.566198 0.668480 -0.341048 0.575203 0.334152 -0.518414 0.351914 0.494397 0.003572 0.124135 0.565785 -0.491654 -0.266992 -0.613581 -0.278746 -0.006401 0.023391 0.695687 0.312662 -0.496729 -0.330223 0.459468 0.243188 -0.782944 0.675379 0.085429 0.232970 -0.870054 0.794697 -0.301363 -0.600370 -0.000531 -0.382567 0.360835 -0.485593 0.245985 0.851603 -0.636908 0.048898 -0.271636 -0.153886 0.788344 0.603884 0.613408 -0.974500 0.759097 -0.819205 0.551619 -0.947355 0.769012 0.309331 -0.101192 -0.452385 -0.939799 0.654349 0.714741 0.648166 -0.306293 -0.816837 -0.236928 0.296488 0.767452 -0.676719 -0.133465 -0.695718 0.719148 -0.554215 0.294703 -0.439292 0.522728 0.728001 0.891410 -0.204451 0.842199 -0.772748 -0.377331 0.225699 -0.766146 -0.983394 -0.924926 -0.122442 -0.352561 0.091504 0.950163 0.520227 -0.229986 -0.457473 -0.083538 0.939197 0.849355 0.375495 0.978875 0.729037 0.309533 0.208592 -0.969690 -0.534033 -0.223532 0.640609 0.600918 0.730252 -0.592304 -0.357782 -0.259769 0.751508
0.696655 0.361917 -0.597768 0.121330 -0.834301 -0.227639 -0.871847 -0.185663 0.943258 -0.368733 -0.492115 0.519892 -0.326975 -0.754283 -0.854374 0.696431 0.908009 -0.655748 0.534834 -0.362277 0.476031 0.077784 -0.723327 0.119512 -0.309028 0.366378 0.585586 0.492878 -0.660082 0.970941 0.179669 -0.928361 -0.166690 -0.267489 0.513438 -0.839602 -0.072019 0.802689 0.798229 0.953228 0.162213 0.165061 0.327575 -0.813652 -0.147313 -0.734351 0.302652 0.158438 -0.459714 0.825754 -1.000090 0.855083 0.872736 0.935589 -0.589071 -0.491620 0.226484 0.378760 0.625676 0.346707 0.553043 -0.585979 0.177302 0.952405 -0.652913 0.673040 0.360601 0.586771 0.334806 -0.638891 0.428707 -0.122455 -0.162457 -0.821424 -0.998825 -0.560323 0.467586 0.107001 0.258613 0.843448 0.285157 0.944349 0.768839 -0.175020 0.684376 -0.623054 0.531857 0.622407 0.141066 -0.692311 0.430485 -0.975900 0.282804 0.900603 -0.268548 -0.877612 0.016510 -0.248709 -0.094202 0.772524 0.405311 0.633873 -0.774804 -0.172501 0.342418 0.658655 -0.186706 -0.858035 -0.523534 -0.509198 -0.952250 0.335155 -0.070835 -0.762609 -0.894727 -0.966150 0.784040 0.210808 0.227841 -0.184078 -0.070000 -0.988384 0.464863 0.824816 0.238413 -0.519093 -0.295725 0.315181
-0.450412 0.247606 -0.752305 0.727202 -0.509484 -0.669542 -0.161148 0.304873 -0.813821 -0.877173 0.883552 -0.728080 -0.881380 -0.290971 -0.132806 0.604106 -0.170040 0.936648 0.673082 -0.827344 0.258432 0.664382 -0.614587 0.494707 0.322905 -0.155741 0.694730 0.520679 0.862416 0.734462 0.564173 -0.007927 -0.359241 0.401055 0.117494 0.990304 0.755580 0.715075 -0.272991 0.109034 -0.266239 0.906219 0.183535 -0.960599 0.159869 0.906528 -0.533118 -0.314092 0.271654 -0.038508 0.667221 -0.322895 -0.470181 0.235511 -0.759339 0.053509 -0.683678 0.139436 0.446482 -0.820297 -0.796183 -0.968811 0.005425 -0.228782 0.366195 -0.055542 -0.934992 -0.652114 -0.378451 0.450916 0.590372 0.411339 0.992956 -0.535670 -0.313789 -0.151346 -0.185256 -0.502333 -0.769453 0.745955 0.829226 0.359290 -0.511327 -0.034055 -0.362554 0.836263 -0.368990 0.869203 0.206805 0.731361 0.647938 -0.891971 -0.733608 0.666758 0.454201 -0.378815 -0.992314 0.525224 0.304569 -0.910080 -0.420583 -0.762727 -0.249600 -0.839283 0.772260 -0.609856 -0.817389 -0.306135 -0.148477 -0.624339 0.273220 0.678034 0.048692 0.098847 -0.080637 0.268288 -0.815170 -0.331713 -0.361552 -0.916781 -0.375527 0.022157 -0.978117 -0.767946 0.690873 0.732082 -0.367255 -0.917186
-0.902281 -0.927606 -0.545031 -0.865637 -0.657276 -0.127109 0.959927 -0.178124 0.122235 -0.740603 -0.600014 -0.040811 -0.289577 0.045023 -0.127777 -0.979619 0.353334 0.586493 0.257759 -0.068665 -0.990294 -0.578927 0.209829 0.305902 0.378102 -0.359205 -0.155452 0.331804 -0.302931 0.121618 0.504415 -0.836433 0.244972 -0.404195 0.343665 0.459423 -0.585608 -0.626882 -0.763465 0.906935 -0.757524 0.435097 0.649160 0.225655 0.185153 -0.923894 -0.218544 0.832931 -0.573529 0.517089 -0.611807 -0.110349 -0.082270 0.137669 0.874058 0.449206 -0.215244 0.381382 0.700657 -0.619727 -0.280483 -0.414895 0.724626 0.100091 0.693030 -0.412347 -0.555924 -0.869949 -0.569369 0.551328 0.914011 0.966200 -0.759621 -0.761355 -0.966072 -0.797460 -0.504768 0.079456 -0.995030 0.544666 0.170224 0.469729 -0.111916 -0.575642 -0.680516 0.471908 0.982972 0.609177 -0.121708 -0.840449 0.439272 0.777167 -0.404051 -0.236248 0.658751 0.032590 -0.781704 0.357914 0.999489 -0.147137 -0.997204 -0.307555 0.319108 -0.788923 -0.476496 -0.945727 0.037730 0.782538 0.713372 -0.836725 0.307096 -0.963049 -0.177033 0.967667 0.830311 -0.998328 0.647510 -0.919752 -0.593677 0.255563 0.705642 -0.338023 -0.605859 0.087114 0.735478 0.872713 0.534203 -0.164972
-0.257972 0.553502 0.332355 0.816381 -0.435973 -0.086948 0.347700 0.632485 -0.517791 0.352309 0.425473 -0.816618 0.629686 0.528462 -0.624927 -0.823848 -0.917424 0.987066 -0.908246 -0.520108 0.094544 -0.204093 -0.496596 0.451584 -0.109761 -0.187901 -0.915272 -0.486181 -0.716297 0.007370 -0.812367 0.061045 0.211708 -0.896218 0.699465 0.885291 -0.278518 0.921897 -0.818904 0.664590 -0.757170 -0.599034 -0.875936 -0.352787 -0.739666 0.447232 0.930903 -0.660000 -0.340857 0.148008 -0.765766 0.451300 0.555170 0.757100 0.197151 -0.158253 -0.279163 0.966811 -0.560547 -0.441671 -0.657851 0.744314 -0.851490 -0.182576 -0.725701 0.574782 -0.158418 0.528427 0.039881 0.291518 0.011352 -0.036371 0.480775 -0.226226 0.415851 -0.407245 -0.075645 0.053115 0.877038 0.660883 -0.619101 0.248839 0.969502 -0.710787 -0.188710 0.209814 -0.181107 -0.061673 0.195225 0.913710 -0.623874 -0.113325 0.657179 0.884032 -0.544249 0.537081 -0.171700 -0.353562 0.026857 0.440776 -0.849908 -0.194177 -0.546206 0.689125 -0.839046 0.482578 -0.415925 0.288632 0.207552 0.851351 0.686245 0.826518 -0.031309 0.066792 0.167420 0.589566 0.044648 -0.030143 -0.010407 -0.456298 0.642207 0.858059 -0.735589 0.296779 0.582158 0.872266 0.046125 -0.584430
0.233562 0.108603 -0.941933 -0.560115 -0.061024 0.267869 -0.776134 -0.384166 -0.469814 -0.425135 0.623408 -0.038349 0.505834 -0.143115 -0.339511 0.263239 -0.807136 0.021821 0.636466 0.511508 -0.431856 0.191586 -0.556398 0.729629 -0.676045 0.313312 0.578112 0.054566 0.196754 -0.334342 -0.425790 -0.940819 -0.687734 0.598877 0.046992 0.405885 0.769232 -0.052328 -0.700911 0.146154 0.304423 0.933081 -0.113330 -0.471425 0.651535 -0.690713 0.206100 0.516842 -0.610334 0.770424 0.295945 -0.842201 -0.204035 -0.367020 0.557965 0.247444 -0.926403 0.753776 -0.915352 -0.563522 -0.453804 0.468303 0.522254 0.823523 0.173760 -0.273491 -0.510577 0.559801 0.724657 0.716028 -0.308822 0.028957 0.375641 0.733712 -0.847175 0.996147 0.354503 0.082356 -0.696923 -0.782949 -0.551956 0.839909 0.126824 0.953092 -0.673737 -0.594716 0.326317 -0.614588 -0.839731 -0.159401 -0.407172 -0.403128 0.984186 -0.517063 -0.500787 0.663496 0.985270 0.910984 0.058110 -0.790122 0.050091 -0.648074 0.219347 -0.420748 -0.476604 -0.226476 -0.888257 -0.650136 -0.348702 -0.639256 -0.151379 0.354583 0.216400 -0.042291 0.241644 0.435825 0.108698 0.657040 -0.106472 -0.411198 0.348292 -0.479794 0.329921 0.472744 0.830593 0.971337 -0.844692 -0.240064
0.867358 0.437683 0.707175 0.559792 0.049946 0.886050 -0.068455 -0.139537 -0.170205 -0.570982 0.046555 0.532055 -0.539959 0.923233 0.701002 -0.483363 0.753723 -0.246907 0.413102 -0.877981 -0.815333 -0.501676 -0.453809 0.531393 0.590217 -0.147640 -0.508038 -0.595877 0.303957 -0.605741 -0.597264 0.518168 -0.579354 0.357733 0.970054 -0.913760 -0.173812 0.553923 -0.779784 -0.527657 0.036771 0.100012 -0.017275 0.820580 0.254266 0.416282 0.165503 0.990900 0.813563 0.710039 -0.678734 -0.516770 -0.263515 0.144133 0.116484 -0.125153 0.093057 0.416679 0.312230 -0.961764 -0.837071 0.235976 -0.406240 -0.055017 0.581677 0.046441 -0.421201 0.409064 -0.157335 0.640091 -0.241672 0.157877 -0.720958 -0.639626 0.186387 0.828224 0.047245 -0.979440 0.783556 0.296315 0.635131 0.241301 -0.550048 0.873549 -0.177236 -0.871740 0.057859 -0.227776 -0.104675 0.232854 0.792234 -0.574321 -0.763311 -0.094232 0.571342 0.023459 -0.014556 -0.861353 0.761178 0.812795 -0.184020 0.841963 0.710995 0.520931 -0.611427 0.314190 -0.301521 -0.363968 0.514924 -0.251352 -0.319341 -0.432719 0.616761 0.533728 0.239212 -0.536636 0.406658 0.434332 0.805150 -0.635019 -0.729757 0.735100 -0.631749 0.340627 0.922208 0.096279 0.752916 0.298879
0.919559 0.412659 0.344787 -0.254672 -0.295714 0.207769 0.479656 -0.831678 0.459928 -0.473201 0.761164 -0.387066 0.118065 0.703705 -0.912091 0.828079 -0.146531 0.769618 -0.946844 -0.669431 0.018055 -0.708193 0.363735 0.106054 0.889171 0.451847 -0.195006 0.199263 -0.214662 0.157013 0.325173 0.469588 -0.747822 -0.157679 -0.271056 0.919450 -0.280789 -0.461453 0.764236 0.731184 -0.601846 -0.795859 -0.562351 -0.068902 -0.915703 -0.261008 0.803052 -0.467079 -0.804793 -0.740468 0.303336 0.033397 -0.195050 0.403217 0.327307 0.178849 -0.740188 0.371572 -0.503779 -0.242108 0.212087 -0.890051 0.843160 -0.813674 0.495242 -0.224804 -0.686015 -0.072611 0.419832 -0.667176 0.180297 -0.132817 0.171276 0.941308 0.241681 -0.147880 -0.194208 0.333468 -0.010015 0.172388 -0.128007 -0.958804 0.146181 0.411419 0.251604 0.439587 0.439487 0.147325 -0.897708 -0.466289 0.236133 -0.353618 -0.750584 0.225381 0.087326 0.994990 -0.455335 -0.935253 0.354507 0.636064 -0.039755 0.126273 -0.566036 -0.767967 -0.425087 0.819347 0.726648 0.714396 -0.506813 0.677859 -0.296459 -0.150118 -0.361958 0.889306 0.279187 0.423167 -0.725301 -0.898864 -0.654920 0.784867 0.606602 0.017964 0.927944 0.843654 -0.769427 0.210832 -0.453747 0.546140
-0.603190 -0.620661 -0.360478 -0.431544 0.802093 -0.804924 -0.788209 0.477355 0.070110 -0.175971 -0.133333 0.815791 0.546192 -0.550262 -0.269170 0.146952 -0.989461 0.087323 -0.630307 0.312316 -0.316098 0.359064 -0.036431 -0.122108 0.786687 -0.312941 -0.290779 -0.170156 -0.968364 0.241647 -0.853046 0.032072 1.000122 0.530542 0.530675 -0.184111 -0.662778 0.419812 -0.125533 0.163731 -0.155369 0.731341 0.368579 0.031507 0.299073 -0.583655 -0.988856 -0.455060 0.447242 -0.115909 0.441205 -0.865881 -0.671621 -0.438183 0.509735 -0.409645 -0.114265 0.964383 0.715574 -0.461118 -0.942755 0.074511 -0.123481 0.568372 0.083997 -0.481249 -0.245441 -0.427133 0.543637 0.298147 -0.526613 -0.581011 0.296697 0.796386 0.658657 -0.426272 -0.013277 0.067323 0.906655 -0.326659 0.802695 0.467367 -0.712908 -0.942768 0.539328 0.352048 -0.950741 -0.003609 0.108404 0.217799 0.251390 -0.044687 -0.086640 -0.290846 0.246617 -0.443402 -0.171789 -0.898674 -0.396879 0.653680 0.197881 -0.897594 -0.249018 -0.021119 0.533126 -0.212397 -0.901363 0.083986 -0.904535 -0.227160 -0.747903 -0.718607 -0.535511 0.690482 -0.735717 -0.399211 0.514755 0.476553 -0.069274 0.603497 0.353464 -0.228389 0.311381 -0.684675 -0.962055 -0.922799 -0.117614 0.231323
0.569629 -0.895194 -0.993553 0.221207 0.942576 -0.942200 -0.236885 -0.901450 0.675093 0.297749 0.260938 -0.954923 -0.721627 -0.631854 0.761495 0.859193 -0.619579 -0.846914 0.427673 0.861282 -0.939316 0.772908 0.733180 -0.705195 -0.762809 0.589807 -0.239036 0.626514 0.784628 0.082379 -0.568887 0.776324 -0.205432 0.350600 -0.963437 -0.589569 -0.722735 0.036403 -0.985278 0.543487 0.685356 0.530089 0.228056 0.037680 -0.462740 0.186455 0.714442 0.110501 -0.744171 -0.828832 0.263406 0.562302 -0.405334 -0.719312 0.135621 0.945397 0.456625 -0.411691 0.787070 -0.359132 0.483165 0.789397 -0.448893 -0.702826 -0.629574 0.535617 -0.851349 0.584660 0.805868 0.743034 -0.539088 -0.650832 0.308746 0.854653 0.097460 -0.724688 0.181581 0.624514 -0.739728 0.060089 -0.681574 0.886329 -0.962579 0.054595 -0.167773 0.693919 -0.887186 -0.119731 -0.171734 0.561675 0.739349 0.008093 -0.628328 0.003227 -0.669286 -0.696061 -0.355983 -0.631229 0.861290 0.299529 -0.229498 0.967651 -0.933385 0.367967 -0.112002 -0.544758 0.722833 0.537547 -0.229339 0.969582 0.564819 0.195107 0.458505 0.785668 0.059098 -0.969184 0.507965 -0.532543 0.185550 -0.893310 -0.050274 0.257701 0.779168 -0.067416 -0.984119 -0.992519 0.445457 0.740978
0.542550 -0.183795 -0.208688 -0.303918 0.946002 -0.230719 -0.243451 -0.819267 0.950492 -0.105498 0.454277 -0.053747 0.935017 -0.252195 -0.930054 -0.123845 -0.062400 0.174184 0.300116 -0.584705 0.528694 -0.812631 -0.651482 -0.518641 0.975468 0.281069 0.718758 -0.990425 -0.585843 0.518914 0.755792 -0.464525 0.102605 -0.122171 0.765828 0.867599 0.611741 0.965970 -0.423875 -0.179234 -0.940089 -0.266503 -0.526395 0.302388 0.789873 0.325114 -0.308058 -0.600048 0.411162 -0.709567 0.173697 0.250006 -0.276322 0.156568 0.589709 -0.662325 -0.332445 -0.640625 0.785450 0.278571 -0.382204 -0.240036 0.372853 -0.957241 0.009197 0.907037 -0.046327 -0.424459 -0.504119 -0.358144 -0.505234 0.330537 0.082150 0.596335 0.135872 0.119732 0.678300 0.205636 -0.480753 -0.936634 0.304189 0.814822 -0.426675 -0.264819 -0.015633 -0.322771 -0.106532 -0.903524 0.558810 0.381240 -0.912556 0.911502 0.329561 -0.633300 -0.037540 0.995912 0.165614 0.307110 0.142355 0.236930 0.259147 0.042705 0.168502 -0.367916 0.553397 0.060915 0.494276 -0.534268 0.073543 -0.749811 -0.654520 0.401330 0.694789 0.227840 0.629590 0.621360 0.959558 -0.050187 -0.512460 0.174532 -0.838930 0.808437 -0.435244 0.806306 -0.352404 -0.017969 0.986442 -0.642065
-0.727700 -0.389401 -0.856071 0.740253 -0.732615 -0.956452 0.957770 -0.600446 -0.428910 0.501006 0.903117 -0.859450 -0.999696 0.536277 -0.934361 -0.873833 -0.090809 0.820249 -0.783514 0.025763 -0.525916 0.427914 0.199074 -0.354373 0.187281 -0.074567 -0.586447 0.737033 0.530313 0.718701 -0.970634 0.074167 -0.253360 -0.636673 -0.345470 -0.112794 0.135075 0.424755 -0.106370 -0.303268 -0.839928 0.827364 -0.403760 0.666744 0.836368 -0.809885 -0.061258 -0.861586 -0.639664 -0.593329 0.885755 -0.873542 -0.954255 0.208975 0.327419 -0.408258 -0.121628 0.839298 0.736567 -0.508014 0.292419 0.902255 -0.743969 -0.471678 0.864443 -0.025404 -0.361788 -0.638388 0.884631 -0.208542 0.874942 0.369696 0.618399 -0.769822 0.185362 0.988105 -0.269108 0.626245 -0.173476 -0.009581 -0.328315 0.668479 -0.915946 0.895627 0.664852 0.165233 -0.788053 0.538034 -0.643314 0.892145 -0.334796 -0.688481 -0.752587 -0.445680 0.748228 0.449805 -0.427424 -0.559596 0.191425 -0.533502 -0.687063 0.056472 -0.460449 -0.369001 0.787135 0.819736 0.422050 0.869634 -0.087691 -0.137805 -0.830958 0.027395 0.640723 -0.689635 -0.792064 -0.550810 -0.529105 0.440461 -0.680930 0.409750 -0.514982 -0.358822 -0.438003 0.025946 -0.566011 -0.188010 0.456438 -0.847846
0.711445 0.962109 0.648327 0.892984 -0.889697 0.345145 -0.311679 -0.832673 0.774157 0.359268 0.153048 -0.881994 0.311834 0.955432 -0.343485 -0.373279 -0.661785 0.986843 -0.246181 0.547159 0.401938 0.851541 0.719639 -0.848397 -0.991504 -0.883322 -0.671879 -0.234148 -0.612782 0.923232 -0.198683 0.062738 0.239459 0.843195 0.429524 0.293858 0.198482 -0.949499 0.450874 -0.710250 0.757760 -0.748153 0.147806 0.654289 0.556699 -0.232654 -0.134460 -0.137949 0.116278 -0.488723 -0.845209 -0.740912 0.571398 0.352048 0.720505 -0.305892 -0.779453 0.002027 0.959849 -0.510375 -0.456324 -0.035236 -0.138117 0.160574 -0.407652 -0.178842 -0.650180 -0.901575 -0.001264 0.537329 0.753523 -0.032712 0.174308 -0.056901 -0.807017 0.394503 -0.577674 0.317580 -0.543730 -0.069993 0.954543 0.289836 0.251828 -0.724302 0.479557 -0.321595 0.563798 0.963746 0.312969 -0.538838 0.650130 0.004217 0.898667 0.877917 0.590268 0.847948 0.208036 0.734059 -0.596938 -0.839911 -0.342938 -0.094270 -0.884846 0.442197 0.713796 0.599439 0.858527 -0.007179 -0.729236 -0.669993 0.777446 0.105899 0.335301 -0.066488 -0.739925 -0.098177 0.470803 -0.148214 0.535881 0.557049 0.261994 0.494676 0.506854 0.151057 -0.464499 0.722427 0.895352 -0.133099
0.110308 -0.889243 -0.250526 0.526096 0.580511 0.715126 -0.767707 0.135318 -0.999743 0.898094 -0.754709 -0.686851 -0.733153 0.220337 0.300817 0.849909 -0.921683 0.905739 0.333763 -0.026332 -0.385645 0.785561 -0.730174 -0.233405 0.169064 0.320071 0.650315 0.939979 0.056283 -0.613576 -0.831689 -0.185578 0.701470 0.621790 -0.743822 -0.974458 -0.445655 -0.216683 -0.073299 0.500050 0.577292 0.805090 0.547260 -0.554568 -0.332575 0.016872 0.577542 -0.068208 -0.106136 -0.393122 -0.407156 0.428810 -0.121651 -0.675951 0.851373 -0.069495 -0.642128 -0.929460 -0.500334 0.579397 0.684964 0.443625 -0.034076 0.728206 -0.098804 -0.671992 0.439433 0.774031 -0.226763 -0.697630 -0.354661 0.281801 -0.206012 -0.642016 -0.452225 0.816532 -0.951138 0.742284 0.640525 -0.107134 -0.331859 -0.238600 -0.600536 -0.527208 0.155501 -0.754470 0.788211 0.092575 -0.088730 -0.279634 -0.720628 -0.172503 0.065990 -0.933359 0.611519 0.233604 -0.361607 0.020579 0.977418 -0.458476 -0.912888 0.845125 0.335296 -0.472804 -0.846674 0.346925 0.896539 0.336739 0.036448 0.542256 -0.021710 -0.697119 -0.958584 -0.636812 -0.526537 -0.997017 0.637377 0.962083 -0.866864 0.350624 -0.513118 0.740906 -0.492734 -0.148602 -0.363375 0.502352 0.957612 0.386976
0.527697 0.627679 -0.090272 -0.916828 0.432662 0.447191 0.848675 -0.959027 -0.515871 -0.611941 0.711030 -0.068261 0.826665 0.887910 0.806208 -0.949596 0.717038 -0.106232 -0.267003 -0.488573 0.172236 0.825069 -0.952928 0.443437 -0.873891 0.513991 -0.765543 -0.613301 -0.339143 0.438874 0.627482 0.215377 0.505519 -0.368301 -0.150550 -0.162461 -0.669454 -0.084793 -0.392423 -0.646322 0.576920 0.111237 -0.639800 0.062005 -0.051658 0.119523 -0.206392 -0.434434 0.808345 0.299400 0.254081 0.002684 -0.499745 0.605357 0.639333 0.122741 0.022515 -0.266356 -0.385213 -0.959182 -0.329241 0.061402 -0.862890 0.857260 0.545923 -0.160135 0.938983 0.456288 -0.057946 0.202599 0.105592 -0.436085 -0.133819 0.475112 0.527962 -0.935055 0.157596 0.175945 0.437823 0.508168 0.262485 -0.478057 0.947220 -0.327503 -0.935261 -0.493527 0.099852 -0.476296 0.681093 -0.519343 0.616030 -0.860087 0.807476 0.359352 0.502629 -0.328333 -0.314474 0.931391 0.434838 -0.878602 0.283787 0.935599 0.821828 0.399123 -0.207324 -0.667697 -0.279733 -0.953172 -0.751353 -0.879587 -0.401742 -0.262695 -0.393609 -0.748257 -0.268621 0.307646 -0.959374 -0.348771 -0.306852 0.815746 0.314111 0.758502 -0.800674 -0.194617 -0.573653 0.829833 -0.488707 -0.184388
-0.760493 0.286221 0.035965 0.374370 0.853051 0.092285 -0.301764 -0.164951 0.839183 -0.135221 0.419728 -0.416272 -0.640665 -0.930592 0.474844 -0.810002 -0.167988 0.975640 -0.032124 0.870239 0.059038 0.645521 0.380440 0.386972 0.167521 -0.783160 -0.851546 -0.237504 -0.412060 0.983980 -0.894094 -0.609932 -0.494174 0.963004 0.675369 -0.593677 -0.405500 -0.913420 0.232894 -0.680223 0.740471 -0.861684 0.263563 -0.503498 -0.487522 -0.799618 0.379815 0.188358 -0.142714 -0.348947 -0.068569 -0.135192 -0.663562 -0.542594 -0.767670 -0.974782 0.901481 0.692768 -0.654416 0.091043 -0.380750 0.398986 0.985948 -0.633000 0.074541 0.972539 -0.859381 -0.324155 0.673164 -0.303203 -0.985905 -0.528526 -0.169118 -0.610892 0.165764 -0.059885 0.084743 -0.021373 0.460484 -0.246891 -0.989512 0.574121 -0.654283 0.192599 0.530483 0.052837 0.702334 0.308121 -0.884624 -0.858613 -0.051184 -0.988730 -0.883965 -0.634080 0.497068 -0.417117 -0.145460 -0.331668 -0.999548 -0.375608 0.012099 0.284417 0.113232 -0.454175 -0.116332 -0.460623 -0.660021 0.473585 0.045490 0.872692 -0.949245 0.861645 0.250521 -0.502621 0.386843 -0.435590 0.941229 -0.463100 0.632221 0.987505 -0.857838 -0.597523 -0.923087 0.847689 0.687187 -0.449511 0.485339 -0.879008
-0.667405 -0.613180 -0.312964 0.923749 -0.771888 0.016332 0.022310 0.102370 0.198613 -0.419770 -0.497988 -0.603453 0.552127 0.660971 -0.530317 0.479948 0.896399 0.910212 -0.856663 0.430543 0.196739 0.146809 0.060949 -0.140890 -0.992521 0.362482 0.629219 0.267792 0.988827 0.553147 0.543194 0.132771 0.535089 0.977912 0.592331 -0.084082 0.773838 -0.465333 -0.520561 -0.516768 0.795351 -0.638024 -0.867884 0.193296 -0.464399 -0.239794 0.434292 -0.562097 0.829858 -0.438703 0.581432 0.008910 -0.469567 0.794794 -0.349391 -0.586185 0.059096 -0.357656 -0.847362 -0.723243 -0.265978 -0.263270 -0.311133 -0.108103 -0.436247 -0.682952 -0.925258 0.340219 -0.879868 0.067990 -0.706361 -0.583208 -0.686935 -0.103150 0.925061 0.644067 -0.791627 0.655230 -0.071286 -0.665433 0.304908 -0.816154 0.308673 -0.333661 0.004723 0.602310 0.423313 0.026887 0.910834 0.148217 0.067086 0.784129 -0.311578 -0.852128 0.559618 -0.115175 -0.126461 0.498285 0.760860 0.265829 0.026526 0.876818 0.802428 0.261874 0.629272 -0.217002 0.191889 0.976921 0.118908 -0.058514 -0.326421 -0.270904 0.113268 -0.255157 -0.350067 0.349940 0.206258 -0.817091 0.692049 -0.996156 -0.675499 -0.964515 0.785339 -0.280172 0.356943 -0.413503 0.266015 -0.962017
-0.278846 -0.342819 0.561154 0.753344 -0.749221 0.721777 -0.319566 0.756212 -0.164120 -0.207603 -0.128986 -0.911846 -0.685227 0.247980 0.491870 -0.577486 0.188316 -0.190402 0.850772 -0.578320 -0.583500 0.316705 0.425957 -0.842572 -0.038355 -0.840349 0.712682 -0.706156 0.328941 0.906679 0.577633 0.445356 0.568090 -0.513568 -0.574374 0.657721 0.470344 0.881313 0.066609 -0.568114 -0.664896 -0.778094 -0.879189 0.479105 0.902491 0.883042 0.507857 -0.120187 -0.505284 -0.971507 -0.816879 -0.409410 0.050810 0.788493 -0.346453 0.376832 0.689386 -0.125732 -0.097177 0.266999 -0.321820 -0.391676 0.702280 -0.266022 -0.749760 -0.171002 -0.020888 0.792726 -0.331117 -0.833541 -0.194983 0.715299 -0.340733 0.653174 -0.058717 -0.122752 0.034253 -0.671003 -0.273567 0.515348 -0.208210 0.367419 -0.072862 -0.773903 0.574007 -0.942217 -0.628807 -0.251023 0.150897 0.146589 0.486655 0.429148 -0.291842 0.627146 -0.528751 0.884777 0.793088 0.873248 0.442209 -0.217467 -0.806467 -0.012892 0.397929 -0.687062 -0.418558 -0.662900 0.904700 0.655509 -0.100041 -0.011255 -0.378863 0.981581 -0.055139 0.311082 -0.958635 0.419933 -0.030258 -0.732020 0.422187 0.663783 0.759839 0.633156 0.112846 0.032894 -0.315966 0.414364 0.359819 -0.362210
0.061228 0.413243 0.200767 -0.070291 0.350424 0.921245 0.871040 -0.135104 -0.923575 0.055713 0.353910 0.413405 0.739391 0.045232 0.406061 -0.930502 -0.062063 -0.916450 0.095914 -0.342262 0.156557 0.976098 0.647899 0.229464 -0.343117 0.849532 0.094752 0.285370 -0.210750 -0.762707 -0.220717 0.507110 0.109833 0.875268 0.446716 0.541938 -0.536840 0.592716 0.145681 -0.916713 -0.302112 0.450192 0.026097 0.759097 0.935936 0.234470 -0.786846 0.836494 0.808816 0.382169 0.780040 0.599366 -0.456270 0.034884 0.864519 0.890639 -0.461579 0.281291 0.760152 -0.144374 0.983983 -0.463031 -0.299973 0.663319 -0.972461 -0.599667 -0.600771 -0.726756 -0.699709 0.335758 -0.330078 0.720767 -0.634918 -0.138496 0.942105 0.984197 0.264666 0.352779 0.348043 -0.599913 0.774589 0.544093 -0.808599 0.962437 0.075031 0.704207 0.236075 -0.152366 0.525744 -0.218061 -0.933293 -0.608651 -0.695553 0.034479 0.494459 -0.878253 -0.162290 -0.025859 -0.294616 0.779092 0.308645 0.065583 0.306461 -0.283152 -0.463972 0.039738 -0.091492 0.123298 -0.879756 -0.220825 -0.242708 -0.864854 -0.603277 -0.400544 -0.283992 0.100615 0.057645 0.081339 -0.522870 0.796528 0.237079 -0.212619 -0.537800 -0.544463 -0.111980 -0.072468 0.030615 0.971642
-0.320865 -0.772433 0.361029 -0.990059 -0.097886 -0.618111 -0.232735 0.239662 0.044977 -0.758895 -0.337738 0.282411 -0.569876 -0.189353 0.807638 0.721381 0.684298 0.319300 -0.763070 0.488199 0.210588 -0.645893 0.191889 0.758939 0.375332 -0.684755 -0.915926 -0.173605 0.062858 0.639059 -0.366163 0.816650 -0.016925 -0.402040 0.189245 -0.431820 0.583576 -0.780836 -0.883560 0.033291 -0.412288 -0.789582 0.713639 0.082931 -0.588735 -0.686771 0.704243 0.801786 -0.514163 -0.946509 -0.409212 0.441088 0.419003 0.858937 -0.934268 -0.539737 -0.098832 -0.233158 -0.910282 0.369326 -0.816159 -0.097350 -0.310619 -0.552004 -0.641115 0.125909 -0.037871 0.313376 -0.464353 0.579812 -0.084381 0.542265 0.269754 -0.193278 0.672364 0.313742 0.015634 -0.205362 0.271848 0.547873 -0.488423 0.985673 -0.988201 -0.484477 0.040798 0.044963 0.586618 0.301919 -0.110865 0.884871 0.851170 -0.632947 0.012128 0.306252 -0.920740 -0.625615 -0.060092 0.976207 0.683353 -0.657479 -0.058294 -0.450433 0.642729 -0.040803 -0.238583 0.682847 -0.914440 -0.696692 -0.284688 0.278824 -0.038862 -0.878808 1.001044 0.484493 -0.994624 -0.350704 -0.244620 -0.982249 0.977136 -0.023344 -0.422827 -0.202615 0.055831 0.835078 -0.225786 -0.829333 0.690109 0.019223
-0.064039 -0.636718 0.168830 -0.118172 -0.235658 -0.281817 -0.110725 -0.618981 -0.411136 -0.516106 0.300684 -0.460256 0.942453 0.012917 0.398881 -0.961311 0.353148 0.692174 -0.982929 -0.827991 -0.169416 0.389095 -0.693346 -0.695227 0.663198 -0.739909 -0.259091 0.193348 -0.102688 0.269563 -0.809279 0.087480 0.149869 0.053439 -0.427390 -0.164902 -0.541610 0.701055 -0.006996 0.146486 -0.659200 0.711839 0.322707 -0.352009 -0.546283 0.016036 0.788364 -0.320093 0.129920 -0.987720 -0.687200 0.529976 0.201821 -0.505328 -0.693522 0.759686 0.433656 -0.079835 -0.455285 -0.040859 -0.847197 0.679702 -0.656275 -0.829094 -0.856459 0.007170 -0.859381 -0.918904 0.091365 -0.398787 -0.953632 0.177692 -0.568168 0.273717 0.928912 -0.604246 -0.667530 -0.152492 0.998973 -0.703028 -0.986490 0.021634 0.849910 0.329341 0.571087 -0.564194 -0.091820 -0.236856 -0.714696 0.633402 -0.574135 -0.522916 -0.334361 0.645154 -0.243440 -0.613264 0.153775 0.480002 -0.137547 -0.838951 0.206209 0.854150 0.671779 -0.715547 0.999151 -0.235941 -0.532614 0.822932 -0.309305 0.430599 -0.240812 -0.657343 -0.500019 0.080239 -0.776595 0.161960 0.645316 -0.418537 -0.523324 -0.165469 0.038438 -0.025163 0.189754 -0.569470 0.423233 0.872526 0.311281 0.061490
0.583464 -0.955017 0.312998 -0.051633 -0.604668 0.814367 0.119971 0.501694 0.486685 0.001013 0.649873 0.249429 0.668720 -0.225114 -0.824919 0.651937 0.065554 0.791703 -0.961484 0.765163 0.369443 0.792777 0.699902 0.722118 0.305050 0.551225 0.483373 0.247278 0.832860 -0.319624 -0.206287 -0.634724 0.917492 0.566087 0.217375 0.594112 -0.176211 -0.614196 -0.623637 0.876141 -0.365021 -0.466344 -0.389358 -0.971274 -0.677246 0.002930 0.989552 0.793295 -0.835628 0.841699 0.641243 -0.612564 0.309714 -0.849886 -0.978019 -0.464327 -0.177736 -0.790875 -0.302682 -0.303954 -0.696232 -0.527277 -0.632386 0.446506 0.268854 0.717426 -0.852058 0.806701 0.210321 -0.462553 -0.499599 0.103026 -0.804353 0.385676 -0.671807 0.788714 0.049749 0.113514 0.533283 0.756446 0.799851 -0.905678 -0.599096 -0.382241 -0.139807 -0.877103 -0.308943 -0.866556 -0.003899 -0.037668 0.814688 -0.446775 -0.592057 -0.975347 0.171542 0.167060 -0.144417 0.094977 0.166174 -0.821015 0.088083 -0.900953 0.849078 0.540445 0.614153 -0.867882 0.236922 -0.814851 0.118235 0.601223 -0.743709 -0.500851 -0.777250 -0.828786 -0.275805 -0.448868 -0.851409 0.716790 0.244149 -0.216764 -0.916134 0.982863 0.756996 0.862882 0.646795 0.349078 0.423559 -0.344950
-0.922728 0.814683 0.869828 -0.012518 0.677666 -0.832242 -0.869598 -0.443125 -0.127963 -0.224844 -0.817969 -0.558481 0.157854 0.428982 0.685343 0.654593 -0.235177 0.479327 -0.344989 -0.713119 -0.956938 0.272596 -0.668408 0.922186 0.602481 0.813453 -0.645611 0.580908 -0.558168 -0.107106 -0.694510 -0.152570 0.518735 0.763834 0.114426 -0.734986 0.734228 -0.197003 -0.433665 -0.798008 0.313780 -0.516693 -0.471474 0.364632 -0.163041 0.583454 -0.810454 -0.354292 -0.068599 -0.571960 0.282396 0.112796 0.718258 -0.589810 0.856916 0.313422 0.040691 0.554993 -0.492068 -0.276940 -0.384107 -0.732496 -0.927126 0.300804 0.244754 0.410678 -0.654563 0.072726 0.037356 -0.708109 0.447414 0.525392 0.494060 -0.280012 0.405143 0.038292 0.189389 0.020687 0.269018 0.964917 -0.697219 -0.657313 -0.811396 -0.915220 0.627438 0.018411 0.310359 -0.186466 -0.375063 0.879595 -0.767338 0.513292 -0.235132 0.497233 -0.490561 -0.627136 0.025096 -0.703670 -0.542597 0.799005 0.632901 0.795416 0.494081 -0.874883 0.561266 -0.272982 -0.715427 -0.748644 -0.241919 -0.213871 0.356158 0.630430 0.648698 0.980531 0.426756 -0.804012 0.089297 -0.098270 -0.267690 0.217360 -0.094801 -0.860591 0.299425 -0.610467 0.136386 -0.078797 0.162987 0.345151
-0.762756 -0.502093 0.876039 -0.752268 -0.062041 0.866333 0.532434 0.104405 -0.013156 -0.741204 -0.897625 0.390798 -0.296224 0.287198 -0.384990 0.451765 -0.739240 0.577931 -0.431635 -0.209842 0.813990 0.295010 -0.863479 0.878017 0.751563 -0.471847 -0.762752 0.248711 -0.305456 -0.595150 -0.708356 -0.502250 -0.850540 0.319476 -0.940118 0.482335 -0.821353 -0.790667 0.530865 0.625237 -0.312608 -0.952653 0.461383 0.040546 -0.283678 -0.126251 0.608677 0.556024 -0.200328 0.117691 0.393002 0.512726 -0.948313 0.184588 0.081366 0.634900 0.255656 0.131541 -0.176257 -0.036777 0.168302 -0.186654 -0.964578 -0.297969 0.278900 -0.757386 0.646119 0.269542 0.123459 0.433438 0.819644 0.017673 0.469424 -0.410997 0.699511 0.647041 0.263014 -0.851393 -0.728848 -0.648499 -0.105289 -0.732449 -0.569411 0.912529 0.776505 -0.500548 0.893231 -0.366420 0.781329 -0.730353 0.637289 0.420273 0.963540 -0.699812 -0.258864 -0.684047 -0.446304 -0.078827 0.478318 -0.812844 -0.087957 -0.393388 -0.863594 0.151838 0.212007 -0.136708 -0.659816 -0.182959 -0.884579 -0.584258 0.808619 0.434585 -0.088496 0.991326 0.464958 0.352195 0.102891 0.177693 0.378345 -0.585356 0.326343 0.177981 -0.373548 -0.334586 -0.141904 -0.856114 -0.856123 -0.072885
0.632394 0.270453 0.885035 -0.137431 0.817428 0.358665 -0.311297 -0.106146 -0.989731 -0.589997 0.058575 0.884151 0.861566 0.511404 0.080174 0.199619 -0.872027 -0.938967 -0.315009 -0.697454 -0.179958 -0.196789 0.792445 0.111301 0.066444 -0.542952 0.702579 0.841990 0.692096 0.431573 0.406135 0.513237 -0.468399 0.099404 0.746503 0.082668 0.126113 -0.896718 0.958285 0.860344 -0.043031 0.132282 0.828852 -0.267365 0.259991 -0.247565 0.426726 0.472881 0.120619 0.370619 0.693910 -0.077813 -0.819723 0.341068 0.143682 0.499262 -0.499870 0.612560 -0.389140 -0.132596 -0.565540 -0.575838 0.205986 -0.019165 -0.175289 0.164526 0.893766 0.388194 0.697661 -0.380952 0.037891 -0.431297 0.707281 -0.668823 -0.472733 -0.776039 0.100363 -0.502452 -0.964460 -0.859552 -0.836746 -0.653332 0.307115 0.194612 0.591882 -0.634070 -0.808295 0.698756 -0.136019 0.431684 -0.795434 -0.080281 -0.194437 0.622081 0.430963 -0.102147 0.664144 0.650249 -0.137890 -0.928731 -0.555862 -0.246801 -0.114934 -0.524916 0.928721 -0.996765 0.788339 0.857664 0.379966 -0.354628 0.409640 -0.654062 -0.511607 0.232461 0.360697 0.964282 -0.596383 -0.537796 -0.136294 -0.239735 -0.941628 0.265716 -0.201480 -0.082432 -0.182185 -0.198780 -0.851162 -0.027780
0.916523 -0.814655 0.021014 0.667689 -0.839156 -0.891556 -0.087065 -0.284750 0.459892 0.204296 0.646754 0.467292 -0.908192 -0.255392 -0.376386 0.186584 -0.751213 0.004910 -0.438772 -0.144501 1.010546 0.232929 -0.449295 0.107148 0.898563 -0.660378 -0.393413 -0.877030 -0.314952 0.006064 -0.860321 -0.100270 0.863544 0.246203 0.463190 0.647406 -0.623582 0.978578 -0.799234 0.974782 -0.280031 -0.057605 -0.065585 0.567077 -0.127658 -0.566587 0.075033 0.404413 -0.784073 -0.112365 -0.120907 0.375209 -0.060247 0.270013 0.704726 -0.691654 0.006171 0.455430 0.441717 -0.637711 0.268361 -0.767477 -0.326445 0.855794 -0.067944 -0.014198 0.894560 0.136842 -0.103555 0.498135 -0.337756 -0.006861 -0.882588 0.035187 -0.943683 0.080189 -0.224040 -0.113524 0.303971 -0.527016 0.058702 -0.951839 0.274780 -0.119043 -0.553681 -0.469484 -0.296635 0.616388 -0.157718 0.012081 0.602508 -0.825027 -0.078060 -0.868082 -0.459692 -0.342238 0.353372 0.848233 0.674293 0.522449 -0.117491 0.332048 0.343557 -0.392343 -0.251940 0.771208 -0.490242 -0.445385 -0.573094 0.081534 -0.959276 0.439459 0.145899 -0.591593 -0.734096 0.199361 0.494171 0.269851 -0.992354 0.738100 0.736918 0.997952 0.742710 -0.251924 0.130024 -0.789578 0.993836 0.818856
0.961240 0.516809 0.671123 -0.715260 -0.951433 0.006964 0.352403 -0.907723 0.004496 -0.476880 -0.806036 0.317955 0.196815 -0.963019 -0.786321 -0.743487 0.195512 0.383261 0.804852 -0.011742 0.219823 -0.250739 -0.396551 0.189562 -0.071139 0.585579 0.159023 0.822905 0.425123 0.304241 0.555789 -0.456997 0.208268 0.680017 0.587749 -0.286233 0.546370 -0.633660 0.627508 -0.688820 0.704018 -0.047170 0.323100 0.573580 -0.904756 -0.165303 0.374581 -0.373103 -0.412062 -0.081727 -0.067270 -0.420014 -0.498931 -0.461330 -0.373153 0.246034 -0.275196 -0.206667 0.948213 -0.801160 0.607363 -0.330473 -0.534786 0.176732 0.413933 0.294513 -0.696920 0.405827 -0.154685 -0.679007 0.923226 0.890475 0.746183 -0.101100 -0.798099 -0.180220 -0.697979 -0.241343 0.819649 -0.875210 -0.638037 0.612422 -0.085381 -0.783091 0.019454 -0.511008 0.224800 0.840239 -0.214166 -0.186269 -0.129965 -0.353132 0.089525 -0.137131 0.289254 -0.754298 0.650126 -0.546327 0.448555 -0.715401 0.663667 -0.346519 -0.569070 -0.741509 0.475960 0.137885 0.156706 -0.996016 0.461283 -0.807563 -0.328803 -0.332780 -0.523871 -0.872076 -0.890413 0.490907 0.989028 0.930396 -0.366506 -0.556656 -0.144606 -0.659186 0.237318 -0.047093 -0.104956 -0.306135 0.239066 0.694311
-0.442565 0.079594 -0.881838 0.301322 0.437408 -0.940831 -0.584186 0.489078 -0.314132 -0.652106 -0.617741 -0.571692 0.635462 -0.131247 0.727352 -0.996749 0.910981 -0.325861 -0.142335 -0.980290 0.566152 0.864313 0.412529 0.301160 0.766018 -0.465961 -0.886718 0.575343 0.419335 -0.701095 -0.418958 0.210418 0.233611 0.532163 -0.977141 0.733633 -0.208824 -0.801685 -0.674463 0.646940 0.056576 0.963790 0.626237 -0.769935 -0.039142 0.548503 -0.420490 -0.789419 0.958219 -0.736124 0.932959 0.520384 -0.587939 -0.966031 0.289939 -0.516864 0.301476 -0.189276 -0.954046 -0.701877 0.987855 -0.218298 0.829966 -0.654264 -0.648243 0.799764 0.118019 -0.100500 -0.789943 0.427295 -0.852497 0.975434 -0.069653 -0.612359 0.785277 -0.085613 -0.687748 -0.650421 -0.885287 -0.258421 0.841224 -0.488575 0.279655 -0.378741 0.014708 -0.985791 -0.961130 -0.203336 -0.282385 0.222555 -0.546020 -0.211988 -0.436004 0.831940 -0.220536 0.352470 -0.406009 -0.609641 0.618918 0.797541 -0.295178 -0.759713 0.487782 0.282642 -0.434288 -0.668889 0.812640 0.877196 -0.719760 -0.690341 0.134248 0.325178 -0.250314 0.851498 0.366219 -0.829578 0.966268 -0.440165 0.588690 -0.629988 -0.129767 0.535750 -0.462163 -0.984600 -0.129942 0.393985 -0.710807 0.016865
-0.686134 0.001328 0.448009 0.625115 -0.922359 0.965229 0.570889 0.513331 0.253533 0.867166 0.331180 0.065292 0.400320 0.483658 0.543943 -0.551007 0.458666 -0.696999 0.210513 0.741102 0.511146 -0.588297 -0.353293 -0.951662 -0.425020 -0.712003 -0.745206 -0.330136 -0.838155 -0.268220 -0.943668 -0.316611 -0.201243 -0.182551 0.048607 -0.093971 0.941233 -0.466589 0.910272 -0.052939 0.609669 -0.209140 0.096687 -0.071686 -0.017223 -0.635892 0.916376 0.145633 0.543234 0.202707 0.094196 -0.101617 0.184739 -0.836947 -0.551302 0.647684 -0.120675 0.779548 -0.385365 0.454360 -0.260026 -0.798923 0.205285 -0.938009 -0.734218 0.958870 0.613054 -0.913144 0.795051 -0.806599 -0.880803 0.766928 -0.469004 0.939654 0.385333 -0.068784 -0.536424 -0.500049 0.352194 -0.875942 -0.665631 0.325494 0.139743 0.634189 0.079942 -0.375861 0.038933 0.339019 -0.887280 0.750684 -0.325967 -0.693905 -0.995977 0.892686 0.244377 -0.465991 -0.684737 0.715748 0.059426 -0.667308 -0.904338 -0.929719 -0.386523 -0.846767 -0.753573 -0.571835 0.577038 -0.556558 -0.378970 0.416729 -0.572964 0.228391 0.974084 0.224277 0.822327 -0.065442 -0.709787 0.020978 0.411534 0.099234 0.567886 -0.455816 -0.910658 0.687826 0.035971 -0.855575 0.605661 -0.452184
0.505432 0.288367 0.543772 0.672486 0.746239 -0.948586 -0.152844 -0.274716 0.772448 -0.256532 -0.396174 -0.901292 -0.102697 -0.347510 0.400411 -0.702986 -0.652655 0.663318 -0.870926 -0.428053 0.619380 0.906548 0.346949 0.881927 0.576238 -0.980213 -0.505806 0.531899 -0.337109 -0.591804 0.948273 0.156673 -0.963693 -0.670107 0.321413 0.827475 0.024900 -0.217764 -0.344225 -0.896393 0.781059 -0.330428 0.872756 0.007152 -0.112529 -0.406949 -0.099950 -0.722006 -0.558863 -0.379780 -0.175386 -0.024216 -0.229454 0.046544 0.824309 -0.045278 -0.905149 0.707279 -0.549218 -0.234551 -0.006402 -0.694261 -0.429042 -0.805463 -0.419895 0.323610 0.369971 0.235540 0.768986 0.883869 0.893343 -0.888709 0.929938 -0.515362 -0.274976 0.704156 0.372276 0.775851 -0.686865 0.037982 0.681020 0.698935 -0.525378 -0.688359 0.623478 0.307983 0.277928 -0.225378 -0.099581 0.638998 0.000705 -0.750563 -0.967839 -0.580232 -0.753082 -0.459356 -0.492424 0.767540 0.455430 -0.382211 -0.592598 -0.468090 -0.064029 0.790326 0.649552 0.167683 -0.373176 -0.168008 0.872310 0.308088 -0.657089 -0.861688 0.015426 -0.355036 -0.365691 0.051392 0.583910 0.360127 -0.820360 0.810755 -0.641190 -0.992952 0.953449 0.450607 -0.440537 0.003058 -0.702378 -0.205250
-0.488930 0.546825 0.603497 -0.281467 -0.796731 0.926688 -0.245488 -1.000836 -0.180498 0.172229 0.380449 -0.268450 -0.849993 -0.016388 -0.869761 -0.769679 0.543262 0.544757 -0.212376 -0.551136 0.842894 -0.117104 -0.969474 -0.448660 -0.313573 -0.139015 -0.513688 -0.415015 0.496154 -0.329165 -0.986416 -0.243333 0.146144 0.811523 0.514087 -0.056347 0.744700 -0.242503 -0.528307 -0.482719 0.668296 0.008498 -0.424242 -0.480669 -0.180387 -0.176287 0.715811 0.316895 -0.218784 -0.399053 -0.156764 0.236361 -0.626342 0.505468 -0.207749 -0.877250 -0.900799 0.287210 0.913763 -0.707515 -0.777613 -0.589357 0.013763 0.104120 0.735674 -0.890815 0.688081 0.417119 -0.092962 -0.824491 0.474153 0.765056 0.488939 0.417493 -0.681929 0.898359 -0.980258 0.185034 -0.489520 -0.428396 -0.890963 0.214825 0.036409 0.007674 0.155741 -0.123298 0.865089 -0.416222 0.339216 0.543529 -0.287118 -0.242114 0.311934 -0.606552 0.148015 -0.354288 0.043973 0.336139 0.011624 -0.259459 -0.702700 0.762807 -0.069973 -0.655113 0.441704 0.193431 -0.788555 -0.416774 -0.430580 0.123197 -0.797257 -0.285743 -0.340421 -0.219150 0.981600 0.686785 0.911076 -0.319150 0.627258 -0.249591 0.247422 -0.448722 0.578112 -0.875206 0.434919 0.751221 0.468857 -0.880911
-0.877415 0.196723 -0.113448 0.036273 -0.226421 0.015990 0.086417 -0.837214 0.198507 0.525139 0.467813 -0.119651 -0.710171 -0.880494 0.342928 -0.974583 0.484131 -0.398242 0.408368 -0.199299 0.788524 0.807499 0.678242 0.781680 -0.088172 0.627159 0.942777 -0.206901 -0.464493 -0.773650 -0.743972 -0.501058 0.627158 -0.324206 -0.432422 0.599538 -0.709632 -0.149717 0.922852 -0.005885 0.919092 0.559186 0.110617 -0.736275 0.087918 -0.970483 0.879175 -0.030128 -0.732374 0.232829 0.736620 0.362269 0.496017 0.410581 0.544095 0.314575 0.597592 -0.437912 -0.472011 -0.851938 -0.887536 0.647293 0.325867 0.711241 0.710222 -0.218487 0.263499 0.388382 0.809814 0.314670 -0.599517 0.334169 0.814999 0.598004 0.027550 -0.374313 0.514599 0.008007 -0.270646 0.202957 -0.423882 -0.061452 0.464847 -0.984478 -0.113085 -0.412421 -0.367559 -0.915675 0.492652 0.559741 0.736401 -0.379143 -0.682779 -0.618821 -0.450884 -0.663631 -0.061143 -0.741917 0.551925 -0.429628 -0.715362 -0.225340 0.103543 -0.617411 0.677961 0.339784 0.076613 -0.211546 -0.362188 -0.780526 -0.895794 -0.895989 0.753035 -0.023268 -0.705302 -0.594590 -0.894649 0.436540 -0.746639 0.912393 0.242243 -0.060197 -0.301552 -0.239762 0.800813 0.755257 0.822208 -0.907152
0.606251 -0.110464 -0.166143 0.658498 0.836163 -0.559016 -0.865164 0.753682 -0.466418 0.430838 -0.498003 0.438793 -0.597484 -0.685091 -0.694972 0.337624 -0.182736 0.552487 0.704754 -0.533144 0.914104 -0.536411 -0.356169 -0.496710 -0.306866 -0.900755 -0.044535 -0.534682 0.476211 0.737994 0.008681 0.711474 -0.484158 -0.527514 0.059397 0.984078 0.453134 -0.836293 0.193369 -0.261864 -0.806086 0.904054 -0.373018 -0.681057 0.512298 -0.777480 0.991592 0.596416 -0.805973 0.941840 0.296485 -0.417763 -0.722908 0.996173 -0.948365 0.019201 0.609668 0.133219 -0.907451 -0.466788 -0.935200 0.242982 0.786887 0.426799 -0.985924 -0.857020 0.034905 -0.140371 0.095349 0.110332 0.265319 0.041762 0.384609 0.799182 -0.911623 0.321857 -0.844632 -0.010989 0.955016 -0.384502 -0.393979 -0.223979 0.300122 -0.897471 -0.897419 0.251088 0.876062 0.245231 -0.608545 0.024787 -0.290030 0.481217 0.916296 0.346158 -0.833293 -0.083566 0.805932 0.093550 0.093173 -0.189284 0.151857 0.987132 0.944705 0.577017 0.137960 0.954648 -0.429554 -0.096902 -0.590073 -0.190188 0.735041 -0.947904 0.892917 0.980061 0.421279 -0.578969 -0.431921 0.928079 0.124739 0.893612 0.762083 -0.456197 0.874656 -0.732838 -0.456840 0.427230 0.547399 0.672687
-0.351882 0.398641 0.236790 0.703471 0.675694 -0.305600 0.319542 0.315090 -0.262305 -0.120012 0.859748 -0.622054 -0.217539 0.589083 0.445325 0.037484 -0.563666 -0.198158 0.556859 0.520998 0.737681 -0.308981 -0.120750 -0.357283 -0.477440 0.924133 0.596621 0.162871 0.399601 0.458011 -0.263384 -0.125306 -0.852584 -0.553253 0.921832 0.887650 0.158920 -0.431289 0.625347 -0.905198 0.679588 0.915119 0.664663 0.368589 -0.486593 -0.299123 -0.353061 0.499319 0.578233 0.739271 0.215573 0.331109 0.315838 0.214011 -0.133572 0.437007 -0.742533 -0.798611 -0.052773 -0.671271 -0.107256 -0.629188 -0.985579 -0.638627 0.335001 -0.984136 0.810866 0.036123 -0.344355 0.776870 -0.381790 0.435923 -0.369129 0.955428 0.207329 -0.398016 -0.387101 0.380839 0.193004 -0.898349 0.487229 0.863475 0.553111 -0.578581 0.292783 0.892163 0.844321 0.282875 -0.293955 0.720018 -0.186499 -0.258806 0.768456 -0.725614 0.936731 0.043333 0.671623 0.454847 0.248052 -0.217259 0.817581 0.746989 -0.146068 0.273035 0.797791 0.513466 -0.508165 -0.010323 -0.705731 0.026515 -0.125265 -0.243622 0.297668 -0.393375 -0.952750 0.706983 -0.968767 0.112775 -0.740853 0.210087 0.496309 -0.256323 -0.386975 0.352484 0.735310 0.937730 0.805265 0.057140
0.133422 -0.608114 0.447247 -0.119537 -0.734580 0.406663 0.076269 -0.847574 -0.648620 0.263842 0.821381 0.302530 0.226654 0.113594 -0.883360 0.295431 0.078086 -0.762085 -0.742186 -0.885833 -0.248548 0.311351 0.213315 0.206485 0.487879 -0.221561 -0.034302 0.436028 -0.407697 0.207730 0.780949 -0.153619 0.267023 0.426464 0.763473 -0.111404 0.301681 -0.684638 -0.669876 0.632028 0.062462 0.556733 -0.741397 0.505811 0.835780 -0.785357 0.318161 -0.598338 0.303944 -0.310282 -0.485770 -0.878503 -0.594128 -0.654254 0.903457 -0.180509 0.498738 0.978015 0.008426 0.171568 0.785483 0.365373 -0.581303 0.466415 -0.134208 0.707875 -0.424990 -0.558554 -0.389944 0.864295 0.673311 0.475115 0.377618 -0.130194 -0.965769 -0.697484 -0.805188 0.465607 0.769167 -0.883898 -0.792196 -0.333525 0.529952 0.268263 0.084246 -0.214756 0.325447 -0.612577 -0.633911 0.412958 0.303973 0.159833 0.405305 -0.912128 -0.774012 -0.853546 0.420602 0.232840 0.170570 0.334493 0.450989 0.662604 -0.081122 0.336512 -0.515666 0.569541 -0.974878 -0.548844 -0.400714 0.055897 0.526596 -0.237402 0.702490 -0.510365 -0.578816 -0.257921 0.300337 -0.697721 0.401477 -0.000761 -0.672353 -0.250774 0.263781 0.483521 -0.457970 0.787558 -0.632032 0.230287
-0.477263 -0.440309 -0.469058 -0.723062 0.921606 0.969085 0.341988 -0.900898 -0.035424 -0.929233 -0.726264 0.208419 -0.592114 -0.179783 0.835753 0.853479 -0.980868 -0.116589 -0.637478 -0.055619 -0.912216 -0.801846 -0.506422 -0.916478 0.684310 0.843090 0.606076 -0.080368 0.945101 0.560296 -0.882737 0.266246 -0.036258 -0.824912 0.096830 0.537571 -0.112263 0.462806 -0.979529 -0.929331 0.971993 0.407153 -0.187905 0.027807 -0.446246 -0.339119 0.771332 -0.098224 0.978537 0.708983 -0.231196 0.231229 0.535158 -0.214317 0.744235 0.627016 0.399035 0.128860 -0.041156 -0.866743 -0.484101 0.437839 -0.198652 -0.075782 -0.692098 0.577855 0.370326 -0.011533 0.664471 0.634441 0.564847 -0.076646 -0.273597 -0.619975 -0.868358 0.808357 -0.451582 0.229120 -0.152813 -0.260273 -0.503124 -0.928845 -0.887787 -0.948600 -0.407584 -0.954522 -0.235772 -0.407240 -0.823354 -0.178557 0.621060 0.631786 -0.709133 -0.822568 0.482472 -0.720244 0.177718 -0.350736 0.757020 0.621848 -0.099088 -0.779804 0.770958 -0.162043 0.765203 -0.061641 -0.146764 0.039820 -0.336879 0.039999 -0.338280 -0.190668 -0.297978 -0.760479 0.327776 0.780655 0.262834 0.809682 0.933275 0.712567 0.294609 0.164416 0.384998 0.040697 0.350913 -0.047553 0.724448 -0.677633
-0.207359 0.134493 0.667385 0.085295 0.007896 0.584033 -0.126358 -0.441565 0.439987 -0.230867 0.573427 0.299935 -0.141102 0.435570 -0.913130 0.790985 -0.839090 0.389279 -0.460039 -0.255020 -0.253757 -0.706204 0.574232 -0.691103 -0.985632 0.391472 0.573731 0.092565 -0.511571 0.026361 -0.247845 -0.110023 -0.805328 -0.367943 -0.597806 0.184998 0.811396 0.073863 -0.626035 0.621331 -0.730334 0.998157 0.312475 0.053953 0.420812 -0.390148 0.854499 0.286731 0.520563 0.257135 0.829013 0.371141 0.067174 0.884163 0.868941 0.467577 0.331079 -0.723981 0.269564 0.951677 -0.601478 -0.120294 0.570871 0.162031 0.930833 0.919434 -0.203228 0.106722 -0.362178 0.092445 0.642130 -0.371464 0.922754 0.874070 -0.273052 0.258520 0.216561 0.568548 -0.298708 0.181574 0.240203 0.064936 0.500403 -0.644325 -0.953547 -0.258573 -0.815068 -0.564471 0.114144 -0.584377 -0.922250 0.519821 -0.756493 -0.517710 0.181981 0.239299 0.244533 -0.635663 -0.347161 0.497689 0.342727 -0.284109 -0.436333 -0.396519 0.690096 0.042482 0.990335 0.309241 0.421671 0.133536 -0.177184 0.371215 0.688191 -0.083679 0.416321 0.889244 0.678186 -0.135600 -0.543658 0.109515 -0.141936 0.963165 0.561730 0.492203 -0.378809 -0.454376 0.056858 -0.726774
-0.461582 -0.985850 -0.983546 0.023772 0.539993 -0.515684 -0.926487 -0.654737 0.220702 -0.759856 0.178600 0.671021 -0.695021 -0.457654 0.096143 0.895978 0.743611 0.632173 -0.439021 0.821621 -0.397878 -0.485841 -0.549838 0.236215 0.291071 0.600865 -0.409847 -0.624878 0.290532 0.339745 0.087160 -0.633821 -0.298903 -0.201089 -0.392230 0.947714 0.426538 0.293087 0.115155 -0.351728 -0.906496 0.614650 -0.010410 0.951329 -0.618858 0.724414 -0.000739 -0.336278 0.522476 0.588869 -0.496044 0.368137 -0.979921 -0.239504 -0.662118 -0.411701 -0.276198 0.004433 0.376405 0.944811 -0.801775 -0.898324 -0.371145 0.835449 0.999212 -0.589251 -0.582583 -0.224270 -0.003397 -0.068758 -0.240685 -0.689112 0.371530 0.164284 0.450747 -0.050935 0.024897 -0.528884 -0.142206 -0.863491 -0.071338 -0.922961 0.772885 -0.909774 0.352921 -0.737879 0.401083 -0.923799 -0.576736 -0.186116 -0.853478 0.479332 0.128390 0.746754 -0.860963 -0.574593 0.789891 -0.990569 0.257240 0.765246 0.440207 -0.237349 -0.655110 -0.453346 0.862767 0.111542 0.639419 0.465248 0.780627 0.936154 -0.443266 -0.394441 -0.666125 -0.197166 -0.373809 0.582662 -0.215036 0.809521 0.479144 0.521115 -0.425058 -0.071897 0.209225 0.268833 -0.158206 0.872679 0.078060 0.287676
-0.162587 -0.610455 0.857253 -0.661500 0.910220 0.093042 -0.412944 0.978651 0.290104 0.812531 0.268779 -0.123035 0.422864 -0.456807 0.877160 -0.123328 0.256949 -0.075473 0.142167 -0.027468 -0.059158 -0.783025 0.800482 0.224275 -0.264171 -0.009735 0.206708 0.119052 0.746458 0.226611 -0.354707 0.471860 0.285533 0.434209 -0.524948 0.789553 -0.208949 0.508046 0.763999 0.303241 0.459068 -0.772003 -0.197306 -0.576601 -0.719899 -0.483810 -0.779281 -0.742450 -0.897156 -0.560266 -0.428376 0.638515 0.463022 -0.893687 0.918119 -0.750377 -0.870067 0.249378 0.297686 -0.531751 0.945660 0.646705 0.057665 0.587363 0.981108 0.829125 0.492744 -0.248460 -0.915584 0.669126 0.188398 -0.953692 0.872876 0.024082 0.583927 0.869167 0.292922 -0.237949 0.289728 -0.337234 -0.112140 -0.420928 -0.419967 0.968468 -0.859324 0.878367 -0.364196 -0.143571 0.018000 -0.906806 -0.812615 -0.468535 0.069939 0.265888 0.466405 0.738086 -0.402081 0.584913 -0.888264 -0.266680 0.500581 -0.989471 -0.567982 -0.395172 0.567000 -0.663100 0.812843 -0.324303 -0.670647 0.738836 0.601188 0.564945 0.461243 0.990173 0.066100 0.575484 0.557008 -0.914068 0.379390 -0.701308 -0.090266 0.007400 -0.379000 -0.902236 -0.513581 0.609367 0.856475 0.286612
-0.707057 0.541868 0.615275 -0.783885 -0.416913 0.365386 0.515447 -0.307863 -0.413038 0.903039 -0.901376 -0.914156 0.338729 -0.480916 -0.189807 -0.715310 -0.203486 0.709167 -0.006290 -0.958706 0.179474 0.538726 -0.300403 -0.450022 0.713801 0.862611 -0.382833 0.655356 -0.897328 0.202202 -0.455770 0.256979 0.957833 0.001616 -0.679817 -0.805050 -0.400326 -0.420590 0.889971 -0.900166 0.422099 -0.803929 -0.366130 0.658180 0.688780 -0.430916 0.936792 0.947172 0.351566 0.314984 -0.891926 -0.137099 -0.356617 -0.268115 -0.574869 -0.438469 0.226107 0.848583 0.929348 0.064342 -0.255718 0.161698 -0.558248 0.192048 -0.047279 0.125478 -0.080747 0.213553 0.849551 -0.093318 0.622848 -0.085486 0.888147 0.796002 -0.490668 0.123967 0.861976 0.796957 0.943142 0.555403 -0.586453 0.585900 -0.099818 -0.226087 -0.186338 -0.874030 0.950916 0.060058 -0.235420 0.142290 0.993697 -0.235000 -0.550350 0.951967 -0.478097 -0.042588 0.983755 0.238612 -0.965556 0.404647 0.411097 -0.737305 0.523727 0.935808 0.597139 -0.812603 -0.727295 -0.553840 -0.259044 -0.022072 -0.585542 0.044180 -0.109450 -0.572611 -0.853932 0.429328 0.483598 -0.944624 0.190246 -0.015014 -0.761777 -0.869863 -0.117849 -0.894693 -0.182460 -0.274701 0.436930 -0.837313
-0.673686 0.714845 -0.952581 0.398917 0.971570 0.241852 0.312905 0.313961 0.216542 -0.937986 0.793576 -0.776473 -0.894688 -0.565975 -0.163027 0.889641 0.287555 0.124505 0.454333 0.142565 0.101098 -0.527970 0.748017 0.518689 0.473383 -0.885249 0.542277 0.424453 0.682617 -0.022566 -0.935147 -0.275134 -0.797525 0.779465 0.203893 0.836447 -0.255647 1.005173 -0.354959 0.434342 -0.640959 0.122433 0.043381 -0.379662 0.830941 -0.293049 -0.941672 0.213179 -0.912346 0.235244 -0.037573 -0.221408 0.613686 -0.038594 0.283663 0.288772 0.168598 0.325863 -0.087414 0.236982 0.254278 0.234748 0.125762 -0.821331 -0.876518 0.698876 0.809593 -0.187982 0.749416 -0.351095 0.240069 -0.341316 0.632602 -0.038570 -0.695417 -0.472675 0.955692 -0.069302 0.037934 -0.219171 -0.050849 0.800153 0.133737 0.270459 -0.935119 0.984722 -0.979765 -0.843066 -0.405235 0.544693 -0.725296 0.696566 0.068828 -0.903868 -0.812232 0.895283 -0.234008 -0.015008 0.191698 0.273762 1.004811 0.003502 -0.962559 -0.672583 0.522595 -0.006196 0.857020 -0.055245 -0.112822 0.242026 -0.073746 0.770584 0.531372 -0.799255 -0.516222 0.468949 -0.784154 0.090377 0.415649 0.799493 -0.986478 0.222814 0.430070 0.353638 0.240097 -0.391281 -0.634380 0.842647
-0.937882 -0.368945 -0.880615 -0.356879 -0.105652 0.301134 0.882236 0.532194 -0.176665 0.115143 0.329132 -0.192490 0.801383 -0.591778 0.193237 0.064004 -0.879441 -0.548739 0.258316 -0.452968 0.892797 -0.152063 0.709558 0.056640 -0.501836 -0.005243 0.257326 0.656536 -0.198529 -0.594157 0.170235 -0.159995 0.755490 0.337515 -0.483177 0.195429 -0.200121 0.166050 -0.009921 -0.673933 0.754795 0.467038 0.555355 -0.750802 -0.260916 -0.599496 0.829368 -0.368157 0.116359 -0.690682 -0.437917 0.596349 0.947110 0.165640 0.526042 -0.937846 0.587442 0.999313 -0.240319 -0.219551 -0.196974 0.718108 0.953733 0.644853 0.271799 -0.164144 -0.260112 0.383193 0.207529 -0.867314 -0.095930 -0.541312 -0.456314 -0.286451 -0.017604 -0.821009 0.664687 -0.968058 -0.617591 -0.707148 0.982823 0.976826 0.744843 -0.407961 0.746713 -0.587264 0.718742 0.169436 -0.304659 -0.842852 0.873282 0.674066 0.895640 0.175921 -0.536091 0.904266 -0.747204 0.581526 0.149490 0.043789 0.152817 -0.008030 0.629155 0.483200 0.547643 -0.813829 -0.597132 0.043314 0.640487 0.878162 0.903151 0.457894 -0.472098 -0.429408 0.437837 -0.286512 0.788745 0.368933 0.970195 0.726760 0.941634 0.293913 0.719975 0.286595 -0.414055 0.139174 -0.796455 -0.460621
-0.697090 0.441982 0.606079 -0.661493 -0.587901 -0.890642 -0.616763 -0.032003 0.257627 -0.823117 -0.546820 -0.883471 0.845783 0.630435 -0.392826 0.416396 0.771533 0.822605 -0.523482 0.192657 0.584812 0.788137 -0.027564 -0.379535 -0.665569 -0.078910 -0.746339 0.848516 0.718146 -0.494099 -0.881945 0.528707 0.470901 0.587534 0.264956 -0.322955 0.719258 0.164107 0.709666 0.710518 0.137653 0.477850 -0.419992 0.796090 0.818688 0.273839 -0.632254 -0.451288 0.716838 -0.251231 0.907150 -0.248466 0.677632 -0.115320 -0.801791 0.686419 0.052174 -0.062994 0.433592 -0.264424 0.240914 -0.841819 0.902799 -0.720178 0.403326 0.576057 0.551756 -0.018855 -0.991412 0.409204 -0.780916 -0.203139 0.591252 -0.504159 -0.096244 -0.104042 0.605296 0.715451 0.934419 0.852294 -0.869521 -0.740179 0.344432 0.332455 -0.952067 -0.194678 0.865953 0.958460 -0.682689 -0.090377 -0.034961 -0.378413 -0.598182 0.843684 -0.561414 -0.461416 -0.584181 -0.738842 0.056095 0.729386 -0.984928 0.559301 -0.206621 0.808631 0.321841 -0.118412 -0.355610 -0.510703 -0.401870 0.680915 -0.273481 -0.106316 0.013386 0.603228 0.901984 -0.896067 0.006828 -0.341351 0.500948 -0.481869 -0.356333 -0.382242 0.944436 0.434129 -0.896662 0.707260 -0.542393 -0.985630
-0.555194 0.999528 -0.686050 0.558610 -0.070041 -0.325776 0.354750 -0.405094 0.986140 0.007916 -0.535300 0.810690 -0.010000 0.965902 -0.699383 -0.707282 0.635764 0.436277 -0.936876 -0.870595 0.194416 -0.137821 -0.993380 -0.830056 -0.936131 -0.057264 -0.156454 0.042572 -0.627776 -0.221597 -0.348322 0.440344 -0.597295 0.854545 -0.211703 0.136558 -0.953912 0.953877 0.106350 -0.906177 0.176199 0.936109 0.592509 -0.638949 0.800051 0.034647 -0.162598 0.912036 0.816495 0.306787 0.119619 -0.339221 -0.695543 0.349380 0.781028 0.949410 0.838363 -0.655613 -0.011441 -0.807993 0.732761 0.309060 0.548580 0.667266 -0.257555 -0.474432 0.511365 -0.094824 0.125131 0.192441 0.336933 -0.446123 -0.851919 0.020402 0.928938 0.172521 -0.874463 -0.830802 0.445535 -0.164110 0.030825 -0.883826 -0.450135 -0.878388 0.784006 0.537926 -0.383560 0.271120 -0.520785 -0.073584 0.286945 -0.463383 0.262089 -0.838823 0.546316 -0.797714 -0.625355 -0.222473 -0.354026 -0.684682 -0.606726 0.603829 0.460205 -0.528962 -0.430718 0.210783 -0.392551 0.987123 0.779625 0.875415 0.753382 0.044512 -0.392878 -0.662919 -0.374986 -0.795115 -0.695393 0.590737 0.525334 -0.139144 0.734821 -0.994753 0.576425 0.824399 0.585391 -0.669580 -0.145008 0.391511
0.858438 0.114396 -0.765672 0.874658 0.514955 -0.587320 0.064996 0.668291 0.795174 0.635281 0.194564 -0.245665 -0.302324 -0.679992 -0.446408 -0.442264 0.598467 0.644882 0.345721 -0.926795 -0.126490 -0.545164 -0.731368 -0.102500 0.014186 0.515353 -0.176996 -0.672922 -0.907755 -0.068898 -0.383767 -0.808595 0.770978 -0.189991 -0.632977 -0.206336 -0.984375 -0.209577 -0.533505 -0.221671 0.606486 -0.220732 -0.202209 0.384227 -0.750249 -0.754596 0.381596 0.822888 0.111505 -0.144518 0.382570 0.104064 -0.844160 -0.914237 -0.217669 0.700251 -0.776940 0.484132 0.959830 -0.823130 -0.528914 0.606465 -0.104207 -0.031835 0.180384 0.976568 0.008290 0.671542 0.308405 -0.774601 0.570178 0.481349 -0.193067 -0.886531 -0.235026 0.135257 0.119503 -0.783060 0.748204 0.183713 0.707367 -0.477816 0.829999 0.619513 -0.423305 -0.294290 0.619101 0.368462 0.973366 -0.803517 -0.379881 -0.785369 -0.153755 -0.154390 -0.806311 0.793177 0.183261 0.683452 0.072481 0.249250 0.747473 0.801922 0.044493 -0.596782 -0.851119 0.587855 -0.594916 0.954783 0.091231 -0.060479 -0.757680 -0.445737 0.775488 0.668310 0.229132 0.053507 -0.853507 0.151904 -0.512988 0.685928 -0.099472 -0.466756 0.442396 0.006644 -0.499273 -0.078949 -0.855278 0.840509
0.261826 -0.576403 -0.219626 -0.843721 -0.068526 0.730226 -0.758362 0.181780 -0.790336 -0.784464 0.572755 0.513367 0.221620 -0.860407 -0.891646 -0.791955 0.286264 0.406413 0.698260 0.262357 -0.975340 -0.799371 -0.561600 0.831452 0.878336 -0.809501 -0.727552 -0.472239 0.171163 -0.369424 -0.714324 -0.805645 -0.215616 0.847087 -0.770754 -0.962794 0.470482 -0.023732 -0.239570 -0.258001 0.917142 -0.414718 -0.955899 0.436456 0.207278 0.767401 0.613523 0.749786 -0.986936 0.210038 0.547691 0.779394 -0.835705 -0.633340 0.014051 -0.007955 -0.751267 -0.032327 0.866603 -0.420362 -0.086145 0.220591 0.684271 0.047144 0.654550 0.895875 0.832421 0.550749 -0.528719 -0.015453 0.747369 0.804038 -0.567231 0.847556 0.021475 0.442521 -0.477010 -0.931958 -0.461408 0.018576 0.446212 0.153990 0.274595 0.709589 -0.984832 0.494595 -0.845277 -0.455590 0.738902 0.982744 0.336616 -0.294057 -0.602217 0.984077 -0.199349 -0.659101 0.414014 -0.442588 0.910446 0.772323 0.283650 -0.940884 -0.068974 -0.459917 0.108999 -0.056017 -0.187015 -0.545763 -0.513354 -0.567729 -0.489926 0.291546 0.273272 -0.268347 0.165143 0.500746 -0.496160 -0.797496 0.020305 0.015180 0.602835 -0.194291 -0.733630 -0.370035 0.697282 0.939888 0.110917 -0.627686
0.469373 0.322053 -0.704477 -0.620947 0.315675 0.906391 0.246975 -0.132048 -0.589562 0.301968 -0.050776 -0.415098 -0.103124 0.680252 0.204447 -0.070741 0.831104 -0.018746 0.914329 -0.962809 -0.671354 -0.124391 -0.567060 -0.881052 0.186360 -0.055338 -0.560211 -0.123423 -0.399109 -0.866456 -0.687443 -0.057188 -0.338837 -0.421320 0.769708 0.038565 0.388584 -0.110171 0.606126 0.782078 -0.312593 0.955129 -0.316787 -0.832301 -0.987020 0.667514 0.598026 0.110849 0.360417 -0.459564 0.881763 -0.420329 0.416942 0.626800 -0.043154 0.706355 -0.026146 -0.616938 -0.933879 -0.896156 -0.368357 0.202494 -0.994872 -0.262635 -0.079463 0.947416 0.761293 -0.959777 -0.825349 0.558766 0.100960 -0.538396 0.012651 0.138886 0.783922 -0.623307 0.913505 -0.637091 -0.676978 0.820997 -0.361206 0.651370 0.096190 -0.510685 -0.073137 -0.883244 0.932591 -0.908663 0.367814 -0.561279 -0.240681 -0.692699 -0.179414 -0.062076 0.535022 -0.412392 0.013130 -0.703401 -0.547301 -0.626576 0.476449 -0.049078 -0.416016 0.754278 0.961954 0.434098 0.822721 -0.235482 -0.178096 0.800242 -0.236016 -0.689901 0.899117 0.275395 -0.531432 -0.359015 0.299651 0.825624 -0.265504 0.357093 -0.087791 0.067338 0.811038 -0.078795 0.270390 0.723947 0.254484 -0.696711
-0.141717 -0.318963 -0.013785 0.556487 0.999783 -0.830218 0.981687 0.054661 0.178633 0.068348 0.347096 -0.722855 0.533444 -0.694197 0.286935 0.251329 0.182331 -0.021633 -0.905846 0.029097 -0.274881 0.108509 0.940209 -0.053996 -0.715313 -0.994997 -0.549816 0.558320 0.102267 -0.910022 -0.899191 0.779825 -0.378513 0.942513 -0.950597 0.419618 0.852595 -0.560538 0.823317 0.547744 -0.360924 -0.443646 -0.722888 0.313382 0.512795 0.787956 0.595081 -0.385455 0.205915 -0.850347 -0.003867 -0.381285 -0.370173 0.852424 -0.288858 -0.321324 0.659668 0.212045 0.707919 0.725871 -0.187783 -0.793277 0.356254 0.847866 0.575855 -0.188297 -0.262258 0.070061 -0.214287 0.145762 0.960581 -0.878249 -0.806935 0.333832 -0.066268 0.384309 -0.067519 -0.041150 0.473827 0.506624 0.350979 0.186124 -0.400804 -0.799349 -0.163904 0.239349 -0.813002 0.775365 0.538756 0.464208 -0.882769 -0.675356 -0.973104 0.854064 -0.201301 0.954955 0.093689 0.497583 -0.395736 -0.253987 -0.107771 0.492750 -0.891362 -0.622695 0.390138 -0.309220 0.352953 -0.751087 0.685456 -0.536319 0.399535 0.738587 -0.284792 -0.533908 0.016261 -0.344561 0.015837 -0.539997 0.704541 0.028735 0.861881 0.839295 -0.586850 0.689109 0.546900 0.755029 0.441908 -0.371145
