-0.231020 -0.257052 0.959737 -0.804125
-0.020940 -0.330541 -0.565576 -0.951995
-0.144864 -0.009210 -0.292784 -0.039480
-0.960924 0.757562 -0.556827 -0.785455
-0.483282 0.296188 0.020256 0.062242
0.831858 -0.158142 -0.813817 -0.013075
-0.104642 0.742556 0.158319 0.393487
-0.217437 -0.236229 -0.964591 -0.024570
0.492141 0.270474 -0.422692 0.626987
0.565633 -0.591895 0.093141 0.152125
-0.715693 -0.510560 -0.928048 -0.779929
-0.004142 -0.408409 -0.756545 -0.319100
0.914500 0.407468 0.078982 -0.702400
-0.945750 -0.558429 0.654752 -0.321879
0.766997 -0.146526 -0.053435 -0.704851
-0.219992 0.149872 0.372089 0.463496
0.339587 -0.632641 -0.420696 -0.037455
-0.907274 0.272678 -0.893619 -0.294334
-0.302859 0.478049 0.955443 -0.871057
0.288821 0.452001 -0.339743 -0.517356
0.085570 -0.443114 0.400799 0.521437
-0.035219 0.346794 0.142270 0.796360
-0.819732 0.976177 -0.541456 0.723691
0.430512 0.050108 -0.736540 -0.297068
0.756790 -0.458531 0.291899 0.177819
-0.328214 -0.930312 0.291391 -0.384028
0.613431 0.580873 0.788543 -0.411612
0.606568 0.092645 0.107834 0.123589
0.363830 0.086287 0.276111 -0.317786
0.037958 0.969953 0.247329 0.253079
0.607797 -0.259204 0.381866 0.670365
-0.010299 -0.213537 0.822971 0.369316
-0.022575 0.541266 0.813985 0.067048
-0.697911 -0.663000 -0.100365 0.468385
-0.996323 -0.230478 0.029252 -0.400203
-0.629092 0.097432 -0.629116 0.787672
-0.587107 -0.689576 -0.980714 -0.761627
0.096175 0.834323 0.725991 -0.674235
0.712140 0.617924 0.979170 0.701875
-0.913922 0.836097 0.817980 0.964693
-0.088560 -0.839828 -0.759143 0.416314
-0.617340 -0.085509 0.609960 -0.927535
-0.665044 0.216242 -0.568942 -0.567284
-0.759194 -0.518093 -0.550374 0.663361
-0.121973 0.478872 -0.851060 0.209351
0.835115 0.696291 0.056615 0.081939
0.309245 0.776179 0.980108 0.483572
-0.753932 -0.260057 -0.753468 -0.280075
-0.064206 0.671735 0.769120 0.901419
0.820897 0.724555 0.820336 0.896687
-0.399794 -0.626575 0.822179 0.231314
0.541375 -0.282716 -0.704643 -0.289833
0.346420 0.183686 -0.202452 -0.877923
-0.586581 0.781171 -0.753524 0.229212
-0.946853 -0.387761 0.296433 -0.602374
0.184863 -0.452681 -0.034934 0.265026
-0.966227 -1.001752 0.276822 -0.609795
-0.609343 0.540000 -0.162555 -0.960623
-0.817777 -0.394906 0.929665 -0.228525
0.212041 -0.269107 0.873690 0.425322
0.128847 0.269732 -0.348581 0.350187
0.512414 0.731160 -0.562584 -0.629611
0.792859 0.251206 -0.502061 0.052799
0.637036 -0.891232 -0.335813 -0.113938
-0.415984 -0.606523 0.620597 -0.380826
0.269470 -0.012771 -0.354323 -0.445537
0.843523 -0.893479 0.987523 -0.218830
0.648702 0.723068 1.000775 0.040324
0.576678 0.886095 -0.936004 -0.402337
-0.109423 -0.297857 -0.155369 0.226065
0.761561 0.168023 -0.753153 0.011534
0.261341 0.615905 -0.608365 -0.345439
0.143970 0.362016 0.829512 0.496903
-0.880266 -0.515475 -0.765855 0.742045
-0.499204 -0.858259 0.471843 -0.724429
-0.228466 0.916977 -0.652162 0.182834
0.633505 -0.592642 0.360163 -0.104922
-0.501980 0.256662 0.738928 -0.074385
-0.814456 -0.269879 -0.639390 0.093201
-0.370531 0.425105 -0.170276 -0.959314
-0.785375 -0.025375 0.237329 0.219565
0.714517 0.395984 -0.675146 0.180936
0.154359 0.149079 -0.365594 0.469985
0.475394 0.375595 0.526189 -0.739633
-0.112364 -0.327431 0.579039 0.250386
-0.388785 0.302977 0.112567 0.765305
-0.485260 0.506213 -0.496648 -0.411878
-0.410006 -0.376411 0.151822 0.163395
-0.705848 0.414701 0.500088 0.805110
0.807801 0.400391 0.426652 -0.092705
0.850196 0.790627 -0.973602 0.518472
0.204487 0.952258 0.054711 -0.513301
0.582224 -0.432863 0.648521 0.507822
0.778922 -0.466694 -0.357760 -0.239931
-0.066630 1.025558 -0.476264 -0.485650
0.687519 -0.383587 -0.414923 -0.751481
-0.565759 -0.621896 0.371929 -0.578799
-0.718797 -0.222644 -0.959566 -0.062759
-0.903942 0.770588 -0.510896 0.845827
-0.767638 -0.278541 -0.816428 -0.395049
0.533916 0.971910 0.623621 0.616978
0.808985 -0.932242 0.230311 0.233355
-0.589159 0.959194 -0.219681 -0.787692
-0.017507 0.480680 0.878740 0.452936
-0.611291 0.164161 -0.609658 -0.318758
-0.753333 -0.404808 0.877767 -0.272456
-0.027499 0.789391 0.934366 0.176364
-0.819272 0.296477 0.785825 -0.422410
0.525184 -0.966798 0.787869 -0.244552
-0.473346 -0.179332 0.277916 0.716404
0.993960 -0.293671 0.309143 -0.449616
0.029673 -0.933042 -0.339050 -0.720856
0.571658 -0.191216 0.879702 0.942257
-0.148822 -0.723383 0.340821 0.571857
0.502412 0.710715 0.334521 0.199455
0.167491 0.694520 0.416813 -0.687093
-0.108920 0.746743 0.052948 0.571030
0.725284 0.041310 -0.878254 0.584963
0.838075 0.056954 0.479509 0.494269
-0.476116 0.373611 -0.397361 -0.242131
-0.049603 -0.377388 -0.333385 -0.736925
0.534566 0.155536 0.562898 -0.182953
0.240988 -0.593643 0.704589 0.337737
-0.820072 -0.586372 0.316093 0.601179
0.968123 0.228735 -0.194051 -0.158782
-0.136746 0.184953 -0.066026 0.158764
0.737665 -0.652166 0.931600 0.692127
-0.048397 0.049289 0.675303 0.800944
