-0.305485 0.152601 1.221722 -0.734261
0.133613 -0.375416 -0.698821 -0.513166
0.156893 0.186857 -0.347042 0.105199
-1.233687 1.107676 -0.676394 -0.369111
-0.716636 0.422913 -0.108706 0.506571
0.820435 -0.015644 -0.809831 0.282190
-0.092363 -0.034416 0.628433 0.536825
-0.046989 -0.216154 -0.797292 0.267934
0.733108 0.131298 -0.893032 0.426893
0.506722 -0.813798 0.380331 0.177024
-1.259499 -0.039158 -0.691324 -0.282414
0.149285 -0.410341 -0.292056 -0.437524
0.490473 0.295696 0.071821 -0.508786
-0.436655 0.253939 0.516427 -0.440336
0.781544 -0.669778 -0.025301 -0.620092
0.596743 0.257366 0.519089 0.085085
0.446239 -1.159541 -0.531529 0.235563
-0.985480 0.376705 -0.370683 -0.292929
0.104890 0.199306 0.909482 -1.130480
0.012985 0.273192 -0.082798 -0.577052
0.343504 -0.680771 0.096750 0.464659
-0.386841 -0.077641 0.388230 1.364422
-0.935498 0.781448 -0.657851 0.914465
0.489088 0.258470 -1.022091 -0.260138
0.537958 0.025726 -0.217178 0.120276
-0.617130 -0.494106 0.094322 -0.581725
0.381016 0.205930 0.691222 -0.496433
0.628098 0.130100 -0.045597 0.134803
0.323584 0.140861 -0.302950 -0.072761
-0.280876 1.043618 0.450985 0.163320
0.907527 -0.222309 0.037552 0.574475
-0.167624 -0.147560 0.992629 -0.141563
-0.120932 0.184451 0.892109 -0.038679
-0.843180 -0.623431 -0.003456 0.836875
-1.029590 -0.209140 -0.086486 -0.557804
-0.770455 -0.288707 -0.173413 1.105374
-0.384837 -0.319650 -1.503176 -0.384893
0.059175 0.829497 0.671259 -1.054526
0.536736 0.596358 0.554429 0.613772
-1.093004 0.669336 0.915878 1.102921
-0.631072 -1.119147 -0.831265 1.111237
-0.385767 -0.085463 0.523071 -0.677358
-0.894404 0.394092 -0.328394 -0.239638
-0.591797 -0.444818 -1.311560 1.084428
0.485231 0.356973 -0.216834 -0.069736
0.559737 0.911096 0.168587 -0.044004
0.288239 1.101602 0.991068 0.549632
-0.777019 -0.161285 -0.794024 -0.242894
-0.229515 0.741927 0.351975 1.082505
0.832548 0.710005 0.260750 1.106710
-0.199375 -0.480865 0.856988 -0.157957
0.718019 -0.361795 -0.661758 -0.488574
0.840088 0.425816 -0.186034 -1.587838
-0.704707 1.159692 -0.518676 0.217078
-0.552664 -0.141779 0.233577 -0.716483
0.191533 -0.234672 0.028354 -0.162152
-0.044547 -0.982884 -0.082215 -0.544165
-0.712466 0.935494 -0.164786 -1.092237
-1.026259 -0.674905 0.838572 -0.340180
0.618975 -0.318880 1.231548 0.144303
0.445262 0.144175 -0.621199 0.218789
0.570129 0.099356 -0.499743 -0.177205
0.501516 -0.123884 -0.306828 0.751361
0.713197 -0.661998 -0.686887 -0.447813
-0.537708 -0.265300 0.612251 -0.108743
-0.252431 0.374418 -0.006750 -0.268162
0.958174 -1.220732 1.173395 -0.372779
0.265660 0.311307 1.040178 0.046711
0.701631 1.159711 -1.099410 -0.564537
-0.272381 0.191116 -0.253740 0.263452
0.581062 0.132936 -0.363451 0.325995
0.255198 0.724319 -0.616225 -0.713618
0.224264 0.566056 0.676237 0.451099
-0.907645 -0.394751 -0.912010 0.803018
-0.309124 -0.845304 0.496434 -0.992197
-0.125284 1.226073 -0.851159 0.422923
1.124274 -0.241101 0.115201 -0.204503
-0.264114 0.208074 0.884752 -0.282979
-0.306342 -0.351593 -0.385956 0.074457
-0.165297 0.079020 -0.247990 -0.758034
-1.085488 0.033441 0.677816 -0.134018
0.989672 -0.103928 -0.449747 -0.255079
0.209951 0.498508 -0.789774 0.082883
0.998378 0.594878 0.735282 -0.793418
0.140979 -0.368101 0.489369 0.346565
-0.516941 0.638127 -0.032769 0.817973
-0.199395 0.165636 -0.268774 -0.271284
-0.297343 -0.201675 0.210802 0.155713
-1.019727 0.521434 0.544595 0.633983
0.750466 0.833156 0.353873 -0.411736
1.282897 0.798475 -1.446506 0.270183
-0.048329 0.783607 -0.255742 -0.521994
0.437606 -0.095260 0.176854 0.412296
0.681012 -0.768678 0.036730 -0.296679
-0.175241 0.863741 -1.070578 -0.139572
0.936499 -0.388281 -0.361776 -0.934037
-0.359411 -0.449985 0.317211 -0.687875
-0.353534 0.016631 -0.937122 0.041213
-0.661335 0.146670 -0.559956 1.017731
-0.761980 0.207590 -0.462307 -0.600260
0.309669 1.359917 0.276191 0.121865
0.986314 -0.925093 0.205692 -0.004813
-0.640394 0.933636 -0.177722 -0.881702
-0.599948 0.514572 0.959714 0.562225
-0.121262 0.031579 -0.372499 -0.490723
-0.741853 -0.364632 1.290885 -0.726343
0.360294 0.450698 1.143001 0.164598
-0.894359 0.270204 0.728592 -0.169213
-0.096919 -1.017378 1.352276 -0.114860
-0.264529 -0.288625 0.465959 0.764033
0.698421 -0.282126 0.149222 -0.147399
0.174335 -1.360698 0.326492 -0.561276
0.382032 -0.833996 0.753847 0.740770
-0.422466 -1.026182 0.424583 0.877326
0.628304 0.205941 0.143317 0.048490
-0.198355 0.839515 0.916927 -0.382467
-0.122111 0.587457 -0.144442 0.637574
1.285890 -0.585084 -0.977800 0.761987
0.772001 0.317490 -0.236722 0.615280
-0.636705 0.891201 -0.346947 -0.515383
-0.116858 -0.344043 -0.009593 -1.050546
0.080801 0.734664 0.043168 -0.530077
0.395093 -0.479053 0.853661 0.699677
-1.254543 -0.770060 0.360066 0.886816
0.638102 0.220276 -0.191079 0.047052
-0.212613 0.429208 -0.083269 -0.108497
1.060485 -0.959424 0.658336 0.646935
-0.278168 0.287623 0.825415 0.915165
