-0.616916 -0.528408 0.878066 -0.460119
0.619989 -0.516738 -0.402670 -1.200318
0.096094 0.058785 -0.394540 0.341866
-0.662244 1.143083 -0.705604 -1.350904
-0.663384 0.566642 0.269148 0.277826
1.210297 0.213782 -1.210152 -0.085851
-0.073100 1.119000 0.389423 0.630874
-0.134506 0.058559 -1.102076 0.114488
0.486188 0.449560 -0.907378 0.570675
0.197869 -0.425761 0.006166 0.338992
-1.137534 -0.183437 -0.453246 -0.566858
0.244459 -0.855603 -0.711003 -0.339314
1.035866 0.077926 -0.007943 -0.860989
-0.698581 -0.769771 0.457011 -0.161912
0.786062 -0.109042 0.240832 -0.686855
0.102450 0.447718 0.276506 0.480106
0.268669 -0.820963 -0.269799 0.246970
-1.176792 0.632094 -0.965450 -0.468720
-0.600315 1.276359 0.540608 -0.632467
0.239719 0.106254 -0.580939 -1.113190
0.025182 -0.674630 0.298794 0.762623
-0.352850 0.094171 0.168465 1.112759
-0.805004 0.710892 -0.906670 1.200096
0.777558 -0.244554 -0.690220 0.128988
0.416365 -0.154078 0.064541 0.613437
-0.999106 -0.876228 0.812940 -0.466415
1.126767 0.478625 0.760810 -0.669801
0.857145 0.335859 -0.217945 -0.688356
0.189385 0.778315 -0.058207 -0.593557
-0.353411 1.071536 0.182158 -0.323228
0.549145 -0.755987 0.522991 0.686859
0.044287 -0.254843 0.701384 0.041185
-0.089141 -0.138577 1.043450 -0.238936
-0.517199 -0.672021 0.282775 0.706835
-1.003875 0.312825 0.285565 -0.699897
-0.493380 -0.043285 -0.314981 0.402877
-0.920387 -0.027772 -0.700570 -0.514222
-0.090804 1.090022 0.467092 -1.101521
0.533947 0.515544 0.654834 0.676489
-0.250513 0.524039 0.510716 0.335529
-0.385070 -0.796661 -0.439790 0.455550
-0.149655 0.114175 0.432139 -0.244796
-1.132836 0.189731 -0.736775 -0.150191
-0.333118 -0.569990 -0.542405 0.716394
-0.394438 0.591318 -0.559045 0.283783
0.429614 0.872603 -0.125025 -0.163854
0.256070 0.474122 1.208250 -0.103552
-0.691219 0.048140 -1.097287 -0.362126
-0.664052 0.713747 0.401132 1.117230
1.084289 0.632065 0.904171 0.450290
-0.475822 -1.109416 0.920726 0.563610
0.237121 0.124951 -0.700523 -0.279841
0.586974 0.598109 -0.423172 -0.868971
-1.076114 1.258260 -0.522149 0.510320
-0.755265 -0.127632 0.753454 -0.629442
0.237512 -0.644231 -0.366851 0.094426
-0.683590 -0.993696 0.344275 -0.293154
-1.019236 0.664355 0.211944 -0.940191
-0.758545 -0.561748 0.719370 -0.546364
0.352097 -0.700104 0.631222 0.795015
0.106309 0.480953 0.140925 0.413289
0.421091 0.784864 -0.863561 -0.017278
0.755441 -0.164376 -0.701685 0.318471
0.896649 -1.436620 -0.100141 0.107030
-0.537892 -1.061264 0.674592 0.064716
0.014284 -0.415870 0.104244 -0.618301
0.692600 -0.418702 0.598141 0.106628
0.108886 1.101429 1.083995 -0.467102
0.980275 1.571465 -1.119735 -0.853307
-0.446167 -0.427835 -0.007895 0.488305
1.081873 0.039813 -0.721293 0.061004
0.128609 0.331389 -0.711604 0.025760
0.077409 0.234584 1.126496 0.355212
-0.363862 -0.293971 -0.937420 1.151187
-0.461280 -0.878104 0.503675 -0.352758
-0.302531 0.805933 -0.327006 0.424216
0.840612 -1.052325 0.641282 -0.332398
-0.549829 0.754260 0.735403 -0.232750
-0.301498 -0.395295 -0.665067 0.360725
-0.334313 0.434311 0.110600 -0.869181
-0.715355 -0.140015 0.225037 0.089593
0.819273 0.546001 -0.786979 0.039647
-0.293277 0.481819 -0.143222 0.339988
0.842190 0.696489 0.547413 -0.812839
-0.062986 -0.889659 0.605438 0.242900
-0.267921 0.173071 0.024344 0.977914
-0.492682 0.300976 -0.552789 -0.539046
-0.712208 -0.617430 0.615445 0.265556
-0.577590 0.368504 0.080304 0.803635
0.824518 0.497465 0.050901 -0.063673
1.369583 0.539731 -0.926583 0.020716
0.367071 0.685157 -0.040300 -0.671674
0.391993 -0.215597 0.555181 0.237520
0.463770 -0.168135 -0.266948 -0.901573
-0.504765 0.630770 -0.335903 -0.791825
0.995186 -0.127577 -0.336451 -0.796707
-0.497414 0.181179 0.741242 -0.484376
-0.690119 -0.036003 -0.669542 0.194048
-0.239023 0.512927 -0.584641 0.610715
-0.646215 0.033772 -0.821268 -0.273373
0.899267 0.815042 0.168139 0.550836
0.539556 -0.936702 -0.035788 0.218458
-0.345868 1.307878 -0.607506 -1.248346
0.010016 -0.006158 1.050845 0.529973
-0.440376 -0.288075 -0.652336 0.098588
-0.777315 -0.037479 0.700593 -0.650298
0.016304 0.684173 1.192660 0.062660
-0.936200 0.513007 1.029609 -0.620690
0.770106 -1.279267 0.642737 -0.877824
-0.549492 -0.038705 0.268312 1.138740
0.495603 -0.906387 0.180615 -0.417335
0.538943 -0.671330 -0.487246 -0.457711
0.113785 -0.924277 0.883768 0.756024
-0.439429 -0.654690 0.487419 0.909475
0.726379 0.929199 -0.043474 -0.118939
0.454359 0.446731 0.601395 -0.758914
-0.589487 0.708359 0.167301 0.640132
0.721490 0.074599 -1.092734 0.880179
0.455990 -0.208841 1.073846 0.284387
-0.350820 0.631521 -0.784342 0.125156
-0.569148 -0.328515 -0.395566 -0.516115
0.253537 -0.273507 1.063116 -0.562498
0.134567 -0.662966 1.006724 0.256507
-0.897241 -0.960933 0.293908 1.381513
1.119567 -0.067180 -0.141481 -0.690729
0.068694 0.390829 0.088487 0.254648
0.365210 -0.316868 0.305766 0.671722
-0.427955 0.111826 1.060805 0.680687
