-1.616512 -0.283712 -0.223826 0.696294
-0.134544 -0.544308 -1.505917 0.495962
0.440585 -0.104693 0.001483 0.493258
-1.657529 -0.053553 0.008125 0.758091
0.202319 -0.168340 -0.579390 0.851168
0.022064 0.468173 -0.176895 0.889376
-0.471224 -0.403200 -0.329353 -0.752251
-0.353854 -0.049618 0.773330 0.470703
-0.302228 1.057572 0.141081 0.407145
0.668250 1.092474 -0.031358 -0.782703
-0.214513 -0.240160 0.298722 0.351851
0.139501 -0.524854 -0.749087 -0.067705
0.079572 -0.606057 0.413332 0.258576
-0.309072 0.079282 -1.156535 -0.624942
0.782350 -0.387246 -0.140149 -0.640422
-1.339809 0.146515 -0.190840 -0.113233
0.185010 -0.350556 0.464868 -1.894732
-0.420562 0.030734 -1.386063 -0.751251
1.268433 0.525904 1.088663 0.491899
0.539327 0.244966 -0.498692 0.036976
-0.472971 -0.028129 -0.464509 -0.625566
-0.213770 -0.716963 0.664140 -0.701766
-0.532057 -0.373166 0.015996 0.076362
0.469418 0.131705 0.644226 0.616210
-0.093293 -0.457146 -0.228555 0.620009
0.850788 -0.421316 -1.355846 0.213904
0.613769 0.179706 0.408407 -0.166109
-0.289215 -0.952788 -0.412416 -0.598150
1.187275 -0.029230 0.102806 0.837273
-0.054308 0.743862 0.209527 -0.077963
1.403219 -0.897233 -0.378614 -0.115719
0.678427 0.131483 -0.524264 -0.162198
0.887431 -0.668649 -0.111032 -0.813024
-0.240526 0.204368 1.027868 -0.439917
0.502817 0.729032 0.225922 1.508804
0.933123 -0.892513 -0.063522 0.666080
-1.177109 0.395783 0.708854 0.352026
0.317566 0.884600 0.582232 -1.409389
-0.689370 0.968296 0.126873 -0.323724
0.390043 0.705542 1.122271 0.597952
-0.174353 -0.098749 0.089449 0.386642
-0.367389 0.790091 0.112346 0.724248
-0.385761 1.085632 -0.802267 -0.032434
0.098412 0.530988 0.288749 -0.995742
0.515450 -0.554804 -0.865490 0.340993
0.836609 -0.470225 1.578072 -0.468002
1.226759 -1.109182 0.456846 1.397051
-0.054254 0.365196 1.205686 -1.117120
-0.334831 0.611203 1.612000 -0.217239
-0.915550 0.150293 0.083847 -0.747925
-0.279668 0.094505 0.149401 0.185064
-0.507951 -0.669331 -0.412947 0.517116
0.785017 -0.097243 1.260332 -0.126088
0.286797 -0.132563 -1.076393 0.485196
-0.740649 0.000941 0.788270 -1.223394
-0.882575 -0.105047 -0.655655 -1.361943
0.450464 -0.506589 -0.740161 0.310324
0.209246 -1.838482 -0.096173 0.489000
0.999916 -0.184526 0.323926 0.589226
0.032395 1.258835 0.463697 0.184108
0.522152 0.264265 -0.473657 -0.092617
0.488363 -0.734552 0.424598 0.867624
0.218109 -0.169454 -0.866131 -0.143589
-0.387067 0.551212 -0.008716 -1.140413
-0.373466 1.082553 1.000554 0.884211
-1.204978 -1.373323 0.370033 -1.240782
0.204329 0.219716 -0.481461 0.899352
-0.599654 -1.142431 0.065113 -0.434761
-0.383519 -0.029511 0.355750 -0.862105
0.676806 0.739227 0.669955 -0.818970
-0.176163 1.242954 0.756598 -0.261829
-0.270151 0.103816 -1.177941 -0.464102
0.933428 -0.233596 -1.320695 0.897290
-0.594733 -0.618423 -0.679233 0.247707
-0.456300 1.050502 0.637476 0.537335
-0.543485 -0.080740 -1.420844 0.242891
-0.816679 0.025686 0.284967 -1.135646
0.262879 -0.543882 0.305372 0.172571
-0.780081 -0.516828 -0.226899 0.938012
-0.553836 0.211795 0.168126 -0.457120
-0.673575 1.052970 1.406564 -0.601761
0.940529 -0.257191 0.671501 0.310684
-0.268218 -1.182481 -0.305957 0.001869
-1.343545 0.888296 -0.764708 -0.286273
-0.117962 0.702286 -0.196310 0.258739
1.050314 1.585222 0.862786 0.437869
-1.122713 1.335990 0.170229 0.116905
-0.023730 -0.064227 0.152817 -1.073573
0.116411 -0.086974 -0.616755 -0.166248
0.331206 -0.109386 0.431581 -1.059109
0.541099 -0.553364 1.214596 0.161444
-0.638633 0.336586 0.552282 0.869662
0.151114 -0.524433 0.039773 0.169445
-0.611082 -0.952925 -0.502233 -0.459971
0.575660 0.140428 -0.109119 1.014955
-0.545073 0.807703 -0.622277 1.502421
0.938887 0.518089 -0.184041 0.014228
0.067629 -0.014212 0.135437 0.420317
-0.356197 0.511083 -0.102769 0.730973
0.812521 0.169834 1.180447 0.727982
