-0.521925 0.840799 -0.898975 0.219513 0.671045 -0.947032 -0.587058 -0.095779 0.481076 0.550364 0.576300 -0.375947 -0.697266 -0.715661 -0.383229 0.081336 0.226558 -0.198402 -0.483780 0.945582 -0.662929 0.424508 0.618580 0.664075 -1.061952 -0.501933 -0.153712 -0.048049 -0.705238 -0.146871 0.333283 0.974163 -0.790978 0.602980 0.351158 0.411322 1.081187 0.609894 -0.523604 -0.095093 -0.364837 -0.311935 0.784004 -0.978983 0.728932 -0.300309 -0.606617 0.155233 0.474610 -0.051144 0.621947 0.371841 -0.722608 0.190934 -0.694470 -0.792018 0.853923 -0.212473 -0.629149 -0.951379 -0.843323 -0.134248 -0.085127 0.995822 -0.109460 0.095718 0.130923 -0.176372 -0.827297 0.008157 -0.826633 -0.690637 0.856539 0.310256 0.803060 0.264046 0.449313 0.312023 0.534189 0.088726 -0.215796 0.624385 -0.602124 -0.027391 0.074918 -0.122352 0.849661 -0.835864 -0.267540 -0.562123 -0.904538 0.421838 0.594745 -0.021987 0.435819 0.835029 -0.622839 0.564258 -1.080271 0.491118 0.714868 -0.983037 -0.830252 0.567345 0.996765 0.293036 0.566919 -0.507460 -0.488467 -0.749384 -0.803899 0.289457 0.896179 -0.615224 -0.139892 0.640955 -0.374281 0.559109 0.632525 0.742908 0.889704 -0.495312 0.553913 -1.069257 0.882279 0.233330 -0.010490 -0.884260
0.958966 -0.403108 -0.809769 -0.872485 0.325436 -0.122304 0.925009 0.081087 0.521169 0.392784 0.246357 0.533216 0.797175 -0.438162 -0.279557 0.522588 -0.909010 0.029460 0.346643 0.778723 1.023104 -0.025515 0.806591 -0.992675 -0.763977 0.496561 -0.691250 -0.142056 -0.207628 0.744756 0.788833 0.773274 -0.706157 -0.014690 -0.618700 0.525406 -0.212474 0.047649 -0.101538 0.795976 -0.348889 -0.014917 -0.765795 0.310479 -0.297295 0.489106 -0.061937 -0.757630 0.511387 0.420475 -1.108574 -0.184063 0.624128 -0.792052 0.872229 0.058042 0.978755 -0.132433 0.173529 0.335108 -0.847925 -0.132203 0.380017 -0.264429 0.152986 0.742144 1.017569 0.551932 -0.685674 0.115144 0.589913 -0.455310 -0.045326 -0.332308 0.142744 0.211186 -0.432771 -0.732854 0.195836 -0.181852 0.688065 0.023285 0.654540 -0.145508 0.585932 -0.456994 -0.401041 -0.379155 0.264213 0.428189 1.041287 -0.668208 -0.858384 -0.695459 0.059002 -0.795181 0.665882 -0.576458 -0.964581 0.380118 -0.230830 -0.154718 0.379145 0.594980 0.750463 0.165230 0.659051 0.891740 -0.366710 0.776880 -0.348866 0.151303 -0.059879 -0.152790 -0.910598 -0.250513 0.307492 -0.074939 -0.039828 0.662026 0.364713 -0.617223 -0.801303 -0.184248 0.684112 0.865459 -0.246969 -0.690005
-0.022964 0.301343 0.894680 0.628534 -0.523955 -0.712650 0.738677 -0.914642 -0.641297 -0.028776 0.072845 0.922160 -0.654943 -0.750669 -0.060176 -0.808576 -1.192275 -0.052065 0.544791 -0.296560 0.726079 0.827448 0.681232 0.306864 0.225526 0.555341 -0.375753 -0.793690 0.682189 0.476392 -0.282598 -0.951001 0.706678 0.419591 -0.921035 0.141791 -0.536533 0.609671 -0.951400 -0.490505 -0.723731 1.172563 0.879455 0.914307 0.493385 0.431474 -0.640156 0.194701 -0.931434 -0.833390 -0.158719 -0.849261 -0.172799 -0.732370 0.208779 0.953363 -0.755285 0.273487 -0.215950 -0.227353 -0.194886 0.575952 -0.481078 -0.694857 -0.202270 0.777032 0.769426 -0.938650 0.598589 -0.103925 0.098258 0.602249 0.817768 -0.779489 -0.942696 -0.746109 -0.860339 0.720922 -0.776066 0.170693 -0.724331 -0.331444 -0.652373 -0.082466 0.921761 0.847488 0.024095 0.259871 -0.880344 0.504457 -0.083884 0.747020 0.036098 0.000962 0.590888 -0.088386 -0.234341 0.005675 -0.642114 -0.107506 0.347418 0.448011 -0.310689 0.048126 1.000999 -0.367650 0.989674 0.579768 -0.617129 -0.287821 0.552362 0.937840 -0.285372 -0.674015 -0.253268 0.464032 -0.481516 -0.416475 -0.317525 -0.038657 0.791339 0.268516 0.064813 0.691899 0.458964 0.893251 -0.675952 0.702277
0.848509 0.208538 0.320646 0.145145 -0.199294 0.743144 -0.122385 -0.199948 -0.672460 -0.244465 -0.867599 0.612673 -0.155683 0.121657 0.693865 -0.000683 0.692408 0.094926 -0.121998 -0.963617 0.096177 0.194596 0.453581 -0.035053 -0.647184 -1.093885 0.643216 -0.549534 -0.487534 -1.124582 -0.395390 -0.545957 -0.039020 0.390153 -0.577571 0.119990 0.119951 -0.020792 -0.832877 -0.282831 0.155175 0.597493 0.704744 -0.184036 0.463136 0.508050 0.854943 -0.487463 0.625466 -0.894170 1.135634 -0.229863 -0.351382 0.334627 -0.000162 -0.005063 -0.958134 -0.224893 -0.763024 -0.368597 0.860684 -0.350657 -0.285765 -0.371539 0.816118 0.602894 -0.982659 -0.384323 0.371463 0.707333 -0.513669 0.202294 1.138852 -0.667405 -0.359404 -0.186219 -0.118037 -0.360789 1.252441 -0.882714 -0.549318 0.337226 0.958288 -0.392545 -0.023064 0.569971 -0.589813 -0.890923 0.805216 0.742491 0.709107 -0.947487 -0.827159 0.221208 -0.346227 -0.272088 -0.578179 -0.952987 0.140002 0.366296 0.260202 0.182348 0.974544 -0.999703 -0.406164 0.143420 -0.229054 0.290087 0.133328 -0.676675 -0.970791 -0.126587 -0.783578 -0.681842 0.396732 0.028428 -0.662067 0.164911 -0.158944 -0.252476 -0.963115 -0.941985 1.096770 -0.948658 0.611760 0.808125 -0.593392 0.992887
-0.267430 0.236744 -0.017926 -1.084404 0.240519 0.979580 0.797896 -0.459727 -0.204168 -0.007123 -0.009938 -0.338384 0.652566 0.012229 -0.640120 -0.123713 -1.131571 0.089482 -0.212505 -0.297870 0.628145 -0.834924 0.479002 0.732208 -0.585456 0.405190 -0.750694 0.204731 -0.679249 0.950710 0.743153 -0.551901 -0.025541 0.469435 0.916074 0.602222 -0.250639 0.694637 -0.363008 -0.952927 0.581802 0.771545 -0.762148 0.084862 0.169555 0.315734 0.269783 0.584393 -0.754842 0.271847 -0.933532 -0.864889 -0.498320 -0.525738 0.745316 0.386471 0.946332 0.658989 -0.173871 0.793249 -0.614697 0.937201 0.438388 0.353898 -0.635060 -0.093341 0.181260 0.480026 -0.292046 -0.581355 -0.048086 -0.979302 0.057247 0.858031 0.033766 0.196385 -0.963137 -0.274536 -0.971711 0.984881 0.779666 0.653789 0.571734 0.572268 -0.637819 -0.218342 0.603429 -0.649001 0.679621 0.428534 0.667850 0.765652 0.304382 0.822925 -0.645424 -0.912861 -0.817991 -0.433995 -0.768256 0.547605 0.163131 -0.847407 -0.817901 -0.622984 -0.729930 0.137402 0.103355 -0.842582 0.759193 -0.968892 -0.961800 0.689078 -0.475592 -0.748498 -0.293646 -0.598745 0.153458 -0.430437 0.757771 0.341897 -0.314564 0.471267 -0.796110 0.377207 0.236173 0.048554 -0.353830 -0.106848
-0.481077 -0.119571 -0.065604 -0.924821 0.831814 -0.587123 0.065543 -0.483657 0.728675 1.074608 0.805366 -0.148945 -0.311000 0.226528 -0.039186 0.080251 -0.150645 -0.295833 0.106970 -0.812981 -0.611367 -0.138054 -0.197019 0.408436 0.528046 0.650295 -0.218060 0.864115 -0.304017 0.303811 0.481741 -0.257475 0.647397 0.221149 -0.478041 0.334527 -0.065372 -0.743869 0.660421 -0.115006 0.163866 -0.817765 -0.104045 -0.572296 0.200483 -0.531654 0.256081 0.262813 -0.289822 0.319639 0.423994 0.335022 -0.797565 -0.341807 0.241651 0.319489 0.477749 0.774007 0.811540 -0.434747 0.110656 -0.808498 0.597407 -0.474421 0.406456 0.219710 -0.061011 0.127323 -0.444445 0.657013 0.624094 0.308133 0.334461 0.367031 -0.817043 0.937953 0.002956 0.652700 -0.744359 -0.114383 -0.834069 0.448825 0.995477 0.894928 0.586644 -0.036458 -0.497466 -0.507638 -0.115756 -0.197616 0.241121 -0.952250 -1.066653 -0.060693 0.581458 -0.690171 -0.132449 -0.751959 -0.748908 -0.871097 0.010238 0.047705 0.209157 -0.080117 0.785054 0.677845 -0.053385 1.041151 0.979613 -0.213935 -0.074609 -0.096581 -0.999785 0.687727 -0.662304 0.153257 0.850689 0.562306 0.947666 0.874980 0.444740 0.850873 -0.648320 0.553931 0.414090 -0.924198 -0.932087 0.068103
0.509316 -0.632817 0.579007 0.205949 0.156818 -0.072215 0.074653 0.571208 0.799377 -0.463511 -0.173706 -0.020784 0.090863 0.186971 -0.350215 -0.046546 -0.225937 -0.102365 0.918550 -0.307198 0.154882 0.422644 0.564146 -0.202170 0.267012 -0.945394 0.139783 -0.864714 0.047106 -0.704916 -0.373962 -0.384278 -0.933040 -0.675731 -0.511836 -0.749542 0.969351 -0.798520 -0.970865 0.947569 0.939253 0.195064 0.286095 -0.827390 0.900631 -0.444195 -0.320872 1.094860 -0.957189 -0.622683 -0.614197 0.013455 -0.545569 -0.639512 -0.625648 0.244467 -0.520782 0.398935 -0.861182 -0.761238 0.480547 -0.116446 -0.099886 -0.933757 0.935132 -0.488404 0.249910 0.746374 0.148509 0.186804 -0.463355 0.859347 -0.285665 -0.222872 0.716035 0.481878 -0.040104 -0.177259 0.220828 0.009075 -0.146567 -0.202505 0.998035 0.864173 -0.382966 -0.394075 0.788904 0.245174 0.558822 1.016890 -0.321388 0.697943 -0.864886 -0.102556 0.600779 0.669301 0.061069 -0.897857 0.224124 -0.348469 -0.820915 -0.144954 -0.369493 0.608941 0.369482 -0.264898 0.365037 -0.275195 0.589216 0.614345 -0.258677 -0.481225 0.599419 0.648399 -0.091767 -0.973120 -0.019367 -0.673880 -0.817321 0.417417 -0.305206 0.721166 0.798713 -0.646107 -0.914608 -0.618615 0.000587 0.004591
0.951591 0.088772 -0.317207 -0.426230 -0.477380 -0.311112 -0.912834 0.589629 0.225526 -0.973880 -0.560798 0.855312 -0.422789 0.730779 0.108310 0.441601 -0.053759 -0.720949 0.861969 0.695166 -0.012227 0.653908 -0.344506 -0.215501 -0.861081 0.000114 0.629136 -0.015744 -0.881598 0.793927 -0.161323 -0.282572 -0.215236 -0.896484 0.043356 -0.272953 0.145740 -0.322645 -0.357611 0.336172 0.164592 -0.253756 -0.635014 0.600106 0.899692 0.909340 0.527436 -0.306525 0.479539 0.490669 -0.014932 0.615484 0.320977 0.380032 1.010376 -0.542142 0.019940 0.424645 0.844327 0.256700 0.557693 -0.652215 -0.001338 -0.142803 -0.908217 -0.865821 -0.060824 -0.323620 0.201599 -0.615454 -0.089627 0.902365 0.420649 0.969161 -0.194982 -0.043334 -0.313926 -0.228691 -0.785111 -0.071277 -0.313273 -0.149080 -0.576930 -0.116860 0.771878 0.330406 0.180927 -0.189784 -0.322582 0.266797 0.549483 0.173556 -0.700076 -0.819520 0.293204 0.892663 -0.771386 -0.037595 -0.783649 -0.680720 -0.341978 -0.036914 -0.660504 -0.224399 -0.340715 0.255024 0.786282 -0.576777 -0.278303 -0.923603 0.210117 -0.705035 -0.932358 -0.036176 -0.406574 -0.261444 0.894906 -0.018832 -0.927818 -0.825612 0.181631 0.152523 0.076130 1.103589 0.283691 0.625731 0.049782 0.549215
-0.554658 -0.879674 -0.384794 -0.070852 -0.546798 -0.118015 0.092488 0.213461 -0.066484 0.982979 -0.704796 -0.005756 -0.678719 -0.512550 -0.495988 -0.173558 0.575897 -0.575077 0.648711 0.989299 0.360091 0.760242 -0.963258 0.489495 -0.366106 0.632075 0.304449 -0.679690 0.164989 -0.314192 -0.088631 0.797228 -0.473114 0.377850 0.587662 -0.259746 -0.782075 0.311782 0.141997 0.481539 0.838494 0.562156 -0.882798 -0.961867 -0.924036 -0.359828 0.142077 -0.699690 0.771653 0.580449 0.743822 0.023595 -0.163271 -0.366695 -0.257066 -0.121504 0.302325 -0.123768 0.145533 -0.019813 0.288222 -0.015388 0.449519 0.660254 -0.435478 0.134120 -0.065196 0.434164 -0.375409 0.032833 -0.185474 0.822347 0.464836 -0.248745 -0.634065 -0.623187 -0.488863 -0.637491 -0.120757 0.061222 -0.862911 -0.222027 0.023815 -0.556750 0.138182 0.011792 -0.323221 -0.569556 -0.917234 0.664640 -0.027430 0.192038 -0.262447 0.926175 -0.325993 0.464056 0.605736 -0.403933 -0.107191 0.546835 0.196045 0.581405 0.522050 -0.739193 -0.075963 0.285696 -0.259681 -0.049201 -0.462004 -0.024293 -0.404490 0.666115 -0.562474 0.548974 0.155975 0.218949 0.280845 0.198387 0.268984 -0.931013 0.824639 -0.332971 0.724931 0.675434 -0.103303 -0.798585 0.789174 0.899970
0.420966 0.292823 0.675687 -0.008181 -0.456802 0.781779 0.009227 -0.904649 0.328806 0.105889 -0.933147 -0.165929 0.319466 0.594622 0.321862 0.226188 0.414804 1.010431 -0.956797 -0.675154 0.275758 -0.925487 -0.437523 -0.397136 -0.125978 -0.056506 -0.655810 0.387194 -1.058353 0.753133 -0.811497 -0.031028 -0.094929 -0.951969 -0.306555 0.820817 -0.680695 0.961020 0.590063 -0.650743 0.217731 -0.335968 -0.975592 -0.506741 -0.268001 0.452394 0.046662 0.898668 -0.053060 -0.023666 0.717062 -0.736376 -0.640078 -0.937216 -0.790675 0.114011 -0.086489 0.598886 -0.381021 -0.359640 -0.055264 0.317706 -0.701996 0.729312 -0.051337 0.076605 0.222687 0.408728 0.315459 0.881837 -0.911570 -0.268450 0.177619 -0.796193 -0.755084 -0.657584 -0.052292 0.425415 -0.907874 -0.131052 0.795297 -0.935465 0.109406 0.071921 0.385540 0.343969 0.568808 0.888743 -0.867924 0.379573 0.922280 -0.977953 -0.693299 0.066044 -0.955765 0.328643 0.071831 0.582977 -0.129911 -0.165987 0.547137 -0.728449 0.965909 -0.131855 0.906064 0.387840 -0.856746 0.647042 0.264177 0.728308 -0.507630 0.145543 0.401322 0.724816 -0.990767 0.980013 0.633673 -0.039647 0.572725 1.139170 0.005653 0.465369 0.613903 0.345814 -0.940140 -0.968013 0.106608 -0.471158
-0.419333 0.588666 -0.661436 0.883178 -0.915252 0.914377 0.591119 0.193166 0.969328 -0.843019 0.398261 0.872257 -0.927340 0.635700 -0.760941 0.303746 0.323890 -0.710497 0.417429 -0.403381 -0.142637 0.460705 0.693766 0.417922 -0.595136 0.801770 0.751085 0.902886 0.487976 -0.203874 0.313563 0.790181 -0.770943 -0.693792 0.516480 0.732875 -0.537704 -0.696516 -0.233461 0.264306 0.658896 -0.271662 -0.707811 0.314132 0.279102 0.358629 -0.505282 -0.913694 0.876637 -0.318087 -0.194399 -0.588636 -0.008373 0.134964 0.148165 -0.163415 -0.527485 -0.872638 -0.409285 -0.310488 0.957889 0.737111 -0.966623 -1.015097 -0.337983 -1.058707 0.443474 0.320991 0.639316 -0.188501 -0.238023 -0.941009 0.300893 -0.190429 0.298479 0.381672 1.000316 0.184130 0.073453 -0.106258 0.811156 0.676077 -0.135332 0.941034 -0.457602 -0.820211 -1.153654 -0.982442 -0.150372 -0.814633 0.589038 0.818951 -0.248774 -0.421473 0.328016 -0.921419 -0.593423 0.383843 -0.627348 -0.297319 -0.675040 -0.272531 0.001501 0.971460 -0.508866 0.619036 0.048488 0.823620 -0.198514 0.575858 -0.161037 -0.327994 0.356735 -0.775161 -0.602520 0.547998 -0.681128 0.655378 -0.206898 0.240855 -0.283706 0.150752 0.422936 0.052596 0.297164 -0.337528 -0.441401 0.317192
-0.689537 0.450769 -0.202289 -0.875417 -0.911712 -0.090432 -0.100864 0.070204 0.911633 0.850855 -0.287052 -0.393515 0.741016 0.763504 -0.516341 -0.787082 0.105334 0.556856 0.600156 -0.084362 0.494955 -0.702324 0.189991 -0.446445 -0.018971 0.725733 0.136144 0.772976 0.889270 -0.119205 -0.341700 0.150643 0.160616 -0.676143 0.342874 0.192386 0.582537 -0.314596 0.872782 0.012783 0.835423 0.773000 -0.282634 -0.952806 0.651305 -0.431230 -0.568645 -0.626635 0.713965 -0.199113 1.037449 0.701027 -0.233512 0.150730 0.030269 -0.840732 -1.012500 -0.790517 0.063891 0.869009 -0.107178 0.174110 -0.890431 1.125677 0.912411 -0.691890 -0.357353 -0.325142 -1.069163 0.093593 -0.951598 -0.449694 -0.654352 -0.070684 -0.306662 -0.612749 0.117239 0.763917 0.826914 0.933735 0.783929 -0.133508 -0.615429 -0.257888 0.086762 -0.489388 -0.258514 -0.473597 -0.165165 0.506516 -0.610651 0.215829 0.640715 0.892071 -0.857668 -0.640816 0.352934 -0.021090 -0.130669 -0.219465 -0.312530 0.734252 -0.002873 -0.521953 0.089567 0.138526 0.162608 0.869192 -0.200175 -0.227115 -0.493410 -0.727870 0.881115 0.137142 -0.601055 -0.046634 0.333156 0.715334 -0.915826 0.800082 -0.889227 0.693136 -0.197600 -0.130815 0.395081 -0.501831 0.782794 0.033493
0.639901 -0.758981 0.950148 -0.946503 0.146559 0.368348 -0.161639 0.460143 0.732814 -0.797150 0.678620 0.717517 0.912499 -0.002986 -0.734830 0.814829 0.513564 0.298290 -0.623964 -0.858437 0.316754 -0.417521 0.804307 -0.274256 0.249344 -0.886711 -0.269872 0.253592 0.459046 -0.676704 0.283022 0.651328 0.891751 -0.852447 0.060041 0.160129 0.499715 -0.176127 -0.311249 -0.620058 -0.290786 -0.856994 -0.583644 0.900355 -0.616691 -0.917547 -0.729708 0.705123 -0.986198 -0.135642 0.163136 -0.421125 -0.925159 -0.548019 0.828366 0.160353 0.463186 0.041087 0.341540 0.226341 0.047342 -0.807643 -0.706555 0.092538 0.479783 0.431449 -0.950058 -0.269096 -0.785846 -0.448461 0.748104 -0.125170 -0.511696 -0.000634 -0.031065 0.160064 0.662125 -0.609093 0.640100 -0.092996 -0.802785 -0.117813 0.105974 -0.345792 0.355002 -0.194937 -0.363313 -0.360116 0.187664 0.214567 0.594787 -0.194659 0.530343 -0.812003 0.928724 0.908499 0.662032 -0.108907 0.268650 0.822329 -0.537413 -0.084672 -0.244875 0.294353 0.083311 -0.911080 0.328573 -0.575680 -0.181113 -0.337705 -0.894037 -0.177361 0.988858 0.542203 0.373496 0.010851 0.672707 -0.360918 -0.593779 0.482221 -0.041147 -0.356528 -0.217924 0.174550 -0.707595 -0.238957 0.866848 -0.078223
0.641735 -0.244512 0.507605 -0.190649 -0.734251 -0.381480 0.312008 0.091747 0.326641 0.802927 -0.074977 0.616814 0.713715 -0.132454 0.348039 1.131519 -1.097379 0.690059 -0.059221 -0.985129 -0.706185 -0.151225 -0.586883 -0.170626 0.432048 0.072530 0.195663 -0.742548 -0.063787 0.681544 -0.729482 0.001625 0.804575 0.107909 0.436669 0.487752 -0.529846 -1.013227 0.248783 -0.993564 -0.281238 0.822279 0.531983 -0.682977 -0.639292 -0.949811 -0.847944 -0.951519 0.741624 -0.124575 -0.088603 0.535683 0.328431 0.688963 0.485954 0.615314 -0.181259 -0.853407 -0.734476 -0.639693 -0.098256 0.067784 -0.456485 0.695350 -0.272130 -0.288432 0.175836 0.977702 -0.445592 -0.817828 -0.327374 0.760149 -0.694177 -0.789957 0.621731 0.858716 -0.242433 -0.265795 -0.410835 0.800476 0.414495 -0.376768 -0.465681 -0.005112 -0.463016 -0.655060 -0.875669 -0.360244 0.559819 -0.562182 -0.512668 -0.366292 -0.694262 -0.700114 -0.179038 0.140644 1.100990 -0.515310 0.457919 -0.130745 -0.554181 -0.680031 0.484283 0.337727 -0.281619 -0.170117 0.387730 -0.772855 -0.774876 0.636730 0.990510 -0.355534 -0.282506 -0.702824 0.545041 -0.074248 0.962112 -0.443405 -0.773003 -0.335466 -0.210676 -0.636230 -0.274195 0.021152 0.388159 -0.727026 0.264577 -0.037084
0.359762 0.571891 0.883444 0.353831 0.206199 -0.769536 0.027186 0.609458 0.308864 0.747454 -0.259111 -0.149636 -0.332590 -0.613390 0.318949 -0.265785 0.767299 -0.885352 0.213149 -0.329321 0.195227 0.306769 -0.298353 -0.867712 -0.881927 -0.662295 0.545808 -0.585286 -0.124144 -0.105890 0.569834 -0.950233 0.874296 -0.218253 0.067513 -0.373618 -0.153762 -0.697290 -0.320510 0.656782 0.074732 -0.155928 -0.808345 0.964790 -0.230354 0.424687 -0.361339 -0.264615 -0.558411 0.412571 0.061019 0.311057 0.290120 0.354403 -0.169142 -0.533021 -0.730692 -0.733232 1.037764 0.120851 0.528994 -0.199927 0.402117 -0.474986 -0.747916 -0.616204 -0.107245 0.216973 -0.628923 0.905796 0.212100 0.632518 -0.620207 -0.258975 -0.396963 -0.151332 -0.276215 0.836465 0.865314 -0.665173 -0.133241 -0.261525 -0.270094 0.384778 -0.426642 -0.784099 -0.547733 0.958859 0.103038 -0.812066 -0.043172 0.172018 -0.729462 0.653522 -0.403536 -0.225341 -0.991140 0.135185 0.265964 0.501977 0.836160 -0.216779 -0.822823 0.811995 -0.881378 -0.164747 0.383444 -0.545205 -0.308262 -0.427506 -0.171025 0.573501 0.524593 0.187550 -0.232319 -0.963486 -0.227881 -1.033467 0.022056 -0.124320 -0.883079 -0.060386 -0.866674 0.875610 0.963517 0.227091 0.852526 0.900384
0.462334 0.240256 -0.202466 0.997830 -0.452933 -0.763982 0.963460 -0.039609 0.192293 -0.798959 0.545815 -0.753268 0.227555 0.684981 -0.026601 -0.013574 -0.684936 0.257844 0.770911 -0.987560 0.922630 -0.848981 -0.032509 0.698809 -0.345744 -0.437683 0.488369 -0.853019 -0.615453 -1.126468 0.063966 0.046952 -0.503288 -0.892502 -0.231206 0.410613 0.923039 0.631724 -0.504566 0.580092 0.847006 -0.620609 0.433183 -0.072392 -0.330808 -0.279329 0.524758 1.129293 -0.733397 -0.974720 0.920460 -0.852881 -0.392761 -0.314299 0.740403 -0.649296 0.804157 -0.410158 0.719606 -0.961608 -0.491878 -0.102818 0.742253 -0.305843 -0.665967 -0.613181 -0.451862 -0.509983 -0.086664 -0.396558 0.095636 -0.870170 -0.121178 -0.431782 -0.010224 -0.422797 0.761443 0.703576 0.525119 0.175622 0.883482 -0.007647 0.962784 -0.882038 0.856399 0.633256 -0.013491 0.032075 0.739789 0.021744 -0.340077 -0.145653 -0.517867 0.971385 0.344181 0.366365 0.704401 -0.439310 -0.580487 -0.703284 0.043003 0.268096 1.031369 0.431692 0.640134 -0.506879 0.103481 -0.027161 0.779370 0.707315 -0.693667 0.200787 0.026407 -0.406778 0.608208 -0.953185 -0.216635 -0.977577 -0.076368 -0.777057 -0.305791 -0.150546 -0.204145 -0.542710 0.663079 0.917143 -0.553350 0.853120
-0.313900 -0.620761 0.375931 0.648537 0.678403 0.015189 -0.675641 -0.076562 0.300571 -0.295774 -0.828739 -0.918817 -0.649204 -0.956721 0.613331 -0.967920 0.375144 -0.984581 0.557464 0.233913 0.779740 -0.238166 -0.810255 0.484769 0.466114 -0.768184 -0.646414 -0.925972 -0.567061 -0.512128 -0.785234 -0.405528 0.344383 -0.409001 0.511613 -0.653908 -0.032858 -0.210674 0.867397 -0.114830 -0.299764 -0.710797 0.362231 -0.207272 0.802307 -0.134614 -0.166225 0.116929 0.533653 -0.187911 0.991361 0.030804 0.704851 0.760127 -0.307364 0.696158 0.873498 0.434756 0.984577 0.609427 0.204472 -0.820164 0.605691 0.214625 0.690001 0.266769 -0.002876 -0.023481 0.657433 0.011960 0.086194 0.492221 0.664020 -0.399535 0.895788 0.713829 -0.948156 -0.396522 0.021448 -0.919955 -0.157872 0.197411 -0.263020 0.545348 -0.582906 0.798750 0.419270 0.226660 -0.367931 0.314166 0.280685 -0.829792 -0.007632 -0.267985 -0.565491 -0.752976 -0.045358 0.686698 -0.246402 0.017151 0.686911 0.500138 -0.507170 -0.134416 0.706109 0.993390 0.615852 0.358372 -0.503692 0.594929 -0.107089 -0.032526 -0.727982 -0.129541 -0.302852 -0.808870 -0.343704 0.813056 -0.279174 0.436052 0.524725 -0.481583 -0.218697 0.076407 -0.460393 0.533383 1.094155 0.839063
-0.985160 -0.418077 -0.708852 0.142999 0.858891 0.642454 -0.604260 0.839165 0.044267 -0.231430 0.292128 0.717909 -0.426587 0.393299 -0.370963 -0.620360 0.605338 0.174919 -0.068424 0.609935 -0.283564 -0.151217 0.359485 0.166499 -0.736030 -0.206434 -0.197762 0.711589 -0.074516 0.827438 0.545000 -0.776433 0.487567 0.440818 0.508824 -0.674996 0.958039 -0.452594 -0.666548 -0.979303 0.756526 0.328488 -0.683422 -0.648992 -0.493585 0.761132 0.235671 -0.374465 -0.714642 -0.906981 0.500469 -0.115552 0.005975 0.656492 -1.022099 0.489167 -0.882565 -0.755912 -0.817841 -0.201213 0.031667 0.222129 0.080372 -0.248498 -0.522288 -1.137991 -0.913435 -0.792345 0.132389 0.862207 0.881243 -1.008844 -0.711407 0.220472 -0.171111 0.409876 -0.099259 -0.296222 0.029653 0.441117 0.053325 0.673740 0.470331 0.004891 0.722830 -0.312369 0.595464 0.321731 0.901986 0.605213 0.908826 0.959606 0.419162 0.645194 0.563013 -0.877754 0.005293 0.340431 0.114906 -0.239013 0.757877 -0.786368 0.312661 -0.535383 0.280497 0.364181 -0.894046 -0.126169 0.790945 -0.459301 -0.270925 -0.245971 0.953210 -0.349615 -0.704585 -0.222441 0.226680 0.450687 -0.228349 -1.040519 -0.827283 -0.901358 0.074371 0.225276 -0.770750 -0.182681 0.435650 -0.346100
-0.769295 0.401994 0.899050 0.369883 0.343118 -0.546069 0.750428 0.147149 -0.569722 0.477181 -0.875709 0.753884 -0.074470 0.185701 -0.756183 -0.634898 -0.507872 0.052847 0.403628 -0.465675 -0.962107 -0.701704 -0.959088 0.965246 -0.767732 -0.918099 -0.857705 -0.367726 0.123135 0.030771 -0.798129 -0.569872 0.178428 -0.693042 0.483361 1.066709 0.802755 0.227218 0.184744 0.784886 0.780661 1.152800 0.514850 -0.113264 -0.921197 0.534542 0.660869 -0.762400 -0.671404 -0.179481 -0.873958 0.418244 0.559108 -0.283026 0.482701 -0.606548 0.731530 0.806367 0.910909 0.936129 0.881740 -0.022118 -0.086331 0.402998 0.458257 0.956606 0.796272 -0.510148 -0.884474 0.817424 0.807436 -0.082426 -0.370500 -0.582329 0.444863 -0.037834 -0.695756 -0.661989 -0.614850 0.179698 0.995230 0.559173 0.933250 0.623300 0.325910 0.294101 -0.021654 -0.051087 1.075540 -0.699478 0.255135 -0.191490 -0.327725 0.926853 0.866248 -0.504122 0.296193 -0.091418 0.843333 -0.482587 -0.661293 0.791044 -0.055377 -0.301862 -0.921894 -0.708086 0.731264 -0.550413 -0.017121 0.138527 -0.541931 0.497325 -0.103187 1.014841 -0.566359 -0.377482 -0.168200 -0.865687 1.042861 -0.929167 -0.262529 0.154683 0.093818 -0.068555 0.291909 0.802923 0.165837 -0.662648
-0.529327 0.601603 0.236642 -0.458198 0.460203 1.007775 -0.207563 0.938321 -0.217724 -0.639110 0.447896 -0.761348 -0.588368 0.213170 -0.421919 0.173418 0.075386 0.421808 0.868135 0.103179 0.067433 0.162275 -0.831488 0.747741 -0.532303 1.040439 0.034191 0.098045 -0.758203 1.011449 -0.728474 0.267359 -0.273292 0.931239 0.709802 0.536221 -0.352788 -0.100280 0.015898 0.212522 -0.346795 0.463518 -0.024423 -0.461159 0.320863 -0.058883 0.259708 0.239825 -0.417226 0.496643 0.668080 -0.818007 -0.429055 -0.458922 1.009925 0.413347 -0.111067 -0.289261 0.599397 -0.419509 -0.118810 -0.970081 -0.338157 -0.814412 -0.744499 -0.943812 -0.456537 -0.473610 0.509223 0.884422 -0.598548 0.531370 0.048229 -0.679158 -0.401151 0.689545 0.064258 0.490334 0.138025 0.730670 -0.908650 -0.897410 -0.434508 0.633043 0.686307 0.886889 0.784413 -0.250849 -1.062920 0.042458 0.586421 -0.958461 0.854395 0.407438 -0.745617 -0.294587 -0.110897 -0.206242 -1.029917 0.610926 0.489727 0.928375 -0.035370 -0.904792 0.584195 -0.486706 0.519891 -0.889025 -0.069876 0.110727 0.263240 -0.362233 0.764048 -0.189056 -0.109363 0.522744 0.230410 0.316120 0.559767 -0.407965 0.399392 0.362339 -0.721056 -0.125420 -0.254915 0.430580 0.040958 -0.827968
-0.649019 -0.105251 -0.502312 0.465005 -0.440584 -1.062058 0.334442 -0.351807 -0.521833 0.070951 -0.868700 0.791161 -0.108652 0.145839 0.400084 0.598805 -0.327653 -0.191761 0.641948 -0.771548 0.217546 0.052571 0.566594 0.411692 -0.397574 0.742662 0.168616 0.139172 0.695107 -0.485177 -0.837364 0.516221 -0.329438 0.664012 -0.201865 0.633207 -0.138080 -0.129715 0.093900 0.966768 -0.722908 0.513418 -0.265733 0.452132 -0.762795 -0.932995 1.019926 0.312509 0.076330 -0.897993 0.099356 -0.029282 -0.416264 -0.396075 0.159934 -0.299167 -0.331692 0.390491 0.734345 -0.793950 -0.511814 -0.696969 0.300677 0.871515 -0.100691 -0.191369 -0.258246 0.372422 0.376325 -0.058444 0.339748 0.399817 0.094023 -0.748133 0.560379 0.113237 0.760533 -0.835124 0.749003 0.116213 0.479507 0.815850 0.020227 -0.397963 0.655778 -0.659754 -0.209786 0.892724 -0.378964 -0.030894 0.882423 -0.977172 -0.598418 -0.918277 0.948022 -0.138776 -0.921093 0.463010 -0.228249 0.463619 -0.241876 0.651301 -0.852676 -0.185892 -0.568828 -1.071911 -0.877173 0.805672 -0.899706 0.800218 0.818316 -1.108677 -0.770253 -0.016577 -0.743183 0.181907 0.073052 0.292475 0.250001 0.999071 -0.725332 0.438539 -0.153161 0.165102 -0.636186 0.455094 -0.562963 0.508394
0.391190 -0.310523 -0.711507 0.289797 0.417745 -0.421269 -0.849353 0.080907 -0.001772 -0.011311 0.324729 -0.024593 0.355452 -0.641798 -0.068745 -0.557920 -0.880807 -0.140966 1.005129 0.385813 0.718383 -0.489486 0.132303 0.720988 -0.059120 -0.647272 -0.045417 -0.723739 0.661459 -0.369457 -0.385339 0.142748 0.586492 -0.068492 -0.446557 -0.076127 -0.828106 0.276740 -0.399963 0.369082 -0.158281 0.985070 -0.781928 -0.912197 -0.179143 0.011173 0.247435 -0.060302 0.900503 -0.403478 -1.001488 -0.880703 0.020597 0.173043 -0.162587 0.935064 -0.903423 -0.070081 -0.742383 -0.849974 -0.329690 0.869800 -0.723805 -0.435856 -0.747956 0.140986 0.312765 -0.139265 -0.353293 0.865378 0.750062 -0.131621 -0.512368 0.154268 0.528439 0.301400 0.151821 0.782654 -0.992960 0.137119 0.429073 0.566446 -0.424683 0.160796 0.370409 -0.837679 0.035311 0.988316 -0.033430 0.476615 -0.941778 -0.656362 -0.499328 -0.021922 0.456017 -0.998624 0.176834 -0.865697 0.586257 0.305505 0.062852 0.874506 -0.869168 0.865093 -0.626858 0.557076 -0.949656 -0.406809 -0.200486 0.467685 0.601944 -0.894879 0.202431 -0.069071 0.803748 0.891834 0.631287 -0.317126 0.276292 -0.430975 0.810772 0.674681 0.557949 -0.944129 0.792762 -0.662083 0.576323 -0.000020
0.708614 -0.522184 0.396396 -0.929923 0.921368 -0.257680 0.762341 0.810260 0.034689 0.578493 -0.429448 0.641096 0.971404 1.088553 1.086533 -0.458473 0.567476 -0.284491 -0.196414 -0.495645 0.762569 0.373198 -0.555134 -0.063080 -0.758226 -0.317259 0.063259 -0.253617 -0.277973 -0.509599 -0.491244 -0.955087 -0.550865 0.430751 0.037988 0.515561 0.496246 -0.029328 0.524396 -0.875063 -0.044576 -0.839249 0.850136 0.263295 -0.654283 -0.577022 -0.894862 0.605318 -0.080895 0.773358 0.520145 0.374342 0.017536 -0.802635 0.618193 -0.382233 0.628806 -0.275445 -0.368162 -0.815332 -0.013138 -0.395593 0.814824 -0.823079 0.723860 -0.823224 0.354914 -0.877774 0.803558 -0.949466 -0.835088 0.511820 0.814364 -0.378422 -0.822961 -0.992945 0.706439 0.267817 -0.268484 0.544383 -0.249768 -0.298403 0.266625 -0.794096 -0.824332 -0.327593 -0.772582 0.109829 -0.706993 -0.160432 -0.287324 -0.450185 0.526041 0.454651 -0.716721 0.801307 -0.753326 -0.888024 -0.758074 0.714085 0.792126 -0.315873 0.788026 -0.732416 0.242845 1.090029 -0.633320 0.080472 -0.142012 -0.242107 -0.209247 0.988894 -0.454404 -0.892137 -0.227598 -0.345684 -0.239321 0.921657 -0.715926 0.232011 0.006753 -0.354284 -0.516830 1.029170 -0.757522 -0.803954 0.828342 -0.718575
-0.462954 -0.583962 0.748627 0.389766 -0.955892 -0.977820 -0.423136 -0.605779 -0.103703 0.856658 -0.522629 -0.851916 -0.021104 -1.005008 -0.429226 -0.527436 -0.034487 0.198399 0.341995 0.396339 0.450408 -0.153946 0.997535 0.986886 -0.674908 0.477337 0.108089 0.448712 0.666908 0.769077 -0.253474 0.996902 0.289700 -0.447235 0.768366 0.263939 0.033045 0.725970 -0.239996 -0.418730 0.615585 -0.942716 -0.278995 -0.273542 -0.930037 0.375008 -0.204282 0.003125 0.518604 -0.719607 -0.590497 0.086972 0.124872 0.960342 0.482349 0.392763 -0.687394 0.170108 0.120149 -0.765518 -0.143878 0.443684 0.906226 -0.265118 0.370409 -0.693063 -0.962478 -0.246533 -0.571094 0.927461 -0.276185 -0.727180 -0.877095 0.483202 0.813683 0.692769 0.321419 0.790494 -0.561380 -0.926069 0.430390 0.686850 0.022383 -0.040229 -0.035905 0.355223 1.134464 -0.708135 0.515553 0.333268 0.585146 -0.344670 -1.005273 -0.262553 0.484637 0.331685 -0.024933 -0.399545 -0.702238 -0.272648 0.297480 -0.430183 -0.871392 0.468723 0.273606 -0.805757 -0.817169 -0.051482 -0.640310 0.804531 -0.572931 -0.714464 -0.218286 0.003346 0.839558 0.515803 -0.906549 0.215783 -0.160891 0.781735 -0.754657 0.361250 -0.478507 0.650281 0.326730 -0.934854 -0.976983 0.463675
0.702952 -0.425753 0.595255 1.032426 -0.820884 0.272706 0.899508 -0.777571 -0.019204 -0.249742 -0.768032 -0.429687 0.434544 -0.954978 0.944648 -0.717175 -0.003690 0.143079 -0.251621 0.976421 0.780918 0.891909 -0.250712 0.906595 0.811125 0.287701 -0.715994 -0.084684 0.868496 0.084524 0.525395 0.905885 -0.870586 -0.134818 -0.656296 -1.269253 -0.043290 -0.339555 0.449094 0.321182 -0.151311 -0.609787 0.659297 -0.102786 0.636741 0.762854 0.713675 0.695958 0.086477 0.495765 0.293517 0.326604 -0.053790 -0.065538 -0.383834 0.290226 0.668347 0.814376 0.262154 0.144408 -0.341131 0.879539 0.799430 0.402684 0.587167 0.527275 -0.783686 0.513475 -0.207291 -0.747726 -0.601262 0.233083 -0.246496 0.732292 0.793660 0.258340 -0.811047 -0.294012 0.502537 1.001941 0.984519 0.050906 0.216672 -0.898373 0.963333 -0.417735 0.427989 -0.177686 0.925002 0.043186 0.636617 -0.498411 -0.060244 -0.665883 -0.327270 -0.138487 -0.612682 -0.845000 -0.453386 -0.291519 -0.367833 -0.348250 0.663552 -0.463106 0.116677 0.714501 -0.939809 0.898746 0.128631 -0.838265 -0.363521 0.159919 0.436274 0.748294 -0.309054 -0.644722 -1.108120 -0.725693 -0.281823 -1.012645 -0.751199 0.842129 -0.514863 -0.467832 0.536927 0.336050 -0.518189 0.783320
-0.696631 0.948426 -0.867773 -0.599415 -0.226514 -0.686531 -0.384759 -0.850353 -0.858974 0.145999 0.258630 -0.288191 -0.325402 1.056220 0.719214 -0.677796 0.687327 -0.294166 -0.497998 0.710238 -0.283886 0.327941 0.070057 -0.182992 -0.377146 1.096039 -0.044265 0.827026 -0.059274 -0.458440 -0.839198 0.682626 -0.362013 0.006468 0.480431 -0.720302 0.410431 -0.309021 0.451932 0.066687 0.194931 -0.815885 0.324311 0.199658 -0.709171 0.413023 -0.790186 -0.660817 -0.956391 0.982305 -0.039822 -0.513680 0.732244 0.427905 0.221146 -0.341618 -0.603488 0.457297 0.437247 -0.002433 0.023263 0.237077 0.863644 0.738978 -0.960439 0.262238 0.623725 -0.363682 -0.366359 -0.220184 0.433747 -0.077831 0.439350 0.135358 0.608720 0.261782 -0.742848 -0.621147 0.908510 0.225676 0.284927 -0.357762 0.123619 0.238199 -0.066936 -0.409762 -0.243269 -0.999933 0.437208 -0.159035 0.525920 -0.831637 0.639156 0.269263 -0.892666 0.619191 0.788876 -0.062452 -0.394508 0.661734 0.241476 -0.062559 0.142010 -0.290002 0.808761 -0.557920 -0.339918 -0.135914 0.530521 0.163527 0.369287 0.131582 0.521823 -0.034303 -0.794599 0.674715 -0.533589 -0.777396 0.694625 -0.814975 -0.641082 -0.843119 -0.078501 -0.862908 -0.400169 0.229160 -0.380218 0.759031
-0.431352 -0.729020 -0.047854 0.787392 0.337703 -0.714508 0.928530 0.058505 -0.282263 0.672884 0.707108 -0.506588 0.803050 -0.073842 -0.925572 -0.619449 0.066690 -0.543300 0.530488 0.253321 -0.989450 -0.293962 0.188883 -0.004687 0.765229 0.319353 -0.530450 -0.312675 0.368102 -0.772825 -0.692756 -0.256566 0.968817 -0.981543 -0.111380 0.640092 -0.291537 -0.857309 -0.575918 0.053462 -0.407968 -0.440413 0.307283 -0.915225 -0.555771 0.582491 -0.455610 0.087341 -0.692919 0.959808 0.645193 0.212874 0.576507 0.208464 -1.041643 -0.060762 0.535912 0.598912 0.024134 0.035737 -0.832022 -0.565539 -0.747214 0.443981 0.366398 -0.219938 0.099055 -1.091234 0.639024 0.006871 -0.836524 -0.844366 0.431194 -1.107448 -0.831811 -0.688912 -0.421400 -0.116533 0.121689 0.304953 -0.080673 0.181996 0.497672 0.477196 -0.642050 -0.785311 0.856213 -0.737428 -0.787353 0.328755 0.840580 0.672074 -0.439641 0.446406 0.434695 -0.951010 0.782866 0.465680 0.191174 -0.202056 -0.725937 -0.593394 0.242722 -0.046403 -0.679950 -0.910393 0.017302 0.022627 0.969277 -0.880046 -0.364738 0.765944 -0.180926 -0.657368 0.244337 0.044829 0.088034 -0.748258 -0.705010 -0.269788 -0.127827 -0.609624 -0.612750 0.772964 0.043801 0.171712 -0.283568 -0.540037
-0.956771 0.979286 0.631239 0.354339 0.056945 -0.414698 0.187956 0.999535 -0.454987 -0.497107 0.624871 0.463841 -0.144877 -0.888378 -0.683096 -0.553975 0.685995 0.743384 0.446820 0.896689 1.053037 0.134697 -0.808667 -0.985110 0.560417 0.346907 -0.639175 0.962222 -0.124833 0.209763 -0.573501 0.665442 -0.272102 0.067434 -0.737953 0.916957 -0.559099 -0.517636 -0.574024 0.430963 -0.956889 0.234527 0.827919 0.336664 -0.010454 0.540411 0.646023 0.137001 -0.989044 0.393272 -0.026233 0.937316 0.776148 0.320980 -1.005836 0.209201 0.151744 0.758913 -0.711259 -0.209662 -0.479708 -0.839083 -0.259796 0.032671 -0.943221 -0.827175 0.624538 0.764843 -0.743698 -0.412170 0.565472 -0.399464 0.425162 0.392471 -0.743492 0.396583 0.072206 0.650028 1.035121 -0.483016 0.696692 -0.382374 -0.846116 -0.893392 -0.205182 -0.123709 -0.337998 0.811184 -0.686027 0.926282 -0.149956 -0.043639 -0.071520 -0.380294 -0.955031 -0.172599 -0.577168 0.782278 -0.774228 0.042560 -0.339189 -0.621916 -0.730446 -0.496809 0.236355 0.386990 -0.795329 -1.065805 -0.232418 -0.232112 -0.910605 0.311919 0.671396 0.429129 -0.985093 0.602415 0.013013 0.455905 0.717499 -0.808495 -0.180261 0.529062 -0.460745 0.284036 -0.714247 0.195204 -0.550111 0.592718
0.696350 0.053108 -0.582771 -0.369794 0.497864 0.962771 0.324699 0.208928 -0.207265 0.828279 -0.894521 0.016940 0.410014 0.739299 -0.071817 -0.775388 -0.257039 0.405130 0.408971 0.717920 0.773092 -0.893618 0.008222 0.485766 -0.186174 -0.130913 -0.625090 0.639765 -0.223456 -0.125117 0.276926 0.512767 -0.816088 -0.558945 -0.140508 0.972113 -1.065110 0.917014 -0.988787 0.529442 -0.737472 -0.499462 0.765742 0.890159 0.359056 0.461495 -1.075288 0.770959 -0.728233 -0.844675 0.236916 0.925448 -0.669350 0.766168 0.737406 -0.695505 0.753330 0.332555 -0.443332 0.061004 -0.411597 0.545804 0.648882 -0.062135 -0.255511 -0.778099 1.205106 -0.182234 0.594956 0.853823 -0.512351 -0.558636 -0.316244 -0.788814 -0.231358 0.503550 -1.100741 0.292112 -0.206570 1.051720 -0.550516 -0.362953 -0.015167 0.296555 0.286308 0.323540 0.450506 -0.325973 -0.227653 0.376296 -0.862662 -0.830267 -0.956879 -0.709757 -0.924803 -0.738592 0.267055 0.611515 0.327871 -0.785638 0.970392 -0.745170 -0.863587 0.223661 -0.490417 0.316577 -0.080033 -0.788258 -0.621903 -0.346416 -0.242019 -0.222641 0.403187 0.065132 -0.145527 -1.044735 0.710164 -0.374993 -0.654470 0.848196 -0.944675 0.258914 -0.180893 0.167122 -0.713204 -0.771115 0.139069 -0.609990
0.436304 -0.058557 0.856917 -0.411902 -0.735234 0.023900 -0.156683 0.094130 -0.402906 0.937654 0.039417 -0.185088 0.466326 0.352050 0.853942 0.221604 0.745872 -0.215670 -0.268651 0.500253 0.707032 -0.822935 -0.520183 -0.506584 0.040700 -0.598239 0.255134 -0.710441 0.404456 -0.298922 -0.179274 -0.631906 0.410357 0.496116 -0.030936 0.165296 0.442847 0.153624 0.110523 -0.142124 -0.180330 0.150351 -0.419109 -0.909421 0.393859 -0.766767 -0.514291 0.139536 -0.980765 -0.045882 0.005952 0.929009 0.075116 0.118024 0.674461 0.674441 -0.903935 -0.674021 0.470637 0.468994 -0.673260 -0.246508 0.270582 -0.480718 -0.822784 0.379077 -0.914235 0.771380 0.291037 0.303289 -0.125933 -0.071477 -0.031324 0.294825 0.381403 0.636911 0.769036 -0.914985 -0.416375 -0.092556 0.971626 -0.574911 0.723821 -0.117345 0.055204 0.834770 0.564595 -0.647503 -0.421961 0.604909 -0.105877 -0.549410 -0.721095 0.031069 0.584212 0.104578 0.521247 0.569624 -0.497308 -0.603794 0.347912 0.392832 -0.254186 -0.637299 -0.415249 -0.007995 0.047298 0.850434 0.773208 -0.679470 -0.286911 0.528153 -0.365938 0.101230 0.117373 0.482158 0.838279 0.518344 -0.121706 0.363981 -0.137680 0.917365 0.201992 0.515526 0.987814 0.562485 -0.379315 -0.279509
-0.975648 0.419683 -0.222661 0.746372 0.909292 0.476148 0.972446 -0.688824 0.370905 -0.700602 0.695083 0.676484 -0.901253 0.053657 -0.234673 0.361976 -0.022680 0.719396 0.084789 -0.018646 -0.184733 -0.615135 0.147482 -0.550017 -0.334214 0.724652 0.218115 0.607027 0.344506 -0.383332 0.275128 0.085296 -0.032781 -0.224792 0.161066 0.641179 -0.469326 -0.591765 -0.892264 0.318832 -0.858374 -0.775323 -0.545199 0.094803 0.831830 -0.151151 -0.142724 0.790026 0.960081 0.692624 0.569152 -0.115753 0.863763 0.390662 -0.087586 -0.512448 0.385972 -0.244045 0.786249 -0.815550 0.364757 -0.166846 0.701952 -0.924575 -0.657774 0.768194 -0.972432 0.608849 -0.780028 -0.579759 0.697281 0.265382 -0.745216 -0.992702 -0.872506 0.057222 -0.188653 -0.419823 -0.582014 -0.016245 -0.422610 -0.768444 0.659629 -0.824149 0.487230 0.098537 -0.047238 -0.414300 -0.132532 -0.108705 0.267706 0.460369 -0.492990 -0.791457 -0.767945 -0.184057 -0.742353 -0.309078 0.253848 0.478562 0.468002 0.285278 0.731948 -0.813377 -0.969111 0.718899 0.520542 0.757888 -0.003961 -0.019648 -0.708122 -0.811736 0.140682 0.612977 0.805676 0.258261 -0.583725 -0.067352 -0.487385 0.168186 0.621839 -0.623476 0.422330 0.558184 0.811332 -0.807926 0.114165 0.141214
0.005425 -0.794763 0.492056 -0.381600 0.079649 -0.565358 -0.559081 -0.234827 -0.280059 -0.595132 0.739559 0.942408 0.141424 0.313428 -0.685822 0.328297 -0.575732 0.272484 -1.039933 -0.840580 -0.105732 0.964211 -0.085391 -0.428919 -0.508521 0.282060 1.087341 0.981923 -0.334155 -0.453356 -0.561410 0.806704 0.546268 0.233730 -0.060405 -0.043308 -0.565548 -0.427752 -0.456259 0.964915 -0.133875 -0.085631 -0.713413 -0.908024 -0.606627 0.216135 -0.458208 0.365838 -0.596845 0.369158 -0.569091 -0.299868 -0.325285 -0.788239 0.279066 -0.894395 0.753321 0.956406 0.561638 0.389658 -0.295768 -0.497281 -0.606428 -0.795664 0.880308 -0.601110 0.793504 -0.444927 -0.733927 -0.392629 -0.724187 0.598035 0.096373 -0.441878 0.029580 0.511921 -1.036484 0.484584 0.376399 0.033675 -0.390657 -0.548813 1.018771 0.389587 -0.165501 0.181235 -0.304856 0.200938 -1.011795 0.953924 0.402783 -0.392253 0.684615 -0.392618 0.960238 0.793623 0.677025 0.143643 0.848799 -0.335531 -0.044934 -0.495478 1.122157 0.543833 -0.085686 0.342537 -0.702164 0.666972 0.086075 -0.761376 -0.386481 0.476341 -0.266323 0.045142 -0.770102 -0.857426 0.099836 0.623935 -0.216219 -0.991660 -0.882015 -0.174981 -0.455676 0.632313 -0.457346 0.663128 0.787328 -0.913286
0.956811 0.508260 0.581450 -0.841672 0.510766 0.857113 0.729053 -0.770713 0.975079 0.244229 -0.130686 -0.149492 -0.331202 0.806485 -0.305061 -1.231256 -0.846803 0.748307 -0.703247 -0.418524 -0.515548 -0.585907 0.189981 -0.667582 0.673621 0.038231 -0.223349 0.126713 -0.597987 0.427451 0.302267 1.003080 0.700793 -0.930041 0.257034 -0.322848 -0.650223 0.397326 0.937758 -0.815720 0.922517 -0.651854 -0.954235 -0.305766 0.516279 -0.664102 0.022465 -0.463936 -0.490786 -0.298138 -0.044696 0.161110 -0.056771 0.905257 -0.062649 -0.442143 0.864115 -0.373217 0.368804 0.505867 -0.502927 0.619553 0.124534 -0.373723 0.092409 0.233608 0.890059 0.602224 0.522360 -0.879769 -0.190571 0.186276 0.924462 0.047037 -0.196122 -0.599017 -1.071470 0.547593 0.268554 -0.897595 0.456157 -0.211154 -0.438909 0.319061 -0.504900 -0.757597 -0.364242 0.955249 -0.427470 0.637508 -1.006620 0.462239 0.996786 -0.581831 0.404872 -0.780046 -0.621963 -0.636919 -0.147791 0.340099 -0.492017 0.000962 0.517810 0.861642 -0.259855 0.736795 -0.563315 0.934624 0.435421 0.464366 0.319421 -0.835139 0.728367 0.696683 -0.698303 0.607885 -0.470274 0.494903 -1.222859 -0.861418 -0.606457 -0.406114 -0.155173 -0.589368 -0.086613 -0.997100 0.047869 -0.258262
-0.008116 0.966134 0.581746 0.114128 0.289939 0.415154 0.782471 -0.438576 -0.454752 0.295682 -0.733902 0.992703 0.373253 -0.541743 0.850921 -0.930892 -0.261096 -0.686328 0.543381 0.809742 -0.546630 1.220394 -0.077079 -0.733174 -0.812715 -0.296920 -0.861781 0.583969 -1.060411 0.641769 -0.452580 -0.051665 -0.918285 -0.498084 0.197680 0.951594 0.103386 -0.285202 -0.073559 -0.331829 -0.954809 0.090022 -0.006816 0.230762 -0.557618 -0.664237 -0.232979 1.051625 0.739416 -0.760805 -0.877433 -0.380890 0.368993 0.938619 -0.074795 -0.141117 -0.639700 -0.624802 0.936111 -0.205337 -0.635093 0.108300 -0.041332 -0.100159 0.832114 -0.885036 -0.762876 0.799599 -0.080217 0.277767 0.611360 0.076162 -0.774758 0.516571 -0.131274 0.034391 0.793211 0.019740 -0.858382 -0.838283 0.519830 -0.572077 0.219136 -0.575776 -0.199227 -0.945187 0.238282 0.614480 0.437461 -0.648791 0.168204 -0.414466 0.911513 0.440518 0.310091 0.963974 0.154315 -0.203346 -0.763867 0.527074 -0.287872 -0.399722 0.935099 -0.882450 0.425620 -0.213742 -0.953318 1.017430 0.328450 0.182593 0.060665 -0.066121 0.337090 -0.745477 -0.210308 -0.980463 0.705285 -0.440101 -0.465576 -0.825801 -0.069848 0.058680 -0.137045 -0.862390 0.419746 0.534039 0.573293 0.575158
0.082052 -0.081858 0.377249 -0.321704 0.265131 -0.177067 0.257650 -0.638245 0.858901 0.485361 -0.044465 0.771254 0.398465 -0.329792 -0.211031 0.163066 -0.693748 -0.047418 -1.238372 0.161466 0.024109 -0.808446 -0.179252 0.566198 0.489627 -0.305030 0.482450 0.334670 -0.516217 0.585059 0.494397 0.010729 0.026631 0.470541 -0.401261 -0.327714 -0.420297 -0.407891 -0.006370 0.023391 0.615469 0.445704 -0.496729 -0.330223 0.459421 0.243188 -0.821581 0.345597 0.085429 0.232970 -0.768017 0.822804 -0.301363 -0.471503 -0.202672 -0.249249 0.360835 -0.485593 0.275072 0.851603 -0.636908 0.049222 -0.272182 0.038424 0.788344 0.660392 0.577795 -0.963034 0.759429 -0.842273 0.551619 -0.944596 0.974948 0.128211 -0.101192 -0.452385 -0.939119 0.543541 0.917788 0.653469 -0.306305 -0.818858 -0.094129 0.296488 0.963918 -0.676719 -0.053994 -0.695718 0.832832 -0.548030 0.295849 -0.439390 0.521469 0.728001 0.888260 -0.204451 0.906428 -0.772704 -0.224326 0.084457 -0.766441 -0.981917 -0.935404 -0.122442 -0.464001 0.224513 1.060530 0.447911 -0.198965 -0.522000 -0.083538 0.786223 0.823179 0.485146 0.978914 0.797198 0.280139 0.222791 -0.968855 -0.560322 -0.223331 0.613468 0.502071 0.918579 -0.713913 -0.357782 -0.136276 0.868979
0.695969 0.361917 -0.595442 0.019251 -0.834301 -0.242366 -0.740864 -0.269421 0.830907 -0.466928 -0.487522 0.513960 -0.347698 -0.605109 -0.928702 0.668267 0.893388 -0.674528 0.685333 -0.362277 0.291317 -0.232886 -0.723679 0.119512 -0.122971 0.360941 0.822878 0.456161 -0.587019 0.982465 0.179669 -0.920952 -0.063980 -0.196888 0.387409 -0.855018 -0.204519 0.964732 0.774848 0.974753 0.195339 0.228478 0.324908 -0.813652 -0.145237 -0.734291 0.192745 0.433574 -0.457670 0.825753 -1.059711 0.954712 0.874914 0.799220 -0.729344 -0.544256 0.201786 0.397370 0.657452 0.346707 0.553043 -0.562856 0.140738 0.792925 -0.652913 0.510923 0.393203 0.724149 0.352674 -0.592116 0.412130 -0.211098 -0.283736 -0.787683 -0.998825 -0.560249 0.567502 0.137392 0.169368 0.874645 0.297068 0.830034 0.746313 -0.175020 0.594916 -0.649593 0.440176 0.622407 0.271743 -0.775456 0.361528 -0.974864 0.282180 0.917806 -0.292479 -0.877612 -0.023261 -0.257480 -0.113618 0.763695 0.296157 0.656685 -0.646442 -0.172501 0.459935 0.519936 -0.278481 -0.887225 -0.517250 -0.428833 -0.952250 0.459960 -0.176449 -0.969630 -0.894736 -1.036433 0.755521 0.075663 0.255664 -0.239179 -0.081226 -0.960297 0.467069 0.667460 0.286413 -0.518568 -0.307451 0.121069
-0.450474 0.247606 -0.752488 0.976991 -0.509484 -0.669543 0.019468 0.299338 -0.804271 -0.761301 0.840009 -0.728080 -0.881303 -0.292713 -0.141665 0.541286 0.104015 0.786748 0.534658 -0.827344 0.302657 0.669819 -0.614587 0.494707 0.343294 -0.173953 0.790140 0.587864 0.812291 0.923487 0.564173 -0.008012 -0.356118 0.268521 0.017054 1.121892 0.505162 0.797939 -0.271733 0.100880 -0.205721 0.972648 0.183481 -0.960599 0.160079 0.906528 -0.535364 -0.517031 0.271711 -0.038508 0.694114 -0.189056 -0.470181 0.215979 -0.893149 -0.078305 -0.683678 0.139436 0.453514 -0.820297 -0.796183 -0.968811 -0.002042 -0.189033 0.366195 0.027034 -0.945042 -0.696384 -0.378188 0.298608 0.590372 0.595304 0.841212 -0.544607 -0.313789 -0.151346 -0.204081 -0.437892 -0.760396 0.773727 0.829886 0.475611 -0.665882 -0.034055 -0.305570 0.834682 -0.292055 0.869203 0.253899 0.734758 0.798160 -0.891971 -0.733608 0.666758 0.454094 -0.378815 -0.992314 0.529791 0.359682 -1.419570 -0.428242 -0.669778 -0.344900 -0.839283 0.805543 -0.611610 -0.818154 -0.398137 -0.151637 -0.685174 0.273220 0.668153 -0.076793 0.214643 -0.080637 0.002102 -0.875448 -0.343346 -0.230527 -0.992778 -0.375527 0.022157 -0.935998 -0.835496 0.658738 0.732082 0.018521 -0.924769
-0.902281 -0.927606 -0.544888 -0.899767 -0.657276 -0.125259 0.678910 -0.177930 0.112634 -0.760745 -0.599817 -0.040811 -0.289647 -0.032456 -0.139508 -0.983565 0.186439 0.700144 0.534562 -0.068665 -1.093851 -0.588632 0.209829 0.305902 0.225054 -0.255570 -0.243415 0.347003 -0.254871 -0.012204 0.504415 -0.836514 0.270345 -0.367887 0.314438 0.318148 -0.451321 -0.604534 -0.763695 0.858640 -0.944591 0.455096 0.648165 0.225655 0.185179 -0.923894 -0.041643 0.996043 -0.573529 0.517089 -0.653361 -0.263716 -0.082270 0.119829 0.882252 0.573732 -0.215244 0.381382 0.635686 -0.619727 -0.280483 -0.414895 0.726600 0.181938 0.693030 -0.408966 -0.554215 -0.842788 -0.568565 0.575941 0.913044 0.919497 -0.765913 -0.826623 -0.966072 -0.797460 -0.449888 0.097475 -0.816146 0.524514 0.171034 0.381498 -0.085993 -0.575642 -0.641209 0.471908 0.894108 0.609177 -0.184527 -0.761414 0.351263 0.777610 -0.404051 -0.236248 0.663729 0.032590 -0.781704 0.421689 0.975749 0.130747 -0.996344 -0.368929 0.370346 -0.788923 -0.448082 -0.853413 0.011343 0.881475 0.746300 -0.817770 0.307096 -0.963969 -0.201414 1.005258 0.830311 -0.973187 0.665835 -0.924954 -0.560324 0.349720 0.705950 -0.338023 -0.695406 0.217026 0.740218 0.872713 0.224815 -0.250229
-0.258597 0.553502 0.329850 0.627197 -0.435973 -0.097497 0.457262 0.549011 -0.433016 0.266290 0.446099 -0.822550 0.576955 0.686444 -0.631539 -0.784674 -1.057179 1.053758 -1.038891 -0.520108 0.064167 -0.274018 -0.496948 0.451584 -0.013546 -0.259499 -0.831573 -0.602809 -0.713676 -0.026734 -0.812367 0.075323 0.228400 -0.847395 0.735303 0.882632 -0.103557 0.818417 -0.843887 0.742563 -0.676041 -0.638029 -0.877553 -0.352787 -0.737872 0.447292 0.684096 -0.535693 -0.338779 0.148007 -0.677052 0.515848 0.557348 0.766117 0.233565 -0.096326 -0.303862 0.985441 -0.460467 -0.441671 -0.657851 0.767876 -0.883984 -0.288808 -0.725701 0.473892 -0.153102 0.508902 0.057066 0.483285 -0.004259 -0.201937 0.685470 -0.175783 0.415851 -0.407171 -0.136719 -0.027630 0.793212 0.689763 -0.609313 0.104727 1.116951 -0.710787 -0.359345 0.184855 -0.259398 -0.061673 0.307228 0.711945 -0.754376 -0.112595 0.654353 0.901236 -0.574374 0.537081 -0.136200 -0.430758 0.023610 0.650601 -0.951789 -0.262583 -0.436451 0.689125 -0.809068 0.335545 -0.370339 0.222930 0.204551 0.870394 0.686245 0.806830 -0.000610 -0.065205 0.167450 0.795973 0.066560 -0.165999 -0.188204 -0.496690 0.630880 0.855065 -0.701873 0.161684 0.676215 0.872795 -0.056746 -0.565751
0.233562 0.108603 -0.941933 -0.482343 -0.061024 0.284707 -0.853434 -0.378068 -0.470304 -0.453100 0.623289 -0.038349 0.499368 -0.003800 -0.362232 0.262871 -0.948827 -0.007783 0.579597 0.511508 -0.521659 0.440038 -0.556398 0.729629 -0.758004 0.428148 0.384490 0.034898 0.119313 -0.190920 -0.425790 -0.940807 -0.554201 0.635741 -0.041951 0.492538 0.935261 -0.138529 -0.701022 0.133523 0.266245 0.950382 -0.113343 -0.471425 0.651419 -0.690713 0.270530 0.156327 -0.610334 0.770424 0.328511 -0.808069 -0.204035 -0.552397 0.409207 0.219308 -0.926403 0.745282 -0.994727 -0.563522 -0.453804 0.443043 0.522095 0.817017 0.173760 -0.273589 -0.533424 0.440034 0.724595 0.623815 -0.308822 0.194110 0.455079 0.714086 -0.847175 0.996147 0.361533 0.163366 -0.474667 -0.782949 -0.552055 0.787110 0.013391 0.953092 -0.614829 -0.594716 0.464422 -0.614588 -0.659252 -0.215124 -0.412871 -0.403077 1.131959 -0.517063 -0.500787 0.663496 0.899715 0.877563 0.077636 -0.993843 0.050217 -0.719479 0.200255 -0.420748 -0.692685 -0.054603 -0.888299 -0.674451 -0.353791 -0.695446 -0.151379 0.237469 0.116791 -0.181801 0.241644 0.427893 -0.066966 0.624540 0.161885 -0.432612 0.348286 -0.479794 0.225196 0.639004 0.749363 0.971337 -0.749806 -0.090548
0.867406 0.437683 0.707556 0.411511 0.049946 0.981776 -0.018012 -0.143387 -0.170193 -0.680576 0.045603 0.531436 -0.540915 0.949893 0.650454 -0.484138 0.761222 -0.265398 0.573331 -0.877981 -0.953110 -0.507752 -0.453809 0.531393 0.607342 -0.179444 -0.353268 -0.598456 0.309400 -0.716539 -0.597264 0.517842 -0.433227 0.374873 1.046077 -1.024025 -0.251071 0.495338 -0.780545 -0.527657 -0.143747 -0.048212 -0.017107 0.820580 0.254003 0.416282 0.154441 1.213886 0.814744 0.710039 -0.772844 -0.512200 -0.263515 0.191214 0.271784 -0.157597 0.091904 0.376271 0.268735 -0.961764 -0.837071 0.246267 -0.406172 -0.081701 0.581677 0.025933 -0.406817 0.288513 -0.157527 0.638677 -0.241672 0.019460 -0.876294 -0.631871 0.186387 0.828224 0.088155 -1.000301 0.666207 0.186114 0.633532 0.211271 -0.646871 0.873549 -0.301289 -0.871740 -0.134568 -0.227776 -0.259241 0.301400 0.785141 -0.574311 -0.763311 -0.094232 0.571342 0.023459 -0.015008 -0.860700 0.667965 1.005993 -0.184600 0.762245 0.799217 0.520931 -0.422871 0.255058 -0.301141 -0.244483 0.535467 -0.419651 -0.319341 -0.436005 0.653006 0.635663 0.239212 -0.544806 0.479666 0.423195 0.633743 -0.570937 -0.729757 0.735100 -0.487517 0.254435 1.044683 0.096279 0.576272 0.207236
0.918825 0.412659 0.341860 -0.157677 -0.295714 0.086505 0.515687 -0.922739 0.545128 -0.325930 0.739513 -0.392378 0.072775 0.616488 -0.866025 0.801628 -0.044970 0.848283 -1.042463 -0.669431 0.155915 -1.024768 0.363383 0.106054 0.917593 0.382633 -0.064982 0.187276 -0.142113 0.145493 0.325173 0.484015 -0.982295 -0.259091 -0.351953 0.930722 -0.310726 -0.314951 0.741154 0.765340 -0.428567 -0.617492 -0.565173 -0.068902 -0.913293 -0.260948 0.677556 -0.245091 -0.803841 -0.740469 0.438856 0.039685 -0.192881 0.513208 0.231525 0.294074 -0.763730 0.439083 -0.338767 -0.242108 0.212087 -0.851522 0.805265 -0.765123 0.495242 -0.219165 -0.680600 0.131028 0.438334 -0.509479 0.163717 -0.187863 0.293912 0.929424 0.241681 -0.147806 -0.267176 0.275038 -0.010819 0.319060 -0.115051 -0.992003 0.375194 0.411419 0.242384 0.413047 0.403611 0.147325 -0.827376 -0.598476 0.180632 -0.352505 -0.901197 0.242587 0.062072 0.994990 -0.333823 -0.911338 0.456329 0.624826 -0.147988 0.240515 -0.569490 -0.767967 -0.305806 0.650136 0.744759 0.560388 -0.495492 0.879508 -0.296459 -0.060215 -0.417766 0.948277 0.279217 0.404586 -0.642657 -1.007916 -0.765321 0.719993 0.595590 0.014969 0.874721 0.690864 -0.744008 0.211360 -0.398472 0.414148
-0.603190 -0.620661 -0.360383 -0.354778 0.802093 -0.804825 -0.878491 0.461351 0.106377 -0.270116 -0.133669 0.801860 0.549004 -0.706462 -0.243219 0.138986 -0.935864 0.166384 -0.520238 0.312316 -0.436769 0.196592 -0.036431 -0.122108 0.927977 -0.214417 -0.426014 -0.102765 -0.977687 0.429613 -0.853046 0.032093 1.012004 0.642713 0.435583 -0.077658 -0.485567 0.308295 -0.125501 0.047935 -0.062648 0.899665 0.368570 0.031507 0.299073 -0.583655 -1.073196 -0.457511 0.447242 -0.115909 0.516405 -1.026538 -0.671621 -0.436433 0.607441 -0.358891 -0.114265 1.057675 0.618216 -0.461118 -0.942755 0.073932 -0.123261 0.421219 0.083997 -0.569571 -0.231139 -0.409059 0.600159 0.471936 -0.526613 -0.495688 0.253322 0.987458 0.658657 -0.426272 -0.115936 -0.104598 0.870241 -0.261341 0.802861 0.450805 -0.762643 -0.942768 0.639128 0.329115 -1.012307 -0.003609 0.049407 0.104471 0.315186 -0.044687 -0.086640 -0.290846 0.246617 -0.443402 -0.169119 -0.898718 -0.535430 0.568685 0.197926 -0.798162 -0.433443 -0.021119 0.399378 -0.217053 -0.901184 0.155491 -0.904535 -0.144934 -0.747903 -0.718606 -0.586258 0.701936 -0.735717 -0.208245 0.460105 0.455020 -0.123004 0.605840 0.353272 -0.228389 0.110408 -0.725330 -1.157076 -0.922799 -0.137221 -0.014053
0.569626 -0.895194 -0.993517 0.077700 0.942576 -0.942200 -0.159733 -0.901458 0.601492 0.352195 0.261234 -0.954923 -0.721627 -0.389421 0.678942 0.881947 -0.770172 -0.799738 0.524469 0.861282 -0.967934 0.944521 0.733223 -0.705195 -0.821399 0.493138 -0.108745 0.646119 0.817647 0.006863 -0.568887 0.772096 -0.203320 0.429994 -0.788142 -0.703261 -0.889684 0.078376 -0.985329 0.496876 0.437214 0.383857 0.228024 0.037680 -0.462740 0.186455 0.699771 0.061607 -0.744171 -0.828832 0.059038 0.499945 -0.405334 -0.715937 0.186244 0.842994 0.456231 -0.591848 0.728756 -0.359132 0.483165 0.813136 -0.448578 -0.536017 -0.629574 0.501526 -0.851596 0.180300 0.753964 0.577072 -0.539088 -0.622104 0.172876 0.877165 0.097460 -0.724688 0.224184 0.634937 -0.829169 -0.057302 -0.681682 0.886198 -0.947441 0.054595 -0.302921 0.695243 -1.013483 -0.119731 -0.169256 0.676240 0.758686 0.008093 -0.628328 0.003227 -0.669286 -0.696061 -0.355983 -0.631258 0.756537 0.533451 -0.229094 0.975999 -0.817122 0.367967 0.006894 -0.531268 0.711285 0.584578 -0.199391 0.888819 0.564819 0.194253 0.358679 0.542429 0.059098 -0.977590 0.588509 -0.533843 0.100161 -0.972376 -0.050122 0.257701 0.939386 -0.080714 -0.869009 -0.992519 0.310072 0.961530
0.541868 -0.183795 -0.211362 -0.210660 0.946002 -0.239518 -0.221148 -0.892073 1.072556 -0.056099 0.431598 -0.045747 0.879481 -0.259699 -0.900653 -0.166233 0.001966 0.078468 0.100969 -0.584705 0.588252 -0.895974 -0.651877 -0.518641 0.856357 0.293035 0.814835 -1.111686 -0.608989 0.427557 0.755792 -0.446204 0.133837 -0.361134 0.591814 0.862478 0.660329 1.037265 -0.447814 0.004732 -0.830084 -0.241162 -0.529022 0.302388 0.791903 0.325173 -0.281169 -0.464230 0.413296 -0.709569 0.376841 0.518018 -0.274153 0.123142 0.352162 -0.556067 -0.356749 -0.535150 0.983271 0.278571 -0.382204 -0.239637 0.334319 -0.961533 0.009197 1.014474 -0.063407 -0.074865 -0.490487 -0.301912 -0.521811 0.188188 0.308118 0.358980 0.135872 0.119806 0.713341 0.368843 -0.250821 -0.848071 0.315388 0.715488 -0.373311 -0.264819 -0.054637 -0.327702 -0.008901 -0.903524 0.711574 0.260667 -1.063975 0.912674 0.326734 -0.616097 -0.062794 0.995912 0.198443 0.298329 0.413795 0.066266 0.150011 -0.101924 0.302361 -0.367916 0.659930 -0.004392 0.524093 -0.711652 0.070365 -0.774111 -0.654520 0.371686 0.726251 0.481021 0.629620 0.404133 0.913640 -0.180044 -0.386784 0.229037 -0.849911 0.805443 -0.408229 0.787535 -0.205833 -0.017441 1.114964 -0.691421
-0.727700 -0.389401 -0.855959 0.681769 -0.732615 -0.956452 0.786777 -0.597891 -0.330286 0.421402 0.979910 -0.859450 -1.000722 0.469604 -0.934006 -0.873780 -0.163551 0.746327 -0.899140 0.025763 -0.825131 0.422199 0.199074 -0.354373 0.177156 -0.051882 -0.703744 0.719766 0.505782 0.798702 -0.970634 0.074104 -0.193157 -0.648248 -0.336658 -0.187091 0.281409 0.512744 -0.104814 -0.318689 -0.886729 0.791958 -0.403760 0.666744 0.836159 -0.809885 -0.104872 -0.792935 -0.639664 -0.593329 0.895692 -0.688396 -0.954255 0.234447 0.344489 -0.282412 -0.121628 0.729846 0.739167 -0.508014 0.292419 0.900739 -0.743896 -0.332113 0.864443 -0.073503 -0.369123 -0.634043 0.843028 -0.111107 0.875849 0.298284 0.654752 -0.818159 0.185362 0.988105 -0.377281 0.476706 -0.155056 0.209017 -0.328012 0.603086 -0.830645 0.895627 0.649438 0.169191 -0.854114 0.538034 -0.774378 0.905073 -0.357612 -0.688481 -0.752587 -0.445680 0.748228 0.449805 -0.425905 -0.559355 0.058529 -0.428877 -0.681878 0.031389 -0.566460 -0.369001 0.713445 0.766684 0.422920 0.799279 -0.085849 -0.064286 -0.830958 0.249848 0.653713 -0.626623 -0.792064 -0.445053 -0.433838 0.441648 -0.688034 0.387599 -0.515023 -0.358822 -0.373896 0.112445 -0.666510 -0.188010 0.307011 -0.719862
0.711290 0.962109 0.647735 0.907984 -0.889697 0.344923 -0.232511 -0.833252 0.635570 0.336319 0.101042 -0.881994 0.305889 0.959290 -0.346104 -0.373127 -0.595591 1.119168 -0.239441 0.547159 0.487533 0.853460 0.720072 -0.848397 -1.028890 -0.830463 -0.855672 -0.231945 -0.582234 0.904270 -0.198683 0.063235 0.256456 0.889389 0.422589 0.313309 0.205405 -1.054288 0.451259 -0.710250 0.848588 -0.621344 0.147806 0.654289 0.556890 -0.232654 -0.060263 -0.157037 0.116278 -0.488723 -0.828256 -1.175654 0.559527 0.294118 0.632722 -0.291624 -0.779453 0.238360 0.874451 -0.510375 -0.456324 -0.035218 -0.138022 0.268606 -0.407652 -0.212050 -0.650180 -0.899548 0.000182 0.453771 0.745660 -0.053336 0.106283 -0.336978 -0.807017 0.394503 -0.448542 0.254864 -0.550949 -0.100031 0.956565 0.286347 0.215879 -0.724302 0.429206 -0.321595 0.547875 0.963746 0.283909 -0.458052 0.764345 0.004199 0.894307 0.811346 0.590268 0.847948 0.165393 0.738795 -0.566599 -0.804457 -0.343581 -0.102188 -0.855871 0.442197 0.766516 0.527639 0.850447 0.019290 -0.723465 -0.798296 0.777446 0.118306 0.380225 0.023822 -0.739925 -0.121819 0.447984 -0.145693 0.680333 0.531413 0.262326 0.494676 0.567742 0.033670 -0.404179 0.722427 0.870946 -0.116540
0.109775 -0.889243 -0.252588 0.596055 0.580511 0.706649 -0.666715 0.044520 -0.875034 1.010335 -0.802217 -0.692783 -0.778905 0.361855 0.275870 0.822111 -0.947810 0.877922 0.450367 -0.026332 -0.261724 0.715161 -0.730958 -0.233405 0.180133 0.258348 1.042524 0.920780 0.050809 -0.653519 -0.831689 -0.171902 0.669456 0.539762 -0.839552 -0.931941 -0.540057 -0.198150 -0.099199 0.536999 0.487878 0.761128 0.544594 -0.554568 -0.330528 0.016932 0.474861 -0.033313 -0.104002 -0.393123 -0.360058 0.723393 -0.107609 -0.671852 0.832852 -0.154967 -0.666823 -1.037714 -0.375411 0.579397 0.684964 0.468683 -0.072241 0.495976 -0.098804 -0.605659 0.443758 0.731024 -0.168357 -0.647441 -0.364281 0.345534 -0.127607 -0.337368 -0.452225 0.816606 -0.997164 0.956225 0.733432 -0.259216 -0.322925 -0.285738 -0.631163 -0.527208 0.146925 -0.784969 0.779973 0.092575 0.167658 -0.492657 -0.880312 -0.171312 0.067518 -0.849585 0.586266 0.233604 -0.284985 0.006746 1.108096 -0.620350 -1.026112 0.841299 0.478026 -0.472804 -0.734024 0.415316 0.922197 0.321845 0.055606 0.574209 -0.021710 -0.962472 -1.135642 -0.768747 -0.526507 -1.113809 0.544910 0.805690 -1.017647 0.376195 -0.524427 0.737912 -0.631472 -0.190443 -0.256517 0.502881 1.104917 0.168326
0.527506 0.627679 -0.089350 -0.938127 0.432662 0.435128 0.889933 -0.956745 -0.619191 -0.642144 0.611965 -0.068261 0.847545 0.959458 0.701208 -0.950661 0.546179 0.147104 -0.074515 -0.488573 0.209874 0.804042 -0.952928 0.443437 -0.908669 0.385991 -0.759415 -0.611805 -0.305003 0.237047 0.627482 0.215419 0.487229 -0.317476 -0.284396 -0.062518 -0.517660 -0.067679 -0.392396 -0.599398 0.570337 -0.012806 -0.639800 0.062005 -0.051793 0.119523 -0.059360 -0.109450 0.808345 0.299400 0.153567 -0.157323 -0.499745 0.550180 0.842682 0.149822 0.022515 -0.265359 -0.276718 -0.959182 -0.329241 0.061090 -0.862353 0.805191 0.545923 -0.149881 0.839779 0.353460 -0.026687 0.236683 0.105592 -0.394874 -0.211212 0.356328 0.527962 -0.935055 0.052966 0.326609 0.532552 0.614348 0.261713 -0.502692 0.913805 -0.327503 -1.099300 -0.493527 0.067822 -0.476296 0.597669 -0.555877 0.657773 -0.860087 0.666755 0.338991 0.502629 -0.328333 -0.226831 0.928032 0.223630 -0.553366 0.282623 0.843787 0.911129 0.399123 -0.030404 -0.611623 -0.278529 -0.968147 -0.751353 -0.890716 -0.401742 -0.327172 -0.414375 -0.984428 -0.268621 0.322190 -0.898122 -0.370478 -0.395122 0.936588 0.313357 0.799719 -0.869267 -0.293882 -0.371145 0.829761 -0.618111 -0.219809
-0.760503 0.286221 0.036308 0.356807 0.853051 0.092428 -0.407357 -0.165084 0.932553 -0.156970 0.509529 -0.416272 -0.640665 -0.881150 0.422510 -0.809790 -0.068442 0.671275 -0.212758 0.870239 0.164299 0.699379 0.380440 0.386972 0.315007 -0.889445 -0.819461 -0.240000 -0.270030 1.042942 -0.894094 -0.609609 -0.515081 0.918582 0.793117 -0.777087 -0.632349 -0.758953 0.233150 -0.726906 0.786433 -0.952774 0.263452 -0.503498 -0.487485 -0.799618 0.294379 0.208459 -0.142714 -0.348947 0.038916 0.080714 -0.663562 -0.331851 -0.889951 -0.923651 0.901221 0.716885 -0.842113 0.091043 -0.380750 0.397913 0.931333 -0.545197 0.074541 0.812053 -0.909935 -0.289523 0.622341 -0.413772 -0.985905 -0.484164 -0.273240 -0.462107 0.165764 -0.059885 0.174784 0.024474 0.298012 -0.429989 -0.989582 0.528200 -0.360763 0.192599 0.553016 0.052837 0.853597 0.308121 -1.033598 -0.843076 -0.059823 -0.988730 -0.883965 -0.634080 0.497068 -0.417117 -0.139549 -0.331572 -1.056276 -0.567338 0.010420 0.375215 0.026950 -0.454175 -0.173116 -0.767489 -0.659769 0.323335 0.039807 0.998102 -0.949245 1.407001 0.328841 -0.279392 0.386843 -0.178089 1.066303 -0.463367 0.702685 0.758578 -0.857451 -0.597523 -0.774763 0.814195 0.562096 -0.449511 0.602838 -0.807529
-0.667890 -0.613180 -0.316773 0.989083 -0.771888 0.019552 0.095795 0.011400 0.293318 -0.358112 -0.511441 -0.609385 0.478534 0.618732 -0.400185 0.453203 0.935041 0.991816 -0.860794 0.430543 -0.035865 0.039780 0.060596 -0.140890 -1.141691 0.610591 0.682148 0.234561 0.813215 0.717122 0.543194 0.146516 0.619480 0.924092 0.514625 -0.013006 0.907752 -0.635180 -0.544798 -0.495481 0.710551 -0.375414 -0.870438 0.193296 -0.462271 -0.239734 0.300596 -0.822725 0.831991 -0.438704 0.648503 -0.002009 -0.467397 0.610868 -0.519700 -0.609801 0.034659 -0.364160 -0.726015 -0.723243 -0.265978 -0.238326 -0.295054 -0.128484 -0.436247 -0.547684 -0.778550 0.371718 -0.842054 0.208540 -0.722939 -0.697030 -0.458710 -0.156915 0.925061 0.644141 -0.802031 0.460440 0.100553 -0.552019 0.317008 -0.861627 0.067345 -0.333661 0.071885 0.575771 0.213873 0.026887 1.239592 0.049865 -0.034312 0.785301 -0.173681 -0.814565 0.534365 -0.115175 -0.184515 0.492692 1.056861 0.110579 -0.079318 0.840988 0.865093 0.261874 0.600803 -0.022673 0.208868 1.083479 0.151360 -0.195612 -0.326421 -0.782281 -0.063458 -0.220824 -0.350037 0.043220 -0.000115 -0.947807 0.696408 -0.910280 -0.686151 -1.008728 0.691897 -0.220138 0.346186 -0.412902 0.251423 -1.072183
-0.278716 -0.342819 0.561471 0.622238 -0.749221 0.656956 -0.090823 0.730589 -0.343839 -0.153247 -0.133589 -0.911846 -0.685734 0.338449 0.491794 -0.577739 0.126540 0.092725 1.068305 -0.578320 -0.475969 0.252091 0.425957 -0.842572 -0.061974 -0.886642 0.971079 -0.706753 0.154142 0.523674 0.577633 0.445411 0.624542 -0.703472 -0.438695 0.631272 0.358203 0.840227 0.055562 -0.541860 -0.745396 -1.123309 -0.879189 0.479105 0.902353 0.883042 0.718803 0.193594 -0.505284 -0.971507 -0.845618 -0.653494 0.050810 0.832476 -0.049594 0.419340 0.689623 -0.105696 -0.219448 0.266999 -0.321820 -0.391638 0.685542 -0.369709 -0.749760 -0.170012 -0.069781 0.584172 -0.330737 -0.868877 -0.194983 0.679370 -0.468912 0.874657 -0.058717 -0.122752 -0.121487 -0.519280 -0.313432 0.441913 -0.207904 0.376974 -0.147045 -0.773903 0.215700 -0.942217 -0.677698 -0.251023 -0.006713 0.069321 0.490534 0.428891 -0.291842 0.627146 -0.528608 0.884777 0.817831 0.873115 0.154625 0.127490 -0.807643 -0.053928 0.510871 -0.687062 -0.142248 -0.812099 0.950927 0.824687 -0.095246 0.002758 -0.378863 0.809981 0.129640 0.436971 -0.958635 0.306900 0.114258 -0.768640 0.311398 0.681681 0.758013 0.632952 0.240467 -0.370762 0.022798 0.414244 -0.047121 -0.348588
0.061137 0.413243 0.200690 0.201408 0.350424 0.876622 0.560817 -0.134488 -0.639016 0.088538 0.359617 0.413405 0.742466 -0.098708 0.406235 -0.930497 0.074059 -1.059820 -0.161065 -0.342262 0.068924 1.125851 0.647899 0.229464 -0.470337 0.826966 -0.058967 0.315004 -0.145050 -0.462056 -0.220717 0.506876 -0.041446 0.788066 0.506717 0.404026 -0.523911 0.636155 0.144604 -0.916713 -0.234156 0.715817 0.026097 0.759097 0.935895 0.234470 -0.861424 0.626273 0.808939 0.382169 0.990201 0.830714 -0.456270 0.000970 0.664201 0.872963 -0.461579 0.272081 0.776633 -0.144374 0.983983 -0.462812 -0.299688 0.835583 -0.972461 -0.589232 -0.619457 -0.696854 -0.699289 0.289524 -0.330078 0.747536 -0.395705 -0.158229 0.942105 0.984197 0.363527 0.204896 0.510564 -0.599913 0.774824 0.534487 -0.675713 0.962437 0.288547 0.703842 0.386864 -0.152366 0.720150 -0.216525 -0.933447 -0.608544 -0.695553 0.034479 0.483511 -0.878253 -0.161649 -0.025978 -0.266039 0.427621 0.301659 0.119446 0.191721 -0.283152 -0.692119 0.095641 -0.129842 -0.071572 -0.855744 -0.241060 -0.242708 -0.862717 -0.536946 -0.416696 -0.283992 0.175485 -0.017945 0.029099 -0.522642 0.759499 0.237056 -0.212619 -0.616646 -0.266871 -0.464656 -0.072468 0.266426 1.042274
-0.321590 -0.772433 0.358244 -1.104223 -0.097886 -0.517368 -0.142084 0.175849 0.024867 -0.836432 -0.361561 0.276480 -0.625168 -0.057152 0.780339 0.694036 0.577275 0.210056 -0.715928 0.488199 0.100987 -0.805227 0.191537 0.758939 0.489723 -0.602055 -0.929462 -0.236875 0.172498 0.742509 -0.366163 0.830932 0.123100 -0.172343 -0.100256 -0.279822 0.741641 -0.781456 -0.895392 0.028594 -0.445168 -0.662554 0.710973 0.082931 -0.586525 -0.686711 0.495754 0.782685 -0.512153 -0.946511 -0.516629 0.498839 0.421172 0.820518 -1.120002 -0.509961 -0.123766 -0.225367 -0.762339 0.369326 -0.816159 -0.074046 -0.332163 -0.605232 -0.641115 0.099516 0.026684 0.455337 -0.446904 0.725456 -0.100960 0.523156 0.205433 -0.418794 0.672364 0.313816 0.047486 -0.207497 0.253284 0.657809 -0.477707 0.869698 -1.028071 -0.484477 0.111243 0.018788 0.394528 0.301919 -0.051380 0.841272 0.779162 -0.631624 0.009299 0.323459 -0.935187 -0.625615 -0.049977 0.967607 0.970457 -0.672743 -0.158820 -0.500139 0.710210 -0.040803 -0.195044 0.719674 -0.903867 -0.729846 -0.286725 0.262255 -0.038862 -0.739833 0.630823 0.396150 -0.994594 -0.347222 -0.333587 -1.046090 1.074299 -0.026430 -0.431994 -0.205406 -0.006689 0.888424 -0.145239 -0.828684 0.834723 -0.139172
-0.064025 -0.636718 0.168794 -0.029451 -0.235658 -0.304343 -0.031311 -0.625847 -0.396136 -0.570498 0.363801 -0.460256 0.961814 -0.066110 0.398643 -0.961460 0.468917 0.708741 -1.080482 -0.827991 -0.284665 0.404068 -0.693346 -0.695227 0.680605 -0.759920 -0.482560 0.182860 -0.039145 0.432545 -0.809279 0.087622 0.112646 0.077769 -0.621460 0.031349 -0.502624 0.707685 -0.006982 0.080788 -0.516111 0.893739 0.322632 -0.352009 -0.546283 0.016036 0.647977 -0.544062 0.129920 -0.987720 -0.639248 0.719805 0.201821 -0.661361 -0.852657 0.828068 0.433656 -0.079835 -0.213266 -0.040859 -0.847197 0.689950 -0.658224 -0.889138 -0.856459 0.263160 -0.856368 -0.984795 0.091423 -0.371476 -0.953632 0.272147 -0.567870 0.314189 0.928912 -0.604246 -0.664120 -0.189705 1.073015 -0.703028 -0.986338 0.169484 0.842289 0.329341 0.827731 -0.564194 0.022965 -0.236856 -0.635406 0.482900 -0.551393 -0.522916 -0.334361 0.645154 -0.243440 -0.613264 0.153513 0.465112 0.096909 -1.225585 0.204783 0.771832 0.631582 -0.715547 0.964537 -0.176444 -0.533896 0.723102 -0.311719 0.324198 -0.240812 -0.657111 -0.620096 0.022170 -0.776595 -0.055208 0.469175 -0.413662 -0.446402 -0.185133 0.038485 -0.025163 0.166008 -0.578065 0.210301 0.872146 0.809933 0.034998
0.583066 -0.955017 0.313519 -0.214370 -0.604668 0.870331 0.038166 0.477486 0.396216 -0.122320 0.639741 0.249429 0.661827 -0.143869 -0.825043 0.599531 -0.038552 0.905595 -0.742276 0.765163 0.484262 0.851148 0.699588 0.722118 0.303628 0.653552 0.495207 0.225602 0.825178 -0.426122 -0.206287 -0.634575 0.910030 0.662819 0.276331 0.453106 -0.185724 -0.609955 -0.622494 0.887466 -0.589668 -0.546954 -0.389358 -0.971274 -0.677246 0.002930 1.087852 0.975220 -0.835628 0.841699 0.574276 -0.644162 0.309714 -0.794465 -0.861109 -0.313695 -0.177736 -0.790875 -0.394402 -0.303954 -0.696232 -0.527151 -0.631980 0.460940 0.268854 0.629332 -0.864632 1.068839 0.210288 -0.526494 -0.499599 0.090665 -0.932564 0.381262 -0.671807 0.788714 0.002715 0.066246 0.576127 0.756503 0.801071 -0.927731 -0.601053 -0.382241 -0.243632 -0.877103 -0.412462 -0.866556 -0.046753 0.056366 0.788482 -0.446775 -0.592057 -0.975347 0.171542 0.167060 -0.144417 0.083245 0.099873 -0.608115 0.084608 -0.906912 0.960481 0.540445 0.594254 -0.892351 0.228139 -0.738479 0.134710 0.533161 -0.743709 -0.499297 -0.770815 -0.821093 -0.275805 -0.388774 -0.792516 0.747499 0.130416 -0.214424 -0.916134 1.007334 0.764274 0.954042 0.759914 0.349078 0.059671 -0.284152
-0.923030 0.814683 0.866800 0.087992 0.677666 -0.874378 -0.858037 -0.500874 0.032247 -0.037421 -0.893672 -0.564413 0.092680 0.505519 0.658503 0.679555 -0.279450 0.379417 -0.458920 -0.713119 -1.046064 0.125050 -0.668446 0.922186 0.550091 0.744979 -0.342801 0.578806 -0.613480 -0.142492 -0.694510 -0.138751 0.608610 0.595354 0.155729 -0.802585 0.763605 -0.206122 -0.458782 -0.722107 0.349920 -0.570547 -0.474065 0.364632 -0.161012 0.583514 -0.840493 -0.227796 -0.066465 -0.571962 0.375386 -0.000450 0.720436 -0.517557 0.809916 0.149030 0.015993 0.573623 -0.600216 -0.276940 -0.384107 -0.719308 -0.963571 0.361787 0.244754 0.227859 -0.648050 -0.160196 0.055582 -0.607410 0.430836 0.415002 0.668629 -0.339841 0.405143 0.038366 0.207989 0.106882 0.256220 1.001353 -0.687333 -0.899138 -0.783094 -0.915220 0.400296 -0.008129 0.208875 -0.186466 -0.315223 0.816730 -0.832159 0.514465 -0.237962 0.514437 -0.515814 -0.627136 0.060859 -0.685904 -0.682653 0.950990 0.529122 0.846848 0.488561 -0.874883 0.707463 -0.364472 -0.686913 -0.784029 -0.229210 -0.062208 0.356158 0.598157 0.643230 1.052311 0.426786 -0.681581 0.186512 -0.286538 -0.244290 0.212469 -0.105863 -0.888057 0.302153 -0.765753 0.302868 -0.077889 0.001732 0.236714
-0.762756 -0.502093 0.876004 -0.808752 -0.062041 0.975554 0.469082 0.111901 0.026411 -0.770105 -0.897487 0.390798 -0.369587 0.278149 -0.385565 0.408310 -0.837703 0.396688 -0.398316 -0.209842 0.737483 0.279933 -0.863479 0.878017 0.641655 -0.284644 -0.687268 0.223040 -0.308176 -0.497286 -0.708356 -0.502197 -0.806922 0.438512 -0.725667 0.514086 -0.822119 -0.810461 0.539822 0.633375 -0.321593 -0.938463 0.461405 0.040546 -0.283674 -0.126251 0.548879 0.325533 -0.200328 0.117691 0.336259 0.418023 -0.948313 0.206052 0.044157 0.555664 0.255656 0.131541 0.065981 -0.036777 0.168302 -0.185980 -0.964703 -0.213264 0.278900 -0.733618 0.659505 0.519392 0.123791 0.494594 0.819592 0.011520 0.584930 -0.366005 0.699511 0.647041 0.373225 -0.958991 -0.634263 -0.683685 -0.105050 -0.741687 -0.744402 0.912529 0.668380 -0.500641 0.738984 -0.366420 0.836996 -0.730148 0.628822 0.420021 1.050854 -0.699812 -0.258864 -0.684047 -0.446304 -0.078780 0.463599 -0.942737 -0.088255 -0.438863 -0.843086 0.151838 0.194900 -0.009284 -0.660007 -0.174014 -0.874870 -0.616664 0.808619 0.443389 -0.163863 1.078531 0.464958 0.502193 0.085999 0.184070 0.334373 -0.506228 0.326330 0.177981 -0.463760 -0.152462 -0.068141 -0.856114 -0.830064 0.054199
0.632296 0.270453 0.884511 -0.211836 0.817428 0.342357 -0.315904 -0.109600 -0.914205 -0.524122 0.059020 0.884151 1.040962 0.402155 0.082329 0.194545 -0.814924 -0.646110 -0.238997 -0.697454 -0.088514 -0.195739 0.792273 0.111301 0.159519 -0.685291 0.677982 0.851546 0.569812 0.238685 0.406135 0.512649 -0.483869 -0.004069 0.644405 0.089152 0.165237 -0.815301 0.927226 0.863390 -0.011714 -0.030774 0.829349 -0.267365 0.260067 -0.247565 0.435727 0.765494 0.120694 0.370619 0.780758 -0.107159 -0.819723 0.264097 0.277597 0.532630 -0.499870 0.567042 -0.367343 -0.132596 -0.565540 -0.575612 0.206315 -0.053713 -0.175289 0.267222 0.926487 0.441962 0.702953 -0.315848 0.037891 -0.425994 0.720909 -0.661495 -0.472733 -0.776039 -0.010521 -0.475352 -0.857194 -0.859259 -0.836743 -0.652357 0.301600 0.194612 0.566801 -0.634070 -0.667434 0.698756 -0.196773 0.451623 -0.794010 -0.080134 -0.193165 0.634039 0.431681 -0.102147 0.650030 0.650757 -0.132816 -0.672470 -0.554499 -0.243516 -0.197298 -0.524916 1.047998 -1.150043 0.814424 0.820028 0.347792 -0.303342 0.409640 -0.655558 -0.488570 0.232415 0.360697 0.922102 -0.555360 -0.541054 -0.158062 -0.215458 -0.941628 0.265716 -0.052355 -0.140349 -0.194545 -0.198780 -0.845491 -0.170424
0.915936 -0.814655 0.019029 0.825056 -0.839156 -0.993174 -0.009946 -0.377613 0.429555 0.177014 0.623452 0.461362 -1.066951 -0.058358 -0.405176 0.207514 -0.742527 -0.076184 -0.540396 -0.144501 0.905886 0.172758 -0.449475 0.107148 0.878988 -0.691383 -0.353126 -0.895178 -0.189390 0.122174 -0.860321 -0.085623 0.880580 0.183244 0.256999 0.596829 -0.603081 0.918687 -0.801085 0.985154 -0.347782 0.138689 -0.068770 0.567077 -0.125709 -0.566527 0.053710 0.426749 -0.782015 -0.112366 -0.077015 0.544243 -0.058077 0.297222 0.518786 -0.591176 -0.018526 0.519574 0.219819 -0.637711 0.268361 -0.744816 -0.364648 0.820985 -0.067944 -0.155618 0.845405 -0.203459 -0.090929 0.435958 -0.354282 -0.034315 -0.965059 -0.040901 -0.943683 0.080263 -0.248390 -0.031318 0.206205 -0.455649 0.069718 -1.059601 0.474036 -0.119043 -0.494835 -0.495931 -0.373437 0.616388 -0.056341 -0.127415 0.541266 -0.823748 -0.169477 -0.862836 -0.485664 -0.342238 0.402984 0.838826 0.712031 0.374336 -0.227243 0.337410 0.471117 -0.392343 -0.262390 0.740591 -0.497702 -0.475484 -0.523875 0.039842 -0.959276 0.401654 0.079064 -0.657397 -0.734066 0.056872 0.450035 0.114045 -0.940074 0.612490 0.725912 0.994958 0.670082 -0.448858 0.135256 -0.789049 0.935604 0.760256
0.961232 0.516809 0.671038 -0.492974 -0.951433 0.006964 0.325381 -0.907842 0.034400 -0.420114 -0.806428 0.317955 0.197794 -1.225616 -0.786107 -0.744155 0.252780 0.555039 0.990566 -0.011742 0.007681 -0.350207 -0.396551 0.189562 -0.139254 0.516046 0.093348 0.715075 0.472368 0.268112 0.555789 -0.456952 0.138427 0.657557 0.417025 -0.268040 0.643687 -0.620878 0.627401 -0.721961 0.872172 0.109586 0.323098 0.573580 -0.904756 -0.165303 0.453505 -0.167988 -0.412062 -0.081727 -0.107321 -0.519924 -0.498931 -0.605997 -0.389664 0.269209 -0.275196 -0.206667 1.033786 -0.801160 0.607363 -0.330399 -0.534579 0.200924 0.413933 0.452893 -0.696920 0.293169 -0.154485 -0.644635 0.914335 0.702264 0.687501 -0.114773 -0.798099 -0.180220 -0.628067 -0.386922 1.003437 -0.961461 -0.638145 0.595285 -0.069958 -0.783091 0.124554 -0.511198 0.214876 0.840239 -0.254622 -0.217386 -0.124647 -0.353151 0.033517 -0.137131 0.289254 -0.754298 0.715441 -0.546343 0.370135 -0.639511 0.588465 -0.326587 -0.580267 -0.741509 0.547919 0.264230 0.156995 -1.081709 0.383880 -0.761094 -0.328803 -0.333794 -0.585164 -0.924294 -0.890413 0.500379 0.983741 0.904296 -0.271514 -0.508619 -0.144606 -0.659186 0.258765 -0.117137 -0.225024 -0.306135 0.218155 0.614016
-0.442481 0.079594 -0.881788 0.281085 0.437408 -0.940831 -0.465164 0.481054 -0.250086 -0.638532 -0.617526 -0.571692 0.635535 0.058851 0.727866 -0.993987 0.808151 -0.471253 -0.221747 -0.980290 0.665933 0.982323 0.412529 0.301160 0.827443 -0.566503 -0.841811 0.640595 0.451803 -0.674236 -0.418958 0.210123 0.190773 0.555140 -0.932299 0.764564 -0.229492 -0.805440 -0.674834 0.597984 -0.010038 0.901534 0.626202 -0.769935 -0.039065 0.548503 -0.495749 -0.824199 0.958219 -0.736124 0.806899 0.539695 -0.587939 -0.874000 0.330668 -0.460420 0.301476 -0.189276 -0.920629 -0.701877 0.987855 -0.218225 0.829453 -0.715850 -0.648243 0.666984 0.085612 -0.365968 -0.789954 0.388281 -0.852497 1.034249 -0.023125 -0.612480 0.785277 -0.085613 -0.726973 -0.571192 -0.935964 -0.391629 0.840397 -0.486710 0.396575 -0.378741 0.010362 -0.985791 -0.911306 -0.203336 -0.305565 0.248071 -0.527204 -0.211848 -0.417686 0.831940 -0.220536 0.352470 -0.408880 -0.609675 0.671454 0.854976 -0.294967 -0.731333 0.510506 0.282642 -0.535630 -0.702349 0.809157 0.886473 -0.724705 -0.620965 0.134248 0.325471 -0.231554 0.895325 0.366219 -0.740152 0.910252 -0.450062 0.636089 -0.656301 -0.129759 0.531995 -0.547189 -0.901732 -0.100786 0.393991 -0.681210 0.054731
-0.686896 0.001328 0.445499 0.449542 -0.922359 0.956529 0.488046 0.432660 0.244318 0.806487 0.308638 0.059360 0.346562 0.634877 0.516013 -0.580694 0.471607 -0.692805 0.111937 0.741102 0.533770 -0.681038 -0.353646 -0.951662 -0.454780 -0.528085 -0.633293 -0.321792 -0.917320 -0.237840 -0.943668 -0.302246 -0.043367 -0.230483 0.080677 -0.155481 0.923443 -0.473867 0.886797 0.050721 0.462729 -0.256188 0.094057 -0.071686 -0.015271 -0.635832 0.840567 0.059753 0.545367 0.202706 0.334313 0.023964 0.186908 -0.812668 -0.664748 0.622690 -0.145373 0.798178 -0.462203 0.454360 -0.260026 -0.775508 0.167597 -0.885263 -0.734218 0.918317 0.642412 -0.571655 0.813109 -0.737889 -0.888489 0.868062 -0.410113 0.929692 0.385333 -0.068710 -0.592119 -0.431985 0.323180 -0.619984 -0.653437 0.224741 0.026172 0.634189 -0.095158 -0.402212 -0.091189 0.339019 -0.727389 0.636967 -0.418400 -0.692854 -0.961125 0.909889 0.219123 -0.465991 -0.711678 0.706946 0.113428 -0.822414 -0.938025 -1.014893 -0.332337 -0.846767 -0.632498 -0.721194 0.598680 -0.538985 -0.269849 0.278081 -0.572964 0.198615 0.897508 0.254055 0.822356 -0.198998 -0.668491 -0.095712 0.255724 0.055286 0.556859 -0.455056 -0.860809 0.602271 0.193517 -0.855052 0.570453 -0.483919
0.505347 0.288367 0.543406 0.718587 0.746239 -0.948586 -0.159512 -0.273329 0.598656 -0.201345 -0.396173 -0.901292 -0.110475 -0.379975 0.399403 -0.718687 -0.635559 0.615917 -0.818494 -0.428053 0.643924 0.831117 0.346949 0.881927 0.485789 -0.881576 -0.571769 0.525921 -0.294878 -0.577931 0.948273 0.156712 -0.896558 -0.588231 0.232003 0.934480 0.037853 -0.215013 -0.344444 -0.896179 0.866620 -0.271914 0.872524 0.007152 -0.112529 -0.406949 -0.118564 -1.075028 -0.558863 -0.379780 -0.372256 -0.121728 -0.229454 -0.035757 0.825652 -0.060898 -0.905149 0.654222 -0.501733 -0.234551 -0.006402 -0.694261 -0.429127 -0.885454 -0.419895 0.254954 0.379270 0.212978 0.769353 0.953226 0.887349 -0.868048 0.893813 -0.509595 -0.274976 0.704156 0.501586 0.854722 -0.615201 0.040137 0.681199 0.730204 -0.723280 -0.688359 0.592856 0.301773 0.223654 -0.225378 0.031381 0.619982 -0.000159 -0.750553 -0.967839 -0.580232 -0.753082 -0.459356 -0.494155 0.826839 0.569261 -0.303455 -0.594903 -0.529404 -0.109917 0.790326 0.595046 0.258022 -0.373605 -0.054363 1.000358 0.236690 -0.657089 -0.861159 -0.070450 -0.073408 -0.365691 0.077525 0.408220 0.344660 -0.828714 0.861557 -0.641190 -0.992952 0.742455 0.522137 -0.312548 0.003058 -0.531046 -0.303268
-0.488723 0.546825 0.603787 -0.209299 -0.796731 0.914821 -0.219700 -1.002491 -0.084833 0.229938 0.377170 -0.268450 -0.848526 -0.200669 -0.867158 -0.759550 0.614798 0.609212 -0.313495 -0.551136 0.861621 -0.117926 -0.969474 -0.448660 -0.265433 -0.141756 -0.295308 -0.393128 0.394828 -0.296155 -0.986416 -0.243734 0.128771 0.715483 0.275012 -0.024179 0.857189 -0.172952 -0.529433 -0.481459 0.782575 0.124674 -0.424242 -0.480669 -0.180387 -0.176287 0.631090 0.439146 -0.218784 -0.399053 0.054746 0.282955 -0.626342 0.362000 -0.228535 -0.906189 -0.900799 0.363933 0.881463 -0.707515 -0.777613 -0.589357 0.013581 0.102079 0.735674 -0.822619 0.640708 0.392232 -0.093357 -0.932585 0.483151 0.739122 0.385047 0.374501 -0.681929 0.898427 -0.956039 0.094184 -0.489474 -0.428396 -0.891615 0.226415 0.013764 0.007674 0.211262 -0.123298 0.895050 -0.416222 0.318980 0.458440 -0.283386 -0.242082 0.292607 -0.606552 0.148015 -0.354288 0.049209 0.325019 0.098259 -0.320317 -0.708159 0.927715 -0.201173 -0.655113 0.516658 0.168877 -0.788410 -0.733162 -0.430969 0.289637 -0.797257 -0.226502 -0.369105 -0.444447 0.981591 0.589172 0.983951 -0.322928 0.704379 -0.173629 0.247386 -0.448722 0.810027 -0.917174 0.385448 0.751221 0.504304 -0.902967
-0.878223 0.196723 -0.115914 -0.055496 -0.226421 0.019156 0.076458 -0.925756 0.361377 0.421957 0.448370 -0.125584 -0.756580 -0.584983 0.314121 -0.996610 0.362887 -0.384770 0.464777 -0.199299 0.655535 0.809555 0.677890 0.781680 -0.082305 0.545106 0.881499 -0.257027 -0.404853 -0.799430 -0.743972 -0.486585 0.622580 -0.357475 -0.197764 0.448014 -0.776213 -0.220285 0.900244 0.014201 0.673832 0.431945 0.108182 -0.736275 0.089948 -0.970423 0.910381 0.285106 -0.730241 0.232828 0.796039 0.458191 0.498193 0.608002 0.474305 0.413788 0.572897 -0.442964 -0.445060 -0.851938 -0.887536 0.670855 0.288135 0.808628 0.710222 -0.232977 0.298553 0.399134 0.828089 0.417478 -0.619099 0.311138 1.001653 0.611474 0.027550 -0.374307 0.336040 0.021696 -0.238266 0.237280 -0.412150 -0.220335 0.704116 -0.984478 -0.212358 -0.432751 -0.433440 -0.915675 0.478188 0.544518 0.665247 -0.378011 -0.666280 -0.601617 -0.476137 -0.663631 -0.029147 -0.798947 0.379572 -0.469259 -0.816277 -0.365785 0.346324 -0.617411 0.749202 0.217513 0.095332 -0.067565 -0.463074 -0.898398 -0.895794 -0.986247 0.748498 -0.058207 -0.705264 -0.557754 -0.811840 0.303101 -0.828854 0.763423 0.231261 -0.063193 -0.336226 -0.342074 0.788954 0.755786 0.588905 -0.861236
0.606137 -0.110464 -0.166517 0.376008 0.836163 -0.559016 -1.003004 0.731385 -0.425577 0.417766 -0.498151 0.438793 -0.597489 -0.657825 -0.695388 0.361267 -0.468362 0.326918 0.808390 -0.533144 0.887687 -0.537245 -0.356169 -0.496710 -0.247309 -0.778386 -0.205195 -0.535677 0.595670 0.706703 0.008681 0.717771 -0.488323 -0.405069 0.184882 0.895187 0.239665 -0.885926 0.194481 -0.261076 -1.020737 0.824858 -0.373024 -0.681057 0.512298 -0.777480 0.900969 0.418973 -0.805973 0.941840 0.168659 -0.384368 -0.722908 1.287554 -1.029213 -0.097116 0.609668 0.133219 -0.916713 -0.466788 -0.935200 0.242987 0.775650 0.484482 -0.985924 -1.053540 0.108843 -0.316511 0.093842 -0.002215 0.265319 0.201391 0.389740 0.542585 -0.911623 0.321857 -0.718690 0.136369 0.921291 -0.393225 -0.393646 -0.223036 0.354186 -0.897471 -0.844631 0.252958 0.791656 0.245231 -0.503732 0.020659 -0.290668 0.481062 0.921214 0.437899 -0.833293 -0.083566 0.836712 0.093484 0.210119 0.007644 0.151888 0.958379 1.079046 0.577017 0.038111 1.055589 -0.429679 -0.002283 -0.585560 -0.244072 0.735041 -0.947097 0.851819 1.075517 0.421279 -0.335992 -0.358079 0.878571 -0.095076 0.731816 0.743719 -0.456197 0.772149 -0.417019 -0.520992 0.427230 0.436167 0.719098
-0.351882 0.398641 0.237113 0.730160 0.675694 -0.305600 0.259136 0.308149 -0.142091 -0.158045 0.858640 -0.622054 -0.218067 0.419948 0.545337 0.035800 -0.412897 -0.065832 0.382411 0.520998 0.769826 -0.310814 -0.120750 -0.357283 -0.442452 0.609111 0.544396 0.162506 0.301426 0.337248 -0.263384 -0.125509 -0.828432 -0.622750 0.671085 0.863712 0.350785 -0.296486 0.622507 -0.905198 0.762866 1.011555 0.664301 0.368589 -0.486593 -0.299123 -0.203767 0.755780 0.578233 0.739271 0.470920 0.392560 0.293840 -0.002449 -0.097060 0.658075 -0.742533 -0.798611 -0.059589 -0.671271 -0.107256 -0.629188 -0.985780 -0.869896 0.335001 -0.892988 0.697482 0.053172 -0.344205 0.835511 -0.381790 0.496125 -0.299340 1.215379 0.207329 -0.398016 -0.312647 0.363169 0.220060 -0.973357 0.488056 0.804379 0.762994 -0.578581 0.410132 0.884456 0.974457 0.282875 -0.247610 0.637374 -0.183035 -0.258806 0.767237 -0.725614 0.909332 0.043333 0.654706 0.443639 0.349664 -0.225699 0.817385 0.654653 -0.153531 0.273035 0.796709 0.523719 -0.498257 -0.223542 -0.728039 0.120268 -0.125265 -0.239293 0.358995 -0.213893 -0.952750 0.751360 -1.020875 0.061441 -0.741137 0.264016 0.499696 -0.256323 -0.307846 0.286128 0.698674 0.937730 0.871958 0.106612
0.132847 -0.608114 0.444752 0.162769 -0.734580 0.397967 0.283675 -0.907149 -0.724944 0.324668 0.799916 0.296600 0.174477 0.334189 -1.010163 0.245877 0.180319 -0.638264 -0.663660 -0.885833 -0.343972 0.239818 0.212963 0.206485 0.356892 -0.015076 0.269748 0.403169 -0.428422 0.380859 0.780949 -0.145605 0.292203 0.326116 0.794909 -0.010960 0.382119 -0.768081 -0.692104 0.652766 0.148407 0.586935 -0.743694 0.505811 0.837810 -0.785298 0.187371 -0.592879 0.306078 -0.310283 -0.539301 -0.928360 -0.569952 -0.757516 0.858590 -0.230627 0.474039 0.996644 0.066642 0.171568 0.785483 0.388927 -0.607851 0.655361 -0.134208 0.798272 -0.388559 -0.436110 -0.370338 0.982281 0.656734 0.226981 0.349442 -0.157320 -0.965769 -0.697410 -1.030586 0.337633 0.879943 -0.763662 -0.782099 -0.391395 0.284763 0.268263 -0.160243 -0.235460 0.189504 -0.612577 -0.688823 0.380410 0.232849 0.161160 0.398778 -0.986664 -0.771866 -0.853546 0.442236 0.235256 -0.019859 0.124268 0.342463 0.746847 -0.142300 0.336512 -0.322991 0.401903 -0.966217 -0.489054 -0.356144 -0.006784 0.526596 -0.273031 0.563153 -0.763896 -0.578786 -0.579955 0.258565 -0.749565 0.608146 0.084884 -0.668395 -0.253770 0.273404 0.161339 -0.290516 0.788087 -0.614018 0.060281
-0.477374 -0.440309 -0.464043 -0.901578 0.921606 0.982349 0.365384 -0.895666 -0.212943 -0.864532 -0.729089 0.208419 -0.598560 -0.220180 0.889271 0.828586 -1.116565 0.098526 -0.615276 -0.055619 -0.777475 -0.791970 -0.506422 -0.916478 0.705233 0.974231 0.732630 -0.142198 0.927212 0.387629 -0.882737 0.267375 0.022311 -0.773806 0.224475 0.491828 -0.244310 0.465426 -0.976937 -0.928986 0.898011 0.275324 -0.187905 0.027807 -0.446681 -0.339119 0.877540 0.157728 0.978537 0.708983 -0.346690 0.087377 0.554453 -0.207317 0.958554 0.619869 0.399161 0.114403 -0.034040 -0.866743 -0.484101 0.440269 -0.194470 -0.136882 -0.692098 0.422822 0.311911 0.041262 0.657400 0.595994 0.564847 0.023322 -0.298103 -0.569998 -0.868358 0.808357 -0.522924 0.382872 -0.248562 -0.386249 -0.503820 -0.918116 -0.946090 -0.948600 -0.610597 -0.954522 -0.334823 -0.407240 -0.995047 -0.143808 0.616931 0.631361 -0.709133 -0.822568 0.494256 -0.720244 0.177718 -0.331562 0.650077 0.876574 -0.111563 -0.765621 0.769319 -0.162043 0.811234 -0.026390 -0.140125 0.196347 -0.336879 -0.021816 -0.338280 -0.150765 -0.331555 -0.802621 0.327776 0.816592 0.413191 0.787363 0.774276 0.601033 0.292677 0.164416 0.397090 -0.021274 0.475852 -0.047553 0.473027 -0.672530
-0.207433 0.134493 0.654162 0.247037 0.007896 0.466482 -0.148588 -0.439056 0.649594 -0.259832 0.579658 0.299935 -0.141387 0.308418 -0.914008 0.801437 -0.696243 0.166404 -0.697105 -0.255020 -0.410843 -0.706420 0.574131 -0.691103 -1.093347 0.264407 0.452328 0.113433 -0.535758 0.124325 -0.247845 -0.110116 -0.867169 -0.541408 -0.709225 0.319896 0.911621 0.073175 -0.626420 0.542388 -0.567032 1.229053 0.312475 0.053953 0.420794 -0.390148 0.831695 0.153917 0.520563 0.257135 1.066682 0.586592 0.024296 0.810453 0.733925 0.409326 0.331066 -0.723981 0.397951 0.951677 -0.601478 -0.118045 0.570952 0.092387 0.930833 1.006713 -0.226272 0.190373 -0.361709 0.205205 0.641450 -0.442715 1.065673 0.671374 -0.273052 0.258520 0.315713 0.491202 -0.196153 0.330980 0.240366 0.042990 0.515560 -0.644325 -0.738680 -0.258579 -0.706554 -0.564471 0.289886 -0.630072 -0.918177 0.519801 -0.756493 -0.517710 0.179016 0.239299 0.244533 -0.639378 -0.189266 0.187941 0.341137 -0.202448 -0.647098 -0.396519 0.641158 -0.042324 1.000314 0.126088 0.445541 0.178790 -0.177184 0.384754 0.747565 -0.129015 0.416321 0.917316 0.542878 -0.136639 -0.542689 0.221417 -0.141863 0.961018 0.525726 0.495386 -0.503015 -0.454376 0.396241 -0.746170
-0.462085 -0.985850 -0.977881 0.067032 0.539993 -0.420098 -0.918472 -0.751291 0.273339 -0.785942 0.152478 0.665089 -0.741014 -0.211382 0.016297 0.882827 0.703787 0.670506 -0.216412 0.821621 -0.465205 -0.569700 -0.550090 0.236215 0.341407 0.610638 -0.323818 -0.618181 0.333152 0.435544 0.087160 -0.620755 -0.250455 -0.126137 -0.502281 0.846206 0.517185 0.292878 0.088989 -0.251563 -1.041191 0.563034 -0.013076 0.951329 -0.616374 0.724473 -0.156259 -0.374953 0.524609 0.588868 -0.544230 0.341538 -0.954161 -0.201097 -0.830644 -0.291663 -0.301009 0.037499 0.283037 0.944811 -0.801775 -0.879442 -0.413406 0.981557 0.999212 -0.536469 -0.504177 -0.397404 0.021456 -0.078998 -0.256586 -0.746085 0.299862 0.293230 0.450747 -0.050861 -0.027938 -0.603600 -0.044911 -0.850419 -0.059547 -1.027773 0.834757 -0.909774 0.266737 -0.764412 0.301431 -0.923799 -0.484538 -0.294491 -0.921708 0.480950 0.125560 0.763957 -0.895033 -0.574593 0.825393 -1.014890 0.234409 0.798485 0.345582 -0.370025 -0.377028 -0.453346 0.957353 0.104632 0.641251 0.433092 0.783512 0.929883 -0.443266 -0.478382 -0.811028 -0.088305 -0.373779 0.484017 -0.250123 0.680193 0.623730 0.498541 -0.434215 -0.072745 0.219386 0.254896 -0.092299 0.873208 -0.036385 0.227851
-0.162611 -0.610455 0.860241 -0.642069 0.910220 0.092357 -0.339017 0.967204 0.352876 0.809685 0.265421 -0.123035 0.469915 -0.598452 0.884282 -0.126073 0.391344 -0.048877 0.095665 -0.027468 -0.152479 -0.778758 0.800482 0.224275 -0.316967 -0.103839 0.153663 0.113988 0.722426 0.203084 -0.354707 0.472984 0.273712 0.338328 -0.634545 0.872944 -0.165516 0.528269 0.776049 0.305432 0.511777 -0.655964 -0.197306 -0.576601 -0.719899 -0.483810 -0.835925 -0.733387 -0.897156 -0.560266 -0.352433 0.647275 0.463022 -0.983305 0.828131 -0.746136 -0.870067 0.249378 0.331282 -0.531751 0.945660 0.647522 0.059308 0.654309 0.981108 0.930860 0.490087 -0.373565 -0.916352 0.713045 0.188398 -0.955080 0.845566 -0.003379 0.583927 0.869167 0.305873 -0.282215 0.313333 -0.332672 -0.115627 -0.422448 -0.390725 0.968468 -0.747235 0.878249 -0.304521 -0.143571 0.017475 -0.902070 -0.802580 -0.468535 0.069939 0.270050 0.465457 0.738086 -0.402203 0.590636 -0.810582 -0.368216 0.499761 -1.008699 -0.541187 -0.395172 0.651936 -0.675859 0.814283 -0.329099 -0.670099 0.747261 0.601188 0.566746 0.450862 0.892508 0.066100 0.462039 0.469193 -0.913215 0.365491 -0.648792 -0.092446 0.007400 -0.321534 -0.905802 -0.535345 0.609309 1.011846 0.290850
-0.707034 0.541868 0.619144 -0.986181 -0.416913 0.361654 0.614560 -0.307659 -0.449519 0.866294 -0.901745 -0.914156 0.313914 -0.388158 -0.190320 -0.715509 -0.250292 0.653240 0.054930 -0.958706 0.281585 0.527971 -0.300403 -0.450022 0.762026 0.796853 -0.289290 0.670731 -0.964436 0.108159 -0.455770 0.257146 0.979101 0.000609 -0.778646 -0.718067 -0.457389 -0.389969 0.886916 -0.900166 0.400699 -0.881636 -0.366130 0.658180 0.688785 -0.430916 0.875597 1.056631 0.351912 0.314984 -0.882074 -0.218102 -0.356617 -0.213477 -0.506135 -0.438819 0.226107 0.718820 0.823737 0.064342 -0.255718 0.161768 -0.558118 0.119771 -0.047279 0.053046 -0.080747 0.388574 0.849950 -0.075374 0.622848 -0.094062 0.848617 0.906831 -0.490668 0.123967 0.858584 0.913946 0.872622 0.553591 -0.586539 0.573799 -0.059677 -0.226087 -0.302138 -0.874030 1.080978 0.060058 -0.278738 0.135855 0.900410 -0.235000 -0.550350 0.943322 -0.478097 -0.042588 0.927545 0.226386 -1.116285 0.296990 0.410051 -0.662227 0.521713 0.935808 0.699900 -0.784154 -0.726912 -0.485870 -0.263570 -0.071849 -0.585542 0.044499 -0.109609 -0.397951 -0.853932 0.306973 0.375579 -0.942675 0.359179 0.056721 -0.761735 -0.869863 -0.057780 -1.007782 -0.051767 -0.274701 0.416366 -0.944018
-0.674371 0.714845 -0.961981 0.608297 0.971570 0.237567 0.149027 0.236383 0.274986 -0.888750 0.774582 -0.782405 -0.969644 -0.438370 -0.196842 0.864993 0.167342 0.184354 0.447298 0.142565 0.002601 -0.595678 0.747665 0.518689 0.441500 -0.711548 0.592924 0.379930 0.774307 0.116094 -0.935147 -0.262312 -0.761777 0.828937 0.318492 0.653727 -0.183190 0.956114 -0.387913 0.453723 -0.717692 0.131535 0.040715 -0.379662 0.832966 -0.292989 -0.895964 0.179118 -0.910559 0.235243 -0.049366 -0.104194 0.615864 -0.031912 0.215690 0.339523 0.143900 0.474236 0.026737 0.236982 0.254278 0.257423 0.085994 -0.800634 -0.876518 0.654605 0.809201 -0.274582 0.768033 -0.348890 0.223489 -0.359656 0.746107 -0.145704 -0.695417 -0.472601 0.921125 -0.140301 0.188945 -0.185444 -0.036018 0.697745 0.083131 0.270459 -1.005722 0.958301 -1.259821 -0.843066 -0.265117 0.427080 -0.710330 0.697739 0.065997 -0.882181 -0.836538 0.895283 -0.142176 -0.017360 0.292872 0.461221 0.898001 -0.089182 -0.921656 -0.672583 0.426570 -0.078353 0.873646 -0.177195 -0.082073 0.260570 -0.073746 0.737975 0.422750 -0.854858 -0.516192 0.670121 -0.608333 -0.065114 0.247192 0.653032 -0.995359 0.219819 0.298787 0.397562 0.197814 -0.390694 -0.795704 0.870946
-0.937882 -0.368945 -0.880701 -0.193261 -0.105652 0.206020 0.835228 0.524562 -0.023668 0.076124 0.323188 -0.192490 0.951307 -0.497928 0.168893 0.021466 -0.692538 -0.770753 0.344331 -0.452968 0.799574 -0.170856 0.709652 0.056640 -0.483040 0.155749 0.316184 0.681705 -0.241644 -0.374749 0.170235 -0.159960 0.744525 0.423988 -0.480746 0.155007 -0.363260 0.141024 -0.009707 -0.785775 0.930246 0.593539 0.555355 -0.750802 -0.260916 -0.599496 0.668746 -0.438152 0.116359 -0.690682 -0.480301 0.739327 0.988340 0.248666 0.510399 -0.890763 0.587442 1.012104 -0.510339 -0.219551 -0.196974 0.718202 0.953902 0.687343 0.271799 -0.185813 -0.259206 0.750956 0.207321 -0.836202 -0.095930 -0.635712 -0.455566 -0.240327 -0.017604 -0.821009 0.746095 -0.985229 -0.622518 -0.707234 0.982998 0.908464 0.768345 -0.407961 0.868317 -0.587264 0.732662 0.169436 -0.157235 -0.946691 0.804933 0.674031 0.899189 0.125470 -0.536091 0.904266 -0.745032 0.552141 0.155174 -0.134587 0.148676 0.106679 0.380149 0.483200 0.453136 -0.932583 -0.597090 0.062881 0.646473 0.906600 0.903151 0.454455 -0.477178 -0.566019 0.437837 -0.283423 0.723018 0.367643 1.060904 0.734975 0.941589 0.216989 0.615709 0.308264 -0.522402 0.139174 -0.834791 -0.631223
-0.697063 0.441982 0.613341 -0.653881 -0.587901 -0.890660 -0.441199 -0.038845 0.096289 -0.728497 -0.548402 -0.883471 0.862119 0.673744 -0.390135 0.472455 0.776802 1.037850 -0.235515 0.192657 0.628236 0.632572 -0.027564 -0.379535 -0.778432 -0.099048 -0.714579 0.749672 0.727697 -0.641356 -0.881945 0.528444 0.558994 0.523509 0.205698 -0.220001 0.605294 0.129737 0.709085 0.768102 0.109289 0.354694 -0.419992 0.796090 0.818795 0.273839 -0.517334 -0.270228 0.716838 -0.251231 0.800945 -0.439055 0.681035 -0.073485 -0.747148 0.570880 0.052174 -0.045525 0.486384 -0.264424 0.240914 -0.841819 0.902502 -0.666430 0.403326 0.642681 0.549806 -0.086205 -0.991339 0.490941 -0.780916 -0.142219 0.511670 -0.484127 -0.096244 -0.104042 0.662491 0.729051 0.857848 0.775658 -0.869270 -0.711547 0.228489 0.332455 -1.166200 -0.194678 0.898584 0.958460 -0.758703 -0.073663 -0.026286 -0.378454 -0.598182 0.873009 -0.561414 -0.461416 -0.583684 -0.739133 -0.191923 0.786626 -0.985981 0.472655 -0.130265 0.808631 0.386667 -0.219663 -0.355623 -0.277643 -0.401349 0.567369 -0.273481 -0.108932 0.131793 0.498064 0.901984 -0.967225 -0.105588 -0.344182 0.510587 -0.416499 -0.356333 -0.382242 0.922898 0.279587 -0.679318 0.706631 -0.554142 -0.954161
-0.555906 0.999528 -0.695769 0.413842 -0.070041 -0.239341 0.235348 -0.479442 1.079202 -0.037993 -0.550496 0.804758 -0.228968 0.907496 -0.704933 -0.748392 0.410961 0.473561 -1.303171 -0.870595 0.154510 -0.037660 -0.993827 -0.830056 -0.878480 -0.184285 -0.155896 0.082018 -0.593673 -0.272657 -0.348322 0.454687 -0.629239 0.784676 -0.248684 0.061639 -0.617954 1.015015 0.082757 -0.830392 -0.016314 0.980191 0.589843 -0.638949 0.801974 0.034707 -0.189012 0.885435 0.818628 0.306785 0.342197 -0.246601 -0.737998 0.196225 0.652805 1.072537 0.813668 -0.667243 0.247928 -0.807993 0.732761 0.332526 0.510721 0.586385 -0.257555 -0.534343 0.509368 -0.431911 0.143517 0.143644 0.320355 -0.440947 -0.726421 -0.069523 0.928938 0.172595 -1.038132 -0.825530 0.631146 -0.050914 0.041656 -0.960125 -0.338946 -0.878388 0.802167 0.511387 -0.520315 0.271120 -0.495924 -0.105814 0.278321 -0.462134 0.255713 -0.800494 0.521063 -0.797714 -0.592523 -0.201654 -0.083573 -0.585331 -0.710213 0.538909 0.698550 -0.528962 -0.309288 0.374329 -0.374146 0.675664 0.799873 0.937685 0.753382 0.020071 -0.625339 -0.399745 -0.374956 -0.761686 -0.537261 0.442172 0.411580 -0.234942 0.723847 -0.920826 0.688518 0.884562 0.543054 -0.668422 -0.121407 0.456525
0.858393 0.114396 -0.765914 0.793015 0.514955 -0.587320 0.147357 0.662790 0.706526 0.635083 0.194634 -0.245665 -0.301999 -0.676135 -0.446719 -0.443455 0.543130 0.765208 0.530086 -0.926795 -0.216808 -0.545049 -0.731368 -0.102500 0.074251 0.488220 -0.109850 -0.661566 -0.837044 -0.150289 -0.383767 -0.808636 0.715935 -0.048812 -0.521701 -0.122219 -0.983258 -0.185193 -0.533420 -0.221663 0.566840 -0.357328 -0.202209 0.384227 -0.750255 -0.754596 0.372362 0.749868 0.111505 -0.144518 0.324084 0.200170 -0.844160 -0.908865 -0.172284 0.648069 -0.776940 0.547759 0.993802 -0.823130 -0.528914 0.607087 -0.107771 -0.091369 0.180384 1.067316 -0.008910 0.528092 0.335900 -0.776699 0.570178 0.439686 -0.264998 -0.884647 -0.235026 0.135257 0.137892 -0.662221 0.676306 0.183783 0.707061 -0.476243 0.683428 0.619513 -0.495986 -0.282011 0.608392 0.368462 1.012230 -0.881474 -0.377462 -0.785334 -0.153755 -0.154390 -0.806311 0.793177 0.207396 0.739586 0.028421 0.293272 0.745485 0.618836 0.064479 -0.596782 -0.906679 0.579109 -0.595042 1.062698 0.049611 -0.084565 -0.757680 -0.437148 0.806776 0.540299 0.229132 -0.035055 -0.860603 0.144983 -0.587591 0.634412 -0.099547 -0.466756 0.462418 0.037433 -0.517422 -0.078949 -0.812917 0.856578
0.261855 -0.576403 -0.219113 -0.824189 -0.068526 0.730878 -0.724078 0.178577 -0.820862 -0.803077 0.553837 0.512978 0.220116 -0.686106 -0.888518 -0.792762 0.513214 0.267909 0.568102 0.262357 -1.104697 -0.798937 -0.561600 0.831452 0.897294 -0.992947 -0.580148 -0.449904 0.216201 -0.257527 -0.714324 -0.805833 -0.226948 0.826948 -0.774561 -0.934069 0.343075 0.024998 -0.240921 -0.258001 1.032861 -0.224853 -0.955899 0.436456 0.206722 0.767401 0.575757 0.794188 -0.986936 0.210038 0.503920 0.785774 -0.835705 -0.695694 0.006890 -0.091926 -0.751267 -0.005312 0.902416 -0.420362 -0.086145 0.221015 0.700352 0.015562 0.654550 0.841789 0.871026 0.386193 -0.529002 -0.093378 0.751579 0.573463 -0.620489 0.701965 0.021475 0.442521 -0.451945 -1.046697 -0.418685 0.018576 0.443877 0.160506 0.344442 0.709589 -0.998938 0.494823 -0.833357 -0.455590 0.724805 1.108794 0.363069 -0.294058 -0.602217 0.961914 -0.199349 -0.659101 0.294189 -0.443956 0.870228 0.551969 0.281534 -0.770230 -0.025734 -0.459917 0.260843 -0.115497 -0.186595 -0.716404 -0.562119 -0.553251 -0.489926 0.240131 0.303409 -0.171711 0.165143 0.334785 -0.544915 -0.799768 0.022287 -0.179254 0.602371 -0.194291 -0.609738 -0.499758 0.693012 0.939888 0.234917 -0.552723
0.468701 0.322053 -0.707290 -0.532360 0.315675 0.897039 0.139494 -0.212163 -0.385646 0.330508 -0.054645 -0.420639 -0.154656 0.580846 0.174422 -0.096345 0.626826 0.029955 0.867840 -0.962809 -0.541403 -0.199137 -0.567412 -0.881052 0.070906 0.169066 -0.683604 -0.191353 -0.514316 -0.875868 -0.687443 -0.042847 -0.227269 -0.589782 0.568406 -0.086654 0.573743 -0.181544 0.583439 0.803595 -0.434080 0.949297 -0.319453 -0.832301 -0.984427 0.667574 0.572891 0.223912 0.362551 -0.459565 1.057917 -0.477839 0.419111 0.655425 -0.170573 0.897121 -0.050843 -0.688950 -0.961550 -0.896156 -0.368357 0.225009 -1.045381 -0.156167 -0.079463 0.895776 0.736840 -0.688414 -0.834314 0.702854 0.080171 -0.294432 0.184545 0.258826 0.783922 -0.623233 0.845045 -0.641502 -0.543677 0.857427 -0.347307 0.527252 0.191692 -0.510685 -0.060705 -0.922288 0.841158 -0.908663 0.439317 -0.728710 -0.337850 -0.691560 -0.182244 -0.022707 0.509769 -0.412392 0.144318 -0.767018 -0.434899 -0.471998 0.371864 -0.073490 -0.413543 0.754278 0.957349 0.445857 0.840876 -0.231542 -0.060944 0.787012 -0.236016 -0.677564 0.718574 0.328150 -0.531402 -0.139176 0.335469 0.682131 -0.206309 0.580824 -0.098268 0.064342 0.653405 -0.052610 0.359478 0.724476 0.061633 -0.861911
-0.141717 -0.318963 -0.013494 0.543923 0.999783 -0.830218 0.930826 0.054870 0.117364 0.142111 0.347300 -0.722855 0.532011 -0.643135 0.286537 0.222789 0.085161 -0.137794 -0.563129 0.029097 -0.232581 0.073087 0.940209 -0.053996 -0.800616 -0.748245 -0.457139 0.485643 0.138595 -0.928519 -0.899191 0.779962 -0.324313 1.062540 -0.925928 0.314355 0.777402 -0.705481 0.801612 0.448202 -0.346826 -0.476617 -0.722888 0.313382 0.512835 0.787956 0.497811 -0.390124 0.205915 -0.850347 -0.074903 -0.443816 -0.370173 0.949809 -0.109509 -0.413699 0.659668 0.299560 0.591660 0.725871 -0.187783 -0.793277 0.356201 0.681695 0.575855 -0.342428 -0.241205 0.283127 -0.206783 0.183006 0.958177 -1.033434 -0.866112 0.338248 -0.066268 0.384309 -0.235054 0.044780 0.414797 0.085225 0.351513 0.162229 -0.505961 -0.799349 -0.133913 0.239084 -0.954148 0.775365 0.432266 0.473802 -0.882624 -0.675388 -0.973104 0.866055 -0.201301 0.954955 0.109546 0.461942 -0.488395 0.099177 -0.108533 0.536836 -0.896717 -0.622695 0.278083 -0.365013 0.272390 -0.665829 0.784832 -0.458437 0.399535 0.778246 -0.181906 -0.476758 0.016261 -0.504919 0.088930 -0.541390 0.758749 0.156625 0.862009 0.884623 -0.760558 0.756620 0.559480 0.755029 0.299663 -0.503044
