-0.597085 0.537950 -1.182924 0.658949
0.128290 -0.154204 -1.396615 1.166219
0.161620 0.138067 0.573407 -1.383126
-1.263115 0.063504 -0.329966 -0.237563
0.606960 0.812234 0.044191 1.029971
0.244463 0.708751 0.617748 0.753803
0.478902 -0.707509 0.301480 -0.430848
0.141161 0.683834 0.469497 0.260487
-1.154742 0.638509 -0.497435 -0.396278
-0.536194 -0.337583 -1.175359 -0.732659
-0.411655 -1.023022 0.146725 -1.564516
0.967135 -0.750583 -0.506061 0.898690
0.886013 0.008756 0.504819 0.093614
-1.162908 1.219724 -0.536984 0.412497
0.406066 0.076012 0.025702 -0.141048
-0.168276 -0.273299 0.307177 -0.078823
-0.150895 -0.294192 -0.128264 -0.465826
-0.222602 0.932665 0.971974 -1.048597
1.881590 -0.316446 0.834260 0.560378
1.092042 0.030488 -0.130378 0.807796
0.021309 0.495131 -0.096933 0.293399
-0.347734 -0.438847 0.466324 -0.874332
-0.340222 -0.906167 -1.302896 0.477764
0.185423 -0.065418 0.128260 0.066590
0.777956 0.212105 -0.596506 0.279386
0.866484 -1.083960 -0.647016 0.176860
0.357981 -0.321395 0.273395 -0.351977
-0.751319 -1.261140 -1.546455 -0.017135
1.128665 -0.498347 -0.176119 1.747293
-0.549575 0.236185 -0.337488 -0.385515
1.157692 -1.119131 -0.240653 -0.510241
0.371413 0.138571 0.225141 -0.103538
1.432286 -1.847900 0.089818 -0.576420
0.385296 0.129844 -0.019853 -0.616207
0.546922 0.432125 0.818561 0.299795
0.677285 0.519709 -0.878778 1.422361
-0.874643 0.586421 0.181328 0.445102
0.424241 0.201811 0.675111 -0.346707
-0.455137 0.694457 -0.295389 0.150726
0.005763 1.285855 0.116572 1.023785
0.147188 0.349605 -0.338147 1.588762
-0.760059 0.524376 0.090805 0.834258
-0.421870 0.343530 -1.517572 1.011152
-0.211013 0.668369 1.058384 -0.906139
-0.492884 0.219593 -1.162737 -1.612398
0.975659 -1.009492 0.560003 0.159811
0.252860 -0.653813 0.147585 -0.448223
-1.127509 0.474231 0.586334 -0.878337
0.549736 1.190531 0.680555 0.177891
-1.579005 0.680122 0.326979 -0.180013
-0.491038 0.439871 -0.052609 0.483538
-0.606730 -0.759843 -0.276679 -1.034824
0.546472 0.444867 0.156265 0.205763
0.331573 -0.762153 -1.659431 -0.379481
0.281972 1.076546 0.781406 -0.023895
-0.560991 0.273519 -0.023700 -0.275153
0.260318 -0.626576 -1.355638 0.249292
0.747811 -0.608223 0.286725 0.564893
1.605341 -1.075548 0.735905 0.320048
-0.666604 0.745142 -0.274470 0.405988
-0.770153 -0.433957 -0.572587 -0.968392
1.393166 -0.153455 -0.854050 1.711350
-0.619636 -0.969807 -0.421300 -0.857251
-0.018368 0.578321 0.009699 -0.692767
0.876953 0.358486 1.121518 0.465011
-0.803967 -0.988890 1.349696 -0.834174
-0.088334 0.008534 -0.150488 0.753256
-0.236542 0.129539 0.970026 -0.718147
-0.545559 0.143200 0.581370 -0.489836
0.302348 1.514964 0.579823 0.510583
-0.434181 0.895865 -0.359375 -0.527638
0.322700 0.967599 1.227206 -0.211616
-0.331183 0.593888 -1.303550 0.969307
-0.869588 -0.019691 -1.253664 -0.564931
-0.445725 0.145517 -0.036707 -0.313966
-0.441244 -0.075626 -1.587023 0.923456
-0.317685 -1.334988 0.125451 -0.982603
-0.234186 -0.366633 -0.238015 -0.145917
-1.352895 0.866152 -0.317447 -0.485422
-0.939455 -0.061644 -0.165880 -0.383230
-0.547681 0.500615 0.440613 -0.323206
0.296526 -0.798442 0.005799 0.179143
1.091509 -1.071303 -0.393486 0.111091
-0.731815 0.569901 -0.487012 0.357347
-0.607041 -0.436271 -0.687210 -0.174298
0.659420 1.171883 0.415030 0.325978
-0.775322 1.406384 0.881475 0.975449
0.959780 0.295588 0.675519 0.638667
-0.545450 -0.981782 -0.535485 -0.707767
0.264486 1.265535 -0.736657 1.551801
1.789081 0.750137 1.437646 1.691501
-0.776532 -0.054014 0.528709 0.708084
0.423848 -1.408266 0.077587 -0.360456
-0.271105 -0.761747 0.061569 -0.007428
0.417134 0.274220 1.259734 -1.102586
-0.227888 0.472351 -1.684060 0.610587
0.589056 1.022981 1.423837 -0.223764
-0.886146 0.591257 0.399170 -0.266228
-0.930608 -1.044741 -1.198259 0.278392
-0.256171 0.438065 0.101566 -0.017743
