0.093213 1.137193 -1.154905 0.467296 0.737730 -1.140629 -0.865327 -0.190393 0.870441 0.650300 0.530439 -0.517257 -1.044820 -0.115174 -0.494118 0.144129 -0.159394 -0.275741 -1.025684 0.643405 -0.421837 0.275072 1.013140 0.494488 -0.642455 -0.317327 -0.543783 0.275358 -0.888535 0.012535 -0.076764 0.811633 -1.094905 0.541417 0.187810 0.096860 1.135108 0.224801 -0.107883 -0.141041 -0.348532 -0.067267 1.261042 -1.092173 1.155362 -0.912867 -0.919115 0.203789 0.217124 0.199432 0.655382 0.457799 -0.959148 0.561675 -0.817976 -0.581905 1.011657 -0.520243 -1.341037 -0.627774 -0.503036 -0.325385 -0.005660 0.902966 -0.477840 -0.379278 0.214469 -0.014453 -0.728592 -0.189343 -0.647842 -0.879250 1.224606 1.147114 0.837678 0.611304 0.503040 0.341698 0.848128 0.405827 -0.271834 0.338976 -0.953193 0.504282 0.395650 -0.355950 0.833296 -1.225285 -0.131913 -0.329474 -1.647134 0.390316 0.403829 0.132419 0.017451 1.264756 -1.002877 0.706014 -0.477231 0.605196
0.214352 -1.173110 -0.621185 -0.165856 0.920176 0.879441 0.565978 -0.184989 -0.862342 -1.032325 -1.191604 0.510569 1.163934 -0.762448 0.130019 0.511788 -0.274702 0.439418 1.420644 1.256836 0.947183 -0.519344 -0.302332 -0.470229 0.789141 0.314174 -0.009373 -1.684953 1.437210 -0.522755 -0.490631 -0.547161 0.511505 0.124677 1.499225 0.272885 0.295961 0.834380 -0.076806 0.868729 0.993469 -0.643811 -0.717830 0.930589 -1.400615 0.803056 0.532852 0.565921 1.568843 -0.422685 0.533822 -1.429617 -0.591151 -0.119276 -0.494612 -0.302013 -0.426753 1.114288 1.625297 0.668837 -1.402155 0.452209 -1.050822 0.974419 0.421469 -0.190438 -0.137230 0.644134 -0.416312 0.735737 -0.756093 0.745601 -0.479521 -0.348897 -0.024136 -1.156067 0.052248 0.345672 -1.506420 -0.570371 0.690063 -0.754784 1.027257 -0.422767 0.481093 0.469760 0.313402 0.979662 -1.285760 0.132336 1.517587 -0.346576 0.028050 0.542413 1.508020 0.019826 0.024149 0.046114 -0.181673 -0.200402
-0.057048 -0.500881 0.235307 0.574666 -0.297429 -1.045934 0.311648 -0.539802 0.666253 0.143244 0.993871 -0.168876 0.626319 -0.751067 -0.464602 -0.075243 0.297118 0.188179 0.565657 -0.785534 -1.051159 -0.383852 0.271236 -0.821017 0.495652 -0.420504 -1.034744 0.775825 -0.355128 -0.107062 0.438439 0.318177 1.211945 0.204874 0.387635 0.622596 -0.458450 0.927479 -0.363097 0.029958 -0.266392 -0.149636 -1.136155 -0.321023 0.251901 -0.003625 0.285263 0.742465 0.065747 -0.502647 -0.666185 0.048859 0.576607 0.972530 -0.051764 -0.793851 0.129562 0.068767 0.677908 0.631375 -0.137800 -1.035543 1.012292 -1.072824 -0.865838 0.528655 0.004719 0.772706 -0.783831 -1.435178 -0.265375 -1.171403 -1.109836 -0.029368 0.360824 -0.350311 1.196034 1.054081 0.804695 0.427603 0.342698 0.500284 -0.040496 -0.864589 0.754945 0.007151 -0.512898 -1.203638 0.873350 -0.210361 -1.185630 0.175007 -0.255138 0.815296 -0.944291 -0.564142 -0.975021 0.818163 1.107775 0.831763
0.796832 0.326622 -0.845656 0.507434 -0.743318 -0.401132 -0.357556 -0.606042 0.142978 -1.040890 -0.145665 0.753729 -0.772375 0.496402 -0.684946 -0.067545 -0.320094 0.487987 -0.504263 -0.634059 -0.125597 0.725082 0.725933 -0.828689 0.660353 -0.572495 -0.068369 0.398608 0.936929 -0.762811 -1.417094 -0.939655 -1.688818 0.679038 -0.753404 0.199644 -0.264727 -0.364668 -0.344981 0.484544 1.336181 1.170024 0.480382 0.260532 -1.323197 0.397340 -0.190258 0.897030 0.370028 0.296344 0.782657 -0.263442 -0.289466 -0.374625 -0.675066 -0.205567 0.174335 0.523140 -0.553300 0.392325 0.601581 -0.316829 0.699593 0.472835 -0.458640 -0.376037 0.922531 0.819899 0.101374 -0.586843 -0.216788 0.363510 -0.351904 -0.301627 -0.249220 0.105252 0.592675 0.340574 0.446417 0.671436 0.515985 0.789974 -1.135132 1.269075 0.814094 0.358490 0.994320 0.085935 -0.364406 1.023335 0.069526 0.263288 -1.272606 -0.170674 -0.984071 0.750189 -0.154433 0.666011 0.855459 0.198746
0.125174 0.110564 0.201420 -1.184019 -0.116119 -0.217649 0.675562 -0.329223 -0.980559 -0.706856 1.075650 -0.324959 -0.226744 -1.296886 -0.086717 -0.651625 0.202019 0.599873 -0.290600 0.284376 -0.235110 0.167159 -0.787968 -0.335427 0.061879 0.962208 0.891770 -0.001801 0.351538 0.392406 1.402342 -0.510375 1.394870 -0.784196 0.687064 -0.416923 -0.805916 0.641662 -0.050258 -0.688110 -1.323145 -0.553077 -0.981464 -0.379794 1.182350 0.020568 -0.051316 -0.588135 0.497490 0.165777 -1.177115 -0.245007 0.358100 1.193081 -0.585868 0.222564 1.220702 -0.613740 -0.094042 -0.589817 0.094391 -0.234405 1.201173 -0.729440 -0.698758 0.505553 0.445541 -0.240509 -0.217249 0.323411 -0.910656 -0.845624 0.500866 0.645347 0.448596 -1.070424 -0.577789 0.190580 -0.616658 -0.324959 -0.661161 -0.838775 0.616286 0.009436 0.305960 -0.006694 0.201867 -1.059492 -0.236104 -0.142973 -0.338870 0.090306 0.596797 -0.757041 -0.841603 -0.292747 -0.939575 -0.976891 0.290364 -0.199201
-0.449296 0.060006 -0.115784 -0.270781 -0.744756 -0.969813 0.732264 -1.138255 0.596504 0.835775 -0.664741 0.864304 -0.135995 0.221244 0.115863 -0.887198 0.115926 1.021086 0.548248 -0.279587 0.024983 0.102501 0.006190 -0.375897 0.685193 0.034305 -0.699523 -0.110828 -0.863685 0.196124 -0.404929 -0.388044 0.701201 -0.769114 0.441335 0.813090 -0.701673 0.529026 -0.671503 0.376223 -0.736302 0.964450 0.611985 -0.455330 -0.208935 0.233016 0.660860 0.394806 -0.052779 0.727555 -0.367043 -0.821225 0.732808 0.690816 -0.642659 0.159241 0.238953 0.080264 0.014347 0.963388 -0.549222 0.148364 -0.782502 -0.843076 -0.496813 -0.508391 0.636354 0.213700 0.871806 0.626992 -0.116284 0.897257 -0.531883 0.838667 0.284034 0.464362 -0.698558 -0.090138 0.257392 0.574477 -0.262289 -0.543812 0.083898 -0.915084 0.027624 0.870051 0.079386 0.167113 -1.042999 -0.362308 -0.775899 0.681857 0.713438 0.590649 0.812124 0.578287 -0.616531 -0.248023 0.737456 -0.658728
0.940693 0.284312 0.419047 1.131013 0.302986 1.116263 -0.684564 -0.661893 -0.466234 -0.734484 -0.757234 0.177412 0.055927 -0.624971 -1.311961 -0.339632 -1.004993 -0.073365 -0.166856 -1.135052 0.793599 -0.930204 -0.929031 0.544932 -0.347322 -1.186689 -0.568038 -0.493304 0.146692 -0.326108 0.347992 0.155551 -0.965053 0.378266 -0.707883 0.154758 0.701205 -0.176364 -0.261309 0.393488 -0.175960 0.183080 0.108452 -0.890783 0.501910 -0.901859 -0.180654 -0.089977 0.831649 1.399011 1.012188 -0.127880 -0.399838 -0.529620 -0.044913 0.296822 -0.384875 -0.421550 -0.214557 -0.572442 -0.710534 -0.168017 -0.354340 0.159950 0.656085 0.702302 0.038966 0.973286 -0.180467 0.168439 0.454003 -0.392815 0.561842 0.261926 -0.228870 0.328770 0.104161 -0.731179 1.023619 -0.047466 0.293671 -0.974284 -0.607866 -0.223951 0.319574 -0.632902 0.913112 0.100054 -0.347355 0.308082 0.364906 0.729656 -1.024351 -0.310514 0.044217 0.268202 0.355272 0.967143 0.940822 -0.289940
-0.204650 -0.706653 0.868625 -0.865126 0.279999 0.080377 0.052604 -0.050840 -0.815489 0.644021 0.761053 0.587238 0.604275 0.029108 -0.490992 0.723449 0.141136 0.448427 -0.364255 0.257729 -0.923270 0.617778 0.977461 0.939704 0.678429 0.486914 -0.125785 -0.427645 0.010678 -0.110275 0.884001 -0.772130 -0.207177 0.025088 0.690044 -0.542211 -0.696178 -0.520810 -1.089267 -1.086982 -0.191255 -0.186300 0.136450 -0.165828 1.093062 1.385755 0.225006 0.650959 0.782862 -0.660838 -0.295984 0.112341 -0.777155 1.140214 -0.753129 -0.026494 1.132346 0.854049 1.339394 0.657793 0.538529 1.093561 -0.367108 0.810476 0.222431 -1.033499 -1.148469 0.086520 0.274140 -0.691761 0.463717 0.274197 0.131518 -0.277871 -0.149039 0.530012 0.729817 -0.314637 -0.616294 -0.157081 0.050350 0.513078 0.197709 -0.480176 -0.238096 -0.040102 0.275316 -0.294434 0.184727 0.333152 0.711516 -0.619843 0.632615 -0.906122 0.386017 -0.903475 0.069324 -0.925414 -0.531754 -0.541549
-0.641502 -0.829681 -0.326146 -0.533501 1.046748 -0.852346 -1.058678 0.649320 0.934113 0.186595 0.188150 -0.807807 1.006840 -0.404355 -0.183139 0.935510 -1.085763 -0.515095 -0.758319 0.174100 -0.451194 -0.537890 -0.669266 0.197822 -0.474169 0.383542 -0.831360 -0.810345 0.444091 -0.063375 -0.215105 -0.833587 0.914385 -0.446562 0.138461 0.620819 0.038278 0.429125 -0.334656 1.140393 -0.371371 -0.222351 0.585339 0.611991 0.009755 -0.189248 -0.115472 0.026524 0.012641 -0.156948 0.980704 0.963237 -0.353822 -0.472456 0.958201 0.314122 0.539554 0.658999 -0.600942 0.838389 -0.686927 -0.295743 0.422479 0.690494 0.093437 -0.881190 0.072188 -0.599377 -0.896578 -0.201783 -0.153825 0.764263 0.381476 -0.291662 0.206222 -0.080107 0.455785 0.475062 -0.100504 -0.403221 0.678162 0.652904 -0.022085 -0.819828 -0.063953 -0.560914 -0.714981 0.374715 -0.439433 0.792434 0.694264 -0.859161 -1.007597 -0.687544 0.075825 -0.015161 0.925793 0.123132 -0.420303 -0.513642
-0.228049 -0.608896 -0.983561 0.939601 0.252971 -0.573412 -0.613485 1.125361 0.019571 0.594605 0.093284 0.105777 -0.085499 -0.205534 0.434270 0.921463 -0.020787 0.882589 -0.628009 -0.440984 -0.676699 -0.205841 0.556598 -0.092856 -0.904119 0.202432 -0.354395 -0.475948 -0.519699 -0.820632 -0.548937 -0.436392 -0.522504 -0.265839 -0.406287 0.071521 0.651150 -0.423070 -0.360352 1.028991 1.091682 1.145811 0.680151 0.066238 0.246668 0.088877 -0.134843 1.055965 0.612959 0.741063 1.160733 -0.642037 -0.059329 0.083631 0.967800 0.453206 0.150755 -0.778019 -0.419885 0.109050 -1.013882 -1.158406 -0.337052 -0.326904 0.336648 -0.444056 0.174723 0.985707 0.511116 1.047647 -0.078213 -0.033585 -0.327751 -0.025239 -0.531041 -0.099541 -0.307168 -0.164018 -0.035381 0.028467 0.903810 0.073299 -0.335381 0.217953 -0.421240 0.360002 1.292553 0.204714 -0.811538 -0.777909 0.181536 1.278211 -1.164093 0.002798 -0.897140 -0.549533 -0.347768 0.393849 -0.575093 0.008310
-0.371156 0.457916 0.871520 -0.914320 -0.349017 -1.197166 0.364940 -0.941274 -1.311011 -0.111569 -0.242519 -0.030363 0.983884 -0.386571 -0.697501 -0.922147 0.295916 0.009193 0.437530 1.154202 0.368920 0.632435 0.157219 0.596847 -0.482200 -0.293032 -0.269233 0.278427 -0.388896 -0.284120 0.551554 0.363711 0.708658 0.762001 -0.750329 0.168541 -1.211565 -0.811165 -0.693997 -0.654663 0.304512 -1.077128 0.681549 0.732100 0.531164 1.241997 -0.759144 0.133154 -0.820544 0.245093 -0.065518 -0.447650 0.213915 0.055973 -0.277595 0.676812 -0.058854 0.683812 0.952086 -0.700304 -0.677797 0.542327 0.351476 0.510717 0.838544 0.587033 -1.076758 -0.956054 -1.129588 -0.667032 -0.076896 -0.844841 0.741267 0.471690 0.144772 -0.031697 -0.043568 -0.169091 -0.548946 -0.275554 0.075534 -0.101960 0.718353 -0.349142 0.326282 -0.232882 -0.158281 0.500939 -0.305121 0.061042 0.073472 0.201444 0.122297 -0.025888 -0.223826 0.742028 0.572709 -0.544287 -0.596311 -0.876557
-0.428962 -0.983552 0.070618 -0.129721 -0.712619 -0.126359 -0.210503 -0.794340 0.254136 0.167841 -0.560805 -0.479237 -0.674870 0.723655 0.195364 0.164266 -0.367976 0.805641 -0.330802 0.716239 0.620199 -0.274512 -0.123202 0.411624 0.244763 0.679284 0.379585 -0.809936 -0.151247 0.528656 -0.315714 -0.030120 -0.330294 0.140293 -0.350582 0.821599 -0.733007 0.892744 0.138628 0.582463 0.288216 0.403532 0.080992 -0.734193 0.804135 -0.352830 0.610941 0.771439 -0.171392 -0.851190 0.874198 1.028153 0.560243 0.234206 0.809885 -0.098421 -0.374442 0.656968 0.003815 -0.776436 0.327441 0.173396 -1.048185 -0.166739 0.354677 0.744002 0.209244 -0.098436 0.104694 0.898519 -0.859770 -0.530895 0.316243 -1.095930 -0.551041 -0.320482 -0.305127 0.148310 -0.651719 0.417600 -0.879453 0.897820 -0.675137 -0.077207 -0.058412 -0.562139 -0.042432 0.867892 -1.087735 1.006236 0.745610 -0.815675 0.055148 -0.528894 -0.778219 -0.476276 -0.234772 0.447355 -0.176706 0.566699
-0.056807 -0.269924 0.467899 -0.437446 -0.614522 -0.629652 -0.752826 0.115174 0.144683 0.398271 -0.127738 -0.612884 -0.109763 0.462611 -0.885033 0.950472 -0.089071 0.193211 -0.133075 -0.023436 0.328575 0.790529 -1.075372 -0.122377 -0.015727 -1.015601 -0.850789 -0.808702 -0.064507 0.672251 -1.189802 -0.222337 0.394572 -0.888517 0.007376 -0.148262 0.503983 0.339300 0.470528 1.069663 -0.902681 0.470439 0.941805 -0.778524 -0.811216 -0.115376 -1.060372 0.626862 0.229287 0.867146 -0.185407 -0.204449 0.525369 -1.067720 0.950749 -0.003678 0.616938 0.364799 -1.037069 0.883883 0.207475 0.333239 -0.603465 0.134291 0.357629 1.098170 -0.885150 0.985398 0.864641 0.025179 0.438305 1.075747 -0.147664 0.462203 0.577548 0.302858 -0.899828 -0.959273 0.511161 -0.472787 -0.265473 0.448671 -1.024405 1.134680 -0.883991 0.910219 0.915691 0.239415 0.951105 -1.007037 0.349771 1.106537 -1.096142 0.428845 -0.706187 0.226157 0.549722 -0.008209 0.521815 -0.272100
-0.309253 0.853194 0.702049 0.171864 -0.705888 0.444954 0.728140 0.655603 -0.024549 -0.293605 0.348467 1.092781 -0.792165 -0.991124 0.434600 0.643755 -0.130112 -0.949453 -0.045890 0.428265 0.638908 -0.229849 -0.502107 0.321180 0.315302 0.736512 -0.164298 -0.319318 1.105404 -0.396784 0.515531 -0.841624 0.498798 -0.232653 0.141995 0.249646 -0.873396 -0.839000 -0.708994 -0.527851 0.914802 0.587324 -0.977408 -1.044726 -0.271949 -0.532234 0.599455 -0.019445 0.304776 -0.488019 -0.345436 -0.891100 0.216306 0.185320 0.108424 0.246713 1.300684 0.313997 0.607918 -0.294722 0.838853 0.950034 0.166010 0.889557 -0.538532 -0.922262 -1.036255 -1.127211 -0.317400 -1.050344 0.440516 0.663579 -0.157975 -0.504076 0.133415 -0.799752 -0.552379 0.441294 -1.039032 -0.027700 -0.840109 -0.165442 0.545454 0.727141 -0.288586 0.452479 -0.356462 0.713635 -0.078272 0.634089 -0.111364 -0.492197 0.736374 -0.690552 -0.667501 0.676394 -0.955841 0.396802 0.085612 0.280644
-0.041569 0.004855 0.634884 -0.121251 0.537678 -0.327708 -0.700724 0.275935 -0.675770 0.467129 -0.318853 -0.920171 -0.777018 -0.113221 -0.007752 0.254490 0.794665 0.820974 -0.418002 -0.194576 0.890914 0.792421 -0.540403 -0.870260 0.222963 0.222925 0.371321 -0.131973 0.731846 -0.695210 0.051841 -0.555004 0.031516 0.800366 0.083007 0.895812 0.859668 0.130614 -0.197203 0.362147 0.150874 -0.708145 0.303751 0.260371 0.433116 -0.465774 0.680403 -0.037000 1.073064 0.782319 -0.272715 -0.831064 0.717578 -0.542226 -0.445329 -0.633572 0.706502 -0.433181 0.623096 1.022591 -0.070553 0.262924 -0.192937 -0.985492 -0.910398 -0.795326 -0.156978 0.572395 -0.166599 0.178154 -0.770304 0.968401 0.979036 -0.882847 -0.239379 0.052717 -1.072431 0.138338 -0.813330 -0.557085 -0.453948 -0.265862 -0.261869 -0.491492 -0.047171 0.723707 0.565852 0.898075 0.615471 0.064206 -0.604434 -0.414052 0.217352 -0.551945 -0.078153 -0.419202 -0.250076 0.685692 -0.709029 0.248080
0.526901 0.283880 -0.631051 -0.384743 0.141402 0.048580 0.134371 -0.359953 0.109717 0.621705 0.371777 -0.968276 -0.342507 0.499818 0.181344 0.982534 -0.252469 0.466645 -0.778017 -1.120496 1.051903 0.186313 -1.073886 -0.128244 0.158605 0.220632 -0.875698 0.300128 -1.429560 0.732345 -0.489664 0.218747 -0.102068 -0.378228 0.778504 -0.696523 1.026836 -0.506663 1.166608 -0.881779 -0.121977 0.383736 -0.486281 1.024234 0.524144 -1.006372 0.449295 1.322942 1.247666 0.530517 -0.661961 0.809936 0.417754 -0.246610 -0.052449 -0.556714 -0.338100 -0.711194 0.411455 -0.189155 0.148722 -1.542829 -0.481970 0.493813 0.482399 -0.081929 0.159635 1.135445 1.330887 -0.652786 0.321176 0.576984 0.086927 -0.074050 -0.162292 -1.034723 -0.088890 -1.093953 -0.119270 1.104364 -0.146417 -1.252974 -1.204110 0.827213 -0.991140 -0.061034 0.524135 -0.419999 -1.077595 -0.783653 0.704602 0.171347 0.158504 -0.048877 0.607994 -0.235771 0.307929 -0.423519 -1.010267 0.355465
0.534233 0.737256 -1.027562 -0.557072 -0.777794 -0.550494 0.816677 -0.234314 -0.799715 0.344531 -0.140652 0.490737 0.817313 -0.926040 0.656890 -0.156543 -0.717215 -0.538950 0.226272 -0.053219 0.255146 -0.319813 -0.108585 -0.284035 0.345520 0.710308 0.625690 0.197660 0.841783 -0.823870 1.332119 0.848905 1.132188 -0.130890 0.200286 1.221229 -0.866960 -0.254643 -0.438798 0.190358 0.251152 -0.956890 0.462988 -0.785131 -0.116414 -0.247997 -0.770948 -0.617703 0.750814 0.143715 0.261963 0.001876 0.623662 0.074046 -0.893372 0.269941 0.363620 -0.112299 -0.015748 0.072464 -0.753770 0.315586 0.920611 -0.262130 0.569595 -0.552185 0.558282 -0.553035 -0.990036 -0.588842 0.286496 -0.239162 0.563748 0.756049 -0.178982 0.859840 0.640335 -0.039088 -0.008788 0.781833 -1.230488 0.984260 0.311364 -1.195127 -0.661472 -0.283232 -0.970907 -0.240109 0.638508 0.003658 0.273696 -0.815387 0.185967 0.658797 -0.887315 0.231734 0.444117 -0.353410 0.693423 0.375508
-0.148941 -0.878509 0.190211 -0.897485 0.020415 0.770866 0.345000 -0.873124 -0.788701 -0.875306 -1.248652 -0.757913 0.940002 -0.251051 0.048045 0.573120 0.187155 0.425698 0.416419 0.973716 -0.113000 -0.893918 -0.620196 -0.561643 0.028332 0.349670 -0.586092 0.787847 -0.006853 -0.203485 0.142351 0.790580 -0.366130 -0.805907 -0.276043 1.070877 -0.933426 -0.762182 0.659780 1.082538 -0.118834 -0.149231 -0.348297 0.568129 0.316506 -0.449635 -0.466094 -0.271957 -0.452057 -0.851818 -0.783262 -0.268383 0.625490 -0.405765 -0.555995 -0.434406 -0.407077 -0.835076 -0.247457 0.256622 1.086685 -0.363179 0.345511 -0.226020 -0.508022 -0.978443 0.520132 -0.145283 -0.532692 -0.245696 0.330465 -0.696175 -0.548166 0.564330 0.831304 -0.147460 -0.362792 -0.681939 0.486497 -0.104472 0.812940 -0.391808 -0.601423 -0.315591 -0.220269 -0.559953 -0.198097 -0.037678 0.247203 -0.578819 0.392277 -0.125117 0.396109 0.560194 0.933145 0.612658 0.112727 -0.924926 -0.076784 0.597586
0.904603 1.096103 -0.445812 0.060904 -0.015103 -0.688314 0.082752 0.083161 1.027323 -0.762121 -0.412065 -0.400348 0.111620 0.918594 -0.289795 -0.990732 -0.898678 -0.390744 0.193306 -0.548109 0.296326 -0.492612 0.761896 -0.983635 1.347616 -0.085228 -0.156461 -0.365809 -0.371279 -0.675854 -0.719635 0.634557 -0.190044 -0.260655 -0.826048 1.361022 -0.139003 0.127489 0.130547 0.003182 -0.212100 0.615064 0.503010 0.346859 0.696823 -0.209493 -0.310938 -0.632122 -0.637978 -0.744986 1.080749 -0.116314 0.524634 -0.126968 0.393021 -0.457479 -0.593177 -0.874136 -0.716327 0.813370 -0.476503 0.989880 0.103065 0.785817 -0.875923 -1.059142 -0.325503 -0.418463 -0.364919 1.146094 1.029155 -0.587614 0.441175 0.306510 -0.225625 0.844226 -0.751891 -0.855712 -0.183140 1.059866 -0.061751 -1.142706 -0.124224 0.623707 -0.682705 0.869610 -0.172009 -0.411101 -0.939740 0.741546 -0.059838 0.204624 0.529106 -0.134393 -1.070715 1.464298 -1.016077 0.027574 0.496846 -0.777650
-0.915299 -0.850958 0.237641 0.334138 0.198919 0.183282 0.048026 -0.998867 -0.447109 -0.895454 0.617002 -0.044896 -0.745189 -0.467964 -0.650002 0.942392 1.103309 0.247299 1.222171 0.934696 0.255687 0.610200 -0.492536 0.988222 -0.736523 -0.673191 1.122506 -0.215646 0.248973 -0.814044 0.994111 -0.617807 0.801474 0.815084 0.029876 -0.476398 -0.926618 0.308061 0.350900 -1.344859 0.431160 -1.175458 -0.635006 0.994440 -0.392697 0.218596 0.719324 -0.748890 -0.571822 -1.039358 -0.192728 0.216970 -0.450096 -0.847241 -0.111002 0.267243 0.751004 0.642527 -0.041324 0.114746 0.903556 -0.799823 0.579340 0.073111 -0.221458 0.231839 0.172740 1.193724 -0.622322 -1.058396 0.756605 -0.633808 -0.910268 -0.588744 0.618533 -1.185527 1.165323 -0.395032 0.500787 -1.003677 -0.342073 0.027807 0.964189 -0.659587 -0.752795 -0.846432 -0.759505 -0.415294 -0.017025 -0.879568 0.225276 -1.011465 0.258068 -0.475887 0.425182 -0.976469 1.004967 0.617989 0.398447 0.202264
1.036502 -0.058578 0.800162 -0.698639 1.136693 0.738673 -0.096968 -0.105062 0.779161 -0.153866 -0.397135 -0.042675 -0.344301 0.767821 0.250236 0.589241 0.576885 -0.710649 -0.602178 -0.485002 -0.031126 0.528119 1.068856 0.440407 0.374169 -0.355839 0.010690 0.075420 1.041967 0.715978 -0.754003 -0.069344 -0.075761 -0.435619 0.514826 -0.770010 -0.241482 -0.827735 -0.082289 -0.521023 -0.109404 0.024265 -0.417813 -0.483675 0.017197 1.053143 -0.641248 0.784734 -0.300310 -0.569152 0.461369 0.743726 0.676452 -0.168611 -0.451416 0.007724 0.283753 -0.389605 -0.890910 -0.944837 -0.649470 -0.781941 0.457795 -1.341899 0.470849 -0.607257 0.932123 -0.048613 0.829791 -0.484788 -1.064697 0.327938 0.456360 -1.225877 -0.643930 -0.844894 -0.554298 -0.529485 -0.788919 -0.438820 0.318780 -0.467304 0.564180 -0.655906 0.026065 -0.270731 0.996818 -0.003424 -0.564940 -0.843788 0.647525 0.018670 0.876811 -0.048696 -0.277746 0.335343 0.276681 -0.353515 1.091405 -0.037566
0.970310 0.906745 -0.281199 0.754883 0.842415 0.447369 0.840939 0.557124 0.372964 -0.591489 0.453267 0.090571 0.606795 0.481686 -0.049922 -0.301663 0.659255 -0.142468 0.022385 0.408507 0.666356 -0.380046 0.967954 0.707284 -0.849751 -0.557813 -0.047483 -0.888622 -0.197838 0.374093 -0.386218 0.547835 -0.980519 0.835109 0.401197 0.370760 -0.413356 0.384638 0.404727 -0.679271 0.027372 -0.202895 -0.347178 -0.771834 0.198194 0.467363 -0.341323 0.090798 0.808138 0.570664 -0.409755 -0.224250 0.837918 1.042006 0.596190 0.421769 -0.408698 0.547912 -0.266660 0.445136 -0.516309 -0.101486 -0.313715 -0.565640 -0.417568 0.486635 -0.324190 0.232885 0.462924 -0.336056 0.121580 -0.106290 -0.066186 0.752488 1.042210 1.055649 -1.166227 -0.429863 -0.605005 0.369379 0.889256 0.591349 -0.742032 1.099921 -0.161919 -0.071230 0.398363 0.626424 -0.383325 0.605975 -0.561158 -0.688645 0.418499 0.267296 -0.193697 0.906083 -0.371106 0.074811 0.473689 0.273766
-0.895414 -0.348623 -0.309845 0.767808 -0.059212 0.677624 0.685135 -0.790153 0.324134 0.385820 0.827055 -0.550322 0.969944 -0.647147 -0.643598 -0.781984 0.876909 0.412727 -0.682735 -0.731706 -0.566541 0.859848 0.285044 -0.596926 -0.780390 -0.789615 0.473510 -0.130375 -0.036659 0.427821 -0.799811 0.396921 -0.592506 -0.735650 -0.840519 -0.429921 -0.009950 0.226487 0.086759 -0.405547 -0.586635 -1.021069 -1.065212 -0.553320 0.049530 0.953169 0.886415 -0.865658 -0.853769 0.119111 -0.201075 0.499640 -0.174424 -0.325709 -0.143166 0.428664 -0.033104 0.797994 0.546215 -0.190807 0.902901 -0.424802 0.697157 0.289918 0.850097 0.845475 0.894326 1.153000 0.457701 0.471189 0.416520 -0.815524 -0.248507 0.244234 0.015876 -0.480045 1.011614 -0.923559 0.185884 -0.568509 0.196317 0.426606 -0.836036 -0.124997 0.758156 -0.547532 -0.368141 -0.469715 1.014194 -0.559906 -0.685098 -0.403026 0.456256 0.687060 -0.092218 -1.178831 -0.753563 -0.974666 -0.014019 0.141044
-0.769691 -0.290223 0.533343 -0.253996 -0.548429 0.452801 0.812581 0.008606 0.256012 -0.623252 0.661772 0.220900 -0.535181 0.356866 -0.797701 0.844162 -0.169817 0.180567 -0.814617 -0.390472 -0.747278 0.319352 0.590468 -0.497757 -0.952647 -0.628964 -1.039448 0.982234 -0.638929 -0.835426 -0.850428 -0.511644 0.054778 -0.069667 -0.824701 -0.461860 0.140134 -0.486210 0.496493 1.244928 0.953553 0.253416 -0.010512 0.849595 0.350277 0.965125 0.381579 -0.213625 -0.794707 0.503608 0.746585 -0.505497 -0.574483 -0.311608 -0.826910 0.244648 0.599134 -0.372559 0.557771 -0.647238 0.792518 0.795157 0.626753 0.767337 0.993224 0.105085 -0.045361 0.051212 0.399142 0.718827 0.729788 -0.408291 -0.885100 0.541690 0.654967 -0.028241 -0.429859 -0.491840 0.440171 -0.076065 -0.687891 -0.595389 -0.481318 0.096477 0.992419 0.530884 0.942284 0.718012 -0.077166 0.317663 0.110632 -0.076945 0.846154 -0.609874 0.290963 -0.290586 -0.414214 0.820448 0.775074 -0.477982
0.672228 -0.015585 0.560656 0.375614 -0.452781 0.886031 -0.172752 -0.181774 -0.581187 -0.473289 0.403242 -0.598161 -0.083606 0.470396 -0.702684 0.328142 -0.160921 1.021137 -0.849496 -0.529156 0.009316 -1.065776 0.980623 -0.846716 -0.133880 -0.060762 -0.112675 -0.030813 0.435556 0.908886 -0.694260 -0.730792 -1.051804 0.464613 0.262526 -0.040741 0.755320 0.758953 0.118676 1.263015 -0.053109 -0.463856 0.757445 -0.770261 -0.505565 -0.364689 -0.595686 0.230176 0.377937 0.782427 1.153734 -0.049332 -0.196523 0.025699 -0.804234 0.705250 -0.666641 0.683795 -0.351717 0.487486 -0.789028 0.899503 -0.881505 0.280244 -0.274638 0.629220 0.671314 0.571865 -0.434039 0.168895 0.204299 0.226681 0.260338 0.921237 0.110176 -0.233706 0.026624 -0.103312 0.621639 0.311538 -0.400171 0.351750 0.345667 -0.334332 -0.428541 -0.402177 1.342130 0.374557 -0.187192 -0.002778 0.409564 -0.301148 -0.423812 -0.962772 -0.416992 -0.361947 -0.762742 -0.422423 -0.321521 -0.468148
0.195729 0.921336 -0.376360 0.250612 -0.180975 -1.000433 -0.192326 0.476235 -0.272881 0.609186 0.380562 0.976512 -0.836924 -1.188990 -0.149025 0.493293 0.933178 0.865572 1.157687 -0.147910 -1.005546 0.108494 0.581229 -0.985923 0.780731 0.697182 -0.528903 -0.264748 -0.079577 -0.293774 -0.519867 0.469669 1.118969 0.968885 -0.147095 -1.016024 0.261764 -0.544873 0.331410 -1.333915 -0.339257 -0.213123 -0.007547 -0.325359 0.890764 0.146005 0.078030 0.233786 0.077222 0.005524 0.352628 -0.194791 0.484201 0.636852 -0.608845 -0.501550 -0.178418 0.515960 0.579301 -1.181577 -0.539078 -0.071406 -0.318498 0.520993 -0.508531 -0.901689 -0.040473 -0.199361 -0.428229 0.011120 -0.929900 0.843567 -0.221447 -0.049676 0.235185 0.494333 -0.086537 -0.539217 0.047436 -0.848484 0.386023 0.240573 0.965906 0.119859 -0.308393 0.748092 -0.475427 0.205616 0.928297 -0.471306 -0.799280 0.149037 -0.241524 0.704101 0.184449 0.334042 -0.171311 -0.384294 -0.013431 0.813494
-0.671883 0.334635 -0.281281 0.591842 -0.593949 -0.772416 0.960511 0.085315 -0.009529 -1.093519 0.094875 0.061713 -0.244760 -0.412616 0.122332 -0.200148 -0.343278 0.248880 0.737933 -0.576834 -0.526310 -0.534415 0.344266 0.797540 -0.163561 -0.315821 -0.367318 0.430026 0.503740 -0.137243 0.308644 0.186426 0.069627 -0.539909 0.484555 0.090591 0.801819 -0.747380 0.683079 0.315414 0.574996 1.043303 -0.213911 -0.329843 0.409989 -0.542947 -0.364995 0.884383 -0.215226 0.095673 0.933691 -0.759459 -0.519702 -1.158612 1.070320 0.004775 -0.984924 0.411652 -0.228329 0.171195 -0.144541 0.714141 -1.086156 -0.447705 -0.592804 -0.622294 -0.808835 0.589793 -0.953940 0.672447 0.678351 -0.830385 -0.811941 -0.208229 -0.801015 0.366434 0.158869 0.539194 0.356561 0.874226 -0.658339 0.408445 -0.191622 0.486363 -0.814574 0.362139 -0.207442 0.692476 0.276260 -0.400900 -0.457816 0.333260 0.435196 -0.498991 -0.739685 -0.139800 -0.028076 -0.126726 0.355897 0.046474
0.401494 -0.830198 -0.115369 -0.261877 -0.849141 -0.194158 0.791165 0.416716 0.856246 -0.497810 0.142555 0.468198 -0.182132 -0.475980 -0.100734 -0.574472 0.490599 -0.285199 -0.708302 -0.135974 0.451951 -0.091397 -0.466419 -0.140961 -1.044016 -0.029566 -0.507503 0.619025 -0.348768 0.967420 -1.108979 -1.000625 -0.505520 -0.102590 0.210433 -0.009348 1.166433 -0.410722 -0.838620 -0.706383 0.017014 0.562200 -0.196770 1.008210 -0.955172 -0.269189 -0.897196 -0.613369 -0.391172 1.231840 -0.570728 -0.372360 -0.815027 -0.243054 0.297047 -0.124124 -0.483535 0.735342 0.464133 0.243986 -0.499123 -0.113144 0.596087 0.258307 0.150096 1.090478 -0.787470 0.159092 0.575788 0.550193 -0.357571 0.161405 0.304243 -0.754145 0.261003 0.937550 0.021344 0.547217 -0.654088 -0.458779 -0.331415 -0.070031 0.182913 -0.865878 0.271749 -0.964468 0.832234 0.108783 0.096349 0.779606 -1.050073 1.132119 -0.920422 0.545444 -0.968359 -0.378137 -0.204846 0.711498 0.745816 -0.852455
0.434730 0.185820 0.682515 0.830382 0.761889 -0.381162 0.440560 -0.427233 0.709035 0.767799 0.477832 -0.767800 0.900373 -0.722779 0.441570 0.105019 0.692347 -0.666365 0.445945 -0.617539 0.962793 -0.351908 1.015229 0.846011 0.243075 0.775705 -0.464552 0.848357 1.147031 0.949435 0.961869 -0.504790 0.926454 -0.176663 -0.333052 -0.242101 0.653934 0.424018 -0.530958 -0.083260 -0.610197 -0.506412 0.322124 -0.478396 -0.270549 -0.649143 -0.504391 -1.190852 -0.639134 0.065143 -0.086719 0.547881 0.568056 0.175650 0.371715 -0.933908 0.339336 -0.754330 0.864510 0.273220 -0.611446 -0.291169 -0.880403 0.696268 -0.143021 0.470569 0.769889 0.103802 -0.150152 -1.006646 0.600490 -0.492006 0.824754 -0.157054 -0.421586 -0.594360 -0.096934 -0.358018 0.707750 -0.845129 0.517157 -0.659219 0.513434 -0.872379 0.800557 -0.869258 -0.983925 0.272153 0.883154 -0.300529 -0.861541 -1.114764 0.786528 0.150375 -0.285793 0.802743 -0.397072 -0.431526 0.473789 -0.883620
-0.863124 -0.621374 -0.412875 -0.024930 -0.575301 -0.073379 -0.169042 -0.619739 0.286116 0.372787 -0.626819 0.914871 -0.506891 -1.063251 -0.524613 0.653459 0.743546 -0.207393 0.910649 -0.376273 0.432551 1.100358 -0.854695 -0.035340 -0.129808 -0.171466 -0.124479 0.805189 -0.300273 -0.730728 -0.028512 -0.438576 -0.013461 1.191799 -0.705015 0.285713 -0.291805 0.012004 -0.361074 0.914312 -0.874224 -0.939217 0.493591 -0.369145 -0.621243 -0.394465 0.603426 0.171397 -0.683860 -1.094646 -0.755249 -0.366506 -0.117919 0.829771 -0.272151 -0.785132 0.019459 -1.018118 -0.090412 -0.580742 -0.249290 0.090691 0.269947 0.405085 0.708671 -0.180256 0.822446 0.825220 -0.663379 0.631260 -0.181534 0.696741 0.709972 0.489887 -0.399749 0.847486 0.289411 -0.187471 0.848145 0.121501 -0.010167 0.723241 0.007956 -0.793589 0.439336 -0.794845 -0.380746 -0.068610 -1.109979 0.293962 0.188833 -0.698685 0.560745 -0.877895 -0.760960 -0.161249 0.252634 0.795675 0.290801 0.365524
-0.677595 -0.117547 0.404606 -0.685785 -0.247398 0.446086 0.887176 -0.301691 0.584111 -0.562813 -0.806066 -0.403167 -0.595849 0.922591 -0.215455 -0.835186 -0.889059 0.788267 0.658448 0.525117 0.305810 1.006635 -1.077915 -0.977289 0.353843 0.512612 -0.051796 -0.241747 -0.238401 0.522274 0.807114 -0.644598 0.197507 0.433117 0.658251 -0.566078 -0.845933 -0.144885 0.600315 0.413884 -0.278891 -0.392761 -0.755650 0.170601 0.599240 -0.641238 -0.897213 0.726103 0.421925 -0.194037 -0.806074 0.042272 -0.673437 0.727385 -0.388907 -0.598433 -0.466681 -0.301275 0.638807 0.761356 -0.797167 -0.027417 -0.282299 0.790659 -0.805574 0.411800 -0.821989 1.043543 0.291076 -0.731215 -0.676752 0.422415 0.644272 -0.325240 0.706516 0.810855 -0.808341 0.182516 1.205800 -0.646219 0.136374 -0.465495 -1.019741 -0.364410 0.417927 -0.862277 0.965449 -0.772617 0.107665 0.060444 -0.407720 0.906294 0.658607 0.701613 -0.073005 0.845059 0.928967 0.473040 -0.995732 -0.003263
1.222535 0.512347 0.338413 0.850018 -0.674474 -0.401438 -0.667919 -1.138846 -0.191440 -0.150465 0.304532 0.669438 -0.182779 -0.654208 0.748490 -0.149157 0.575572 0.690587 0.637272 0.828988 0.181002 0.303144 0.582547 0.195291 0.259987 0.253083 -0.462516 0.741261 0.886935 0.641775 0.373204 0.101987 0.017375 0.689982 0.722327 0.763140 0.318583 0.466770 -0.739828 0.071449 0.023010 -0.766608 -0.322085 -0.165390 -0.072130 0.858817 0.725167 -0.155815 -1.207899 -0.647667 0.497170 0.766279 0.898694 0.418822 -0.091664 -0.954551 1.326964 -0.398341 0.439655 -0.209955 1.073806 0.410920 0.674010 -0.564609 -0.165331 -0.998424 -0.347114 -0.296187 -0.819784 -1.067225 -0.721623 -0.631959 -0.084513 -0.127727 0.335726 -0.148461 0.224167 0.623831 -1.069469 0.761097 -0.191099 -0.722579 0.047954 0.204253 0.502086 0.720867 -0.628825 -0.875452 -0.860170 -0.517654 -0.184966 -1.275567 -0.562160 0.941616 -0.798152 -0.222018 0.257639 0.029479 -0.118859 0.526271
-0.723272 0.586435 -0.809614 -0.448389 -0.096586 -0.446382 -0.468548 -0.883704 -0.842416 -0.149252 0.218831 -0.272758 -0.096057 0.699776 0.791041 -0.456026 0.711059 -0.320156 -0.490226 0.927129 -0.504652 0.760457 -0.097656 -0.138012 -0.505583 0.925916 -0.040973 0.833202 -0.054297 -0.186111 -0.881950 0.526894 -0.491351 0.004761 0.590634 -0.952064 0.440670 -0.028340 0.377492 0.400410 0.371444 -0.683006 -0.027660 0.326088 -1.213989 0.596153 -0.749620 -0.415381 -0.711378 1.068807 0.003132 -0.292517 0.797375 -0.034337 0.337339 -0.224396 -0.717114 0.433915 0.301189 -0.017743 -0.035143 0.112619 0.648256 0.613870 -0.683935 0.631667 0.801364 -0.530196 -0.343881 -0.231584 0.265653 0.095361 0.335570 -0.710106 0.613585 0.151221 -0.666058 -0.702275 0.858141 0.200482 0.440890 -0.350296 0.254682 0.160091 0.020316 -0.379019 0.001406 -0.815924 0.207497 -0.317170 0.904538 -0.598653 0.667823 0.250429 -0.731657 0.346283 0.789208 -0.042389 -0.552870 0.716219
0.116132 -0.585990 0.537379 -0.329159 0.443000 -0.575147 -0.296166 -0.282529 0.775307 0.122135 0.689890 -0.186705 0.574074 0.260123 -0.535250 0.462565 -0.545210 -0.301478 0.676153 -0.953549 -0.571876 -0.555453 -0.444493 -1.071031 -0.587033 -0.250570 -0.212052 0.244117 -0.912851 -0.619967 -0.145263 0.987106 0.127690 -0.440996 0.903881 -0.362405 -0.291309 1.201366 0.827823 -0.460880 0.444138 -0.119875 -1.284786 -0.016985 0.026997 -0.825555 0.451113 0.657211 -0.483136 -0.032238 0.136582 -0.026944 0.911108 0.235480 -0.091416 -0.144910 -0.086669 -1.141822 -0.878136 -0.217141 0.960566 -1.343518 -0.108227 0.973526 -0.446790 -0.699321 -0.827650 0.268863 -0.258972 -0.122505 0.642878 -0.443899 -0.785617 0.635465 -0.361929 -0.486704 -0.625133 0.745514 0.815274 0.411812 0.999421 0.200813 -1.193084 -0.243221 0.429328 0.840871 0.389607 0.132726 -0.989415 -0.621938 -0.757771 0.037070 -0.004356 -0.589245 0.327729 -1.189709 1.026204 0.186159 -1.278890 -0.598265
0.383199 -0.323768 -1.050092 -0.806215 -0.271464 0.005913 -0.023308 0.334857 -0.349043 0.425573 0.102828 0.828146 -0.640914 -1.003319 0.829534 -0.795744 -0.827368 -0.041712 1.053869 0.956403 -0.533193 0.217064 0.916539 -0.850319 0.961636 0.960854 0.332902 0.544257 -0.213138 -0.626761 0.530192 -0.155665 -0.477874 -0.897936 -0.028548 0.799159 0.671138 -1.101213 -0.531837 0.732386 0.061558 -0.767687 0.523697 -0.238715 -0.009611 -0.446873 -0.802462 -0.739695 -0.400423 -0.999917 -0.778360 1.007550 -0.068958 0.581007 -0.753666 -0.709732 -0.457169 1.176899 0.852733 0.239861 0.065504 0.206646 0.360522 0.706548 -0.591482 -0.750481 0.762719 0.107145 -0.429456 -1.033879 -0.895022 -0.949120 0.961939 0.709041 0.481264 1.255742 0.857592 0.282669 -1.138377 -1.118191 0.184498 0.592653 -0.267260 0.731453 -0.000648 -0.082907 -0.904046 0.556572 -0.062371 0.265292 -0.694396 0.941252 -0.438369 -0.431452 -0.844035 0.826014 -1.308129 -0.162977 1.153852 0.114789
0.181737 0.380100 0.491678 0.319648 -0.671313 0.465742 -0.081057 0.902711 0.732808 0.216722 -1.022393 0.141315 0.284931 0.451408 -0.954581 0.115206 -0.610961 -0.833106 -0.479052 0.094195 -0.910952 -0.749946 0.779994 0.693877 -0.696905 -0.300423 0.360131 -0.303419 0.484143 0.416825 -0.946586 0.143909 -0.007463 0.738565 0.895435 -0.478004 0.698818 -0.339834 -0.831753 -0.667049 -0.070055 0.050768 -0.512279 0.819485 -0.885544 0.875573 -0.354444 -0.078982 -0.026768 -0.337153 -0.904674 0.007561 -0.626015 0.533757 -0.812792 0.125781 -0.322745 -0.799760 -0.895050 -0.429847 0.361069 0.246169 -0.982352 -1.219131 -0.062846 -0.040326 -0.793574 0.043228 0.688306 0.149695 -1.140979 0.620560 -0.094853 0.300520 0.650050 -0.668729 -0.159649 0.612760 -0.359819 0.276003 -0.657021 0.142347 -0.533408 0.666145 0.759685 -0.027534 -0.380752 -0.461572 0.388057 0.844161 0.369448 0.325524 -0.081253 0.984505 -0.866380 -0.012037 0.248044 0.555369 0.022241 -0.810265
0.268999 0.837164 -0.062338 0.956912 1.183788 -0.876678 -0.184566 0.536545 -0.209331 -0.098301 -1.142467 0.683755 -0.228073 0.251132 0.084690 0.560447 -0.952158 -0.742764 -0.477144 1.007164 -0.787003 0.461071 -0.573958 0.495839 -0.416298 -0.253711 0.428784 1.221276 0.597279 0.441180 -1.332810 0.714603 -1.033048 -1.133988 0.170999 1.304286 -0.518361 0.269735 1.033353 -0.451169 1.318183 0.615906 0.124545 -0.297818 -0.361893 0.104213 0.446110 -0.329735 -0.373015 -0.808196 1.126163 -0.356696 0.459298 0.916861 -0.790056 -0.491490 -0.135676 -0.696794 -0.608983 0.881843 -0.899274 0.487628 -0.037689 0.628524 -0.696324 -0.890363 0.249756 -0.064179 0.154662 0.259090 0.520993 -0.564882 0.264181 0.674552 -0.894160 -0.291267 -1.254467 -0.677542 -0.755054 -0.668409 0.004281 0.553854 0.218188 -0.187492 1.083846 -0.586387 -0.610497 0.061344 -0.326614 1.047627 -0.268376 -0.701941 -0.779691 -0.328204 -0.641408 0.381243 0.107393 -0.073570 0.288412 -1.058619
0.045784 -0.847936 -0.323214 0.787458 -1.230062 0.217621 0.053437 0.294706 -0.903692 -0.938030 0.673830 -0.816787 0.528910 -0.437652 0.901335 -0.153748 -0.594079 0.078501 -0.059938 0.004496 -0.750971 1.150264 -0.236452 -0.184707 0.070640 0.259096 1.040292 0.135967 0.672813 -0.181551 -0.097432 0.552433 1.121911 -0.542138 -0.518033 -1.021634 0.195687 -0.229982 -0.131518 -0.850794 -0.198124 -0.453235 -0.749676 -0.360218 0.115804 1.061779 0.376327 0.423933 0.452216 0.320252 0.018273 0.086803 0.003743 -0.184225 -0.302633 -0.848393 0.177572 -0.693459 -0.141075 -0.380606 -0.981248 -0.457268 0.127819 0.976359 0.233066 0.895975 0.455453 1.095906 -0.679570 -0.682316 0.405130 0.603534 -1.273934 -0.631933 0.324136 -0.957909 -0.387019 0.434114 -0.859599 0.863813 0.482452 0.289238 -0.028241 -0.475223 0.055195 -0.029250 0.196749 0.764833 0.681528 -1.524651 -0.519604 0.208758 1.311225 -0.421318 1.169311 -0.758231 0.277488 0.813936 0.441237 -0.589445
-0.337362 0.489151 0.179811 -0.642743 -0.623797 0.053732 0.572647 -0.126844 0.451335 0.663188 -0.450105 -0.733059 0.589837 0.266611 -0.072739 -0.724909 -0.706037 -0.106597 0.038786 1.171669 0.838748 -0.405976 -0.428676 0.569354 -0.183645 0.330135 0.227778 0.201767 0.959898 0.788962 -0.142241 0.252723 -0.094084 1.129793 0.210269 0.487197 0.601192 0.870892 -0.258878 0.175162 -1.057933 0.338830 -0.442841 0.951230 0.940936 0.428303 0.619276 -0.820097 0.724759 -0.724001 0.545094 0.740111 -0.749608 -0.033368 0.039766 0.178628 -0.015831 0.439307 -0.018542 0.077476 -0.029517 -0.620751 -0.122728 -0.470678 -0.225518 0.643848 0.190823 0.210591 0.247331 -0.158045 0.400190 0.244900 0.071630 -0.359167 0.190717 0.563855 -0.778261 -0.655086 -0.896906 0.173550 -0.708607 -1.024215 -0.447766 0.083776 0.723501 0.069859 -0.191362 0.931330 0.770095 0.849098 0.840366 -0.516358 0.677523 0.179780 0.052895 -0.635751 0.454460 -0.211574 0.606105 -0.727218
0.735700 0.174770 0.554973 -0.893440 -0.456667 0.770891 -1.155070 0.617778 -0.680156 -0.643119 0.318856 0.126756 -0.743567 -0.765462 -0.865537 -0.081338 -0.545958 -0.537730 -0.736952 -0.173026 -0.276637 -1.023026 0.799082 -0.778240 0.631098 0.157022 -0.079652 -0.307345 0.003909 -0.032334 0.179659 0.384659 -0.770199 -0.840747 -0.745704 0.260071 -0.731872 -0.453482 0.331232 0.566220 0.721772 0.536695 1.107462 -1.012609 -0.824784 0.427487 0.272824 0.492838 0.026087 -0.089179 -0.577229 -0.902750 0.264210 1.040096 0.768100 0.289061 -0.258635 -0.123155 -0.758914 0.219155 0.643030 -0.262552 0.416076 0.703738 0.646659 -1.330601 0.127181 -0.120354 -0.151490 -0.612743 0.627326 -0.543101 0.493505 -0.377369 -0.551736 0.136718 -0.642497 -0.742789 0.848694 0.912226 0.024682 0.194917 -0.698838 0.454954 -0.692549 0.340628 -0.891048 -0.918286 -0.108879 1.218041 -0.080758 -0.515172 -0.984070 0.366546 0.731471 1.384048 -0.392337 -0.419589 -0.422697 0.800690
0.154217 -0.024876 0.078903 0.067583 -0.753034 -0.630682 -0.245830 0.917709 -0.258757 -0.185089 -0.232004 -0.980532 -0.572169 -0.074129 -0.478414 0.323700 -0.494294 0.407873 -0.710033 -0.634013 -0.512882 -0.462620 0.258910 -0.790533 0.488811 0.863668 0.567122 0.372378 -0.464531 -0.526815 -0.389911 -0.840279 1.165812 -0.541360 0.760932 -0.900962 -0.724722 -0.184172 -0.878111 0.264344 -0.089814 -0.535935 -0.362542 0.666800 -1.105656 0.866650 0.649682 -0.127096 -0.449026 -0.440861 0.819347 0.634678 -0.253795 0.058092 -0.323685 0.278783 -1.104002 1.057432 0.584459 -0.691064 0.669233 -0.713869 1.077587 0.771478 0.732716 0.777898 0.626059 0.179040 0.127375 -0.770306 0.744838 0.574556 -0.594693 0.330701 -0.662828 0.399468 0.479508 -0.693771 -0.448042 0.503344 -0.099367 0.115857 -0.735913 -0.986222 -0.056242 0.410233 -0.534441 -0.910290 -0.799629 -0.704357 -0.684834 0.867522 -0.176848 0.770692 0.954034 -1.332070 0.958389 0.487608 0.497342 -0.817792
0.702690 0.710723 0.918774 -0.586860 1.053507 0.302383 -0.184465 -0.298196 -0.360110 0.847245 -0.451319 -0.898485 -0.602053 0.901541 -0.637516 -0.324602 -0.667027 -0.238522 0.068757 -0.447648 0.983658 -0.092845 -0.357617 0.260030 -0.540704 0.343236 0.210636 0.946462 0.654737 -0.902056 0.171305 -0.372364 -0.536810 0.559259 0.961364 -0.634746 0.782055 -0.426290 -0.847668 -0.093764 0.597550 -0.595194 -0.091605 -0.325272 -0.601526 -0.383475 -0.206722 0.289176 0.089006 0.842749 -0.175061 -0.395376 0.921224 -0.536620 0.476250 0.569898 -0.456036 0.402585 -0.006255 -0.233372 0.249439 0.236720 0.697625 0.531065 0.566567 -0.727518 -0.195235 0.207990 0.667687 0.013579 -0.164627 -0.463776 -0.813025 0.317180 -0.075598 -0.259504 0.372304 -0.105937 -0.259993 0.370730 -0.302780 -0.791429 -0.153668 1.017539 -0.590130 0.758316 -0.895654 0.474825 0.877585 -0.535370 0.528795 -0.913063 -0.614091 -0.712689 0.130085 0.271937 -0.427553 -0.076047 0.567266 0.844492
-0.228305 0.571197 -0.383827 1.031201 0.249852 0.357263 0.337268 -0.993804 0.858858 0.538047 -0.486353 0.441403 -0.483580 0.590774 -0.987944 -0.587778 -0.578149 -0.468082 -0.184778 -0.931130 -0.148126 -0.875141 0.188176 -0.275365 -0.078304 0.900961 0.625431 0.234971 0.159529 0.509423 0.731558 -0.515776 -0.401610 0.125914 -0.800853 0.824974 0.469932 -0.583539 0.785788 -0.989011 -0.291405 -0.917160 0.379732 0.788123 -0.556675 0.953818 -0.055963 -0.688485 -0.859840 -0.172657 -0.770980 0.713806 -1.044044 0.894749 -0.485301 -0.089369 -0.977653 -0.546443 0.193076 0.839890 0.211654 -0.378174 -0.022840 -0.318843 -0.987341 0.399613 -0.031221 0.183013 -0.500622 -0.762352 -0.385788 0.795300 0.707884 -0.626259 -0.787356 -0.262463 0.476752 0.951888 -0.266040 0.004426 -0.558688 -0.630334 0.862024 -0.158063 -0.545030 0.008350 -0.085996 -0.223225 0.905066 -1.133896 -0.992277 1.031561 -0.035646 0.313703 0.561968 0.068916 -0.888633 0.411286 0.014584 0.036929
0.968162 -0.082795 -1.003690 -0.992155 0.861385 -0.115324 0.142306 -0.201640 -0.006877 -1.285600 -0.267748 0.600836 0.769698 -0.483032 0.055963 -0.430079 0.766028 0.454385 0.659462 1.292457 0.321665 -0.445553 -0.962045 0.533898 -0.186655 -0.525693 0.904974 -1.364530 0.655094 -0.198662 -1.208582 1.014471 -0.128644 0.201516 0.358940 0.226633 0.544553 -0.852679 -0.168622 -0.402313 1.042391 -0.243441 -0.355851 -0.862459 -0.612043 -0.003209 -0.377858 -0.814296 0.795406 0.489751 0.737179 0.178778 0.235905 -0.527960 0.581178 -0.518463 0.015296 -0.037119 0.557264 -0.362152 0.175256 0.844525 -0.431516 0.715326 0.789818 -0.533358 0.022616 0.002318 -0.822790 0.632087 -0.883955 0.355292 0.152762 -1.141852 -0.086681 0.612308 0.173529 -0.384695 0.516416 0.125741 -0.499883 0.330407 0.212446 0.106739 -0.161483 1.004263 0.061896 0.113664 -0.969727 0.149134 0.645455 0.267844 0.349021 0.124897 -0.405498 -0.287268 0.832455 0.371945 -1.101767 0.826877
0.160340 0.182343 -0.706381 0.974073 -0.301612 -0.950621 0.133346 -0.847296 0.169761 -0.269817 0.559700 0.982597 -0.594927 -0.116247 -0.001469 -0.108164 0.826132 0.633480 0.273191 -0.977214 0.683119 -0.558241 0.791297 -1.104662 0.782972 0.628256 -0.113181 -0.050447 -1.079205 0.669826 0.957059 0.551762 0.220745 -0.695226 -0.521876 0.196637 0.303995 -0.484657 -0.073900 -0.987383 0.485442 -0.690479 0.063880 -0.355405 0.834709 0.790961 0.849265 -0.291645 0.530320 -0.867792 -0.475646 0.661525 -0.825585 -0.644688 -0.982981 0.053979 -0.033260 -0.159234 0.699225 0.347294 0.262999 -0.698352 0.107202 0.865894 0.563645 0.601358 0.722387 0.647207 0.262988 -0.254466 -0.996227 -0.554872 -0.282333 0.700611 0.283365 0.684494 -0.234570 -0.283035 -0.212738 0.866470 0.631853 0.321304 -0.102048 0.009235 -0.630929 -0.546129 -1.345440 -0.423518 1.118410 -0.653864 -0.825537 0.115119 -0.021834 -0.686038 -0.838719 0.582511 0.569570 -0.853141 0.701823 -0.510188
0.310008 -0.119324 -0.504814 -0.049925 -0.360503 0.512621 0.476107 0.502610 -0.657436 1.057745 0.090424 -0.996329 -0.047241 -0.320035 0.546131 -0.919372 -0.026875 0.724611 0.963362 1.031742 0.142792 0.197802 0.118692 -0.716833 -0.202476 -0.793789 0.456910 -0.075981 -0.492949 0.944189 -0.990036 0.914222 0.811904 1.059905 -0.438196 -0.444900 0.148481 0.545937 0.539591 0.453820 0.360519 -0.597286 0.040351 1.071805 -0.561313 0.694108 0.499569 0.614316 0.568942 -0.637690 0.348817 -0.219198 -0.029403 -0.830629 -0.876554 -0.664377 0.402150 0.126699 0.413329 0.875021 0.248491 0.902176 0.730797 -0.060593 0.737652 -0.702042 0.445003 0.511557 0.107808 -0.445691 0.536754 -0.824709 0.248417 0.737403 -0.170180 -0.971966 -0.163375 -0.230137 -0.155469 0.757066 0.446433 0.681366 -0.837243 -0.303631 0.191817 0.867440 -0.158838 -0.822010 -0.601028 -0.473829 -0.785922 0.289400 -0.200496 -0.893604 -0.607492 -0.955067 1.003799 0.299293 0.012744 -0.052183
-0.025037 -0.837164 0.284192 1.041353 0.243673 -0.672574 -0.216332 0.225147 -0.447023 0.143269 -0.552671 0.772341 -0.603722 -0.687590 -0.226570 0.456915 -0.823344 -0.835607 0.671808 -0.857778 -0.895935 -0.250665 0.050826 0.532435 -0.225708 0.990328 0.529805 -0.584251 0.232254 0.549082 -0.633153 0.383574 0.393051 -0.222371 0.497670 0.403645 0.956106 0.611641 0.605694 -0.172466 -0.280963 0.436106 0.204288 0.845306 0.669038 0.727618 -0.374040 0.134415 -0.540534 0.959592 0.273820 -0.784111 0.047978 0.923470 -0.599183 -0.193306 0.300004 -0.103280 0.512199 -0.447259 -0.368361 0.161664 -0.715256 -0.075620 -0.713736 0.375139 0.480615 -0.683183 -0.723691 -1.272376 -0.162848 -0.367076 0.301019 0.065758 -1.015795 -0.576248 -0.144884 0.446493 0.675823 0.431707 0.943808 -0.603944 -0.236127 -0.050138 -0.019133 -0.752650 -0.839537 0.690746 0.884503 0.195278 -0.645342 0.055065 -0.180596 0.998770 -0.616124 0.812775 -0.039005 0.595304 0.845157 -0.986230
-0.456507 0.550579 0.466692 -0.316570 -0.766888 0.558805 0.302317 -1.051620 -0.490900 -0.749821 -0.419859 -0.760783 0.897213 -0.616497 -0.690380 -0.245083 -0.261562 -0.625366 0.206756 0.943227 0.144872 0.171718 -0.063548 0.214990 -0.657251 -0.260638 -0.426451 -0.880450 -0.269141 0.098858 -1.019875 -0.855762 0.744701 0.784661 -0.384932 -0.824133 -1.087370 -0.776106 -0.429081 -0.614351 -0.507134 -0.091540 0.831770 -0.079557 0.006230 -0.807546 -0.816069 -0.188106 -0.116474 -0.036259 -0.173141 -0.889595 0.368700 0.509379 0.314826 -0.022557 -0.904511 -0.717098 0.059405 0.456098 0.487257 -0.339521 -0.336948 0.230750 -0.264325 0.045323 0.507619 -1.152016 0.146443 -0.454085 0.377654 0.503125 -0.482025 -0.723357 -0.884204 0.961599 -0.832905 0.449304 0.672930 0.257045 0.192574 -0.976510 -0.108772 0.894661 -0.581476 0.579816 -0.531143 -0.091696 -0.166816 0.247160 0.938339 0.300474 -0.274133 0.319967 0.729626 -0.585544 -0.341037 -0.433744 0.713564 0.085274
0.523225 -0.647458 -0.356021 -0.940010 -0.584385 0.569013 0.884096 0.966749 -0.754696 -0.771983 -0.890970 -0.905799 -0.438039 0.076386 -0.903240 0.536109 0.150712 0.647719 -0.073791 -0.607245 -0.678163 0.569299 0.733608 0.587018 -0.247264 -0.905843 0.536465 0.519319 -0.504610 -0.239277 0.628552 0.106917 -0.784158 0.424315 1.080467 -0.288466 -0.997278 -0.131444 0.283377 -0.763032 -0.646501 -0.985885 -0.169697 0.986444 0.704419 -0.809821 0.323798 -0.861057 -0.071640 1.025259 0.776353 -1.021278 0.724697 -1.029633 -0.396602 0.230348 0.521229 -0.398262 -0.574431 0.071546 0.727031 0.690724 0.468045 -0.023981 -0.169549 0.674115 0.210974 0.932680 -0.377197 0.094014 0.401296 0.843554 -0.626075 0.232443 0.413906 -0.993129 0.588972 0.433506 -0.591435 -0.831107 -0.803231 0.945301 -0.924866 -0.611581 -0.033142 -0.063332 -0.458168 0.503442 -0.188471 -0.238578 -0.782101 -0.552957 -0.755771 -0.081651 -0.574540 -0.112996 0.414788 -0.812162 0.438298 0.940510
-0.152733 1.158712 -1.094200 0.829731 -0.673210 -0.578326 -0.876661 -0.340810 -0.789309 0.348062 0.879297 -0.523396 -0.367309 0.051536 -0.957734 0.577079 0.563530 0.464748 0.127807 -0.139555 -0.336649 0.877466 -0.264804 -0.405597 -0.638202 0.854773 -1.003296 0.158009 -0.524410 0.543637 -0.178062 0.373879 0.062222 0.205737 -0.096424 0.104474 0.561660 -0.415710 0.399028 -0.404244 0.146547 0.197306 1.069284 0.363432 -0.799405 0.298756 0.976972 -0.783102 -0.387770 0.210797 -0.111259 0.038100 0.083168 0.926765 -0.836930 -0.057014 0.841335 0.970867 -0.535848 0.473278 -0.185300 -0.149232 0.100150 0.150742 -0.902962 -0.136886 -0.327239 0.593870 -0.859898 0.177538 -0.614847 -0.013779 0.232509 0.860414 0.675179 1.010013 0.045324 0.196888 0.116286 0.587447 -0.095828 0.032738 0.041331 -0.378905 0.795266 0.602422 -0.739235 0.277453 0.658851 0.825694 0.006680 -0.342980 0.377084 0.282083 -1.225398 -0.459871 -0.346856 0.127253 -0.452949 -0.464325
-0.216120 -0.611006 0.766516 -0.027408 0.639686 -0.164833 -0.337274 0.047102 -0.823943 0.131169 0.557870 0.536942 -0.321590 0.207367 -0.363469 0.727713 -0.759039 0.401342 0.476494 0.282176 0.296863 -0.201375 -0.476879 -0.982070 -0.536913 0.628717 0.058054 0.359890 0.714273 0.062170 -0.700592 0.089836 0.366517 1.070883 -0.140135 -0.455495 0.401494 -0.474012 0.328189 0.681812 -0.627233 0.717290 0.123374 -0.661862 -0.115003 -0.494077 0.353480 0.119244 -0.725340 0.663123 -0.979455 -0.465921 -0.382474 0.462050 0.657068 0.855679 0.224520 -0.483258 -0.701789 0.697336 0.916924 0.614379 -0.488742 0.071587 0.367485 0.631071 -0.958704 0.691038 0.256183 0.124244 -0.583160 -0.638338 -0.464993 0.809021 0.036310 0.992221 -0.748493 -0.614677 0.382303 -0.559390 -0.790953 -0.256085 -0.308250 -0.340707 0.934716 -0.376609 -0.506661 0.634276 0.876495 1.003333 0.056426 -1.093883 -0.055049 -0.770247 0.334325 -0.373049 -0.489111 -0.218077 -0.973847 -0.601663
-0.686947 -1.189880 0.328222 0.179882 -0.124414 -0.145138 0.356994 0.331705 0.183410 0.671888 0.359114 -0.635058 0.328759 -0.355902 0.720310 0.293532 0.868444 1.442330 -0.774959 -0.352617 0.882506 0.828517 0.126419 0.404212 -0.240869 0.580346 0.231544 -0.704111 -0.650660 -0.576867 0.174448 0.850068 -0.395586 1.151711 0.753009 -1.070871 0.647452 0.269901 0.399129 -1.041477 -1.370496 -0.788876 -0.985631 1.127512 0.759874 -0.087864 -0.505540 -0.252266 0.561925 -0.450738 -0.763135 0.542155 -0.401073 0.193910 1.432806 -0.796670 -0.600190 0.349149 -0.777368 -0.627928 0.091261 -0.508925 -0.044372 1.322704 0.252578 0.762300 -0.252367 1.377439 1.008816 0.998647 -0.413464 0.017764 -0.624812 0.070791 0.081487 -0.562684 0.249843 0.158734 0.406051 -0.851211 -0.415544 0.057730 -0.489006 -0.172341 0.426232 0.275166 -0.500068 0.558491 -0.280062 0.398732 -0.232652 -0.182660 -0.894801 -0.855674 0.602531 0.341012 0.486844 -0.752282 0.208055 0.473592
1.022440 0.764662 -1.007867 1.048342 0.051198 -0.790300 -0.075508 -0.195098 -0.121748 0.202466 0.398280 -0.386269 -0.759783 -0.133577 0.219625 0.126708 -0.077432 -1.348375 0.687640 0.946997 -0.214858 0.555758 1.235152 0.593431 -0.408183 0.492612 -0.566772 0.166911 0.955120 -0.276616 -0.432190 -0.693384 0.481023 0.291301 0.136384 -0.006672 0.499980 0.020421 0.789876 -0.420493 -0.220149 0.994340 -0.128681 -0.183967 0.673754 0.026165 0.678137 -0.016852 0.692214 0.347776 0.517005 -0.254689 -0.452349 0.347678 0.111371 -0.885060 0.811039 -0.315438 0.673907 -0.255675 0.026410 1.245206 -0.890153 0.392247 -0.211855 0.526210 -0.534169 -1.040929 -0.177270 -1.002535 0.168207 -0.392649 1.240866 0.560380 -0.196025 0.658289 -0.314402 0.326159 0.275965 0.433244 -1.026395 -0.026072 -0.214647 1.056990 -0.108115 -0.707549 0.863193 0.618289 -0.467640 -0.526185 -0.617775 0.276066 -0.848198 -0.045503 0.289781 -0.068893 -1.274621 -0.909230 0.846368 -0.107442
-0.055676 0.253187 0.358695 0.284587 -0.447103 0.406306 -0.512454 -0.373845 0.091119 -0.869744 0.721095 -0.734082 0.660169 -0.393363 -0.632521 0.121617 0.369494 -0.667777 0.062292 0.058414 0.232326 0.986765 0.294961 -0.093386 -0.061535 0.527745 -0.100846 0.257395 -0.029527 -0.859285 0.076292 0.213625 0.302235 0.567512 0.424807 0.232353 -1.053829 -0.394569 0.342019 -0.211551 -0.671264 0.304370 -0.070984 1.008904 -0.477838 -0.954772 0.245140 0.515760 0.004975 -0.002952 -0.589931 -0.610564 -0.411748 0.769025 0.745968 0.708092 -0.378640 0.540307 -0.370502 -0.114499 -0.168756 0.868161 0.097561 0.255456 -0.608602 -0.929572 -0.662464 0.499091 0.516211 -0.056276 0.816637 0.865636 -0.760152 0.047196 -0.524009 0.545292 -0.691770 -0.511521 -0.355919 -0.481063 0.698298 -0.818379 -0.646510 0.507447 0.077170 -0.156003 -0.108445 0.780490 0.443060 -0.591139 -0.128955 0.027179 -0.878488 0.054094 -0.463115 0.372972 -0.380268 0.246777 -0.030251 -0.151212
1.129741 0.243206 -0.531417 -0.279856 -0.658065 0.163556 -0.981928 -0.012480 0.847264 0.701483 -0.022136 0.103456 -0.636329 0.542073 -0.034835 0.009003 -0.211105 0.596905 0.455043 0.335330 0.506102 -0.958401 -0.688878 -0.411168 0.857463 0.248286 0.296849 -0.653659 -0.354542 -0.526813 0.502500 -0.382011 -0.009007 0.779365 0.769447 0.131430 -1.162648 -0.178947 -0.014091 0.639220 0.475962 -0.395035 0.167696 -0.769965 0.697618 0.144512 -0.557105 -0.984771 0.206745 0.404083 0.666608 -0.641469 -0.012384 0.349542 0.665774 -0.479003 1.194902 0.487293 -0.743770 -0.749087 0.558573 0.859055 -0.996960 -0.055655 -0.033046 -0.476463 0.324484 -0.410621 -0.408654 -0.232833 0.305554 -0.549496 0.331852 -0.769862 -0.578399 1.129320 -0.204900 -0.901504 -0.392479 -0.110836 0.213061 -0.147098 -0.637104 0.183067 -0.914019 -0.109143 -0.843105 -0.780553 -0.529731 1.202235 -0.696855 -0.600838 0.517117 0.421218 -0.275840 1.129677 0.281078 -0.384614 0.469062 -0.875868
-1.363848 -1.488835 0.143658 0.347926 0.287844 -0.892491 -0.776551 0.251380 1.031370 -1.125769 0.352175 -1.135955 0.635472 0.205967 0.295960 -0.789819 -0.644955 -0.300342 0.666031 0.540297 -0.723435 -0.481403 0.074696 0.772581 -1.268620 0.491431 0.857344 -0.956251 -1.166965 0.604460 -0.186369 0.662964 0.809151 0.281275 -0.645555 0.087075 -0.062807 0.602936 -0.963591 -0.801311 -1.125536 -0.108287 -1.455290 0.957702 0.615398 0.666060 0.226433 0.470889 -0.370873 0.489604 0.650845 0.324496 -0.750742 -1.116700 0.519357 0.758213 -0.804044 -0.801401 0.157208 0.704006 0.514972 -1.040748 0.823776 -0.225138 0.607687 1.464100 -0.611879 -0.225445 -0.314081 0.473057 -0.864920 0.834550 0.234864 0.632225 -0.438632 -1.146531 0.731856 0.812630 0.261122 -0.660712 0.487167 0.509948 -0.895859 0.003952 -0.664397 0.794655 -0.924390 0.137230 -0.177614 0.123013 -0.930948 -0.046532 -0.086073 0.585938 1.014919 -0.559352 -0.452098 0.148526 -0.913777 -0.532639
-0.108967 -0.789143 0.901504 0.398857 -0.074049 1.055923 -1.049096 0.178303 -0.111509 -0.532422 0.627029 0.542036 -0.066993 0.854513 0.532108 0.299397 0.340839 0.567573 -0.053107 -0.738931 0.449833 -0.382666 0.233548 -0.876046 -0.086430 0.241785 0.743077 0.020101 -0.851879 -0.837284 0.350618 0.535973 0.474189 -0.082163 -0.232703 -0.178403 0.853238 -0.032043 -0.284180 -0.485202 0.996324 0.005402 0.315603 -0.039102 0.741882 -0.278431 -1.088745 -0.246876 0.025644 0.234967 0.343016 -0.409222 0.532997 -0.879051 -0.553696 -0.499822 1.030630 0.170606 0.577359 -0.880522 -0.503670 0.553957 0.593298 -0.664040 0.186427 -0.015205 0.824208 0.484502 0.577989 0.868870 -0.494346 -0.267334 -0.851314 -0.420046 -0.551541 0.359130 0.741437 0.396301 -0.276901 -0.551665 0.463619 -0.727908 0.180070 0.239961 -0.274835 0.142724 0.674395 -0.681545 -0.436362 -0.597443 0.887407 0.293598 -0.467837 -0.235137 0.381052 -0.952854 -0.189588 0.863905 0.014010 -0.387741
-0.166883 0.028601 -0.498131 0.397477 0.017187 0.250375 0.097872 -0.217505 0.725161 0.710190 -0.424492 -0.821861 0.167644 0.901002 -0.295777 -0.447690 0.033445 -0.385136 -0.391573 -0.963768 0.606678 0.249633 -0.466444 0.864945 0.604239 -0.364246 -0.020624 1.449115 0.058510 0.392104 0.258591 0.205605 0.419523 0.010202 -0.032061 -0.129431 0.292304 -0.123152 0.614315 -0.804732 -0.005828 -0.820161 -0.320172 0.187263 1.399773 -0.001940 0.694490 0.428939 0.622216 -0.248846 -0.491808 0.319988 -0.881152 1.406657 -0.671727 0.781025 0.086143 -0.179832 0.712413 -0.641557 -0.309490 -0.249208 -0.633289 0.819884 -1.167891 -1.363533 0.797205 -0.779740 -0.577120 0.323508 1.061700 -1.091979 -0.649414 1.029524 -1.001459 -0.515041 -0.073883 0.805353 -0.729768 0.128682 -0.710931 0.404281 0.463933 -0.279321 0.390099 -0.217264 -1.055426 0.345711 0.789759 0.852536 -1.538479 -0.337247 -0.183438 -0.609977 -0.575816 0.371781 -0.197594 0.277114 0.220204 -0.446356
-0.943263 0.708667 -0.541653 0.341036 1.207976 -0.205410 -0.206453 -0.391086 -0.781235 -1.091326 0.197622 -0.825712 -0.661540 0.190192 0.202981 -0.391061 -0.274836 0.750431 1.316446 -0.035137 0.439100 0.686994 -1.191806 -0.298500 0.886282 -0.182735 -0.409705 -1.267157 1.368469 -0.284675 0.668394 0.447002 0.246411 -0.796950 0.651353 1.282101 -0.094656 0.724158 -0.275987 0.618384 0.099225 0.838792 -1.003924 0.951358 -0.166058 0.288738 -0.876020 0.440280 -0.019363 0.802487 -0.377259 -1.179852 -0.580606 -1.048567 0.949822 0.298788 -0.734612 -0.277775 0.618525 -0.300759 -1.320304 0.432297 -0.921366 -0.477817 1.330383 0.580819 0.718829 0.677276 -0.173455 0.400088 -0.888771 0.305245 0.646080 -1.318644 -0.725896 -0.631166 -1.091715 0.436028 -0.916461 0.136923 -0.490022 -0.272320 -0.692976 0.001550 -0.956865 0.308034 1.112715 -0.307806 0.268590 1.376441 1.609633 1.260741 -1.190065 0.143816 -0.068111 -0.950916 1.290191 0.473512 -0.279134 -0.743474
0.287258 0.525456 -0.154560 -0.014638 -0.786184 0.750462 -0.088171 0.210011 0.432282 0.844666 1.293312 -0.955661 -0.987557 -1.049768 -0.591610 0.047346 -0.610829 1.052700 -0.629600 -0.134575 0.091003 1.309824 0.431317 0.142901 -0.053475 -0.996077 0.427320 -0.486118 0.434130 -0.673226 0.188544 0.478858 0.794045 -0.063789 -0.442580 -0.647097 0.032489 -0.204780 -0.790760 -0.905361 0.258775 0.296376 0.287572 -0.052980 -0.771314 0.077560 0.802904 -0.303114 -0.621923 0.207287 -0.151444 0.696805 -0.494977 -0.251710 -0.511742 -0.660087 -0.083257 0.233868 0.443980 -0.229473 0.548651 -0.655186 -0.738609 0.307724 -0.620019 1.044465 -0.713685 0.012648 1.130041 -0.154863 0.120037 -0.712677 0.128934 -0.323045 0.461312 0.719431 0.830047 -0.495445 0.880096 0.202133 1.096423 0.747350 0.695077 0.830767 0.403435 0.400411 -0.745878 -0.988961 -0.267321 -0.658012 -1.182063 0.372751 0.945507 0.738731 0.914445 -0.400531 -1.008670 -0.691380 0.857399 0.117438
0.176437 -0.113561 -0.644843 -0.321700 0.479445 -0.029209 0.486383 0.629696 0.191000 0.554970 0.396911 0.196944 -0.299060 0.504820 0.846080 -0.208921 0.164646 -1.126493 0.023306 0.726439 0.497757 0.685057 -0.837232 0.258917 -0.991780 1.008358 -0.662956 -0.735367 -0.574672 0.280850 0.476749 0.857402 -0.862475 1.037948 0.475190 0.139868 -0.523758 0.841228 -0.909535 -0.131276 0.116354 0.270754 0.572404 0.881378 0.004774 -0.430478 -0.667687 -0.309722 0.866421 0.476063 -0.832817 -0.987605 -0.334126 -0.148078 -0.083671 0.348481 0.667724 0.949181 0.859509 -0.600237 -0.466589 0.244799 0.557283 -0.095307 0.007585 -0.526514 -0.365475 0.234283 -0.221312 -0.579065 0.828178 -0.130123 -0.648541 -1.160723 -0.430953 0.568922 0.527329 0.551358 -0.231436 0.568175 -0.141726 -0.526801 0.473956 0.548952 -0.312266 -0.583792 -0.451502 0.373058 -0.246782 -0.609962 -0.242569 0.823141 -0.880211 0.619710 0.800495 -0.070582 -0.253758 -0.322185 -0.737644 -0.463114
0.357192 -0.826570 0.795878 0.275304 -0.141960 -0.404907 -0.680592 -0.239614 0.233614 -0.883531 0.784198 0.120852 -0.511112 0.240933 1.018961 -0.403886 -0.994954 1.097067 0.069785 -0.682627 -0.769745 0.404124 0.902754 0.238709 0.073756 0.343825 -0.036676 -0.704382 -1.226432 -0.593107 -0.705317 -0.986378 0.519526 0.909972 -0.973509 0.131897 -0.392856 0.728946 -0.297483 -0.204385 -0.418309 0.517376 0.990668 0.476025 0.727145 0.373483 -0.250744 -0.769096 0.380984 0.626050 0.927989 -0.926831 -0.581568 -0.647526 0.791885 0.052281 0.707102 0.687601 0.458563 -0.856930 0.867168 -0.389865 -0.291599 -0.359531 0.065268 0.893253 -1.046714 0.574264 -0.767949 0.494674 -0.667473 -0.539096 -0.318394 0.743723 0.645842 0.203925 0.614966 -0.486552 0.106053 0.006666 -0.559438 -0.266254 -0.516874 -0.406127 0.648613 0.080610 -0.546212 -0.082987 -0.032767 0.113611 -0.499526 -0.525025 0.658835 0.361464 0.179243 0.041288 -0.551142 0.730426 0.706443 0.125303
0.160477 -0.316533 -0.440097 -0.813496 -0.100879 0.058880 -0.875772 0.650576 0.386418 -0.270649 0.818907 0.579879 0.082445 0.119356 0.206708 -0.288761 -0.234889 0.433493 0.414502 -0.706636 0.208452 0.293233 0.492134 0.455929 0.261463 -0.330004 0.807059 -0.217617 -0.790506 -0.524745 0.043516 -0.611712 0.787426 -0.496408 0.548188 -0.771792 0.620261 0.517447 0.544968 -0.179371 -0.175310 1.030459 0.285516 -0.838363 0.021294 0.968753 0.643195 0.275562 -0.206391 -0.723753 -0.298599 -0.781013 -0.738459 -1.003614 -0.355060 -0.167851 -0.297593 -0.875378 -0.384329 0.320601 -0.810347 -0.375309 -0.432132 0.593357 0.374502 0.904724 -0.782665 -0.420026 -0.638044 0.660292 -0.603460 -0.142963 -0.771264 0.073852 -0.153998 0.433470 0.869483 0.134023 -0.302002 -0.162960 0.809640 -0.166126 0.623238 -0.395729 -0.597561 -0.989083 0.512855 -0.761683 -0.254535 0.943153 0.151042 0.840245 0.139450 0.672089 0.364483 0.286094 0.055100 -0.893921 -0.812205 -0.297302
-0.588340 0.772266 -0.812438 -0.691269 -0.581544 1.042922 0.725542 -0.539361 -0.481697 -1.003347 0.310665 -0.676244 0.825491 -1.088300 0.189925 -0.406697 -0.481845 -0.981721 0.508767 0.175374 -0.302952 -0.213120 -0.153829 -0.108900 -0.844533 -0.592999 -0.674963 -1.043177 1.011492 0.688071 -0.555784 0.098827 -0.264311 0.428965 1.070093 -0.747170 0.090236 1.107146 -1.067095 -0.289631 0.580317 -0.329639 -1.202271 -0.469261 -0.409836 -0.392687 0.271548 -0.064115 0.130013 0.049110 0.406505 -0.234749 -0.973159 0.427387 -0.656463 0.122737 0.454780 0.181510 0.942040 0.228716 -1.012879 -0.887004 -0.001175 -1.034853 -0.746471 -0.340467 0.542852 -0.453143 -0.101724 -0.375650 -1.137971 -0.416435 -0.151925 0.057279 0.150738 -0.658727 0.022647 -0.395600 -0.786641 0.480698 0.092529 1.002526 -0.961248 0.690510 0.191683 -0.557370 0.420412 -0.352446 0.928647 -0.632967 0.782938 1.143025 -0.798542 -0.538038 -0.755697 0.598926 0.680469 -0.447820 0.454986 -0.850323
-0.402157 -0.329247 -0.380098 1.019733 -0.679534 -0.102405 -0.094148 0.026028 0.293055 -0.223969 -0.647032 -0.594498 0.447110 0.872023 -0.471531 0.375677 0.859065 0.983257 -0.989027 0.450472 0.295572 0.005560 0.219838 -0.154129 -0.796335 0.443079 0.530655 0.407909 0.893102 0.585843 0.427310 0.124017 0.425666 0.927364 0.513403 0.119128 0.741359 -0.624148 -0.337887 -0.533410 0.894837 -0.565817 -0.593145 0.075979 -0.155899 -0.485459 0.381733 -0.611302 0.746542 -0.501782 0.633194 0.000426 -0.492110 0.959017 -0.421440 -0.569724 0.232773 -0.493528 -1.100341 -0.572725 -0.099488 -0.210367 -0.297389 -0.059325 -0.634440 -1.018600 -0.953080 0.232871 -0.949683 0.096830 -0.566917 -0.612306 -0.394318 0.174480 0.895238 0.922069 -0.966657 0.606694 0.033975 -0.622300 0.241976 -0.896694 0.303811 -0.158185 0.080738 0.644986 0.359482 -0.122099 0.950678 0.342131 -0.175768 0.628131 -0.394773 -0.891806 0.396460 0.237227 -0.179347 0.503100 0.860357 0.228411
0.092108 0.631080 0.863428 0.358781 0.808895 -0.161282 0.226360 0.796002 0.036672 -0.170106 -0.320151 -0.220986 0.273886 -0.328710 -0.254218 0.491869 0.127058 -0.741282 0.593000 -0.773592 -0.601485 -0.812263 0.694608 -0.316832 0.382023 -0.362999 0.209484 -1.003434 -0.248669 -0.294463 0.529213 0.612512 -0.691889 0.866429 -0.375694 0.707167 -0.298862 -0.001368 -0.027440 -0.735911 -0.638825 0.254309 0.244100 -0.433692 0.012273 -0.196684 0.620763 -0.625964 -0.431270 0.277431 0.394273 -0.671536 0.006259 -0.941069 0.891378 -0.590161 0.282420 0.730728 0.440592 0.432027 0.691941 -0.613147 -0.801623 0.526876 0.597473 1.002942 0.014068 -0.710569 -0.678008 -0.842956 -0.912302 0.597381 0.776359 0.701067 0.396813 -0.157379 -0.498935 -0.963584 -0.746316 -0.435068 0.114644 0.659124 -0.219978 0.405878 0.674647 -0.095042 -0.043595 0.332238 -0.456291 -0.452029 0.897265 -0.376926 -0.723036 -0.224549 0.045527 0.664476 -0.357819 -0.892135 -0.288812 0.739501
-0.448582 0.486217 0.187860 -0.317928 -0.075784 -0.769755 -0.184122 0.413750 -0.296505 0.492374 0.067875 -0.742636 0.625201 -1.023134 -0.434020 -0.354724 0.176059 0.262869 0.603427 0.471798 -0.289972 0.709029 -0.661473 0.865275 0.818395 0.931311 0.633280 -0.358659 -0.909647 -0.005413 0.594478 -0.541370 -0.144070 -0.568782 0.949663 0.528100 -0.308722 0.165351 -0.430404 0.820617 -0.304235 0.094675 -1.152702 0.572327 0.186301 -0.662060 0.478684 0.596145 0.793432 0.501350 -0.030061 0.018872 -0.257161 0.539175 0.451173 -0.410088 0.047609 0.391373 0.323088 -0.145747 0.423175 0.832737 0.889473 0.079783 -0.951441 0.030233 0.126782 0.444365 0.698752 0.131177 0.491594 -0.769322 -0.130568 -0.905965 0.053395 -0.489376 0.182321 0.880767 0.545197 0.215707 -0.306609 0.858463 0.241421 0.162823 -0.298929 -0.662177 -0.442539 0.488771 0.133683 0.808521 0.410105 0.229837 -0.510165 0.508209 0.359679 -0.991033 -0.156081 0.430924 -0.175529 0.742231
1.026976 0.219772 -0.808306 0.930994 0.774669 0.359009 0.760945 0.546671 -0.336691 0.061454 0.916969 0.841319 -0.532335 0.440057 0.820101 -0.157818 0.948089 -0.407536 -0.426700 0.570185 -0.922152 -0.564736 -0.615081 -0.780697 -0.752167 0.193914 -0.322131 0.693268 -0.702155 -0.121652 0.846638 0.979173 0.108768 0.361141 0.261355 -0.646464 0.870868 0.593201 -0.722586 0.995310 0.063173 0.734667 0.271381 -0.097688 0.543641 -0.311868 -1.019598 -0.514272 -0.691148 0.163538 0.572762 -0.852782 -0.128444 -0.040718 -0.189956 0.836245 0.236693 -0.044323 0.156802 -0.231978 -0.407341 -0.062732 -0.136784 0.182330 -0.917135 -0.175430 -0.273347 -0.811323 -0.551986 -0.371869 -0.200696 0.140491 0.092686 0.191603 -0.513436 0.826355 0.273606 -0.270282 -0.402114 -0.476154 -0.010944 -0.159940 -0.034085 1.049772 -0.275738 -0.756479 0.437274 -0.986455 -0.154597 -0.564073 -0.290788 0.211013 -0.087954 -0.770775 -0.430737 0.277328 -0.593056 -0.133573 0.792239 0.787596
0.867462 0.336824 -0.906895 0.694889 0.501612 -0.505053 0.093882 0.709228 0.279182 -0.825615 -1.167365 -0.094298 0.229411 0.473046 -0.528462 1.047700 -0.101291 -0.589003 0.080509 -0.149216 0.595517 -0.771918 -0.734571 0.079312 -0.323043 -0.637036 0.456375 0.300400 -0.372066 -0.630677 0.556091 0.517421 -0.569046 -0.933356 -0.420496 0.638398 0.362983 0.822413 -0.907235 -0.217255 0.196569 0.003298 -0.937876 0.249183 -1.160474 -0.099689 -0.451351 -0.687694 -0.566404 0.096480 -0.007036 0.479912 -0.499718 0.397264 -0.167145 0.590954 0.405515 -0.236988 0.548925 0.395707 0.048547 -0.097225 0.126154 0.157870 -0.346771 1.032965 -0.769408 -0.858453 -0.034730 -0.156086 0.371608 0.157305 -0.073276 0.603831 0.787004 -0.478425 -0.081221 0.483938 -0.904849 -0.654587 -0.153646 0.990979 0.715066 -0.572273 -0.043255 -0.553668 0.843068 -0.019478 -0.313201 0.683815 -0.724778 -0.472163 -0.175733 0.338475 -0.098267 -0.816314 0.775617 0.388193 -0.815916 -0.376073
-0.454255 -1.185159 1.302174 -0.279861 -0.650379 -0.366366 0.135447 0.655901 -0.340684 -0.685853 0.918223 -0.014220 -0.054638 -0.605048 0.555546 -0.369311 -0.181934 -0.030127 0.024171 -0.545903 -0.370062 -0.301691 0.002191 -0.564352 0.841021 0.020045 0.639663 -1.241675 0.108854 0.635784 -0.734386 -0.560367 0.175326 0.503127 -0.628273 -0.922967 0.343446 -0.402140 -0.316034 -0.036358 -0.470621 -0.009646 -1.121826 0.397227 0.401264 0.160746 -0.352680 -0.124870 -0.458826 0.608515 -0.183938 0.146166 -0.539353 0.807303 0.524864 -0.327651 -0.638168 -0.074065 0.869347 -0.425032 0.216197 -1.208882 -0.620887 0.897229 0.099091 -0.451836 -1.051489 0.939705 0.445933 0.090967 -0.270529 0.301483 -0.969112 0.623599 -0.800521 -1.027951 -0.813975 -0.171310 -0.946171 -0.872341 0.257490 -0.440270 -0.757326 0.001181 -0.683487 0.420229 0.651559 -0.552763 -0.695963 -0.209666 0.991690 -1.104593 -1.011528 -0.151464 1.102774 0.093228 0.859808 -0.536847 -0.458745 -0.227424
-0.322274 0.985269 -0.903757 -0.349606 -0.105295 0.726977 -0.372471 -0.562778 0.237670 0.520970 -0.504938 -0.734974 0.179147 0.895724 0.382213 -0.616549 0.917698 -0.562630 -0.636851 0.878676 -0.279495 0.149739 0.150959 -0.584196 -0.253940 0.156036 -0.979707 0.512430 0.939055 -0.359127 -0.697221 -0.377946 -0.188987 -0.183359 0.121957 -0.150748 0.560295 0.514587 0.377685 0.290929 0.984684 -0.721442 0.754715 -0.414829 -0.664188 0.608142 0.039029 0.274973 0.380178 -0.025359 0.796036 0.183536 0.558694 -0.119338 -1.082454 0.564765 0.306216 0.853313 -1.079975 0.954015 0.331684 1.177464 0.670411 0.441531 0.270819 0.228548 0.778990 -0.111732 0.686548 -0.451423 -0.272070 -0.982323 1.267184 0.733018 0.280920 0.972863 -0.331767 -0.488761 -0.590543 0.866891 -0.579911 -0.412903 -0.442294 -0.776821 -0.567423 -0.085363 1.126469 0.660016 -0.768711 1.108599 0.532192 -0.397915 0.275747 -0.715937 -1.313454 -0.018145 -0.523182 -0.836988 0.110678 -0.370351
-0.682864 -0.856895 -0.566665 0.651225 0.456822 0.812616 -0.839889 0.734390 0.175402 -0.647404 -0.424118 0.067579 -0.637904 0.227962 -0.676443 1.055840 -0.019345 0.166610 0.381350 0.841984 0.775288 -0.699987 -0.697291 -0.378523 -0.238151 -0.893708 -0.403326 -0.888363 -0.008200 0.039001 0.691642 -0.642024 -0.647456 -0.815562 0.120867 -0.000545 -0.132056 0.310511 0.227633 -0.626501 0.086026 -0.804372 0.535746 0.680626 0.312315 -0.802540 0.066451 -0.726722 0.254556 0.688593 -0.747149 -0.257768 -0.750627 -1.107661 -0.107433 -0.324430 -0.949711 0.562556 0.130456 -0.240903 -0.801171 0.736547 0.549343 0.660341 0.849645 0.698108 0.452434 -0.454392 -0.849539 0.690089 0.725265 0.053090 0.452806 -1.081448 -0.896908 -0.586755 -0.044952 -0.148069 -0.722390 -0.570140 0.243726 0.340393 0.644587 0.673876 -0.245199 0.446139 -0.144348 -0.629976 -1.143157 0.053248 -0.455541 0.994865 0.662338 0.832407 -0.495531 0.350930 -0.598045 -0.146709 -0.767455 -0.091131
0.819211 1.259874 -0.104805 -0.832712 0.912274 -0.372638 -0.434379 -0.917659 0.116481 -0.361141 -0.780708 0.718395 -0.179484 0.583560 -0.689674 -0.441050 -0.140100 -0.742757 0.332522 0.355220 0.841347 -0.814368 1.170152 0.314141 0.334823 0.946128 -0.558062 -0.000955 -0.043297 -0.854571 -0.824584 0.299840 0.531940 0.204260 -0.644659 0.467553 -0.176620 -0.884776 0.470726 0.435436 0.796947 -0.287571 0.704059 -0.300035 0.258440 -0.006212 0.219528 0.536960 -0.914393 -1.025152 -0.834876 -1.041749 0.558494 0.328291 0.023429 -0.314119 -0.000012 0.910167 -0.717750 0.575105 -0.194459 0.928002 -0.460712 -0.698652 -0.129058 -1.148284 -0.516399 0.519245 0.323219 0.672712 0.421166 -1.056616 0.948405 -0.140451 -0.929718 -0.363295 -0.399284 -0.237570 0.162936 0.595507 0.328554 1.072224 0.768627 -0.720663 0.124711 -0.137655 -0.461866 0.145774 -0.007760 -0.520405 0.257046 -0.790290 0.216274 -0.007689 -0.084833 0.674292 -0.951331 -0.719031 1.110819 -0.992744
-0.466886 0.246285 0.920642 0.097091 -0.255641 -0.634126 -0.855688 0.461112 -0.146184 0.260902 0.008399 0.116523 -0.664857 0.478865 -0.413465 -0.186227 0.935315 0.451719 -0.835814 0.661705 0.588863 -0.169924 -1.190757 0.264448 -0.624110 -0.913399 -0.503959 -0.858607 -1.213911 0.514388 -0.884928 0.560496 -0.936460 -0.479060 0.575174 0.182348 -0.208348 -0.618086 0.363115 0.046449 -0.773214 -0.231058 0.136525 0.987034 -0.120792 0.236679 0.539087 0.915277 -0.651604 0.463925 0.010259 0.786028 0.384307 -0.069680 0.130220 0.018779 -0.183140 -0.242876 -0.858807 -0.425262 0.260153 -1.266720 0.674607 0.455575 0.254250 0.852704 0.666469 0.261841 0.685527 -0.238520 0.820397 0.894061 -0.162242 -1.041976 -0.514913 -1.123083 0.038380 -0.684374 -0.470176 0.953748 1.095323 -0.539396 0.615551 -0.561769 0.684007 -0.625776 0.686323 0.494482 0.891239 -1.095097 -0.214322 -0.654106 -0.484712 -0.224659 0.933211 -1.209356 0.202640 -0.164011 -1.240947 0.406811
0.507207 -0.171722 -0.764933 0.044376 -0.615894 -0.516932 0.746073 0.279892 -0.087580 0.863742 0.319152 0.390248 0.195555 0.192376 0.333595 -0.410307 0.181313 0.170467 -0.572942 -0.145201 -0.055660 -0.798830 -0.754359 -0.117035 0.702175 0.263898 0.691429 -0.009147 0.885471 0.373634 -0.512103 -0.333321 -1.100217 -0.580025 -0.048738 0.958932 0.822501 0.554776 0.227625 0.471908 -0.649342 -0.766950 -0.329511 -0.703995 -0.439636 -0.322592 0.517214 0.038926 0.109455 -0.495869 0.759524 0.991818 0.663894 0.245172 0.486072 0.647398 -0.442003 -0.079226 0.445249 0.206782 0.267316 -0.900039 0.728234 0.629318 0.054746 0.240614 0.921485 -0.510335 0.260788 -0.388942 0.355746 0.462770 0.162923 0.292044 0.590305 0.047307 -0.835424 0.337172 0.286000 0.524529 -0.471563 0.495094 -0.339434 0.027839 -0.487652 -0.638305 0.388188 -0.006585 -0.291737 0.203942 0.976168 0.426324 0.655561 -0.338289 -0.106763 -0.411771 0.510613 -0.735385 -0.356779 -0.784258
0.125228 -0.295488 -1.237125 -0.824560 -0.778030 -0.530902 0.322838 0.260313 0.444427 -0.756167 -0.889930 0.902738 -0.049704 0.127638 -1.086124 0.070232 -0.149717 0.032906 0.525837 0.008778 0.478641 0.578671 0.194440 -0.830818 -0.603591 -0.080169 -0.199002 -0.119908 1.350053 -0.993887 0.921498 0.661610 0.447044 -0.410750 0.350574 -0.395553 -0.460135 0.044007 0.137541 1.050791 -0.344569 -0.422809 -0.005479 -0.634137 -1.336628 0.539709 -0.125772 -0.289937 -0.344543 -0.239478 -0.789346 0.055552 0.807111 -0.733354 -0.261024 0.605060 -0.606182 -0.614263 0.154644 -0.396530 0.280406 0.621181 0.716595 0.057531 -0.808428 -0.172954 -0.089862 -0.054592 -0.857585 -0.335007 -0.750807 -0.605063 0.981176 0.062138 -0.425749 0.247216 0.980968 -0.406708 -0.620338 -0.941008 -0.494176 0.224137 -0.769933 -0.222558 0.946754 -0.041344 0.445465 0.685702 -0.521962 0.916507 -0.645910 1.320398 -0.037205 0.109064 -0.322935 0.598032 -0.493717 -0.762358 0.431748 0.339905
-0.915256 -0.450853 0.086084 0.551695 -0.162128 0.179629 0.718258 -0.708465 0.166816 0.408286 0.750316 -0.924427 0.178002 -0.605064 -0.218324 0.918381 -0.078259 0.479672 0.649570 -0.166590 -0.065321 0.706243 -0.605281 -0.111868 -1.076432 -0.198659 -0.920642 -0.175137 -0.658924 -0.121920 0.126596 -0.470722 -0.051402 -0.925512 0.237898 -0.555445 -0.429244 -0.282778 -0.167857 0.485337 -0.424677 -0.041398 0.361923 -0.445394 0.060088 -0.999298 -0.520902 0.011841 0.366136 1.097863 0.702644 0.648351 -0.133703 0.085669 0.595648 -0.251438 -0.562928 0.530940 -0.739297 -0.477451 -0.405234 -0.484210 -0.958930 0.641322 0.125791 -0.222314 -0.915388 0.589579 0.725886 0.337157 -0.878130 1.063338 0.501939 1.070804 0.753208 -0.552552 0.317292 -0.927798 1.273328 0.907410 1.202180 0.325126 0.497329 -0.639446 -0.921180 0.039830 0.449764 -0.954384 -0.031535 -0.752544 -0.960060 0.270215 0.134583 -0.956895 -0.596864 -1.014391 0.392203 0.557240 0.591710 0.048020
0.516163 -0.286819 -0.269841 0.085184 0.157585 0.558609 0.092711 0.569964 0.346317 0.472981 0.270614 -0.317515 0.360998 0.745209 0.871175 -0.396814 0.415633 -0.560174 0.655991 -0.278066 0.918124 -0.038378 0.253209 0.547749 -0.616690 -0.022839 0.379812 -0.474198 -0.353290 0.004008 -0.073399 -0.418933 -0.383262 -0.330078 -0.333343 0.445863 -0.625613 -0.008069 1.099235 -0.561529 0.657822 -0.365017 -0.606209 0.277506 0.560774 0.118114 -0.891029 0.162079 0.115671 -0.918060 0.798960 0.863313 0.870648 -0.019925 -0.635503 -0.189676 -0.569671 -0.457196 0.676589 -0.677710 -0.464452 0.675732 -0.336230 -0.681874 -0.003290 -0.890877 0.071899 0.420400 -0.414492 -0.007664 0.056903 -0.145648 0.326279 -0.171917 0.143088 -0.555218 0.347084 -0.627990 0.439592 -0.729185 0.633797 -0.444612 -0.371354 -0.663589 0.371304 0.418212 0.117803 -0.969520 0.307960 -0.502140 -0.224576 -0.744404 -0.684525 -1.075996 -0.756222 0.706644 1.065553 0.898788 -0.533607 -0.549402
-0.295755 -0.635034 0.197000 -0.126520 -0.108244 -0.264635 0.289379 0.706194 -0.594247 0.000626 -0.807698 0.439440 0.545036 -1.177773 -0.626345 0.528215 -0.269536 -0.868217 -0.433057 -0.462825 0.531206 -0.112095 0.776874 -0.908819 0.831930 -0.177583 -0.087454 -0.900734 0.757462 0.846233 0.600962 0.254361 0.908182 -0.400955 -0.889837 0.627495 0.369863 -0.685884 -0.563189 0.154220 0.238679 0.491327 -1.046158 0.589893 -0.443470 -0.511243 -0.610883 0.537694 0.031095 0.842417 0.599332 -0.698490 -0.032124 0.604251 -0.458178 -0.847832 0.990948 -0.564640 1.190924 0.347547 -0.686805 -0.794994 0.283372 -0.672404 0.436830 -0.068688 -0.896632 -0.728091 0.922606 -0.347911 0.641630 -0.759636 -0.753402 0.602374 0.110596 -0.122823 -0.736325 0.510104 -1.043058 0.844977 -0.131393 -0.479992 0.914048 -0.251738 -0.706758 -0.703697 -0.979020 -0.168546 0.828799 -0.603494 0.492569 -0.279028 0.202133 -0.944127 -0.975409 -0.305475 -0.331665 0.079051 -0.532706 -0.203761
-0.316460 0.655488 -0.057272 0.488758 -0.485352 -0.684767 0.566486 0.725099 -0.066169 -0.606539 0.609067 0.039327 -0.574140 -0.419055 0.884786 0.831562 -0.735624 -0.406256 -0.163650 0.092580 -0.201153 0.941445 0.269422 -0.932079 0.920724 -0.678096 0.591008 -0.726412 -0.485423 0.634995 -0.651222 -0.944477 -0.324881 0.412827 -0.756676 -0.200126 -0.615629 0.073696 0.599926 0.632364 -1.095030 0.965479 0.542668 0.755747 0.591919 0.561410 0.263212 0.294023 0.425450 0.712030 0.576085 -0.514542 0.431611 -0.735124 0.347262 0.844167 0.368881 -0.830196 -0.706587 -0.794685 -0.228934 -1.061883 -0.694483 -0.118187 -1.002396 -0.246895 -1.057727 -0.204008 -0.057850 -0.067323 0.277533 0.050834 0.985054 -0.235318 0.954138 -0.148358 0.682548 -0.295441 0.380162 0.117612 0.137407 -0.803309 0.711826 0.286224 0.600533 0.234155 0.163978 -0.245187 0.223271 -0.849971 -0.891119 0.505095 -0.336419 0.724233 -0.289223 0.471827 -0.235829 -0.588996 0.184382 -0.884056
-0.514263 0.943478 0.551105 -0.861256 1.082671 -0.755384 -0.906121 0.618895 -0.608284 0.873690 0.130951 0.092749 -0.355320 -0.596919 0.413684 -0.752921 -0.778903 0.221979 0.128123 0.971711 0.176093 -0.343317 0.067666 0.327441 -0.717235 0.883277 -0.433382 -0.628377 -0.787211 0.891536 0.194939 -0.599551 -0.562382 0.752382 0.054021 -0.471047 -1.132483 -0.827772 -0.305056 -0.598212 -0.550804 -0.476201 0.486288 -0.573356 -0.592342 0.396502 -0.755736 0.020277 1.078725 0.077659 0.769898 0.019321 -0.667696 -0.083117 0.446061 0.134517 0.695632 -0.562641 -0.975931 0.763938 0.097247 -0.748004 0.384911 -0.641533 0.597674 0.222873 0.565237 0.296127 0.609463 -1.013072 -0.223002 -0.240817 0.857003 -0.445468 -0.528656 -0.747286 -0.241755 -0.315366 0.353042 -0.735842 -0.708175 0.631807 -0.678755 -0.373780 0.590365 0.947348 0.408583 0.937580 0.443663 -0.875323 -0.292078 0.461175 -0.307678 -0.611968 0.936361 0.216635 -1.033036 -0.782364 0.310694 0.759520
-0.278304 -0.237715 -0.241613 -1.075909 0.771160 -0.418607 0.979341 -0.054584 -0.421322 -0.406061 0.038254 -0.555777 -0.354777 -0.800681 -0.136520 -0.027380 -0.117095 -0.088596 1.051474 0.049196 -1.065972 0.720940 -0.482597 -0.138618 -0.042482 -0.353140 -0.319983 -0.701137 -0.293903 0.261854 0.744118 0.263357 1.231702 0.952623 0.906618 -0.807162 0.656669 -0.445748 -0.484059 0.447280 0.229316 0.610423 -0.881620 -0.062760 0.656598 1.076066 -0.307510 -0.882620 0.465642 0.027109 0.161861 -0.104781 -0.067752 0.820836 -0.070876 -0.855163 -0.818624 -0.387549 -0.376966 -0.759224 -0.472508 0.931504 0.551048 -0.477991 -0.471657 -0.347618 -0.144601 0.806664 0.520896 -0.029062 -0.567020 -0.200370 0.686038 0.084205 -0.762492 -1.012219 0.106765 -0.278588 -0.669039 -0.116879 0.433754 0.560858 -0.450765 0.471726 -0.660849 -1.098907 0.551802 0.491462 -0.384207 -0.241731 -0.506429 -0.331234 -0.070633 0.578369 0.722494 -0.413986 -0.796184 0.656298 -0.331489 -1.090456
0.120931 0.313369 0.194986 0.001611 -0.775304 0.007798 -0.971525 -0.753884 0.762993 0.580090 -0.330434 -0.634443 0.680678 0.123772 -1.098926 -0.370640 -0.366024 -0.163328 -0.815080 -0.560261 0.543960 -0.400705 -0.804937 -0.291574 0.176288 0.657044 0.338131 0.120586 0.700473 -0.175062 -0.810866 -0.615694 0.304540 -0.120675 -0.516259 -0.418236 0.030921 -0.349848 0.869756 0.461625 -0.029832 -0.182027 0.121297 0.159391 -0.584189 0.217257 -0.320500 -0.782484 -0.979701 0.497341 1.051716 -0.703099 -0.856013 -0.647684 -0.083378 0.187362 0.778891 -1.021460 0.346750 0.619195 -0.000426 -0.858445 0.479806 0.672608 0.361326 0.349389 -0.517291 0.798871 -0.921048 0.134167 -0.429279 -0.565970 -0.683976 0.436562 0.106126 0.210443 0.143581 -0.099304 1.096306 -0.283843 0.342676 0.446832 -0.487000 0.013628 0.447201 -0.698055 0.387694 -0.488071 0.095780 0.465048 -0.242695 -0.082511 -0.870552 0.839099 -0.286260 -0.445588 0.232419 0.295776 -0.506735 -0.398870
-0.240950 -0.165967 -0.655399 -0.271230 -0.222360 -0.144128 0.951766 0.533261 0.938323 -0.356754 0.548199 -0.278257 0.352459 -0.352619 0.760199 -0.835557 0.278507 0.890509 0.419883 -0.616766 -0.720773 0.395212 -0.359481 -0.032478 -0.176500 -0.103238 0.097668 -1.071528 0.164988 0.602154 0.318522 -0.154463 -0.745024 -0.713957 0.354449 -1.090207 0.353093 -0.095755 0.556288 0.106680 0.741150 0.812996 0.407740 1.044906 -0.217425 0.516616 0.658699 -0.199841 -0.116382 -0.738651 -0.799481 -0.452213 0.712677 -0.518622 -0.149363 0.701551 -0.834329 -0.411503 0.745657 0.149682 0.984960 0.349583 -0.165028 -0.666612 0.163103 -0.942521 0.760687 -0.239503 -0.721201 0.394643 0.837926 0.588434 0.480531 0.264992 0.467128 0.297998 0.485704 -0.513921 -0.350133 -0.790856 -0.705221 0.481012 0.279065 0.813954 0.602156 -0.002018 0.462639 0.485821 0.615351 0.420435 -0.444852 0.167127 0.568216 0.465443 0.195091 -0.477422 0.628359 0.123205 -0.493963 0.283436
-0.786244 -0.321863 0.624824 -1.165839 -0.164788 -0.315695 -0.292988 -0.843591 0.280707 0.393467 0.863531 -0.336497 -0.467882 -0.959779 -0.457217 -0.638861 0.042882 -0.799999 0.858617 -0.316049 -0.890692 -0.128959 -0.073467 -0.512253 0.555056 0.439705 0.216462 -0.363743 -0.298589 -0.778292 -0.618933 -0.818052 0.988762 0.112784 -0.599640 -0.668719 -1.007119 0.588134 -0.948046 0.842593 0.071006 -0.198686 -0.635219 -0.146422 0.601974 1.098028 0.977642 -0.932315 0.720648 -0.224176 -0.318551 0.702709 0.892983 -0.597174 -0.790823 0.675245 -0.538561 0.612689 -0.099026 0.206194 -0.723752 -0.662522 -0.684114 0.301033 0.032086 0.773441 0.652862 -0.459580 0.903419 -0.552278 -0.464255 -0.398095 -0.600827 -1.237080 -0.026427 -0.814011 0.527174 0.808767 -0.224814 0.565320 -0.460462 -0.380753 0.179150 0.679457 0.318142 -0.804112 0.077165 -0.097443 -0.826621 0.639841 -0.072764 -0.645908 0.725856 -0.806490 1.255021 0.306404 -0.620812 0.858536 0.047883 -0.376196
-0.356188 1.348467 -1.196911 0.325260 0.691974 -0.051853 -0.977530 -0.617002 -0.820297 0.343623 0.729195 0.457271 -1.183635 -0.607270 0.014635 -0.079878 0.008618 0.163857 -0.142310 -0.139397 0.458824 0.702585 -0.560794 0.211480 -0.776245 0.023321 0.749563 -0.032424 -0.397785 -0.301893 0.058420 -1.027008 -1.038319 0.008639 0.686611 0.357788 -0.511464 -0.183778 -0.109203 0.424337 1.130911 0.508461 -0.470805 -0.263653 0.920796 -0.169267 -0.053298 -0.219543 -0.216148 1.094033 1.145993 0.643586 0.019007 1.040444 -0.583374 -0.010851 -0.405997 -0.380599 0.310677 -0.830740 1.125441 0.985801 0.496078 -0.679971 -0.660209 0.880973 0.190691 0.872878 0.766279 -0.667707 0.864998 -0.890814 -0.176840 0.778246 0.439208 0.958202 -0.258386 0.352579 0.467514 0.841746 0.593863 -0.406541 0.357656 0.563061 -0.035885 -0.324170 0.881531 -0.854091 -0.123617 0.710232 0.105294 0.078361 -0.603609 -0.025764 0.150291 0.759188 0.425550 -0.371530 0.265857 -0.496601
-0.281832 0.652173 0.741033 0.144540 0.551274 0.559656 -0.310225 -0.251322 -0.818623 -0.509459 0.799617 0.872756 0.289861 -0.424169 0.745528 -0.875327 0.573650 0.900809 0.643668 0.658600 -0.377988 -0.164439 -0.520953 0.476834 0.677899 0.673601 0.226829 0.176519 0.301744 0.364827 -0.218428 0.358282 -0.783946 -0.573174 -0.023056 -0.675617 -0.255181 -0.388912 -0.895274 -0.299689 0.332773 -0.956986 0.586109 0.212627 -0.372903 0.663907 -0.571910 0.373066 -0.004700 0.929913 0.124969 -0.333762 -0.288270 0.255835 0.386654 -0.844188 0.426255 0.689629 0.427112 -0.404324 0.349519 0.780471 0.586044 0.303443 -0.214853 0.627461 -0.235348 -0.599919 0.715025 -0.583965 1.023135 0.158087 0.689983 0.300544 0.235349 -0.187503 0.642834 0.746951 -0.094235 0.307206 0.891361 0.399355 -0.552277 0.078707 -0.789662 0.216690 0.007749 -0.174726 0.117105 -0.264313 -0.816864 0.515808 -1.140150 -0.064919 -0.528537 0.237970 0.528861 -0.164472 -0.551581 0.456730
0.317750 0.453657 1.188472 -0.081819 -0.216655 -0.786058 0.732488 -0.220975 -0.800116 0.349515 0.689127 -0.933739 -0.663887 0.126134 1.086876 0.266813 0.293035 0.452409 -0.797738 0.156906 -0.023733 -0.355016 -1.108688 -1.002340 -0.539367 0.193918 0.486124 -0.133884 0.123311 -0.270137 0.245335 0.643818 -0.034367 0.419579 0.750859 -0.794577 0.128690 0.808949 0.682408 -0.451017 -0.191078 -1.036875 -1.206154 1.060924 0.163482 0.790543 -0.722872 0.738689 0.925387 -0.702756 0.140862 -0.446112 0.359772 -0.390113 -0.192964 -0.746247 -0.911538 -0.714570 1.040133 -0.464896 0.562002 0.445682 0.077869 0.478179 0.832190 0.893570 -0.935492 0.879391 0.062204 0.701146 -0.389124 -0.213496 -0.841950 0.782810 0.631131 0.003199 0.757965 -0.259978 -0.980888 -0.659010 -0.553522 0.390521 0.850578 -1.051747 -0.861498 -0.333668 0.298093 0.365094 0.067649 -0.656518 0.285540 -0.852472 -0.544762 0.339131 0.639528 -0.403661 0.669914 -0.848540 -1.150364 -0.766016
0.815628 0.700685 -0.208223 0.514363 0.667149 0.813742 -0.368098 0.386739 -0.405423 0.613865 -1.450922 -0.479693 -0.405344 0.214595 0.291833 -0.250689 0.630698 -0.928108 -0.679865 -0.123605 0.328879 -0.995940 0.745283 0.084596 -0.580477 -0.236755 0.025927 0.797526 -0.107450 0.836816 -0.858971 0.026088 -0.896368 -0.613739 -0.503826 -0.133986 1.102217 0.721768 0.361031 -0.504958 0.398468 -0.595056 -0.232424 -0.198180 -0.783500 -0.342493 0.790033 0.673816 -1.036680 -0.082087 -0.412466 -0.122789 -0.904908 -0.725619 -0.685689 -0.983782 0.937921 0.870781 0.438840 0.155065 0.830690 1.022654 -0.939335 -0.029722 -0.093281 -1.169649 0.449644 0.151636 -0.248814 0.432207 -0.991965 -1.265186 1.400832 0.465539 -0.161713 0.492835 -0.741888 -0.212198 0.815805 -0.105059 0.843998 0.749731 -0.325767 0.335999 0.612445 -0.251675 0.962776 0.581697 0.356157 0.544185 0.022551 -0.575969 -0.632946 0.464339 -0.610083 0.352692 -0.985075 0.527448 0.707074 -0.017845
0.880638 0.484313 0.621758 -0.005040 0.009576 -0.585571 -0.876316 0.660548 -0.559631 0.245208 -0.351039 -0.186896 -0.335374 -1.052135 -0.830779 -0.777373 -0.510253 -0.905039 -0.355488 -0.166710 -0.719421 -0.164279 0.659481 0.649499 -0.499349 -0.646701 0.380377 -0.643311 0.233142 -0.253827 0.648045 0.469584 -0.007876 -0.704256 0.799940 -0.089313 0.553991 0.013896 -0.003481 0.197093 -0.221471 0.097282 -0.479421 -0.119105 -0.302822 -0.868566 0.181681 0.634779 0.346964 0.663614 0.850887 0.802046 0.270519 0.090641 0.389478 0.039260 0.468666 -0.204371 0.595458 -0.570719 0.004177 0.122209 0.482712 -0.041284 0.074273 0.483218 -0.149775 -0.773087 0.326118 -0.283581 0.519921 0.349477 -0.087382 0.327625 -1.001725 0.827388 -0.954232 0.426371 -0.432776 -0.260963 -0.336246 -0.739537 0.701322 -0.599303 -0.975016 0.433985 0.612441 0.042450 -0.566425 0.037093 -0.188704 -0.274938 -0.742792 -0.374037 -0.441599 0.295910 0.745363 0.006844 -0.612702 0.546204
-0.719645 1.611407 0.019000 -0.196247 0.607081 -0.494401 0.876618 0.182786 0.076401 0.288583 0.507978 0.910234 0.204287 0.565417 0.922915 0.386819 0.354126 -1.220501 0.596688 1.357429 -0.612125 -0.355447 0.993234 0.255879 1.149095 1.554127 -0.275118 0.533810 0.238474 -0.123503 1.022274 -0.405627 1.444821 0.736195 -0.245503 0.836805 -0.157965 0.372388 -0.505002 0.057706 0.573191 0.047667 0.742349 -1.187705 -1.119867 0.105332 -0.671221 -1.114212 -0.184847 -1.132499 -1.000236 0.473226 -0.778534 -0.137219 -0.187939 0.061417 0.779777 -0.357005 0.056308 0.309306 0.262533 0.456965 -0.356898 -0.681870 0.658017 -0.324457 1.101404 -0.009628 0.072202 -0.134079 -0.463519 0.044142 0.936525 -0.285965 0.129978 1.255557 0.553058 -0.006402 -1.025465 -0.130808 -0.561231 1.256956 1.129078 0.270839 -0.348189 -0.600183 -0.344913 -0.667621 -0.390158 -0.773989 -0.685844 -0.024017 0.914395 -0.450321 -1.202101 -0.413201 -0.008468 -1.231441 0.415230 0.398878
-0.763586 -1.048788 0.405703 1.178502 0.481850 0.618353 -0.387906 0.836718 -0.034434 -0.472334 -0.128664 -0.272654 0.103756 0.969462 -0.319870 -0.573063 0.287006 0.949842 -0.300315 -1.078110 -0.236652 0.108468 -0.802391 0.812643 0.209029 -0.283065 0.189145 -0.759687 -1.571270 0.771512 -0.328482 1.032723 -1.004009 0.863075 -0.072995 -1.009692 0.783131 0.821657 -0.246628 0.346680 -1.384312 -0.281704 -0.953322 0.200068 0.015586 -0.345426 0.251917 1.548095 -0.578678 -0.390772 -0.334302 0.924026 1.022122 -0.927980 -0.222398 0.028039 -0.463869 -0.426695 -0.694507 -0.544799 0.581019 -0.692460 0.448047 0.302523 -0.056865 -0.126987 -0.362664 -0.447677 0.303893 -0.711431 1.104215 -0.521041 0.061545 -0.500235 0.573615 -1.314365 -0.343667 -0.352444 -0.343066 0.744241 0.549570 0.435498 -1.322387 -0.356712 0.811389 -0.889123 0.529044 0.675966 0.396726 -0.519364 -1.035313 -0.520245 0.534103 0.029371 0.932658 0.155108 1.036234 1.361644 -0.712268 -0.158128
-0.425550 -0.388465 -0.347416 0.670290 0.026856 0.927618 0.401072 0.419718 -0.440144 -0.111364 0.035578 0.298421 0.034719 0.751182 0.022823 0.414391 -0.278933 -0.750384 0.798290 -0.413772 0.914334 0.172615 -0.432030 1.018246 0.347984 0.801136 0.212529 -0.093669 0.544565 -0.322669 0.771371 -0.313608 0.184926 0.038962 0.129541 0.087533 -0.118354 -0.623833 0.828386 0.566650 -0.156597 0.098977 0.068028 0.133004 0.508716 0.178168 -0.551604 0.319622 0.468751 0.449037 -0.511259 0.905496 -0.163255 0.389930 0.884504 0.295023 0.462174 -0.871105 -0.297630 -0.476461 -0.685942 -0.444201 -1.023730 -0.927008 -0.717623 -0.514803 -0.354010 0.250567 0.388634 -0.923171 0.831219 -0.757233 -0.824720 0.074783 0.296059 -0.470502 0.808386 0.693461 0.085831 0.590753 1.015129 0.778950 0.501385 -0.213123 -0.952595 0.731933 0.355146 -0.925632 0.713986 0.070146 0.764606 0.876688 0.249547 -0.257957 0.333074 -0.298224 -0.237342 -0.443038 -0.415706 1.011116
-0.871472 1.273593 -0.510987 -0.441294 0.156342 -0.919379 -0.780174 -0.558437 -0.291425 0.293901 0.216912 1.158496 -0.248126 0.336091 -0.776295 -0.384095 0.487792 -1.379235 -0.227948 -0.024702 0.545658 -0.818615 1.066906 -0.247693 -0.507503 1.187974 0.641657 0.756735 0.982326 0.852074 0.386446 0.593258 0.947638 -0.961692 0.449843 -0.248726 -0.401639 -0.047115 -0.570252 -0.928938 -0.293217 0.544516 0.977754 -0.064962 -0.866166 0.848699 0.694590 -1.251672 -0.529643 -0.063092 0.450736 -0.408911 -0.363495 1.206032 -1.088993 -1.081894 0.689507 -0.216636 0.188502 -0.845894 -0.326781 1.328555 -0.015293 -1.134116 0.201248 0.215590 -0.250210 -0.706305 0.442019 0.783643 -0.569719 0.465862 -0.696245 -0.008233 -0.673875 0.476083 0.832901 0.069870 -1.088584 -1.015829 -0.691627 -0.208109 1.338848 -1.118999 0.364075 -0.810051 -0.658625 0.744001 0.672859 -0.191063 1.289689 0.834348 0.535465 0.303638 -1.048329 -0.001294 -0.461229 -0.608950 -0.477343 -0.587484
0.311524 0.313705 1.027464 0.498921 -0.360703 0.339591 -0.631216 0.403993 0.468735 -0.023484 0.117958 -0.365643 0.678738 0.248978 0.361772 0.129309 0.848749 1.206656 -0.913649 -0.314874 0.859074 0.969876 0.615855 0.483701 -0.791887 -0.096001 -0.213421 -0.508060 -0.731098 -0.657573 0.416145 -0.024759 -0.929936 0.193371 0.921497 -0.762873 -0.028712 0.982259 -0.222635 0.199601 0.847426 0.414693 -1.083036 0.835357 0.411366 -1.158049 0.335284 1.544877 0.867895 -0.179871 -0.580270 -0.461359 -0.321474 -0.533305 -0.333365 0.274847 -0.623442 -0.848202 -1.352013 0.689681 0.518199 -1.666661 0.117855 0.092197 -0.701521 -0.455171 -0.038030 -0.628212 0.190241 -0.147118 0.660393 -0.652005 -0.901791 0.910828 -0.614584 0.128697 1.106313 0.214176 0.875821 0.561112 0.586633 -1.207268 0.081747 -0.439911 -0.842071 -0.532247 0.400138 0.838001 0.221827 -0.102539 0.129689 0.471806 -0.296686 -0.493615 0.898783 0.331866 0.573455 -0.378642 0.466259 0.691037
0.788894 -0.054101 -0.825118 -0.306378 -0.640274 0.627958 0.216528 0.532548 -0.463693 1.109338 -0.353575 0.649823 -0.462114 -0.048557 0.282270 -0.352045 0.788249 -0.331904 -0.978600 0.492888 -0.841222 0.358844 0.032267 -0.249297 0.702818 0.256245 0.294168 0.426310 0.235539 0.326373 0.077688 0.179360 0.622766 0.352541 0.081405 -0.741670 -1.259184 0.918740 0.814336 -0.208578 0.723763 -0.407017 0.039977 -0.336056 0.680677 0.048876 -0.764018 -0.711402 0.910212 -0.305682 -0.077887 -0.036606 0.013590 0.926050 0.174951 0.270929 -0.717914 0.811757 -1.026341 -0.914813 -0.154518 0.548926 -0.810592 0.649798 0.052131 -0.914568 -0.975863 0.595673 -0.386913 -0.149965 0.123314 0.333623 0.999836 -0.129441 -1.175185 -0.575818 0.482964 -0.018955 0.750760 -0.075652 -0.155649 0.231574 0.298606 0.693920 0.538351 -0.807274 -0.769187 0.443003 -0.827774 0.054226 0.503430 0.490740 -0.795736 0.171661 0.495618 0.385413 0.143998 -0.601823 -0.678710 0.717315
-1.251501 -0.143030 -1.021896 -0.473825 0.010917 0.227953 1.031348 0.523473 -0.571453 -0.138437 0.386761 0.134940 0.940126 -0.986737 0.225672 0.154377 -0.862989 -0.731636 0.511139 -0.281854 0.784335 -0.138475 0.839931 0.100658 -0.571571 0.402735 0.221042 0.814160 0.161498 -0.851840 0.511949 -0.196340 1.207697 0.317988 -0.478845 0.310284 -0.398712 0.161999 -0.224367 -0.894498 0.856233 0.388433 0.446055 -0.993964 -0.633755 -0.125598 0.910680 -0.601651 -0.101088 -0.984322 -0.485654 0.689695 0.927147 0.219785 0.397739 -0.944175 0.747725 1.225842 0.149379 -0.565713 -0.297632 1.014513 0.982945 0.380495 0.433789 0.043421 -0.227529 0.476939 0.124433 -1.141532 -0.452828 -0.660115 -0.632595 -0.630965 -0.265809 -0.874258 0.835122 -0.874380 -0.961468 -0.973689 0.751282 1.152984 1.154789 -0.682125 0.748432 -0.786043 0.429588 0.353584 -0.317029 -1.019866 1.264070 0.743234 1.305533 0.289792 -0.621402 0.653466 -0.806694 0.186022 0.147385 -0.132430
0.413390 -0.208905 0.755372 0.666922 0.508859 -0.744427 -0.772178 0.066520 1.007889 1.041887 0.830305 0.118592 -0.601785 -0.028258 0.436629 -0.352391 0.745945 0.598487 0.666716 0.535850 1.023473 0.318147 0.575799 0.227248 -0.409574 -0.252185 -0.809829 -0.647220 -1.024035 0.667262 0.228546 -0.633166 -1.078885 -0.855173 -0.617426 -0.131477 0.454466 -0.775527 -0.341205 -0.644390 0.753248 0.747578 -0.315446 0.685895 1.070291 0.383197 -0.627234 0.466556 0.797842 1.108262 0.061280 -0.433861 -0.621340 -0.191689 -0.591172 0.899338 0.541239 -0.731488 -1.308089 0.868132 0.576141 0.244312 0.238143 -0.117354 0.566011 0.030004 0.667678 0.670326 0.244766 0.762179 -0.079355 0.924298 0.979891 0.536905 -0.447890 -0.443341 0.581985 -0.302065 1.264149 -0.025225 0.885996 -0.301261 -1.212880 0.923806 0.044558 0.127731 0.736371 -0.416999 0.214146 -0.661009 0.581153 -0.747685 -0.024482 0.465737 0.652712 0.135722 -0.895614 0.787511 -0.815391 -0.032960
0.832613 -0.696737 -0.020359 -0.064701 0.711136 0.732797 0.933152 0.634071 -0.905215 -0.652482 0.302091 0.401158 -0.814123 -0.284538 0.927404 1.048283 -0.752793 -0.159698 -0.106269 -0.143523 -0.526000 0.946795 -0.552468 -0.473321 -0.473851 -0.689139 0.050233 0.809064 -0.972673 0.672208 -0.219391 0.675797 0.422179 -0.019130 -0.413139 -0.501243 -0.570928 0.833127 -0.194805 0.068716 0.039160 0.613926 0.748344 -0.833351 -0.028385 -0.410085 0.345701 -0.621148 -0.240913 -0.439690 0.868667 0.569087 -0.883646 0.688375 -0.458245 -0.968350 -0.489690 0.827277 -0.793452 0.628993 0.086844 -0.359983 0.179548 -0.464607 1.044979 0.016550 -0.569035 0.467666 -0.092857 0.860479 -0.728408 -0.656325 0.632178 0.382662 -0.954282 -0.789112 0.091251 -0.151165 -0.957985 -0.761384 -0.878556 -0.104218 -0.041560 0.116650 -0.615931 -0.198837 -0.324656 0.408914 -0.663273 0.842239 -0.182448 -0.001045 -0.915080 0.900613 0.167207 -0.834770 0.061742 0.902080 0.599961 -0.628065
0.420977 0.238962 -0.287346 0.835117 0.922721 0.227385 0.226982 -0.345362 -1.137956 0.106014 0.842394 1.247270 1.029706 -1.190917 -0.083893 -0.641748 0.793747 0.014261 0.776577 0.777342 -0.478339 -0.456776 0.696488 0.014810 -0.004061 0.668074 0.294174 -0.162742 -0.474057 -0.190656 1.297001 0.094169 -0.358135 -0.859610 0.454906 0.004452 -0.167799 -0.901088 -0.748783 -1.134106 0.837111 0.490781 -0.544656 -0.036049 -0.905211 0.453408 0.498296 -0.712958 -0.062747 -1.123274 0.500975 -0.617286 -0.656026 -0.131389 -0.574946 -0.736924 -0.405189 0.861209 0.915761 -0.938446 -0.518275 0.518456 -0.260903 0.629478 0.935209 1.167391 0.812518 0.098690 -0.512377 -1.042922 -0.819209 -0.996402 -0.910295 0.170123 0.305057 -0.224510 0.933318 -0.810079 0.173291 0.575333 0.315072 -0.400481 0.302608 -0.014129 0.879145 -0.183199 -1.097355 0.981196 0.565198 -0.896779 0.416099 0.822572 1.342390 0.814579 0.150907 -0.494011 -0.427819 -1.093131 -0.376407 -0.670084
1.016800 0.617471 0.306830 -0.630432 -0.064516 -0.486402 -0.933169 -0.067331 0.422208 0.682958 -0.355261 -0.964579 -1.076417 0.385398 -0.473323 -0.835369 0.701372 0.012395 -1.017609 -0.402169 -0.842038 -0.298886 -0.492379 -0.278763 0.728211 -0.572321 -0.339260 0.338392 -1.014761 -0.543428 -0.083300 0.758473 -0.471478 -0.202774 0.319906 0.118190 -0.569851 -1.045830 0.062393 0.963860 -0.695561 0.687573 1.225365 -0.688940 -0.225172 0.059336 -0.270430 0.192842 0.320634 1.283693 0.159137 0.609722 0.288970 -0.863126 0.613099 0.561872 -0.270414 -1.130485 -0.768389 0.541478 0.251680 -1.018523 0.710159 0.287842 0.514400 -0.715688 0.899117 0.516116 -0.331639 -0.091625 0.933064 0.383793 1.246347 -0.417460 -0.193559 -0.614087 -0.303524 -0.184821 -0.386376 1.013435 0.305788 0.468024 -0.341728 0.621135 0.819425 0.925822 0.385798 -0.796597 -0.839111 0.840477 -0.994992 0.991017 -0.323337 -0.104062 -0.828486 -0.124700 0.723111 0.998944 0.364999 0.177008
-0.702339 -0.192685 -0.287516 0.569170 -0.081391 -0.432791 0.509838 -0.225477 -0.526443 -0.010008 -0.806148 0.891183 0.388294 -0.579069 0.035983 -0.869768 -0.156522 0.809213 -0.716152 0.472542 -0.667842 -0.572513 0.339303 0.437169 0.295211 -0.915717 -0.764291 -0.987692 0.218262 0.494944 0.746379 0.265226 -0.849608 -0.596794 -0.562055 0.671829 0.643000 -0.475875 -0.641938 -0.287738 0.067392 -0.475682 -1.019936 -0.546792 -0.246866 0.812933 -0.988500 -1.035152 0.771903 -0.077949 -0.379901 -0.200889 1.014177 -0.492096 -0.664659 0.479834 0.096927 0.564439 0.553042 0.810682 -0.869121 0.057119 0.282820 0.913709 -0.732899 -0.610795 -0.149602 -0.239459 -0.792297 0.062931 0.965124 -0.166607 -0.132724 0.103766 0.614902 0.014837 0.582074 0.766135 0.854731 0.609372 -0.348110 -0.135628 0.824368 0.845870 -0.652095 1.041335 0.048736 0.537146 -0.646721 -0.890874 -0.315734 -0.286169 0.313515 -0.019043 0.460202 0.612031 -0.905893 0.523864 -1.077599 -0.345950
0.018472 0.861216 0.495082 -0.638137 -0.683771 0.910369 0.045466 -0.662121 -0.102228 -0.680377 1.195559 1.042036 0.547965 -1.544378 0.081373 -0.423432 0.266184 -0.173751 0.293631 -0.334292 -0.707810 -0.374809 -0.649904 0.378444 0.050145 0.169532 0.331195 0.457293 -0.303304 -1.025903 0.622100 0.131353 1.339669 -0.034550 -0.622455 -0.508272 0.334787 1.179290 -0.259073 -1.017721 0.220791 0.044628 -1.196546 -0.626442 -0.005591 1.641365 0.550542 -0.251458 -0.689112 -0.069311 -0.306466 -0.258331 -0.040368 0.701167 0.170350 -0.127708 0.857168 0.259320 1.623422 -1.511307 -0.831039 -0.009672 -0.469227 -0.960390 0.424623 0.356240 -0.706836 0.106410 -0.451059 -1.076996 -1.036869 0.038723 -0.826507 -1.015429 0.547071 -0.314596 0.620968 -0.037093 0.102373 0.476239 -0.390025 1.214116 0.161057 -1.368214 -1.086211 0.528245 0.130228 0.402899 0.345098 -0.933416 1.388450 -0.475218 1.008690 0.613063 0.235974 0.186168 0.177993 -0.991128 -1.261975 -1.008060
0.318194 0.419065 -1.232033 0.222994 0.080090 0.941083 0.525343 -0.938374 -0.296716 0.712614 -0.158551 -0.831374 -0.277321 0.773150 0.616494 -0.605511 0.764093 -0.397962 -1.273528 0.541577 -0.131828 0.445664 0.328780 -0.623145 0.153996 -1.273198 0.628070 -0.775798 0.108028 -0.424288 -0.871288 -0.845625 -0.911065 -0.258734 0.353945 -0.306733 0.396149 -1.006930 -0.110580 -0.321025 0.717472 0.262606 0.124784 0.744213 1.279460 -0.327205 0.503416 -0.040144 -0.167861 1.180799 0.042831 -0.742525 0.781221 0.191338 -0.554958 -0.163200 0.300765 0.477725 -1.084288 0.896507 0.121052 -0.131214 0.743031 -0.056117 -0.012203 0.415634 0.412651 -0.830241 -0.035607 -0.227247 0.311079 0.450751 1.439854 -0.201755 1.137403 0.415955 0.051806 0.001413 0.929181 -0.435784 0.580350 -0.992260 -0.169419 0.833491 0.364431 -0.004276 -0.464362 -0.277765 -0.225469 0.499141 0.354659 0.045253 -1.206141 -0.934122 -0.906174 1.035776 -0.128735 -0.588980 -0.535146 0.833057
-0.156426 0.684334 -0.804227 0.372052 0.957660 -0.467555 0.787543 0.326725 -0.415317 -0.354528 -0.807294 0.393123 0.688054 0.681401 0.706007 -0.324472 0.101282 -0.993342 -0.009119 -0.097496 -0.346120 0.995779 -0.371523 -0.324057 0.698582 0.230019 0.775817 0.692041 -0.075593 -0.643359 0.341475 0.742504 0.631864 -0.035878 -0.246290 0.124773 -0.396363 0.407916 0.961145 -0.593365 -0.801410 0.343414 -0.284884 0.493033 -0.173762 -0.044908 0.309956 0.328200 0.553184 0.142187 -0.464908 -0.719612 -0.079159 0.219872 -0.656940 0.713817 0.547316 0.342313 -0.903847 -0.589704 -0.890257 0.861087 -0.412964 0.898954 0.198983 0.486076 -0.444029 -0.655867 -0.224457 0.522179 -0.898363 -0.558374 0.444974 -0.475765 0.319214 -0.705675 0.567459 -0.534120 0.378670 0.783539 -0.202407 -0.558899 0.105760 -0.359670 -0.056834 -0.398801 0.768483 0.042149 0.723293 0.906527 -0.410716 0.532051 0.450100 0.667230 0.579801 -0.352819 0.781246 0.445294 0.006978 -0.701291
