-0.537198 -0.378314 0.921656 -0.541363
0.624497 -0.381815 -0.485208 -1.208073
0.133728 0.072782 -0.491911 0.189198
-0.829852 1.055173 -0.863990 -1.099905
-0.670945 0.495729 0.159267 0.331340
1.071066 0.162243 -1.057540 -0.037744
0.104992 1.004742 0.466450 0.527884
-0.141484 0.011100 -1.127008 0.160575
0.535860 0.356877 -0.866257 0.545896
0.301975 -0.415915 0.084183 0.303537
-1.066937 -0.244574 -0.660472 -0.620035
0.260877 -0.778735 -0.772849 -0.310030
1.015120 0.111919 -0.120805 -0.799860
-0.724853 -0.747216 0.513082 -0.387282
0.751022 -0.125571 0.203611 -0.806725
-0.003339 0.502116 0.439986 0.504328
0.199504 -0.692013 -0.146146 0.174593
-1.018112 0.492052 -0.946885 -0.339615
-0.661025 1.166459 0.530212 -0.568399
0.219883 0.286177 -0.683770 -0.980711
0.064285 -0.504646 0.347917 0.772312
-0.365317 0.240976 0.044737 1.054191
-0.764305 0.831764 -0.937625 1.091465
0.750211 -0.287296 -0.695761 -0.009043
0.460932 -0.151728 0.013659 0.364122
-0.810564 -0.940798 0.648931 -0.712782
0.973582 0.522009 0.864602 -0.532137
0.755178 0.208148 -0.167713 -0.462163
0.078885 0.661007 -0.054109 -0.449420
-0.312810 1.132020 0.038033 -0.324714
0.682684 -0.709517 0.505585 0.760601
0.059696 -0.217287 0.703426 0.165930
0.091940 -0.060646 1.021947 -0.161809
-0.475284 -0.655314 0.174344 0.702543
-1.009203 0.086029 0.316923 -0.701186
-0.345359 -0.149170 -0.399829 0.458740
-0.849569 -0.177775 -0.699491 -0.503495
-0.187531 0.927726 0.611744 -0.977689
0.587903 0.650559 0.678443 0.516246
-0.399534 0.714630 0.443183 0.467185
-0.490505 -0.698989 -0.560394 0.433922
-0.319420 0.036857 0.508243 -0.408202
-1.054045 0.281622 -0.706509 -0.150855
-0.469564 -0.532477 -0.465110 0.529418
-0.347005 0.486037 -0.514117 0.214054
0.464833 0.802476 -0.051114 -0.101618
0.360064 0.539354 1.261478 -0.137541
-0.738569 0.137452 -1.070370 -0.300903
-0.586557 0.497987 0.305831 0.919652
1.054468 0.520379 0.831323 0.578310
-0.421439 -0.863441 0.665312 0.414081
0.249735 -0.110617 -0.708249 -0.416110
0.546884 0.404539 -0.320588 -0.892567
-1.141796 1.355789 -0.583141 0.464546
-0.808790 -0.206440 0.697098 -0.550242
0.200894 -0.569951 -0.330595 0.146543
-0.746773 -0.878049 0.261067 -0.420979
-0.983408 0.607339 0.103715 -1.038944
-0.794289 -0.508302 0.723883 -0.379446
0.264409 -0.470055 0.589172 0.811382
0.087075 0.366814 0.112156 0.357960
0.318885 0.716337 -0.879327 0.003069
0.860015 -0.057893 -0.672069 0.250858
0.912155 -1.313068 -0.173767 0.092971
-0.595670 -0.933081 0.659012 -0.133154
0.029423 -0.313258 0.020501 -0.538115
0.777233 -0.430701 0.588305 0.040805
0.181282 1.065965 1.137435 -0.435346
0.935174 1.220732 -1.042512 -0.676325
-0.410236 -0.398489 -0.162717 0.397672
1.031689 -0.074191 -0.607009 0.048341
0.058617 0.362329 -0.681630 -0.004268
0.155632 0.172485 1.162801 0.493184
-0.500344 -0.171887 -0.918354 1.197684
-0.568637 -0.998116 0.503987 -0.437987
-0.421613 0.912925 -0.529372 0.410067
0.858821 -0.948223 0.587645 -0.187915
-0.496519 0.517620 0.907064 -0.344778
-0.395248 -0.396342 -0.761329 0.244142
-0.409919 0.483650 0.116232 -0.829332
-0.669493 -0.073694 0.178826 0.098671
0.806303 0.453996 -0.914783 -0.048660
-0.255898 0.521862 -0.207246 0.473539
0.784750 0.560162 0.640089 -0.881208
0.025435 -0.575954 0.491886 0.102689
-0.289651 0.090920 -0.002293 1.112843
-0.489171 0.372978 -0.487111 -0.555736
-0.638372 -0.574934 0.494918 0.131179
-0.624444 0.552189 0.159915 0.738174
0.752554 0.606932 0.151467 0.043386
1.144484 0.420658 -0.781757 0.188403
0.228214 0.614718 -0.034806 -0.496643
0.365987 -0.258765 0.555059 0.296668
0.532355 -0.335386 -0.223081 -0.666015
-0.509308 0.703364 -0.415184 -0.728837
0.996739 -0.092791 -0.364579 -0.869813
-0.554217 0.063900 0.746618 -0.533383
-0.722666 -0.102238 -0.842485 0.310379
-0.399397 0.460956 -0.610880 0.588286
-0.780849 -0.034325 -0.824763 -0.332192
0.702751 0.729956 0.367183 0.528958
0.651203 -0.819267 0.091068 0.255271
-0.404934 1.316628 -0.573881 -1.164182
0.100360 0.035273 0.947999 0.538187
-0.277675 -0.191301 -0.566972 0.053557
-0.743691 -0.188926 0.530234 -0.594593
0.060374 0.724569 1.205781 0.072012
-0.819260 0.412517 1.002894 -0.512788
0.717782 -1.097950 0.514835 -0.666867
-0.546058 -0.090487 0.310675 1.045733
0.583014 -0.658118 0.073182 -0.428482
0.515063 -0.807324 -0.364260 -0.568729
0.275310 -0.794933 0.891741 0.761630
-0.357761 -0.638419 0.355816 0.720652
0.658392 0.894367 0.132077 -0.121891
0.377859 0.519785 0.449427 -0.715181
-0.497341 0.732506 0.249015 0.808866
0.776096 0.096991 -0.981818 0.927329
0.603003 -0.098841 0.989539 0.279747
-0.368474 0.600225 -0.845526 -0.002114
-0.414958 -0.290033 -0.446336 -0.549995
0.350618 -0.097319 0.867501 -0.388939
0.147050 -0.707938 0.945483 0.207501
-0.984910 -0.748116 0.290926 1.041715
1.113104 -0.074348 -0.249187 -0.508612
-0.040454 0.336660 0.035942 0.161499
0.466423 -0.424763 0.315653 0.618953
-0.384989 0.271476 1.087965 0.699141
