1.041955 2.123056 1.790160 -0.789701
0.242167 0.940922 0.189582 0.102143
0.167957 -0.150476 0.240474 0.687552
0.035441 -0.782226 -0.523356 -2.251290
-0.544800 -1.348730 0.306840 -0.533461
-0.257327 0.683010 -0.374564 -0.180675
-0.631636 -0.063267 0.136729 -0.302247
0.365494 0.967350 1.145449 1.900480
-0.575015 -1.286040 -0.461864 -0.029379
-2.012298 -0.259196 -1.944447 -1.975160
0.613172 1.559689 0.909985 0.200268
0.379028 -0.438992 0.447992 -0.009847
0.658215 0.047954 0.730015 1.152325
1.133485 1.395649 1.201310 -0.082970
0.565271 0.494385 0.649451 2.026055
-1.064109 -0.656622 -0.694509 -1.165771
-0.488431 0.362903 -0.210279 -0.855025
-0.597703 0.895822 -0.272843 -2.318465
-0.600405 0.223495 -0.803423 0.402130
1.043189 1.027770 -0.146074 -0.491676
0.344538 0.511554 0.902284 0.792094
-1.058118 1.085381 -0.706740 -0.486722
-2.043084 -1.666538 -1.366761 -2.161816
-0.301210 -0.880990 -1.195358 -0.811397
-0.220210 -0.822942 -0.558482 -1.345874
1.043799 1.373126 1.107738 1.133796
-0.116060 0.565460 0.037904 1.434007
0.507568 2.415535 0.816716 -0.141874
-0.502424 -1.156217 -0.274905 -0.200614
-0.865101 -0.672181 -1.089386 -1.198920
-0.627813 0.521038 -0.626275 0.044326
0.555884 -0.040593 -0.326021 0.838503
-0.695806 -0.316223 -0.641962 -1.354191
0.762906 1.291064 0.710438 0.467560
-1.557804 -3.235498 -1.091724 -0.936005
0.429297 0.409131 0.264212 0.374286
0.949376 -1.049574 1.058883 0.556499
-0.237073 0.337540 0.722491 0.524549
1.213315 1.726074 0.692259 0.469546
1.294096 1.507381 0.870058 1.583900
-0.441272 -1.640469 -0.693964 -1.230500
0.208662 0.348809 0.056622 1.813287
-1.301111 -1.799292 -1.464055 -1.272733
-0.075522 -0.176425 -0.852767 0.489823
0.363188 0.576907 0.811532 1.897992
-0.214158 -1.086522 0.207640 0.247346
-0.982906 -0.804077 -1.047596 -2.226650
-1.159398 0.435730 0.062038 0.000910
1.569908 1.025192 1.626150 0.822170
-0.840589 -0.173497 -0.559694 -0.408434
