0.357493 0.428302 -0.060366 -0.036061 -0.043236 0.107791 -0.529704 -0.122713 -0.030246 0.674948 0.336531 0.626184 -0.576564 -0.708128 -0.055681 -0.481050 0.534106 -0.806457 0.499380 -0.685491 -0.275684 -0.196838 -0.060373 -0.241261 -0.616519 -0.733080 0.266480 0.512763 -0.200725 0.009180 -0.912813 0.436673 0.911447 -0.987249 -0.463787 0.668347 -0.458492 0.800192 -0.869700 0.338449 0.213396 0.278024 -0.818094 0.759469 -0.768932 0.351124 0.011646 0.149115 -0.485365 -0.176953 -0.677837 0.402459 0.274181 0.355990 0.967546 0.136685 -0.311647 -0.540579 0.914943 0.470189 0.409549 -0.118634 -0.679565 -0.108799 -0.010556 0.283466 0.802999 -0.610745 0.253819 0.522759 -0.748232 0.716004 0.261402 -0.289857 -0.967666 -0.416923 0.273877 0.245246 -0.170519 -0.870415 -0.641336 0.034236 0.525356 0.543664 -0.073101 0.343364 -0.290763 -0.902740 0.519497 -0.221030 -0.231845 -0.603026 -0.793726 -0.103511 -0.443009 0.630448 -0.679647 -0.672236 -0.403006 0.847635 0.514491 -0.136572 -0.790484 0.499212 -0.538739 -0.343121 -0.349972 -0.162519 0.710994 -0.506831 -0.582990 0.430237 -0.701396 0.139589 -0.648613 0.880649 -0.778526 -0.679041 -0.539635 0.861997 0.885025 -0.931758 0.348663 0.086922 -0.155143 -0.843560 -0.729969 0.399523
0.079488 0.734468 0.939570 -0.256805 -0.122576 0.852899 0.157952 -0.391248 0.034214 -0.057196 -0.474292 0.925973 -0.289268 -0.535080 0.297512 0.727468 -0.033758 -0.179959 -0.730669 0.967302 -0.970063 -0.169739 -0.611391 -0.131615 -0.555160 0.189762 0.185997 0.328644 -0.274364 0.766248 -0.315366 0.988213 0.504734 -0.132531 -0.005136 0.124884 0.532314 -0.290229 -0.710197 0.242366 0.802330 -0.407766 -0.865376 0.617637 -0.004062 -0.384392 -0.344677 -0.441448 -0.262310 0.926633 -0.189192 -0.491000 -0.818721 0.210735 0.987105 -0.452849 -0.135108 0.593405 0.569188 -0.530676 -0.915095 0.492605 0.519472 -0.504842 -0.762564 -0.868222 0.356471 0.644647 -0.606113 0.818659 0.095328 0.316189 -0.465629 -0.708223 -0.708653 -0.590111 0.863720 -0.781927 -0.269963 -0.442067 -0.100069 0.090234 -0.266829 -0.246948 0.053628 -0.097795 0.614226 0.696475 -0.709359 -0.371359 0.524553 -0.537427 0.764196 0.953466 -0.782928 0.263276 0.332516 -0.090264 -0.997134 -0.538925 -0.407866 -0.833640 -0.575134 0.185981 -0.021115 -0.528092 0.136085 0.407190 -0.953089 0.968513 0.762344 -0.358354 0.056403 -0.713681 -0.714700 0.773622 0.751191 -0.653123 -0.322721 0.601815 0.447160 0.121510 -0.275579 0.058380 -0.395109 -0.631092 0.660177 0.046436
-0.017786 -0.522186 -0.207733 -0.184889 0.611495 -0.687483 -0.055544 0.144822 0.668306 -0.339759 -0.374540 0.748824 0.590931 0.949506 0.668964 0.804309 -0.282720 -0.858083 -0.619172 0.517309 0.570132 0.827499 -0.056605 0.811724 0.924716 -0.921382 -0.211908 -0.759144 0.217600 -0.547074 -0.179707 -0.657029 -0.960033 0.084046 -0.794776 0.809585 -0.687115 0.319827 0.406307 0.812786 0.610944 0.034756 -0.516877 0.733372 -0.400157 -0.187419 -0.404669 -0.373013 -0.196108 -0.187585 0.708314 -0.366142 0.609943 0.649119 0.266171 0.903651 0.700531 0.235931 -0.525942 0.752360 -0.112004 0.533122 0.285606 0.670646 -0.108160 0.535087 0.852340 -0.751006 -0.977886 -0.310348 -0.750609 0.079991 0.911308 0.509512 -0.892591 -0.547144 0.362477 -0.632680 0.652853 0.547873 0.811269 -0.803606 0.464790 -0.121693 -0.621727 0.558507 -0.050938 0.373910 0.935425 0.864286 -0.860217 -0.062950 -0.619685 0.292616 -0.216441 0.355062 0.473027 0.991951 0.940257 0.751223 -0.016499 0.466237 -1.012079 0.291152 -0.508298 -0.292338 0.888943 -0.941850 -0.142402 -0.842573 -0.090102 1.004127 -0.402822 0.678053 0.381503 -0.656830 -0.217546 -0.282527 0.909311 0.594696 -0.230090 0.037196 -0.793260 0.926593 0.343534 0.625394 -0.111652 0.504259
0.406278 0.367935 -0.083366 0.557832 -0.796702 0.860738 -0.163167 0.419410 -0.224696 -0.663292 0.689522 0.662293 0.957545 0.040907 0.363652 0.579874 0.626618 -0.414167 0.047544 0.803696 0.256832 0.770877 0.681909 0.388778 -0.625461 0.129961 -0.061468 0.126600 -0.783060 -0.115260 -0.903486 -0.082310 -0.779737 0.160075 -0.069099 0.526855 -0.816090 0.778521 0.289534 -0.923929 -0.064461 -0.367295 -0.503164 -0.250135 0.460485 0.267865 -1.042185 0.396810 0.418511 -0.065731 -0.017256 -0.731554 -0.422160 -0.283356 0.257933 -0.243838 -0.382744 -0.939046 0.409921 0.330921 0.494487 0.644903 0.685522 -0.782884 0.406114 0.311758 -0.060837 -0.305226 0.562064 0.656302 -0.589748 0.683976 0.826510 0.141905 0.789587 -0.391780 -0.491050 0.381591 0.127836 -0.553609 -0.685465 0.225562 -0.874005 0.767345 0.102931 0.586097 0.754197 0.131110 -0.137573 -0.827769 0.884218 -0.480084 0.279679 0.165819 0.930818 0.455054 -0.969500 0.072613 -0.043107 -0.042848 0.972249 0.870954 0.032004 -0.218530 -0.034541 0.660503 -1.064167 -0.669205 -0.549929 -0.370991 -0.449594 -0.588336 -0.606856 0.542626 0.710657 0.560951 0.442173 0.716855 -0.355787 -0.825620 -0.785850 0.588834 0.652825 0.949951 -0.700444 0.851339 0.957917 0.687901
-0.146358 -0.807506 -0.173288 -0.286403 -0.868628 0.272452 0.835911 -0.994705 -0.694241 0.682753 0.805398 0.192881 -0.335361 -0.991024 0.114253 -0.610986 0.129935 -0.675157 -0.012604 0.977780 0.448554 0.329027 0.875052 0.653885 -0.297284 0.060338 0.733061 0.359859 -0.720789 -0.961090 -0.481159 -0.602397 0.293313 -0.266161 0.920651 -0.317239 0.986392 0.713224 0.452814 -0.344350 -0.454429 0.348121 -0.836241 -0.872267 -0.809811 -0.861157 -0.775223 0.712887 -0.349080 -0.596998 -0.807026 -0.341657 0.822769 -0.777117 -0.247802 -0.795830 -0.005296 0.909640 0.715314 0.152859 0.241081 0.537115 -0.649259 -0.446798 0.378249 0.341119 -0.942953 0.319858 -0.135286 -0.311955 -0.831701 0.002950 -0.754910 -0.197376 -0.288422 -0.555400 -0.719402 -0.655745 -0.734776 -0.994682 0.616879 0.170230 0.817483 -0.465631 0.596313 -0.893961 0.759830 0.924743 -0.768278 0.301719 -0.822834 0.498642 -0.742749 0.344672 0.774503 0.536426 0.102130 -0.383414 0.474610 0.176485 0.340572 -0.697581 0.424424 -0.591094 -0.720196 0.591992 0.155943 0.268313 -0.903711 -0.918870 0.056996 -0.832029 0.307679 0.991261 0.034324 -0.204653 0.548592 -0.021312 0.248953 0.213875 -0.147499 0.810643 -0.091499 -0.324160 0.842021 0.780850 0.428147 0.922993
-0.177404 -0.701239 -0.246349 0.010738 -0.562321 -0.375101 -0.268314 -0.848205 -0.718766 -0.603383 0.535245 0.596870 -0.387349 0.397852 0.139165 -0.709326 -0.464459 -0.932578 -0.724125 -0.910817 1.077003 -0.506586 -0.403085 0.531543 -0.651118 0.901143 -0.149768 0.884928 -0.144713 -0.410292 0.873146 0.550855 0.112283 0.849356 0.206157 -0.186072 0.254291 0.485380 0.999914 0.130972 0.568494 0.908767 -1.035789 -0.351266 0.483510 -0.081390 0.989275 0.379272 0.874008 0.529944 -0.308532 -0.238550 -0.125485 0.620274 0.880874 -0.694816 0.562870 0.270324 -0.091012 0.588837 -0.071277 -0.740902 0.492996 -0.137914 0.196315 0.400151 0.213971 -0.362888 -0.736347 -0.007626 -0.367904 -1.014512 0.909844 0.434718 0.182446 -0.234114 -0.295641 0.009622 -0.537986 -0.364544 -0.327602 -0.799968 -0.796462 0.114830 -0.221214 -0.513347 -0.838175 0.562396 0.019866 0.066869 0.303927 0.322425 -0.382655 -0.460058 -1.103005 0.800038 -0.799827 -0.042732 0.833456 0.385274 -0.698236 -0.930123 -0.658309 -0.834118 0.017282 0.916699 0.887037 0.025123 0.713585 0.227156 0.633029 -0.385903 0.216474 0.903191 -0.397316 0.795929 -0.003813 0.432823 -0.134971 0.789410 0.424397 -0.676131 -0.617679 -0.623885 -0.832771 0.697800 -0.495483 0.915412
1.036577 0.616303 0.446404 0.685415 0.279484 -0.092529 0.218405 0.462278 0.715766 -0.760757 0.551305 -0.982250 -0.867283 0.324964 0.984868 0.468135 -0.370402 -1.049845 -0.098524 0.393587 0.922317 -1.033360 -0.794493 0.652820 0.106260 0.404826 -0.393306 0.084409 -0.503432 -0.487234 -0.323243 0.166185 -0.180785 0.821810 -0.293402 -0.986791 0.575231 -0.111906 -0.299383 0.289290 0.144014 0.187163 -0.765692 0.777427 -0.241293 -0.762957 1.049083 -0.513063 -0.102717 1.059720 -0.606503 -0.724435 0.177619 0.086879 -0.422399 -0.405245 0.489155 -0.175892 -0.063801 -0.782358 -0.756639 -0.912143 0.308484 -0.618543 -0.427607 0.206196 0.646934 -0.290540 0.656391 -0.921167 0.371445 -0.512958 0.760377 -0.191153 -0.426480 -0.138015 -0.134763 0.154458 0.691381 0.685565 -0.875233 -0.542452 0.447824 1.065943 -0.932010 0.069635 0.701752 0.678609 0.289686 -0.703447 0.431888 -0.828739 0.715260 -0.417962 0.766566 -0.877739 -0.503184 -0.378932 0.663451 -0.468982 -0.289379 -0.907315 -0.669438 0.107930 0.318856 -0.383704 0.164146 -0.126835 -0.482853 -1.043264 0.194796 0.925798 0.332648 -0.257790 0.432895 -0.795422 -0.610319 0.157154 0.591475 0.518214 -0.878204 0.720607 0.832922 0.252687 0.798257 -0.168501 -0.878015 -0.240835
0.583404 0.482224 -0.397529 -0.607550 0.087495 -0.825816 -0.704000 0.927102 -1.055415 0.382758 0.556701 0.788449 -0.953319 -0.412613 -0.349207 -0.001633 0.601264 -0.328427 0.395140 0.648371 0.920311 -0.051740 -0.204858 0.738146 -0.163915 0.907979 0.270920 -0.578931 -0.814739 0.026447 0.425965 0.512302 -0.009614 0.286005 0.875832 -0.099643 -0.856148 -0.704409 0.911913 0.821993 -0.283673 -0.307926 -0.900349 -0.092349 -0.799161 0.776776 -0.113895 0.683364 -0.819705 -0.063370 -0.188397 -1.040123 0.460865 -0.297560 0.133083 0.924886 0.874834 -0.684913 0.174715 0.724505 0.021057 -0.163198 0.706319 0.466020 1.067563 -0.736987 0.030057 -0.716179 -1.046649 -0.144265 -0.236943 -0.939190 -0.670921 0.887373 -0.195251 0.294677 0.210351 -0.426188 0.839661 0.368106 -0.174827 -0.405150 0.826553 -0.730175 0.139992 -0.761258 -0.132453 -0.482959 0.187641 0.830502 -0.564673 -0.461511 0.604024 -0.704364 -0.731581 0.508525 0.446378 0.127524 -0.886839 -0.941298 0.034420 0.441867 -0.611610 -0.920046 -0.061458 -0.440499 -0.047716 0.148356 -0.642566 0.196100 0.051351 -0.669237 -0.563277 -0.847311 -0.171606 0.887469 0.863482 0.222014 0.777300 0.628455 -0.037843 0.872628 -0.400343 1.027309 0.722358 -0.285059 0.126577 0.971098
-0.550673 0.059627 0.780401 0.305950 -0.347599 -0.939736 0.192405 -0.397014 0.857620 0.500442 0.213282 -0.863023 -0.810207 0.785714 -0.140651 -0.798631 0.176581 0.413869 -0.765966 -0.603772 -0.179871 0.169020 0.628168 0.522326 -0.966119 0.182692 -0.755699 0.751170 0.955114 -0.736894 0.941141 0.960265 0.955839 0.996010 -0.077638 0.854536 -0.344615 -0.337950 -0.847229 0.716452 -0.341077 -0.101091 -0.692684 0.740338 -0.668144 0.479562 -0.488487 -0.206297 0.861793 0.366267 0.903142 0.474053 -0.276390 -0.423662 0.704292 0.213629 -0.077354 -0.606418 0.888956 0.654511 0.890515 0.531874 0.507321 -0.399930 -0.102707 -0.109822 -0.634929 -0.606017 0.186928 0.666062 -0.032370 0.180169 0.253206 0.240240 0.009736 0.038443 -0.275113 0.710096 0.218324 -0.838159 0.324011 -0.482315 0.414838 -0.805445 0.913713 0.287430 -0.335838 0.717423 0.396850 -0.002835 0.270550 -0.121928 0.615705 -0.552931 -0.464182 -0.399155 -0.742463 0.177728 0.402162 0.731633 0.163781 0.569174 -0.554599 -0.223954 0.269240 0.633717 0.603487 0.847367 -0.104827 -0.084466 -0.554271 0.185642 0.626654 0.700878 -0.180476 -0.652571 0.028998 0.187395 0.426639 -0.199912 0.301740 0.955354 0.027735 0.139068 -0.661378 -0.525858 0.447911 -0.778462
0.441160 0.515557 0.726783 0.651132 -0.518366 0.290982 0.891085 -0.208499 -0.148072 0.716187 0.841182 0.381335 -0.124478 0.017765 0.116067 0.409914 -0.283189 0.973084 -0.780589 0.353052 -0.991529 0.489130 0.176484 0.461587 -1.016410 -0.766649 0.667408 -0.158277 -0.939852 0.607435 0.029826 -0.769176 0.410920 -0.127106 -0.424543 0.951752 0.050606 -0.281701 0.489818 0.872278 0.937831 -0.888867 -0.598575 -0.972134 0.651477 0.853107 0.060402 -0.167349 -0.266303 -0.760775 0.414959 0.585494 -0.296022 -0.164246 0.111778 -0.604016 -0.768624 -0.488412 -0.419750 -1.037698 -0.921547 -0.029090 0.582384 -0.770149 0.234337 0.340951 -0.117243 -0.956287 -0.575207 -0.755460 -0.702030 0.054927 -0.623348 0.515069 -0.554866 -0.230868 0.381485 0.495269 -0.634893 -0.142210 0.980267 -0.237522 -0.843798 -0.011101 0.386072 -0.362365 0.683686 -0.205354 -0.847622 0.624260 -0.434153 -0.385239 -1.029166 0.028931 0.900837 -0.081461 -0.406696 0.675587 -0.373961 0.693597 -0.010747 -0.554796 0.147738 -0.170915 0.741819 -0.038523 0.133240 0.320214 0.173112 0.374607 0.049122 -0.865372 0.478324 0.771629 -0.549255 -0.687808 -0.937081 0.101022 -0.761408 -0.974315 0.275850 0.039257 -0.054107 -0.475830 -0.151427 -0.462635 0.868135 0.857649
0.821771 0.394736 0.064827 0.366944 0.680581 0.918759 0.161967 -0.425705 0.437929 0.298490 0.696826 0.556117 -0.519722 -0.371935 -0.403679 -0.460833 0.946739 -0.370485 0.755690 -0.033653 0.303620 -0.101888 0.716766 0.312374 0.671560 -0.351734 0.291509 -0.237061 0.063866 0.632217 0.912534 0.380033 -0.708368 0.558887 -0.913584 -0.129331 0.074557 -0.492497 -0.949598 0.349090 -0.453761 0.929378 0.692151 0.858688 -0.978177 0.758033 -0.753683 0.490452 0.074449 -0.228294 0.344746 0.344019 0.206473 0.128276 -0.153264 0.876374 -0.892345 -0.378968 -0.312310 -0.837284 -0.324418 -0.337850 0.755555 0.030487 0.425341 0.927836 -0.697510 -0.118384 0.737492 -0.087284 -0.753623 0.502495 0.106383 0.872712 0.478348 -0.677129 0.244521 -0.743812 0.483466 -0.329476 -0.753946 0.129939 0.206759 0.526841 -0.172652 1.009064 -0.523895 0.566947 -0.794485 -0.696032 -0.537974 0.840252 0.273713 0.460028 0.333075 -0.659621 0.053909 0.445291 -0.309101 0.105912 0.177156 0.977243 0.731797 0.645672 0.653498 -0.364396 0.485544 -0.774331 0.947496 0.900071 0.335522 -0.961375 1.036202 -0.157938 -0.690196 -0.301216 -0.684111 0.932168 0.610222 0.881378 0.758692 -0.013831 0.647503 0.335246 0.776186 -0.838214 0.146457 -0.638868
0.258861 -0.015584 -0.943670 -0.221795 -0.884196 -0.906548 -0.641662 0.821008 -0.904716 0.624545 0.419892 0.071460 -0.915005 -0.502304 -0.737399 0.988537 0.497817 0.825969 0.943016 0.144241 0.812325 0.505173 0.863308 0.872411 0.076917 -0.756123 -0.807206 0.260424 0.364333 -0.733531 -0.322229 -0.089846 -0.864273 0.789999 0.219632 -0.503537 0.476945 0.880239 -0.155080 0.151592 0.021634 0.714754 0.817696 0.941727 -0.795295 -0.705713 -0.317796 -0.094568 0.083544 0.424598 -0.712332 0.333913 0.066317 0.037831 -0.991008 -0.637060 -0.642549 -0.126224 -0.655982 -0.373496 0.978909 0.313335 -0.593587 -0.264488 0.511327 0.334268 -0.571660 -0.433508 -0.143604 -0.517631 -0.976632 0.114630 -0.123005 -0.037200 -0.152930 -0.887589 0.887399 0.497416 0.362605 0.947737 -0.232247 -0.391497 0.432723 0.684180 -0.884295 -0.445413 -0.364423 0.318656 -0.583136 0.890646 0.507192 0.454608 -0.200273 -0.290064 0.279964 -0.931788 -0.244710 -0.995678 -0.250635 0.512564 -0.301256 -0.398736 -0.320226 0.542427 -0.400685 0.404447 -0.943549 -0.064859 -0.253802 -0.944073 0.988616 0.430001 -0.277653 0.817615 0.081820 0.577074 0.880393 0.951928 -0.057446 -0.539765 0.350084 0.200229 -0.925124 0.357760 -0.800321 0.113725 0.419774 0.683274
-0.051832 0.035198 -0.163801 0.286858 -0.093008 -0.576519 -0.127977 -0.394468 0.370255 0.935537 -0.514224 -0.304347 0.119700 -0.993391 0.902830 -0.513867 0.546293 -0.722071 0.184729 -0.050369 -0.161531 0.844894 -0.246324 -0.264048 0.647206 -0.027025 -0.522748 0.556717 -0.585279 0.951898 -0.556518 -0.519967 0.313733 -0.952029 -0.903037 0.566495 0.628377 0.212298 0.906805 0.188872 -0.211248 -0.144101 -0.184775 0.054541 -0.164395 0.936344 0.074328 0.253515 -0.763238 0.073899 -0.567614 0.358074 -1.002138 -0.871384 -0.086086 -0.769850 -0.001506 -0.864324 -0.778238 0.679269 0.054759 -0.291023 -0.560305 -0.459265 0.301833 -0.317521 -0.352142 -0.523797 -0.122424 -0.498080 0.911137 0.732086 0.518212 0.285551 0.076875 -0.635613 -0.675340 -0.820914 0.018081 0.631565 -0.231068 -0.750717 -0.698534 0.901292 0.779700 0.585804 -0.575430 0.982860 0.002247 -0.627144 0.724523 -0.222131 0.328619 -0.347372 0.265057 0.301097 0.289683 -0.201495 0.447983 -0.468618 -0.664124 0.171026 0.232307 -0.014467 0.366682 -0.021755 -0.650815 -0.297246 0.460691 -0.573380 -0.410891 -0.975526 -0.544465 -0.912897 0.790707 0.349055 0.038603 -0.043158 0.968306 -0.349167 0.062322 -0.060743 -0.749281 0.473608 -0.620236 0.480356 0.574756 0.549755
-0.303985 0.902814 0.415999 -0.864966 -0.375512 0.583682 -0.928917 -0.347991 -0.226831 0.401545 -0.002847 -0.047144 0.523966 0.024381 0.725322 0.856236 0.257034 0.825036 0.074377 0.963584 0.464495 0.811630 -0.562210 0.202472 0.539943 -0.114355 -0.290839 -0.361455 -0.834932 0.015605 0.779243 0.476417 -0.104774 0.871616 0.895978 0.859791 1.017301 -0.571890 0.557495 0.369271 0.879140 -0.955749 0.408171 -0.889019 0.650298 0.567070 -0.650513 0.592869 -0.405986 -0.791724 0.365106 -0.849132 0.786302 0.511834 0.763736 -0.862119 -0.644528 0.538425 -0.345822 -0.825062 0.340956 0.285467 -0.849909 -0.238780 0.827578 0.820063 -0.252600 -0.552926 -0.498970 -0.153929 0.117340 0.423822 0.842706 -0.366508 0.917524 -0.463438 -0.816484 -0.784318 0.447797 0.541663 0.598686 0.840871 0.943793 0.288001 0.774116 -0.509382 0.736120 0.035297 0.806549 0.586171 0.675443 -0.512068 0.571662 0.922575 -0.836249 0.673827 0.279722 0.104813 -0.124169 0.372947 0.222753 0.885769 -0.539999 0.634222 0.465001 0.689584 -0.342959 -0.074128 -0.007118 -0.227953 0.239030 -0.520122 0.613293 0.181598 -0.165825 0.523398 -0.624073 -0.988944 0.680535 -0.088533 -0.464826 0.823797 -0.610077 -0.409794 0.295252 0.010527 -0.672548 0.695394
0.006890 -0.286209 -0.300352 0.179146 0.173795 -0.715138 -0.377054 -0.741610 -0.098108 0.849561 -0.273479 0.712994 -0.386049 0.500951 -0.535284 0.129916 0.943090 0.443706 -0.575864 0.237364 -1.002425 -1.006764 -1.000514 -0.715760 0.052180 0.070242 0.078831 -0.480537 -0.883273 -0.413733 -0.279708 0.218464 0.946902 0.977794 0.088774 -0.831102 0.748411 0.732720 -0.191699 -0.667450 0.738721 -0.259605 -0.569753 0.957324 -0.988830 -0.093545 0.734710 0.793998 0.606692 0.084803 -0.067987 -0.962503 0.991459 -0.871414 0.444579 0.505240 0.981632 -0.247255 -0.289660 0.414466 0.491259 -0.195258 -0.900793 0.841336 0.941617 0.343875 0.305690 -0.545994 0.893333 -0.836009 -0.975769 -0.517602 -0.356963 0.648817 -0.245528 -0.960483 0.004191 -0.531542 0.923471 -0.259604 0.338045 -0.720717 0.251113 -0.299679 -0.105627 0.392991 -0.924090 -0.742871 -0.497845 -0.427667 0.964451 0.267492 -0.396579 -0.135406 -0.517010 0.494885 0.462161 -0.455845 -0.755586 0.093739 0.908321 -0.102726 -0.970134 0.124212 -0.129408 -0.877944 0.326187 0.700292 0.278414 -0.362285 -0.863862 -0.074507 -0.564323 -0.140351 0.204627 -0.265804 -0.471265 -0.962186 0.726543 0.425502 -0.793475 -0.158570 -0.128411 -0.756806 0.399790 0.874886 0.100648 0.135425
-0.240265 0.965396 0.003722 -0.571059 -0.841486 0.572235 -0.267685 -0.853635 0.275593 0.104348 -0.995894 0.246079 0.579556 0.018246 -0.498644 -0.088534 0.451990 0.106947 -0.150341 -0.055682 -0.406792 -0.802747 0.414107 -0.402927 -0.428999 -0.401318 0.477263 0.705138 0.273575 -0.071363 -0.201823 -0.074407 0.650184 0.718974 0.155884 0.258507 0.019466 0.113203 0.547497 0.535624 0.321839 0.280889 -0.715322 0.142588 -0.499988 0.976740 0.741831 0.935369 -1.065290 0.147140 0.362384 0.846153 -0.060287 0.543460 -0.843972 -0.771351 -0.216219 0.770569 0.522276 0.133224 0.316798 0.953287 -0.564359 0.718642 -0.040354 0.246536 0.994745 -0.372896 1.012899 0.184157 -0.205592 -0.220060 -0.877700 0.259927 -0.136400 -0.905425 -0.603156 -0.662941 0.617424 -0.021661 -0.565531 0.955105 0.224893 0.497240 -0.648471 -0.940816 -0.942373 -0.841689 0.809027 0.709531 0.796201 0.994497 -0.320116 -0.375374 -0.825152 0.816137 -0.902323 -0.494497 0.937786 -0.395431 0.784489 0.044882 0.287195 -0.634058 0.055527 -0.734658 0.138168 0.109233 0.913687 0.212179 -0.810228 -0.098832 0.644078 0.627620 0.358846 0.747720 -0.567970 0.555392 0.491580 0.411215 0.355641 0.065749 -0.141207 -0.389125 -0.379505 -0.490811 -0.363731 -0.702617
-0.135625 0.504874 0.922227 1.040216 -0.786916 -0.608607 1.115256 0.396205 -0.458786 0.744491 0.357624 -0.101834 -0.562083 0.551413 0.434098 0.637230 -0.379526 -0.730383 0.800959 -0.059448 -0.581440 0.834946 0.621737 -0.916949 0.058996 -0.643316 -0.307934 -0.935031 0.784045 0.457848 -0.599855 0.124428 -0.859519 -1.030270 -0.159602 -0.349283 0.714969 0.584384 -0.159385 -0.649326 -0.646898 -0.540539 -0.365340 0.477319 0.084658 0.076115 -0.839493 -0.269820 -0.343045 0.944555 0.075480 0.591304 -0.507964 0.860644 -0.466069 0.944578 -0.776424 -0.591700 0.148399 -0.232147 0.326940 0.262198 -0.700146 0.348891 -0.610059 -0.457752 0.506872 0.602117 1.092900 -0.729944 -0.366297 -0.083049 -0.229324 0.427848 0.214841 -0.268798 0.029922 1.039837 0.880625 0.436883 -0.047950 -0.324778 0.710591 -0.564899 0.417201 0.879184 0.260375 -0.088742 -0.496820 -0.851272 -0.516648 -0.122551 0.184229 0.428765 0.608185 -0.354325 0.797108 0.633683 -0.380947 0.499539 -0.815958 0.682818 -0.641114 -0.069376 -0.430960 -0.182505 -0.470386 -0.585844 -0.249678 0.456674 -0.964276 0.436877 -0.647819 0.667692 -0.143479 0.569970 -0.148291 0.521332 0.037775 0.542769 0.141689 0.598974 -0.266767 -0.078016 0.030415 0.489293 0.662872 0.325490
-0.039272 0.340196 0.419589 0.362700 0.260227 0.928975 0.674577 0.106174 0.039376 -0.892550 0.031777 0.366924 0.953160 -0.815140 0.377139 0.736724 0.627095 0.076953 -0.309865 -0.588733 -0.402401 -0.581492 0.185685 0.587196 0.062653 0.163721 0.619036 -0.403021 0.147308 -0.171468 -0.737929 -0.882821 -0.141845 -0.552379 0.374026 -0.882787 0.787507 0.309187 -0.377472 1.033401 0.698163 -0.436143 -0.180677 -0.803532 -0.793108 0.482884 0.240425 0.570828 -0.313065 -0.784652 0.371046 0.181821 0.287586 -0.495282 0.205764 -0.253378 -0.586136 0.505273 0.197000 -0.001430 -0.819661 0.220302 -0.012301 -0.260308 0.821836 0.808212 0.962411 0.894092 0.049670 0.548601 0.804740 -0.449380 -0.831696 -1.087963 0.910359 0.661115 0.354814 -0.028622 -1.033314 -0.593424 0.843680 -0.242606 0.568398 -0.650937 0.887587 0.228436 0.224330 -0.954470 0.711373 0.334613 -0.374883 -0.903580 -0.529668 -0.344378 0.577658 -0.409365 -0.838251 -0.905886 0.241536 -0.626059 -0.015035 -0.539960 0.199150 -0.032919 -0.471816 -0.086259 -0.516442 0.553701 -0.441249 -0.256817 -0.621466 -0.280920 0.585569 -0.251179 0.825834 0.824153 0.344358 -0.677114 -0.865058 0.939274 -0.700187 -0.369587 0.827128 -0.674602 0.229800 0.256160 -0.454604 1.002730
0.777454 0.082941 -0.205272 0.768101 -0.451457 0.651395 0.532926 0.783330 -0.741376 0.854375 -0.630594 0.502027 0.204671 0.779227 -0.818461 -0.959086 0.074149 -0.591575 -0.480905 0.989190 0.081590 -0.182309 -0.795683 -0.879778 0.434981 -0.040957 0.233941 -0.643462 0.778499 0.869305 -0.798780 0.551401 0.923234 0.412209 -0.053457 0.220329 -0.894149 0.620229 -0.457366 0.816795 -0.047335 -0.137969 0.881214 -0.829272 0.729258 0.227342 -0.345273 -0.823806 0.042978 0.367737 -0.909646 0.790019 -0.682570 -0.279660 -0.674439 0.193579 0.656335 0.853411 -0.226344 0.673037 -0.714074 -0.706702 -0.333787 -0.429677 0.120683 0.675109 0.092644 0.345178 0.934138 -0.810895 0.630788 -0.869126 -0.832049 -0.949932 0.505107 0.379907 0.169525 0.490786 -0.762996 0.619991 -0.751322 -0.566491 -0.316998 -0.656105 0.198019 0.763314 -0.332901 -0.567822 0.789866 0.843674 0.602230 -0.551030 -1.008413 -0.078733 0.476088 0.717302 -0.644411 0.035836 0.376416 0.715749 -0.338447 -0.645418 -0.909627 -0.055956 0.264283 -0.664157 0.572715 0.602509 0.282966 0.764922 0.443390 -0.875188 -0.677902 0.142405 -0.297336 0.075344 0.501746 -0.620243 0.681944 0.427383 1.026720 0.049103 0.312614 -0.226038 0.363961 0.506746 0.060982 0.895328
0.224296 -0.199113 -0.687142 0.476755 -0.067434 -0.585949 0.306907 0.301941 0.706746 -0.771790 0.305281 0.332142 -0.548704 0.836192 -0.517030 -0.612270 -0.756784 -0.515125 -0.952881 -0.831408 0.112254 0.723977 -0.023436 0.958285 -0.738406 0.083612 -0.877960 0.011623 0.971730 -0.287961 0.015845 -0.364192 0.523799 0.163166 -0.085366 0.036139 -0.244977 -0.636826 -0.038024 -0.942933 0.533854 -0.648560 -0.671133 -0.252440 -0.275940 0.006298 -0.509187 -0.492400 0.349944 -0.236789 -0.906755 0.544157 -0.572025 -0.037082 0.480941 -0.251084 0.249184 0.435247 0.921276 0.135175 0.309810 -0.493708 0.059798 -0.604059 0.231874 -0.785782 -0.582216 -0.792059 -0.414335 0.428284 0.213971 -0.332780 0.495891 -0.088927 -0.460481 0.613288 0.854939 -0.793840 -0.428415 -0.600251 -0.090845 -0.657811 0.380145 -0.963235 -0.314614 -0.983334 0.652199 -0.559901 -0.839843 -0.050457 -0.645223 -0.909153 0.920364 -0.386284 -0.710029 0.008435 -0.943673 0.770733 0.676440 -0.647896 -0.881922 0.989054 0.908961 0.557050 0.414470 -0.242036 -0.820098 -0.832128 0.136743 0.448388 0.610909 0.316801 0.266442 0.560864 -0.925210 -0.688188 -0.574240 -0.940207 -0.400033 0.335382 0.969494 0.475836 0.298721 -0.587638 -0.605225 -0.821018 -0.470770 -0.272294
-0.530864 0.232147 0.719076 0.217604 0.185079 0.815617 1.125830 0.160060 0.100061 0.258796 0.077381 0.762866 -1.042220 0.729448 0.528547 0.949036 0.420445 0.673443 0.484197 -0.266710 0.654759 0.214673 0.138699 0.557572 0.835751 0.134727 -1.071710 -0.217038 -1.066738 -0.488726 -0.139177 -0.864823 -0.759718 0.437450 0.722973 0.651254 -0.182792 -0.542440 -0.553039 -0.387657 -0.138451 0.552786 -0.411801 -0.636346 1.029828 0.969605 -0.648751 -0.916221 0.388677 -0.382747 0.253915 0.142017 0.123211 1.083938 0.756317 -0.128622 -0.405743 -0.000734 -0.847629 0.351943 0.742156 -0.111085 0.609619 -0.347728 -0.352845 -0.135929 0.866173 -1.011351 0.677973 0.789097 -0.626913 -0.194344 -0.573092 -0.622797 -0.438345 -0.833752 -1.062775 -0.420219 1.006226 -0.933607 0.784512 0.150895 1.108071 0.602918 -0.616095 -0.556720 -0.794946 0.842547 -0.351946 -0.397625 -0.841720 -1.039598 -0.688504 -1.020234 -1.021277 0.665501 0.617648 0.901471 0.089013 0.171352 -0.170309 -0.915154 -0.453602 0.219959 -0.054418 0.248416 0.274578 -0.799537 -0.695221 0.300893 -1.022843 0.252617 -0.731603 0.256379 0.626477 -0.849428 0.746831 0.303892 -0.739683 0.841027 0.221511 -0.333020 0.786559 0.757666 -0.853616 0.173270 0.939987 0.270259
0.336910 -0.724774 -0.943329 0.774673 0.998191 -0.856453 0.471474 -0.588674 -0.343948 0.037293 1.019544 -0.778626 0.394882 0.096164 -0.678196 0.547644 -0.636995 -0.600591 1.093488 -0.725278 -0.454013 0.432811 -0.022232 -0.255205 -0.017390 0.731654 -0.469468 0.811660 1.054369 -0.409636 -1.150657 -0.989877 -0.359795 0.718486 0.926292 0.030982 0.757914 -0.077037 -0.219676 -0.685679 0.365788 -0.642678 1.051081 -0.841267 0.502378 0.294950 0.795552 -0.745532 0.925181 -0.016100 -0.772039 -0.125799 0.158671 -0.325457 0.764140 -0.698498 0.395115 -0.223480 0.965774 -1.068287 -0.610814 0.589521 -0.524805 -1.142014 0.764466 -0.289326 0.609922 -0.076115 0.881457 0.312228 -0.239916 0.444270 0.308280 0.816040 -0.411104 0.284331 0.168533 0.348921 0.671054 0.120672 0.210677 0.886813 0.265307 -0.470085 -0.825396 0.114575 0.707271 0.874996 0.849214 -0.478268 -0.534552 -0.678857 -0.688644 -0.606310 0.779036 0.382135 -0.248274 -0.298590 -0.724443 -0.678691 -0.015948 -0.202657 -0.523372 -0.843629 -0.111096 0.740505 0.184199 0.467343 -0.421395 0.671600 0.637325 -0.146665 0.420679 -0.294652 -0.313283 0.482812 1.090188 0.390694 -1.044261 -0.485402 0.864269 0.610977 -1.087768 -0.690832 -0.970312 0.725603 -0.166316 0.997934
-0.455993 0.790751 0.358456 -0.565664 0.663497 0.670470 0.422650 -0.739033 0.780064 -0.522631 -0.598894 0.857489 0.468215 -0.919972 -0.619665 0.984568 -0.908451 -0.973569 0.677626 0.480304 0.560296 0.353513 -0.674704 -0.999510 0.390886 -0.959964 -0.590825 0.852063 0.737707 0.003885 -0.996751 -0.589929 0.852649 -0.253446 0.667713 0.167543 -0.555565 0.957800 0.613303 0.546861 0.996160 -0.285478 0.755241 -0.767310 -0.238085 0.780796 -0.408460 -0.966559 0.827328 -0.439122 0.920091 -0.721666 -0.676905 0.537422 -0.025671 -0.976931 -0.910925 -0.129187 -0.461116 0.831271 -0.392068 -0.772365 -0.737081 -0.550839 -0.764374 0.120956 -0.540837 -0.978988 0.724989 0.212794 -0.807538 -0.020840 -0.088769 -0.473757 -0.723438 -0.683142 0.242454 0.382210 -0.030887 0.921394 -0.360214 0.579202 0.653111 -0.816764 -0.390263 0.127533 -0.675994 -0.469625 -0.259579 0.080023 0.023945 0.606139 -0.566268 0.618619 0.072222 -0.066954 -0.568131 -0.365050 -0.584553 0.440563 0.807724 -0.882617 0.113389 0.082822 0.995529 -0.526690 -0.671405 -0.268829 0.497152 -0.489191 0.346216 0.456181 -0.034410 -0.109863 -0.382178 -0.369236 -0.104813 -0.350199 -0.996932 0.890394 0.101180 0.375197 0.033782 -0.640718 0.776373 0.974955 -0.899694 -0.034946
0.305022 0.532884 0.144790 -0.259429 0.721004 -0.454207 -0.697122 -0.092611 0.858320 -0.300756 0.273942 -0.813376 0.220582 0.239844 0.233440 -0.896345 0.673414 0.751278 0.248243 0.327266 -0.254190 -0.018851 0.850308 -0.631830 0.192881 0.259073 0.989384 0.933711 0.888572 -0.883186 -0.804252 0.724425 -0.512887 -0.196879 0.026549 0.044981 -0.480888 -0.444424 -0.997350 0.055259 -0.212480 -0.129995 -0.839376 0.998702 -0.390798 0.658272 0.921086 0.761388 0.885859 0.718466 0.339526 -0.852568 -0.570413 -0.158371 0.396594 -0.498022 0.989018 -0.152737 -0.928162 -0.997922 0.886240 0.555102 -0.058306 0.993615 0.484459 -0.001054 0.338845 0.348226 0.493226 0.610932 0.142236 0.284703 -0.995883 -0.326958 0.625630 -0.908265 -0.316193 0.363769 0.128617 -0.139393 -0.112564 -0.024495 0.146890 0.509212 0.609221 0.728861 -0.218032 -0.175988 -0.682826 -0.061097 0.041463 -0.537366 -0.777709 -0.583090 -0.259442 -0.095233 0.416011 0.255604 -0.943782 0.408946 0.551678 0.762603 -0.509824 0.350642 -0.905678 0.164105 0.866795 -0.228622 -0.827999 0.262539 -0.750146 0.923887 0.002864 -0.640626 0.715086 -0.285527 -0.780757 -0.093406 -0.412191 -0.839976 -0.927354 -0.220852 0.829573 0.956239 0.912807 -0.036012 0.125125 -0.344351
0.317080 0.813646 0.639223 -0.969213 0.840201 -0.370719 -0.915913 -0.258206 0.175981 0.462397 0.808643 -0.704690 -0.156272 0.022017 0.451728 -0.469561 -0.829079 0.288508 0.441064 -0.682210 -0.146431 -0.167077 -0.631200 0.416753 0.897277 -0.530535 -0.257767 -0.519169 -0.206248 -0.568810 0.970131 -0.389195 -0.622785 1.026479 0.460121 -0.871483 -0.403855 -0.641003 -0.349737 1.029544 0.062620 -0.833686 0.776599 0.371539 -0.138004 0.753888 -0.320129 -0.943760 0.141675 -0.804534 0.970376 0.261669 0.863710 -0.035175 -1.025153 0.002665 -0.031687 0.295560 -0.565467 -0.424331 -0.820563 -0.357258 0.493287 -0.501518 -0.952609 -0.676090 0.216294 0.175081 0.683990 0.610733 -0.154504 -0.043903 -0.427666 -0.067557 -0.230715 1.030546 0.702001 0.050777 0.890393 0.671088 0.389402 -0.393333 -0.468133 -0.600711 0.225224 0.887784 0.647263 0.659904 0.115684 0.601286 -0.813691 -0.354862 -0.157566 -0.657971 -0.620819 -0.770465 -0.530807 1.023550 -0.238318 -0.287367 0.834733 0.074685 0.157759 -0.027724 0.979868 0.048816 0.392278 0.766638 -1.002421 -0.599329 -0.958873 0.355327 0.598286 -0.456770 -0.380550 -0.281893 0.060742 -0.059548 0.913402 -0.189498 0.902034 -0.772960 -0.900570 0.993242 0.605536 0.707852 -0.429831 0.396770
0.660299 -0.015983 -0.424435 -0.192015 0.378979 -1.067465 -0.076844 0.171492 0.066681 0.451531 -0.897057 0.381543 0.700499 0.215004 0.694825 -0.412912 -0.279313 0.017904 -0.724503 -0.771325 -0.306663 0.501663 -0.750640 -0.937759 0.257082 0.469336 -0.256238 0.712111 0.719615 0.022695 0.324995 -0.277303 -0.683967 -0.759111 0.839749 0.458755 0.061243 -0.224483 0.484546 -0.221792 0.123318 -0.891690 0.125671 0.711495 0.340002 0.497936 0.401662 -0.604430 0.417884 -0.010620 0.234722 0.460891 0.940488 -0.591389 -0.396466 -0.058124 0.678650 0.771397 0.381255 0.535797 0.843384 -0.556182 -0.882254 0.455044 -0.363898 0.315392 0.793191 0.190527 0.404851 0.662166 -0.013227 0.107887 -0.610802 -0.094798 0.450864 0.723580 0.723800 -0.878706 0.730009 -0.958361 0.004141 -0.835223 -0.719166 0.553474 -0.903161 -0.246461 -0.685362 0.159865 0.262814 -0.554684 -0.004387 0.317422 -0.180266 0.571789 0.995306 -0.332976 0.139723 -0.263569 -0.336189 0.178457 -0.060363 -0.607642 -0.038212 0.664337 -0.843841 -0.293451 0.937415 -0.925062 -0.733150 -0.706628 0.832232 0.096121 0.423898 -0.413475 0.714049 -0.479439 0.437017 0.196220 -0.173142 -0.440087 1.044250 0.282372 0.630129 -0.161262 -0.145198 0.915266 0.859749 0.058067
0.002571 0.819541 0.096567 0.268457 -0.996381 -0.116277 -0.323225 0.538964 0.054442 -0.421044 0.958170 -0.293362 -0.172385 0.750909 1.034819 0.007386 -0.661366 0.957465 -0.691171 1.185839 -0.594625 -0.439705 -0.350734 -0.258507 0.533292 -0.644465 0.452963 0.602624 -0.592178 0.944403 -0.711799 -0.894073 -0.059088 -0.490104 0.723060 -0.251073 0.075404 -0.483409 0.622039 0.006330 -0.435991 0.639214 0.241500 0.224148 0.065684 0.962493 0.141875 0.293819 0.682011 0.363968 -1.005804 0.152727 0.404825 0.213457 -0.731229 -0.672875 0.708576 -0.369569 -0.886329 -0.801381 -0.633022 0.055767 -0.193040 -0.306658 -0.390608 -0.007553 -0.177844 -0.939488 0.284924 -0.746327 -0.622280 -0.747503 -0.306979 -0.188405 0.187429 -0.449356 -0.866581 -0.274492 0.382017 0.167097 -0.056262 0.470526 0.582871 -0.008564 -0.984976 -0.012543 0.221523 -0.261804 0.506739 0.978748 0.304868 -0.110815 0.303959 1.041704 -0.184576 1.136763 -0.229551 -0.314018 0.962789 -0.005448 0.733439 0.050242 1.311280 -0.209926 -0.706825 0.122024 0.490192 0.039678 -0.148480 -0.902049 -0.822327 0.958931 -0.520617 0.665185 0.186759 -0.414309 -0.929324 -0.056179 -0.852296 -0.801786 -0.481751 -0.012092 -0.492101 0.352076 0.802956 0.770979 0.821705 -0.025048
-0.825047 0.916240 0.560287 -0.012749 0.608708 0.790556 -0.932175 -0.009269 0.238677 -0.668630 0.441518 0.677130 -0.352586 -0.099121 0.718895 -0.657005 0.651486 -0.729127 -0.336859 0.616711 -0.136259 0.243992 0.498459 -0.434073 -0.197724 0.589966 0.106797 1.091193 0.060399 -0.056882 0.058492 -0.231757 -0.453594 -0.953933 -0.183774 -0.454173 -0.249457 0.688320 -0.626902 0.625985 -0.369273 0.387074 -0.470575 0.516621 -0.252558 -0.563297 0.958977 0.866804 -0.811553 0.457693 0.857749 -0.117535 -0.692729 -0.686069 0.096404 0.018531 0.071284 -0.402007 0.031417 -0.183485 -0.067943 -0.106244 0.631675 0.174195 -0.144436 0.177529 -0.518895 -0.476478 0.694109 -0.005937 0.634072 -0.847205 0.535430 -0.915005 -0.151366 0.693502 0.629367 0.584772 -0.005928 -0.266827 -0.675792 0.134920 -0.604390 0.292784 0.510590 -0.745574 0.762784 -0.095681 0.132314 0.154231 0.885299 0.028237 0.348536 1.102158 0.027167 0.112244 0.930209 -0.270170 -0.134281 -1.038744 -0.729427 0.783720 0.332692 -0.323168 -0.440433 0.083891 0.772049 -0.056654 1.270894 -1.017051 -0.601658 -0.467749 -0.651486 -0.674582 -0.205474 1.032277 0.360487 -0.942116 0.433238 -0.960087 -0.472151 1.099683 1.000812 -0.697659 0.074070 -0.213575 -0.385420 -0.191572
-0.881446 -0.573419 0.184870 -0.635186 0.794272 0.242880 -0.221957 0.437452 -0.655570 -0.225199 0.654796 0.050146 0.997850 0.916683 -0.486260 -0.558699 -0.684200 0.148101 -0.351247 -0.294206 -0.403258 0.613069 0.290156 -0.800768 0.210541 0.460554 0.746782 -0.198831 -0.030474 -0.340175 0.830020 0.860851 0.033335 -0.105656 0.497843 0.043976 -0.882459 0.682387 -0.300421 -0.809727 -0.555889 -0.864884 0.455820 0.014342 0.159918 -0.154891 0.186212 -0.345863 -0.525488 -0.631863 0.474734 0.691885 0.651826 0.720182 0.683666 -0.484906 -0.656030 1.036631 0.087288 0.185335 -0.493187 -0.298297 0.497226 0.809520 -0.585980 -0.729640 -0.587477 -0.131694 0.440048 0.005720 -0.529529 0.743173 0.027540 -0.182504 0.041222 -0.297276 0.400261 -0.419239 0.014102 0.830279 0.469248 0.831469 0.638545 -0.307545 0.795753 -0.200243 -0.658975 0.351075 -0.268840 0.497610 0.036064 -0.627839 0.632115 0.009532 -0.674679 0.298206 -0.666227 0.682798 0.698919 0.680243 -0.856985 0.868603 -0.707089 0.560972 -0.582401 0.953054 -0.549589 -0.113775 0.141005 -0.294772 1.015919 -0.508345 -0.386487 0.003443 -0.123074 1.056712 -0.434763 0.811365 0.546248 0.877389 0.050275 0.851844 0.658388 -0.994164 0.966238 -0.678385 0.185834 -0.985220
0.252644 0.027534 -0.874864 -0.077647 -0.905998 0.918322 -0.051535 0.752857 0.664352 0.238305 -0.366636 0.393923 -0.625353 -0.638186 -0.140575 0.929159 0.688385 -0.064234 -0.636711 -0.781627 0.531391 -0.746270 -0.609972 -0.497898 0.303292 -0.391072 -0.405462 0.128189 -0.750615 -1.005484 -0.689552 0.576412 0.912170 -0.598886 0.050383 -0.920437 0.871427 -0.884055 0.416726 -0.824693 0.105304 0.659833 -0.794738 0.880124 -0.272645 0.986973 -0.931451 -0.241252 -0.292621 -0.130176 -0.428247 -0.899864 0.846812 -0.829595 0.801182 -0.214636 -0.598046 -0.946579 -0.565001 0.604791 -0.293378 -0.922401 -0.777835 -0.518400 0.878229 -0.231519 -0.293789 0.543257 0.654176 -0.395885 -0.279303 1.008007 0.703147 0.624402 -0.149193 -0.688678 -0.266488 -0.572577 0.641218 -0.939537 -0.282769 0.152760 0.203102 -0.700087 0.206503 -0.330727 -0.307828 -0.288720 0.772083 -0.746300 0.969820 -0.833356 -0.737413 0.545521 0.698516 -0.199494 0.567008 -0.813054 -0.159431 -0.020196 0.816789 -0.837119 0.428856 0.328588 0.908725 -0.818828 -0.390595 -0.767938 0.198830 0.081813 -0.175116 -0.095681 -0.708749 -0.743204 -0.507289 -0.714228 0.006530 -0.744927 -0.780098 0.182534 0.257201 0.287011 -0.813690 -0.087662 -0.789131 -0.856015 0.638339 0.241792
0.889627 -0.875906 0.551355 -0.180984 -0.307566 -0.850802 0.456929 0.573714 -0.888622 -0.141347 0.822172 0.440476 -0.954944 0.111372 0.893993 -0.050211 0.463194 0.648019 -0.563021 -0.429064 0.849191 -0.940906 -0.819862 -0.370927 -0.826397 -0.041170 -0.548530 -0.004071 -0.771151 -0.730854 -0.980378 0.728270 -0.746915 -0.643546 -0.950606 0.712536 -0.819753 -0.513769 0.960473 -0.044254 0.080693 -0.560124 0.845464 -0.750319 0.313395 0.756447 -0.789103 0.699733 0.994293 0.081986 -0.896767 -0.694017 -0.434132 -0.591599 0.220988 0.333833 0.288012 -0.839707 -0.873456 -0.259692 -0.304379 0.700955 -0.728738 -0.588742 0.619872 -0.804306 0.248428 -0.241066 0.616114 0.199540 -0.363776 0.898201 -0.391073 0.382855 -0.692282 0.985203 0.818748 0.594733 -0.336684 -0.662903 0.165488 0.769326 0.690431 0.915177 0.082835 -0.019135 -0.915150 -0.697021 -0.972248 -0.946551 -0.381284 -0.170114 0.348309 0.233198 -0.441605 0.346599 0.127299 -0.656158 0.937385 -0.038073 0.080282 -0.264971 -0.878716 -0.411495 0.131366 0.549299 0.189789 -0.231841 0.944428 0.103722 0.893367 -0.470205 -0.858777 -0.051191 0.922401 -0.174530 -0.054810 -0.488041 0.782638 -0.601408 -0.148100 0.707064 -0.593646 0.312116 0.580088 0.302814 -0.167535 0.736908
0.329692 0.344300 0.086478 0.521777 -0.887065 -0.102067 0.015144 0.116304 -0.846411 0.546260 -0.581300 -0.092137 0.871664 -0.544436 0.068999 0.080387 0.376432 0.387473 -0.076058 -0.117459 0.931057 -0.120826 -0.681358 -0.992227 0.133507 -0.361414 -0.334233 -0.056422 0.573764 0.726607 0.532574 -0.739688 -0.640312 0.717452 0.564318 0.968696 -0.025326 -0.583701 0.242354 0.773920 -0.572021 0.000295 0.340876 0.619158 -0.862702 -0.331523 -0.878972 -0.202735 0.947025 0.703064 0.439196 0.783321 -0.580478 0.300309 -0.541757 -0.182234 -0.925279 0.156053 0.543424 -0.046684 -0.701943 0.900181 0.032991 0.451499 -0.749693 0.660016 0.534814 -0.512863 0.207397 0.583463 0.268316 0.090830 0.437395 0.375446 -0.599392 -0.680209 0.045946 0.021347 -0.348578 -0.799110 0.869908 0.902485 -0.041248 0.300285 0.861959 0.211616 0.546291 -0.100826 0.787747 -0.464546 -0.468305 0.391098 -0.659858 0.329450 0.911235 -0.840609 0.937389 0.289844 -0.147894 -0.768438 -0.189052 -0.331191 0.468637 0.457659 0.705318 0.174771 -0.818193 0.615381 -0.208664 -0.878765 0.589583 -0.019372 0.480189 0.801455 -0.401339 0.982794 -0.372633 0.620909 -0.855304 0.303322 0.477440 0.077059 -0.659998 0.816379 0.340537 -0.642389 -0.737502 -0.064768
0.902456 0.043482 -0.705936 -1.136838 -0.251016 -0.522048 -0.182903 -0.217494 0.441150 -0.882524 -0.593452 0.057055 0.160915 0.456903 0.959564 -0.074433 -0.209930 -0.557104 -0.051161 0.499208 -0.572184 0.807658 0.383347 0.873766 0.256267 -0.790978 -0.012413 0.067116 -0.651684 -0.503687 0.149955 -0.431283 -0.990240 -0.931358 0.793101 0.303925 0.687946 -0.021652 0.080521 -0.481992 -0.175652 0.283220 -0.595005 0.492674 0.806075 0.087774 0.830811 -0.139760 0.964500 -0.175176 -0.855785 0.577674 0.556529 0.163123 0.113913 -0.274366 -0.942187 -0.583968 -0.247803 -0.091461 -0.275058 -0.686989 0.743542 0.911817 -0.757999 -0.952287 -0.685749 -0.684529 -0.928510 0.371984 0.689281 -0.025709 -0.677352 -0.470568 -0.434544 0.536312 -0.259951 0.110265 0.189827 -0.189630 -0.969632 -0.154004 -0.384616 0.687643 -0.168279 -0.347280 0.862129 -0.136769 -0.465517 -0.824020 0.087314 0.563696 -0.950414 -0.448884 -0.622683 0.756020 0.834310 -0.279587 -0.050659 -0.305067 0.681765 0.326696 -0.024944 -0.719053 -0.657465 -0.285257 0.393237 0.215542 -0.769986 0.318058 0.857750 0.215404 -0.812727 -0.854419 -0.955621 0.435344 0.351002 -0.341064 0.733683 -0.262832 -0.552978 -0.293824 1.008483 0.295066 -0.727961 -0.718765 0.145631 0.268556
-0.920885 -0.260744 0.498389 0.060181 -0.640783 -0.044525 -0.619216 -0.782810 0.584087 0.758020 -0.913248 -0.711389 -0.881250 0.845843 0.277634 0.045709 -0.307557 0.308153 0.813934 -0.200418 -0.941636 -0.541052 0.028519 -0.798004 -0.494572 -0.715997 0.926790 -0.484525 -0.661343 -0.088718 -0.880763 0.500528 -0.358122 -0.197330 -0.652915 -0.760901 -0.506534 0.513555 0.756025 -0.529267 -0.320359 -0.440913 -0.198894 -1.004100 -0.066234 -0.307539 -0.972136 -0.263971 0.686256 -0.148704 0.698790 0.003889 0.352589 -0.352686 -0.845626 0.550386 0.272337 0.411973 -0.218205 0.871558 0.959360 0.642698 -0.394356 0.939968 0.501439 0.027100 -0.117591 0.276447 0.388585 0.622993 0.837691 -0.875464 -0.838256 -0.279232 0.154374 0.872611 -0.261542 -0.847714 0.504965 0.409391 0.615609 0.151521 -0.573543 -0.781147 -1.014224 0.258372 -0.392157 -0.857238 -0.511193 0.485875 0.280366 0.603214 0.944311 -0.481111 -0.866692 0.088194 -0.572644 -0.293259 -0.921799 0.889028 0.518338 -0.302679 -0.180292 0.584640 0.024032 -0.206598 -0.801428 0.114965 -0.026446 -0.231931 0.108568 0.533595 -0.418447 -0.639201 -0.105738 0.905193 0.352847 -1.005676 -0.522515 0.362153 0.270340 -0.976736 -0.079841 0.509692 0.806866 0.419176 0.029087 -0.329722
-0.648886 0.381426 -0.013956 0.757111 -0.315913 -0.812999 -0.912442 0.524142 0.648966 -0.540192 -0.086308 -0.302318 1.055965 0.825143 0.357863 0.330646 0.382495 -0.515965 0.461396 -0.765222 -0.855637 0.085896 -0.664223 -0.049171 0.023419 -0.295266 0.930543 -0.816065 -0.520865 0.365179 0.174276 0.558179 1.039465 -0.848822 -0.920081 -0.524632 0.973048 -0.425634 -0.655970 0.581494 0.941683 -0.554145 -0.701801 0.297554 -0.757296 -0.566778 -0.762808 -0.608942 -0.216591 0.229215 0.309513 -0.333388 -0.303218 -0.992017 0.608067 0.239590 0.475002 -0.583780 0.886986 0.192060 0.121168 0.216528 -0.149573 -0.431890 -0.307220 0.141473 0.765290 -0.329535 -0.127790 0.067091 -0.012649 0.743244 -0.342811 0.751192 0.919026 0.565909 1.054349 0.254973 -0.193107 0.196781 0.644524 0.112410 -0.916440 1.035767 0.726763 0.123476 0.955162 0.340603 0.733976 -0.775098 0.448748 -0.133208 0.901722 -0.902974 0.842396 0.865738 0.183903 0.512724 -0.114286 0.649361 0.781152 0.026787 0.575289 -0.889930 0.132443 0.347600 0.890001 -0.442860 1.002337 0.469861 1.089460 0.694125 -0.889898 -0.730779 0.565698 -0.471917 0.020601 0.152265 0.755026 0.207111 0.311502 -0.759139 0.615868 -0.163448 0.481774 0.685786 -0.494884 -0.527444
-0.557649 0.322597 0.538905 0.117783 0.115848 0.187701 0.268057 -0.205316 -0.010567 -0.022154 0.799094 0.095829 0.187833 -0.810873 -0.595693 0.394252 0.095757 0.971570 -0.066525 -0.442829 -0.740028 -0.415147 -0.480771 -0.570085 -0.478027 0.344365 0.722159 -0.382609 -0.147205 0.643725 -0.970462 0.111252 -0.026340 0.340821 -0.497594 0.156131 -0.199430 0.745330 0.508961 -0.594078 0.633631 -0.156506 0.584125 0.154918 0.839762 0.846419 -0.210887 0.877436 -0.587681 -0.064358 -0.504083 -1.016937 -0.329856 0.565063 -0.713341 -0.615019 0.007396 0.715419 -0.533936 -0.037626 -0.127127 0.781434 0.523470 -1.080210 -0.139658 0.854543 -0.193777 0.844254 0.690041 -0.083231 0.828989 0.686926 0.502032 0.185149 -0.713596 -0.394947 -0.245792 -0.409802 0.681212 -0.409800 -0.336660 -0.494582 -0.669595 -0.583014 0.465686 -0.556736 -0.926459 0.205236 0.199916 0.430251 0.458248 0.324997 -0.743381 0.353248 0.002849 0.332314 -0.347911 -0.756147 0.788052 0.255257 0.650131 0.731203 0.912240 -0.693928 0.067914 -0.421170 0.940875 0.830631 -0.124548 0.191734 -0.757988 0.668385 0.019432 0.663088 -0.763192 -0.946574 0.570719 -0.395353 -0.505743 -0.704062 -0.945869 -0.237112 0.852651 0.293621 -1.013229 0.381951 -0.758743 0.692642
-0.872744 -0.616113 -0.248371 -0.040212 0.122692 0.632072 -0.313348 0.746607 0.952504 -0.079075 -0.424506 -0.853163 0.012587 0.509842 0.887753 -0.871708 0.270830 0.139080 0.807403 -0.085401 0.111031 -0.873987 -0.060815 0.442970 -0.172023 -0.283814 -0.591854 0.061920 0.108088 -0.846962 0.688820 -0.203560 0.094657 0.638847 -0.005683 -0.619048 -0.823707 0.432452 0.904346 0.570184 0.212734 0.558048 -0.718050 0.417495 0.099928 0.935059 -0.233491 0.169333 -0.910531 -0.069300 0.231040 -0.554615 -0.297550 0.444442 -0.170320 0.822261 -0.738167 0.782534 0.394204 0.524546 -0.017683 -0.169402 0.090643 0.325196 0.031297 0.154805 -0.580825 0.446682 -0.076794 0.273362 -0.855880 -0.782280 -0.314038 0.119567 -0.158553 0.481715 -0.776882 0.362970 -0.882704 -0.579206 0.347006 -0.409155 -0.579866 0.639146 0.437326 0.740913 -0.823910 0.202089 0.969974 -0.917417 -0.939854 -0.927819 0.887474 -0.228790 0.151278 -0.443481 0.654569 -0.256986 -0.435685 0.457299 0.829396 -0.164071 0.538800 0.553117 -0.291809 0.455027 -0.809533 0.689960 0.854882 0.648920 0.250557 -0.351752 -0.670144 0.842452 0.668914 0.456426 0.081072 -0.360740 0.349182 1.052155 0.353898 0.499502 -0.626783 -0.517997 -0.776749 -0.021629 -0.967432 -0.600473
0.837306 -0.794691 -0.327586 -0.559727 0.727562 -0.052440 -0.212868 0.545725 0.445375 0.642847 0.838875 -0.825340 -0.806942 -0.833404 -0.118416 0.887574 0.169827 -0.330474 0.282705 -0.862286 0.571234 -0.533798 0.006268 -0.285749 -0.051917 -0.604311 -0.341806 -0.567629 0.781033 -0.582752 -0.146632 0.477930 -0.853338 -0.536638 -0.526206 -0.088624 0.730045 0.263432 -0.540736 -0.638549 0.690830 0.935447 0.579216 -0.806622 0.765175 0.367073 -0.355739 -0.015387 -0.454907 -0.885669 0.406538 0.779282 0.263199 0.554567 0.335714 -1.024859 0.775959 0.933598 0.387156 0.089684 -0.266232 0.970875 -0.774430 -0.420798 0.314998 -0.657598 -0.398143 0.424297 -0.529055 0.851258 -0.727273 0.907791 0.739179 -0.341200 0.035394 0.360982 -0.327857 0.839195 0.176732 0.558119 0.013097 -0.355213 0.217925 -0.704722 -0.400477 1.109577 0.120740 -0.563761 0.987785 0.924181 0.440053 0.284259 0.676774 0.324255 -0.573724 0.611800 0.692861 0.445348 -0.125066 0.555299 -0.219525 0.645251 -0.112081 0.041626 0.816459 -0.604013 0.502536 0.412080 -0.504420 0.550675 0.290655 -1.189638 -0.938256 0.528834 -0.570353 0.173541 0.516820 0.911260 0.174549 -0.647330 -0.357102 0.667243 0.383582 1.105721 -0.937766 -0.547503 0.330914 1.032971
-0.390711 -0.509237 -0.056607 -0.151278 -0.384526 0.467566 0.571244 -0.612329 0.196480 -0.257620 0.320678 -0.514493 -0.298711 -0.865923 0.644798 -0.922824 0.779514 -0.266854 0.769194 -0.737183 0.057533 0.952853 0.373239 0.315789 -0.214397 -0.440475 0.673976 0.386159 0.990076 -0.656757 0.396318 -0.490994 -0.947668 0.403387 0.334698 -0.936945 -0.439299 0.566238 0.791896 -0.524426 -0.932596 -0.548420 -0.376090 0.688429 -0.384691 0.358775 0.101383 0.494426 -0.440686 0.406217 0.795141 -0.264279 0.400140 0.600167 0.880566 -1.006484 -0.446397 -0.761252 -0.657482 0.580954 0.477306 -0.261759 -0.860567 0.357663 -0.232484 -0.789448 0.913270 0.120755 0.699281 -0.525694 -0.281211 0.218494 0.972095 0.977031 -0.499035 0.193803 -0.416102 -0.730879 -0.635197 -0.629033 0.064006 -0.559856 0.068694 0.150549 0.084628 -0.473064 -0.101592 -0.173571 1.037952 0.311579 0.688522 -0.589876 0.224347 -0.656114 0.919721 -0.235152 -0.001347 -0.248717 -0.320297 0.119136 -0.051687 -0.804914 -0.732938 -0.877534 0.733183 -0.129584 -0.579339 0.237850 -0.791325 -0.555561 -0.989267 -0.194375 -0.775534 0.288880 0.605714 -0.948080 0.344375 0.236965 0.802860 0.240108 -0.575919 -0.688972 -0.747248 -0.007617 -0.949904 0.522218 -0.402169 -0.721729
0.559809 -0.477527 -0.819737 -0.216366 -0.438730 0.185495 0.000857 0.857181 0.443300 0.350012 -0.566294 -0.323086 0.891954 0.780264 0.322956 0.914619 -0.156193 -0.039591 0.151914 -0.615195 -0.005280 0.626781 0.002726 -0.451600 -0.941331 0.836571 0.030979 0.635449 -0.048053 -0.095744 -0.701634 0.581686 -0.304653 0.864100 0.389156 0.640592 -1.020488 -0.476284 0.728284 0.294874 0.929739 -0.094084 -0.612761 0.950794 0.159474 -0.757977 0.303007 -0.638311 0.543005 -0.135107 -0.188737 0.870442 0.039962 0.411934 0.302687 0.071294 0.203645 0.639992 -0.050560 -0.490282 0.099326 0.586989 -0.400202 0.851149 -0.363849 -0.181334 0.093921 -0.662444 -0.786584 -0.711543 -0.198970 0.712589 0.005094 0.470898 -0.208475 0.522399 -0.137054 0.459783 -0.372098 0.042743 0.102043 -0.980574 0.711348 0.092202 -0.369648 -0.399384 -0.470426 -0.346785 -0.459134 0.922619 0.450679 0.001877 0.343397 -0.051257 -0.559627 0.206603 0.826673 -0.612486 -0.194333 0.091621 -0.552284 0.985518 0.431887 -0.406319 0.139853 0.529063 -0.034127 -1.073071 0.173960 -0.382268 0.664020 0.681317 -0.202932 0.560721 -0.569453 -0.859276 -0.667234 0.373939 -0.816845 -0.029619 0.575032 0.701873 0.193402 0.081596 0.868325 -0.191837 -0.135738 0.443567
0.859545 -0.370266 -0.594547 0.964718 -0.089384 0.586781 0.054274 0.048811 0.296216 0.948324 0.947040 0.023886 -0.034057 -0.054391 -0.552292 -0.034454 -0.741600 -0.437097 -0.110735 0.110203 -0.234651 -0.289751 0.935389 0.959797 0.385747 0.820699 -0.006301 0.522719 0.177791 0.110497 0.471970 -0.509245 -0.476957 -0.999005 0.323691 -0.061097 0.355196 -0.413799 0.851480 -0.059880 0.204243 -0.066693 0.544028 0.746796 0.446612 -0.666524 0.016256 0.717242 0.925473 -0.016353 -0.227733 -0.360292 0.444481 -0.648575 -0.777456 -0.397717 -0.236932 0.566302 1.015614 -0.185523 -0.679351 0.332109 -0.501168 0.060580 0.594350 -0.450513 -0.597165 0.118543 -0.479289 -0.199987 -0.910348 0.524078 0.063070 0.101281 -0.614732 -0.879161 0.755908 -1.024705 -0.148802 0.487355 0.541028 -0.279675 0.666451 0.553523 -0.141434 0.714692 -0.676190 -0.059132 0.540454 -0.429522 -0.116856 0.577542 0.499582 0.639679 0.820194 -0.028359 0.221114 -0.580149 -0.261744 0.115546 0.426014 -0.186760 -0.090560 0.689407 -0.637636 -0.917926 -0.546024 -0.227841 -0.341016 0.018135 -0.526717 0.140769 0.639682 0.659512 0.743699 0.427261 -0.755089 0.261810 0.847303 -0.514784 -0.312928 0.280240 -0.977476 0.924869 0.008564 -0.635886 0.795878 -0.927149
-0.563028 -0.835959 -0.224766 -0.223366 -0.672397 0.273226 0.972156 0.201387 0.474297 -0.855055 -0.729459 0.525395 0.394455 0.337716 -0.053942 -0.840934 0.815556 0.300604 -0.696244 -0.626288 -0.178524 -0.452870 0.537360 0.494144 0.686671 -0.866775 0.311719 -0.473479 -0.718509 1.032858 -0.600880 -0.319940 0.664711 -0.112075 -0.495665 -0.698371 -0.196118 0.083797 0.271502 0.159193 0.780539 -0.466144 0.845958 -0.406296 0.413563 -0.873465 -0.833854 -0.721158 -0.413834 0.631499 -0.099550 -0.041822 -0.010825 -0.179443 0.248361 0.300474 -0.705968 0.088319 0.663529 0.916941 -0.736471 0.224228 -0.497040 0.570650 -0.253404 0.468063 -0.441504 0.140493 0.483900 -0.796786 -0.239119 -0.344140 0.453119 0.880188 -0.829303 0.621656 0.000166 0.702764 -0.423562 0.651417 -0.768786 0.376720 -0.328579 -0.430921 0.511320 -0.127219 -0.522343 0.813688 0.268007 -0.622381 0.448838 0.105191 0.529153 -0.042538 -0.813536 -0.568988 0.033124 -0.951399 0.480491 0.692150 -0.456679 0.333004 0.416683 0.171190 0.292767 0.584520 -0.821066 0.649699 0.806534 0.305226 -0.416516 -0.080025 -0.484724 0.885462 -0.706400 0.782361 -0.108342 0.241753 0.818685 0.618896 -0.616717 0.884390 -0.262884 -0.444115 -0.562589 0.630875 0.815444 0.146182
-0.169831 0.296473 -0.657559 -0.786093 -0.575462 -0.683986 -0.483498 0.008948 -0.794662 0.969405 -0.932897 0.832956 0.745636 0.901323 0.112849 0.957003 0.260786 -0.684321 -0.996656 -0.183809 -0.380964 0.265640 0.017346 -0.693790 -0.579154 -0.396120 0.911575 0.107356 -0.322561 0.012517 0.779999 0.529655 -0.698287 0.073510 0.102268 -0.871446 0.080681 -0.986596 0.188073 -0.107383 0.816205 -0.648227 -0.556749 -0.693567 -0.966337 -0.675553 0.014807 0.751587 -0.674773 0.082224 -0.651109 -0.095610 -0.263135 0.501122 0.149289 0.933992 0.448103 0.953187 -0.738237 0.879931 -0.301448 0.042357 -0.886346 -0.119740 -0.044525 -0.085985 0.719872 -0.368132 -0.772797 0.614055 -0.529775 -0.256681 -0.672231 0.815538 -0.034967 -0.421531 -0.439681 -0.664471 -0.956092 -0.299541 0.345910 -0.089417 0.863514 0.087364 -0.515427 0.261693 -0.485743 -0.913203 -0.727199 -0.910087 -0.600783 0.601234 0.413109 0.478854 0.129064 -0.713256 -0.243802 -0.673455 0.716208 -0.214010 0.751786 -0.876047 -0.887720 -0.470706 -0.130839 -0.196316 0.543136 0.813745 0.416240 0.034516 -0.047364 0.102760 -0.150744 0.062782 0.872843 0.420082 0.460487 -0.547607 -0.733601 0.147793 0.218419 0.745726 0.741953 -0.409574 -0.930842 -0.402242 0.756659 -0.054520
0.523355 0.001682 0.830684 0.652376 -0.129755 0.107952 -0.914225 -0.051669 -0.697948 0.247161 0.501480 0.987410 0.087543 -0.941747 0.098381 0.192033 0.267318 0.185979 0.409310 -0.728449 0.224741 -0.105008 0.419155 -0.147345 -0.525906 -0.936869 0.535687 -0.348244 -0.201474 -0.035801 -0.704691 0.420911 -0.867769 -0.227658 0.577855 0.985278 -0.823683 0.175895 -0.011967 0.405205 -0.592815 -0.443882 0.852127 -0.306410 0.794519 0.312604 0.642222 0.727378 0.419437 -0.104276 -0.731119 0.399670 -0.380453 -0.259852 0.938102 -0.096562 0.661991 -0.449607 -0.205639 0.335967 0.126159 0.345014 0.073369 0.846630 -0.641249 0.360873 0.910668 0.218982 -0.565504 -0.359495 0.804739 0.252228 0.114331 -0.245760 0.868246 -0.717005 -0.627070 -0.554139 0.194096 -0.760058 0.094058 0.408081 -0.145699 0.595397 0.817997 0.118626 0.710205 -0.570378 0.631802 0.700975 0.067493 0.499746 -0.333194 -0.466003 -0.627704 -0.039029 -0.915437 0.144810 -0.595824 -0.876713 -0.898997 -0.801779 -0.490390 -0.983765 -0.691526 -0.072273 -0.140598 0.449289 0.811180 -0.389447 0.690924 0.507660 -0.025727 -0.093501 -0.820715 0.790453 0.333581 0.963406 0.535880 0.852860 -0.658576 -0.139210 0.261551 -0.666312 0.757849 -0.791740 -0.444983 0.832482
0.756939 -0.512743 -0.910039 0.134911 -0.073828 0.452786 -0.738279 -0.420621 -0.577220 0.444861 -0.089961 -0.517002 -0.936542 0.852772 -0.743381 0.838902 0.787678 0.423097 -0.691114 -0.349806 -0.337396 0.769589 -0.543213 -0.065975 0.967869 0.100545 -0.594756 -0.041497 0.754648 0.206785 -0.259059 -0.310343 0.178215 0.288150 -0.774834 0.733630 0.485634 0.577266 -0.060484 -0.322279 -0.481467 -0.402746 -0.540465 -0.941424 0.134359 0.396745 0.144643 0.552270 0.033885 -0.716233 0.356101 -0.263552 0.604325 0.665973 -0.315057 -0.930317 -0.270348 -0.900655 -0.575293 -0.590364 -0.660363 -0.894925 0.067242 0.301648 0.278869 0.876713 -0.920852 0.906021 0.277158 0.423806 -0.915999 0.911329 -0.771587 -0.025845 -0.524813 0.160681 -0.428636 -0.376079 0.450010 0.715213 0.924410 0.914746 -0.805179 0.775885 -0.690673 0.898201 -0.092817 -0.633332 -0.563986 0.003896 0.724025 0.636602 0.461875 0.989478 0.616204 0.182817 -0.079403 0.604110 -0.751129 -0.381017 0.605532 -0.490549 0.256747 0.178564 0.542876 -0.888185 -0.913270 0.757529 -0.416391 -0.257392 0.410057 0.523010 0.321865 -0.151624 0.839054 -0.034608 -0.173816 0.238422 -0.747961 -0.617366 -0.956068 -0.719114 -0.012934 0.764789 -0.999547 -0.683218 0.376406 -0.387081
-0.266607 0.328104 -0.157003 -0.461363 -0.104361 0.354730 0.616962 0.088208 0.712361 0.570159 -0.211545 0.109523 -0.111214 0.577621 0.072532 -0.083068 -0.990840 -0.772580 -0.749224 -0.271280 -0.004718 0.566354 -0.811366 -0.900672 -0.702892 -0.852526 0.796804 -0.599614 -0.466354 0.226556 0.379225 -0.273651 -0.323266 -0.640655 0.808800 0.581227 0.859221 -0.353970 -0.659602 -0.704074 0.626960 0.048040 -0.276700 0.383147 0.190017 0.051235 0.628362 0.366112 -0.434081 -0.767337 0.558122 -0.160763 -0.825608 0.516840 -0.765466 0.584701 -0.623301 0.132687 -0.948457 0.307429 -0.710892 -0.334873 -0.309864 -0.305623 0.555261 -0.986052 -0.816625 0.840104 -0.202783 -0.083078 -0.027673 -0.289818 0.479215 -0.506504 0.754438 -0.242955 -0.079145 0.687158 0.175967 -0.142561 -0.358811 0.506223 0.539154 0.008574 0.448909 0.562159 0.080216 0.195241 -0.376418 0.213157 -0.855453 0.508539 -0.794338 -0.124639 -0.267972 -0.104081 -0.765751 -0.259694 -0.211272 -0.068411 0.633791 -0.221338 0.488580 -0.112380 0.141459 0.750907 0.680299 -0.210716 0.874914 -0.055442 -0.358780 0.935040 0.915543 -0.678403 0.275994 0.663556 -0.012800 0.294362 0.449733 -0.604093 0.234344 -0.524540 0.679938 0.027953 -0.184794 -0.854136 0.015419 0.083398
-0.729016 -0.497412 -0.792415 0.980693 0.535132 -0.360308 0.595087 0.747868 -0.679702 0.298484 -0.222476 -0.904237 -0.640263 -0.561358 -0.097203 -0.163665 0.857923 0.853637 -0.453607 0.344550 -0.575908 0.065166 0.651055 0.344623 0.285285 -0.625979 0.931918 0.991501 0.549299 0.380989 -0.486115 -0.263194 -0.530609 -0.851992 -0.824336 0.137443 0.382239 -0.035212 -0.005488 -0.360918 -1.047975 0.102549 -0.312702 0.250033 -0.188519 -0.251504 0.298337 0.594850 -0.051278 -0.628783 0.460745 -0.074954 -0.800031 -0.234153 0.494971 -0.990434 0.743409 1.089782 -0.674848 -0.390091 0.399444 -0.814237 -0.948942 -0.412925 0.958358 -0.391989 -0.607616 0.794452 -0.581965 0.029666 0.728926 -0.886898 -0.107762 0.661590 0.210955 -0.196430 0.914660 0.037819 -0.729632 0.434526 -0.425876 -0.468370 -0.029901 0.853051 0.818225 -0.916879 -0.206973 0.056357 -0.210904 -0.691040 -0.111569 -0.518737 0.209450 -0.723445 -0.335456 0.775034 0.420576 -0.921676 0.149240 0.562420 -0.919976 -0.310228 0.973278 0.167648 -1.001648 -0.180565 0.408717 0.654002 0.466705 0.471284 0.963217 -0.664960 0.185128 0.825137 0.895541 0.371675 0.577101 0.076513 0.496097 -0.367647 0.825141 0.352402 0.165152 0.938391 -0.569630 0.708177 0.311753 0.969453
-0.383410 0.506918 -0.111948 -0.134639 0.948878 -0.751809 0.848978 -0.811972 0.618749 -0.531953 1.001763 0.354683 -0.257967 0.340338 -0.446302 -0.412355 0.641585 0.344449 0.859103 -0.454448 -0.387441 -0.598524 0.172833 0.527777 0.678426 0.790040 -0.562409 -0.742938 0.823900 0.548089 0.097969 -0.083238 0.892134 -0.870786 1.020014 0.888246 0.110071 -0.465066 0.235487 -0.203982 -0.360535 0.800090 -0.579163 -0.858436 0.197874 0.377416 0.754506 -0.657385 0.677929 0.618259 0.944853 0.448199 0.945452 -0.032661 -0.948787 0.833182 0.609110 0.722036 -0.171132 -0.748326 0.967472 0.008574 -0.117583 -0.030127 0.507039 -0.766349 0.693366 0.552022 -0.518460 0.737970 -0.971678 -0.387285 0.077040 -0.883431 0.323000 -0.266064 0.534933 0.344900 0.287702 0.967288 -0.699799 -0.031605 -0.274795 -0.507110 -0.549066 -0.743564 0.818771 -0.468696 0.897188 -0.350698 -0.318042 0.607717 -0.813159 0.625863 -0.897475 -0.572865 -0.060856 0.331708 -0.171919 -0.009784 -0.921150 -0.860811 -0.118456 -0.539298 -0.106122 0.612609 -0.388408 0.805590 -0.605912 0.972509 -0.456813 -0.207738 -0.415124 -0.268483 0.464302 -0.153954 0.399784 -0.502165 -0.141335 0.349611 -0.392902 -0.060748 0.714985 0.432382 -0.419960 -0.078385 0.976395 -0.889091
0.824867 -0.342005 0.596188 -0.216282 0.422253 0.040453 -0.235998 0.886484 -0.241964 0.018784 0.352313 -0.699865 -0.966011 0.398772 -0.992030 0.778333 -0.770502 -0.575422 0.057815 -0.579877 -0.343891 0.648379 -0.348429 -0.583664 -0.235981 -0.566358 0.434966 -0.966362 0.997875 -0.265661 0.020962 -0.284152 -0.333663 0.437581 0.447701 0.894953 0.203665 -0.996630 -0.449700 0.889023 0.259948 0.525816 -0.702883 -0.648371 -0.537309 -0.936743 -0.442409 0.018191 0.422218 0.505287 0.902815 0.013192 -0.225062 0.681282 -0.111796 0.705397 0.285671 -0.274539 0.045840 -0.217549 -0.497060 0.315758 -0.524636 0.979643 0.522791 -0.589316 0.817178 -0.316026 -0.653497 0.065954 -0.822099 -0.565627 0.589568 0.216922 -0.579831 0.128715 0.116484 0.370011 0.899056 -0.834022 -0.045215 -0.777570 0.903521 -0.361174 -0.061520 0.976255 -0.934247 -0.763320 0.358942 0.514887 -0.800858 -0.715029 0.027531 0.293556 -0.275981 -0.214111 -0.879485 -0.697686 -0.244658 0.403792 0.193844 0.291987 -0.392486 -0.174144 0.444899 0.203477 -0.014449 -0.125127 -0.884548 -0.782239 0.844461 0.267138 0.163693 -0.753587 -0.542936 -0.830115 0.243085 -0.922068 -0.172922 0.520170 -0.497789 -0.179413 0.416730 -0.431453 0.345519 0.877719 0.282367 -0.336810
0.730690 -0.572512 -0.074541 -0.664795 -0.475545 0.336151 -0.854523 -0.817170 0.097837 0.080488 0.632243 -0.957795 -0.253382 -0.380855 -0.702600 -0.331558 -0.371176 0.704144 -0.343495 0.457724 0.277515 -0.991927 -0.409216 0.842723 -0.638229 -0.110440 -0.700444 0.390518 -0.364643 -0.321809 -0.391437 -0.131451 -0.361044 0.608467 0.528964 0.991234 -0.570822 0.117637 0.783336 -0.624907 -0.685035 -0.168211 0.100344 0.127659 0.166161 0.465421 -0.355886 -0.514028 -0.526210 0.747975 -0.085254 0.227703 0.784263 0.746236 -0.141296 0.065942 -0.672007 0.692811 -0.066175 -0.342961 -0.733824 0.073563 -0.911181 0.345887 0.901564 0.914833 0.593489 -0.930257 -0.400807 -0.030964 0.785535 0.353803 -0.507998 -0.853014 -0.804071 0.394149 -0.701828 0.729895 0.646688 0.619078 -0.561882 0.442519 0.435332 0.311009 -0.893681 0.651975 -0.186754 -0.077044 0.773279 -0.234151 -0.968675 0.702214 -0.106996 0.236222 0.014485 0.710481 0.122648 -0.887255 0.130851 0.568098 0.915355 0.779502 -0.645150 -0.543801 0.808420 0.298132 -0.001118 0.712297 -0.777547 0.351335 -0.497096 0.870144 0.581304 0.350812 -0.384080 -0.639734 -0.399986 -0.743514 -0.151399 -0.167410 0.952404 -0.950464 0.704274 0.509596 0.251278 0.876864 -0.207246 -0.633358
-0.664234 0.418387 0.956704 0.213950 0.055305 -1.076280 -0.995888 -0.341895 -0.237873 0.813200 -0.365946 0.377477 0.215578 0.670902 -0.287664 0.615465 -0.502062 0.194617 0.218430 -0.315780 0.216541 0.909052 1.085469 -0.154429 0.523827 -0.431416 -0.958100 -0.852577 0.592489 -0.378012 0.799555 -0.236326 0.507840 0.155744 -0.613765 -0.094718 0.362332 0.169041 -0.487492 0.731888 -0.305751 -0.139813 0.247119 0.268657 -0.481238 0.778986 -0.375205 0.446433 0.210346 0.275832 0.072571 -0.273591 -0.833180 0.737094 0.264178 -0.411650 0.726994 -0.422602 0.694935 0.676494 0.692413 0.438438 0.183948 0.106116 -0.721762 0.513888 0.922103 -0.224419 -0.508121 0.692935 -0.346878 -0.937504 -0.782732 0.249036 0.010075 0.718299 -0.501655 0.094506 0.490595 0.850026 -0.709620 0.617619 0.456777 0.176174 0.105546 -0.836734 0.864377 -0.313783 -0.216155 0.375857 -0.766500 0.339501 -0.479908 -0.013317 0.656909 -0.760922 0.977146 0.639686 0.065843 0.581027 0.400918 -0.127272 -0.461176 -0.778574 -0.963698 -0.653708 -0.065815 0.265032 -0.913528 0.046907 0.543194 -0.624770 0.925686 0.022669 0.091250 -0.493981 0.660003 -0.787911 0.931978 -0.640382 0.912437 0.217589 0.228464 -0.118216 -0.843187 0.801001 -0.356854 -0.088957
-0.436397 -0.745683 0.599200 0.598202 0.304058 -0.873370 -0.683682 -0.083078 0.909168 0.817457 0.587051 0.858086 0.160142 -0.936992 -0.408899 -0.815707 0.538117 -0.150007 0.864319 -0.971335 0.653942 -0.169675 -0.342646 0.648639 0.356171 -0.361137 -1.010185 0.044752 0.548450 -0.636719 0.825108 0.545042 -0.871865 -0.746023 -0.618311 -0.646393 0.195472 -0.211800 -0.306946 -0.651718 -0.836330 -0.805521 0.543420 -0.677546 -0.102666 -0.584365 0.796553 0.426075 0.544484 0.734973 0.787888 0.305530 -0.439553 -0.173831 -0.345426 -0.845158 0.743291 -0.504561 0.954841 0.847424 -0.875489 0.857764 -0.856483 0.081916 0.987466 -0.022081 0.194233 -0.178454 0.400791 -0.810755 0.717509 -0.371036 -0.087040 0.177305 0.102412 0.481270 -0.555098 -0.607249 0.518543 -0.277392 -0.582110 0.636798 0.798245 0.046277 0.384681 -0.112893 -0.159476 0.135521 -0.564856 0.377591 0.878435 0.276110 -0.994415 -0.172406 0.157035 0.145869 -0.562338 0.473236 -0.260453 0.483090 0.114220 -0.872089 -0.476274 0.491393 0.784628 -0.102394 0.051203 0.694526 -0.560884 -0.925184 0.256974 -0.698166 -0.147145 -0.675260 -0.573431 -0.429721 0.301459 -0.590478 -0.167044 0.340537 -0.828965 -0.611748 -0.113768 0.698687 0.271344 0.074746 -0.644945 -0.037548
-0.359675 0.802502 0.919429 -0.410027 -0.639296 0.921942 -0.465270 -0.230967 -0.226005 0.658732 0.300439 -0.712098 -0.900360 -0.337294 0.745909 0.766868 -0.167855 -1.055997 0.060284 0.109600 -0.556163 0.148198 0.215779 -0.009942 -0.390974 -0.483813 0.492526 0.894371 0.111718 -0.567316 -0.719373 0.419530 -0.806453 -0.472562 0.593099 0.497427 -0.561764 0.424481 0.496602 -0.092805 0.696227 0.933759 -0.910289 0.261432 -0.274672 -0.920212 -0.843012 -0.790071 0.698507 0.039499 0.850260 0.505980 0.571592 0.656438 -0.061979 -0.182056 -0.835060 0.668755 0.353715 0.340579 0.729307 0.606163 -0.802698 0.570359 0.223193 0.239029 -0.520152 0.494659 0.750686 0.020549 -0.526091 0.405470 0.548531 0.905088 -0.460530 0.842112 0.693416 -0.377233 0.903212 0.638543 0.787686 -0.897772 -0.619913 0.009380 0.750437 0.693589 -0.594146 0.691446 -0.027319 -0.430908 0.552947 0.835509 0.890505 0.108780 -0.177154 -0.340107 -0.812849 0.127197 -0.107767 -0.192456 -0.820305 -0.778388 -0.954905 -0.114175 -1.027424 0.472583 -0.099546 0.777413 0.583278 -0.067685 -0.172152 -0.707756 -0.856261 0.784691 -0.483505 -0.128937 -0.962557 -0.328238 -0.185771 -1.004041 -0.435674 0.253878 0.971514 -0.558322 -0.863616 -0.227605 -0.246326 0.850823
0.792955 0.897306 -0.610526 -0.901712 -0.319142 -0.907932 0.240638 0.213362 0.957745 -0.410448 0.518985 -0.327962 -0.893320 -0.332415 0.157565 0.717896 -0.280310 0.560336 -0.362835 -0.916461 -0.918990 0.291560 -0.091756 0.711667 0.142130 -0.154783 -0.391680 1.046574 -0.445242 -0.967985 0.349982 -0.280961 -0.325970 0.510225 -0.018630 0.863746 0.745450 0.835650 0.755004 -0.778416 -0.680953 0.721531 -0.991962 -0.627460 -0.053810 -0.343718 -0.283670 -0.705943 0.910875 0.621621 -0.034220 0.833393 -0.363313 -1.012423 -0.009873 0.122348 0.470605 0.353498 0.383040 -0.319269 0.873750 -0.649650 -0.352138 0.660072 0.471904 0.001962 0.988164 0.120935 0.261172 -0.504824 -0.173685 0.200761 0.213024 -0.723688 -0.054921 -0.718154 0.478721 -0.172937 0.429667 -0.589140 -0.849911 1.017724 -0.297373 -0.056952 0.910535 0.805382 0.104528 -0.337072 -0.140615 0.117464 0.764323 -0.552803 -0.824458 -0.577049 -0.491796 0.264854 0.238262 0.912625 0.518502 0.036690 -0.399534 0.542742 0.505496 0.745778 0.596610 -0.320733 -0.611054 0.451622 0.371014 -0.537586 0.744214 -0.906636 0.260252 0.069546 -0.852646 0.888885 0.371419 0.381765 -0.190040 0.705031 -0.043724 0.009426 0.150068 -0.530396 0.008986 0.081299 0.062149 -0.612181
-0.302132 -0.207349 -0.471374 -0.295333 0.812104 -0.596070 -0.606353 0.710902 -0.777540 -0.643792 -0.172063 -0.476722 0.539386 -0.403724 0.442160 -0.046680 0.249436 -0.443640 0.193084 -0.433015 -0.741069 0.505620 -0.018394 -0.980616 0.873712 0.772289 0.878125 -0.676627 0.348353 0.038214 0.580760 0.667041 0.473290 0.529201 0.251526 0.855989 0.441275 -0.694734 -0.614127 -0.837029 -0.621266 -0.427108 0.595661 -0.792723 -0.593434 0.593653 -0.327856 0.447582 0.548196 0.812491 0.833237 0.333515 -0.283664 -0.435235 -0.246182 -0.313583 -0.997122 0.311766 -0.867811 -0.593510 0.983182 0.805772 0.547721 -0.553690 -0.164354 -0.315037 -0.323369 -0.331992 0.663168 0.885369 0.457155 0.667755 0.118926 -0.675384 0.171337 0.155645 -0.352614 0.281539 0.366992 0.294717 -0.234879 -0.286781 -0.877357 0.390596 -0.986006 -0.409604 -0.300437 -0.169886 0.374146 -0.491027 -0.591880 0.936198 -0.048199 0.217245 -0.112972 0.696214 -0.248705 -0.095589 0.135978 -0.290555 0.076303 0.381517 -0.518149 0.903481 0.273192 -0.506290 0.693254 0.496138 0.305534 0.869622 0.682264 0.625424 -0.303553 0.628410 -0.687179 -0.786348 -0.448582 -0.711500 -0.833738 -1.006824 -0.889204 -0.943948 -0.491856 -0.234502 -0.255500 0.822025 0.564007 -0.693786
0.683932 0.233348 0.711353 -0.717712 0.687115 0.611185 0.229123 0.641021 0.579456 0.169979 -0.677696 -0.625506 0.394907 0.536395 0.210677 0.971753 0.766495 -0.049492 -0.449494 0.526138 -0.398108 0.215987 0.482133 -0.924656 -0.232353 -0.156650 0.887828 0.008722 -0.055064 0.306503 -0.783416 0.150851 0.322178 0.210020 -1.040238 -0.253900 0.334527 -0.349312 0.649562 0.628065 -0.033098 0.781917 0.501174 0.221448 -0.277945 -0.013717 -0.629703 0.570144 -0.135804 -0.156824 0.344853 -0.449293 -1.061863 0.135023 -0.536722 0.008577 0.439541 -0.265932 -0.052749 0.938975 0.526281 0.014853 0.322878 -0.206039 -0.553039 -0.711481 -0.685625 0.093977 0.425980 0.200476 0.731476 0.241889 -0.419729 0.187203 0.797334 0.862868 -0.265901 -0.677119 -0.829131 0.664432 0.874472 -0.416044 -0.605258 -0.593408 0.618492 0.937753 0.243340 0.662152 0.641275 -0.604655 0.664738 -0.957718 0.321191 0.019075 -1.007256 -0.229597 0.617144 -0.627664 0.360212 0.728256 0.794375 0.801652 0.494923 0.161451 0.781603 -0.455509 -0.281462 0.783325 -0.889681 -0.252487 0.497999 0.551050 -0.796849 0.549601 0.111189 0.732393 -0.587560 0.123139 -0.987734 0.293877 0.523101 -0.757596 0.587424 0.305487 0.573857 0.807287 -0.507914 -0.830068
-0.856206 -0.863995 0.660233 -0.860280 -0.208096 0.268167 -0.946699 0.714631 0.138172 0.846605 -0.311114 0.306268 0.296648 0.537324 -0.191942 0.610926 -0.093227 0.834048 0.483514 0.887007 -0.223634 -0.549348 0.744317 -0.130389 0.352776 -0.086852 0.451288 -0.706210 -0.701812 0.411275 0.616802 0.505318 -0.670058 -0.941672 -0.536315 0.678996 0.844555 0.890783 -0.515803 -0.740678 -0.329539 0.719153 0.478773 -0.470118 -0.570831 -0.759893 -0.843472 0.012426 0.330901 -0.249097 0.536065 0.052764 0.282617 -0.665234 -0.755879 0.662279 0.047227 0.465228 -0.912438 -0.068182 -0.620987 0.541312 -0.316400 0.607183 0.881802 0.681733 -0.298889 -0.982290 0.424838 -0.219990 0.309227 0.014869 0.565855 0.339190 -0.177189 0.358920 0.700674 0.739212 -0.531957 -0.988554 -0.650152 0.725712 0.752172 0.126442 0.620604 -0.075672 0.888144 0.343369 -0.987199 0.470568 -0.295221 0.946394 0.529583 0.332483 0.343762 0.120279 -0.241592 0.929729 -0.832811 -0.873661 0.669747 -0.159772 0.350733 -0.957951 0.399681 0.853748 -1.024251 -0.647966 -0.913315 -0.504770 -0.200744 -0.767614 -0.279893 -0.409065 0.255626 0.682995 0.737292 0.054383 0.558199 -0.089510 -0.480136 -0.119715 -0.311639 -0.983040 0.448191 0.620802 -0.638501 -0.830489
-0.205825 0.078153 -0.300477 0.189443 0.571827 -0.429361 0.335763 0.012910 -0.193849 0.524705 -0.572597 -0.097373 -0.270747 -0.041398 0.803546 -0.570080 0.292543 -1.070477 -1.097368 -0.083453 -0.620839 1.000332 0.974511 0.980428 0.312684 0.764460 0.494559 -0.865600 -0.958315 -0.129567 1.198624 -0.715712 0.064647 -0.142218 0.350224 0.077765 0.492982 -0.523400 0.758531 -0.695184 -0.086107 -0.250848 0.514051 0.195574 0.278494 0.171250 -0.084879 -0.667725 0.983288 0.674293 -0.559440 -0.201957 -0.122732 -0.139673 0.526034 -0.607527 0.538942 -0.694428 0.175514 0.853937 -0.115441 0.520309 -0.880254 0.000514 1.131060 0.677309 0.255235 -0.512133 -0.689111 0.685283 0.407869 0.273412 0.817481 1.112190 0.605353 0.267137 0.245546 -0.116963 1.063694 -0.250845 -0.515503 -0.252577 -0.158999 0.374794 0.991570 -0.539154 -0.962283 0.080566 0.570573 0.044445 0.722474 0.074937 -0.731928 -0.564921 0.316088 0.337887 0.454695 -0.179457 0.699790 -0.324830 0.666044 -0.643321 -0.237806 1.064251 -0.938841 -0.585000 0.801131 -1.076054 -0.838015 -0.752731 0.178655 -0.564207 1.091738 0.993720 0.259592 0.546282 -0.392850 -0.087273 -0.620654 -1.101450 -0.218892 -0.561354 0.315233 0.239773 -1.068730 -0.099529 0.074822 0.353966
-0.991078 -0.331347 0.483446 -0.735871 0.358165 0.653757 0.971397 -0.846937 0.287609 0.825696 -0.313028 -0.807125 -0.858840 -0.518808 -0.913746 -0.818181 0.820257 0.277640 0.814987 -0.873025 -0.231020 -0.743872 0.776721 0.755352 0.108368 0.246019 0.635035 0.158751 0.209446 -0.690354 -0.091949 -0.402023 0.343026 0.170018 -0.433541 -0.015858 -0.156772 -0.099928 -0.099265 0.966648 -0.441941 0.761547 0.172706 -0.962662 -0.201817 -0.338320 -0.641318 0.782905 -0.301990 -0.552720 -0.374429 -0.119924 0.549205 -0.319006 -0.668148 -0.748463 -0.307234 0.461153 -0.018187 -0.408058 -0.142491 0.481164 -0.748728 0.446330 0.613102 -0.193080 0.816701 -0.462162 0.436199 -0.966810 0.922461 -0.673752 0.511048 0.777903 -0.241998 -0.818875 -0.156701 -0.386501 -0.958915 0.862445 -0.759535 0.564582 0.071675 -0.710331 0.209908 0.685091 0.956921 -0.957189 0.891971 0.261504 -0.393908 -0.593237 0.728126 0.172819 0.315949 -0.070933 0.634525 -0.489620 0.247971 0.071171 1.039470 0.888051 -0.043032 -0.097249 0.791806 -0.367006 -0.773620 -0.877448 -0.374453 -0.035213 0.383553 -0.332165 -0.870376 0.238045 0.988394 -0.443631 1.008996 0.252796 0.231114 -0.648212 -0.079223 -0.333121 -0.898092 0.443997 0.791607 -0.857390 -0.799392 -0.723551
0.382341 0.014732 -0.119152 -0.490827 -0.289243 -0.300117 -0.526308 -0.111810 0.669707 0.254274 -0.058128 -0.544594 0.546393 -0.262131 -0.975338 0.754136 0.424863 -0.789286 0.918429 -0.710214 0.748888 -0.956560 -0.261635 -0.288821 0.279562 0.171628 -0.465448 -0.584362 0.519948 -0.972401 0.306918 -0.783884 0.845033 -0.561931 -0.867021 0.627438 -0.828547 -0.162772 0.476390 -0.574095 -0.416587 0.134545 -0.418941 -0.171700 0.331615 0.660877 0.456379 -0.580264 -0.588761 0.807202 -0.264124 0.513174 -0.840981 -0.018553 -0.791304 0.640029 0.722206 -0.576571 -0.926960 -0.265678 -0.136379 0.376115 -0.514997 -0.138093 0.120763 0.648858 -0.257755 -0.354686 -0.307180 0.401973 0.507568 -0.226573 -0.740566 0.969749 0.829906 0.453058 0.810276 -0.036378 0.041718 0.380135 -0.743590 0.533555 0.334802 -0.990460 0.636580 -0.185598 0.229675 -0.203383 -0.002273 0.353639 -0.893808 -0.047913 0.001017 -0.116994 -0.355071 0.355698 -0.380579 -0.869856 0.758252 0.174281 0.831404 -0.879318 -0.938724 0.905778 0.345657 -0.027279 0.721177 -0.625768 -0.504407 -0.970834 -0.244897 0.865487 -0.606679 0.098066 0.075212 -0.237891 -0.787011 0.773081 0.607215 0.647123 0.941520 0.835405 0.876889 0.845140 0.274929 -0.901225 0.571068 -0.078327
0.862727 -0.278040 0.564673 -0.555579 -0.756308 0.573745 -0.180804 0.225767 -0.678011 -0.358799 -0.310214 -0.575701 0.457456 0.830508 -0.141340 0.107933 -0.637150 0.794102 0.932599 -0.004631 0.819712 0.513091 0.003877 0.354576 0.435014 0.381414 0.117148 0.483162 -0.880118 0.749023 -0.331300 -0.724338 0.216822 -0.391809 0.258243 0.573961 -0.753201 0.661431 -0.932557 0.632878 -0.199392 -0.664119 -0.906166 0.368033 -0.927957 0.511561 0.634749 -0.806730 0.618185 0.460300 0.430940 -0.276074 0.526087 0.633937 -0.715108 0.810116 0.983221 -0.349014 -0.154171 0.522890 -0.069950 0.718385 0.752675 -0.519423 0.823527 -0.552998 -0.932781 0.658108 0.594754 0.567235 0.358618 0.883853 0.569785 -0.231337 0.424847 0.708136 0.924937 -0.458917 0.281548 -0.578383 -0.779935 -0.098994 -0.317041 0.152696 -0.068430 0.837132 -0.462215 -0.242352 0.613128 0.457121 -0.392726 -0.868672 -0.839530 -0.841760 0.154289 0.986586 -0.943189 0.432577 -0.106612 -0.694893 0.619009 0.295475 -0.316051 0.499969 -0.853144 -0.933166 -0.224327 -0.460963 -0.998474 0.220735 -0.754183 -0.925493 -0.156479 0.965696 0.021546 0.317453 -0.974581 -0.142550 -0.289811 0.323125 -0.639812 0.475579 -0.883359 -0.911698 -0.121712 0.966184 0.495367 -0.430415
-0.239986 -0.933162 0.916061 0.268971 0.586621 -0.646203 -0.698721 0.683899 -0.254158 -0.155395 0.016625 -0.182834 0.418677 0.858785 -0.075371 -0.519981 -0.660596 -0.992361 -0.795039 0.740091 -0.034218 0.949253 -0.200434 0.464255 0.947815 0.056645 0.776654 -0.966067 -0.615227 -0.730483 0.211677 0.540287 -0.151293 0.101567 -0.144803 -0.895601 0.263569 -0.483192 -0.882629 0.216555 -0.025740 -0.657716 -0.084575 0.414498 -0.683950 0.701410 0.703474 0.024970 0.525391 0.075138 0.853035 -0.034377 0.351799 -0.878343 -0.688205 -0.065859 0.151857 0.599183 0.456606 -0.408909 -0.188576 0.969020 0.566106 -0.989563 0.197535 0.415122 -0.494534 -0.720148 -0.866492 -0.146542 0.768839 -0.970290 0.822656 0.206026 0.316416 -0.462428 0.769888 0.931562 -0.063400 0.316201 -0.240250 -0.698850 0.027035 -0.713336 0.629555 -0.397315 -0.276806 -0.496729 0.408324 0.036878 0.958158 0.905762 -0.376741 0.105276 0.209153 -0.590994 -0.261278 0.914922 0.548775 -0.348621 0.860981 0.693958 0.549469 0.343602 -0.718965 -0.724972 -0.179049 -0.609418 0.466928 0.332537 0.273087 0.267260 0.254865 0.546384 -0.318507 0.828451 0.520425 0.090313 -0.704313 0.610313 -0.760210 0.289402 0.284979 0.129670 0.990975 -0.663405 -0.899986 0.779046
0.818169 -0.947999 -0.477076 -0.980967 0.887957 -0.836195 0.039740 0.646618 0.542047 0.965499 0.956506 -0.427939 0.943269 -0.931322 -0.402895 0.344296 0.016964 -0.367344 0.276604 -0.489218 -0.934219 -0.376808 -0.252107 -0.578299 -0.890990 0.841069 -0.808065 -0.024123 -0.470917 -0.003239 -0.267068 -0.327917 0.686101 -0.770965 0.065422 -0.130415 0.315678 -0.865667 -0.701492 0.638454 0.223026 -0.227526 0.344818 0.058677 0.660836 -0.468291 -0.919120 -0.655891 0.655421 -0.027582 -0.275775 -0.137515 -0.807634 0.222906 -0.817145 -0.943013 0.972821 0.134729 -0.975911 -0.312632 -0.919582 -0.465488 -0.530182 -0.763203 0.011215 -0.620414 0.717790 -0.829101 0.071841 0.966724 -0.020472 -0.051791 1.017991 0.394782 -0.006040 0.932132 0.559517 -0.715176 0.507587 -0.750607 0.921418 -0.767826 -0.101619 0.699185 0.117990 0.024266 0.095640 0.838981 0.720015 -0.894498 -0.916526 -0.283399 0.326762 -0.258750 -0.395155 0.820422 0.747017 -0.789994 0.663747 -0.685231 -0.011483 -0.200253 -0.150988 0.594158 0.956148 0.677749 0.226191 0.610951 -0.167239 0.303777 0.100764 0.373005 -0.972510 -0.030322 -0.824748 -0.580299 0.831788 -0.912630 -0.043022 0.892546 0.416564 -0.282461 -0.525390 0.104666 -0.103032 -0.412608 -0.134644 0.083287
0.253466 -0.642977 0.590496 0.657888 -0.991237 0.230844 0.901643 -0.008646 0.159257 0.925008 -0.241788 -0.277465 0.556616 -0.018560 -0.347098 0.693773 -0.152774 0.033761 -0.751300 -0.631311 0.414037 0.081914 1.059424 0.632134 0.782682 -0.291186 -0.404255 0.487573 0.585917 -0.918708 0.081177 0.634122 0.362997 -0.264086 -0.160283 -0.625650 0.175655 0.538949 -0.197011 0.001337 0.278255 0.734727 -0.580513 -0.957933 0.207932 -0.555007 0.564172 0.435688 -0.707394 -0.815615 -0.467547 -0.452513 0.447731 -0.111792 0.740107 0.652557 0.350824 -0.864256 0.359525 -0.738025 -0.009151 0.106836 0.728589 -0.300743 -0.629763 -0.523484 0.162400 -0.729661 -0.274852 0.531277 0.705711 0.143057 -0.909225 0.794627 0.669175 0.721018 0.511359 0.039379 -0.128010 -0.389300 0.744987 0.247130 -0.488881 -0.392424 0.348995 0.318076 -0.867696 -0.717430 0.924812 0.609110 -0.160313 0.548243 -0.888223 0.192127 -0.263680 0.986434 -0.572496 -0.331302 -0.251010 -0.291211 -0.288236 0.525780 -0.078275 -0.158833 -1.000105 -0.517308 -0.049125 -0.004456 -0.583002 0.811078 0.427665 -0.082601 -0.198598 0.354556 0.222880 -0.121590 -0.305081 0.712420 -0.128818 -0.375095 0.127205 -0.617253 0.461672 -0.360758 0.143682 0.773066 -0.368936 -0.579166
0.849938 -0.325933 0.617180 -0.173630 -0.806656 0.650758 0.604376 -0.406374 0.898237 0.695717 -0.533575 0.296684 -0.383493 0.940882 0.691257 -0.346877 0.972116 0.026427 0.284732 0.123684 0.412970 -0.115884 -0.529909 -0.765392 0.196135 0.878745 0.397065 0.138986 -0.639835 0.485656 0.537570 0.792271 -0.129365 0.298675 0.337738 -0.186332 -0.170840 0.968200 0.641617 0.164446 -0.507001 -0.702767 -0.533429 0.155043 0.161325 0.727568 0.620742 0.740998 -0.008946 0.581734 0.606634 -0.196037 -0.224620 0.203164 0.823511 -0.422979 -0.881976 -0.774817 -0.549426 0.101877 0.507656 -0.575956 0.070639 0.465237 -0.305814 0.849184 0.632053 0.585377 -0.764848 -0.497017 -0.730945 0.972081 0.947109 -0.609666 0.611084 -0.199289 0.647379 -0.205723 -0.491256 -0.812424 0.476710 0.787456 0.613349 0.926956 0.735407 0.754614 0.525494 0.079648 -0.601910 0.781754 0.516026 0.241448 0.288461 -0.519670 0.822500 0.128992 -0.335414 -0.801260 -0.630076 0.207806 -0.468175 -0.499848 0.551894 0.180503 0.698030 -0.996735 -0.826688 -0.749627 -0.923456 -0.514277 0.582144 0.380539 0.376390 0.156550 0.734290 0.422458 0.609468 -0.938209 -0.031752 -0.632047 -0.195484 0.307659 -0.135023 -0.963435 0.219768 -0.146785 -0.457406 0.179026
-0.244471 0.646123 -0.036363 0.791062 0.549393 -0.006411 0.714662 -0.044450 0.753210 -0.115617 -0.810430 -0.648710 -0.907742 -0.742936 0.128118 0.421185 -0.281405 -0.386786 -0.205529 0.888318 0.010899 -0.823127 0.177401 -0.228012 0.800094 -0.729364 -0.357411 -0.326646 -0.000529 0.719859 0.898237 0.922703 0.693381 0.089526 0.947111 -0.848948 0.921715 0.303039 -0.448393 0.056978 0.262640 0.287512 -0.121229 -0.137599 0.904558 -0.684099 1.072791 -0.722676 -0.483452 -0.323904 0.099709 0.029543 0.723175 0.434173 0.027100 0.095264 0.621300 0.286961 -0.766191 -0.280063 -0.372750 -0.604291 0.497140 0.383975 -0.281751 0.573198 -0.070970 0.687369 0.640849 0.897379 -0.781664 0.398193 0.112120 0.523765 0.295050 0.049369 0.460767 0.858971 -0.639407 0.513256 0.660318 0.855373 0.755712 -0.652746 -0.009290 0.468077 0.505137 0.039946 -0.465328 -0.090846 -0.980208 -0.929870 0.597078 0.387230 0.916832 0.169027 -0.242804 0.551255 0.592369 -1.072689 0.105696 -0.477130 -0.607628 -0.161780 -0.570344 -0.650764 0.036399 0.804007 -0.059567 0.868769 -0.284122 -0.778595 0.354172 0.176425 -0.736292 -0.459808 0.494612 0.487053 0.919458 -0.452650 -0.850053 0.772298 -0.731527 -0.562595 0.298368 0.077069 -0.925660 -0.490723
-0.869781 0.645819 0.812570 0.577806 0.762568 0.102525 0.402927 0.645435 -0.019080 -0.962364 -0.931243 0.403326 1.143989 -1.063198 -0.061596 0.695920 -0.713046 -0.555188 0.282658 0.348992 0.856706 -0.147080 -0.794213 0.943542 -0.701622 -0.855119 -0.395716 -0.463761 0.844913 -0.620175 0.881920 -0.192948 0.349797 0.174953 -0.888391 -0.621994 -0.325629 -0.095485 0.880097 0.469643 0.816427 0.084235 -0.838702 -0.765408 0.275792 0.960449 0.078610 -0.287999 -1.008422 0.489567 -0.911819 0.097618 -0.135346 0.690673 0.718470 0.275572 -1.102649 0.258714 -0.619685 0.751637 -0.773384 0.406558 -0.740087 0.354372 -0.933416 -0.088481 0.824627 -0.797696 -0.232102 -0.504000 -0.128243 -0.208983 -0.190597 0.612175 0.066545 -0.525164 0.670571 -0.156682 0.830452 -0.361741 0.532764 0.092356 -0.754673 0.208120 -0.043981 0.031855 -0.370901 -0.829783 0.790320 1.034302 0.198339 1.017815 -0.744757 -0.258302 0.335171 0.205550 0.865191 0.589469 0.796311 -0.953860 -0.372951 0.192958 0.843671 0.743224 0.175199 0.579648 -0.647231 0.087322 0.533611 -0.961898 0.247020 0.957215 -0.441217 -0.332327 1.025461 0.380399 -0.289959 0.353079 -0.690999 -0.522347 -0.672423 -0.797049 -0.928474 -1.235909 -0.273479 -0.386070 -0.589641 -0.016357
-0.650349 -0.948661 0.906674 -0.008563 -0.226408 -0.226954 -0.450200 -0.874634 0.193786 0.449005 -0.586519 -0.901279 -0.068294 0.458373 -0.450752 0.115483 -0.274668 0.297815 0.405341 0.722246 0.934906 0.791520 0.281652 -0.091255 0.047362 -0.779179 0.306934 0.776163 -0.639963 0.010243 -0.192403 -0.113490 -0.339482 0.623234 0.530817 -0.514181 -0.697340 0.988830 0.716392 0.331236 0.638879 0.678889 -0.071864 0.468171 -0.600472 -0.803160 -0.276352 0.915637 0.468118 0.445874 -0.687904 0.982628 -0.683726 -0.724866 -0.521665 0.749477 0.036398 0.069404 0.966298 0.960793 -0.883975 -0.920791 -0.836197 -0.492191 0.061941 0.357724 0.337707 -0.207234 -0.459705 -0.047729 0.560544 -0.782449 0.330620 0.484970 0.375288 -0.378028 -0.228416 0.977593 0.224091 -0.945281 0.570643 0.737030 0.193125 0.484380 0.560072 -0.080355 -0.525673 -0.076995 0.050501 -0.555537 0.073290 -0.718049 0.644517 -0.716067 -0.860813 -0.183326 -0.365508 0.203552 0.932169 0.061693 -0.763040 0.391388 -0.015694 0.628620 0.604036 0.151556 0.537544 0.287845 0.182501 0.649180 0.853350 -0.575852 0.676665 0.447838 0.068253 0.371211 0.229681 -0.483180 -0.625319 -0.792816 -0.619255 -0.995004 0.468412 0.800841 -0.035380 -0.852128 0.242810 0.650390
-0.420949 -0.584330 -0.012011 -0.460253 -0.235749 0.008421 0.503033 0.082448 0.562623 -0.779009 -0.355049 -0.055288 0.016833 -0.892498 0.978863 -0.344906 0.719780 0.922706 0.667589 -0.391103 -0.024589 0.936671 0.330583 0.578480 -0.834190 0.641959 -0.373750 0.709614 -0.895590 -0.481606 0.495666 -0.347006 0.010943 0.246958 -0.521861 -0.275936 -0.537097 0.845801 0.597766 0.350973 0.059253 0.567768 -0.346944 -0.897090 0.976037 -0.289289 0.163935 0.639018 0.725851 0.210125 0.051446 -0.384721 0.065066 -0.203042 -0.509363 0.757447 -0.736240 -0.859866 0.125718 0.202766 0.558157 0.323049 -0.254849 -0.476915 0.267662 -0.501521 -0.466379 0.579152 -0.462984 0.008392 0.568576 0.268892 -0.093825 -0.278058 0.231782 0.250426 0.927829 0.056415 -0.634503 0.389639 0.066778 0.145524 0.571487 -0.042117 -0.019202 -0.845384 -0.731397 0.000965 0.654691 0.265298 -0.649712 -0.177004 -0.694648 0.013408 0.787612 -0.131137 -0.164223 -0.560811 0.058348 0.227635 -0.094412 0.402829 -0.978722 0.187846 0.891194 0.368697 0.478804 -0.686799 0.542573 0.131330 -0.930720 -0.898676 -0.865377 -0.989916 0.493552 0.555572 0.458772 -0.911952 -0.686331 -0.520385 0.033742 -0.757295 0.045559 -0.882483 0.620627 -0.223556 0.123831 0.006619
0.442615 0.094215 0.007315 -1.259038 -0.986405 -0.829321 -0.238282 -0.397052 -0.503317 0.323650 0.874012 0.813359 0.028022 0.129530 -0.394018 -0.094881 0.811250 0.820899 -0.203127 -1.065597 -0.273976 -0.216370 0.381401 -0.550859 -0.045409 0.054485 0.711046 0.015500 -0.213529 0.422599 0.670761 -0.425084 1.005939 -0.358064 0.341859 0.027800 0.513413 -0.791492 -0.578281 -0.432629 0.127395 -0.056000 0.876766 -0.543420 -0.965453 0.505872 -0.173306 -0.448271 -0.309307 0.213598 -0.040484 0.854464 -0.262861 -0.577294 -0.441691 0.613564 -0.693612 0.880067 0.095723 0.497574 -1.069420 0.531068 -0.993295 0.465132 0.425390 0.231837 -0.141377 -0.194663 -1.058263 -0.971505 -0.145274 -0.189536 0.040197 -0.173110 0.439854 -1.221435 0.982796 -0.431373 -0.655392 0.325574 0.527142 -1.062117 0.488958 -0.548586 -0.353544 -0.143059 -1.021391 0.331491 0.361179 -0.921685 0.009521 0.627254 1.047080 -0.258140 0.033227 -0.843289 -0.413264 -0.685081 -0.977025 -0.072798 0.836523 0.630436 -0.768307 0.762701 0.568114 -0.019164 -0.736777 -0.125967 -0.242472 0.803166 -0.382414 0.869818 -0.105053 0.271216 -0.999967 -0.151042 0.596296 -0.268954 1.039320 -0.791974 -0.457694 0.717279 0.770741 0.578423 0.753010 0.075915 -0.122543 -0.491904
-0.649010 0.210838 0.635407 0.561227 -0.292971 -0.195188 0.087042 0.766912 -0.519548 -0.299570 0.909656 0.158951 -0.337841 -0.126232 -0.863756 -0.571241 0.735080 -0.026256 0.160916 0.285236 0.821499 1.070446 1.110177 -0.487453 -0.364238 -0.022075 -0.215100 0.220439 0.536448 0.443299 -0.048286 -0.267984 -0.232487 0.698945 -0.924625 -0.748017 -0.271046 0.275514 0.430888 -0.695355 0.174500 -0.139307 0.941284 0.539068 -0.855535 -0.648211 -0.936663 0.027741 0.843351 0.285786 0.865513 -0.750851 -1.156031 0.785289 -0.793709 0.182875 -0.215302 -0.094922 0.104491 0.026255 -0.726399 -0.414976 0.899443 0.199080 0.162768 0.662252 0.860805 -0.557148 -1.193195 0.349371 0.065068 -0.738532 -0.389755 -0.296560 -0.560261 0.264238 0.651778 -0.839895 -0.679246 -0.854735 -0.792540 -0.487644 -0.678180 -0.289978 0.223627 -0.288406 -0.312588 -0.773900 0.557470 0.605406 -0.731159 0.704111 0.053939 -0.980201 0.606095 -0.829493 -0.615737 -0.311453 0.638820 -0.460860 -0.746878 0.399250 -0.808169 0.549751 0.986579 -0.527033 0.076068 -0.053884 0.276327 1.101420 0.360011 0.745773 0.626238 1.121121 -0.395209 -0.567817 -0.554878 0.405985 -0.403466 0.848131 0.249215 0.700819 -0.551402 -0.131338 -0.081670 -0.822603 -0.113527 -0.996520
0.294574 -0.704982 0.313459 0.188725 -0.157958 0.460401 -0.275230 -0.623689 -0.811183 0.451975 0.858164 0.552191 -0.177718 0.368247 0.358443 0.107024 -0.594452 -0.178037 -0.807331 -0.211234 0.394177 -0.620553 -0.863369 0.795800 -0.873593 0.202893 0.280578 -1.022595 -0.882349 -1.130787 0.002697 -0.732506 0.722660 0.884429 -0.882711 0.118481 -0.010848 -0.029354 0.141099 -0.629592 -0.670018 -0.429926 -0.408477 -0.621508 0.453771 -0.148845 -0.291853 -0.939516 -0.765945 -0.032469 -0.148254 -0.949019 -0.388000 -0.809430 -0.732879 -0.111545 0.338636 -0.287045 0.729984 0.250648 -0.332841 -0.360048 -0.091386 1.144048 0.250036 0.033063 -0.149191 -0.371118 0.522022 -0.483642 0.661269 0.258666 0.469388 -0.130690 0.971082 -0.219829 0.954650 -0.956939 -0.674949 0.023707 0.266606 -0.954898 -0.634402 -0.065327 0.034647 0.758630 -0.318025 0.805081 -0.276722 -0.201072 -0.250266 -0.375420 -0.324016 0.889388 0.703706 -0.605757 -0.087544 -0.528941 0.708031 -0.450258 -0.003769 -0.602638 -0.302903 0.729933 -0.521609 -0.391906 -0.776751 0.757777 1.244314 0.207759 0.579363 -0.048580 1.193727 1.022536 0.876366 -0.866723 0.465681 0.844021 0.038843 -0.877338 0.553438 0.827372 -0.588110 0.530553 0.222131 -0.453507 -0.564511 1.031230
-0.433968 0.879481 -0.816322 0.154438 -0.273572 0.251834 -0.985065 -0.930204 0.495197 0.537678 -0.804171 -0.062333 0.680732 0.750779 -0.915170 -0.190312 -0.915972 -0.904105 -0.404441 0.299630 -0.219506 0.044202 0.902098 -0.309873 0.879380 -0.645343 0.377282 0.076168 0.600320 0.214243 0.571583 -0.272663 -0.382049 0.332337 -0.240583 0.718549 -0.490689 -1.031184 0.254960 0.067023 -0.670635 0.464747 -0.577154 0.011164 0.025831 -0.336044 0.080967 -0.832710 -0.144641 -0.258896 0.147390 0.534613 0.170379 -0.614004 -0.643588 0.253534 0.797628 0.384484 0.311869 0.833146 0.736157 0.790697 -0.147949 -0.517008 0.993168 -0.063135 -0.661121 0.114433 -0.906293 -0.276941 0.951615 -0.689492 -0.583360 -0.557649 0.444568 0.317581 0.597555 -0.972811 -0.611396 -0.898003 -0.833698 0.575082 -0.740102 -0.513435 0.177010 -0.046261 -0.553348 0.641798 0.259240 -0.439662 0.974369 0.707025 -0.121260 -0.693004 0.302276 -0.905717 0.244043 -0.353528 -0.212022 0.261559 0.789164 -0.895541 -0.291223 -0.051961 -0.709937 -0.450743 -0.465196 -0.604817 0.887784 0.606336 0.551834 0.921238 0.201922 -0.340932 -0.297046 0.722425 -0.786996 -0.371211 -0.823793 0.111401 -0.285810 -0.583568 0.843709 -0.530288 0.049834 0.332926 -0.798555 -0.531839
0.396057 0.769723 0.690944 0.686948 -0.563869 -0.023012 -0.762177 0.637131 0.271786 -0.689074 -0.872650 -0.756515 0.168165 0.178950 0.965932 -0.573749 0.231583 -0.801251 0.882695 0.176962 -0.869332 -0.569900 -0.425056 -0.619240 0.360655 -0.872012 -0.714458 0.804524 0.984909 0.794696 -0.132648 -0.709397 -0.274338 0.591944 0.938425 -0.807977 -0.496410 0.521734 -0.403407 0.634636 -0.971468 1.008729 0.013602 -0.748528 -0.607377 0.904628 0.701014 0.237961 -1.002250 -0.455912 0.722870 0.974347 -0.642894 0.449955 -0.648240 0.662275 0.051057 0.532894 0.623630 -0.410144 -0.476087 -0.432490 -0.855623 0.359326 0.681082 0.142688 0.595804 -0.083173 0.307605 0.309856 0.199844 0.371867 0.921953 -0.844262 -0.760394 0.221167 0.591127 0.288302 0.366693 0.818447 0.746473 -0.428574 -0.789066 0.986230 0.335637 -1.041039 0.019330 0.988662 0.599732 -0.837035 -0.053431 0.919597 -0.160650 0.998652 0.473097 1.046720 -0.578302 -0.722719 0.189443 -0.630169 -0.613906 0.397204 1.032339 -0.247792 0.180574 0.646951 -0.872100 -0.290746 1.040530 0.886808 0.960722 0.916215 -0.995500 0.480472 0.002820 0.455021 -0.727461 0.770261 0.841996 -0.114096 0.706984 0.472943 -0.216315 -0.501712 -0.116228 0.616743 0.475998 -0.198437
0.593858 -0.486553 -0.131244 0.966818 -0.663044 0.616026 -0.445960 0.938523 0.343513 0.153618 -0.052767 0.545738 -0.861231 0.768226 -0.156834 0.774268 -0.778423 0.911445 0.572675 -0.924590 0.081029 0.606856 0.532733 -0.411474 -0.766935 -0.855993 0.365122 0.573670 0.786711 0.700964 0.681224 0.273406 0.269056 0.991372 0.214655 0.112698 -0.982674 0.727338 0.218652 -0.467087 -0.858115 0.463556 -0.227883 0.358303 0.201592 0.533750 0.672936 0.805227 0.054164 -0.207564 -0.577349 -0.213171 -0.261652 -0.405340 0.585029 -0.959536 0.227884 -0.527145 -0.720295 -0.133901 -0.959213 0.919841 0.804184 0.116851 -0.655383 0.500603 0.961290 0.955527 0.140405 0.609918 0.939124 -0.124180 0.199063 -0.080192 -0.491531 -0.836128 0.172998 0.285835 0.709456 0.201226 -0.089430 -0.052228 -0.200535 -0.168734 0.400023 0.764756 -0.377726 0.103502 -0.776730 0.373087 -0.281326 0.426711 -0.374026 0.586434 -0.892280 0.969842 0.456955 0.104058 0.145085 0.041054 -0.167714 -0.053745 -0.290595 -0.793319 0.485732 0.418497 -0.718549 -0.331443 0.639965 -0.844804 0.605321 0.779929 -0.426932 0.669032 0.725167 0.385673 -0.268193 -0.063851 -0.976531 -0.360556 0.805117 -0.103971 -0.056005 0.078700 -0.821596 -0.563074 -0.766657 -0.325840
-0.783932 0.770526 -0.296587 0.290212 0.715664 -0.309443 -0.737823 0.378786 -0.385813 0.743220 0.702613 -0.696377 0.003931 0.432085 -0.151998 0.496242 -0.793303 -0.398107 -0.714174 -0.251151 0.374207 -0.991416 -0.163350 0.952638 -0.339862 0.383278 0.019751 0.609398 -0.455411 0.452591 -0.267612 0.405234 -0.215116 -0.132455 -0.063553 -0.999806 0.068927 -0.598912 -0.422845 0.128673 -0.592861 -0.337137 0.426900 -0.567967 -0.275401 -0.337868 -0.801089 0.304820 0.439620 0.457475 -0.615298 -0.159480 0.055076 0.518628 -0.294881 -0.003146 -0.660176 -0.001033 0.369568 -0.646432 -0.835230 -0.715497 -0.629672 0.733961 0.120976 -0.713785 0.797827 -0.559975 -0.494860 0.495115 0.001103 -0.373239 -0.613433 -0.637098 -0.063807 -0.430999 -0.915325 -0.323637 -0.542237 0.728490 -0.145364 -0.855314 0.762247 -0.130576 0.290227 -0.810055 0.838547 0.505573 0.183538 0.744136 0.575812 0.127189 0.612089 -0.551196 -0.783534 0.655077 0.397952 -0.928668 -0.454095 -0.034766 0.911634 0.544955 -0.254416 -0.562980 -0.293891 0.282237 0.052467 -0.540121 -0.851087 0.582073 -0.951785 0.009088 0.891634 -0.980491 0.455971 0.124708 0.344625 -0.662409 0.777520 -0.892882 0.829904 0.895603 -0.822471 0.161410 -0.723694 0.203458 -0.269547 0.280488
-0.373957 0.044206 0.866285 0.919336 0.599741 0.536784 -0.326687 1.097734 -0.152283 -0.985315 -0.614458 -0.758529 -0.129541 -0.950942 -0.076893 0.961303 -0.209247 -0.440897 0.146819 -0.526186 -0.164505 -0.567235 -0.430019 0.094271 -0.512927 0.107246 -0.373473 0.883920 -0.291789 0.391345 -0.087497 -0.980182 -0.546571 -0.642826 -0.838365 0.151013 0.088049 0.835916 -0.851714 -0.414751 0.912797 -0.532563 0.102699 -0.184377 -0.850238 0.022134 -0.240832 -0.791356 0.346250 0.253476 -0.971816 0.783365 0.209400 0.940751 0.047303 0.808296 -0.982358 -0.394079 -0.112144 -0.050290 -0.960409 0.799839 0.522249 -0.434829 0.315600 -0.862422 0.652793 0.106356 0.360972 -0.531317 0.657410 1.010137 -0.784787 0.866787 -0.346049 -0.617149 -1.079727 -1.050715 0.423529 0.859484 -0.359663 -0.830815 -0.143295 0.436978 -0.644970 -0.917165 -0.449885 0.318164 -0.158938 0.154169 1.111912 0.111871 0.603789 0.803560 -0.825703 -0.669262 0.281504 0.511525 0.583074 1.076557 0.819348 -1.021657 0.013209 -0.438364 -0.190945 -0.056017 -0.738163 0.830342 -0.138411 0.814841 0.873653 -0.356927 -0.410487 -0.512797 0.321998 0.253949 0.050437 -0.040505 0.669106 -0.733260 0.348181 -0.972342 0.073897 -0.910157 -0.208151 -0.528967 0.725754 -0.015669
0.854906 -0.097985 -0.044534 0.657933 -0.517773 -0.449955 0.243949 -0.103287 0.488799 0.240970 0.406192 0.242262 0.463569 -0.331169 0.316634 0.381336 -0.771625 -0.658108 -0.154061 -0.360985 0.208520 -0.325142 0.431319 -0.264546 0.160308 0.310016 0.796946 -0.787365 0.590883 0.890115 0.841369 0.780826 -0.778379 0.041263 0.775134 0.138393 0.683725 -0.333695 -0.020123 0.316663 -0.588743 -0.690275 0.627493 -0.002810 -0.812101 0.277231 -0.448336 0.459126 0.857852 -0.639101 0.669689 -0.954971 0.694654 1.053199 0.384271 0.950064 -0.056846 -0.706875 0.295758 -0.709123 0.235713 -0.436447 0.972196 -0.928326 -0.502687 0.040030 -0.053297 0.437679 -0.498109 0.479426 -0.051190 -0.134397 0.760097 -0.327926 -0.791034 0.433700 0.111081 0.044596 -0.668327 0.063166 -0.687678 -0.402295 0.158825 0.680196 0.738170 -0.030737 -0.477387 0.808528 0.079903 -0.085688 0.494254 0.588773 -1.004071 0.346706 -0.388546 0.898142 -0.981879 0.698649 -0.456747 -0.229290 -0.289785 -0.712909 0.239233 0.426484 0.412487 -0.122947 0.983666 -0.803660 -0.377394 -0.313406 0.675536 -0.251490 0.112100 0.177967 -0.193876 -0.397184 0.603231 -1.051326 -0.735972 -0.132273 0.966642 0.015084 -0.994759 -0.622412 0.787610 -0.650073 0.685475 -0.450458
-0.707526 -1.002085 -0.862676 0.372093 0.753443 -0.475517 0.565189 0.123573 -0.767665 -0.785230 -0.359884 -0.675828 -0.242769 0.713380 -0.257322 -0.047795 0.489213 -0.253862 0.674029 -0.925631 0.436011 0.932890 -0.173322 -1.098494 -0.133264 0.633911 0.163188 0.416348 -0.722269 -0.898633 0.516533 -0.045857 0.886428 0.373954 -0.499774 0.781117 -0.261114 -0.625297 -0.892555 0.040639 0.337793 0.816557 -0.161151 0.571005 0.425182 -0.425831 0.262953 -0.533943 -0.368278 0.582660 -0.000157 -0.256642 0.351047 0.688009 -0.592805 0.078840 -0.223223 -0.450076 0.210634 -0.140685 0.847204 -0.393667 -0.643894 0.012900 0.597608 0.633747 0.216717 1.002169 -0.361256 -0.697835 0.265376 -0.135451 -0.318429 0.437374 -0.149928 0.126533 -0.073993 -0.495397 0.270967 1.015243 0.529237 -0.261139 0.581367 -0.970542 -0.422595 -0.100609 0.166441 -0.605163 0.652262 -0.180207 -1.024653 -0.025830 -0.793517 0.828886 -0.625672 -0.123225 -0.354004 0.404397 0.284969 -0.346765 -0.962217 -0.849221 0.433630 -0.417838 -0.451221 0.565054 0.810741 1.122940 0.021943 -0.382479 0.079259 0.450666 -0.197056 0.925698 -0.098093 -0.267391 -0.253731 0.060872 0.442771 -0.470569 -0.135264 -0.184423 -0.339044 0.114828 0.676087 -0.923374 0.635619 0.904339
-0.383679 -0.728521 0.446720 -0.393086 -0.916008 0.743114 0.642716 0.234996 -0.856164 0.126081 0.661690 -0.484602 -0.357935 -0.993683 0.402140 0.260639 0.565560 0.078741 0.743583 -0.935826 -0.279514 0.656906 -0.629467 -0.246870 0.016812 -1.031085 1.073547 0.357627 -0.542175 0.871383 0.323804 -0.789921 0.854613 0.436103 0.737127 -0.405004 0.834638 0.329198 0.612802 0.965454 -0.362590 0.867938 0.120655 0.532966 -0.433270 0.869242 -0.311293 -0.387271 -0.087448 0.704137 0.746957 -0.385563 0.618138 -0.608563 0.166558 0.657493 0.182790 -1.066534 0.119828 -0.657702 -0.695490 0.322394 -0.855011 0.975574 0.006015 0.879261 0.542911 -0.448781 0.189328 0.217024 0.742674 0.732327 0.966038 -0.238084 -0.480936 -0.266905 0.349698 -0.757733 -0.260500 -0.245761 -0.658973 0.687207 -0.584263 -0.532002 -0.723291 -0.712909 -0.430890 -0.623551 -0.882132 -0.874979 0.930440 0.434422 0.569324 0.201974 -0.970579 0.913306 -0.654427 0.649233 0.451964 0.484300 0.106948 -0.744692 -0.599366 0.760717 -0.084817 -0.270401 0.617532 -0.473850 -0.275671 0.656433 -0.608904 0.430283 0.883712 -0.466634 0.158137 0.515000 -0.628385 -0.852764 -0.835514 0.132640 0.359285 -0.180669 -0.211988 -0.335470 -0.531593 0.830411 0.287397 -0.843383
-0.833343 -0.264987 0.942559 0.445714 0.987819 0.537838 -0.246645 0.531601 -0.792457 0.813208 0.288386 -0.532641 0.455471 -0.552104 -0.275433 -0.628492 -0.494766 0.534014 -0.541518 -0.385483 0.218048 0.094013 -0.096901 0.415610 -0.741745 -0.914622 -0.260978 -0.542868 -0.466068 -0.001140 -0.453981 0.042145 0.104521 -0.009926 -0.319623 -0.453876 0.090950 0.391972 0.748896 0.407404 -0.117602 -0.743286 -0.410365 -0.037417 0.872785 0.992386 -0.024562 0.247085 -0.735453 0.191411 0.879368 -0.891215 -0.351320 0.932147 -0.772817 0.195907 -0.834462 -0.397296 -0.489892 0.632558 -0.010191 0.189809 -0.064168 -0.509306 -0.914125 -0.658860 0.448014 0.810263 0.218431 -0.780464 -0.399084 0.617865 -0.551660 0.355602 0.414112 -0.197937 -0.951538 0.287499 -0.556478 0.515679 -0.290076 0.656653 0.966103 0.719460 -0.231052 0.625440 0.246392 -0.562525 -0.570777 0.220338 0.933592 0.765680 0.757957 -0.321881 -0.844582 -0.292760 -0.516587 -0.109758 0.824142 0.013994 0.844656 0.754354 -0.153980 0.886427 0.522423 -0.383155 0.947618 0.034106 0.580283 0.195218 0.733812 -0.531434 -0.511567 0.455630 -0.428109 0.666752 -0.164512 0.228902 -0.783767 0.461087 -0.910304 -0.281818 0.502454 -0.772115 -0.486813 -0.323781 0.729678 0.768469
-0.899123 0.150926 -0.103915 0.202745 -0.770519 -0.912559 -0.725620 -0.200016 0.511444 -0.718018 -0.809919 0.316772 0.928274 -0.785406 0.595301 0.617716 -0.066845 -0.526225 0.357961 0.616433 -0.559260 -0.340099 -0.871644 0.973033 0.737973 0.390546 -0.747540 0.111415 -0.249133 0.739397 -0.446467 -0.704782 0.428288 0.860003 -0.058435 -0.270360 0.622351 -0.005059 -0.556197 0.004651 -0.819562 0.421451 -0.036211 -0.237013 0.384855 0.051756 0.652600 0.918775 0.459029 -0.186285 -0.797028 0.022976 0.203002 0.026847 -0.419608 -0.725186 0.200822 -0.078829 0.161256 -0.768124 0.360552 0.419166 0.186445 0.586808 -0.428782 -0.489115 -0.180943 0.799792 0.364693 0.216356 -0.216570 0.145402 0.781966 0.622128 0.526902 0.175374 -0.119850 0.976662 0.206775 0.937175 0.822978 -0.225752 0.341568 -0.546173 0.017965 -0.513944 0.376611 -0.836266 -0.929116 -0.701121 0.497138 -0.838555 -0.763408 0.863071 0.393193 0.214777 -0.474183 0.476363 0.702392 -0.036755 -0.769689 0.166594 -0.095487 -0.220301 -0.478017 -0.759244 0.676934 0.202637 0.290815 -0.931753 -0.566196 -0.207205 -0.181820 -0.085716 -0.589684 0.379169 -0.515728 0.483945 0.268173 -0.854226 0.990046 0.883675 -0.774362 -0.288841 -0.479413 0.277579 0.352116 -0.027304
