-0.247166 -0.233658 0.337942 -0.180905
0.590429 2.894759 0.232409 4.037299
2.492746 -0.086103 2.835848 1.877660
-1.253225 -2.058872 -0.927951 -0.608682
-0.010785 0.850274 -0.084390 -1.651489
1.403549 1.946537 1.071012 0.693600
-0.924297 0.197270 -1.045435 -2.358612
0.766304 1.596319 0.734139 1.460193
-1.198619 -3.206155 -0.916623 0.921879
-2.235437 -3.404362 -2.604893 -3.460634
-0.741152 1.710798 -0.394287 -1.225831
0.378259 3.475056 1.157656 0.281123
-1.909441 0.950277 -1.594333 -1.313100
-0.402097 -0.338445 -0.587234 1.687012
-0.257426 2.928222 -0.273973 0.387627
1.453298 0.956895 1.077989 0.866508
1.546731 2.547708 1.418368 -1.593870
-0.872890 -0.376632 -0.642106 -0.655899
1.485177 2.158058 1.514311 -0.012530
0.968534 -0.218484 0.748425 3.719040
1.653792 3.807700 0.933721 0.147062
1.566008 3.186837 1.158765 -1.056621
-0.891825 -0.524152 -0.912736 1.407233
0.031133 0.637496 0.530959 -0.634248
-1.143971 -2.182171 -1.259675 -2.549578
-0.674744 -0.334454 -0.930206 -1.075102
-2.019351 -1.079732 -2.452785 -2.336764
1.219689 -0.728256 1.444581 2.155779
-0.316476 3.556415 -0.300730 0.325224
0.829439 0.846645 0.115681 -0.044094
0.539496 3.255985 0.556966 -1.627123
-0.624079 -1.100804 -0.605756 0.062756
0.401979 2.301973 0.677983 0.637188
0.518647 -1.419211 -0.451259 0.429323
1.076515 1.159077 1.253861 0.302547
0.076946 -1.052420 -0.413600 0.977153
0.702133 -0.169665 0.382121 0.407630
-0.071294 -1.589301 0.508585 3.540020
0.813962 0.610997 1.072362 -1.620074
-1.390796 -2.146022 -1.233785 -2.422286
-0.556504 0.841546 -0.026066 -1.658710
0.149699 3.247576 0.240674 -0.546586
0.470991 -1.462767 0.094386 0.248093
1.536574 4.121428 1.804100 2.337838
0.579942 -0.534827 0.562380 3.664181
-0.038501 1.036423 0.190119 1.143203
0.998088 0.916960 0.234916 -0.730278
-0.791142 -2.584386 -1.262207 -0.865280
-1.216454 0.710239 -0.942118 0.247721
-0.373484 -1.214367 0.083840 0.291643
0.886320 -1.564438 0.245233 0.846912
-0.984375 -2.309330 -0.569397 1.932225
1.146386 1.544349 0.575953 2.784220
-2.088852 -3.828895 -1.843543 0.463117
0.537563 1.839870 0.562954 0.581030
0.079741 0.620103 -0.448950 -0.504991
-0.531827 0.427674 -0.664249 -0.275546
-1.249743 -0.894156 -0.881393 -0.785146
-0.834637 -1.678320 -0.142254 -0.090651
0.279471 0.284436 -0.237092 0.423324
0.046708 -0.264529 0.195563 -2.454100
1.539716 1.821654 1.659757 1.338024
0.648235 2.551823 0.522235 1.383220
-0.409008 -1.520373 -0.868664 0.160302
-0.320712 -1.467326 -0.984436 0.536215
-2.526464 -4.220862 -2.204123 -1.568182
-0.839450 -2.107284 -0.780208 -1.065432
1.404389 0.666257 1.278278 0.993710
-0.736201 1.287119 -1.436827 -1.548794
-0.857884 -1.322465 -0.674765 1.689522
0.491046 0.590828 0.309364 0.214510
-1.548838 -3.710586 -1.134665 -2.681936
-1.760005 -1.957360 -1.650943 0.507896
-0.358293 -0.714878 -0.756530 1.096373
-0.617408 -1.000292 -0.278824 -0.889300
-2.873197 -4.767576 -2.713763 -3.317169
0.275715 -2.914797 -0.249062 0.605218
-0.059547 0.910571 0.026732 -0.027158
-1.316255 -2.171202 -1.805465 -1.176475
-0.938572 -0.473805 -0.741970 1.855774
1.225747 2.342879 1.793243 1.419828
-0.743300 0.664501 -0.532462 -0.608514
1.337326 4.033383 1.404777 -0.494676
-1.913919 0.227942 -1.953790 -1.661260
1.638008 1.351721 1.119032 -0.900428
1.121997 1.852878 1.269439 0.424662
-0.999528 -0.987731 -0.959038 -2.031373
-2.575167 -0.741229 -2.694312 -4.303663
-0.185974 -3.845068 -0.488078 0.148659
0.978088 1.916095 0.748995 0.685812
-0.053002 0.370736 -0.498669 0.448601
-0.206591 1.660515 -0.786701 -1.949137
0.963278 2.683852 1.510361 -0.837572
0.268859 0.597627 0.990750 -0.459008
0.784545 2.779761 0.370136 -0.898409
-0.667181 -2.689156 -1.101881 0.398824
0.326862 0.335490 0.429569 -2.163322
-0.111298 -2.577495 -0.844578 -1.696734
0.425795 0.724785 1.005359 1.030849
-1.538966 -1.203927 -1.164537 -2.696227
