0.357816 0.427968 -0.060343 -0.035650 -0.042826 0.106910 -0.529393 -0.122879 -0.030616 0.674581 0.336590 0.625807 -0.577372 -0.707212 -0.056441 -0.480555 0.533626 -0.806156 0.499724 -0.686075 -0.275429 -0.196606 -0.059725 -0.241865 -0.616976 -0.732736 0.266180 0.512392 -0.200967 0.009326 -0.912997 0.437045 0.911763 -0.986553 -0.463059 0.668721 -0.458622 0.800337 -0.869627 0.339696 0.213278 0.278531 -0.817864 0.759960 -0.769013 0.350448 0.011837 0.149385 -0.484848 -0.177087 -0.677130 0.401682 0.273595 0.356341 0.968209 0.136536 -0.310993 -0.540428 0.915878 0.470448 0.409405 -0.119365 -0.680383 -0.109458 -0.010134 0.283026 0.802535 -0.610984 0.253018 0.522934 -0.749143 0.715349 0.261755 -0.289299 -0.967220 -0.416894 0.273425 0.245881 -0.170100 -0.870427 -0.640524 0.033558 0.525228 0.543353 -0.072744 0.343803 -0.290673 -0.902157 0.520535 -0.221528 -0.232678 -0.603310 -0.793799 -0.104269 -0.443172 0.629464 -0.679142 -0.671915 -0.402232 0.847853 0.514513 -0.137043 -0.790270 0.499642 -0.538586 -0.342311 -0.349596 -0.161712 0.710790 -0.506141 -0.583848 0.429868 -0.701188 0.139944 -0.648910 0.880604 -0.778267 -0.679663 -0.540045 0.862168 0.884676 -0.932079 0.348809 0.087763 -0.156016 -0.843414 -0.729992 0.400031
0.079488 0.734468 0.939570 -0.256805 -0.122576 0.852899 0.157952 -0.391248 0.034214 -0.057196 -0.474292 0.925973 -0.289268 -0.535080 0.297512 0.727468 -0.033758 -0.179959 -0.730669 0.967302 -0.970063 -0.169739 -0.611391 -0.131615 -0.555160 0.189762 0.185997 0.328644 -0.274364 0.766248 -0.315366 0.988213 0.504734 -0.132531 -0.005136 0.124884 0.532314 -0.290229 -0.710197 0.242366 0.802330 -0.407766 -0.865376 0.617637 -0.004062 -0.384392 -0.344677 -0.441448 -0.262310 0.926633 -0.189192 -0.491000 -0.818721 0.210735 0.987105 -0.452849 -0.135108 0.593405 0.569188 -0.530676 -0.915095 0.492605 0.519472 -0.504842 -0.762564 -0.868222 0.356471 0.644647 -0.606113 0.818659 0.095328 0.316189 -0.465629 -0.708223 -0.708653 -0.590111 0.863720 -0.781927 -0.269963 -0.442067 -0.100069 0.090234 -0.266829 -0.246948 0.053628 -0.097795 0.614226 0.696475 -0.709359 -0.371359 0.524553 -0.537427 0.764196 0.953466 -0.782928 0.263276 0.332516 -0.090264 -0.997134 -0.538925 -0.407866 -0.833640 -0.575134 0.185981 -0.021115 -0.528092 0.136085 0.407190 -0.953089 0.968513 0.762344 -0.358354 0.056403 -0.713681 -0.714700 0.773622 0.751191 -0.653123 -0.322721 0.601815 0.447160 0.121510 -0.275579 0.058380 -0.395109 -0.631092 0.660177 0.046436
0.042590 -0.507396 -0.212651 0.055339 0.668320 -0.748084 0.000481 0.137808 0.611076 -0.420240 -0.281743 0.688308 0.603988 0.976030 0.678221 0.813100 -0.369835 -0.720961 -0.421713 0.597375 0.465320 0.790208 -0.008597 0.741331 0.849300 -0.901013 -0.174767 -0.767222 0.305494 -0.404351 -0.348336 -0.683729 -0.927852 -0.000746 -0.670575 0.777408 -0.610291 0.504294 0.389129 0.872028 0.530061 0.105744 -0.406906 0.663342 -0.348925 -0.138763 -0.360260 -0.295420 -0.193731 -0.253514 0.634123 -0.371419 0.683120 0.811560 0.344975 0.829426 0.702287 0.444792 -0.488051 0.634948 -0.120472 0.590006 0.207993 0.484751 -0.141193 0.554343 0.755964 -0.631734 -0.882684 -0.353267 -0.819959 0.120273 0.880333 0.418974 -0.890439 -0.472796 0.246005 -0.515412 0.611370 0.692025 0.849352 -0.838899 0.471905 -0.049005 -0.674794 0.492854 0.058238 0.355069 0.977760 0.865509 -0.913776 0.022382 -0.694175 0.272905 -0.055429 0.348600 0.547926 0.992491 0.973653 0.821450 -0.038772 0.322861 -0.773852 0.266360 -0.506294 -0.219058 0.960317 -0.793096 -0.238342 -0.897510 -0.148115 0.955590 -0.547387 0.594913 0.440046 -0.585119 -0.174935 -0.409158 0.834047 0.674102 -0.184615 0.035670 -0.880006 0.852247 0.299028 0.644369 -0.242769 0.494699
0.500688 0.372926 -0.097574 0.623217 -0.773703 0.787046 -0.113641 0.399879 -0.285019 -0.673855 0.706692 0.571205 0.910898 0.124173 0.348206 0.648076 0.603393 -0.435926 0.112902 0.741688 0.250225 0.784543 0.664579 0.310280 -0.605039 0.199988 -0.028172 0.060737 -0.807677 -0.058455 -0.894316 -0.009242 -0.724623 0.222330 0.000060 0.505136 -0.819423 0.830997 0.300421 -0.886951 -0.098043 -0.325921 -0.478466 -0.257621 0.441255 0.208288 -1.007076 0.353236 0.419283 -0.076116 0.076641 -0.808603 -0.450805 -0.266432 0.325139 -0.282543 -0.313857 -0.867759 0.466543 0.362508 0.450115 0.513044 0.580188 -0.863980 0.458412 0.328951 -0.075616 -0.214270 0.495472 0.638512 -0.644316 0.607057 0.844506 0.165999 0.862485 -0.388653 -0.475637 0.449511 0.109710 -0.487085 -0.653345 0.110468 -0.924107 0.806764 0.209252 0.561352 0.736929 0.199473 -0.072224 -0.835193 0.776314 -0.545138 0.299580 0.154118 0.915893 0.444693 -0.873862 0.034665 -0.058829 0.003438 0.955065 0.841353 0.035426 -0.142046 -0.047413 0.730188 -0.999362 -0.536632 -0.540368 -0.330618 -0.426167 -0.618265 -0.593032 0.564917 0.673948 0.570526 0.437158 0.646541 -0.323213 -0.868790 -0.802056 0.631621 0.708786 0.991457 -0.791107 0.876270 0.955483 0.751296
-0.146358 -0.807506 -0.173288 -0.286403 -0.868628 0.272452 0.835911 -0.994705 -0.694241 0.682753 0.805398 0.192881 -0.335361 -0.991024 0.114253 -0.610986 0.129935 -0.675157 -0.012604 0.977780 0.448554 0.329027 0.875052 0.653885 -0.297284 0.060338 0.733061 0.359859 -0.720789 -0.961090 -0.481159 -0.602397 0.293313 -0.266161 0.920651 -0.317239 0.986392 0.713224 0.452814 -0.344350 -0.454429 0.348121 -0.836241 -0.872267 -0.809811 -0.861157 -0.775223 0.712887 -0.349080 -0.596998 -0.807026 -0.341657 0.822769 -0.777117 -0.247802 -0.795830 -0.005296 0.909640 0.715314 0.152859 0.241081 0.537115 -0.649259 -0.446798 0.378249 0.341119 -0.942953 0.319858 -0.135286 -0.311955 -0.831701 0.002950 -0.754910 -0.197376 -0.288422 -0.555400 -0.719402 -0.655745 -0.734776 -0.994682 0.616879 0.170230 0.817483 -0.465631 0.596313 -0.893961 0.759830 0.924743 -0.768278 0.301719 -0.822834 0.498642 -0.742749 0.344672 0.774503 0.536426 0.102130 -0.383414 0.474610 0.176485 0.340572 -0.697581 0.424424 -0.591094 -0.720196 0.591992 0.155943 0.268313 -0.903711 -0.918870 0.056996 -0.832029 0.307679 0.991261 0.034324 -0.204653 0.548592 -0.021312 0.248953 0.213875 -0.147499 0.810643 -0.091499 -0.324160 0.842021 0.780850 0.428147 0.922993
-0.237980 -0.618931 -0.228976 0.184071 -0.566382 -0.307960 -0.286059 -0.785198 -0.681067 -0.646993 0.593295 0.635699 -0.329549 0.360197 0.152800 -0.756106 -0.495087 -0.828819 -0.695330 -0.808885 0.985120 -0.555798 -0.343531 0.553911 -0.695316 0.858221 -0.157467 0.930308 -0.106140 -0.341713 0.775927 0.493912 0.065864 0.768774 0.226881 -0.176651 0.306706 0.533116 0.945929 0.129446 0.554588 0.890375 -0.973105 -0.357088 0.531793 -0.038360 0.951062 0.469134 0.819929 0.475016 -0.399756 -0.187571 -0.056031 0.689707 0.850561 -0.699870 0.523320 0.346435 -0.133393 0.489727 -0.075896 -0.662077 0.509528 -0.186264 0.120716 0.422125 0.122481 -0.363087 -0.587979 -0.018766 -0.331632 -0.955952 0.822866 0.425568 0.130218 -0.171164 -0.352734 -0.008297 -0.519026 -0.305359 -0.342155 -0.733964 -0.781512 0.129919 -0.268910 -0.557110 -0.766472 0.507291 -0.007346 0.057057 0.370674 0.376212 -0.451904 -0.416176 -0.997986 0.850102 -0.825302 -0.009433 0.874090 0.452151 -0.714898 -0.997677 -0.505218 -0.915361 0.040929 0.899676 0.838918 0.007609 0.659746 0.155745 0.614051 -0.380717 0.094056 0.819768 -0.366729 0.832947 -0.014972 0.441131 -0.209679 0.857465 0.467985 -0.699166 -0.715448 -0.721004 -0.791465 0.700134 -0.572375 0.825951
0.982499 0.685897 0.491932 0.815681 0.307306 -0.068379 0.215321 0.600145 0.764834 -0.782021 0.703460 -0.991450 -0.940044 0.363594 0.937386 0.455336 -0.363996 -0.967666 -0.134347 0.342039 0.843664 -1.005582 -0.678392 0.680899 0.113094 0.395363 -0.488962 0.020814 -0.592418 -0.478869 -0.330550 0.147188 -0.275413 0.905554 -0.264108 -0.919266 0.710294 -0.157976 -0.401774 0.253228 0.208008 0.143359 -0.664583 0.903301 -0.156138 -0.821779 0.962137 -0.438456 -0.127946 0.947156 -0.573894 -0.709369 0.161538 0.199701 -0.451364 -0.434165 0.538679 -0.095422 -0.134305 -0.832649 -0.762626 -0.931250 0.258827 -0.647207 -0.459136 0.256878 0.513256 -0.378849 0.709560 -0.926744 0.410531 -0.508712 0.667210 -0.003202 -0.421986 -0.035923 -0.160066 0.102804 0.776212 0.777457 -0.906614 -0.540799 0.475872 1.015517 -0.881731 0.097004 0.739153 0.744225 0.300268 -0.789493 0.451593 -0.887184 0.650950 -0.400160 0.814663 -0.853691 -0.478715 -0.249126 0.754645 -0.277484 -0.367685 -0.979461 -0.622154 0.055735 0.392200 -0.450469 0.075687 -0.120521 -0.606426 -1.012243 0.176623 0.927215 0.231727 -0.272571 0.342453 -0.857787 -0.614576 0.198023 0.555826 0.567623 -0.893595 0.648007 0.790909 0.262256 0.751920 -0.130605 -0.967175 -0.314429
0.499154 0.520211 -0.365216 -0.479472 0.096206 -0.729710 -0.675200 0.999389 -0.980208 0.351334 0.595495 0.801746 -0.913959 -0.500312 -0.335410 -0.012412 0.575373 -0.238003 0.426575 0.718442 0.846537 -0.072818 -0.131475 0.787090 -0.179016 0.815981 0.268071 -0.536886 -0.766193 0.081728 0.343135 0.441691 -0.079488 0.215657 0.869794 -0.090402 -0.805629 -0.668427 0.892984 0.801819 -0.302232 -0.333432 -0.845568 -0.108984 -0.728945 0.836982 -0.157222 0.753389 -0.843725 -0.091179 -0.314184 -0.971894 0.539481 -0.193303 0.084827 0.905929 0.795144 -0.640791 0.082901 0.630200 0.043834 -0.051117 0.753543 0.411773 0.959633 -0.740910 -0.034773 -0.721956 -0.864373 -0.173134 -0.177029 -0.864259 -0.742276 0.909002 -0.289507 0.375182 0.128776 -0.450874 0.856264 0.405484 -0.207105 -0.305095 0.860427 -0.705267 0.052980 -0.783587 -0.069962 -0.556479 0.175037 0.860525 -0.459386 -0.402134 0.540213 -0.681973 -0.649721 0.564273 0.408195 0.169472 -0.838387 -0.883576 0.051539 0.380618 -0.476492 -0.999730 -0.030616 -0.493576 -0.084522 0.108388 -0.739872 0.140629 0.012843 -0.671524 -0.696285 -0.936196 -0.119643 0.905455 0.870627 0.292452 0.707089 0.716712 -0.021414 0.810851 -0.514378 0.920583 0.756360 -0.269183 0.056168 0.889565
-0.597326 0.037054 0.798612 0.421617 -0.310938 -0.924152 0.309004 -0.394165 0.882777 0.439920 0.176448 -0.920552 -0.799918 0.745496 -0.167476 -0.739850 0.115931 0.468203 -0.697185 -0.587704 -0.228960 0.199848 0.740743 0.504424 -0.990882 0.079145 -0.699514 0.758268 0.982410 -0.623286 0.886493 0.956812 0.974289 0.944795 -0.066899 0.870262 -0.387426 -0.264428 -0.804520 0.818145 -0.410153 -0.084262 -0.663678 0.714501 -0.612209 0.529656 -0.435249 -0.186600 0.892288 0.430513 0.847532 0.437033 -0.242890 -0.301223 0.680310 0.169228 -0.158004 -0.545569 0.833995 0.621580 0.919502 0.583443 0.502337 -0.525736 -0.186037 -0.133909 -0.734755 -0.515044 0.305538 0.632909 -0.018024 0.235042 0.248673 0.248720 -0.072785 0.144938 -0.358220 0.749909 0.211393 -0.792861 0.339770 -0.456381 0.444169 -0.754353 0.902660 0.300910 -0.296951 0.676284 0.474740 0.036663 0.320747 -0.066690 0.560580 -0.601825 -0.391960 -0.420392 -0.746501 0.160059 0.502574 0.736923 0.239925 0.466783 -0.420935 -0.187830 0.269368 0.598762 0.683626 0.892897 -0.217861 -0.083230 -0.625532 0.106502 0.549497 0.638120 -0.102093 -0.602389 0.094549 0.199718 0.398333 -0.123695 0.254991 0.931258 -0.029251 0.094319 -0.683419 -0.486251 0.380498 -0.756560
0.392514 0.489181 0.748100 0.573099 -0.533458 0.364690 0.983474 -0.196373 -0.070170 0.735842 0.719504 0.315779 -0.109458 -0.044319 0.120221 0.484804 -0.284752 0.878978 -0.810814 0.300243 -0.985585 0.550774 0.206100 0.511570 -0.933727 -0.905134 0.736888 -0.147096 -0.970898 0.627960 0.127551 -0.732117 0.402831 -0.095207 -0.538345 0.948096 -0.045444 -0.326171 0.596230 0.889960 0.899044 -0.927111 -0.658786 -0.981386 0.648967 0.888754 0.094961 -0.268921 -0.228896 -0.647951 0.420629 0.559032 -0.293934 -0.203289 0.002659 -0.617321 -0.845538 -0.578253 -0.543482 -0.963564 -0.916652 -0.017660 0.631576 -0.773822 0.161818 0.319049 -0.101732 -0.925330 -0.533454 -0.797766 -0.617984 0.059401 -0.601165 0.584030 -0.620861 -0.199967 0.417614 0.469943 -0.650737 -0.175185 0.918760 -0.185388 -0.851658 0.039954 0.438133 -0.316600 0.629279 -0.228011 -0.812157 0.706290 -0.346607 -0.402669 -0.993896 0.019788 0.830298 -0.053186 -0.438090 0.627346 -0.340640 0.664666 0.106254 -0.527259 0.101560 -0.091767 0.729458 -0.142581 0.178450 0.289422 0.129629 0.416782 0.087051 -0.894873 0.514746 0.765032 -0.501435 -0.694906 -0.931685 0.209676 -0.690374 -0.993654 0.178406 0.035141 -0.023586 -0.516844 -0.129090 -0.432200 0.922888 0.897926
0.880940 0.414549 0.081186 0.449870 0.704786 0.894756 0.253748 -0.432562 0.419722 0.252563 0.700949 0.497960 -0.518642 -0.322556 -0.374683 -0.395858 0.909337 -0.362479 0.843388 -0.038665 0.227533 -0.086471 0.747898 0.327796 0.692075 -0.366315 0.384478 -0.291878 0.040716 0.715072 0.899449 0.420700 -0.685278 0.573377 -0.884877 -0.167757 0.074006 -0.412779 -0.939275 0.338406 -0.547692 0.998247 0.747672 0.819890 -0.964292 0.744848 -0.742671 0.461757 0.068362 -0.216486 0.369188 0.309845 0.253754 0.159308 -0.132424 0.802157 -0.888822 -0.266679 -0.336520 -0.827827 -0.367067 -0.354289 0.721462 -0.060000 0.409482 0.951128 -0.756697 -0.029427 0.793101 -0.152727 -0.759242 0.514929 0.077542 0.877245 0.505299 -0.614781 0.226158 -0.703203 0.465045 -0.207158 -0.780207 0.087346 0.145872 0.638689 -0.111411 1.001112 -0.482396 0.599679 -0.761459 -0.654531 -0.562526 0.872306 0.246460 0.423309 0.375749 -0.647495 0.121218 0.407554 -0.284375 0.166234 0.230321 0.902744 0.843114 0.734188 0.690221 -0.358784 0.560907 -0.650480 0.892005 0.902049 0.357633 -0.974194 0.962499 -0.220370 -0.698149 -0.238741 -0.717942 0.901786 0.618435 0.911221 0.736773 -0.019368 0.640055 0.290122 0.744768 -0.797665 0.063337 -0.655475
0.260033 -0.016178 -0.943783 -0.220290 -0.883522 -0.908644 -0.641290 0.820414 -0.906505 0.623534 0.421271 0.070963 -0.916142 -0.500535 -0.737531 0.988812 0.496924 0.827236 0.944596 0.144194 0.811843 0.505108 0.863753 0.871154 0.075751 -0.755228 -0.807092 0.259220 0.364280 -0.732498 -0.323738 -0.089715 -0.863551 0.789898 0.221040 -0.503615 0.477736 0.881623 -0.155110 0.152692 0.021403 0.716331 0.818675 0.941327 -0.794960 -0.706029 -0.317329 -0.093826 0.083833 0.423703 -0.711822 0.333045 0.066154 0.039618 -0.989757 -0.637835 -0.641690 -0.123703 -0.654853 -0.373990 0.978728 0.313160 -0.595024 -0.265963 0.511705 0.334471 -0.573131 -0.432426 -0.144813 -0.517667 -0.978181 0.114776 -0.122954 -0.038224 -0.151483 -0.887010 0.886497 0.498887 0.362246 0.949371 -0.231278 -0.393072 0.432590 0.684410 -0.884219 -0.445685 -0.363435 0.319468 -0.582206 0.889957 0.505462 0.454901 -0.200798 -0.290885 0.281237 -0.932995 -0.243316 -0.995582 -0.249772 0.513303 -0.302039 -0.400774 -0.318734 0.543270 -0.400768 0.405933 -0.942685 -0.062485 -0.255042 -0.944042 0.987925 0.429727 -0.278322 0.817732 0.081721 0.577744 0.881087 0.949416 -0.058139 -0.539101 0.350387 0.200422 -0.925208 0.358847 -0.801525 0.113836 0.418286 0.683882
-0.028123 0.027224 -0.164572 0.299493 -0.086171 -0.592967 -0.115872 -0.409239 0.352601 0.932252 -0.517221 -0.323526 0.121326 -0.985318 0.907445 -0.500829 0.536098 -0.720464 0.218265 -0.047809 -0.164032 0.848045 -0.250675 -0.281989 0.646624 -0.021353 -0.504820 0.549999 -0.572000 0.969976 -0.566696 -0.512852 0.329702 -0.959721 -0.893203 0.551007 0.625946 0.242074 0.919539 0.202200 -0.226708 -0.129312 -0.180661 0.036809 -0.170552 0.944282 0.092142 0.249738 -0.756090 0.079553 -0.563396 0.346800 -0.999169 -0.858342 -0.074828 -0.781605 0.001104 -0.843133 -0.768187 0.680087 0.049500 -0.290501 -0.573954 -0.485698 0.307039 -0.317247 -0.348734 -0.493674 -0.131813 -0.506771 0.896742 0.729564 0.527667 0.263807 0.087553 -0.634554 -0.680371 -0.798014 -0.000310 0.647641 -0.226770 -0.770883 -0.702139 0.919751 0.783378 0.577254 -0.572135 0.984451 0.012461 -0.618497 0.705276 -0.214215 0.333160 -0.354346 0.275095 0.293782 0.307555 -0.217040 0.442891 -0.475691 -0.657914 0.161383 0.249375 0.001018 0.355428 -0.010145 -0.626933 -0.271051 0.457676 -0.572044 -0.409310 -0.987063 -0.544624 -0.913312 0.802635 0.359602 0.048716 -0.069687 0.974609 -0.353239 0.064073 -0.048622 -0.742169 0.473464 -0.629214 0.483958 0.568359 0.565372
-0.377271 0.905354 0.421855 -0.777692 -0.348803 0.647989 -0.821962 -0.320422 -0.161848 0.374242 -0.036191 -0.118234 0.541622 -0.044117 0.718918 0.916033 0.210579 0.863055 0.126266 0.957444 0.386763 0.825152 -0.504508 0.211881 0.560651 -0.218327 -0.231985 -0.346310 -0.819591 0.097295 0.764624 0.476579 -0.148031 0.852189 0.881099 0.862879 0.995629 -0.528497 0.604299 0.393087 0.835405 -0.971360 0.417252 -0.910324 0.704848 0.620280 -0.639674 0.597517 -0.390153 -0.731896 0.304176 -0.862526 0.825395 0.596318 0.706668 -0.915003 -0.740231 0.568197 -0.443559 -0.860589 0.362053 0.321443 -0.861898 -0.344429 0.733067 0.808312 -0.331943 -0.457042 -0.352056 -0.198028 0.161998 0.450366 0.820913 -0.336657 0.821699 -0.373953 -0.871630 -0.778619 0.424433 0.592031 0.562174 0.915116 0.983074 0.351425 0.774323 -0.482109 0.748072 -0.004756 0.850961 0.647530 0.750114 -0.502747 0.562797 0.933960 -0.818288 0.701324 0.292571 0.090725 -0.066618 0.398306 0.297744 0.825566 -0.437391 0.654638 0.465584 0.634934 -0.305663 -0.036827 -0.107420 -0.224057 0.213510 -0.576196 0.524388 0.111418 -0.126758 0.564854 -0.591854 -0.938240 0.705163 -0.055371 -0.512422 0.806330 -0.658825 -0.500810 0.292243 0.048745 -0.726578 0.704383
-0.033895 -0.286636 -0.294112 0.139915 0.163632 -0.683385 -0.397839 -0.712054 -0.077041 0.874338 -0.261754 0.738716 -0.414698 0.487394 -0.545013 0.126865 0.974833 0.444995 -0.640356 0.216549 -0.983239 -1.002710 -1.004490 -0.704346 0.067178 0.075922 0.029509 -0.479416 -0.900738 -0.447971 -0.260526 0.210378 0.909302 1.005089 0.079771 -0.803538 0.770938 0.667285 -0.217741 -0.697374 0.797759 -0.297897 -0.582528 1.000219 -0.978459 -0.111995 0.695733 0.808153 0.587963 0.069351 -0.066738 -0.938773 0.971890 -0.877753 0.427261 0.530982 0.987198 -0.293019 -0.310865 0.414865 0.501041 -0.215485 -0.888746 0.880555 0.935700 0.340898 0.310784 -0.592388 0.880835 -0.815081 -0.957164 -0.529013 -0.375825 0.700913 -0.250505 -0.968298 0.013353 -0.567841 0.949124 -0.297930 0.334270 -0.709235 0.268451 -0.345298 -0.107879 0.402444 -0.942195 -0.735658 -0.508791 -0.449866 0.982366 0.222776 -0.386588 -0.112378 -0.554601 0.496711 0.454995 -0.425776 -0.755103 0.107047 0.880855 -0.071497 -1.021062 0.096750 -0.131226 -0.900690 0.277321 0.652314 0.285219 -0.344346 -0.872529 -0.052843 -0.555125 -0.115461 0.178243 -0.314447 -0.477487 -0.921863 0.727641 0.413539 -0.788497 -0.178388 -0.118489 -0.735459 0.397951 0.875481 0.122015 0.137339
-0.148363 0.868210 0.006045 -0.563443 -0.753547 0.398869 -0.293649 -0.863700 0.183513 0.070919 -0.898281 0.208449 0.392329 0.169552 -0.609699 -0.045945 0.431702 0.189927 -0.101258 -0.148983 -0.362700 -0.729353 0.509269 -0.512635 -0.483172 -0.284916 0.353033 0.574449 0.215941 -0.094299 -0.211214 -0.046172 0.665917 0.849456 0.291727 0.316125 0.088448 0.092524 0.486360 0.650559 0.374689 0.347356 -0.636383 0.240036 -0.506811 0.861762 0.724916 1.001730 -0.986945 0.055778 0.502117 0.765753 -0.183641 0.631517 -0.704915 -0.803286 -0.064627 0.834418 0.678804 0.179591 0.285569 0.843202 -0.705550 0.628435 0.089732 0.207542 0.927577 -0.440984 0.785759 0.227229 -0.361763 -0.291444 -0.845413 0.371448 -0.015510 -0.894650 -0.672167 -0.595183 0.692407 -0.011675 -0.461740 0.789282 0.219403 0.398491 -0.609181 -0.855524 -0.907447 -0.719750 0.922847 0.598808 0.623577 0.930296 -0.331639 -0.471119 -0.854639 0.637019 -0.804112 -0.403694 1.009843 -0.320473 0.716823 -0.038871 0.265829 -0.576820 0.089103 -0.603342 0.135569 0.229282 0.867234 0.341080 -0.918109 -0.159247 0.658904 0.712350 0.253737 0.683649 -0.516119 0.428859 0.444048 0.418590 0.368209 0.028035 -0.094953 -0.187328 -0.557746 -0.474985 -0.404963 -0.627854
-0.036667 0.630006 0.938043 0.981242 -0.818645 -0.638684 0.942469 0.439790 -0.522329 0.813192 0.500557 -0.002862 -0.631540 0.692453 0.452875 0.611018 -0.269062 -0.755604 0.708629 -0.120729 -0.570010 0.787005 0.477400 -0.866848 0.119269 -0.464823 -0.407772 -0.996311 0.704657 0.313285 -0.528695 0.159184 -0.961099 -0.886184 -0.091608 -0.365784 0.871222 0.485755 -0.345420 -0.859076 -0.519449 -0.522834 -0.324664 0.574683 0.009371 -0.093341 -1.025281 -0.224403 -0.465761 0.760943 0.225595 0.661345 -0.562092 0.710621 -0.397427 0.990497 -0.567890 -0.613895 0.225774 -0.195477 0.235255 0.146942 -0.732766 0.506582 -0.462453 -0.394501 0.596672 0.442924 0.931058 -0.696011 -0.403832 -0.175160 -0.351738 0.544875 0.403682 -0.382629 0.132559 0.955215 0.964525 0.463754 -0.090200 -0.398524 0.641375 -0.583451 0.512880 0.840056 0.245273 0.030243 -0.590505 -0.939556 -0.659348 -0.235370 0.205731 0.488511 0.485072 -0.288994 0.916873 0.711796 -0.531568 0.629382 -0.967035 0.802922 -0.779619 -0.142033 -0.373457 -0.116325 -0.614550 -0.570384 -0.105537 0.489652 -0.870717 0.593724 -0.658658 0.710770 -0.370015 0.465914 -0.310241 0.480005 0.045877 0.466843 0.225919 0.564075 -0.182029 -0.014712 -0.002867 0.470994 0.667887 0.259968
-0.039614 0.438115 0.441854 0.475001 0.274957 0.944955 0.645715 0.196648 0.046388 -0.894461 0.155699 0.370427 0.909874 -0.782544 0.373497 0.734320 0.640690 0.150090 -0.321022 -0.630904 -0.477866 -0.607851 0.169986 0.616751 0.091047 0.198890 0.566858 -0.467611 0.085816 -0.201573 -0.735108 -0.895239 -0.235693 -0.488836 0.426515 -0.869498 0.916834 0.293171 -0.500293 0.934215 0.748294 -0.426188 -0.092677 -0.751855 -0.759086 0.404284 0.123889 0.640295 -0.369174 -0.917532 0.413649 0.214118 0.304152 -0.477149 0.224027 -0.281612 -0.505055 0.584678 0.163525 -0.036583 -0.868064 0.191146 -0.059800 -0.259012 0.849491 0.867403 0.885714 0.836470 0.083624 0.552825 0.837917 -0.466641 -0.945833 -0.979085 0.970303 0.700369 0.364529 -0.062069 -0.989751 -0.503446 0.808104 -0.245149 0.558198 -0.638763 0.945164 0.223861 0.244883 -0.900459 0.664214 0.288532 -0.410377 -0.968352 -0.567892 -0.306225 0.581318 -0.350099 -0.771120 -0.836723 0.240097 -0.475704 -0.088515 -0.554523 0.221917 -0.077411 -0.413359 -0.102250 -0.596802 0.593158 -0.491345 -0.253555 -0.575319 -0.244400 0.484969 -0.284244 0.700626 0.788395 0.295371 -0.661104 -0.891352 0.959730 -0.670268 -0.425279 0.816816 -0.683209 0.173767 0.272365 -0.550423 0.946431
0.717206 0.031732 -0.209249 0.767496 -0.406538 0.670639 0.627261 0.824244 -0.692067 0.864280 -0.701024 0.388704 0.118668 0.787051 -0.893557 -0.874329 0.042160 -0.650579 -0.508016 0.868478 0.068514 -0.118123 -0.729785 -0.932604 0.490549 -0.124637 0.222204 -0.664323 0.731316 0.922360 -0.736682 0.610155 0.895959 0.491563 -0.070971 0.254799 -0.947401 0.574489 -0.393931 0.863059 -0.050734 -0.180681 0.870789 -0.775455 0.773267 0.217689 -0.311300 -0.916928 0.081076 0.434976 -0.850516 0.735652 -0.734850 -0.250329 -0.743844 0.173515 0.638283 0.842088 -0.313709 0.732226 -0.701902 -0.808241 -0.388696 -0.463937 0.070877 0.642707 0.049730 0.425284 0.920603 -0.820971 0.638431 -0.929192 -0.805463 -0.807414 0.447877 0.464061 0.166739 0.493167 -0.751592 0.622058 -0.778827 -0.575653 -0.294209 -0.674837 0.288148 0.821775 -0.405335 -0.528574 0.870338 0.856013 0.594304 -0.656205 -0.967239 -0.083733 0.387160 0.669705 -0.591071 0.029042 0.411836 0.760669 -0.288363 -0.654213 -0.979753 0.013550 0.242782 -0.720725 0.591612 0.644957 0.224683 0.872940 0.416400 -0.950656 -0.652600 0.145497 -0.310751 0.055365 0.550096 -0.564791 0.745874 0.394070 0.941987 0.067468 0.353285 -0.230748 0.306083 0.556835 0.110010 0.972450
0.224296 -0.199113 -0.687142 0.476755 -0.067434 -0.585949 0.306907 0.301941 0.706746 -0.771790 0.305281 0.332142 -0.548704 0.836192 -0.517030 -0.612270 -0.756784 -0.515125 -0.952881 -0.831408 0.112254 0.723977 -0.023436 0.958285 -0.738406 0.083612 -0.877960 0.011623 0.971730 -0.287961 0.015845 -0.364192 0.523799 0.163166 -0.085366 0.036139 -0.244977 -0.636826 -0.038024 -0.942933 0.533854 -0.648560 -0.671133 -0.252440 -0.275940 0.006298 -0.509187 -0.492400 0.349944 -0.236789 -0.906755 0.544157 -0.572025 -0.037082 0.480941 -0.251084 0.249184 0.435247 0.921276 0.135175 0.309810 -0.493708 0.059798 -0.604059 0.231874 -0.785782 -0.582216 -0.792059 -0.414335 0.428284 0.213971 -0.332780 0.495891 -0.088927 -0.460481 0.613288 0.854939 -0.793840 -0.428415 -0.600251 -0.090845 -0.657811 0.380145 -0.963235 -0.314614 -0.983334 0.652199 -0.559901 -0.839843 -0.050457 -0.645223 -0.909153 0.920364 -0.386284 -0.710029 0.008435 -0.943673 0.770733 0.676440 -0.647896 -0.881922 0.989054 0.908961 0.557050 0.414470 -0.242036 -0.820098 -0.832128 0.136743 0.448388 0.610909 0.316801 0.266442 0.560864 -0.925210 -0.688188 -0.574240 -0.940207 -0.400033 0.335382 0.969494 0.475836 0.298721 -0.587638 -0.605225 -0.821018 -0.470770 -0.272294
-0.336185 0.524783 0.680330 0.342811 0.073021 0.832421 0.945853 0.114398 -0.060534 0.252819 0.234252 0.863445 -0.856850 0.851364 0.764044 0.841012 0.447369 0.669086 0.585541 -0.105949 0.548830 -0.057812 -0.241452 0.593035 0.813039 0.349518 -0.951725 -0.132701 -0.977519 -0.541985 -0.255664 -0.878981 -0.726855 0.324589 0.862910 0.484964 -0.021400 -0.372580 -0.695325 -0.602588 -0.194495 0.687868 -0.408490 -0.777174 0.920524 0.935977 -0.675403 -0.883428 0.108593 -0.562738 0.213706 0.242536 0.328920 0.873695 0.922516 -0.123570 -0.233122 0.171868 -0.731951 0.221869 0.621314 -0.139172 0.561656 -0.256692 -0.246282 0.012132 0.995404 -0.974082 0.735564 0.706096 -0.632838 -0.222177 -0.684818 -0.892415 -0.245865 -1.022714 -0.926765 -0.373831 0.935782 -0.772343 0.747196 0.116319 0.958315 0.812230 -0.612992 -0.850063 -0.722105 0.838644 -0.564731 -0.390864 -0.949239 -0.980597 -0.715248 -0.847959 -0.944863 0.922381 0.779071 0.821952 -0.155322 0.225567 -0.353798 -0.872463 -0.303630 0.086215 -0.073910 0.395994 0.223092 -0.704292 -0.430018 0.059849 -0.839854 0.472847 -0.858512 0.141910 0.599923 -0.728106 0.505849 0.101463 -0.784199 0.793785 0.375664 -0.243016 0.799912 0.557069 -0.746597 0.099895 0.851788 0.111199
0.351650 -0.690761 -0.962147 0.477644 0.898448 -0.798603 0.389512 -0.626074 -0.318228 0.133954 0.899706 -0.705418 0.441195 0.109666 -0.614433 0.525828 -0.536485 -0.803655 0.894434 -0.784510 -0.352412 0.405101 -0.210639 -0.158142 0.086962 0.752295 -0.441246 0.845691 0.976295 -0.597586 -0.959594 -0.938381 -0.350219 0.793878 0.807722 0.009150 0.665208 -0.230398 -0.190260 -0.820277 0.394269 -0.667506 0.909524 -0.827152 0.403782 0.236240 0.765859 -0.888489 0.880768 0.053632 -0.697356 -0.111895 0.136455 -0.619446 0.712903 -0.621284 0.428957 -0.435456 0.946210 -0.935324 -0.634164 0.507230 -0.429924 -0.899675 0.832586 -0.285544 0.788333 -0.182511 0.785853 0.324455 -0.155206 0.388238 0.344842 0.817301 -0.360511 0.124087 0.355174 0.247073 0.687841 -0.015681 0.154232 0.918849 0.185689 -0.469885 -0.760278 0.113578 0.590214 0.896941 0.750980 -0.444191 -0.509115 -0.742800 -0.584027 -0.549580 0.591204 0.458368 -0.296322 -0.365398 -0.834657 -0.786701 -0.003125 -0.005369 -0.783214 -0.807627 -0.110980 0.697555 0.133392 0.348662 -0.234716 0.670086 0.777524 -0.018956 0.584893 -0.231822 -0.367607 0.440755 0.961703 0.497613 -0.954745 -0.596610 0.824782 0.635011 -0.964119 -0.674322 -0.886046 0.679528 -0.009076 0.976806
-0.456250 0.790822 0.358491 -0.565759 0.663387 0.670723 0.422589 -0.738896 0.780218 -0.522519 -0.598798 0.857626 0.468235 -0.920196 -0.619587 0.984456 -0.908265 -0.973604 0.677286 0.480315 0.560263 0.353536 -0.674761 -0.999374 0.390961 -0.959993 -0.590958 0.852155 0.737642 0.003798 -0.996685 -0.590016 0.852503 -0.253448 0.667576 0.167620 -0.555431 0.957588 0.613186 0.546610 0.996359 -0.285739 0.755241 -0.767175 -0.237965 0.780841 -0.408629 -0.966504 0.827185 -0.439165 0.919933 -0.721476 -0.676870 0.537421 -0.025872 -0.976826 -0.911060 -0.129341 -0.461374 0.831210 -0.391977 -0.772311 -0.736909 -0.550614 -0.764507 0.121016 -0.540861 -0.979124 0.725153 0.212853 -0.807298 -0.020773 -0.088900 -0.473630 -0.723582 -0.683117 0.242513 0.381983 -0.030837 0.921277 -0.360323 0.579397 0.653192 -0.816893 -0.390348 0.127520 -0.675984 -0.469666 -0.259721 0.080010 0.024228 0.606077 -0.566273 0.618852 0.072197 -0.066810 -0.568269 -0.364953 -0.584621 0.440596 0.807679 -0.882526 0.113223 0.082655 0.995549 -0.526938 -0.671610 -0.269121 0.497116 -0.489227 0.346259 0.456255 -0.034433 -0.109857 -0.382211 -0.369384 -0.104839 -0.349914 -0.996875 0.890393 0.101207 0.375153 0.033738 -0.640784 0.776511 0.974964 -0.899659 -0.035024
0.305022 0.532884 0.144790 -0.259429 0.721004 -0.454207 -0.697122 -0.092611 0.858320 -0.300756 0.273942 -0.813376 0.220582 0.239844 0.233440 -0.896345 0.673414 0.751278 0.248243 0.327266 -0.254190 -0.018851 0.850308 -0.631830 0.192881 0.259073 0.989384 0.933711 0.888572 -0.883186 -0.804252 0.724425 -0.512887 -0.196879 0.026549 0.044981 -0.480888 -0.444424 -0.997350 0.055259 -0.212480 -0.129995 -0.839376 0.998702 -0.390798 0.658272 0.921086 0.761388 0.885859 0.718466 0.339526 -0.852568 -0.570413 -0.158371 0.396594 -0.498022 0.989018 -0.152737 -0.928162 -0.997922 0.886240 0.555102 -0.058306 0.993615 0.484459 -0.001054 0.338845 0.348226 0.493226 0.610932 0.142236 0.284703 -0.995883 -0.326958 0.625630 -0.908265 -0.316193 0.363769 0.128617 -0.139393 -0.112564 -0.024495 0.146890 0.509212 0.609221 0.728861 -0.218032 -0.175988 -0.682826 -0.061097 0.041463 -0.537366 -0.777709 -0.583090 -0.259442 -0.095233 0.416011 0.255604 -0.943782 0.408946 0.551678 0.762603 -0.509824 0.350642 -0.905678 0.164105 0.866795 -0.228622 -0.827999 0.262539 -0.750146 0.923887 0.002864 -0.640626 0.715086 -0.285527 -0.780757 -0.093406 -0.412191 -0.839976 -0.927354 -0.220852 0.829573 0.956239 0.912807 -0.036012 0.125125 -0.344351
0.425268 0.990270 0.629530 -0.873874 0.797443 -0.356094 -0.964060 -0.269371 0.103398 0.445250 0.890300 -0.691497 -0.077217 0.089490 0.577987 -0.491963 -0.835975 0.281308 0.491083 -0.619554 -0.239671 -0.296476 -0.811229 0.446967 0.897829 -0.455920 -0.154731 -0.502687 -0.191625 -0.555534 0.930407 -0.378341 -0.614163 0.989794 0.521398 -0.949241 -0.323251 -0.535644 -0.411674 0.923758 0.006316 -0.782906 0.803070 0.297108 -0.178388 0.732115 -0.332601 -0.953270 -0.001609 -0.890245 0.961069 0.296795 0.989049 -0.125945 -0.970870 -0.029723 0.057225 0.442197 -0.550359 -0.492575 -0.898682 -0.398181 0.452456 -0.485308 -0.929514 -0.578883 0.229802 0.233731 0.761054 0.541448 -0.127169 -0.056672 -0.501989 -0.181005 -0.148613 0.983504 0.780057 0.070758 0.852673 0.810348 0.349681 -0.406833 -0.555933 -0.450893 0.271865 0.757971 0.698948 0.677131 0.020722 0.619139 -0.857845 -0.331743 -0.173817 -0.574337 -0.566465 -0.624494 -0.427378 0.976453 -0.329183 -0.224081 0.769301 0.052132 0.251010 -0.056128 0.993155 0.089082 0.389505 0.872226 -0.923572 -0.721413 -0.846249 0.455435 0.514923 -0.548638 -0.415026 -0.203914 -0.061955 -0.158771 0.913739 -0.218606 0.945683 -0.735084 -0.891818 0.861742 0.654855 0.691105 -0.521240 0.326799
0.645553 0.044336 -0.419447 -0.307916 0.345192 -0.968847 -0.059909 0.227487 0.128673 0.517396 -0.980146 0.350538 0.722628 0.200795 0.733817 -0.359555 -0.228864 -0.131136 -0.847510 -0.886588 -0.315434 0.529615 -0.817222 -0.857838 0.395249 0.392747 -0.211347 0.704075 0.629040 -0.039939 0.479112 -0.228937 -0.760679 -0.689821 0.739275 0.423978 0.030436 -0.335911 0.495057 -0.370951 0.138388 -0.955031 0.070951 0.739860 0.329710 0.460851 0.358968 -0.725179 0.370168 0.043322 0.298846 0.457207 0.938121 -0.726239 -0.528276 -0.058456 0.676048 0.675232 0.232929 0.627496 0.825350 -0.615553 -0.836510 0.566291 -0.397968 0.344416 0.849496 0.191591 0.415329 0.640815 0.105663 0.067362 -0.641439 0.017638 0.452429 0.727267 0.855276 -0.991347 0.718868 -0.948800 -0.128608 -0.806537 -0.762209 0.622255 -0.797182 -0.228801 -0.795835 0.188916 0.210380 -0.506108 0.037255 0.228975 -0.117109 0.641177 0.855719 -0.240498 0.173291 -0.307033 -0.409310 0.205940 -0.017186 -0.497721 -0.193969 0.713089 -0.856122 -0.442463 0.904407 -0.983906 -0.726515 -0.659624 0.962258 0.165744 0.467351 -0.420946 0.648775 -0.523863 0.374380 0.321744 -0.060349 -0.520994 0.979156 0.290160 0.717742 -0.212207 -0.109013 0.942560 0.919315 0.036816
0.117853 0.626375 0.038663 -0.045884 -0.962092 -0.301552 -0.335723 0.441112 -0.042511 -0.356236 0.862792 -0.368308 -0.375686 0.906420 0.929007 0.101205 -0.617564 0.810957 -0.803706 0.967134 -0.411297 -0.315223 -0.391583 -0.381990 0.575148 -0.532454 0.373995 0.482521 -0.716783 0.816805 -0.523157 -0.768045 0.027783 -0.281316 0.738261 -0.206958 -0.025424 -0.630956 0.680219 0.085461 -0.354588 0.652513 0.148956 0.323870 -0.015525 0.830950 0.202528 0.152594 0.805848 0.437596 -0.770176 -0.003596 0.190167 0.097398 -0.664329 -0.648686 0.845305 -0.507473 -0.753055 -0.590279 -0.645115 -0.196233 -0.294443 -0.248355 -0.208943 -0.072693 -0.102587 -0.968122 -0.108912 -0.686335 -0.748764 -0.910468 -0.133628 -0.087981 0.333263 -0.548640 -0.779212 -0.234500 0.402195 0.041976 0.020072 0.265530 0.554212 -0.136585 -0.852959 0.129745 0.100322 -0.095052 0.613872 0.910094 0.125329 -0.282587 0.441928 0.975344 -0.403660 0.913385 -0.148916 -0.337559 0.952215 -0.097165 0.726722 0.153624 0.981339 -0.023385 -0.750841 0.186871 0.542326 0.099100 -0.058362 -0.691558 -0.836877 0.915815 -0.246538 0.861287 0.067470 -0.528521 -0.872010 -0.113467 -0.731749 -0.961545 -0.561201 0.041669 -0.271451 0.628443 0.660115 0.769081 0.986478 0.197459
-0.979407 0.678333 0.621252 0.046299 0.768039 0.768957 -0.805697 0.115314 0.365446 -0.689867 0.446932 0.591146 -0.566683 -0.175190 0.470568 -0.560190 0.605424 -0.568838 -0.322818 0.501184 -0.104812 0.478548 0.922623 -0.503747 -0.214055 0.424619 -0.097787 0.974588 0.021534 0.024665 0.040240 -0.270323 -0.579189 -0.854163 -0.222191 -0.318119 -0.236421 0.569073 -0.604787 0.790310 -0.263672 0.302721 -0.341738 0.677863 -0.114938 -0.552620 0.871023 0.986053 -0.592953 0.464967 0.874654 -0.177426 -0.858634 -0.350659 -0.005308 -0.011737 -0.014187 -0.447302 -0.048556 -0.148454 0.002090 -0.028836 0.614432 -0.000830 -0.243727 0.054415 -0.692655 -0.540266 0.654406 0.089731 0.578397 -0.802626 0.536959 -0.605646 -0.279536 0.927935 0.398737 0.561841 0.089915 -0.325834 -0.633219 0.121523 -0.440715 0.067545 0.466390 -0.492642 0.773381 -0.094649 0.338319 0.101155 0.897492 -0.040103 0.317834 0.953467 0.020487 -0.148475 0.865567 -0.104844 0.089791 -0.959248 -0.659419 0.676275 0.320424 -0.290505 -0.399127 -0.008804 0.746038 -0.090854 0.955487 -0.788011 -0.815908 -0.651906 -0.673973 -0.592288 -0.234406 0.887892 0.597208 -0.823839 0.373515 -0.855300 -0.517638 0.967390 0.919456 -0.510539 -0.096734 -0.134421 -0.399059 -0.076400
-0.970533 -0.617043 0.216092 -0.627120 0.842558 0.276832 -0.140088 0.520451 -0.581447 -0.227760 0.592919 -0.026332 0.901229 0.939001 -0.593810 -0.470136 -0.704291 0.123707 -0.414484 -0.418930 -0.418076 0.714158 0.462588 -0.807502 0.269716 0.333450 0.712114 -0.257972 -0.123719 -0.323776 0.924464 0.900852 -0.009182 -0.008409 0.450828 0.090499 -0.939049 0.613726 -0.274900 -0.761199 -0.546961 -0.909327 0.451269 0.116317 0.211075 -0.207522 0.166670 -0.384034 -0.506239 -0.568604 0.554153 0.613508 0.588245 0.802155 0.587880 -0.503596 -0.662122 0.988905 -0.014698 0.278874 -0.491390 -0.351961 0.469119 0.783621 -0.647715 -0.770957 -0.675009 -0.137976 0.416808 0.006056 -0.492780 0.704559 0.013200 0.051875 -0.001076 -0.179539 0.394611 -0.473784 0.064414 0.833714 0.444768 0.806950 0.643675 -0.352985 0.894623 -0.102196 -0.717757 0.389489 -0.181304 0.494076 0.045313 -0.720038 0.659219 -0.027240 -0.762986 0.226751 -0.649321 0.712967 0.796936 0.747799 -0.794147 0.841822 -0.781718 0.643578 -0.574011 0.856181 -0.564694 -0.107351 0.026876 -0.156066 0.978801 -0.536410 -0.391013 0.013590 -0.155482 0.996881 -0.396208 0.919095 0.575147 0.885156 -0.041033 0.811466 0.687969 -0.955145 0.892079 -0.619812 0.198172 -0.954407
0.267213 0.031123 -0.889563 0.030116 -0.849387 0.866874 0.045208 0.729099 0.615039 0.187601 -0.390647 0.314046 -0.643359 -0.614418 -0.159925 0.990308 0.619204 -0.053230 -0.570435 -0.824359 0.467454 -0.742260 -0.594648 -0.541735 0.271556 -0.426616 -0.344048 0.104234 -0.769260 -0.938866 -0.714327 0.606282 0.943907 -0.596412 0.092353 -0.935797 0.864955 -0.807427 0.427880 -0.783828 0.044676 0.702129 -0.782996 0.868512 -0.262927 0.983410 -0.871070 -0.268796 -0.296690 -0.093842 -0.406298 -0.962199 0.853413 -0.779319 0.827076 -0.276118 -0.597236 -0.858181 -0.586693 0.601855 -0.273472 -0.941493 -0.846116 -0.605690 0.852453 -0.223526 -0.373237 0.663776 0.665786 -0.416845 -0.313315 0.978330 0.731077 0.619748 -0.139907 -0.620427 -0.274742 -0.512536 0.603709 -0.835030 -0.290030 0.080898 0.209661 -0.635615 0.251801 -0.307385 -0.321384 -0.262930 0.799825 -0.763355 0.913503 -0.819776 -0.751310 0.518045 0.720020 -0.244436 0.665161 -0.837432 -0.136536 -0.006062 0.848727 -0.916505 0.504261 0.405635 0.878911 -0.840212 -0.297581 -0.651425 0.119375 0.116216 -0.211208 -0.141296 -0.752716 -0.778991 -0.494769 -0.655882 0.061161 -0.822375 -0.751686 0.175894 0.217467 0.329802 -0.794067 -0.133314 -0.812568 -0.819810 0.560381 0.299990
0.889627 -0.875906 0.551355 -0.180984 -0.307566 -0.850802 0.456929 0.573714 -0.888622 -0.141347 0.822172 0.440476 -0.954944 0.111372 0.893993 -0.050211 0.463194 0.648019 -0.563021 -0.429064 0.849191 -0.940906 -0.819862 -0.370927 -0.826397 -0.041170 -0.548530 -0.004071 -0.771151 -0.730854 -0.980378 0.728270 -0.746915 -0.643546 -0.950606 0.712536 -0.819753 -0.513769 0.960473 -0.044254 0.080693 -0.560124 0.845464 -0.750319 0.313395 0.756447 -0.789103 0.699733 0.994293 0.081986 -0.896767 -0.694017 -0.434132 -0.591599 0.220988 0.333833 0.288012 -0.839707 -0.873456 -0.259692 -0.304379 0.700955 -0.728738 -0.588742 0.619872 -0.804306 0.248428 -0.241066 0.616114 0.199540 -0.363776 0.898201 -0.391073 0.382855 -0.692282 0.985203 0.818748 0.594733 -0.336684 -0.662903 0.165488 0.769326 0.690431 0.915177 0.082835 -0.019135 -0.915150 -0.697021 -0.972248 -0.946551 -0.381284 -0.170114 0.348309 0.233198 -0.441605 0.346599 0.127299 -0.656158 0.937385 -0.038073 0.080282 -0.264971 -0.878716 -0.411495 0.131366 0.549299 0.189789 -0.231841 0.944428 0.103722 0.893367 -0.470205 -0.858777 -0.051191 0.922401 -0.174530 -0.054810 -0.488041 0.782638 -0.601408 -0.148100 0.707064 -0.593646 0.312116 0.580088 0.302814 -0.167535 0.736908
0.301271 0.337613 0.092055 0.534920 -0.880829 -0.097065 0.023193 0.132316 -0.832152 0.539469 -0.572163 -0.087184 0.853608 -0.555893 0.049871 0.082365 0.376037 0.408329 -0.099229 -0.119546 0.929521 -0.107955 -0.645939 -0.989276 0.120336 -0.375348 -0.354389 -0.061275 0.562078 0.732732 0.529360 -0.749088 -0.650527 0.728944 0.564984 0.997472 -0.019545 -0.602644 0.233920 0.788830 -0.558458 -0.020405 0.350526 0.644500 -0.842456 -0.333579 -0.888258 -0.186733 0.951440 0.700518 0.429176 0.785966 -0.592049 0.328457 -0.551550 -0.180540 -0.937204 0.153350 0.530218 -0.057586 -0.690225 0.901048 0.036146 0.444012 -0.765400 0.654070 0.500140 -0.530880 0.218029 0.588638 0.274783 0.098362 0.431077 0.407339 -0.618591 -0.659365 0.028398 0.011975 -0.329609 -0.805243 0.876075 0.912176 -0.025954 0.276167 0.854628 0.229149 0.555361 -0.100301 0.800006 -0.479147 -0.445587 0.386940 -0.672197 0.321896 0.921058 -0.854247 0.922725 0.310623 -0.113861 -0.754081 -0.187314 -0.345309 0.472334 0.452192 0.718607 0.160811 -0.828875 0.604321 -0.236614 -0.868794 0.565228 -0.032082 0.471393 0.801142 -0.405444 0.968705 -0.359841 0.639985 -0.865118 0.315057 0.470467 0.060646 -0.676245 0.825354 0.335573 -0.637956 -0.755197 -0.065817
0.984831 0.114737 -0.716563 -0.986710 -0.229327 -0.544525 -0.130642 -0.205618 0.399967 -0.933821 -0.538977 -0.001586 0.179530 0.509248 1.011921 -0.055452 -0.249881 -0.516325 0.062376 0.514449 -0.689963 0.775791 0.378703 0.881064 0.263318 -0.789206 0.063453 0.037691 -0.665509 -0.415445 0.107130 -0.411381 -0.993437 -0.943360 0.864216 0.271668 0.737277 0.081530 0.058312 -0.512947 -0.243154 0.323690 -0.525668 0.436232 0.844528 0.086684 0.851775 -0.140843 0.925762 -0.218652 -0.846592 0.569634 0.614567 0.205536 0.139560 -0.355071 -0.915298 -0.431148 -0.280980 -0.128785 -0.307364 -0.688348 0.685998 0.825098 -0.777135 -0.892502 -0.773993 -0.589344 -0.869881 0.318800 0.693579 -0.020623 -0.733830 -0.497976 -0.413413 0.595854 -0.248514 0.141118 0.145447 -0.036803 -1.008743 -0.188266 -0.413805 0.804226 -0.113569 -0.403882 0.905978 -0.102720 -0.470734 -0.821104 0.046488 0.595189 -0.998405 -0.435919 -0.553849 0.821209 0.931800 -0.306320 -0.045716 -0.213687 0.672095 0.255757 0.108733 -0.691712 -0.646336 -0.291353 0.445901 0.344657 -0.843543 0.284546 0.909396 0.208680 -0.923536 -0.935695 -0.970860 0.499145 0.333920 -0.400267 0.741570 -0.250874 -0.556880 -0.275698 0.999103 0.206471 -0.750828 -0.692229 0.043743 0.237141
-0.929956 -0.297957 0.513537 0.031760 -0.614390 -0.051196 -0.556456 -0.736808 0.615031 0.785285 -0.936512 -0.776799 -0.974332 0.888872 0.221357 0.112878 -0.315674 0.277512 0.747689 -0.311133 -0.945780 -0.470800 0.108408 -0.809474 -0.431314 -0.760037 0.903749 -0.556031 -0.737302 -0.089840 -0.811638 0.543365 -0.385006 -0.107053 -0.668720 -0.734952 -0.508596 0.449837 0.773924 -0.546194 -0.299363 -0.468019 -0.175424 -0.937641 -0.030943 -0.364450 -1.006159 -0.308585 0.717947 -0.141840 0.769051 -0.035979 0.301660 -0.315987 -0.885956 0.538757 0.286975 0.401588 -0.281184 0.935113 0.956620 0.579118 -0.419342 0.936997 0.489826 0.014861 -0.146635 0.276910 0.340995 0.638235 0.856069 -0.915057 -0.846605 -0.135765 0.159844 0.933627 -0.248466 -0.883045 0.542385 0.430279 0.603893 0.108729 -0.578415 -0.809394 -0.938772 0.326144 -0.439097 -0.803595 -0.451534 0.479902 0.251617 0.524779 0.983543 -0.505428 -0.938003 0.064848 -0.540569 -0.284333 -0.890930 0.947675 0.533853 -0.302145 -0.258074 0.653527 0.039576 -0.272339 -0.805489 0.145389 -0.101258 -0.137180 0.115788 0.537574 -0.404646 -0.604960 -0.159994 0.854638 0.364512 -0.941705 -0.486502 0.352301 0.217856 -1.014673 -0.040694 0.562026 0.743944 0.453283 0.046975 -0.300750
-0.719621 0.330570 0.005822 0.832107 -0.228767 -0.832604 -0.859481 0.606526 0.700237 -0.570663 -0.089864 -0.381519 0.903790 0.875159 0.232007 0.433382 0.339911 -0.459222 0.436750 -0.874796 -0.879960 0.185190 -0.501395 -0.100447 0.048511 -0.357373 0.831022 -0.889702 -0.602077 0.412647 0.206148 0.589476 0.984190 -0.733797 -0.872239 -0.439867 0.995170 -0.498080 -0.690703 0.664806 0.973049 -0.566808 -0.631198 0.418327 -0.701350 -0.645523 -0.813780 -0.594062 -0.152954 0.225799 0.382400 -0.393526 -0.385056 -0.920638 0.588995 0.210702 0.509959 -0.588011 0.849532 0.235268 0.112094 0.116070 -0.219958 -0.529384 -0.327325 0.087780 0.635703 -0.350122 -0.169814 0.085654 -0.049936 0.693215 -0.369937 0.990351 0.898518 0.682572 0.966589 0.250210 -0.099734 0.210976 0.661958 0.069604 -0.912070 0.978518 0.792277 0.245861 0.956534 0.408077 0.864142 -0.814241 0.417525 -0.224698 0.892355 -0.943970 0.769484 0.755194 0.244778 0.591026 -0.005172 0.766652 0.815471 -0.049172 0.582120 -0.837431 0.168271 0.340285 0.869415 -0.385672 0.867706 0.619895 0.986284 0.626372 -0.944060 -0.741160 0.493747 -0.538983 0.067827 0.190769 0.732897 0.232395 0.248669 -0.849807 0.623514 -0.104440 0.350302 0.754938 -0.514403 -0.487061
-0.643853 0.394362 0.539776 0.020663 0.070200 0.290927 0.245009 -0.172990 0.064144 0.046151 0.759692 0.091762 0.205526 -0.857387 -0.550957 0.422720 0.146594 0.897790 -0.170944 -0.515686 -0.766477 -0.421323 -0.596599 -0.502309 -0.364542 0.278440 0.751838 -0.356023 -0.197759 0.591630 -0.833766 0.156154 -0.112404 0.400040 -0.577022 0.149675 -0.216667 0.646779 0.494282 -0.707788 0.668888 -0.231230 0.510778 0.175934 0.821813 0.832424 -0.267898 0.818594 -0.633436 -0.012762 -0.474097 -0.976250 -0.324726 0.443651 -0.790855 -0.603061 -0.002500 0.603026 -0.648157 0.009566 -0.129190 0.734833 0.558401 -0.980798 -0.164582 0.890289 -0.153211 0.840178 0.740746 -0.104951 0.926658 0.648295 0.462882 0.271220 -0.739313 -0.432030 -0.129033 -0.490078 0.689281 -0.446501 -0.440051 -0.421364 -0.666357 -0.530616 0.543220 -0.565666 -0.996395 0.223295 0.121698 0.491131 0.525369 0.250554 -0.694770 0.452353 -0.116159 0.445132 -0.329646 -0.776244 0.726754 0.274365 0.682883 0.821791 0.817928 -0.702876 0.066576 -0.517141 0.891799 0.777051 -0.081032 0.200149 -0.660115 0.703713 0.022625 0.634175 -0.827595 -0.985994 0.518062 -0.277775 -0.400837 -0.761140 -0.991843 -0.244519 0.920864 0.217161 -0.972658 0.391407 -0.697472 0.676747
-0.852361 -0.558935 -0.266502 -0.057808 0.125501 0.656179 -0.288520 0.745024 0.973428 -0.047018 -0.458396 -0.944435 0.022254 0.533487 0.916698 -0.817329 0.272749 0.041955 0.816553 -0.164064 0.075159 -0.888527 -0.144652 0.453975 -0.084129 -0.291763 -0.535228 0.048677 0.067617 -0.857772 0.796395 -0.141807 0.096292 0.709203 -0.019715 -0.679329 -0.834891 0.445369 0.928381 0.506753 0.168868 0.571654 -0.748949 0.407184 0.078049 0.899872 -0.217294 0.053587 -0.948021 -0.033908 0.294123 -0.583993 -0.294902 0.377073 -0.178834 0.787148 -0.715334 0.775662 0.355630 0.583166 -0.063618 -0.264169 0.049751 0.320289 0.053179 0.191176 -0.541540 0.517528 -0.084715 0.229704 -0.825070 -0.857015 -0.312744 0.170303 -0.129791 0.486117 -0.709559 0.369453 -0.912048 -0.532129 0.280720 -0.431900 -0.630661 0.732875 0.543813 0.740382 -0.876802 0.249503 0.956952 -0.871590 -0.964650 -0.995830 0.960280 -0.175846 0.070366 -0.384165 0.739168 -0.311560 -0.529195 0.484334 0.872537 -0.118593 0.495880 0.611277 -0.306272 0.441557 -0.793537 0.758760 0.906674 0.684771 0.341980 -0.346958 -0.656102 0.810938 0.617775 0.473106 0.022659 -0.334627 0.452374 0.985400 0.306718 0.550743 -0.556867 -0.593324 -0.791295 -0.002625 -0.970438 -0.582930
0.854621 -0.538830 -0.357608 -0.580370 0.574357 0.103607 -0.357364 0.585826 0.468461 0.709672 0.899068 -0.690643 -0.592655 -0.868373 0.096785 0.742530 0.254229 -0.422303 0.185508 -0.763189 0.490680 -0.726873 -0.310704 -0.109360 0.032032 -0.519141 -0.266476 -0.467074 0.785447 -0.710490 -0.111128 0.448297 -0.891134 -0.597999 -0.588738 -0.184472 0.806912 0.248194 -0.632435 -0.944908 0.692741 0.917516 0.529705 -0.884419 0.719523 0.364940 -0.448976 -0.062660 -0.677909 -0.979155 0.338169 0.936037 0.420610 0.276588 0.311992 -0.976433 0.796557 0.907787 0.306658 0.023861 -0.323008 1.005958 -0.684768 -0.192357 0.319816 -0.520211 -0.275753 0.360593 -0.388341 0.812349 -0.565260 0.934754 0.623039 -0.473273 0.080879 0.208693 -0.127496 0.730558 0.139536 0.585871 -0.115533 -0.214699 0.122010 -0.583652 -0.392722 0.912924 0.093655 -0.599319 0.731362 0.968002 0.526514 0.303017 0.683605 0.518793 -0.583919 0.935148 0.676512 0.392201 -0.337786 0.586336 -0.323412 0.790584 -0.125941 -0.100607 0.842583 -0.635987 0.374480 0.306910 -0.318600 0.344994 0.532056 -0.975390 -1.006172 0.440749 -0.608873 0.218641 0.282544 0.993021 0.203842 -0.698235 -0.273510 0.701288 0.382471 0.891845 -0.757796 -0.624697 0.336631 0.834713
-0.329270 -0.449540 -0.071507 -0.176723 -0.407868 0.419288 0.459446 -0.609569 0.133596 -0.244815 0.432632 -0.442345 -0.309762 -0.783305 0.681069 -1.000043 0.831645 -0.263936 0.728954 -0.744299 0.057986 0.898082 0.274675 0.342808 -0.224272 -0.304672 0.621824 0.346510 0.939761 -0.746804 0.413381 -0.496924 -0.950260 0.447417 0.393667 -0.940819 -0.350959 0.532280 0.690524 -0.612972 -0.879876 -0.514408 -0.354839 0.711860 -0.405081 0.285296 0.046521 0.512358 -0.504081 0.294158 0.856615 -0.227354 0.388712 0.518799 0.959759 -0.994634 -0.336933 -0.725744 -0.586135 0.579506 0.445709 -0.305064 -0.890100 0.444746 -0.126090 -0.731643 0.927873 0.024383 0.608197 -0.497013 -0.303411 0.196606 0.940125 0.961986 -0.389704 0.129552 -0.351813 -0.758424 -0.599341 -0.612695 0.068939 -0.599827 0.027279 0.133033 0.103228 -0.518529 -0.091348 -0.099253 0.963376 0.239193 0.629349 -0.608390 0.207439 -0.623061 0.913131 -0.204103 0.036826 -0.204229 -0.381206 0.177275 -0.157294 -0.791913 -0.774167 -0.921246 0.770860 -0.073577 -0.649557 0.243047 -0.717249 -0.582869 -0.941548 -0.129298 -0.778634 0.310593 0.507562 -0.957121 0.267098 0.185532 0.784381 0.218275 -0.519116 -0.691014 -0.720203 0.037218 -0.961801 0.490027 -0.430357 -0.784474
0.651189 -0.385434 -0.836074 -0.131820 -0.436901 0.164268 -0.013503 0.869890 0.397212 0.339605 -0.462412 -0.329532 0.916028 0.836084 0.384687 0.903428 -0.161387 -0.030788 0.217184 -0.603029 -0.094327 0.568778 -0.069470 -0.444325 -0.934931 0.952071 0.071578 0.626295 -0.052565 -0.056770 -0.738545 0.600706 -0.313794 0.867560 0.476163 0.592695 -0.931430 -0.400736 0.658967 0.165168 0.908798 -0.063218 -0.565404 0.918387 0.168621 -0.794164 0.280963 -0.640468 0.457470 -0.208335 -0.172885 0.909997 0.102474 0.414161 0.369195 0.033547 0.263483 0.780742 -0.019991 -0.553553 0.047285 0.533780 -0.459308 0.845146 -0.337254 -0.099566 0.098758 -0.608154 -0.736771 -0.757419 -0.209960 0.689977 -0.061401 0.437464 -0.150883 0.524473 -0.112821 0.491265 -0.391263 0.172154 0.064895 -0.999131 0.662394 0.183962 -0.327725 -0.473796 -0.426744 -0.304913 -0.523887 0.920029 0.397808 -0.000020 0.317327 -0.001411 -0.513896 0.294764 0.920680 -0.615216 -0.291183 0.190485 -0.612247 0.960953 0.513319 -0.430570 0.159862 0.586446 -0.031149 -0.965201 0.222005 -0.437327 0.727077 0.733957 -0.285786 0.500479 -0.646489 -0.818783 -0.770450 0.301210 -0.802517 -0.046785 0.622602 0.733093 0.187115 -0.009228 0.871386 -0.190769 -0.205902 0.399687
0.894780 -0.410627 -0.608556 0.980045 -0.025094 0.546875 0.154736 0.032563 0.283881 0.941606 0.861353 -0.124744 -0.110482 0.025853 -0.605251 0.100193 -0.799776 -0.494657 -0.078673 -0.008540 -0.256602 -0.232160 0.977681 0.885883 0.452353 0.760146 0.056260 0.466073 0.123751 0.167865 0.545903 -0.404194 -0.462134 -0.914046 0.356885 -0.075793 0.288688 -0.399626 0.924302 0.033444 0.149465 -0.051332 0.544735 0.774074 0.439880 -0.708325 0.077842 0.622979 0.971422 0.071257 -0.114811 -0.470754 0.390024 -0.649648 -0.801710 -0.455725 -0.201601 0.585237 0.980386 -0.084062 -0.714918 0.207469 -0.592205 -0.037588 0.595639 -0.486263 -0.642962 0.247437 -0.553518 -0.222847 -0.945160 0.436611 0.101801 0.199665 -0.597803 -0.822430 0.775575 -0.995795 -0.157735 0.539960 0.532042 -0.362819 0.642505 0.618633 -0.008227 0.771874 -0.737675 0.007589 0.665409 -0.396145 -0.194621 0.492287 0.566245 0.618823 0.731626 -0.082624 0.341203 -0.647731 -0.225927 0.139433 0.500085 -0.234871 -0.110421 0.833388 -0.670954 -0.923557 -0.470878 -0.088202 -0.402239 0.130022 -0.530250 0.069809 0.652624 0.655911 0.731415 0.444400 -0.722138 0.233880 0.925446 -0.556121 -0.417728 0.304646 -0.893654 0.941493 -0.082888 -0.580932 0.826287 -0.831555
-0.431365 -0.662790 -0.179528 -0.151825 -0.718781 0.294828 0.922598 0.257067 0.420899 -0.855367 -0.660605 0.563470 0.431031 0.467668 0.017029 -0.838440 0.854112 0.285766 -0.672629 -0.633835 -0.221058 -0.541776 0.433205 0.554376 0.737294 -0.803104 0.354947 -0.525103 -0.774101 0.966856 -0.609821 -0.304011 0.619288 -0.051060 -0.442503 -0.766449 -0.088945 0.110400 0.167043 0.021989 0.770019 -0.341202 0.914631 -0.414087 0.357682 -0.990996 -0.947315 -0.709680 -0.557591 0.488347 -0.036552 -0.025238 0.076178 -0.291161 0.310059 0.288439 -0.550108 0.180629 0.686255 0.922993 -0.850148 0.174695 -0.522176 0.644603 -0.188277 0.540568 -0.393855 0.077891 0.482990 -0.845528 -0.210117 -0.382896 0.341799 0.912028 -0.680795 0.588284 0.074810 0.676018 -0.396047 0.779228 -0.812553 0.320083 -0.459777 -0.320415 0.595232 -0.233306 -0.509519 0.858335 0.196484 -0.628023 0.350731 0.069121 0.515256 -0.016265 -0.866387 -0.445492 0.148551 -0.950146 0.416715 0.816312 -0.551192 0.380188 0.429073 0.152019 0.358641 0.620269 -0.889377 0.724863 0.882846 0.257796 -0.301200 0.071893 -0.560723 0.856895 -0.808077 0.805178 -0.274403 0.201352 0.766348 0.612324 -0.571335 0.862823 -0.238957 -0.474114 -0.587206 0.639302 0.758740 0.016402
-0.169210 0.296147 -0.657585 -0.784978 -0.574932 -0.685061 -0.483013 0.008588 -0.795238 0.968625 -0.932825 0.832512 0.744974 0.902308 0.112040 0.957412 0.260039 -0.683679 -0.995721 -0.183990 -0.381079 0.265853 0.018367 -0.694466 -0.579950 -0.396054 0.911445 0.106878 -0.322754 0.013030 0.779484 0.529926 -0.697773 0.073877 0.103205 -0.871139 0.080514 -0.986070 0.188108 -0.105720 0.815622 -0.647377 -0.556175 -0.693191 -0.966447 -0.676041 0.015292 0.751878 -0.674253 0.082088 -0.650612 -0.096600 -0.263439 0.501788 0.150230 0.933634 0.448693 0.954029 -0.737133 0.879970 -0.301659 0.041939 -0.887179 -0.120965 -0.044081 -0.086401 0.719027 -0.368022 -0.773328 0.614022 -0.530774 -0.256862 -0.671831 0.815887 -0.034594 -0.421224 -0.440466 -0.663636 -0.955719 -0.299015 0.346684 -0.090261 0.863283 0.087386 -0.515179 0.262159 -0.485200 -0.912838 -0.726308 -0.910542 -0.601810 0.601559 0.412580 0.477775 0.129427 -0.714123 -0.243316 -0.673293 0.717192 -0.213750 0.751912 -0.877211 -0.886692 -0.470158 -0.130432 -0.195291 0.543804 0.814882 0.415722 0.034996 -0.048347 0.102107 -0.151005 0.062742 0.872784 0.420467 0.460916 -0.548637 -0.734197 0.148311 0.218190 0.745537 0.741701 -0.408918 -0.931663 -0.402140 0.755869 -0.054169
0.523355 0.001682 0.830684 0.652376 -0.129755 0.107952 -0.914225 -0.051669 -0.697948 0.247161 0.501480 0.987410 0.087543 -0.941747 0.098381 0.192033 0.267318 0.185979 0.409310 -0.728449 0.224741 -0.105008 0.419155 -0.147345 -0.525906 -0.936869 0.535687 -0.348244 -0.201474 -0.035801 -0.704691 0.420911 -0.867769 -0.227658 0.577855 0.985278 -0.823683 0.175895 -0.011967 0.405205 -0.592815 -0.443882 0.852127 -0.306410 0.794519 0.312604 0.642222 0.727378 0.419437 -0.104276 -0.731119 0.399670 -0.380453 -0.259852 0.938102 -0.096562 0.661991 -0.449607 -0.205639 0.335967 0.126159 0.345014 0.073369 0.846630 -0.641249 0.360873 0.910668 0.218982 -0.565504 -0.359495 0.804739 0.252228 0.114331 -0.245760 0.868246 -0.717005 -0.627070 -0.554139 0.194096 -0.760058 0.094058 0.408081 -0.145699 0.595397 0.817997 0.118626 0.710205 -0.570378 0.631802 0.700975 0.067493 0.499746 -0.333194 -0.466003 -0.627704 -0.039029 -0.915437 0.144810 -0.595824 -0.876713 -0.898997 -0.801779 -0.490390 -0.983765 -0.691526 -0.072273 -0.140598 0.449289 0.811180 -0.389447 0.690924 0.507660 -0.025727 -0.093501 -0.820715 0.790453 0.333581 0.963406 0.535880 0.852860 -0.658576 -0.139210 0.261551 -0.666312 0.757849 -0.791740 -0.444983 0.832482
0.753136 -0.513739 -0.909403 0.138827 -0.072141 0.453340 -0.736552 -0.418413 -0.575549 0.442628 -0.088368 -0.516561 -0.938638 0.850601 -0.745909 0.838763 0.786710 0.427080 -0.693310 -0.349265 -0.338655 0.771366 -0.536610 -0.065285 0.964778 0.097539 -0.597043 -0.042383 0.753373 0.208816 -0.260437 -0.312476 0.177220 0.288783 -0.774393 0.737826 0.486369 0.575930 -0.061737 -0.319251 -0.480821 -0.405535 -0.537777 -0.938355 0.137978 0.397397 0.143967 0.554642 0.034863 -0.716465 0.353623 -0.263167 0.603199 0.671504 -0.316414 -0.931122 -0.273163 -0.899295 -0.577483 -0.592971 -0.658706 -0.893101 0.067796 0.299111 0.275953 0.876117 -0.927448 0.904101 0.280149 0.424023 -0.914907 0.913930 -0.772439 -0.021742 -0.528123 0.165202 -0.432220 -0.377268 0.452589 0.715836 0.925155 0.916290 -0.803120 0.772813 -0.692772 0.900738 -0.090431 -0.633995 -0.562368 0.002150 0.727490 0.637765 0.458714 0.988088 0.620002 0.180307 -0.082099 0.607077 -0.745299 -0.378778 0.606680 -0.494711 0.259425 0.178083 0.545521 -0.890433 -0.913907 0.756784 -0.422064 -0.256420 0.405944 0.520491 0.319324 -0.153131 0.839145 -0.035543 -0.171162 0.240920 -0.750047 -0.614618 -0.956994 -0.721104 -0.016621 0.765308 -0.999755 -0.682590 0.371847 -0.387944
-0.266621 0.328105 -0.157001 -0.461360 -0.104361 0.354741 0.616963 0.088217 0.712369 0.570159 -0.211542 0.109528 -0.111213 0.577608 0.072533 -0.083071 -0.990836 -0.772574 -0.749235 -0.271276 -0.004722 0.566356 -0.811358 -0.900664 -0.702893 -0.852534 0.796798 -0.599613 -0.466356 0.226557 0.379225 -0.273659 -0.323272 -0.640657 0.808795 0.581233 0.859225 -0.353977 -0.659606 -0.704080 0.626966 0.048029 -0.276698 0.383150 0.190028 0.051240 0.628357 0.366116 -0.434084 -0.767338 0.558111 -0.160756 -0.825606 0.516849 -0.765476 0.584701 -0.623312 0.132686 -0.948471 0.307422 -0.710886 -0.334865 -0.309855 -0.305620 0.555251 -0.986049 -0.816635 0.840099 -0.202770 -0.083078 -0.027662 -0.289810 0.479210 -0.506498 0.754427 -0.242945 -0.079149 0.687149 0.175970 -0.142562 -0.358815 0.506233 0.539160 0.008569 0.448902 0.562160 0.080220 0.195237 -0.376422 0.213157 -0.855436 0.508541 -0.794342 -0.124634 -0.267965 -0.104078 -0.765760 -0.259688 -0.211266 -0.068407 0.633791 -0.221340 0.488581 -0.112386 0.141463 0.750894 0.680291 -0.210728 0.874904 -0.055444 -0.358782 0.935039 0.915538 -0.678408 0.275995 0.663552 -0.012797 0.294375 0.449732 -0.604089 0.234345 -0.524544 0.679930 0.027947 -0.184789 -0.854135 0.015411 0.083393
-0.832472 -0.456684 -0.779920 0.926831 0.527798 -0.277668 0.544459 0.865360 -0.589769 0.344921 -0.180119 -0.878881 -0.719165 -0.584477 -0.139686 -0.168669 0.917210 0.857992 -0.582616 0.247674 -0.568050 0.071495 0.652214 0.409186 0.352822 -0.652817 0.806374 0.975686 0.476767 0.277304 -0.399256 -0.272034 -0.661086 -0.747886 -0.864155 0.192445 0.445245 -0.207005 -0.096644 -0.454162 -0.928264 0.032070 -0.314749 0.378498 -0.163319 -0.331619 0.163779 0.622529 -0.090699 -0.695834 0.504286 -0.033758 -0.834569 -0.282807 0.430043 -0.947535 0.787239 0.990416 -0.747868 -0.371944 0.386381 -0.872192 -0.941757 -0.320324 0.963064 -0.395603 -0.620833 0.650730 -0.590008 0.062754 0.801725 -0.915462 -0.185251 0.873335 0.208101 -0.203013 0.956647 -0.061046 -0.629790 0.370855 -0.467811 -0.417735 -0.009819 0.766493 0.867736 -0.869418 -0.260197 0.086408 -0.244313 -0.737529 -0.079047 -0.652053 0.210629 -0.668501 -0.442502 0.818910 0.416324 -0.827655 0.145531 0.658908 -0.977243 -0.244455 0.875973 0.096818 -0.961298 -0.234068 0.271791 0.553018 0.457996 0.529948 0.998167 -0.621709 0.173503 0.849448 0.780585 0.265249 0.548752 0.219060 0.497142 -0.379263 0.826650 0.282848 0.180480 0.970267 -0.607308 0.703133 0.361260 0.938306
-0.419881 0.549637 -0.095397 -0.121394 0.942923 -0.701427 0.865281 -0.774366 0.662692 -0.533428 0.969961 0.323646 -0.263000 0.335485 -0.457520 -0.391119 0.640183 0.310429 0.817355 -0.479386 -0.408928 -0.598833 0.183200 0.529146 0.709215 0.731867 -0.554776 -0.739682 0.798836 0.553850 0.145942 -0.067538 0.884853 -0.845780 0.987901 0.892829 0.087214 -0.480949 0.240300 -0.196858 -0.375240 0.781256 -0.596090 -0.839396 0.205564 0.370982 0.767071 -0.699755 0.652046 0.653660 0.956873 0.434546 0.962155 -0.054891 -0.990216 0.829305 0.603624 0.701480 -0.228471 -0.723987 0.962374 -0.022071 -0.115401 -0.018107 0.472785 -0.762374 0.671078 0.555074 -0.485879 0.712580 -0.921437 -0.404249 0.067445 -0.811898 0.299374 -0.234656 0.567772 0.321860 0.304558 0.977729 -0.736032 -0.024154 -0.289137 -0.495498 -0.505590 -0.737265 0.793369 -0.467287 0.890885 -0.337364 -0.278149 0.580011 -0.801684 0.664257 -0.918623 -0.549230 -0.057047 0.334249 -0.161473 0.016637 -0.899803 -0.858565 -0.134496 -0.530829 -0.106808 0.567753 -0.404308 0.789041 -0.615056 0.987885 -0.439457 -0.205873 -0.418937 -0.292906 0.470595 -0.160222 0.397273 -0.449276 -0.116030 0.332758 -0.435417 -0.047002 0.726961 0.392497 -0.410756 -0.059185 0.981890 -0.903509
0.823367 -0.342334 0.596323 -0.216326 0.422285 0.041100 -0.235828 0.887001 -0.241054 0.018853 0.352558 -0.699575 -0.966820 0.397937 -0.992769 0.778256 -0.770362 -0.574948 0.056245 -0.580015 -0.343752 0.648923 -0.347290 -0.583253 -0.236163 -0.566871 0.434002 -0.966343 0.997598 -0.265547 0.021126 -0.284628 -0.334182 0.438087 0.447454 0.896196 0.203906 -0.997765 -0.449947 0.889328 0.260843 0.524483 -0.702640 -0.647271 -0.536605 -0.936589 -0.442757 0.018711 0.422438 0.505243 0.902187 0.013543 -0.225673 0.681981 -0.112609 0.705404 0.284958 -0.275091 0.044834 -0.217937 -0.496523 0.315714 -0.524200 0.979669 0.522157 -0.589273 0.816297 -0.316816 -0.652916 0.066235 -0.821531 -0.565236 0.589284 0.218344 -0.580563 0.129471 0.116007 0.369446 0.899747 -0.834690 -0.045166 -0.776975 0.904000 -0.362314 -0.061851 0.977031 -0.933959 -0.763450 0.359252 0.514502 -0.799820 -0.715596 0.027316 0.293669 -0.275911 -0.214476 -0.880020 -0.697084 -0.243439 0.404122 0.193874 0.291760 -0.392887 -0.174545 0.445209 0.202518 -0.015186 -0.126128 -0.885303 -0.781691 0.843624 0.266815 0.163575 -0.753304 -0.542947 -0.831052 0.243543 -0.921044 -0.173025 0.520441 -0.498164 -0.180059 0.416213 -0.431104 0.345531 0.877809 0.282075 -0.336699
0.730689 -0.572513 -0.074541 -0.664792 -0.475546 0.336153 -0.854522 -0.817169 0.097838 0.080487 0.632243 -0.957795 -0.253381 -0.380857 -0.702599 -0.331558 -0.371175 0.704145 -0.343496 0.457725 0.277514 -0.991926 -0.409213 0.842724 -0.638230 -0.110442 -0.700445 0.390518 -0.364643 -0.321807 -0.391438 -0.131453 -0.361044 0.608467 0.528964 0.991235 -0.570823 0.117638 0.783336 -0.624908 -0.685036 -0.168212 0.100346 0.127658 0.166164 0.465423 -0.355886 -0.514027 -0.526210 0.747975 -0.085257 0.227704 0.784263 0.746239 -0.141298 0.065941 -0.672008 0.692813 -0.066178 -0.342963 -0.733824 0.073566 -0.911180 0.345886 0.901563 0.914833 0.593486 -0.930257 -0.400802 -0.030965 0.785536 0.353805 -0.507997 -0.853014 -0.804072 0.394153 -0.701829 0.729895 0.646688 0.619079 -0.561883 0.442521 0.435332 0.311009 -0.893681 0.651975 -0.186752 -0.077045 0.773277 -0.234150 -0.968673 0.702215 -0.106998 0.236222 0.014488 0.710483 0.122646 -0.887255 0.130852 0.568098 0.915356 0.779500 -0.645148 -0.543801 0.808421 0.298130 -0.001118 0.712295 -0.777550 0.351333 -0.497096 0.870143 0.581302 0.350810 -0.384079 -0.639734 -0.399985 -0.743513 -0.151400 -0.167409 0.952403 -0.950464 0.704272 0.509594 0.251279 0.876864 -0.207248 -0.633358
-0.665616 0.500270 0.965733 0.220469 0.016319 -0.963929 -0.992542 -0.297387 -0.166040 0.863847 -0.373439 0.336386 0.295747 0.619397 -0.205587 0.635520 -0.491870 0.129441 0.215812 -0.303219 0.148400 0.879260 0.982582 -0.077653 0.631706 -0.494949 -0.878811 -0.826399 0.603818 -0.365994 0.848143 -0.227107 0.449492 0.143756 -0.688791 -0.174974 0.376045 0.187431 -0.462947 0.582243 -0.349768 -0.179691 0.268366 0.200747 -0.466525 0.822792 -0.427454 0.363461 0.176850 0.279874 0.032684 -0.216399 -0.759730 0.671745 0.164617 -0.434331 0.679921 -0.421331 0.558637 0.669935 0.653053 0.469855 0.243811 0.147622 -0.785327 0.566765 0.981992 -0.185119 -0.375502 0.637694 -0.245732 -0.907818 -0.842129 0.245439 -0.027927 0.720486 -0.441411 0.042656 0.455059 0.902093 -0.832272 0.727479 0.423217 0.285962 0.131944 -0.910843 0.855111 -0.338553 -0.293511 0.492512 -0.692262 0.334374 -0.439711 0.066897 0.637124 -0.602815 0.981611 0.589427 -0.026134 0.630957 0.447667 -0.053574 -0.464374 -0.796881 -0.941245 -0.728545 -0.078156 0.251078 -0.907347 -0.014863 0.692616 -0.581667 0.885753 -0.058565 0.086653 -0.472955 0.589233 -0.692479 0.985507 -0.662208 0.907079 0.210596 0.218078 -0.272148 -0.783008 0.803150 -0.348540 -0.171294
-0.380047 -0.723923 0.605490 0.717199 0.344989 -0.895453 -0.613847 -0.078430 0.883163 0.770054 0.577354 0.777113 0.133538 -0.879050 -0.412392 -0.734393 0.490028 -0.108212 0.953920 -0.972269 0.568959 -0.145769 -0.307472 0.628807 0.379042 -0.398976 -0.941124 -0.012893 0.518725 -0.537207 0.823471 0.589614 -0.859639 -0.727878 -0.555857 -0.681575 0.171645 -0.123323 -0.297554 -0.604359 -0.931187 -0.754882 0.621332 -0.712529 -0.074938 -0.592643 0.818513 0.411641 0.551007 0.733384 0.837924 0.249942 -0.424542 -0.122920 -0.363805 -0.930586 0.774823 -0.384743 0.915635 0.876761 -0.936728 0.828570 -0.919922 -0.052686 0.976397 -0.007139 0.082714 -0.079950 0.426689 -0.862724 0.705630 -0.373181 -0.133284 0.206871 0.122106 0.561487 -0.579910 -0.570356 0.505516 -0.168004 -0.596792 0.588649 0.752123 0.143283 0.471979 -0.130080 -0.123619 0.176755 -0.506544 0.416313 0.839063 0.284128 -1.025544 -0.192624 0.176293 0.135668 -0.478555 0.422969 -0.204355 0.552891 0.169034 -0.982832 -0.373752 0.591447 0.814431 -0.096035 0.123878 0.838181 -0.647363 -0.902883 0.280187 -0.750204 -0.236279 -0.755953 -0.581216 -0.377184 0.300464 -0.635778 -0.164141 0.367632 -0.857668 -0.616919 -0.104580 0.658474 0.202168 0.119313 -0.732419 -0.015725
-0.392443 0.789567 0.936385 -0.359040 -0.623442 0.942207 -0.459401 -0.184747 -0.191671 0.648699 0.334174 -0.705258 -0.924039 -0.355581 0.713974 0.763591 -0.175813 -0.990781 0.067585 0.122084 -0.573316 0.161993 0.287042 -0.004870 -0.399879 -0.511766 0.443644 0.886767 0.117823 -0.549460 -0.756708 0.390551 -0.847530 -0.476405 0.601067 0.523727 -0.522709 0.415201 0.474361 -0.091395 0.714285 0.918720 -0.859064 0.283867 -0.236514 -0.913984 -0.887649 -0.736490 0.716852 -0.000975 0.817809 0.525157 0.575143 0.722773 -0.080708 -0.181861 -0.849784 0.685418 0.330136 0.307997 0.733361 0.641875 -0.793829 0.536856 0.192618 0.226051 -0.563509 0.464491 0.788682 0.030000 -0.521910 0.434316 0.510082 0.953621 -0.486833 0.881986 0.635699 -0.389139 0.932904 0.641199 0.793947 -0.875501 -0.596537 -0.026255 0.719621 0.709494 -0.564340 0.676634 -0.007183 -0.443375 0.567663 0.836372 0.860914 0.099340 -0.148791 -0.355455 -0.832692 0.170690 -0.067095 -0.150395 -0.831272 -0.803516 -0.913937 -0.147780 -0.999653 0.458883 -0.132338 0.762481 0.520654 -0.059532 -0.203399 -0.718029 -0.900825 0.772928 -0.486387 -0.156289 -0.940936 -0.296663 -0.234452 -0.956354 -0.418598 0.204243 0.924382 -0.555591 -0.884704 -0.222497 -0.266372 0.827746
0.771247 0.959620 -0.571658 -0.770865 -0.295562 -0.902656 0.254684 0.312505 0.971861 -0.455027 0.578912 -0.327400 -0.960360 -0.255130 0.098497 0.738004 -0.283411 0.602922 -0.379798 -0.971632 -0.979310 0.310494 0.021452 0.728363 0.138615 -0.171639 -0.421577 0.980308 -0.551504 -0.947764 0.356792 -0.273718 -0.366626 0.571680 0.010053 0.900414 0.785064 0.819070 0.676906 -0.775462 -0.676683 0.744375 -0.920088 -0.552627 -0.010544 -0.432459 -0.339734 -0.664512 0.876494 0.562456 0.036789 0.797818 -0.389167 -0.954009 -0.031068 0.085837 0.529294 0.430346 0.355798 -0.303914 0.835561 -0.701856 -0.413259 0.643586 0.461891 0.029560 0.861769 0.066977 0.290786 -0.521706 -0.152725 0.182034 0.138865 -0.570949 -0.021194 -0.620945 0.469163 -0.211610 0.495005 -0.495196 -0.863428 0.984720 -0.335274 -0.052645 0.994363 0.841832 0.126563 -0.282378 -0.104609 0.058086 0.774197 -0.596480 -0.880954 -0.601993 -0.501147 0.257311 0.272634 0.982646 0.609128 0.192087 -0.415324 0.477149 0.539912 0.776446 0.662436 -0.355323 -0.647986 0.493833 0.295728 -0.499242 0.726154 -0.904991 0.183636 0.049180 -0.928644 0.893314 0.340374 0.392257 -0.232597 0.744289 -0.075806 -0.046189 0.126595 -0.496644 -0.054074 0.133207 -0.034589 -0.673715
-0.224904 -0.001678 -0.431219 0.007177 0.826251 -0.579805 -0.650376 0.835471 -0.844640 -0.706992 0.041853 -0.439237 0.566841 -0.296690 0.489864 -0.079310 0.233626 -0.276053 0.243248 -0.355748 -0.924116 0.421970 0.012799 -0.931096 0.840750 0.792966 0.870969 -0.759895 0.304099 0.085157 0.457065 0.627947 0.401416 0.536985 0.382111 0.835051 0.669112 -0.632065 -0.801912 -0.951500 -0.633456 -0.373757 0.808473 -0.768928 -0.525705 0.529649 -0.461140 0.584718 0.397198 0.590361 0.829050 0.365636 -0.189049 -0.350763 -0.189750 -0.386844 -0.867861 0.567477 -0.926704 -0.709903 0.923149 0.852745 0.494214 -0.626885 -0.176586 -0.195017 -0.513201 -0.369848 0.764625 0.859308 0.479783 0.720308 -0.077264 -0.629024 0.273200 0.249725 -0.375810 0.242079 0.422486 0.545796 -0.271612 -0.334819 -0.937528 0.480509 -0.951241 -0.523502 -0.164531 -0.115650 0.327289 -0.555867 -0.656369 0.975727 -0.172830 0.261321 0.008744 0.815485 -0.126894 -0.021018 0.180685 -0.045121 -0.062691 0.245563 -0.297262 0.835285 0.387050 -0.551201 0.620105 0.621794 0.182580 0.788954 0.732814 0.708008 -0.553536 0.505363 -0.772655 -0.755873 -0.532969 -0.787837 -0.952677 -0.916579 -0.813652 -1.016164 -0.575526 -0.323012 -0.286516 0.852439 0.325165 -0.876992
0.794225 0.396812 0.708445 -0.580870 0.646847 0.632427 0.201666 0.656580 0.523954 0.167201 -0.585479 -0.655380 0.478020 0.606695 0.332503 0.963631 0.764962 -0.056127 -0.356456 0.574119 -0.505804 0.099525 0.308072 -0.899106 -0.200263 -0.104223 0.976899 0.025461 -0.015079 0.319620 -0.828784 0.166446 0.327915 0.193378 -0.974457 -0.348824 0.442519 -0.241633 0.600226 0.517043 -0.100561 0.845241 0.536101 0.164894 -0.300676 -0.019942 -0.634636 0.556641 -0.264609 -0.251684 0.333118 -0.414783 -0.950605 0.071109 -0.475765 -0.038136 0.530919 -0.134695 -0.073193 0.873186 0.475536 0.005777 0.283200 -0.224226 -0.538830 -0.624831 -0.656963 0.143902 0.502202 0.118777 0.760021 0.232439 -0.495487 0.111065 0.893199 0.809064 -0.192312 -0.644352 -0.870875 0.799346 0.819791 -0.428174 -0.682554 -0.440093 0.653340 0.772451 0.270852 0.685219 0.557724 -0.581951 0.623765 -0.935161 0.317300 0.108243 -0.957070 -0.061144 0.741984 -0.666770 0.266495 0.824241 0.717137 0.792593 0.611126 0.112048 0.782970 -0.431238 -0.291647 0.878861 -0.844353 -0.358853 0.605790 0.644141 -0.915198 0.463421 0.118829 0.789766 -0.703504 0.053466 -0.996630 0.279353 0.557308 -0.736805 0.594961 0.151983 0.608243 0.801515 -0.588850 -0.937573
-0.752205 -0.888920 0.632982 -0.974522 -0.208843 0.186507 -0.940498 0.641170 0.058646 0.863562 -0.364313 0.231880 0.241706 0.641966 -0.187934 0.676316 -0.104917 0.739696 0.487756 0.813466 -0.199665 -0.532802 0.647168 -0.189150 0.394340 -0.036938 0.500109 -0.755863 -0.748337 0.399339 0.710758 0.596453 -0.593949 -0.857677 -0.531507 0.652888 0.787473 0.897928 -0.467094 -0.721623 -0.365401 0.759787 0.433070 -0.496134 -0.639033 -0.805239 -0.767905 -0.101333 0.344788 -0.194522 0.662566 -0.023991 0.244112 -0.790017 -0.716892 0.637968 0.137053 0.464441 -0.876506 0.029287 -0.661130 0.421133 -0.391689 0.616229 0.963284 0.690645 -0.263306 -0.919640 0.264983 -0.245596 0.263173 -0.064990 0.642147 0.318013 -0.083825 0.296513 0.792144 0.783875 -0.567676 -0.975738 -0.650800 0.611947 0.697946 0.173353 0.730958 -0.068357 0.840229 0.430842 -0.967889 0.481810 -0.407807 0.898672 0.604179 0.332131 0.270801 0.083027 -0.144676 0.859597 -0.876580 -0.915138 0.680137 -0.128786 0.257699 -0.837613 0.372034 0.891606 -0.954669 -0.547472 -0.859507 -0.451742 -0.141909 -0.774297 -0.191298 -0.375307 0.230380 0.689447 0.726016 -0.027186 0.652423 -0.181497 -0.530649 -0.049694 -0.180407 -0.948781 0.414178 0.626491 -0.600579 -0.731801
-0.188279 0.232944 -0.292965 0.559524 0.567635 -0.369980 0.400246 0.034586 -0.208257 0.417474 -0.478096 -0.118277 -0.087462 -0.101434 0.920360 -0.616255 0.185660 -0.929770 -0.867465 0.138232 -0.828540 0.872296 0.980133 0.993904 0.233885 0.716707 0.640405 -0.774690 -0.804022 0.072713 0.970358 -0.786643 0.100594 -0.353860 0.433745 -0.012000 0.567724 -0.246108 0.745689 -0.701467 -0.251718 -0.194380 0.619016 0.033978 0.345347 0.302366 -0.026818 -0.579836 0.873442 0.624052 -0.752959 -0.139387 0.092536 0.006071 0.555597 -0.685681 0.457164 -0.438435 0.126936 0.649008 -0.124998 0.690648 -0.885686 -0.175908 0.999198 0.751029 0.149946 -0.346402 -0.373230 0.576571 0.443617 0.395861 0.714056 0.923982 0.529009 0.361528 0.156217 -0.033624 0.982935 -0.040105 -0.537590 -0.168349 -0.175073 0.557756 0.906538 -0.708211 -0.815355 -0.032612 0.525883 0.113489 0.791417 0.269341 -0.856703 -0.518341 0.581263 0.498666 0.475264 -0.217597 0.703940 -0.248621 0.659229 -0.808213 0.160853 0.976332 -0.940457 -0.568380 0.868086 -0.970183 -0.907995 -0.953962 0.187432 -0.564391 0.835186 0.787497 0.413891 0.718885 -0.425608 -0.166854 -0.719518 -0.978330 -0.150984 -0.539013 0.141042 -0.038373 -0.973605 -0.088911 -0.121028 0.221938
-0.810261 -0.305678 0.433529 -0.803453 0.354305 0.493688 0.911683 -0.947549 0.127296 0.835957 -0.259174 -0.839462 -0.900261 -0.356897 -0.873482 -0.818102 0.834418 0.207104 0.852640 -0.933470 -0.189097 -0.788663 0.604268 0.682076 0.095814 0.433550 0.660227 0.102103 0.180011 -0.744267 -0.067200 -0.331693 0.443688 0.235818 -0.325790 -0.058321 -0.118054 -0.058037 -0.128091 0.952149 -0.447239 0.844607 0.155844 -0.982214 -0.289662 -0.434652 -0.592905 0.711689 -0.329148 -0.613225 -0.247833 -0.176666 0.514103 -0.441305 -0.508548 -0.757912 -0.141709 0.523262 0.139842 -0.369667 -0.196631 0.325302 -0.865880 0.466990 0.775406 -0.145222 0.890555 -0.432145 0.236603 -0.967796 0.817909 -0.774485 0.570806 0.689604 -0.057543 -0.943859 -0.069125 -0.299043 -0.988905 0.911103 -0.711773 0.399663 -0.010154 -0.670070 0.293896 0.628870 0.945892 -0.845121 0.875346 0.209278 -0.585048 -0.636516 0.767607 0.177264 0.268480 -0.085769 0.774672 -0.537264 0.144970 0.068422 0.949492 0.916978 -0.115886 -0.043414 0.769349 -0.233369 -0.726441 -0.732810 -0.238265 -0.028301 0.443799 -0.286403 -0.784709 0.297369 0.904516 -0.436039 0.955010 0.073943 0.273688 -0.752761 -0.061999 -0.254734 -0.780066 0.518810 0.732373 -0.884763 -0.792452 -0.660984
0.382341 0.014732 -0.119152 -0.490827 -0.289243 -0.300117 -0.526308 -0.111810 0.669707 0.254274 -0.058128 -0.544594 0.546393 -0.262131 -0.975338 0.754136 0.424863 -0.789286 0.918429 -0.710214 0.748888 -0.956560 -0.261635 -0.288821 0.279562 0.171628 -0.465448 -0.584362 0.519948 -0.972401 0.306918 -0.783884 0.845033 -0.561931 -0.867021 0.627438 -0.828547 -0.162772 0.476390 -0.574095 -0.416587 0.134545 -0.418941 -0.171700 0.331615 0.660877 0.456379 -0.580264 -0.588761 0.807202 -0.264124 0.513174 -0.840981 -0.018553 -0.791304 0.640029 0.722206 -0.576571 -0.926960 -0.265678 -0.136379 0.376115 -0.514997 -0.138093 0.120763 0.648858 -0.257755 -0.354686 -0.307180 0.401973 0.507568 -0.226573 -0.740566 0.969749 0.829906 0.453058 0.810276 -0.036378 0.041718 0.380135 -0.743590 0.533555 0.334802 -0.990460 0.636580 -0.185598 0.229675 -0.203383 -0.002273 0.353639 -0.893808 -0.047913 0.001017 -0.116994 -0.355071 0.355698 -0.380579 -0.869856 0.758252 0.174281 0.831404 -0.879318 -0.938724 0.905778 0.345657 -0.027279 0.721177 -0.625768 -0.504407 -0.970834 -0.244897 0.865487 -0.606679 0.098066 0.075212 -0.237891 -0.787011 0.773081 0.607215 0.647123 0.941520 0.835405 0.876889 0.845140 0.274929 -0.901225 0.571068 -0.078327
0.862727 -0.278040 0.564673 -0.555579 -0.756308 0.573745 -0.180804 0.225767 -0.678011 -0.358799 -0.310214 -0.575701 0.457456 0.830508 -0.141340 0.107933 -0.637150 0.794102 0.932599 -0.004631 0.819712 0.513091 0.003877 0.354576 0.435014 0.381414 0.117148 0.483162 -0.880118 0.749023 -0.331300 -0.724338 0.216822 -0.391809 0.258243 0.573961 -0.753201 0.661431 -0.932557 0.632878 -0.199392 -0.664119 -0.906166 0.368033 -0.927957 0.511561 0.634749 -0.806730 0.618185 0.460300 0.430940 -0.276074 0.526087 0.633937 -0.715108 0.810116 0.983221 -0.349014 -0.154171 0.522890 -0.069950 0.718385 0.752675 -0.519423 0.823527 -0.552998 -0.932781 0.658108 0.594754 0.567235 0.358618 0.883853 0.569785 -0.231337 0.424847 0.708136 0.924937 -0.458917 0.281548 -0.578383 -0.779935 -0.098994 -0.317041 0.152696 -0.068430 0.837132 -0.462215 -0.242352 0.613128 0.457121 -0.392726 -0.868672 -0.839530 -0.841760 0.154289 0.986586 -0.943189 0.432577 -0.106612 -0.694893 0.619009 0.295475 -0.316051 0.499969 -0.853144 -0.933166 -0.224327 -0.460963 -0.998474 0.220735 -0.754183 -0.925493 -0.156479 0.965696 0.021546 0.317453 -0.974581 -0.142550 -0.289811 0.323125 -0.639812 0.475579 -0.883359 -0.911698 -0.121712 0.966184 0.495367 -0.430415
-0.239098 -0.931532 0.916337 0.270247 0.586458 -0.644516 -0.699544 0.684162 -0.254873 -0.155528 0.017560 -0.182006 0.421540 0.857659 -0.072943 -0.521170 -0.659985 -0.991708 -0.792706 0.741973 -0.035435 0.947885 -0.201281 0.465688 0.948185 0.055921 0.777529 -0.965802 -0.614118 -0.730338 0.210402 0.538523 -0.152270 0.098830 -0.145249 -0.898277 0.264852 -0.481229 -0.883589 0.213362 -0.026372 -0.656079 -0.083479 0.411706 -0.683910 0.702926 0.702766 0.025293 0.523113 0.074142 0.851379 -0.032675 0.354366 -0.877679 -0.688459 -0.066776 0.151282 0.601125 0.455111 -0.409938 -0.188802 0.972623 0.567534 -0.989399 0.196948 0.416662 -0.493953 -0.719399 -0.864383 -0.146789 0.770030 -0.968631 0.821550 0.203481 0.316808 -0.461226 0.769755 0.930889 -0.064826 0.318417 -0.242205 -0.698742 0.026843 -0.711081 0.627854 -0.399501 -0.275707 -0.497848 0.405331 0.038121 0.958176 0.907929 -0.377877 0.106868 0.210903 -0.589239 -0.260516 0.914751 0.546289 -0.348665 0.860640 0.693282 0.551524 0.342247 -0.719163 -0.726325 -0.179638 -0.609982 0.466341 0.330534 0.274716 0.268355 0.252788 0.544314 -0.317973 0.830109 0.520283 0.090309 -0.704857 0.610767 -0.758547 0.290426 0.283991 0.127159 0.992194 -0.663174 -0.901553 0.777346
0.787600 -0.909579 -0.464953 -0.985790 0.858252 -0.779691 0.009346 0.677259 0.570224 0.977137 0.960977 -0.386876 0.967113 -0.950357 -0.385051 0.324656 0.040525 -0.367439 0.230663 -0.465718 -0.939648 -0.397605 -0.264170 -0.538050 -0.880622 0.821998 -0.817768 -0.002556 -0.473418 -0.030055 -0.263217 -0.346504 0.655012 -0.781225 0.039151 -0.128394 0.328787 -0.895598 -0.723211 0.597437 0.241948 -0.248263 0.340692 0.070811 0.663018 -0.467637 -0.958226 -0.638467 0.615873 -0.044913 -0.300946 -0.104878 -0.785556 0.196641 -0.847798 -0.920817 0.964762 0.105628 -1.006570 -0.324011 -0.926416 -0.444188 -0.493567 -0.718484 -0.007319 -0.611552 0.724354 -0.872677 0.109701 0.965047 0.022521 -0.035413 0.979774 0.410983 -0.016109 0.921878 0.575068 -0.757752 0.524354 -0.764912 0.900000 -0.731247 -0.108426 0.693032 0.107111 0.008281 0.097672 0.817079 0.688484 -0.890657 -0.872209 -0.285566 0.321628 -0.229487 -0.401449 0.862630 0.718995 -0.780297 0.660746 -0.671983 -0.020913 -0.175088 -0.157694 0.557972 0.968020 0.647609 0.178434 0.557909 -0.150511 0.278452 0.121429 0.412407 -0.988985 -0.043875 -0.826213 -0.594212 0.798800 -0.870258 -0.059481 0.899689 0.427391 -0.301911 -0.542254 0.080924 -0.069665 -0.420202 -0.132712 0.037172
0.430397 -0.571461 0.583703 0.781578 -0.966764 0.098321 0.833605 -0.035882 0.013389 0.896601 -0.080116 -0.288009 0.508058 0.138068 -0.325785 0.693002 -0.173555 0.119557 -0.610418 -0.631576 0.372692 0.017825 0.966995 0.545534 0.738448 -0.109615 -0.418298 0.417804 0.601054 -0.906991 -0.015559 0.646505 0.378929 -0.241440 0.029195 -0.669521 0.334272 0.650283 -0.302655 -0.014125 0.283043 0.856162 -0.495027 -0.970899 0.166184 -0.642002 0.550161 0.520132 -0.769262 -0.974312 -0.407913 -0.459313 0.476915 -0.081405 0.925053 0.609737 0.535302 -0.689796 0.524976 -0.798774 -0.081929 0.030461 0.586233 -0.365232 -0.510582 -0.469848 0.161077 -0.710454 -0.374640 0.507954 0.584075 0.084673 -0.949040 0.737475 0.842885 0.677467 0.495221 0.135734 -0.123715 -0.252229 0.799214 0.112724 -0.543963 -0.333298 0.366984 0.238053 -0.788791 -0.640668 0.912521 0.541284 -0.342436 0.548992 -0.929061 0.195153 -0.217064 0.993202 -0.401752 -0.300793 -0.316338 -0.188595 -0.416783 0.462489 0.015288 -0.188045 -0.990982 -0.363811 -0.052862 0.165110 -0.542178 0.788516 0.422364 -0.035882 -0.279840 0.352295 0.137120 -0.107996 -0.359112 0.505273 -0.173995 -0.377939 0.202229 -0.607182 0.484329 -0.316893 0.052712 0.772843 -0.476635 -0.588797
0.849938 -0.325933 0.617180 -0.173630 -0.806656 0.650758 0.604376 -0.406374 0.898237 0.695717 -0.533575 0.296684 -0.383493 0.940882 0.691257 -0.346877 0.972116 0.026427 0.284732 0.123684 0.412970 -0.115884 -0.529909 -0.765392 0.196135 0.878745 0.397065 0.138986 -0.639835 0.485656 0.537570 0.792271 -0.129365 0.298675 0.337738 -0.186332 -0.170840 0.968200 0.641617 0.164446 -0.507001 -0.702767 -0.533429 0.155043 0.161325 0.727568 0.620742 0.740998 -0.008946 0.581734 0.606634 -0.196037 -0.224620 0.203164 0.823511 -0.422979 -0.881976 -0.774817 -0.549426 0.101877 0.507656 -0.575956 0.070639 0.465237 -0.305814 0.849184 0.632053 0.585377 -0.764848 -0.497017 -0.730945 0.972081 0.947109 -0.609666 0.611084 -0.199289 0.647379 -0.205723 -0.491256 -0.812424 0.476710 0.787456 0.613349 0.926956 0.735407 0.754614 0.525494 0.079648 -0.601910 0.781754 0.516026 0.241448 0.288461 -0.519670 0.822500 0.128992 -0.335414 -0.801260 -0.630076 0.207806 -0.468175 -0.499848 0.551894 0.180503 0.698030 -0.996735 -0.826688 -0.749627 -0.923456 -0.514277 0.582144 0.380539 0.376390 0.156550 0.734290 0.422458 0.609468 -0.938209 -0.031752 -0.632047 -0.195484 0.307659 -0.135023 -0.963435 0.219768 -0.146785 -0.457406 0.179026
-0.361238 0.675199 0.011203 0.782699 0.538095 0.126812 0.721463 0.094697 0.882161 -0.066297 -0.790232 -0.654699 -0.939955 -0.809744 0.090876 0.444712 -0.244269 -0.394577 -0.325981 0.835860 -0.031792 -0.768336 0.280937 -0.125816 0.895048 -0.863655 -0.438823 -0.344644 -0.066791 0.687514 0.989636 0.912249 0.577419 0.173791 0.854695 -0.806107 0.977202 0.184240 -0.475803 -0.041940 0.314964 0.185566 -0.078302 -0.032034 0.978432 -0.688015 0.961465 -0.727119 -0.512629 -0.356969 0.114173 0.075739 0.715761 0.471330 -0.114220 0.110323 0.595120 0.219542 -0.961369 -0.262228 -0.365018 -0.566484 0.567922 0.423879 -0.363320 0.589198 -0.128691 0.590595 0.705381 0.904348 -0.669348 0.446658 0.009961 0.749593 0.236680 0.130295 0.472744 0.723483 -0.563240 0.497130 0.574340 0.952942 0.790177 -0.707966 0.035983 0.523737 0.481545 0.054179 -0.471808 -0.081986 -0.892672 -0.999698 0.593397 0.415983 0.872960 0.218919 -0.287817 0.639804 0.634137 -0.960930 0.110906 -0.457962 -0.654838 -0.195804 -0.507360 -0.823446 -0.084917 0.707651 -0.161012 0.926641 -0.249578 -0.763146 0.303276 0.140366 -0.784899 -0.557905 0.482025 0.681423 0.926731 -0.431431 -0.885297 0.685844 -0.756140 -0.611634 0.310844 0.101626 -0.922184 -0.554829
-0.794803 0.468916 0.813180 0.498611 0.856093 -0.070818 0.431666 0.621970 -0.088744 -0.961223 -0.898477 0.325595 0.937782 -0.949593 -0.195292 0.772559 -0.718395 -0.532712 0.312482 0.196707 0.953600 -0.017492 -0.682117 0.826122 -0.711551 -0.776265 -0.525534 -0.601116 0.783910 -0.637301 0.899784 -0.150895 0.372502 0.314534 -0.810377 -0.557191 -0.297291 -0.152094 0.889024 0.576904 0.891294 0.126081 -0.784612 -0.667377 0.282599 0.875067 0.084752 -0.282376 -0.865681 0.447062 -0.770653 0.002734 -0.287495 0.798665 0.800655 0.259962 -0.999249 0.270198 -0.521258 0.829198 -0.773009 0.300641 -0.846827 0.274503 -0.824800 -0.145711 0.798682 -0.825562 -0.492730 -0.443741 -0.273924 -0.275559 -0.119960 0.733578 0.158291 -0.502382 0.593120 -0.086874 0.880225 -0.397159 0.624735 -0.069539 -0.728329 0.075782 0.000744 0.146334 -0.390280 -0.714533 0.937365 0.949793 0.026531 0.916296 -0.722856 -0.381290 0.269917 -0.001728 0.937751 0.649017 0.863385 -0.927564 -0.406774 0.159418 0.740769 0.827347 0.182491 0.653651 -0.611556 0.180422 0.456789 -0.787233 0.147052 0.874443 -0.348269 -0.199868 0.940119 0.276155 -0.183593 0.268149 -0.694012 -0.534791 -0.694128 -0.832601 -0.852922 -0.998101 -0.458295 -0.365660 -0.561994 0.139175
-0.650265 -0.952406 0.905854 -0.013560 -0.226407 -0.228986 -0.450047 -0.876462 0.193839 0.450568 -0.589845 -0.903039 -0.071573 0.460285 -0.453109 0.117679 -0.274504 0.294716 0.403689 0.718819 0.938359 0.793896 0.281141 -0.093886 0.049122 -0.778043 0.306107 0.776133 -0.640755 0.009644 -0.188981 -0.110170 -0.338505 0.626208 0.530559 -0.512791 -0.700587 0.986535 0.719046 0.334865 0.639906 0.677678 -0.075007 0.470215 -0.602648 -0.804707 -0.274362 0.913459 0.471272 0.449151 -0.684069 0.980402 -0.687543 -0.727288 -0.521437 0.750760 0.037449 0.065035 0.968712 0.964535 -0.884159 -0.925699 -0.837871 -0.491973 0.063610 0.355302 0.340342 -0.206723 -0.465141 -0.047019 0.558262 -0.786241 0.333516 0.487206 0.375728 -0.380614 -0.226998 0.978613 0.224277 -0.949307 0.572154 0.735051 0.193315 0.482545 0.562722 -0.078069 -0.528748 -0.075194 0.053560 -0.555607 0.071125 -0.721303 0.648018 -0.716928 -0.865663 -0.186154 -0.364893 0.202026 0.932497 0.059494 -0.761698 0.393946 -0.020535 0.631417 0.601922 0.153671 0.538874 0.288169 0.185189 0.652740 0.852449 -0.577293 0.681590 0.451538 0.067878 0.368818 0.230209 -0.483527 -0.622897 -0.795194 -0.621845 -0.994604 0.472205 0.804751 -0.037228 -0.852022 0.247872 0.654468
-0.389092 -0.574461 -0.014530 -0.438434 -0.230768 -0.009007 0.505187 0.069091 0.541409 -0.791327 -0.350382 -0.063186 0.030975 -0.873073 0.989448 -0.346139 0.707741 0.925278 0.707144 -0.382237 -0.033654 0.923054 0.321298 0.572488 -0.842927 0.650550 -0.353628 0.707420 -0.887344 -0.474995 0.479723 -0.345192 0.026017 0.235083 -0.507225 -0.296733 -0.537346 0.878887 0.599598 0.355679 0.033003 0.601562 -0.336669 -0.919043 0.964801 -0.289396 0.173789 0.636444 0.720496 0.202429 0.056068 -0.394406 0.080626 -0.207270 -0.487904 0.746122 -0.720919 -0.831950 0.146190 0.201534 0.545634 0.330878 -0.266844 -0.491800 0.281752 -0.498038 -0.460541 0.595069 -0.464717 0.000194 0.552665 0.271355 -0.090267 -0.304537 0.250738 0.246305 0.925511 0.075761 -0.645801 0.413653 0.070648 0.129782 0.554797 -0.017370 -0.017612 -0.858775 -0.721203 0.000350 0.652334 0.270267 -0.676972 -0.159042 -0.703521 0.003805 0.800926 -0.129254 -0.146336 -0.572050 0.047136 0.226459 -0.095890 0.388244 -0.950111 0.194575 0.892568 0.389844 0.496924 -0.657992 0.547942 0.120603 -0.924863 -0.895768 -0.877319 -1.001120 0.498716 0.581119 0.453518 -0.942011 -0.696937 -0.513871 0.041909 -0.746860 0.043105 -0.890539 0.615080 -0.225683 0.111742 0.001091
0.184219 0.116354 0.077663 -0.943378 -0.935290 -0.631882 -0.092531 -0.232109 -0.297131 0.251677 0.913634 0.805282 0.124724 -0.119659 -0.425745 -0.121192 0.738090 1.014912 -0.129481 -0.934483 -0.446698 -0.178899 0.685283 -0.455102 -0.079823 -0.218665 0.716663 0.079514 -0.125644 0.624279 0.518976 -0.556898 0.877389 -0.514976 0.256868 0.074477 0.548477 -0.729033 -0.556833 -0.399571 0.089085 -0.170906 1.003727 -0.561348 -0.764402 0.685048 -0.225267 -0.306083 -0.294538 0.233279 -0.287366 0.955763 -0.154064 -0.258422 -0.623435 0.562605 -0.966930 0.967832 -0.157269 0.326163 -0.981261 0.822916 -0.882090 0.315945 0.138176 0.227021 -0.355907 -0.147214 -0.648041 -0.995398 -0.002936 0.014013 -0.089623 -0.092404 0.144690 -0.951065 0.792293 -0.506984 -0.648121 0.405889 0.455661 -0.818392 0.638536 -0.547102 -0.492653 -0.120653 -0.916390 0.158891 0.395322 -0.849605 0.283662 0.754409 0.902366 -0.271767 0.258102 -0.758672 -0.574263 -0.595192 -0.810550 0.038549 0.938556 0.468875 -0.471369 0.639387 0.623661 -0.213213 -0.768088 -0.227472 -0.540553 0.731474 -0.480131 0.759302 -0.362543 0.108711 -0.859741 -0.098796 0.715482 -0.074080 0.949710 -0.589687 -0.458926 0.617011 0.500331 0.384798 0.826917 0.131704 -0.280529 -0.617506
-0.540028 0.315541 0.579980 0.671959 -0.341351 -0.169072 0.199839 0.630287 -0.596398 -0.349987 0.814746 0.058039 -0.125226 -0.161484 -0.664318 -0.530954 0.640997 -0.123348 0.359942 0.405814 0.708328 0.924562 0.882659 -0.502463 -0.367429 -0.039622 0.088880 0.352444 0.692200 0.584028 -0.139686 -0.237591 -0.080544 0.501277 -0.885195 -0.915154 -0.358181 0.570964 0.564476 -0.710003 -0.065182 -0.046854 0.855214 0.296228 -0.894903 -0.511160 -0.721383 -0.107659 0.743566 0.417229 0.728243 -0.757306 -0.942352 0.719287 -0.746234 0.107180 -0.301819 0.051896 0.079231 -0.063459 -0.732403 -0.378388 0.884861 0.105700 0.092324 0.715759 0.944053 -0.251824 -0.980792 0.190710 0.102335 -0.717159 -0.333631 -0.623134 -0.596979 0.217176 0.705708 -0.692044 -0.870901 -0.715218 -0.838661 -0.448678 -0.759554 0.011378 0.200391 -0.483727 -0.286078 -0.868915 0.503644 0.770430 -0.695465 0.857401 0.067782 -0.912586 0.721574 -0.648454 -0.529685 -0.535760 0.515098 -0.566449 -0.659068 0.349637 -0.592781 0.595806 0.882742 -0.489293 0.273867 0.089948 0.371406 0.916400 0.448424 0.771494 0.545549 0.951895 -0.193260 -0.351658 -0.623713 0.285601 -0.337453 0.825917 0.221748 0.837228 -0.557641 -0.425464 0.050186 -0.827686 -0.171371 -0.995704
0.112296 -0.661100 0.380004 0.576872 -0.083029 0.581584 -0.149360 -0.459091 -0.680268 0.331459 0.992097 0.553265 -0.106164 0.206066 0.319715 0.047775 -0.694010 0.063722 -0.668632 -0.075869 0.191187 -0.612728 -0.550124 0.869181 -0.971223 -0.000958 0.261856 -0.999363 -0.809565 -0.929878 -0.215451 -0.885615 0.620996 0.723770 -0.896864 0.164369 0.088201 0.085070 0.107322 -0.582434 -0.727815 -0.469545 -0.223911 -0.642010 0.669958 -0.002308 -0.333856 -0.758395 -0.772773 -0.099264 -0.369991 -0.873203 -0.272752 -0.456671 -0.843484 -0.194815 0.147001 -0.083126 0.547370 0.048580 -0.251891 -0.071984 -0.043994 0.956375 0.001854 0.052682 -0.416381 -0.338968 0.895331 -0.507061 0.745530 0.466703 0.330233 -0.074223 0.753589 0.075569 0.737529 -0.984241 -0.659407 0.182984 0.227251 -0.792524 -0.508518 -0.064659 -0.112763 0.773035 -0.163896 0.675698 -0.245960 -0.204566 -0.060725 -0.214986 -0.523235 0.848647 0.989825 -0.562090 -0.191758 -0.401666 0.890537 -0.283908 0.028774 -0.842089 0.057523 0.601047 -0.440842 -0.533050 -0.797991 0.732598 0.914446 0.127867 0.451492 -0.143238 0.889990 0.850842 0.989446 -0.784475 0.584437 0.938208 -0.108864 -0.645795 0.583789 0.729593 -0.871420 0.367843 0.257981 -0.396848 -0.803448 0.883762
-0.391266 0.912451 -0.796441 0.305506 -0.235532 0.200541 -0.989161 -0.901220 0.451882 0.496413 -0.707750 -0.077303 0.655335 0.818446 -0.950350 -0.190691 -0.952123 -0.806185 -0.310654 0.344915 -0.289168 0.042662 0.989474 -0.346349 0.838956 -0.632011 0.342136 0.034575 0.606845 0.291777 0.488831 -0.285659 -0.386196 0.337531 -0.178162 0.717415 -0.406377 -0.959790 0.205437 0.089867 -0.687205 0.504689 -0.465872 0.025947 0.055104 -0.342954 0.060873 -0.761561 -0.162781 -0.356037 0.163031 0.517675 0.170949 -0.513270 -0.621774 0.221732 0.861636 0.516444 0.326822 0.786893 0.707549 0.821915 -0.196149 -0.616220 0.998051 -0.030310 -0.756064 0.120965 -0.914326 -0.280039 0.899932 -0.665941 -0.647383 -0.532743 0.492461 0.383101 0.529774 -0.936091 -0.594162 -0.794061 -0.819856 0.522806 -0.744170 -0.513359 0.189891 -0.061657 -0.476995 0.674820 0.285306 -0.488290 0.894233 0.737095 -0.167849 -0.714838 0.388481 -0.947613 0.303843 -0.308955 -0.177188 0.351077 0.739131 -0.975908 -0.164264 -0.069014 -0.676930 -0.434400 -0.478864 -0.510950 0.814707 0.614243 0.523383 0.905305 0.119555 -0.378629 -0.312296 0.724670 -0.774846 -0.452897 -0.886668 0.152012 -0.247805 -0.596281 0.810187 -0.545082 0.008637 0.353003 -0.908912 -0.558712
0.373934 0.669394 0.700997 0.636364 -0.517100 -0.047107 -0.686238 0.630440 0.296747 -0.692759 -0.960932 -0.829184 0.088119 0.169406 0.889535 -0.492582 0.200364 -0.817086 0.876649 0.107882 -0.811676 -0.480221 -0.323234 -0.671958 0.367423 -0.944035 -0.738093 0.775661 0.964587 0.815252 -0.094293 -0.686821 -0.265946 0.642582 0.913649 -0.770677 -0.566932 0.483128 -0.337253 0.745920 -0.973592 0.996498 -0.004599 -0.713614 -0.608671 0.899050 0.734963 0.198478 -0.910761 -0.379573 0.753176 0.902394 -0.713703 0.499707 -0.675121 0.658133 0.025578 0.470182 0.617946 -0.349946 -0.461953 -0.473336 -0.870053 0.292840 0.656816 0.071891 0.581853 -0.058720 0.245258 0.321246 0.172404 0.337374 0.989609 -0.759251 -0.792434 0.267597 0.547964 0.312346 0.376978 0.767263 0.775836 -0.473049 -0.765897 0.937134 0.351950 -0.941155 -0.016956 0.994377 0.690822 -0.832104 -0.074069 0.877692 -0.127932 0.945678 0.410614 0.924175 -0.574595 -0.724998 0.258274 -0.675123 -0.553625 0.391962 0.975699 -0.164960 0.161053 0.635424 -0.824214 -0.278809 0.979924 0.990116 0.895547 0.849144 -0.926627 0.528952 0.018497 0.419582 -0.647335 0.797242 0.856624 -0.127528 0.647458 0.470629 -0.181865 -0.432783 -0.178669 0.643865 0.529023 -0.089288
0.593858 -0.486553 -0.131244 0.966818 -0.663044 0.616026 -0.445960 0.938523 0.343513 0.153618 -0.052767 0.545738 -0.861231 0.768226 -0.156834 0.774268 -0.778423 0.911445 0.572675 -0.924590 0.081029 0.606856 0.532733 -0.411474 -0.766935 -0.855993 0.365122 0.573670 0.786711 0.700964 0.681224 0.273406 0.269056 0.991372 0.214655 0.112698 -0.982674 0.727338 0.218652 -0.467087 -0.858115 0.463556 -0.227883 0.358303 0.201592 0.533750 0.672936 0.805227 0.054164 -0.207564 -0.577349 -0.213171 -0.261652 -0.405340 0.585029 -0.959536 0.227884 -0.527145 -0.720295 -0.133901 -0.959213 0.919841 0.804184 0.116851 -0.655383 0.500603 0.961290 0.955527 0.140405 0.609918 0.939124 -0.124180 0.199063 -0.080192 -0.491531 -0.836128 0.172998 0.285835 0.709456 0.201226 -0.089430 -0.052228 -0.200535 -0.168734 0.400023 0.764756 -0.377726 0.103502 -0.776730 0.373087 -0.281326 0.426711 -0.374026 0.586434 -0.892280 0.969842 0.456955 0.104058 0.145085 0.041054 -0.167714 -0.053745 -0.290595 -0.793319 0.485732 0.418497 -0.718549 -0.331443 0.639965 -0.844804 0.605321 0.779929 -0.426932 0.669032 0.725167 0.385673 -0.268193 -0.063851 -0.976531 -0.360556 0.805117 -0.103971 -0.056005 0.078700 -0.821596 -0.563074 -0.766657 -0.325840
-0.783933 0.770526 -0.296587 0.290214 0.715664 -0.309440 -0.737823 0.378786 -0.385813 0.743220 0.702613 -0.696377 0.003932 0.432085 -0.151996 0.496242 -0.793303 -0.398107 -0.714175 -0.251152 0.374207 -0.991416 -0.163349 0.952638 -0.339862 0.383279 0.019751 0.609398 -0.455412 0.452591 -0.267612 0.405234 -0.215118 -0.132456 -0.063555 -0.999805 0.068927 -0.598913 -0.422845 0.128670 -0.592860 -0.337137 0.426900 -0.567966 -0.275401 -0.337868 -0.801089 0.304820 0.439620 0.457475 -0.615298 -0.159478 0.055077 0.518628 -0.294881 -0.003146 -0.660176 -0.001033 0.369566 -0.646432 -0.835230 -0.715497 -0.629671 0.733961 0.120974 -0.713785 0.797827 -0.559976 -0.494861 0.495115 0.001104 -0.373239 -0.613433 -0.637097 -0.063808 -0.430999 -0.915325 -0.323637 -0.542237 0.728490 -0.145365 -0.855314 0.762247 -0.130577 0.290227 -0.810055 0.838547 0.505573 0.183537 0.744136 0.575812 0.127190 0.612089 -0.551196 -0.783534 0.655077 0.397952 -0.928668 -0.454098 -0.034766 0.911634 0.544955 -0.254414 -0.562980 -0.293891 0.282237 0.052466 -0.540121 -0.851086 0.582073 -0.951785 0.009089 0.891634 -0.980491 0.455971 0.124708 0.344626 -0.662408 0.777520 -0.892882 0.829904 0.895603 -0.822471 0.161409 -0.723694 0.203458 -0.269549 0.280488
-0.199621 -0.019234 0.798686 0.691159 0.590077 0.377875 -0.364148 0.963652 -0.291210 -0.934425 -0.653453 -0.798844 -0.186685 -0.818010 -0.052939 0.989312 -0.168750 -0.592496 0.105003 -0.629252 -0.063362 -0.550217 -0.613433 0.026915 -0.481231 0.270245 -0.348980 0.815189 -0.357879 0.299373 0.033776 -0.884940 -0.428647 -0.535691 -0.807006 0.112791 0.032222 0.813083 -0.816131 -0.450860 0.923700 -0.485876 0.028026 -0.199467 -0.943225 -0.058239 -0.163651 -0.942601 0.375519 0.289176 -0.809018 0.702045 0.118196 0.771906 0.145854 0.812648 -0.856462 -0.426881 0.011555 0.071081 -0.997442 0.622595 0.452827 -0.354561 0.492381 -0.839642 0.761425 0.147276 0.084618 -0.518850 0.569499 0.903060 -0.661613 0.784105 -0.184248 -0.753284 -0.951866 -0.997526 0.379016 0.831987 -0.330358 -0.986376 -0.212876 0.433847 -0.537650 -0.908623 -0.525983 0.446408 -0.169497 0.127910 0.949103 0.035819 0.707650 0.797922 -0.935162 -0.742630 0.373188 0.429020 0.466388 0.983596 0.782638 -0.923038 -0.202223 -0.305883 -0.233446 0.021322 -0.667229 0.925417 0.014798 0.881098 0.960675 -0.340900 -0.210650 -0.406125 0.235992 0.237636 0.025386 -0.158969 0.795087 -0.887708 0.326835 -0.861461 0.261475 -0.788649 -0.249060 -0.560004 0.811359 0.125438
0.790307 -0.162358 -0.038365 0.482636 -0.504250 -0.437216 0.231253 -0.057987 0.542608 0.296565 0.366881 0.226471 0.354192 -0.314426 0.238696 0.432162 -0.720626 -0.749390 -0.307741 -0.525874 0.276131 -0.226491 0.471496 -0.239578 0.242291 0.292257 0.711649 -0.834793 0.477744 0.812368 0.997109 0.832154 -0.838791 0.181965 0.735091 0.192675 0.661745 -0.523031 -0.020246 0.292214 -0.497749 -0.766577 0.577556 0.121537 -0.823053 0.197142 -0.499243 0.398343 0.907455 -0.600551 0.793428 -0.988303 0.586696 0.998980 0.331432 0.976944 -0.024739 -0.853287 0.249727 -0.594790 0.242447 -0.546110 0.971643 -0.848469 -0.476041 0.004759 -0.025346 0.351617 -0.628557 0.523085 -0.038007 -0.198833 0.776305 -0.128283 -0.787540 0.430295 0.164323 -0.041822 -0.603556 -0.029836 -0.717895 -0.419206 0.165483 0.589829 0.827501 0.079305 -0.582747 0.883130 0.122369 -0.115762 0.492595 0.452788 -0.953329 0.335286 -0.557898 0.841118 -0.981725 0.748411 -0.447728 -0.198467 -0.270340 -0.659797 0.026258 0.479830 0.419092 -0.180837 0.928772 -0.873459 -0.377370 -0.175241 0.671000 -0.245327 0.201552 0.257227 -0.299591 -0.504120 0.608614 -0.958570 -0.669648 -0.199619 0.903599 -0.018585 -0.913835 -0.517427 0.729409 -0.635135 0.780689 -0.408552
-0.822381 -0.912153 -0.830221 0.311140 0.695016 -0.331257 0.516186 0.209183 -0.651926 -0.735239 -0.392868 -0.586055 -0.181457 0.622771 -0.228651 -0.086230 0.553146 -0.293414 0.541880 -0.931753 0.447490 0.914612 -0.167544 -0.981259 -0.063935 0.568785 0.129445 0.465732 -0.753953 -0.979914 0.583853 -0.080817 0.778527 0.371194 -0.605235 0.804087 -0.254314 -0.759010 -0.944243 -0.065314 0.403052 0.747666 -0.199385 0.619383 0.428890 -0.442056 0.154964 -0.516016 -0.429435 0.585885 -0.037036 -0.177613 0.375567 0.596678 -0.708405 0.140963 -0.276365 -0.587647 0.119191 -0.139228 0.844388 -0.355476 -0.541909 0.147137 0.541843 0.645400 0.261410 0.885647 -0.259100 -0.680420 0.398609 -0.115650 -0.402455 0.534546 -0.213292 0.123135 -0.024719 -0.631332 0.322418 0.944634 0.452244 -0.132530 0.585746 -0.981841 -0.429533 -0.086108 0.134098 -0.662290 0.575709 -0.159249 -0.900686 -0.052676 -0.805734 0.895311 -0.706597 -0.012627 -0.442297 0.435236 0.262070 -0.331831 -0.957830 -0.760584 0.370641 -0.506437 -0.424679 0.475496 0.701130 0.960474 0.051796 -0.411151 0.135212 0.528661 -0.204180 0.912149 -0.138475 -0.319886 -0.331589 0.231513 0.442040 -0.468286 -0.131504 -0.240189 -0.365446 0.073499 0.746082 -0.930414 0.681862 0.808975
-0.318060 -0.776059 0.446527 -0.368768 -0.871028 0.631889 0.600401 0.250875 -0.917067 0.119452 0.777385 -0.477252 -0.468110 -0.896640 0.335072 0.246105 0.579326 0.155461 0.761685 -0.978383 -0.255140 0.695526 -0.570869 -0.301333 -0.010558 -0.919215 0.951286 0.262393 -0.583978 0.857076 0.287666 -0.790973 0.846755 0.512004 0.822088 -0.363907 0.929162 0.296303 0.540648 0.974629 -0.286107 0.894891 0.214947 0.603625 -0.415780 0.793451 -0.368987 -0.317767 -0.047784 0.579430 0.829929 -0.403481 0.544542 -0.536498 0.243866 0.659108 0.291281 -0.998635 0.206850 -0.659101 -0.717005 0.272511 -0.926094 0.945412 0.101045 0.886085 0.493775 -0.513304 0.041956 0.273671 0.647501 0.714073 0.939536 -0.174735 -0.390353 -0.257397 0.296854 -0.736551 -0.203650 -0.227672 -0.593751 0.590462 -0.576362 -0.633659 -0.697738 -0.688180 -0.398497 -0.539022 -0.834272 -0.969860 0.799652 0.379559 0.541063 0.148453 -0.955243 0.825505 -0.610173 0.723706 0.472639 0.561888 0.010193 -0.773234 -0.616868 0.750328 -0.044388 -0.202584 0.584909 -0.415199 -0.310852 0.720654 -0.641898 0.414053 0.889690 -0.398490 0.059982 0.449077 -0.602993 -0.927092 -0.884292 0.153432 0.410285 -0.217903 -0.202079 -0.192740 -0.642684 0.825070 0.257712 -0.812281
-0.840462 -0.266967 0.944465 0.460490 0.993046 0.536820 -0.240564 0.536149 -0.789744 0.804873 0.294915 -0.531456 0.449172 -0.554818 -0.283603 -0.627634 -0.499176 0.547710 -0.544094 -0.383611 0.213625 0.098516 -0.077179 0.416559 -0.752547 -0.921485 -0.266954 -0.545291 -0.470376 0.004823 -0.460556 0.036279 0.103141 -0.007566 -0.315108 -0.442398 0.094273 0.390903 0.745114 0.418133 -0.117646 -0.747110 -0.401261 -0.029821 0.882392 0.992194 -0.026212 0.255570 -0.733724 0.188334 0.873243 -0.892278 -0.353656 0.948786 -0.773024 0.192646 -0.839082 -0.390140 -0.493237 0.624926 -0.005595 0.193922 -0.064929 -0.519111 -0.920184 -0.660899 0.427491 0.804162 0.225691 -0.779776 -0.398938 0.623746 -0.553652 0.366517 0.405954 -0.184755 -0.963206 0.286618 -0.548836 0.519402 -0.285644 0.658255 0.970664 0.712139 -0.236047 0.631683 0.255294 -0.562872 -0.564619 0.214035 0.940758 0.770286 0.746787 -0.329358 -0.833661 -0.300876 -0.520598 -0.100177 0.841864 0.022015 0.846916 0.739808 -0.142846 0.884726 0.531170 -0.386626 0.947086 0.035584 0.563860 0.197835 0.720653 -0.539177 -0.520415 0.450659 -0.428582 0.665927 -0.157042 0.231960 -0.792251 0.470078 -0.912860 -0.288385 0.491351 -0.770170 -0.491117 -0.321651 0.714526 0.766189
-0.892211 0.164712 -0.101229 0.221120 -0.772077 -0.912302 -0.730238 -0.194825 0.506800 -0.722081 -0.791932 0.322880 0.934966 -0.780321 0.602033 0.610583 -0.067700 -0.515549 0.365976 0.625104 -0.569098 -0.350792 -0.873472 0.977841 0.731426 0.396101 -0.746364 0.107733 -0.247318 0.738546 -0.461028 -0.711664 0.425366 0.856538 -0.051086 -0.274255 0.637778 0.002288 -0.566734 -0.004535 -0.821956 0.430146 -0.023293 -0.239312 0.387894 0.048971 0.643358 0.929942 0.447945 -0.204337 -0.802605 0.028022 0.213062 0.030654 -0.412436 -0.727764 0.208377 -0.061700 0.164127 -0.779448 0.357005 0.428337 0.184889 0.586318 -0.427321 -0.482385 -0.186729 0.793230 0.374458 0.214532 -0.216142 0.152362 0.771018 0.616996 0.534110 0.177746 -0.122792 0.976808 0.209837 0.951581 0.822061 -0.225829 0.337978 -0.541841 0.012752 -0.522212 0.387023 -0.837842 -0.936649 -0.708712 0.493998 -0.831537 -0.773660 0.862719 0.406014 0.224337 -0.470518 0.482362 0.700509 -0.024963 -0.780051 0.160281 -0.079964 -0.229796 -0.469093 -0.756551 0.671446 0.208058 0.286575 -0.942198 -0.563711 -0.198764 -0.198485 -0.092624 -0.593054 0.385861 -0.523259 0.477499 0.256508 -0.845321 0.999364 0.881104 -0.785043 -0.294421 -0.477703 0.276056 0.335281 -0.041713
