-0.243638 -0.196122 0.942612 -0.818271
-0.061514 -0.436824 -0.507800 -0.872644
-0.146781 -0.053663 -0.285863 -0.012257
-0.972068 0.757547 -0.610133 -0.733782
-0.480910 0.355901 0.009643 0.007620
0.776099 -0.111187 -0.742267 -0.070372
-0.085392 0.703816 0.256792 0.326679
-0.136450 -0.228174 -0.976828 -0.109258
0.524895 0.192634 -0.367406 0.654600
0.515278 -0.626120 0.015472 0.290174
-0.787177 -0.432162 -0.963385 -0.782488
0.009931 -0.456986 -0.696290 -0.345949
0.910708 0.445051 0.110391 -0.741984
-0.900626 -0.632609 0.677857 -0.350815
0.765136 -0.126660 -0.028516 -0.748866
-0.194998 0.029087 0.437392 0.467282
0.311100 -0.593410 -0.415622 -0.078293
-0.917609 0.272488 -0.853201 -0.335590
-0.323401 0.574137 0.869915 -0.856952
0.271701 0.429062 -0.284790 -0.521450
0.030737 -0.342176 0.409855 0.493030
-0.074833 0.360485 0.149545 0.805994
-0.859611 1.031570 -0.518438 0.695843
0.461458 0.094968 -0.646994 -0.454765
0.760727 -0.493170 0.321888 0.152154
-0.320283 -0.851145 0.269135 -0.432023
0.558772 0.631727 0.695431 -0.298081
0.582628 0.143457 0.151877 0.098757
0.263866 0.172563 0.229770 -0.260999
0.015414 0.942894 0.282058 0.279075
0.554771 -0.158173 0.364850 0.640910
0.002258 -0.208999 0.761740 0.410568
-0.013552 0.474207 0.828138 0.132113
-0.751262 -0.635419 -0.067893 0.429897
-0.972990 -0.183162 -0.008693 -0.454446
-0.635157 0.097694 -0.562360 0.721330
-0.571998 -0.689734 -1.004841 -0.770682
0.107743 0.846518 0.728505 -0.686410
0.673084 0.623332 1.003431 0.748199
-0.916867 0.857078 0.826512 0.983862
-0.028962 -0.894868 -0.708916 0.360159
-0.619412 -0.111822 0.666203 -0.961217
-0.730143 0.227237 -0.535154 -0.564235
-0.749765 -0.555118 -0.565666 0.725598
-0.102605 0.404910 -0.721057 0.118641
0.787492 0.782745 0.020836 0.101307
0.382579 0.813035 1.000276 0.392624
-0.819582 -0.194861 -0.802185 -0.220304
0.020499 0.580363 0.758141 0.968794
0.792236 0.789441 0.794897 0.871824
-0.410473 -0.532427 0.736250 0.232135
0.532152 -0.205464 -0.752770 -0.304547
0.369990 0.204944 -0.229270 -0.893513
-0.705178 0.894130 -0.752348 0.205488
-0.905962 -0.374372 0.315967 -0.695629
0.179103 -0.432155 -0.075272 0.331957
-0.910223 -1.110494 0.246815 -0.557675
-0.648722 0.564346 -0.168688 -0.934898
-0.831805 -0.381220 0.894737 -0.164332
0.190708 -0.253996 0.807634 0.484377
0.118707 0.287484 -0.366233 0.346457
0.477986 0.816245 -0.633220 -0.614901
0.807022 0.218899 -0.455986 0.045375
0.653193 -0.866566 -0.338439 -0.125267
-0.431744 -0.641069 0.592670 -0.321607
0.281397 -0.068952 -0.247559 -0.500596
0.909299 -0.906525 0.954261 -0.207803
0.590389 0.753895 0.975330 0.104908
0.577972 0.852063 -0.904602 -0.396733
-0.068808 -0.289601 -0.151776 0.194660
0.809366 0.151492 -0.735310 -0.030801
0.190792 0.691022 -0.595234 -0.351679
0.129052 0.361415 0.883518 0.465227
-0.919670 -0.460647 -0.834062 0.752887
-0.568811 -0.905422 0.492378 -0.639204
-0.175664 0.885959 -0.630329 0.122466
0.660884 -0.620388 0.337584 -0.076669
-0.484893 0.156923 0.829062 -0.082868
-0.799864 -0.349989 -0.680851 0.141766
-0.382725 0.388532 -0.186177 -0.936039
-0.747638 -0.011676 0.142733 0.273200
0.660750 0.369986 -0.591109 0.189590
0.068049 0.254109 -0.408525 0.515036
0.430824 0.387226 0.592004 -0.810250
-0.160436 -0.362498 0.634935 0.269052
-0.364997 0.253847 0.018123 0.892555
-0.465700 0.436702 -0.423000 -0.435345
-0.427813 -0.335432 0.215110 0.068306
-0.702277 0.393637 0.520948 0.801586
0.769577 0.418430 0.413882 -0.099755
0.810896 0.694476 -0.949957 0.616346
0.175557 1.003649 0.039574 -0.516146
0.552646 -0.424498 0.652210 0.523758
0.712033 -0.483930 -0.337138 -0.198091
-0.093603 1.049637 -0.491498 -0.425271
0.715288 -0.484292 -0.412824 -0.737241
-0.580062 -0.624614 0.391465 -0.629786
-0.736670 -0.257779 -0.943742 -0.053329
-0.900008 0.750706 -0.384252 0.734100
-0.780367 -0.279846 -0.843813 -0.383854
0.521647 0.986476 0.551045 0.698761
0.751593 -0.937033 0.282843 0.247892
-0.600663 1.004096 -0.191738 -0.816422
-0.033099 0.501488 0.851285 0.441447
-0.619315 0.164957 -0.655938 -0.286881
-0.802669 -0.386949 0.906953 -0.234136
0.055468 0.744598 0.997193 0.060342
-0.804411 0.257009 0.766818 -0.395100
0.451351 -0.928673 0.796191 -0.211952
-0.483965 -0.181582 0.246069 0.731599
1.031220 -0.270168 0.316845 -0.491014
0.118355 -1.004696 -0.346118 -0.751742
0.567103 -0.149316 0.967436 0.875258
-0.195341 -0.727977 0.376058 0.595104
0.515610 0.675873 0.406144 0.161363
0.089711 0.678087 0.421711 -0.624585
-0.050995 0.688351 0.079163 0.563619
0.638525 0.098362 -0.843083 0.570670
0.834059 -0.025787 0.519250 0.514095
-0.505597 0.402275 -0.403394 -0.229477
-0.076162 -0.385895 -0.324286 -0.682522
0.497053 0.139251 0.551930 -0.126627
0.258082 -0.643386 0.795609 0.259576
-0.859954 -0.551073 0.261177 0.670970
0.948546 0.228529 -0.259348 -0.043032
-0.054515 0.094095 -0.043105 0.118672
0.767324 -0.671726 0.953843 0.679746
-0.023350 -0.039243 0.788014 0.734427
