-0.564802 1.079095 -1.392017 0.999153 0.473811 -1.912920 1.457144 -0.400494 0.982216 1.883194 0.429968 -0.949186 0.821540 1.042184 1.727415 -1.878937 -1.386072 -0.968156 -0.977264 -0.739361 -0.413698 -0.620106 -0.612578 -1.907687 -0.122066 -0.430101 0.962864 -0.290415 0.746528 0.389039 -1.183543 1.423063 -1.301748 0.928789 -0.669865 -0.521450 -0.798495 0.329264 -0.404000 0.325923 0.221324 1.551653 -0.108767 -1.132108 0.633963 0.240314 -1.293290 0.703448 1.181705 -1.285894 -0.896492 -1.187134 0.329341 -0.096974 0.559718 -0.707266 1.572890 -0.752303 -1.496165 0.779168 1.176511 -1.625973 0.189007 1.143085 0.784899 0.931033 -0.816492 -0.436626 0.655367 0.228406 -0.531284 0.613630 -0.379828 0.241238 -0.577842 1.866325 -1.111166 -0.673075 2.237506 0.600585 -0.468154 0.590995 0.487372 0.511119 0.536493 1.086015 -0.394813 2.149924 -0.120068 -1.633318 0.195733 1.241377 -0.804093 -0.898144 0.711416 -0.090789 -0.050015 0.329903 -0.897270 0.233993
-0.753619 0.782210 -0.150995 -0.144952 -0.650186 -0.051336 0.830306 -0.635441 0.462352 -0.381979 -0.863178 -0.747521 0.460882 -0.503306 -0.251901 -0.605290 0.079042 0.687257 -0.707335 0.696024 0.778144 -0.667101 -0.869939 0.923748 0.361722 0.642555 0.900492 -0.835414 -0.105043 0.356787 -0.669022 0.361836 0.618838 -0.171668 -0.332138 -0.671570 0.854459 0.020975 0.089511 -0.460263 -0.048914 -0.343410 0.390384 -0.669088 0.087562 -0.712918 0.565066 -0.573156 -0.130530 0.079186 0.288952 0.986377 -0.212311 -0.854383 -0.420174 0.103600 0.732562 0.142684 0.280171 0.403772 -0.222195 -0.945853 0.659751 0.930593 0.621781 0.203178 0.533698 -0.332374 -0.060561 -0.972014 0.759891 0.520928 0.798342 0.779404 0.078275 -0.926029 0.025709 -0.402205 -0.793708 0.887984 -0.142834 -0.945924 0.800313 -0.196476 0.868730 -0.676297 -0.114829 0.626581 0.191330 -0.463771 0.286223 -0.155974 0.470155 -0.810901 0.309758 0.656630 -0.463745 -0.789078 -0.345485 -0.971576
-0.299487 -0.363235 2.000686 -0.597281 1.119250 0.247431 -1.804038 0.392524 0.799660 -1.377679 -1.155397 -0.330754 -0.610127 -0.505682 -1.471307 0.420232 1.143733 0.342865 1.409175 -0.545775 1.505976 0.531146 0.707149 1.217596 -0.904651 -0.415969 0.080689 -0.460109 -1.085299 0.832988 0.226811 -0.667259 0.270476 0.746397 0.886988 -0.375017 -0.561570 -0.256924 0.019232 -0.354011 -0.936544 -1.311780 -0.705217 0.822940 -0.769883 -0.595285 1.819910 0.201632 -0.612000 0.186910 -0.262634 0.976021 0.875136 -0.092019 -0.450758 0.289069 -0.131661 0.455211 1.321460 -0.688930 0.319785 1.112319 0.229738 0.521380 0.379822 0.588746 -0.244925 -0.083584 -2.208789 -0.651456 -0.767813 -0.722479 -0.250784 -0.466384 0.033124 -2.256615 1.052019 0.442012 -0.909282 -0.089636 -0.683170 0.777680 0.475864 -0.624337 -0.324998 0.205012 0.308882 -1.051369 -0.374259 0.798068 -0.258938 -0.125032 1.715685 -0.930232 0.238036 -0.225461 -1.157637 -0.564536 -0.388545 -0.370532
1.176379 -2.791173 -3.268279 1.021209 -1.076092 -2.819560 -0.266294 0.896206 1.877634 2.413647 0.156179 1.409754 2.232530 0.769545 0.846325 -0.480919 -0.076529 -0.049863 -0.414184 0.801582 0.139610 -1.957847 0.720692 -0.003734 -0.339436 -0.717637 2.787905 -0.654460 0.516704 0.275583 -3.052604 1.294097 -0.781606 0.084946 -0.964277 -0.230547 0.118031 -2.624194 0.707636 0.343697 -0.503489 0.048023 1.660096 -1.584622 -1.696822 -1.430842 0.280091 2.394735 1.615133 -0.018742 -0.810000 -1.401681 -2.017094 1.203037 0.162588 -0.977208 1.336595 -0.094029 -2.385160 -0.756122 1.310140 -0.589410 1.271845 0.081308 -0.080531 1.279138 1.371245 -2.314045 0.323123 0.940926 0.077941 -1.080816 0.186754 0.369546 1.819832 0.417048 -1.260127 -0.824521 -0.160297 -0.405929 -1.126959 -1.267971 -2.261969 1.550515 0.055017 0.817941 0.816266 1.887148 0.238881 -1.263834 0.243517 0.377712 -2.177751 -1.928346 0.889846 1.745307 0.547737 -1.055857 -0.459856 2.007366
0.920707 0.666149 -0.981040 -0.795971 -0.832948 0.953842 0.804109 -0.704091 -0.315342 -0.973964 -0.367688 -0.355461 -0.988342 0.946164 0.232522 0.696074 0.095552 -0.134092 0.704010 -0.137475 -0.047160 -0.075727 0.280842 0.030731 0.658281 0.827588 -0.190926 0.232799 0.665354 0.612293 0.501566 0.196129 0.185676 0.253162 -0.461500 0.655415 -0.348489 0.632685 0.706061 -0.470728 0.033359 0.795015 0.701793 0.208448 0.861631 0.018123 0.348170 -0.322170 0.306821 -0.478830 -0.814406 0.672460 0.015686 -0.707416 0.359568 -0.407261 0.579671 -0.140081 0.005496 0.132952 0.059706 -0.709198 0.378458 0.985320 -0.230301 0.955317 0.477266 0.150952 0.736694 -0.525930 -0.631585 0.151208 -0.584485 0.940247 -0.853252 0.629043 -0.508372 0.523804 0.572719 0.447855 0.741603 0.723734 -0.285371 0.718747 -0.303957 -0.407565 0.396523 -0.836598 -0.743856 -0.513588 -0.087702 -0.104284 0.979916 -0.339218 -0.971567 0.423361 -0.157292 0.148440 0.055859 0.218636
-0.845322 1.776456 2.316715 0.080424 -0.068146 1.346019 -0.007395 -0.247565 0.230646 -2.012908 0.693197 -1.646723 -1.866446 -0.117295 -1.563572 0.497845 -0.493591 -0.256389 0.301284 0.118673 -0.463827 1.105344 -0.857175 -0.417043 0.064559 0.745054 -1.176825 1.705136 -1.312889 -0.080204 3.206791 -0.062599 -0.554404 0.690556 -0.218819 1.153466 0.407467 2.153634 0.360691 0.267787 0.417705 -0.054673 -1.851654 -0.293916 0.654959 -0.164632 1.013609 -2.042166 -0.305455 -0.754454 1.227703 1.172588 1.383635 -0.929645 -0.448522 -0.101404 -1.101925 -1.236418 2.240418 1.411523 0.340538 1.973508 0.071698 0.338413 0.798562 -2.527798 -1.478558 0.467674 -0.635777 -2.141036 -0.132844 1.057556 -0.375359 -1.457489 -0.412847 -0.701863 0.881201 0.062487 0.376665 -0.350574 1.150202 0.621924 1.885448 -1.297427 0.477970 -1.415119 -0.825571 -1.862937 0.098149 1.793252 -0.171157 -0.278988 2.580433 0.660342 -0.861040 -1.021223 -0.212311 0.891173 -1.443383 -1.775004
0.367741 -1.929285 -2.478683 -1.086268 -1.322529 -1.749326 -0.251253 0.186416 1.331961 1.801735 -1.270245 1.255167 2.301226 0.560484 1.340015 -0.037363 0.365637 -0.004975 -0.899427 0.929039 1.451396 -0.878680 -0.438700 -1.077168 -0.299595 0.192761 2.597384 -0.894401 1.025376 -1.374014 -2.875742 0.764022 -0.506947 0.096827 -0.567238 -1.474719 -0.693331 -2.242769 0.996635 -1.101573 0.108007 -0.219490 1.088450 -0.931532 -0.080864 -1.051300 -0.188636 0.663919 -0.226050 1.039037 -0.469585 -1.260414 -1.550826 -0.552131 0.835023 0.208294 -0.038459 -0.391672 -2.070253 -1.880965 0.384239 0.058868 1.276250 0.082360 -0.544958 1.991559 1.283770 -0.330383 -0.444414 1.598864 -0.004836 -0.447208 0.448303 1.485496 2.056324 -0.589742 -1.712572 -0.334064 -0.952582 -0.079197 -1.128170 0.227229 -0.882781 0.394639 -0.047463 1.602431 -0.260754 0.665722 0.417389 -1.178846 0.164776 0.356344 -1.981177 -0.852217 1.056916 1.846645 -0.212829 -1.412062 0.322796 1.003912
-0.742528 -0.842812 -0.425735 0.131075 0.538195 0.024160 0.818155 -0.261093 0.615309 0.835725 -0.685295 0.647251 -0.033580 0.093978 -0.203598 -0.922447 -0.740842 -0.734168 0.254014 -0.626186 -0.903990 0.526296 0.042211 0.708637 0.438216 0.680166 0.537722 -0.088801 -0.915109 -0.009593 -0.206419 0.407786 0.954944 -0.693782 0.784710 -0.222104 -0.728786 -0.224854 -0.006992 0.636171 -0.574743 -0.747333 -0.341383 0.666544 -0.472914 0.395814 -0.556633 -0.260674 0.438495 -0.701371 0.054004 0.796344 0.586192 0.122602 0.730335 0.942176 -0.414955 0.369021 0.885108 -0.550905 0.826556 0.878310 0.565442 -0.768239 -0.658712 -0.068111 0.330287 -0.988621 -0.308758 -0.069196 -0.330355 0.908693 0.835455 0.997761 0.862288 0.773823 -0.402968 -0.895921 -0.056937 0.186020 0.488138 -0.768569 0.108271 0.180365 -0.272147 -0.975797 0.873169 -0.476616 0.011478 -0.421163 -0.045378 -0.014260 0.652650 -0.080808 0.939685 -0.832835 -0.002354 -0.778738 0.152679 -0.681296
-1.348768 2.410514 1.983135 1.188311 1.290671 0.992479 -0.166235 0.043853 -0.857932 -1.274301 0.343725 -1.952344 -2.587188 -0.250585 0.416540 -0.252928 -0.591946 0.142319 -0.801876 -1.215480 -0.926820 0.484449 -0.655451 0.477962 -0.503944 -0.084964 -1.664245 0.198615 -0.480021 0.379447 2.544500 -0.413273 -0.596047 0.110536 0.709008 1.176500 1.138636 1.445637 -1.198733 0.780080 0.498908 1.226344 -2.242967 0.268783 1.571061 0.434337 -0.149463 -0.980567 0.210680 0.406267 1.085210 1.036660 0.480987 -0.785475 -0.271040 1.632848 -1.244623 -0.240047 0.702055 0.092230 0.675237 0.851169 -0.592428 -1.056210 0.486099 -2.087616 0.096748 0.153142 -0.302719 -1.546953 0.498782 1.120397 -0.815808 -0.997708 -2.050747 0.544415 1.051669 0.108577 0.708614 0.665554 0.396576 0.464578 1.868745 -0.932683 0.554000 -0.816200 -1.310068 -2.051085 0.746739 0.640599 -0.021654 1.350542 1.877886 1.109532 -0.204312 -1.497488 -0.508981 0.054855 -1.443323 -1.666322
0.804173 -1.660073 -1.114270 -1.185424 -1.008048 -1.376956 -1.368821 0.924365 1.404676 1.307601 -0.203923 1.299741 2.356141 -0.486291 -0.103791 0.168080 -0.547698 -0.543584 -0.426971 0.365301 1.545014 -1.151279 0.946733 0.510954 -0.491466 -1.352583 2.133685 -0.834705 0.620791 -0.929680 -3.163789 0.206017 -0.355404 -1.190906 0.043708 -1.551043 0.436406 -0.793513 1.041725 0.427846 0.924971 -0.247734 0.522793 -0.363045 -0.630521 -0.708134 -0.010869 0.695616 0.039552 0.329924 -1.548162 -0.003503 -0.980139 0.677965 1.192727 -1.016442 0.020445 0.218793 -1.783512 -1.589691 -0.083848 -0.379133 0.565298 0.121248 -1.423301 2.273734 1.382461 -0.129819 0.937194 1.554553 -0.710419 -0.830808 0.599377 0.007694 0.707931 -0.841604 -0.657919 -0.991859 -1.630822 -0.731483 -0.280244 -0.532312 -1.686107 1.069076 -0.421098 0.788131 -0.367955 1.516900 0.170584 0.396193 1.008842 -0.707660 -1.043761 0.313335 1.656314 1.195202 0.434986 0.107519 1.575662 1.357117
-0.643416 0.206853 -0.357363 0.613524 0.373207 0.776562 0.898534 -0.430384 -0.397650 0.978289 0.223188 0.647775 0.391374 -0.752317 -0.864573 0.799119 -0.367588 -0.326162 0.062684 0.346753 -0.572307 -0.601962 -0.666724 0.845970 -0.028264 -0.056101 -0.594360 0.485770 -0.664386 -0.922932 -0.359628 -0.857157 -0.585414 0.962178 0.358580 0.193557 0.009717 0.973806 -0.057528 0.393153 -0.726006 -0.123993 -0.318610 0.470302 -0.058627 -0.661279 0.669382 -0.502772 0.090627 0.233406 0.784454 0.003444 0.101994 -0.578866 -0.377788 -0.609346 0.913598 0.063879 -0.743433 0.987096 -0.915987 0.357214 -0.706866 -0.785468 0.563498 0.245179 0.965376 -0.985447 -0.275444 0.892539 -0.320405 -0.789108 0.337443 -0.819056 -0.332006 -0.793952 0.567793 0.841528 0.109977 0.703784 -0.894213 0.986197 0.929582 -0.342389 -0.797100 -0.092290 -0.316428 0.936945 0.333931 -0.089595 -0.982853 0.907178 0.073650 -0.534549 0.373636 0.475447 0.777405 0.769309 0.414222 -0.884403
-0.707072 2.455135 1.262795 0.477215 1.456646 0.267338 -0.003298 -0.948961 -1.542993 -0.442516 -0.472461 -0.462300 -1.868884 -0.225514 -1.273929 -0.345893 -1.304961 0.495750 -0.844644 0.139289 0.204598 0.462366 0.024551 -0.235611 0.760156 0.716307 -1.347086 -0.641279 -1.059423 -0.009950 3.140897 -0.448312 0.047058 -0.631506 -0.776025 0.818293 0.624252 2.006650 -0.339937 0.810944 0.164469 0.026573 -0.288582 -0.157569 1.368072 0.476286 0.177861 -0.398451 0.312551 -0.197358 0.813713 0.994363 0.087787 0.684230 0.254675 0.025975 -0.966850 -0.578290 1.714725 0.116626 0.727231 -0.454696 -1.242221 0.616523 0.378241 -1.861190 -0.027148 0.136251 0.146773 -2.108837 -0.060560 1.385337 -0.274813 -0.058599 -0.787395 0.599681 -0.287339 0.647123 0.227003 1.348871 0.345640 -0.013545 1.718500 -0.670822 0.131115 -1.790005 0.539201 -0.289144 -0.897914 0.285918 0.834787 0.612926 2.228654 0.859633 -1.355455 -1.425946 0.236077 0.897052 -0.276576 -0.633923
1.921078 -1.753082 -0.802187 -0.470227 -1.135027 -0.631119 -1.075420 0.459377 1.451033 -0.268827 0.211596 0.384855 1.936587 1.281532 1.288506 0.237027 0.703982 0.750704 -0.504712 1.305544 0.010328 -0.243013 0.666636 0.041424 -0.145361 -0.288025 0.164595 0.784565 0.954554 -0.695825 -2.413216 0.194208 -0.283648 -0.392552 -0.426488 0.086976 -0.842140 -1.895303 0.740420 -0.053432 0.913647 -0.306399 1.018491 0.823878 -0.303090 -0.155143 -0.836995 1.081243 0.299696 0.657029 -0.178083 0.282197 -0.463306 -0.946418 0.732947 0.547505 -0.474250 -0.671268 -1.592121 -0.298599 0.592440 -1.113222 0.185409 -0.314329 -0.225773 0.929535 0.812493 -1.548228 0.801509 0.437472 -0.920840 0.001668 0.774958 0.440862 1.355204 -0.034444 -0.776914 0.146716 -1.070434 -1.104265 0.039730 -0.195739 -1.221016 -0.106753 -0.579144 1.357752 -0.000700 -0.132339 -0.604752 -0.682562 0.387326 -0.573144 -1.773211 -0.044104 0.183230 1.178625 -0.926873 -1.233865 1.540035 1.633896
-0.652915 0.032612 -0.450378 0.945361 -0.065443 -0.442228 0.476681 0.231374 -0.917711 0.539391 0.041148 0.056763 0.471986 -0.412181 -0.084848 -0.939806 -0.347114 0.300936 -0.732276 0.500474 -0.226306 -0.777364 -0.303508 0.220978 -0.728491 -0.891060 0.458791 -0.396171 0.631521 0.206801 -0.008989 -0.322493 -0.006316 0.382208 0.391773 0.202502 0.273456 0.081590 0.101521 0.624961 -0.463632 -0.281842 -0.347296 0.680912 0.409675 0.115120 0.952162 0.731229 0.340466 -0.928126 0.874383 0.897391 0.570168 0.110032 0.197077 -0.422550 0.713452 0.238513 -0.429931 0.999160 -0.330510 -0.562387 0.282535 0.326695 0.752598 0.488369 0.550240 -0.191763 -0.157300 0.676821 -0.800031 0.287568 0.339963 -0.991282 0.566936 0.149692 -0.844987 0.269365 0.091418 -0.664237 0.754431 0.038776 -0.482383 0.233428 0.725538 -0.745241 -0.250617 -0.776855 -0.320955 0.276415 -0.685823 -0.309422 0.445513 0.728325 0.846714 0.554755 -0.445671 0.930022 -0.246796 0.843163
-1.779606 2.081218 0.586068 -0.318504 1.399960 0.624257 0.806110 0.634849 -0.878075 -0.706013 0.700031 -0.351433 -1.299662 0.110609 -1.372785 -1.129911 -0.955647 0.003140 -0.168193 -0.136408 -1.283888 -0.304656 0.154981 0.715692 0.905699 1.540626 -0.840798 -0.767951 0.201087 -0.446441 1.419145 -0.975158 -0.583861 -0.216182 -0.620093 0.199145 0.950428 0.590925 -0.072516 0.035838 -0.197366 0.335475 0.010833 0.642412 1.173918 1.062002 0.724427 -0.983374 0.116999 0.119884 1.367089 0.442883 0.125691 0.948741 -0.235227 0.670791 -0.683675 0.379471 1.837592 1.613157 -0.438786 0.073591 -0.771275 0.453082 0.776337 -0.096732 -0.606348 -0.111466 -0.006713 -0.787530 -0.187064 0.308685 -0.396538 -0.460937 -0.969956 1.502284 1.441695 -0.537855 1.347367 -0.187597 0.869025 -0.260520 1.024884 0.554248 -0.409311 -1.531706 0.932166 -0.453775 0.939764 0.637005 -0.134535 0.869444 0.530098 0.291410 -0.013936 -1.612904 0.382239 0.182625 -1.618903 -1.304798
0.914826 -1.265849 -0.250552 -0.114346 -1.405171 -1.580522 -1.159452 1.113156 1.390854 0.392886 -0.540856 -0.146741 0.624859 0.923686 0.635187 0.141027 0.998700 0.293552 -1.005385 -0.400723 0.956861 -0.550029 -0.606353 -0.940893 -0.076463 -0.905623 1.633429 0.188982 0.012510 -0.197700 -1.627964 0.846439 -0.237024 -0.292720 0.016356 0.019627 -0.089258 -1.284318 -0.272013 -0.695340 0.035286 0.423963 0.367727 -0.859306 -0.615223 0.219568 -0.194635 1.146640 0.070385 -0.313827 -0.408174 -0.334618 -0.981000 0.809393 1.255707 0.344061 0.218381 0.513992 -0.221059 -0.116004 -0.029116 -0.337364 0.623286 -0.934683 0.374348 1.065368 0.063612 0.092154 -0.548927 1.147343 -0.700961 0.261563 -0.283771 1.191066 0.469057 -0.058305 0.161195 -0.455210 -1.007488 -0.290660 -1.243721 -0.447219 -1.700793 0.459262 -1.042531 0.904307 -0.170404 -0.185491 0.520698 -0.340151 0.344665 -1.000256 -1.598520 0.124573 0.371790 -0.461690 0.911733 -0.313984 0.703139 1.610157
-0.669932 -0.221578 0.629472 -0.812354 0.201345 0.055968 -0.884027 0.384460 -0.778117 -0.206034 0.416107 -0.493583 0.545938 -0.338864 0.995636 -0.739699 0.235382 0.806478 0.271055 0.967404 -0.347291 -0.812834 -0.198195 -0.524055 0.009470 0.564212 0.421463 0.118876 0.812531 0.106902 -0.308705 0.643842 0.959236 -0.705835 -0.163537 0.539684 -0.524168 -0.474289 0.065289 0.330719 0.284447 -0.260171 -0.105986 0.722584 0.674312 -0.233279 0.282506 -0.459373 -0.633001 -0.540985 0.540922 0.709815 0.949530 -0.395292 -0.893281 -0.922887 -0.924532 -0.213351 0.447371 0.371208 0.572872 0.654937 -0.633972 0.998871 0.160252 -0.027763 -0.279944 -0.810493 -0.405637 0.511022 -0.117984 -0.515076 0.850393 0.493896 0.444231 0.204562 0.266054 0.925276 0.357775 -0.979521 -0.854071 -0.012354 0.171083 0.100133 -0.015853 -0.629480 0.605756 0.486936 -0.914481 0.656254 -0.762370 -0.620900 -0.131042 0.900725 0.574931 0.604255 -0.837053 0.659524 0.424023 0.595546
-0.189314 0.926081 1.133799 0.344358 -0.318960 0.078499 -0.041103 -0.527589 -0.006462 0.397448 -0.007984 -1.630552 -1.813374 0.680691 -0.590143 -0.795919 -0.020558 0.759483 -0.349250 0.167873 0.458830 0.333496 0.817408 -0.108586 0.266182 0.009406 -1.117522 0.786532 0.097489 1.167206 0.720806 0.462558 0.040139 -0.474240 0.143598 1.283762 0.954367 1.020252 0.003964 -0.426434 0.045403 -0.512845 -0.194172 0.249357 0.548099 0.315087 0.595608 0.102590 -1.061263 -0.506992 1.520663 0.962576 -0.415138 -0.030098 -1.294728 0.050661 0.877839 0.799700 -0.147154 0.173702 -0.017241 -0.781751 -1.265098 0.451448 0.308370 -0.420181 -0.752534 -0.465433 -0.512907 -1.023729 0.343315 0.565539 0.385851 0.272078 -0.822461 0.931049 0.994400 0.530445 1.282978 0.660702 1.061454 0.522705 0.267419 0.502014 0.846811 -1.306360 0.528778 -0.145734 0.338690 1.063511 -0.896497 1.168439 1.208141 0.372073 -0.682430 0.441309 0.905289 -0.294720 -0.053599 0.478361
0.612458 -0.581058 -0.363202 0.501070 -0.548382 -1.445698 -0.220925 0.218845 0.496834 -0.283561 0.978427 0.745334 -0.207520 0.233695 0.299335 -0.969926 0.300021 0.451638 0.263347 -0.514493 1.222412 0.277170 -0.769194 0.954126 -0.097127 -0.444446 0.614871 -0.662117 -0.251389 -0.132520 -0.372550 -0.737542 0.575739 -1.211008 0.711724 -0.118399 -0.024562 0.446606 -0.733586 0.004809 -0.297798 0.652886 -0.371522 -0.868865 -1.041353 0.097988 0.026629 1.062242 0.704013 1.180283 -0.459832 0.520725 -0.379750 -0.483113 1.058026 -0.236862 0.820619 -0.076024 0.104162 0.107009 0.099506 0.026056 -0.160223 0.932944 -0.516730 0.031529 0.470008 -1.000707 -0.421120 0.592524 0.111230 -0.931272 -0.181059 0.727823 -0.209603 -0.484527 0.259054 -0.526550 0.579834 0.644625 0.692276 -0.287359 -0.726132 0.239358 -0.380097 0.659252 0.006792 0.757264 0.537115 -0.113286 -0.770305 -0.372190 0.387602 0.597648 0.088646 -0.567276 0.242226 -0.250794 1.291769 1.229175
0.240699 0.886293 -0.958992 -0.863520 0.132050 -0.079759 0.308344 0.608156 -0.741547 0.619542 -0.245932 0.126218 0.619973 0.084027 -0.209357 0.312202 -0.492485 -0.060527 -0.993893 -0.735005 -0.580597 -0.748707 -0.003163 -0.122877 0.115394 -0.086490 -0.972520 -0.487270 -0.583603 0.521161 -0.860241 -0.195670 -0.103587 -0.675241 0.911359 0.894968 -0.906359 0.303122 0.380694 0.999539 -0.987819 -0.308609 0.062320 0.735743 0.794950 -0.182164 0.981445 0.615850 0.935163 -0.690993 0.093954 0.356527 -0.857584 -0.100127 -0.428701 0.584421 -0.367589 -0.750261 0.310191 0.150846 0.459735 0.005789 0.568174 -0.879325 0.685981 0.274403 -0.923753 0.226217 -0.150837 -0.940815 0.552053 0.248500 -0.318955 -0.374379 -0.537499 0.391320 0.071790 -0.605255 -0.447118 0.671100 -0.841782 0.376706 0.114853 -0.735848 -0.523108 0.438653 0.626987 0.972926 -0.603190 0.689683 0.134790 0.935891 0.636666 -0.225020 -0.799458 -0.854742 -0.327610 -0.287550 0.918558 0.698466
-1.428806 1.034225 0.320608 0.849766 0.082348 0.880130 1.097828 -1.102141 -0.147275 0.632438 0.778211 -0.893866 0.168582 -0.612812 -1.217954 -0.320462 0.439188 0.518672 1.029784 -0.208011 -0.681216 -0.015905 0.593198 0.657062 0.316347 0.704815 0.592037 0.604385 -0.209640 -0.084570 1.507982 -0.458015 -0.192128 0.137206 0.010424 -0.578642 0.803732 0.206701 0.287967 0.149862 -0.083447 -0.466883 -0.445752 -0.667516 -0.331238 -0.663314 0.759009 -0.945090 0.389943 -0.115013 0.391872 -0.032097 0.819212 -0.916214 0.154676 -0.227428 0.263973 -0.851728 -0.076402 0.270387 0.335048 0.154051 -0.315338 -0.869731 0.933235 0.070956 0.495797 1.051708 1.033564 -0.645318 0.679878 -0.056870 0.820942 -1.244864 -0.738946 -0.461654 1.035602 0.112971 -0.208402 0.503010 0.043315 -0.185615 -0.155300 0.609738 -0.749787 -1.168401 -0.673047 -0.460083 -0.014776 0.909964 -0.570084 0.577441 1.081950 -0.265054 0.693568 -0.674884 -0.419446 1.299132 -0.285771 -0.721412
1.058198 0.670980 -0.083682 0.008682 0.564740 -0.976186 -0.453422 0.674937 -0.857353 -0.087651 -0.157406 0.350461 1.337298 0.587111 0.861067 0.819928 0.020668 0.108332 0.223355 0.845664 -0.301714 -0.815826 0.195916 -0.558277 -0.445741 -0.128218 0.781906 -0.506299 1.091324 -1.101045 -0.128951 -0.766951 0.675898 -0.589277 0.872718 -0.231672 -0.509303 -1.006762 -0.179145 -0.889782 1.004755 1.014484 0.142221 -0.481329 0.572890 0.785054 -0.347863 -0.795518 1.106215 -0.039341 -1.036797 -0.753887 -1.088666 0.106240 -0.033439 -0.562564 0.439624 0.900856 -0.818960 0.087900 0.114590 -0.160845 0.515984 -0.969646 0.155393 0.187572 -0.032625 0.300454 -0.781645 0.433471 -0.895191 0.349439 0.923319 1.096566 0.647496 -0.622140 -1.265922 0.546057 0.416520 -0.558010 -0.719778 0.530781 0.579322 0.176977 0.350944 1.086381 0.420998 0.390520 -0.645088 0.235697 -0.916736 0.358453 0.438075 -1.086428 -0.607663 0.025996 0.016800 -0.364723 0.340201 0.018149
0.388943 0.394917 0.849606 -0.030790 -0.833434 0.699469 0.708507 0.906987 0.349966 -0.399261 0.571702 0.538040 -0.763216 0.013480 -0.001490 -0.737877 0.585037 0.825124 0.542635 0.763062 -0.009746 0.807644 -0.995948 -0.135951 -0.696495 0.170918 -0.472204 -0.757293 -0.005579 -0.083610 -0.084237 -0.643609 -0.688924 0.767428 -0.914473 0.420866 0.856863 -0.653342 0.656388 -0.444688 0.874815 -0.925899 0.125077 -0.791312 0.871035 0.538218 -0.678266 -0.508319 0.835387 -0.674249 0.859040 0.605332 0.156615 -0.730615 -0.271727 -0.437232 -0.025588 0.082355 -0.519393 -0.804973 -0.099762 -0.935261 -0.562674 0.747769 0.781081 -0.417218 -0.473291 0.571532 0.747649 -0.004274 -0.770901 0.412639 0.196604 -0.122646 -0.494641 0.302692 -0.990202 0.244980 0.218318 -0.924730 -0.870525 0.327896 -0.871770 -0.873878 -0.791563 0.413074 -0.233153 0.210927 0.742427 0.217464 0.027669 0.104523 0.933677 -0.765353 -0.409349 -0.795762 0.539221 0.315359 -0.303254 0.294869
-0.399339 1.070950 0.346915 -0.318127 -0.482313 -0.078817 0.605813 -0.780799 0.856546 -0.279005 0.357560 -0.295300 0.330403 -0.982924 -0.907210 -0.988961 -0.308320 -0.076532 0.722387 0.168444 0.053051 1.048902 0.605301 -0.349533 -0.489015 -0.350430 -0.142128 -0.513108 -0.078469 -0.566043 0.957897 -0.490660 0.185700 0.711088 -0.587397 1.022689 0.107407 0.667888 0.683335 1.362980 0.940961 -1.094075 0.519931 0.184284 0.025793 -0.548707 -0.146254 -0.962103 -1.058962 0.579927 0.075084 -0.624324 0.765241 0.157152 -0.538986 0.602775 -0.897023 -0.614862 0.725862 -0.409545 -0.563858 0.434195 0.441685 -0.499743 0.940159 0.955017 0.870098 -0.359007 0.236682 -0.482698 -0.709097 0.552928 -0.260143 -0.023126 0.346266 0.641909 0.227419 -0.623728 0.429375 0.897017 0.681866 -0.433091 0.024104 0.295524 -0.664383 -0.217514 -0.163858 -0.731885 -0.412620 0.723679 0.004937 0.927054 0.386513 0.060699 -1.065895 0.703317 0.685057 1.124467 0.040607 -0.410189
0.541620 0.746024 0.110706 -0.371594 -0.942877 -0.641365 1.286094 0.550843 0.625675 -0.988072 0.702282 0.396470 1.574992 0.340234 0.207357 0.678943 -0.189590 0.791316 0.005445 -0.181217 1.091491 -0.460228 0.062358 -0.147136 -0.785435 -0.265046 0.624275 -0.226245 1.811946 -0.938166 0.228570 1.051344 -0.506268 -1.112951 0.169498 -0.821397 0.423682 -0.972392 0.293661 -0.666135 0.406165 1.317666 0.468060 1.417410 -0.868784 -0.234464 -0.461173 0.238935 1.352604 0.121882 -1.019177 0.060018 0.120983 0.065392 1.132658 0.084830 0.068940 -0.920393 0.202564 -0.993236 0.554664 -0.447409 0.601856 -0.270880 0.050325 -0.468632 -0.738513 0.428538 1.431922 1.170098 0.158602 -1.784509 -0.147237 -0.166614 -0.332181 -1.019722 -1.709987 -0.733451 0.168015 0.136843 1.376922 -0.834953 -0.056139 -0.488596 0.385840 0.714998 -0.495852 0.257285 -1.245963 0.064344 0.117727 0.717253 0.709138 -0.630958 1.048169 -0.515042 -0.284744 -0.839218 -0.544172 0.943328
0.406139 0.094436 -0.998246 0.948275 0.772128 -0.122601 0.900556 0.621081 -0.422715 0.832550 -0.347926 0.062126 -0.274962 0.832846 -0.547409 -0.378812 0.550070 0.866656 -0.901008 0.376762 -0.846313 -0.248310 -0.360813 -0.960253 -0.366243 0.763750 0.592806 0.949664 -0.624345 -0.321169 0.977628 -0.186720 -0.853481 0.907251 -0.094203 -0.905600 0.264329 0.734456 -0.505340 0.931604 0.331746 -0.138677 -0.127264 -0.472965 0.351754 0.452886 0.209488 -0.960511 -0.152776 -0.260339 0.846383 -0.655789 -0.183344 -0.107392 0.228700 0.565644 0.488428 0.709845 0.019375 -0.618066 -0.101766 0.344177 -0.038901 0.434986 0.272442 -0.936136 0.013840 -0.984985 -0.910389 -0.671034 -0.858158 -0.260162 -0.908516 -0.296272 0.097157 0.019119 0.033959 0.557772 -0.320657 -0.536432 0.978402 -0.287613 0.815380 0.170760 0.997588 0.899235 -0.411336 -0.003901 -0.538859 0.975408 0.247998 -0.065156 0.729982 0.339901 -0.120024 -0.982265 0.695781 -0.546501 0.241393 0.418868
-0.060425 -0.214546 0.430977 1.316070 1.097927 0.909406 0.709769 0.448853 1.059967 0.606729 -0.209166 -1.694158 -0.223322 0.216085 -0.078923 -0.954814 0.422938 0.473299 -0.390282 -0.380842 -1.554623 -1.129951 0.016080 1.003321 0.626670 -0.038166 0.895869 0.642584 -1.446272 0.042146 0.970910 -0.272599 -0.614501 -0.142968 0.477189 -0.177411 0.205126 0.210381 -0.774675 1.594174 0.281377 -0.923329 -0.346124 -0.639891 0.290775 -0.204005 -0.877607 0.246508 -1.316327 0.719912 0.584669 0.472553 -0.463572 1.201005 -0.745695 0.211059 0.180369 -0.560793 0.468938 0.228403 -0.430703 -0.316338 -0.499984 0.370408 1.172483 1.474406 1.225839 0.611591 -0.005990 0.624327 -0.876793 1.518062 0.419998 0.358277 0.554310 1.249864 0.800785 -0.679478 0.704567 -0.374695 -0.026290 -0.049023 -0.608630 0.574419 -0.467519 -1.197218 -0.393610 -0.049316 0.538797 -0.561982 -1.006186 0.530170 -0.860497 -0.392775 -1.150365 0.205715 0.056063 1.503115 -0.142067 0.522910
-0.626816 -0.025465 -0.692553 -1.019875 0.408838 0.678541 0.630562 -0.294941 0.335454 -0.060663 -0.059206 -0.033971 0.657457 -1.159466 0.193814 -0.952278 1.222076 0.386372 0.003380 0.160480 -0.329311 1.056429 -0.242385 -0.742059 0.241932 -0.095798 -0.698696 -1.140698 0.400224 0.181164 -0.547495 0.569232 0.143308 -0.169192 0.622779 -0.292974 0.153710 -0.618811 0.730278 0.988459 0.263064 0.076067 -0.742775 -0.459303 -1.420982 0.897500 0.712575 0.447526 -0.873239 0.281754 -0.964392 -1.149622 -0.253780 -0.476602 -0.971920 -0.140016 -0.807098 -0.105295 0.437729 -0.516177 0.738141 -0.662636 0.254134 0.331724 -0.741204 0.534405 1.157846 -0.155088 -0.197159 0.091612 -1.063282 0.476054 0.627971 -0.415156 0.798145 0.530659 0.061993 0.021282 0.438945 0.009614 0.497169 0.915683 0.966413 1.045041 0.067747 -0.547685 -0.504109 1.049879 -1.023226 0.500560 -0.155407 1.170673 -0.150364 -0.746029 0.807268 -0.118678 0.591130 0.398589 0.112897 -0.171729
0.069328 0.229308 0.896553 -0.749706 0.906464 0.900029 0.552508 -0.994243 -0.547412 0.806808 -0.378571 0.533900 0.087647 0.457663 0.000803 -0.886199 0.560672 -0.148301 -0.875685 -0.929843 -0.168489 -0.296411 0.712679 -0.932848 0.891653 0.943953 -0.157620 -0.083241 -0.443872 0.615069 0.901286 0.577328 -0.969329 0.875240 0.787290 0.980965 -0.739919 -0.474405 -0.428951 0.801193 0.077537 -0.874908 0.335972 0.937939 0.017669 -0.422632 -0.692947 -0.581944 -0.638250 -0.238839 -0.389875 0.641294 0.594375 -0.303874 -0.768137 0.828940 0.195685 -0.992995 -0.061148 -0.794427 0.030505 0.158820 0.041358 0.910871 0.080916 -0.631407 0.977168 -0.821733 -0.887490 0.816516 -0.601518 -0.161558 -0.037736 0.621923 0.056185 -0.077124 0.966050 -0.014348 0.974891 0.544272 -0.405429 -0.103430 -0.326232 0.520247 0.410066 0.625743 -0.857162 0.804471 -0.812418 -0.011462 -0.507170 0.272522 0.221090 -0.965076 0.683033 0.592334 0.978219 -0.972212 -0.720149 -0.217862
-0.605899 1.025470 -0.158405 -0.165098 -0.662194 -0.137129 -0.553956 0.422050 0.447639 -0.701802 0.189091 -1.125807 -0.499252 0.818107 -0.057829 0.696135 0.381210 -0.446747 0.514901 1.343032 0.621585 -0.101949 -0.639085 -0.026180 -0.618991 0.382269 0.061800 0.179900 0.582115 0.873377 -0.003188 0.740223 0.159060 0.000792 0.490213 0.720935 0.113503 1.085359 -1.006425 0.749848 0.147264 -0.303013 0.041350 -0.172866 1.185962 0.513396 -0.124150 0.953920 0.372589 0.585442 0.517522 0.861988 -0.068243 -0.337143 0.270283 -0.228159 -0.316624 0.755021 -0.608691 1.107165 -0.785930 -0.698902 -0.602762 0.802181 0.966298 -0.232911 0.432075 -0.207443 -0.193160 0.474320 -0.197925 0.440413 -0.080678 0.381579 0.645781 0.537645 0.953472 -0.368351 0.717306 -0.177248 0.484878 0.803899 -1.066369 0.192613 -0.509461 -0.192688 -0.335934 -0.042619 0.672999 -0.067476 0.544809 -0.789489 -1.132789 0.568809 -0.226010 0.885057 -0.532920 -0.137432 0.213490 0.468521
-1.770355 3.034269 -0.084403 1.314496 0.405267 -0.800166 3.082684 -0.157749 -0.961580 0.523534 0.510902 -1.986810 -0.264083 -0.152539 1.405047 -2.167000 -1.882769 -0.113891 0.344644 -0.252234 -2.868476 -0.226311 -0.024555 -0.600899 1.642425 1.634993 -1.528855 0.888541 1.221816 -0.019180 3.158248 2.013682 0.058430 0.965114 -1.899009 0.551381 0.397348 1.442850 -1.284322 1.547498 0.787092 2.418637 -1.340018 -1.520821 -0.306928 0.980468 -2.331085 -0.890605 0.047019 -1.747070 0.146948 -0.227095 1.355753 1.059955 -1.236019 -0.755310 -0.213487 -0.874550 1.227031 2.306004 1.230683 -0.798100 0.419780 0.497465 0.356905 -2.053506 -1.167618 1.941554 2.188014 -1.666898 1.000284 1.329211 -0.522568 -1.065675 -2.193639 2.901073 0.937648 -0.839029 3.199833 0.021210 1.857765 0.273416 1.684451 -0.128184 1.089958 -0.011278 -0.463076 -0.031376 1.700243 -1.731550 -0.488189 1.125332 1.221222 1.512555 -0.323237 -0.896434 -0.192870 0.728897 -1.542336 -1.841975
0.475701 0.713460 -0.723827 -0.350100 0.608227 -0.451247 -0.026737 0.428963 -0.065066 0.374454 0.821120 0.675946 -0.760576 0.460620 0.333154 0.736876 -0.120219 -0.979276 0.215926 -0.663280 -0.427723 -0.203981 -0.718497 -0.948635 -0.828875 0.078961 -0.503357 -0.872709 0.838705 0.519031 -0.350362 -0.059774 0.459948 -0.468064 -0.266811 -0.293212 -0.010264 -0.549271 0.352098 -0.441388 0.428587 -0.167873 -0.711793 -0.071294 -0.570004 0.612926 -0.683500 -0.953179 -0.025695 -0.804554 -0.212991 0.620700 -0.986915 0.448107 -0.285594 0.588046 -0.725973 0.386413 0.366324 -0.503592 -0.733850 -0.857694 0.576787 -0.410368 -0.416699 0.263957 -0.514509 -0.125204 0.631607 0.270986 -0.244031 -0.534813 0.134712 -0.305581 0.700992 -0.823936 0.095265 -0.292557 0.978943 0.427567 0.006416 -0.359793 0.047409 -0.308123 -0.336828 0.003935 0.641586 -0.016590 -0.715389 -0.302316 -0.819656 -0.411636 0.877033 -0.948455 0.969426 -0.409671 0.341766 0.742903 0.844652 0.663715
1.265525 -2.914684 -0.671220 -1.855460 -0.490062 -1.106770 -2.877212 0.448611 1.785447 -0.217254 -0.597436 2.300125 1.078591 0.737434 -1.025550 2.214519 2.312940 0.794062 0.271234 -0.044488 1.954209 -0.434833 -0.004863 1.335376 -1.025434 -0.909370 0.889994 0.332189 -1.248930 0.407464 -2.806595 -1.437276 -0.022737 -0.763264 2.444964 -0.774625 -0.984643 -1.655144 0.364028 -0.249223 -0.157512 -1.090084 0.976509 0.466182 -0.500756 -0.031014 2.168196 1.063998 0.129172 1.270498 -0.578478 -0.542175 0.389967 -0.553152 0.514084 0.722930 -0.806799 0.433756 -1.648382 -1.537558 -1.402533 0.504759 0.624710 0.788637 -0.906486 2.261034 1.254176 -1.720458 -0.686342 1.291346 -0.966181 -1.216869 0.827494 1.189452 2.197475 -2.831610 0.512321 1.245894 -3.488829 -1.829123 -1.696820 0.062330 -0.371652 -1.360215 -0.636122 -0.011492 -0.389573 -0.076939 -0.546456 0.608040 1.130958 -0.339936 -0.696622 -2.051816 1.700463 1.023834 0.153517 0.009604 0.116864 0.364293
-0.299462 -0.249151 -1.527034 0.322106 -0.327483 -1.371219 1.260519 -0.111106 -0.206731 0.914599 0.782884 -0.597606 -0.088639 0.340726 1.277784 -0.867145 -1.267691 1.769485 -1.073129 -0.826285 -0.375613 -0.455969 0.420582 -0.674969 2.067572 0.727957 1.959604 -1.651352 0.528700 0.528774 1.417095 0.723268 -0.391446 -0.537344 -0.503181 -0.088675 0.106333 -0.928942 -0.568316 1.441630 -0.724107 0.438340 0.324023 0.056249 -0.920808 -0.430151 -1.127365 0.549717 0.785271 0.523472 -0.136635 1.233698 -0.464380 0.708327 -0.207549 -0.684288 1.307130 0.870462 0.410762 -0.493918 -0.657717 -1.000169 -1.148027 0.910216 0.069999 1.062405 0.494967 -1.346282 1.122001 -0.463707 -1.318253 1.485989 1.857026 -0.322252 -0.438969 1.314347 -0.397807 -0.575206 2.260293 0.272560 -0.964952 0.994297 0.733806 1.189642 -0.975073 -1.227808 1.059712 2.465377 1.205941 -1.261686 -0.835050 1.043032 -0.519080 -0.950298 -0.701195 1.186493 -0.700317 1.143058 0.032096 1.103542
0.543859 -0.001463 -0.652476 0.508492 -0.415764 -0.926094 -0.272441 -0.427789 0.859736 -0.914619 -0.053268 0.603167 0.373206 0.913080 0.422371 -0.937093 -0.652857 -0.454387 0.912301 0.750137 -0.719172 -0.772776 0.389485 -0.493359 -0.593088 0.559333 0.117117 0.422537 0.201686 -0.483834 -0.641737 -0.704200 -0.740240 0.975496 -0.381482 -0.715245 0.356923 -0.770936 -0.181823 -0.135893 0.227407 0.375316 -0.750768 -0.820227 0.933508 0.794663 0.229439 -0.756410 0.034164 0.311953 0.361503 0.290704 0.502141 0.094976 0.322652 -0.169536 0.478861 -0.731245 -0.467300 0.809944 0.013461 0.778790 -0.647453 -0.627240 0.307525 0.967806 -0.214158 0.190383 0.044853 -0.446161 -0.044914 0.614595 0.377692 0.797274 -0.813331 -0.594953 0.569591 0.412667 0.188433 0.763331 0.711300 0.748246 0.467951 0.260164 0.436188 0.987306 -0.500038 -0.090573 -0.493931 0.210269 -0.176415 -0.144880 0.406888 0.072237 -0.594826 -0.653441 -0.576134 -0.026285 0.528940 -0.932554
0.464373 -0.197331 2.013385 -1.430577 -0.489696 0.920582 -0.494677 -0.004039 1.567640 -1.746312 -0.885700 0.566603 -1.247543 -0.246809 0.254405 1.348909 1.020856 -0.808426 1.386694 -0.086219 0.439303 -0.330550 -0.856337 -0.618717 -1.068157 -1.164596 -1.344244 1.980223 -0.491127 -0.348196 -1.643455 0.433230 -1.085489 -0.119727 0.797828 -0.454267 0.435930 0.198048 0.156782 0.109249 -0.933742 -0.163544 -0.083129 0.463768 1.036139 -0.310766 0.088959 -0.812431 -0.232260 0.027160 0.015311 -1.372935 1.237003 -0.471543 0.009676 0.157025 0.074499 0.085799 -1.128290 -0.245335 0.187943 2.214821 1.428433 -0.735108 0.025606 -1.434580 -1.157762 -0.259187 0.129075 0.264147 0.928046 -0.518805 -0.281423 -0.181513 0.949241 -1.909621 0.318192 -1.154822 -1.834502 -0.270620 1.409187 -0.395202 -0.028932 -2.391186 0.801144 1.367773 -0.232706 -1.109314 -1.055144 0.535341 -0.776789 -0.054704 -0.877854 0.470877 0.587412 -0.757638 -0.045269 0.650064 1.172082 -1.255612
-0.730854 0.124703 -0.446660 1.319827 0.515233 -1.116094 -0.571437 -0.280441 -0.616718 0.428091 0.226381 -0.164307 -0.291144 0.848045 -0.287677 0.011536 0.291939 1.679196 -0.514673 -0.208507 -0.746995 0.565007 0.197687 0.443056 1.461920 0.164920 1.405918 -1.903181 -0.418384 0.599602 1.372234 0.907548 -0.396079 -0.601673 0.019251 -0.590190 0.240143 0.006484 0.524247 0.578416 -0.648367 0.633746 -0.320020 -0.953475 -0.689826 0.587412 0.247023 -0.317093 0.409591 0.975733 0.821486 -0.425132 0.437934 1.329028 0.710806 0.932645 0.772634 1.209026 0.611849 0.733246 -0.634782 0.133644 -0.833196 0.310438 0.391258 0.657454 0.665513 -1.386361 1.198154 -0.878268 -1.091862 0.156241 -0.093470 -0.571160 -0.227537 1.389915 0.113863 0.891548 0.731364 -0.207430 -0.635712 0.630925 -0.678683 1.122949 -0.927916 -1.556169 -0.280170 0.299016 -0.372880 0.314061 -0.241626 -0.300235 0.974541 -0.370516 -0.922237 -0.141895 -1.110180 0.450778 -1.050958 0.267330
0.656220 0.698463 0.575119 0.993963 -0.185423 0.940519 0.214185 -0.917831 -0.518959 0.046290 -0.312112 0.588326 -0.351319 0.380564 -0.345221 -0.412165 -0.959077 0.461782 0.156454 0.308898 0.156001 -0.431962 0.976179 -0.325938 0.891896 0.445942 0.239306 -0.678285 -0.904277 -0.015380 0.348730 0.699813 -0.562178 0.351056 -0.639887 -0.086607 -0.438977 0.550725 0.771666 0.743869 -0.024799 -0.711747 0.016066 0.607759 -0.590704 0.067452 0.861142 0.354289 -0.836880 -0.080785 -0.991838 -0.878244 -0.648947 0.834191 -0.214460 -0.947944 -0.152062 -0.844460 -0.226635 0.356788 -0.629812 -0.274793 0.477969 0.643053 0.061371 -0.465571 -0.551895 0.129175 0.166821 0.763297 0.547552 0.828284 0.811620 0.529150 -0.127255 -0.814710 0.046093 -0.435613 0.847744 0.242923 0.568006 0.753366 0.673195 -0.978067 -0.373602 -0.487474 0.264721 0.698369 0.633847 0.604778 -0.105607 0.429946 -0.988702 0.737116 0.993177 0.161426 0.877243 0.906728 0.923178 0.482140
-0.169441 -0.126533 0.564215 -0.826739 0.610585 0.366682 -1.054434 0.084627 -0.558542 -0.357314 0.295007 -0.474872 -0.091503 -0.570178 -0.902255 -0.381226 0.412493 -1.354470 0.521157 0.205568 0.793443 -0.168335 -0.133521 -0.819086 -1.259736 -0.028715 -1.378239 1.354061 -0.506736 0.717741 -0.628595 0.556225 -0.477582 -0.634603 0.355728 0.417215 0.499093 0.958275 -0.413385 -1.101736 0.456241 -0.361501 0.478257 -0.609202 1.061108 -0.208054 -0.482115 -0.173215 -0.614314 0.432091 0.387555 -1.371369 0.076889 -1.163379 -0.641576 0.036961 0.198965 -0.960069 -0.393633 -0.792915 0.913355 1.368995 -0.075086 0.216043 -1.286869 -0.899062 -0.493251 1.054420 -0.593938 0.676459 -0.325736 -1.386588 -0.099999 -0.384040 -0.231822 -0.096159 -0.416513 -1.087368 -1.169947 -0.745351 1.378960 -0.953580 -0.864807 -0.525568 0.468037 0.610961 -0.541044 -0.803745 -0.600142 0.774980 -0.518003 0.138424 -0.378398 0.877613 1.191538 -0.263270 0.683411 -0.975292 -0.192358 0.221470
-0.098471 -0.976257 -0.786789 -0.020477 0.898306 -0.414366 0.942679 -0.259731 -0.624680 -0.224360 0.811528 -0.621909 -0.259234 -0.761931 -0.606794 0.377420 -0.005552 0.889512 -1.399895 -0.184374 0.471572 0.606313 0.212837 0.792470 0.900902 0.774978 0.524932 -0.216674 0.300033 -0.890978 0.707097 -0.819670 0.224061 0.959996 0.220290 -0.552856 -0.854505 -0.455325 -0.762743 -0.710313 -0.639251 -0.830795 -0.874031 0.129480 -0.411330 -0.533979 0.407175 0.354905 0.858062 -0.437712 0.510342 -0.411219 0.066719 1.123486 0.477931 0.676328 0.618892 0.885929 1.004452 0.453491 0.351877 -1.011253 -1.132933 0.390428 -0.494517 -0.001779 -0.651439 -0.004276 0.217837 -0.492936 -0.024408 -0.341440 0.196744 0.274920 -0.189310 0.527837 0.726189 -0.753912 -0.083949 0.128828 -0.740938 -0.072900 -0.206137 1.077238 -0.467668 0.292293 1.183233 0.785407 0.061989 0.793963 0.328192 0.900538 -0.354784 0.157238 0.253969 -0.075907 -0.902068 0.920087 0.248418 0.775956
0.785857 -0.338632 -0.647075 0.502403 -0.110625 0.613139 -0.221457 -0.539832 0.943790 0.601883 -0.698650 -0.524768 0.467334 0.734472 -0.029985 0.422639 0.039057 0.301340 0.811249 0.465139 0.940686 0.077236 -0.939528 0.504671 0.195782 0.394441 -0.281300 0.164512 0.062755 -0.038476 -0.458615 0.284048 0.597498 -0.111404 0.858892 -0.347518 -0.754134 -0.406572 0.894116 -0.165555 -0.124355 -0.841266 -0.927297 0.074361 0.412783 0.264405 0.307636 0.995178 -0.412523 -0.489208 -0.485944 -0.339163 -0.592447 0.154016 0.149218 -0.948580 -0.776627 -0.222510 0.387233 -0.931565 0.752731 0.915563 0.095717 0.528260 -0.183339 -0.478200 0.785262 -0.905385 -0.931434 -0.188285 0.351821 -0.492668 -0.335553 0.447702 0.936503 0.333801 -0.966478 0.322626 -0.861977 0.448782 -0.797312 0.225598 0.896510 0.813312 -0.654770 0.030577 -0.460281 0.763845 0.409695 0.927740 0.789330 -0.945482 0.579314 0.736009 -0.388002 -0.360084 -0.050572 -0.112474 -0.636336 -0.642440
-0.535018 -0.741413 0.996798 0.361088 0.849221 -0.190602 -0.672528 0.823226 0.037417 -0.907832 -0.733383 0.265803 0.558400 -0.665953 -0.180660 0.075934 -0.515982 -1.046747 1.462092 0.584263 -0.753065 0.575477 0.724254 -0.016774 0.019047 0.576683 0.210107 0.352121 0.657679 0.080390 -1.011123 -0.253743 -0.187225 -0.919457 0.595637 0.808777 1.027761 0.126180 0.430387 -0.255980 0.209517 0.127839 -1.109073 -0.717050 0.130924 -0.644428 0.077684 0.432689 -0.656950 -1.046287 0.246179 -1.143719 0.172161 -0.557202 -0.171038 0.056780 0.283744 -0.943157 -0.959337 0.558632 1.015687 0.732445 0.975847 0.074162 0.014590 0.172119 -1.025150 1.108556 -0.962951 -0.117963 0.411974 -0.068654 -0.845801 0.298384 0.067264 -0.107297 -0.119923 -1.091367 0.449030 -0.943563 0.838442 -0.798634 0.407358 -1.413742 0.669533 0.752321 0.749532 0.324012 -0.936969 0.893476 0.666983 -0.518220 -0.683397 0.581084 0.769473 -0.390731 0.143256 -0.707095 -0.233417 -0.015227
1.002707 -0.943552 -0.501062 0.445203 0.076920 -0.862964 0.797431 0.023128 0.961353 -0.245901 -0.707578 0.807136 0.444866 -0.392019 0.215777 -0.898822 -0.242941 0.141893 -0.121904 -1.218989 -0.469648 0.848015 1.088229 1.076723 -0.488232 1.131755 -0.370827 -0.670129 0.864296 -0.778502 0.310028 0.721247 0.718233 -0.695799 -0.852607 0.265281 0.087727 -1.179836 -0.631275 0.844758 -0.170265 -1.030326 -0.814934 0.300191 -0.960163 -0.721722 -0.055518 0.882712 -0.808627 0.586983 0.561516 0.984373 0.323283 1.025089 -0.830861 0.939364 0.154319 -0.483604 -0.031512 0.940784 -0.668818 -0.191958 0.093355 -0.510890 -0.197538 0.634607 -0.002177 0.550624 0.460730 -0.310636 0.621056 1.019953 0.942219 -0.270942 -0.235562 0.635868 -0.141579 0.630131 0.343623 0.726974 0.225238 0.373122 -0.925091 -0.224302 -0.265255 0.175217 0.200392 0.776913 0.760906 -0.213544 1.098312 -0.502675 -0.120076 0.335684 -0.391376 0.553309 0.133590 0.965673 -1.002812 0.037816
0.777025 -0.481996 0.858270 0.650971 -0.489618 0.936091 0.978505 -0.845483 0.568499 -0.515257 -0.658994 -0.685837 0.660556 0.253567 -0.206922 -0.491796 -0.412890 0.453499 0.432945 0.940696 -0.917632 -0.517101 -0.800638 0.159888 0.483707 -0.044281 -0.715490 0.014939 0.648700 -0.206163 0.980524 -0.928314 0.044646 0.161575 0.215184 0.172320 -0.391692 0.594642 -0.172928 0.346350 -0.525252 0.663170 -0.788480 -0.155485 0.575328 -0.194571 -0.536457 -0.320167 0.659303 0.074808 -0.130211 -0.200272 -0.966229 -0.310788 0.762320 0.301533 -0.719185 -0.952350 -0.152129 -0.680966 0.471784 -0.383587 -0.058767 0.762436 -0.414041 -0.842938 -0.748858 0.337172 0.479941 0.070871 0.661655 -0.033799 0.407945 0.260210 -0.637908 0.760466 0.405781 0.214885 -0.736271 0.297839 0.416093 -0.876122 0.593736 -0.490108 -0.288185 0.608340 0.835107 -0.648284 -0.432002 0.493945 -0.521621 -0.391990 -0.797815 0.904181 -0.777119 0.021849 0.864327 0.153012 -0.062032 -0.469168
0.414370 -0.693202 -0.859376 0.175021 -0.341869 -0.655197 -0.238659 0.695654 -0.813560 -0.365373 -0.967731 0.920594 -0.303601 -0.110358 0.461999 0.461248 0.632284 -0.782694 -0.116256 -0.413662 0.222433 -0.320780 -0.504050 0.404622 -0.103321 -0.249607 0.045821 0.090609 -0.033189 0.517357 -0.075114 -0.424902 -0.513360 0.247819 0.847359 -0.417704 -0.133303 0.788825 -0.445797 -0.483616 -0.381114 -0.808287 -0.818050 -0.066167 0.136778 0.899099 -0.565037 0.358712 -1.107293 0.495870 0.448526 0.717235 -0.217641 0.376228 0.242238 0.719264 -0.748197 0.277078 0.072912 0.116727 -0.002189 0.258781 0.739292 0.492863 -0.697648 0.767248 -0.174002 1.204183 0.083173 -0.094609 0.473966 0.060730 0.473214 0.036046 -0.819323 0.011930 0.146951 -1.199888 -0.082354 0.772002 0.992439 -0.008146 0.396820 0.401074 0.877674 0.617750 0.641126 0.428073 0.542203 0.346810 -0.601129 -0.859170 0.690895 -0.433921 -0.520368 0.503505 0.274910 0.596823 0.823307 0.712227
0.986303 0.739029 -1.084772 0.531474 0.596536 -1.024450 0.853328 -0.428295 -0.133721 -0.405524 0.416198 -0.890524 0.658729 0.968683 -0.740007 -0.303943 -0.414364 0.183522 -0.425808 -0.757539 -0.203682 0.818355 -0.258419 -0.376618 -0.780608 0.072940 -0.117097 -0.222887 0.361790 0.670774 0.462831 -0.780548 0.631147 0.043978 -0.018839 0.441223 0.379523 -0.918772 0.318905 0.022407 0.230676 -1.027575 -0.836630 -0.608539 -1.085466 -0.795808 0.478245 0.096382 0.771329 -0.367041 -0.530191 0.728918 0.073901 -0.325641 -0.077650 0.742614 0.267972 -0.129830 1.074049 0.609639 0.720059 -0.497837 -0.180814 -0.005677 0.317041 0.630000 1.007823 0.619662 -0.710534 0.667886 -0.015284 0.638605 -0.177978 1.078325 -0.174954 0.142277 0.946356 -0.437214 0.442562 0.664353 -1.261339 -0.770247 0.622803 -0.482327 -0.868972 0.091932 -0.343361 -0.486097 -0.797977 0.192494 -0.416122 -0.718107 0.587726 -1.009703 0.448813 0.387153 0.652981 0.673872 -0.154729 0.885554
0.275753 -0.719081 -0.406522 0.915499 -0.280871 -0.142613 0.098337 -0.817682 -0.056482 0.142122 -0.841436 -0.812756 -0.872936 -0.885643 0.292666 0.351969 -0.837804 -0.694428 0.803334 -0.405637 -0.928278 -0.270975 -0.516443 0.677800 0.121758 -0.604198 -0.570589 0.978173 -0.956209 0.530118 -0.918569 0.468067 -0.928269 0.339092 -0.402696 0.360949 0.472942 -0.533021 0.802848 -0.083915 0.769001 -0.794499 -0.353906 -0.379041 0.651517 0.811225 -0.880046 0.493097 0.885833 0.699476 0.136894 0.554911 -0.770567 -0.549709 -0.475451 0.629533 0.993617 -0.508446 -0.438033 0.096998 0.950625 0.845601 0.471125 0.160592 0.285021 0.809844 0.171557 -0.078140 0.588099 -0.430675 0.607715 -0.672415 -0.568602 0.630105 -0.403808 -0.025921 -0.070837 0.162309 -0.754683 0.063300 0.533694 -0.606379 -0.609996 0.631938 0.686717 0.706078 -0.555359 -0.436776 0.134514 0.634058 0.902988 -0.285524 0.563630 -0.284386 0.998184 -0.365030 -0.218961 -0.624680 -0.496476 0.248981
0.190286 0.255094 0.368918 -0.363152 0.773465 -0.755336 -0.457687 0.401547 -0.177586 0.454089 -0.106496 -0.635134 -0.081784 -0.216428 -0.231954 0.841795 0.568677 0.678539 1.014548 -0.533306 -0.748900 -0.082154 -0.216524 -0.533185 0.285370 -0.573309 -1.031104 -0.101879 0.288754 0.766623 0.433590 0.961783 -0.485862 -0.300212 -0.486366 -0.714741 0.559515 -0.396499 -0.336116 -0.437398 -0.767165 0.907913 0.536791 0.078759 0.840926 -0.563238 -0.684747 -0.235520 -0.318191 0.316713 0.168959 -0.476584 -0.162597 0.585099 0.459919 0.914020 0.894931 -0.224903 0.237079 0.009359 -0.426684 0.721486 -0.179856 0.278846 0.419108 0.289801 -0.678062 0.119148 0.750005 0.408028 -0.067151 -0.102471 0.797453 0.676889 -0.487624 -0.709724 -0.676368 -0.571343 -1.015198 0.432344 0.494640 -0.997010 0.739976 -0.865059 1.039422 0.895792 0.016405 0.210359 0.616045 -0.879440 -0.317226 -0.354036 -0.356245 -0.053341 0.900551 0.327124 -0.678468 -0.057263 -0.247835 0.901740
-0.673051 -0.937411 -0.949207 -0.857158 -0.275324 0.882455 0.661276 -0.945890 0.271129 -0.704580 0.794106 0.052256 0.261811 0.338257 -0.012397 0.248092 -0.294162 -0.316498 -0.359550 -0.791662 0.587010 -0.138146 0.404976 -0.882386 0.183455 0.674158 -0.094090 0.541813 -0.791091 -0.612310 0.681478 -0.614410 1.001542 -0.575831 -0.628819 -0.842771 0.853518 0.631055 -0.241908 0.462163 0.949510 -0.982248 -0.276957 0.628859 -0.166883 0.538009 0.524223 0.955093 0.350630 0.702445 0.618702 -0.698525 0.311877 -0.389866 -0.574173 0.654620 -0.058814 0.163750 0.165856 -0.623823 -0.444901 -0.098303 0.967662 -0.656549 0.785283 0.568089 -0.415530 -0.231249 0.451714 1.067614 0.934858 0.192060 0.056542 -0.737368 0.889705 -0.867679 0.946962 -0.585785 -0.204636 0.835450 0.159424 -0.862019 0.520987 -0.809974 -1.023142 -0.527366 -0.456870 0.174875 -0.282506 -0.139604 -0.871390 0.848572 -0.710888 0.119415 -0.628251 -0.475886 -0.998678 0.006353 -0.397230 -0.170508
0.764643 0.143774 -0.081572 -0.952903 -0.584594 0.594883 0.227944 -0.930202 -0.581022 0.302225 0.242527 -0.642699 0.733936 -0.532844 -0.801257 0.561151 -0.541497 -0.014333 0.894872 -0.995846 -0.773955 0.330382 -0.246901 0.544187 -0.165532 0.740980 0.301333 0.125174 0.008734 -0.820285 0.943789 0.973852 0.754194 -0.391886 -0.001460 -0.165188 -0.367416 -0.019860 -0.722242 0.958938 0.401481 0.633571 -0.680500 0.528474 0.210410 -0.520163 0.752290 -0.794396 -0.707011 0.575120 0.360763 0.888464 0.985677 -0.893266 -0.365323 0.342768 0.486774 -0.594147 0.041556 -0.435616 0.809341 -0.523864 -0.360872 -0.035338 -0.425626 0.778384 0.733907 0.197386 0.052091 -0.806666 0.850559 0.988063 -0.797375 -0.504300 -0.416948 0.910988 -0.261211 -0.404413 -0.056247 0.090722 0.340462 -0.700000 -0.447192 -0.537918 -0.089771 -0.078818 -0.746144 -0.875230 -0.350662 -0.965851 0.757219 0.190305 0.974659 -0.263184 0.931010 -0.868147 -0.602829 0.799458 0.765067 -0.067594
0.827353 -0.517646 -0.099162 -0.110109 -0.662238 0.627122 0.898580 -0.460287 0.531618 1.036793 -0.135754 -0.026290 0.686738 0.834288 0.117847 -0.348849 -0.298677 -0.698966 0.224325 -0.181596 0.722574 -0.615162 -0.806005 0.551877 0.617137 0.695305 -0.156487 -0.446807 0.226521 1.070490 0.620665 -0.766078 -0.140669 0.563843 -0.484182 -0.282352 0.109957 -0.876529 0.951852 -0.229696 0.777887 0.921696 -0.393256 0.463779 0.200066 0.805416 -0.876967 0.914108 -0.187155 -0.472965 0.122317 -0.904801 0.274750 -0.163103 -0.162294 0.441461 0.049655 0.183960 -0.614904 -0.751925 1.086062 0.900833 -0.965899 -0.372275 0.083457 -0.427001 -0.569262 0.003214 0.285390 -1.049121 0.654316 0.310097 0.243510 0.744658 -0.815538 0.943567 -1.052973 0.570449 -0.702079 -0.261578 -0.665200 0.677069 -0.393121 0.468341 -0.794582 -0.668710 -0.634199 0.758035 0.914051 0.393262 0.401746 0.564641 0.355009 -0.577285 0.491517 -0.192078 -0.742570 0.813826 0.547233 -0.376489
-0.282484 4.561131 3.035095 -1.944072 -3.126329 0.145117 -3.716591 3.314227 2.626540 -5.712825 -3.815129 1.679907 0.033288 3.352499 2.507104 1.167219 -1.551909 -2.250614 0.671893 6.993795 -0.084311 -1.950301 2.040020 -2.052582 -5.027232 -3.401063 -3.454411 5.102848 0.335915 -0.789326 -5.530520 0.652701 -0.211195 0.683276 0.217857 0.865006 0.460052 5.280314 -0.710298 -4.706233 -2.436933 -1.243349 2.182139 3.881878 6.156952 1.705636 -1.544894 -2.156221 -0.395449 0.200935 0.472903 1.510999 4.493262 1.053225 1.251812 -1.104578 0.260969 -1.128249 -2.107875 -1.134145 -3.172086 3.218982 3.075578 0.103509 0.055042 -2.840070 -0.936872 1.240118 -1.866051 4.007719 0.673855 -6.334936 0.674371 0.647243 0.302127 -6.248833 -0.264287 -1.861491 -3.523116 2.071161 3.080332 -2.040220 -1.877297 -3.300842 -0.274399 2.462902 -2.966200 -7.096773 -0.068824 -0.215270 1.213028 -3.680889 -3.178310 0.226096 0.240969 0.066062 -2.655240 -3.992189 3.012645 -4.276327
-0.920214 -0.822422 -0.172767 -0.088488 -0.678504 -0.746197 0.350968 -0.575343 -0.076826 0.029286 -0.593393 0.543477 0.301264 -0.135054 -0.809072 -0.464701 0.554835 0.383417 0.775970 0.185184 -0.447865 -0.730940 -0.920686 0.162847 -0.085464 -0.618112 -0.996643 -0.479464 0.444160 -0.805396 -0.508466 -0.859044 -0.312594 0.199644 0.600912 -0.481141 -0.744195 0.173734 0.972875 -0.931121 -0.481166 -0.574483 -0.541455 -0.490971 0.304492 -0.362286 0.398294 0.200401 -0.039215 -0.211058 0.831951 -0.305676 -0.126758 -0.918929 -0.845768 0.262251 -0.525300 0.472956 -0.533028 0.007498 -0.480109 0.152170 -0.717069 0.672124 -0.967399 -0.295281 -0.969065 0.746881 -0.965654 -0.839129 0.635718 0.878479 0.874303 0.093980 0.079039 -0.880598 0.170598 -0.139035 -0.450089 0.256394 0.780776 -0.580952 -0.461048 0.062654 -0.639186 0.536847 0.316373 0.640375 -0.450972 0.123189 -0.180361 -0.217647 0.646934 -0.241173 0.634018 0.531495 0.325219 0.713429 -0.409159 -0.259736
-0.692470 -5.281655 -2.635294 1.620094 3.576967 -0.514775 3.949544 -2.511808 -2.199994 5.681691 1.990543 -1.583830 0.990251 -3.054619 -1.591478 -1.721518 0.876407 2.549336 -1.933546 -7.079247 -0.983818 1.664747 -2.097432 0.959134 5.241238 3.090587 4.496598 -4.896901 -0.689025 0.292863 5.821620 -0.699805 -0.823036 0.451585 -0.223563 -0.324646 -1.609323 -4.775263 1.846492 4.870765 2.446346 0.180112 -0.505236 -3.295085 -6.083979 -1.303504 2.644019 1.550916 0.618921 0.126522 -1.318511 -1.772079 -4.211790 0.217716 -0.916018 1.538610 0.213579 2.325307 2.873510 0.522107 3.291587 -3.293265 -4.153333 -0.395173 -0.090758 2.371024 2.662717 -2.386300 2.588818 -3.536039 -1.030357 5.301119 0.231565 -1.730361 1.284841 6.586992 -0.803074 0.531313 2.969761 -1.984442 -1.799670 1.739890 0.898726 3.251651 -0.183467 -1.723746 3.555270 6.992774 -0.596296 -1.035966 -0.082757 3.021374 3.205442 0.231618 0.128503 -1.413980 2.669120 3.819523 -2.847639 4.415275
-0.671648 -0.698155 -0.641132 0.087072 -0.337509 0.786103 -0.713250 -0.453263 -0.320147 -0.490749 0.313803 0.781510 -0.555260 -0.972818 -0.068797 -0.948335 0.717928 -0.853913 -0.274166 -1.274543 -0.466351 -0.153909 0.566864 0.183135 -0.604880 -0.032103 -0.682057 -0.657237 -0.420805 -0.461012 -0.686396 0.284397 -0.894827 0.957360 1.016823 -0.760460 0.750249 -0.150443 0.800807 -0.424618 -0.132447 -0.555863 -0.380633 0.107615 -1.109440 -0.205192 -0.742563 -0.841266 0.694900 -0.914421 -0.932473 -0.475878 -0.564276 -0.429587 -0.464241 0.337086 0.276560 0.924163 -0.541455 -0.391846 0.608655 0.707637 -0.559747 -0.277138 -0.600453 1.282856 -0.244251 0.039553 0.460967 0.588716 -0.170652 -0.200496 0.303073 -0.235189 -0.650426 -0.013975 0.687809 0.279945 -0.689739 -0.091715 -0.141652 -0.281444 0.237483 0.454313 -0.559812 -0.594739 0.108346 0.546869 0.740472 -0.136983 0.224645 0.169988 0.537361 0.899374 -0.873974 0.291696 -0.649865 0.611151 0.332298 0.735174
0.412736 0.454413 2.220524 -1.450982 -0.856740 0.570362 -0.449775 -0.068504 -0.322032 -2.200699 -0.798422 0.954117 -1.872957 0.324560 0.405008 1.357303 -0.164985 -1.234261 0.447605 2.022365 1.403023 0.679586 -0.883366 -0.640523 -0.375167 -0.592019 -1.511183 0.852899 -0.943937 0.651825 -0.767516 0.023794 -0.263560 -0.241448 0.272184 -0.587109 1.111670 0.795711 0.343540 -1.438943 0.680054 -0.688616 0.962531 0.892063 1.353290 -0.423527 0.216334 -0.108943 -1.272956 0.575899 0.956619 -0.869909 1.347113 -0.593473 0.886947 -0.952446 -1.213778 -1.014477 0.205723 -0.462093 -0.212310 1.557861 0.285385 -0.151994 -0.680768 -1.792430 -1.267139 1.745713 -0.258702 -0.052228 -0.387090 -1.957886 -0.285039 -0.145870 -1.003894 -2.111074 -0.021364 0.251992 -1.453120 -0.973221 1.471606 -0.708428 0.703229 -1.668062 1.001796 1.441534 -1.099415 -1.251771 0.571658 1.175232 -0.887233 -1.144298 0.080407 -0.262945 -0.575596 0.261658 0.689968 -0.406476 -0.114607 -1.453929
-0.913461 0.168262 -2.560694 -0.149203 0.067568 -0.249221 1.493572 -1.584415 0.208653 2.419866 0.063165 0.265015 0.751712 -0.222222 0.950040 -1.762942 -1.500978 0.048056 -1.452890 -1.196234 0.110032 -1.478066 0.896084 -0.261110 0.189786 0.931769 2.310985 -2.062304 -0.402757 0.355286 -0.381266 -0.026793 -0.053182 -0.889768 -1.310958 0.228968 -1.100308 0.250887 -0.467265 1.202172 1.068020 -0.352493 -0.821941 -2.068418 -0.689680 -0.578506 -1.034859 0.311758 -0.180923 0.694492 -1.465796 0.598210 -0.297659 1.383823 -1.266667 -0.322002 -0.005166 1.805546 1.071989 -0.232981 -0.345447 -1.325408 -1.523103 0.689176 0.433454 1.953250 -0.002330 -1.700778 1.732109 1.053955 -0.902242 0.365270 1.594494 0.243088 -0.231930 2.130683 -1.044693 -0.748914 1.094936 -0.008215 -1.792516 1.204760 -0.701923 2.133160 -1.031407 -1.556200 1.220143 2.758634 -0.765479 0.109457 0.428392 1.178383 -1.232884 -0.071694 -1.113928 0.189717 -0.058326 0.882042 -0.947216 0.737954
-0.678486 -0.023762 0.102330 -0.853027 -0.084865 0.425533 1.030511 -0.576889 -0.043235 1.214444 1.166786 0.498819 -0.085408 0.565012 -1.038217 0.151393 0.214692 0.675696 -0.698654 -0.961432 0.350610 0.946824 0.383055 0.230052 -0.409297 -0.454546 0.194663 -0.619385 -0.991236 -0.666200 0.617055 -1.310835 -0.520315 -0.716801 0.696360 -0.972562 -0.134261 -1.182336 1.237698 0.517109 0.629686 0.717176 0.670821 -0.856428 -0.588358 -1.111362 1.557580 -0.894195 -0.643707 0.872164 -1.365147 -0.361545 -0.851493 -0.459589 -0.391460 0.824262 -0.943506 -0.682271 -0.935317 -0.816349 1.281695 -0.868205 -1.074916 0.260611 -0.549909 0.382764 1.300067 -0.845212 -0.903172 -0.927371 -0.679463 0.302770 -0.451376 -1.021667 0.708831 0.804843 0.847724 0.834180 0.267772 0.118036 -0.994562 0.893279 -0.078514 0.276837 -0.094055 -0.910432 1.249904 1.647700 0.530775 -0.607853 -0.204361 1.208768 0.267917 -0.255073 0.285823 -1.354914 0.262016 0.388747 0.788642 1.558642
0.158916 -0.142452 0.280168 -0.774955 -0.492006 -0.416495 -0.046830 -0.103991 0.336978 0.943516 0.979586 -0.899405 -0.699251 0.481685 -0.419389 -0.446921 -0.097718 -0.427302 -0.604539 -0.045133 0.321701 0.194338 0.387372 0.469383 0.840311 -0.470219 0.154865 0.427073 -0.302360 -0.582590 -0.723747 0.929087 -0.289778 -0.517372 -0.178984 -0.957547 0.812085 -0.172311 -0.323383 0.816510 -0.752481 -0.544138 -0.611093 0.398963 0.012545 0.051862 0.746830 0.173484 0.854469 0.003743 -0.394082 0.112972 -0.747690 0.631227 0.682344 -0.415164 -0.185813 0.150790 0.559655 -0.181058 0.050841 -0.569848 -0.258276 -0.558212 -0.280889 0.070231 -0.695388 -0.527972 -0.246881 0.608658 0.556614 0.800376 -0.481562 -0.598836 -0.615429 0.857495 -0.401913 0.330168 0.451030 -0.556828 0.711598 0.587669 0.867713 -0.470941 0.030987 0.709198 0.320512 -0.534533 -0.481267 0.116999 0.599496 0.963916 -0.008401 -0.301024 -0.978905 -0.285539 0.899525 -0.516383 0.376316 0.769662
-0.030728 0.913784 -0.010589 0.844629 -0.377831 -0.351680 0.453304 1.156713 -0.179027 0.739266 0.055777 -1.166223 0.577455 0.168734 0.002616 -1.141540 -1.374320 -0.273774 -0.654291 0.333421 -0.176064 -1.209527 1.037070 -1.025967 0.828442 -0.123047 -1.163106 -0.133977 -0.760408 -0.676771 -1.157344 -0.395497 -0.145709 0.323465 -0.489811 0.625139 0.991490 0.256803 -0.645787 -0.501188 -0.140943 0.845962 0.025841 0.349346 1.363605 -0.740058 -0.409717 -0.683680 0.507175 0.292450 0.344351 0.260461 0.416894 0.442732 0.247983 -0.878179 0.729913 -0.762020 -0.989269 -0.488113 -1.188759 -0.980348 -0.706289 -0.709857 -0.113474 -0.930087 -0.556351 -0.275809 0.412162 1.141267 -0.083752 -1.249652 0.788639 0.036645 0.440305 -0.238608 -0.262638 0.481478 -0.337489 1.120821 1.105885 -1.175970 -0.732169 -0.334781 0.281572 -0.792355 -0.577719 -1.586531 -0.087815 0.641900 0.765970 -0.667592 0.106579 -0.999440 0.042621 0.358555 -0.849099 -0.619808 -0.393224 0.561271
-1.423902 2.495331 1.336516 1.208024 0.250675 0.048680 1.332870 -0.139807 -1.026171 -0.467893 1.050662 -1.833996 -1.039227 0.296653 0.221629 -1.125160 -1.373775 -0.762589 0.873782 -1.499282 -2.164429 -0.696406 0.194504 -1.081579 1.286253 1.381923 -2.018777 -0.231083 0.736920 1.177421 2.458698 0.233904 0.195980 -0.187317 -1.395500 1.420517 0.792827 1.106198 -0.786401 1.532191 1.374764 1.935125 -1.180485 -0.232459 1.109707 1.104041 -1.000317 -1.258774 0.798252 -1.053754 1.734384 0.005738 0.716947 0.266480 -0.922233 0.713944 0.931480 -0.374192 0.282802 1.806472 0.735515 -0.204710 0.712619 -1.132208 0.953935 -1.770038 -1.742397 1.202016 0.963324 -0.441433 1.204542 -0.395817 -0.536286 -1.709271 -1.715268 0.848732 -0.337424 0.110455 2.653694 0.829518 0.920670 0.036033 1.690094 0.530764 0.908064 -0.722991 -0.193191 -0.190697 0.668844 -0.923897 -0.447311 0.933158 1.448193 0.694328 -0.440407 -0.010270 1.158757 -0.237485 -1.395509 -1.938833
0.940926 -0.972840 -0.323530 0.293660 -0.623886 0.855201 0.687868 -0.631562 -0.274414 -0.092062 -0.582281 -0.519004 0.514223 0.675123 -0.646232 -0.721743 0.645090 0.768111 -0.262851 0.348805 0.304758 -0.174986 0.285074 0.877823 0.264396 0.132415 -0.288346 -0.154249 0.383341 0.241340 -0.740014 -0.947072 -0.673349 -0.163489 0.815572 0.183632 0.631681 -0.616739 0.883277 0.363595 0.841472 -0.351156 0.582095 -0.950793 -0.769110 0.688751 0.854021 0.777178 -0.524320 -0.487140 -0.812198 -0.828356 0.576684 -0.467536 -0.589314 -0.931321 0.775123 -0.784863 -0.431686 -0.023747 -0.687427 -0.976279 0.682529 -0.545465 0.452847 -0.725507 -0.728850 0.209784 0.873596 0.631472 -0.236591 -0.822196 0.004951 0.223035 0.289660 0.821614 -0.847162 0.154583 -0.223961 -0.376953 -0.193002 0.426046 -0.665471 0.356547 -0.934212 -0.964748 -0.096632 0.190571 0.508126 0.812756 0.347042 0.223342 -0.121433 0.941636 0.755747 0.339933 0.020513 -0.953789 -0.172087 -0.461450
1.693741 -2.295061 -0.565621 -1.541147 0.380833 -0.582298 -2.672240 -0.019857 0.272568 -0.319948 0.355127 1.449524 0.411309 0.797462 0.544206 1.654279 0.550316 0.304623 -0.418300 1.254692 1.831993 0.213737 -0.010977 0.261016 -1.380401 -0.908446 1.492341 -1.627157 -0.744672 -0.567454 -2.254742 -0.477125 0.974705 -0.986192 0.868014 -1.645371 0.406465 -2.053248 0.841039 -1.178128 -1.361039 -0.452174 0.007299 -0.229289 -1.050341 0.524641 1.833600 0.646450 0.379390 1.604158 -1.130137 -0.897169 -1.243895 -0.250633 1.211510 0.040918 -0.555597 -0.386816 -0.598712 -0.759166 -1.271228 0.741669 0.430538 0.585969 -1.111675 1.159215 1.344352 -1.764809 -1.795609 1.875796 -0.017929 0.040944 0.340651 1.718836 0.614385 -2.148412 0.277000 1.699937 -1.795800 -0.594005 -1.912723 0.228958 -1.779142 0.472494 0.103952 0.630182 0.123958 0.656423 -0.027406 -0.261342 0.996700 -0.693219 -0.685408 -2.013053 1.633591 0.528244 0.580657 -0.771557 1.014255 1.785390
-0.815849 -0.093009 -1.040118 0.850134 -0.649041 -0.394338 0.732476 -0.675455 -1.303193 1.112963 1.036608 -1.217623 0.487537 0.223879 0.838598 -0.057347 -0.207290 1.697568 -1.240309 -1.008372 -0.665620 -0.749065 1.133829 -0.158695 -0.183567 1.348497 1.703385 -1.630101 0.770815 0.546166 1.712402 -0.669600 -0.449004 0.779198 0.673884 0.696057 0.665002 0.320218 0.233540 -0.197769 -0.072034 0.481674 -0.446627 -0.029289 -1.296940 0.270699 -0.560055 1.115871 0.910529 0.257464 -0.801627 0.660911 0.376829 -0.439410 0.462169 0.127588 0.462145 0.415841 0.863639 0.653839 0.683537 -0.517318 -0.533464 -0.090255 -0.642203 -0.332933 0.821478 0.610822 0.490953 0.880599 -0.384032 0.854322 1.435626 -0.719396 -0.100274 0.799915 0.558702 -0.156458 0.311885 0.991405 -0.072158 0.496801 -0.813355 1.334994 -1.120873 0.200585 0.422801 1.163504 -0.512495 -0.583922 0.373890 0.110534 0.606747 -0.552975 -0.991342 -0.181623 -0.688768 0.290516 -0.581097 1.290125
-0.310604 0.490244 0.562686 0.368615 0.798953 -0.044653 0.954699 -0.610398 -0.941274 -0.956358 0.562590 -0.758305 -0.148205 -0.787089 -0.100694 0.239661 -0.546577 0.468586 0.301854 -0.129836 -0.252071 -0.327367 0.604738 0.838847 -0.930487 -0.480753 0.846024 -0.038529 0.236278 0.397887 0.380183 0.031031 0.134029 0.894074 0.495210 0.233360 -0.484377 -0.363079 0.123270 0.905545 0.857178 -0.659829 0.875069 0.010375 0.656578 -0.153249 -0.102048 0.243886 0.550042 0.667894 0.859776 0.743665 0.602227 -0.827523 -0.162668 -0.129447 -0.702841 -0.740829 -0.008121 -0.450011 -0.028856 0.598381 -0.780971 0.672164 0.976724 0.153070 0.720665 0.723280 -0.335995 0.780856 -0.688128 -0.444599 0.079172 0.735738 -0.943200 0.693281 -0.869756 0.907099 -0.471306 0.326278 -0.499457 0.628382 -0.700995 0.824064 0.412277 0.607829 0.588146 0.577937 -0.007767 -0.251927 0.377305 0.598048 0.174247 0.616004 -0.048195 -0.114899 0.070499 0.799813 -0.453587 -0.387113
-0.290968 0.444151 -0.342335 -0.733225 -0.884177 1.098802 0.089144 -0.007330 -0.517722 -1.203894 -0.941698 0.025892 -0.063207 1.194778 0.237171 0.131745 1.111818 -0.940811 0.436022 -0.324015 0.347609 -0.580813 -0.186263 0.555198 -1.009556 -0.879667 -0.080006 1.278972 0.142162 -0.654837 -0.529732 -0.819413 0.107182 0.064388 -0.670547 -0.592470 0.292701 1.001530 -0.592624 0.073321 -0.285191 0.627782 0.474794 1.080919 0.289394 -0.562478 -0.195006 0.196127 0.428929 -0.532895 0.914377 -1.167497 0.048496 -0.632543 -0.758404 -0.381333 -0.676192 -0.859174 0.383742 -0.996721 0.022670 1.637364 1.387891 -0.284000 -0.382738 0.432938 -0.490100 0.235207 -0.419089 -0.597750 0.583813 -1.006997 -0.930149 -1.083859 0.780128 -0.912004 -0.141361 -0.742379 0.031619 0.127122 0.689857 -0.237513 0.360885 -1.657691 0.693861 0.496931 -0.049635 -1.064294 -0.511310 -0.629004 -0.895919 0.015382 0.379453 0.035700 0.266574 -0.599958 0.582715 -1.060437 0.680170 -1.193571
0.073984 0.826543 0.136432 -0.692634 -0.522910 -1.001720 -0.521763 -0.433652 -0.452469 0.639042 0.772609 0.299677 0.189151 -0.427459 1.034694 -0.143532 0.551438 1.341056 -0.414780 0.755289 -0.122090 0.402888 -0.522418 0.496571 0.211002 0.187421 1.058472 -1.012187 0.312812 -0.981928 0.749595 -0.611163 1.006535 0.906967 0.744859 -0.064067 -0.259941 -0.734512 -0.626474 1.230866 -1.089435 0.154125 0.935664 0.636375 -0.629121 -0.326788 -0.294080 1.263759 0.343009 0.915922 -0.123510 -0.068888 -0.890713 0.497111 -0.370662 -0.326061 -0.820816 -0.676134 1.036379 1.040344 0.588533 -0.085679 -0.235375 0.286985 -0.534089 -0.248417 1.064068 0.640257 0.174458 -0.031398 -0.200344 0.108937 -0.243673 1.144138 -0.833565 1.290203 -0.792850 -0.102371 0.343726 0.640040 0.472447 0.012232 -0.900235 0.822092 0.061621 -0.237136 0.506248 0.655283 -0.161322 0.349997 0.868053 -0.276146 -0.469774 0.354680 -1.227660 -0.243842 -0.437787 -0.180266 -0.429878 0.852772
0.746409 0.404195 -0.314356 -0.831255 -0.956796 0.881656 -0.517683 -0.877195 0.768110 0.404739 -0.470225 0.138067 0.212913 0.057899 0.553397 0.981487 -0.655093 -0.993979 -0.125125 0.993197 -0.180545 -0.612604 -0.687546 0.876478 0.862706 0.004140 0.845480 0.273992 -0.726939 0.136312 0.861345 -0.609006 0.492309 0.420969 0.888598 0.947894 -0.757615 -0.840702 -0.238047 0.530428 0.229554 -0.013484 0.788753 -0.200801 -0.837884 0.543036 0.767117 -0.495859 -0.102379 -0.366631 0.248807 0.210598 0.507752 -0.047626 0.245259 0.748781 -0.199588 -0.673394 -0.592315 -0.301365 -0.743486 -0.510118 0.387793 -0.472595 0.000382 0.416337 0.140576 0.398055 -0.355321 0.348951 0.992836 -0.129087 -0.819140 -0.875549 0.784335 0.743769 0.345791 -0.838111 -0.339866 -0.213211 0.249808 0.435341 0.760600 -0.131547 -0.595329 -0.568162 -0.600507 0.493810 0.646850 -0.420042 -0.789371 -0.038912 -0.054931 0.382500 0.799215 -0.483324 -0.231292 0.949428 0.605237 -0.950294
0.918329 0.244111 0.335618 -0.840363 -0.819264 -0.818864 0.083685 0.332505 -0.135306 -0.462902 -1.187273 1.116248 -0.055624 0.687073 0.177033 0.463210 -0.578197 0.006818 0.569610 0.752182 -0.665494 0.682023 -0.557235 -0.684773 -0.602496 -1.103465 -0.663728 0.950274 -1.031759 -0.739002 -0.488652 0.478487 -0.924310 0.213981 0.813246 0.011084 -0.869262 -1.013406 0.488342 -0.467927 0.592473 0.232099 -0.114743 0.998912 -0.764869 0.119286 -0.279261 0.065724 0.308719 0.686389 0.807303 -0.149228 1.084006 -0.179240 -0.636721 -0.938897 0.076953 -1.053924 -1.094850 -1.053663 -0.340020 0.765895 -0.147814 0.489165 -1.291317 -0.993227 -0.466143 -0.013120 0.842991 -0.070130 0.272583 0.693062 -0.016974 -0.608974 0.676275 -1.224613 0.359932 0.115944 -0.705661 -0.611574 -0.687296 -0.860729 -0.358514 -0.232085 -0.102173 1.377665 -0.977908 -0.383815 -0.763940 -0.685610 -1.105548 0.531505 -0.170908 1.292833 0.841314 0.378966 0.012231 -0.517621 0.108994 -0.657881
-0.442047 -0.434192 0.259973 -0.609955 0.189413 0.303120 0.412377 -0.626753 0.409833 0.204282 0.617617 0.664553 1.033668 -0.051566 -0.906618 -0.217742 -0.327320 0.726093 -1.149198 -0.154057 -0.045273 -0.648593 0.168732 0.276293 0.721133 0.953806 -0.202801 -0.660841 0.487138 0.265016 -0.459766 0.374380 -0.414447 0.249553 -0.502343 -0.500793 -0.070058 -0.299835 -0.821019 0.176803 -0.496185 0.759958 0.151448 0.086585 -0.524779 0.235665 0.924508 0.459209 -0.614938 -0.548683 -0.711436 -0.388463 0.406542 -0.484975 0.311345 -0.412175 1.011395 0.414116 1.162028 -0.908092 0.417945 -1.289188 0.280217 -0.649580 -0.416908 0.303095 1.069264 -0.815528 -0.452605 0.378668 -0.827772 -0.267631 -0.235975 -0.713999 0.081750 0.379347 -0.522304 -0.630558 1.089672 1.007080 0.251183 0.046561 -0.866165 -0.369808 0.082755 -0.191046 -0.550079 0.014202 -0.481290 0.745202 -0.328651 0.873296 -0.443112 0.358631 -0.518413 0.642599 -0.398773 -0.698748 0.485666 -0.142657
-0.420647 -0.663635 0.920021 -0.765562 -0.015299 0.129292 0.041896 0.679588 0.351529 0.399213 0.198571 0.453428 -0.942885 -0.690849 -0.879304 -0.709458 -0.903513 0.109117 -0.423796 0.201295 -0.772747 0.581902 -0.123391 0.117190 0.069402 0.283691 0.070182 0.173807 0.206182 -0.983694 0.179989 0.933769 0.733089 -0.930014 0.897336 0.302762 -0.336259 -0.786217 0.050394 -0.593336 -0.508643 -0.748104 0.132492 0.011743 -0.056221 -0.064084 0.353394 -0.754899 -0.523498 -0.754586 -0.452911 -0.492652 0.552239 0.941283 -0.992222 0.774373 -0.706642 0.177058 0.840254 -0.629371 0.183707 -0.185412 -0.840114 0.198020 0.598744 0.999529 -0.476577 0.031972 -0.475901 0.303755 -0.519098 -0.761615 0.488756 -0.692476 0.779222 0.543445 -0.969821 0.615816 0.541674 0.522089 0.377613 0.574901 -0.015636 0.367841 -0.790971 -0.119538 0.693165 -0.237273 -0.822384 -0.765190 -0.226773 0.241764 0.610716 -0.778897 -0.198241 -0.870989 0.286480 -0.942990 0.715816 0.069747
0.302462 -0.842455 0.864481 0.161102 -0.207501 0.871458 0.568987 0.717650 0.217407 -1.021156 -0.573510 0.823096 -0.954923 0.597055 -0.300298 0.589723 -0.277537 -0.582938 -0.154666 0.097390 1.058960 -0.736376 -0.715440 0.877941 -0.153772 -0.548431 0.500936 0.507092 0.749195 0.858158 -0.733865 0.669518 -1.085478 -0.422507 -0.408895 0.368581 0.324273 -0.064425 0.210404 -0.625786 0.959154 -0.289967 0.149511 0.585267 -0.548245 -0.137698 0.253703 -0.322288 0.482723 0.446921 -0.177398 -0.893736 0.415568 -0.147859 0.446173 -0.652745 0.850274 -1.083524 0.419368 -0.619493 -0.310553 1.102380 0.968562 0.319151 -0.008277 -0.477543 -1.001556 -0.697855 -0.913287 0.722395 0.529152 0.418684 0.231610 -0.083271 -0.006755 -0.611689 -0.468432 -0.073033 -0.703010 -0.019492 0.977518 -0.471339 0.760790 -0.548572 -0.634545 0.834502 -0.378574 -0.295011 0.803472 -0.416945 -0.243377 0.492559 -0.368280 1.163644 -0.479901 0.258555 -0.753165 -0.640915 -0.067034 0.492205
-0.540630 0.009313 -0.703366 0.407249 0.609577 -0.283843 -0.630744 0.830392 -0.002648 -0.307634 0.836384 -0.797806 -0.664434 0.177319 -0.011100 -0.147179 -0.570410 0.016798 -0.049467 0.623923 0.777008 -0.796259 0.283088 0.399405 -0.714294 -0.595338 0.335746 0.001346 0.890939 -0.802776 -0.275870 -0.450189 -0.871156 0.768847 0.331091 0.216129 -0.925468 -1.019603 0.313825 -0.818552 -0.323356 0.037882 -0.965909 -1.057762 -0.996619 -0.843073 -0.362462 0.704650 -0.261903 -0.183105 0.615181 0.402399 -0.367345 0.185575 0.792194 0.568367 -0.495910 -0.345307 -0.292848 0.015384 -0.193950 0.136542 -0.917802 0.078407 0.249617 0.450501 -0.190631 -0.542967 -0.416760 -0.712354 0.643585 0.805636 0.601218 0.276124 -0.095775 0.816109 0.090383 0.984390 0.033467 -0.125014 0.449423 1.102585 -0.855116 0.194468 -0.454224 -0.980996 -0.668947 0.947278 0.411746 -0.319674 -0.537576 0.107866 -0.679326 -0.989234 -0.102542 0.865937 -0.918501 0.200042 0.696203 0.918854
0.444594 -0.338013 -0.391899 -0.076717 -0.827643 -0.543405 0.221358 0.731831 -0.140212 0.951155 0.113345 0.776606 -0.981157 0.139524 0.100402 0.334306 -0.795383 0.554515 -0.863404 0.484191 -0.520007 -0.439541 0.442693 -0.917784 -0.121719 -0.160775 -0.407876 -0.649821 -0.599329 -0.334343 0.444359 -0.932865 0.906299 0.795050 -0.394006 -0.044613 -0.605818 0.733807 0.203194 -0.828596 0.958824 -0.240992 -0.852940 0.848530 0.644679 0.677559 0.054983 0.147724 -0.649418 -0.860033 -0.364239 0.706283 -0.959796 -0.498717 -0.771860 0.733262 0.744691 -0.720782 0.546428 -0.393872 0.872682 -0.965049 0.975696 -0.480918 0.644559 0.703540 -0.643633 0.660510 0.350819 0.000585 -0.966076 -0.611138 -0.668713 0.196241 0.217369 -0.865847 -0.085970 0.366708 -0.198602 -0.629107 -0.026540 0.079166 0.962332 -0.424931 -0.940767 0.122302 0.455802 -0.210518 0.779393 -0.532791 0.522338 0.397414 0.298023 0.814740 -0.968518 -0.257200 -0.270679 0.297192 0.843565 -0.805141
-0.005815 0.623721 0.465544 0.251606 0.806626 -0.827736 -0.569627 0.152045 -0.571365 0.736497 -1.081962 0.408477 -0.061396 0.345280 0.667967 -0.627357 0.054096 -0.839172 0.973239 -0.695198 -0.493004 0.385301 -0.467026 -0.350871 0.578608 0.231158 0.091982 -0.585984 0.395944 0.438366 -0.243676 0.811640 0.562134 0.118453 -0.206815 -0.762712 0.404477 0.914404 0.003486 -0.405378 -0.443194 0.144043 1.036467 0.123152 0.805760 -0.903085 -0.749346 -0.669154 0.385726 -0.516751 0.407123 0.603177 -0.406928 -0.292164 0.810211 -0.549191 0.067705 0.566905 0.441391 -0.750691 0.491348 -0.272343 -0.191058 0.948488 0.497285 -0.250312 0.446103 0.369344 0.452079 -0.433313 -0.233558 -0.655775 -0.131323 0.756900 -0.173695 -0.397508 -0.059084 -0.764648 0.064808 -0.332959 -0.546838 0.578423 -0.673215 -0.348395 -0.833057 1.095742 0.556359 -0.222862 0.583108 0.623152 -0.060654 -0.906308 -1.156917 -0.842264 0.153792 0.996840 0.323778 -0.324048 -0.306843 0.331442
0.620298 -1.250950 -0.826999 0.179580 -0.376720 0.598262 -0.494404 0.525861 -0.066977 0.682798 0.106697 -0.354688 -0.474826 0.414047 -0.303019 -0.433154 -0.607320 -0.370700 0.382058 -0.444476 0.853627 0.230457 -0.506835 -0.678119 0.986700 0.407137 -0.385991 -1.077471 0.722308 -0.920887 0.658709 -0.810501 -0.627476 -0.636016 -0.541856 0.409288 -1.110304 -0.740107 0.115387 -0.369027 -0.496201 0.112626 0.435040 -0.470064 0.663109 0.549638 0.319464 -0.731156 0.104705 0.005019 -0.113102 -0.498777 -1.051902 0.356870 0.078879 0.404321 0.824945 0.553891 0.979862 0.350309 0.712718 0.483857 0.627791 0.130207 0.674047 0.418979 0.237329 -0.546005 -1.125311 -0.853396 -1.167091 0.820870 0.730209 -0.779353 -0.448907 0.289475 0.916943 0.724038 0.375264 -0.208139 -0.356761 -0.062485 0.527062 -0.384728 -0.848866 -0.987596 0.975454 0.166109 0.732933 0.274164 -0.777579 0.646758 -0.876365 0.815508 -0.867117 0.716680 -0.090460 0.578037 0.412089 -0.043076
0.050156 0.950958 0.854775 -0.309192 0.561176 -0.377201 -0.824236 0.992798 -0.193791 0.743368 -0.418716 0.873169 -0.722541 -0.951082 -0.418623 0.160600 0.679739 -0.213429 -0.541764 -0.177954 -0.702955 -0.616918 0.954124 0.890960 -0.687559 0.680804 0.509731 -0.672995 0.636331 -0.256621 -0.556562 0.066993 0.453205 0.374804 0.747227 -0.020929 -0.118080 0.571912 -0.839867 0.317296 -0.538873 0.589593 -0.334220 0.648039 0.017749 -0.948792 0.605934 0.280996 0.876359 -0.099765 0.161938 0.427833 -0.467897 0.227360 -0.001500 -0.783771 -0.776565 0.779804 -0.145924 0.131446 -0.350852 -0.568807 0.449881 0.072590 -0.319050 -0.947109 -0.554309 0.525204 -0.993160 0.062591 -0.865303 0.008743 0.070953 0.942410 -0.270025 -0.251405 0.964422 -0.518679 -0.751693 -0.171489 -0.092724 -0.563480 -0.706340 -0.395496 0.549003 -0.108047 0.232466 -0.499418 -0.161137 -0.930602 0.641082 0.945508 0.294223 0.244001 0.827209 0.371895 0.415442 0.220752 -0.592284 0.493255
0.694143 -0.100623 0.128293 0.577143 0.236063 0.440189 0.653232 0.862271 0.770425 0.154348 -0.897931 0.070069 -0.638001 -0.384233 1.187618 0.008488 -0.015636 0.304505 -0.099722 0.452893 0.332589 -0.248350 0.422653 0.782926 -0.380058 -0.458373 0.323890 -0.714282 -0.672019 0.395600 0.612866 0.827980 -0.692033 1.049082 -0.662958 -0.371460 0.525005 -0.620945 0.089803 0.714145 -0.599377 -0.838750 -0.075402 -0.792769 0.405445 -0.602623 -1.159135 0.684500 0.019606 -0.358189 0.135082 -0.044849 -0.301778 0.382487 0.141766 -0.454723 -0.391397 0.924212 -0.218384 0.231257 -0.582785 -0.044969 0.196278 -0.278228 0.562168 0.412003 0.358447 -0.029295 0.688904 -0.304953 0.685433 -0.197204 -0.879628 0.791655 0.024179 0.706595 -0.761482 -0.763098 -0.336189 -0.279880 0.113501 0.619664 -0.114347 -0.154637 0.843763 0.721881 0.740618 0.407942 -0.151358 -0.621951 -1.113299 0.385041 -0.252789 0.807020 0.291925 -0.678155 -0.743233 -0.554341 0.862702 0.689674
0.302041 -0.280179 0.468116 -0.529521 0.733271 -0.292078 -0.599310 -0.435504 0.457108 0.966581 -0.567427 -0.942984 -0.486796 0.358665 -0.234349 -0.200512 0.615112 -0.214054 0.315002 -0.816776 -0.833778 -0.316912 -0.554405 0.846846 0.897911 -0.341321 -0.569716 0.245259 -0.875328 0.842569 0.713837 -0.232440 -1.012380 -0.594099 -0.113216 0.123255 -0.650465 0.106373 0.567763 0.736111 0.268417 0.672300 -0.785286 -0.303343 -0.015983 -0.355323 -0.219512 -0.511644 -0.119152 -0.253896 -0.234664 -0.072793 -0.684414 0.041044 -0.806189 0.248328 0.894423 0.573400 -0.268501 0.647059 0.114083 -0.967806 0.300116 0.330391 0.560154 0.999958 -0.169202 0.314953 -0.095427 -0.105288 0.744730 0.582562 -0.523904 0.970507 -0.714111 -0.270505 -0.919684 -0.479837 -0.156171 -0.923547 0.681155 -0.763795 0.466253 0.292145 -0.615432 -0.886752 -0.210362 0.118427 -0.522724 0.487048 -0.182958 -0.956106 0.416891 -0.885467 0.217897 -0.813289 -0.924983 0.499047 0.851194 0.291559
0.351894 0.428506 0.335217 -0.281735 0.453931 -0.937959 -0.624374 -0.229021 0.190553 0.162975 0.639249 -0.887107 -0.354376 0.511339 -0.179725 0.736293 0.910971 0.530023 -0.499439 -0.747307 -0.015552 -0.006579 0.468022 -0.366169 -0.553570 0.297045 -0.625476 -0.326417 0.484092 -0.224235 0.713848 0.904911 -0.039033 -0.614840 -0.461972 -0.434976 -0.370469 0.797312 -0.566821 0.667044 0.844007 -0.066792 0.868790 0.823416 0.943691 0.469646 -0.101516 -0.530880 -0.158760 0.250392 -0.020136 0.174326 0.784906 -0.995292 -0.665930 -0.306580 0.847098 -0.790916 0.850663 -0.087697 -0.765637 -0.242841 -0.640802 0.738359 -0.497328 0.149168 0.024870 -0.730848 -0.015347 0.841657 -0.838931 -0.394754 -0.000768 -0.323812 0.478611 0.149499 -0.178458 -0.791922 0.589797 0.705907 0.415141 0.088954 -0.895872 -0.805329 0.602236 -0.427013 0.671162 0.078244 -0.869054 -0.175282 -0.398172 -0.943429 -0.225521 0.100399 -0.102312 -0.997329 -0.901781 -0.164843 0.750363 -0.156786
0.673876 -0.263471 -0.888732 0.783439 0.571997 -0.420400 0.580118 0.004637 0.904602 -0.329677 0.739965 -0.345162 0.504879 -0.838132 -0.682120 -0.777488 -0.378602 -0.180120 -0.871457 0.858010 0.560185 0.893505 -0.474931 -0.038459 0.127816 -0.330222 -0.303203 0.752071 -0.760304 -0.696703 0.877969 0.450731 0.705795 0.941000 0.584407 -0.598068 -0.288112 -0.406073 0.630182 -0.180142 0.082579 0.506607 -0.877159 0.086302 0.624593 -0.316412 -0.984747 0.825585 -0.395965 -0.665761 0.670005 0.705089 0.997490 0.968632 0.721318 1.015258 0.172960 -0.028001 -0.751922 -0.057475 -0.726481 -0.726616 1.057747 -0.449494 0.653845 -0.562715 0.934398 0.634090 -0.433911 0.542634 0.885641 0.160014 0.455973 -0.102916 0.814612 0.599511 -1.134622 0.231220 0.804325 -0.292068 0.706938 -0.200240 0.916907 -0.259414 0.526230 0.828297 -0.708689 -0.613249 0.381859 0.707636 -0.724409 -0.380849 -0.816866 -0.915999 0.953106 -0.232678 0.004646 -0.727151 -0.558250 0.032046
0.620435 0.552158 0.075284 -0.715540 -0.192101 -0.801234 -0.912043 0.664439 0.041398 -0.810942 0.632843 0.377047 -0.879755 0.735252 0.461779 0.827605 -0.225140 0.191596 0.674925 0.545218 0.466523 -0.963578 -0.566150 0.574295 0.319445 -0.147858 -0.240179 -0.234054 0.574003 0.322113 -0.736139 0.857666 0.596260 -0.041941 0.305542 -0.386485 0.387225 -0.263321 -0.342906 0.052873 -0.512521 0.683614 -0.610039 -1.041870 0.720972 -0.263019 -0.034108 -0.423375 0.017543 0.957691 0.599160 1.093647 0.620207 -0.731566 -0.580656 0.257747 0.276121 -0.898621 0.024922 -0.772355 -0.630277 -0.255318 -0.169871 0.320416 -0.311289 -0.838613 0.629286 0.734429 -0.451862 -0.920461 0.765392 0.054811 -0.422675 -0.172297 -0.658086 -0.016988 1.044108 1.010220 -0.614798 -0.241098 -0.194154 0.076423 0.049281 0.652395 0.984567 -0.231883 -0.376082 -0.962312 0.079972 0.186224 -0.613549 0.391362 0.707469 -0.359046 0.671279 0.165922 0.565995 0.440174 -0.011695 0.871544
0.333825 0.356510 0.199404 -0.990175 -0.977191 0.828076 -0.937253 0.088512 0.883222 -0.335551 0.591560 0.402875 0.050878 0.785474 -0.396606 0.446631 0.864965 0.001058 -0.337634 -0.251610 0.676898 0.650269 -0.266675 -0.936841 -0.802778 -0.413198 0.591045 0.217073 0.731512 -0.321861 0.313477 -0.759001 -0.570334 -0.350133 -0.590115 -0.500618 0.239406 0.915120 0.658399 0.738478 0.720404 -0.566525 -0.368235 -0.481800 -0.777184 0.399132 0.090259 0.906643 -0.713196 -0.279872 -0.513408 0.077096 0.293476 -0.815518 -0.317860 -0.596332 0.078716 0.797171 0.696023 0.114356 0.092453 -0.837009 -0.238046 -0.468951 -0.429895 0.164175 0.477811 -0.899313 -0.115923 0.320947 0.674783 -0.482235 0.932630 0.092543 0.908956 -0.092539 0.481490 -0.855907 0.005485 0.504733 0.363806 0.128433 0.383587 -0.208434 0.673008 -0.520058 -0.033686 0.312651 -0.434736 0.602264 -0.466739 -0.993081 0.349916 -0.586061 0.528808 0.155864 0.588987 0.533429 0.722684 0.765472
-0.892034 1.103116 0.082945 -0.432400 -0.513183 0.215277 -0.316720 0.861473 0.232576 0.361792 -0.649255 0.979145 0.463048 0.656054 -0.483974 0.483167 0.055950 -0.787649 -0.183885 1.025562 -0.529631 -0.936296 0.053724 -0.805532 -0.538187 0.019342 0.354055 0.339502 1.098402 0.516760 -0.630746 -0.222984 0.564027 -0.888361 -0.425539 0.854277 -0.399107 -0.862744 0.382940 -0.023985 -0.033264 0.914454 0.671791 0.913807 0.938879 -0.196207 -0.662763 0.403822 0.266454 -0.224362 0.650575 0.648693 -0.295253 0.432928 0.112069 0.605580 -0.424153 0.628938 0.248300 -0.594812 0.587522 0.162199 0.204048 -0.487476 0.337189 0.754384 -0.524533 -0.219154 -0.060859 0.315971 -0.778848 -0.783943 -0.249805 -0.257982 0.709630 0.293822 0.132773 -0.784727 -0.250451 -0.720912 -0.414058 1.005562 0.945338 1.162411 0.427826 -0.404072 0.555754 -0.745449 -0.294954 -0.550172 0.271776 0.349460 -0.089651 -0.622936 -0.248997 -0.472923 -0.583588 0.588652 0.344276 0.461777
-3.001876 2.033566 5.383337 -1.301567 0.923839 3.377676 -1.644754 1.206003 -1.715384 -4.199347 -1.439029 -1.780562 -4.790912 -0.313846 -1.928414 2.324037 1.519264 -0.670854 1.239193 -0.577941 1.278090 2.110035 -1.499648 0.467235 -1.283085 0.511494 -4.628537 3.397854 -1.524779 1.662673 1.961524 -1.094882 0.396233 0.598848 1.933183 1.591273 1.511933 1.702168 1.216500 -0.754612 -1.216852 0.031231 -0.256354 1.130668 1.231043 0.434729 0.321045 -2.463120 -3.119182 -1.609735 1.057212 -0.091561 3.018766 -2.741479 -1.526692 1.225339 -1.619612 -1.681060 1.775971 1.477152 0.022314 2.427584 -1.587502 0.338336 -0.227414 -4.124354 -2.459213 2.908711 -2.382402 -2.241049 0.783409 -0.293513 -2.749884 -0.442087 -1.421927 -2.070785 1.066217 0.637849 -0.119132 -1.508544 1.238822 -0.836385 2.313587 -3.534323 2.835539 -0.566650 -0.642981 -5.720589 0.487579 1.958717 -0.070611 -0.699737 2.073249 0.775084 0.537197 -2.442485 -0.038589 1.928584 0.713435 -2.898066
0.714666 -0.537264 0.092083 0.999051 0.485613 0.814194 -0.458416 -0.819882 -0.331240 0.617883 -0.239203 -0.336400 -0.217810 -0.165121 0.483213 -0.865510 -0.615568 -0.163265 0.888257 0.477668 -0.662231 0.863449 -0.624675 -0.788943 -0.928642 -0.932175 0.595727 0.587064 -0.231289 0.107650 0.488252 -0.742999 0.043416 0.347511 -0.032683 -0.521745 -0.340335 0.673302 0.782482 0.263561 0.429761 -0.139638 -0.056370 0.188721 0.575179 0.218718 0.899950 0.776433 0.651868 -0.514690 -0.422284 -0.066083 0.935247 0.361981 -0.860253 0.020529 0.153751 0.837205 0.671440 -0.746591 0.297265 0.075599 0.984473 -0.419735 -0.361515 -0.676995 0.073690 -0.425924 -0.127126 0.334288 0.381794 0.312086 0.560864 -0.833896 0.108548 0.437619 0.752882 -0.972744 0.726593 -0.550996 -0.787601 -0.830756 0.525097 -0.569073 0.186333 0.815577 0.280871 0.884214 -0.158150 -0.236219 -0.639162 -0.882569 0.080380 0.964317 0.224274 -0.872063 0.298150 0.252433 0.894521 0.300536
1.872365 -1.659659 -6.360697 1.622169 -1.123475 -2.628054 1.012035 0.674473 1.909310 3.025329 0.435380 1.522722 5.287611 1.279556 1.715224 -2.233414 -1.677211 1.590410 -2.897821 -0.479299 -0.842606 -1.920903 1.617548 -0.146735 1.873282 0.448340 5.217646 -3.508454 2.303304 -1.663502 -2.968727 0.131028 -0.322769 -1.658159 -1.082453 -1.885443 -1.068474 -2.020844 -1.433853 0.879052 0.021328 0.574319 0.684731 -1.167536 -1.114775 0.109058 -1.731272 1.789425 2.809579 1.788163 -2.003159 -0.907346 -1.813356 2.486730 0.725876 -0.812779 0.644923 1.776926 -1.018345 -1.292484 -0.318855 -3.090623 0.688348 -0.203001 0.833653 4.025492 2.155497 -1.585743 1.694817 3.149996 -1.587100 0.797073 2.096110 2.125287 0.932069 3.055051 -1.709258 0.593205 0.240428 0.818617 -1.039592 0.128131 -3.175441 4.032381 -2.811236 -0.310638 1.591692 5.716138 -1.094564 -1.655704 0.315202 0.113410 -2.261753 -1.335839 0.064441 1.375146 -1.447803 -1.062201 0.948409 2.983346
0.679022 -1.197935 0.376650 -0.388613 0.676994 0.710684 0.962435 0.221163 -0.579349 -0.128454 -0.640055 -0.106080 0.667748 -0.193284 -0.142804 0.297806 0.161339 1.098082 0.254601 -1.191070 -0.773835 1.119648 0.633944 -0.134954 1.212315 -0.245012 1.084525 -0.629347 0.557626 1.025287 1.217416 0.115615 0.232003 -1.029941 0.298301 -1.011662 -0.060348 0.216989 0.796466 0.943878 0.003114 0.756149 0.136348 0.463893 -0.030913 0.388332 -0.412145 0.516648 -0.861958 0.087598 0.835993 -0.684356 -0.399416 0.460285 0.038283 0.066908 0.395849 -0.850163 -0.841129 0.032363 0.649441 -0.303273 0.662071 0.496001 0.215298 0.640587 -0.637125 0.672981 -0.753793 -0.096952 -0.876291 -0.385203 0.635346 0.076219 -0.689998 1.194390 0.612030 -0.363796 -0.264481 -0.963088 -0.069835 -0.773508 -0.059622 0.923003 0.750991 -0.295645 0.198092 0.719037 -0.108380 -0.583222 0.577121 0.595411 0.318841 0.989906 0.571877 0.505284 0.578128 -0.324432 -1.116032 -0.520452
0.487911 -0.601576 -0.157794 0.892244 0.741404 -0.572169 0.436421 -0.424653 -0.142406 0.749771 -0.359501 0.047888 0.060335 -0.648832 0.211395 -0.146521 -0.802947 0.300450 0.925797 0.958784 0.145737 0.241890 -0.430405 0.283114 -0.090230 0.264964 0.422381 -0.889716 0.848420 -0.931304 0.321141 0.639443 0.613043 -0.100393 0.550824 -0.109546 -0.535772 0.857349 0.244923 -0.853591 0.273845 -0.821281 0.886863 -0.425292 -0.424855 -0.287129 0.586822 -0.143444 -0.581259 0.697240 -0.290824 0.505389 -0.163359 0.326629 -0.312928 -0.288526 0.002471 -0.940176 -0.180075 0.106826 0.582446 -0.778689 0.491279 -0.287021 -0.853785 0.834888 -0.851210 0.808331 0.912117 0.230940 -0.553466 0.862509 0.836590 0.697151 -0.039858 -0.576837 -0.910388 -0.778765 -0.275216 -0.882713 0.537493 -0.650905 -0.582450 -0.934175 -0.268232 -0.683695 -0.015747 -0.718341 -0.815411 0.185527 0.836725 0.743183 -0.500643 0.591985 0.985238 0.799969 0.005893 -0.859632 -0.644573 -0.048199
0.870822 1.460637 0.439347 1.022686 0.512800 -0.318489 0.708025 0.136730 -0.373701 0.807284 -0.865158 -0.194215 0.238566 0.074606 0.358729 -0.925746 -0.615568 0.527487 -0.854526 0.356974 -0.244048 -0.910599 -0.008622 -0.803815 -0.169886 0.052908 0.654383 1.189000 0.990083 -0.887584 0.273037 1.149423 0.094760 -0.297625 -0.542022 -0.781105 -0.148298 1.238667 -0.502195 0.508792 -0.320368 -1.008387 -0.424317 -0.723292 0.625737 -0.805145 -0.992195 -0.236910 0.023266 -0.287153 0.673508 1.194539 -0.433626 -0.217891 -0.241174 0.836591 -0.722133 -1.013524 -0.615954 0.696724 0.673642 0.795568 0.645561 0.262037 -0.034805 0.245543 0.159446 -0.240823 -0.640996 0.433441 0.891504 -0.239201 0.980529 -0.668113 0.332617 0.646109 0.446424 -0.222660 0.291803 0.218575 0.598301 -0.985138 -1.217401 -0.440551 -1.232093 -0.377120 -0.460514 0.650120 0.504268 0.787368 -0.551281 -0.504222 0.026372 -0.627272 -0.463915 0.651608 -0.485672 -0.476142 -0.701622 0.402825
-1.163699 1.940290 1.343345 0.341542 -0.338119 0.854825 2.487031 -0.003883 -0.284662 -0.595137 -0.700221 -0.402494 -1.190649 0.402720 -0.090044 -0.236022 -1.581580 -0.483695 1.240535 -0.746107 -1.534562 1.374430 -1.156454 -1.481016 0.011476 1.122467 -0.560204 0.078038 0.579971 0.717057 1.964237 0.517453 0.720710 0.496685 -1.360623 0.828800 0.141095 1.971988 0.523170 0.158121 0.537087 1.448305 -1.062760 -0.228586 1.537852 -0.080453 -1.389956 -1.709448 0.989033 -0.199462 1.652118 -0.128078 1.077398 -0.210288 0.582419 0.238943 -0.542842 -0.459960 0.879615 1.477776 0.147849 0.435093 0.259970 0.358163 1.098829 -2.171763 -1.611197 1.793506 0.798438 -0.990001 1.002636 0.098187 0.690140 -0.729922 -1.323436 0.767459 0.517130 -1.493652 1.578413 1.487831 0.711678 -0.944958 0.671692 -0.193355 1.292140 -1.154181 0.275895 -0.995170 -0.508546 -0.140595 -1.195949 1.477851 0.165843 1.479892 -0.893375 -0.197094 1.135512 0.458435 0.348881 -0.580763
0.407108 0.764393 0.404597 0.291474 0.060616 0.926492 0.928226 0.526374 0.665261 0.746693 0.517269 0.894222 0.692206 0.052648 -0.300266 0.751981 0.055574 -0.494715 0.545502 0.559265 0.815190 -0.747783 -0.745547 -0.953981 0.261224 -0.281404 -0.436670 -0.287935 -0.687895 -0.055854 0.327979 0.529166 -0.122074 -0.750563 -0.708441 0.895749 0.955297 0.210032 -0.820963 0.281491 -0.070269 0.153481 0.354432 -0.175087 0.378139 0.691282 0.911094 0.701295 0.152057 -0.025410 0.745777 0.727723 -0.703912 -0.843492 -0.127064 0.403495 -0.043907 -0.976993 0.163841 -0.137247 0.332740 -0.592551 -0.601387 0.551328 -0.883607 -0.018654 0.773260 -0.315381 -0.314681 0.806327 -0.688270 -0.217845 0.200762 0.253696 0.306939 0.450130 -0.100492 -0.285705 0.398917 0.486576 -0.061947 0.763319 -0.189520 -0.240962 0.382613 -0.081081 0.040967 0.447304 0.957377 0.934297 -0.068701 0.258433 -0.116975 -0.924267 -0.757520 0.491036 0.904330 -0.380219 -0.783509 0.230144
1.529345 -2.674224 -1.084666 -1.018227 -0.874340 -1.246876 -1.310559 -0.369906 1.554838 -0.104608 -0.039733 0.470250 1.430096 0.788767 0.028368 0.982016 0.388533 1.503486 0.308003 -0.217434 0.932531 -1.100632 0.367679 1.105134 -1.125163 -0.257459 1.911492 0.235414 0.546905 -0.919830 -1.327116 -1.484321 -0.015040 -0.617374 1.900069 -1.249503 -1.226494 -1.977619 -0.097053 -0.921054 -0.764957 -1.042184 0.530139 -0.073209 -1.450771 -1.060416 0.056792 1.433689 0.617927 -0.029599 -1.612874 -0.843404 0.008839 -0.659772 1.194030 0.500606 -0.490980 0.237254 -0.041635 -1.719754 -0.347818 0.045363 0.190491 0.435038 -0.660640 1.511435 2.316687 -1.895469 -1.794767 1.308277 -0.417843 0.557166 0.124083 0.636882 0.176839 -1.208828 -0.381914 0.458221 -0.922963 0.106355 -1.302018 -0.205830 -0.238018 0.412756 -0.407594 -0.218220 1.135565 -0.193984 0.385707 -0.589127 0.441447 -0.755554 -1.594607 -2.107787 -0.016507 -0.011956 -0.416730 -1.265458 0.091246 1.691258
0.917172 0.200819 0.160145 0.350159 0.705091 0.509786 1.019165 -0.020699 0.738825 1.110381 0.609731 -0.330934 0.272016 -0.715950 0.127850 0.739762 -0.562249 -0.198743 -1.024195 -0.567329 -0.450341 0.833701 -0.685273 -0.698900 -0.064530 0.994994 -0.281567 -0.142196 0.083792 -0.376003 0.705868 -0.466518 0.883132 -0.816153 0.165421 -0.704371 -1.064454 0.323736 -0.596468 1.025453 -0.163786 0.603416 0.734187 -0.655338 -0.162341 0.517996 0.799854 -0.366879 0.924404 -0.523064 -0.161815 -0.684208 -0.384173 0.493570 -0.739239 -0.771035 0.770635 0.144124 -0.716543 0.495963 -0.872261 -0.482940 -0.873175 0.756068 0.708257 0.233138 1.271191 0.578384 -0.486120 -0.448634 0.015116 1.247447 0.435297 0.217131 0.173553 1.175375 -0.861410 -0.864151 1.279482 0.172579 0.641915 1.008986 0.595937 1.369273 -1.100336 0.143842 -0.620218 0.733861 0.347552 0.294532 0.198714 -0.091928 -0.643031 -0.797781 -0.375196 0.572845 0.330989 0.135255 0.324373 0.620474
-0.100508 0.185694 -0.225813 -0.103097 0.626645 0.324807 0.406025 0.563642 0.737173 0.725470 -0.521426 0.231905 -0.435976 0.366579 -0.834026 -0.411093 -0.130495 -0.975643 0.948401 -0.856737 0.534168 0.562374 0.606628 -0.836540 0.283448 0.557967 -0.349419 -0.522753 0.389384 0.513986 0.686673 -0.582922 0.330196 0.782502 0.084054 0.164091 -0.856999 -0.143357 0.163050 0.982167 0.357103 0.207025 -0.921790 -0.077693 0.175563 0.134968 -0.731352 0.298950 -0.521797 -0.503856 -0.142157 0.357622 -0.541016 -0.146374 0.747210 0.169399 0.058819 0.498168 0.258231 -0.777302 0.244263 -0.873723 0.545588 0.125323 0.860324 0.602054 0.880775 0.904741 -0.844315 -0.512636 -0.987301 -0.310176 -0.972872 0.895684 0.842547 0.028812 0.460746 0.735160 0.994461 0.118471 0.265255 0.361005 -0.838499 0.176845 -0.066285 -0.291360 0.160307 0.209823 -0.148757 -0.220829 -0.990873 -0.747220 0.473560 0.267663 0.667786 0.829103 0.405604 0.195507 -0.764802 -0.637657
0.097522 -0.425687 -0.342858 0.158683 0.454053 -0.646541 -0.063938 0.122803 -0.160317 0.043146 -0.291675 -0.211499 -0.604906 -0.776419 0.891488 -0.478039 0.471606 -0.837598 0.842169 -0.510652 0.725296 0.032138 -0.133485 -0.775201 0.662028 -0.769040 0.565305 1.140266 0.220351 -0.809986 -1.347242 0.095088 0.622362 0.406450 -0.213177 0.253988 0.881145 0.426178 0.700736 -0.902983 0.634467 -0.437656 -0.518977 0.968999 1.204748 0.385948 -0.412283 -0.312914 -0.409713 0.190706 0.110392 0.550975 -0.720572 -1.141490 -0.184568 -0.924309 -0.140906 0.656508 0.596261 -0.359771 0.504809 1.327158 1.075267 -0.538021 0.402892 -0.686841 0.253439 0.429135 -0.949739 -1.019122 -0.335056 -0.123016 -0.292084 -0.798102 0.703713 0.220942 0.281407 0.541949 0.296166 0.580935 -0.029514 -0.289693 0.461347 0.370573 1.296667 1.236882 0.061247 -1.243470 0.753279 -0.613977 0.571705 0.538646 0.364100 -0.080519 -0.589284 -0.909735 -0.423926 -0.643263 0.554424 -1.003274
-0.484951 -0.086883 0.186302 -0.338691 -0.244880 -0.044152 0.384337 0.092612 0.427469 0.393203 -0.781060 -0.512636 0.326598 0.981526 -0.069029 -0.061916 0.152350 -0.565546 -0.835388 -0.807821 -0.443511 -1.137889 -0.518325 -0.262467 0.315474 -0.753611 0.485374 -0.231493 0.532912 0.164651 0.371581 -0.308253 -0.723398 0.500212 -0.437278 0.490038 -0.936986 0.329461 -0.169248 0.631016 0.039566 -0.911386 -0.538458 -0.527136 0.240156 -0.463277 0.772979 1.083961 0.835433 -0.417215 -0.744416 0.644469 -0.988147 -0.610723 0.152201 -0.024638 0.856407 0.067554 -0.448187 -0.458198 -0.061782 -1.414823 -0.544492 0.820500 0.886199 0.085171 1.110264 -0.737768 -0.859839 -0.652269 -0.625766 0.015962 -0.399213 0.532966 0.227920 -0.576084 0.680146 1.123766 -0.251666 1.113762 -0.486072 0.057408 0.564300 0.774699 0.220908 0.149227 1.114742 0.655224 0.085454 -0.925108 0.461015 0.661146 0.292026 0.538123 0.726436 -0.506381 0.247592 0.796313 -0.838994 1.191229
0.568228 0.148726 -0.310387 0.573910 0.907101 -0.756034 0.358145 -0.213559 -0.616009 0.003459 -0.193848 -0.983475 -0.535062 0.952702 -0.776948 -0.386654 0.445690 -0.496778 0.425373 -0.898943 -0.367076 -0.822389 0.247382 -0.688580 0.036857 -0.959237 0.287677 0.501991 0.711837 0.125342 -0.560239 0.898368 0.579649 0.250715 0.059847 -0.445065 -0.506011 -0.611626 0.090881 -0.113552 0.225226 0.083575 0.778086 0.844590 -0.913129 -0.352382 -0.578987 0.439036 0.789524 -0.300424 0.235754 -0.064276 -0.764735 -0.369210 -0.131273 0.063925 -0.088465 -0.056426 -0.328229 -0.299810 -0.891311 0.908710 -0.160707 -0.694197 0.600638 -0.334333 -0.741003 0.830914 0.781049 -0.968410 0.315973 0.157621 0.593090 0.194823 -0.824933 -0.274789 0.380309 -0.833871 0.706277 0.482350 -0.398068 0.923302 -0.912944 -0.273659 0.001231 -0.948563 -0.706178 -0.992570 -0.926837 -0.656362 0.014750 0.293988 -0.675493 0.542228 -0.978088 0.886440 -0.710727 -0.445026 0.885381 0.839094
-0.129056 -0.626205 -0.861261 0.013269 -0.841640 -0.244584 0.348257 -0.045339 -0.709641 -1.047847 -0.695413 0.947614 0.553467 0.784903 0.209569 0.065183 0.239556 -1.418929 0.889385 0.467763 -0.249611 -0.724830 -0.836617 0.394020 -0.000107 -0.777999 -0.784036 0.957877 0.150410 -0.794846 -0.795826 0.463667 -0.263937 0.543016 -0.743409 0.737533 -0.398459 -0.620913 -0.114011 -0.545119 -0.586973 0.324859 -0.721555 -0.968057 -0.801562 0.441234 0.474118 0.513639 0.195572 -0.272615 0.379030 -0.414501 -0.351324 0.220651 -0.073152 0.539382 0.286530 -0.769642 -0.572384 -0.611089 -0.255623 -0.184652 0.259739 -0.263424 0.073010 0.538478 0.207733 1.026415 0.808850 0.297123 -0.477786 0.264731 -1.014465 -0.610220 0.744944 0.123237 0.517981 -1.198259 0.690202 -0.318729 0.050826 -0.275193 -0.657319 0.635201 0.472452 0.862541 0.773073 -0.854951 0.378240 -0.325808 0.275950 -0.040709 -0.763026 0.621830 -0.387290 -0.600062 0.654844 -0.473147 0.443428 -0.337455
-0.814876 0.650585 -0.153342 -0.601318 0.245220 -0.759277 -0.627536 -0.258410 -0.119336 0.820114 -0.479911 -0.065775 0.637168 -0.096511 -0.902504 -0.985800 -1.148752 0.818803 -0.093726 0.417847 -0.057873 0.822426 -0.823753 0.171359 0.080775 0.163918 0.310622 -0.752109 0.082616 -0.681397 0.909401 -0.143140 -0.113881 -0.766147 0.842797 0.295079 0.287029 -0.768530 0.384964 0.147705 0.473166 -0.536697 -0.720745 0.710269 0.385079 -0.845111 1.111998 0.607188 0.865973 -0.664814 -0.533818 -0.398840 0.280990 1.146517 -0.864973 0.510754 -0.107080 0.761500 -0.454045 -0.178627 -0.888655 -0.644864 0.178058 -0.746362 -0.463919 -0.454479 -0.227808 -0.781488 -0.043877 0.234631 0.031288 -0.513729 0.218298 0.242432 -0.202401 0.356412 0.773836 0.869805 0.880371 -0.253746 -1.035401 0.150998 -0.710692 0.712983 0.400372 0.418169 0.537013 0.546053 1.016513 0.330184 -0.379143 0.272445 -0.681710 -0.025622 -0.149682 -0.174066 0.160918 -0.256020 -1.105772 0.879300
0.610906 -0.593627 0.084113 -0.083047 -0.177313 -0.364635 0.311036 -0.353369 0.967861 0.465091 -0.529625 0.239966 -0.377743 -0.371836 0.944484 0.548158 0.742692 0.452492 0.877522 0.394023 0.801059 -0.405963 -0.723688 0.626533 -0.623614 -0.815781 0.314152 -0.636902 0.317062 -0.274442 -0.350877 -0.783327 0.543579 -0.712912 0.652263 -0.965895 -0.093863 -0.637911 -0.341336 -0.393992 0.441619 0.691146 -0.925945 0.493147 -0.842947 0.172247 0.980928 -0.877234 -0.821635 0.722000 -0.877763 0.070755 0.005237 -0.739998 -0.112310 0.649056 -0.903770 0.164386 -0.121031 0.562237 0.180652 -0.864251 0.087828 -0.767485 -0.196963 0.363733 -0.016635 -0.655736 -0.327754 -0.161894 0.640210 -0.939176 0.303492 -0.292223 0.212537 0.152558 0.230762 0.350977 0.131678 -0.703041 0.615258 0.128217 0.134776 -0.061713 0.360822 0.976469 0.711429 -0.328773 0.625582 -0.209740 -0.485668 0.823958 0.378539 0.561193 -0.742588 0.192839 0.419668 -0.390857 -0.981558 0.892591
0.493526 -0.632363 -1.027219 0.313934 -0.883460 -0.680625 0.445489 -0.577944 -0.213717 -0.409759 0.013866 -0.077425 1.040966 0.561256 -0.483452 -0.188392 0.126282 0.504879 -0.301552 -0.398372 0.749393 0.094831 -0.701284 -0.776317 -0.307831 -0.513005 0.208917 0.601254 0.790853 -0.387343 -0.985539 0.262377 -0.331823 0.737072 0.160090 -0.752692 0.589877 0.805366 -0.339031 0.276091 -0.599240 -0.767682 -0.080841 -0.904109 0.535265 0.373197 -0.099459 -0.732575 0.498254 -0.764213 0.128027 0.387645 1.060643 0.455928 -0.611286 -0.214900 0.221261 -0.732218 -1.364469 0.579712 0.503224 1.081995 -0.722807 0.182561 -0.113409 -0.846591 -0.019234 0.641002 -0.278844 0.022327 1.149990 -1.042042 -0.836573 -0.892918 0.795064 -0.127040 0.107423 -0.930164 0.618832 0.586608 0.401194 0.577989 0.776164 0.633545 0.665589 -0.212728 -0.092581 0.065780 -0.208213 -0.132300 0.077539 1.038826 -0.007714 -0.222306 0.055047 0.651078 0.969288 -1.016382 0.416006 0.113823
-0.600683 -0.233825 -0.595613 0.696653 0.987858 -0.024427 -0.944377 -0.767251 0.400876 0.226735 0.967867 0.646313 0.008359 0.061880 0.293492 0.363271 -0.301869 1.240656 0.002440 -0.785390 -0.029526 -0.301370 0.766214 0.150227 0.143366 0.496186 0.927538 0.570686 -0.897891 0.056255 0.942127 0.067704 -0.483123 -0.497550 0.902899 0.536911 -0.088292 -0.376616 0.415938 0.247909 0.566201 -0.215551 -1.027425 -0.826174 -0.248752 0.947058 0.468343 -0.173078 -0.522505 -0.651191 0.570271 0.717992 -0.330215 0.686674 -0.537816 -0.083851 0.634212 -0.525266 -0.572892 0.879355 -0.762013 -0.748310 0.658796 -0.396724 0.957267 0.224656 0.127721 0.147630 0.528660 -0.265960 -0.809561 1.048474 0.143735 0.878593 -0.863347 1.010311 -0.336152 0.204038 0.737286 -0.976945 -0.543055 0.313714 0.251557 1.014733 -0.269799 -0.259605 -0.563822 1.094064 0.185143 0.533654 0.694837 -0.782546 -0.059383 -0.151826 -0.138689 -0.645304 0.188967 0.572150 -0.735484 -0.245490
-0.439708 0.297832 0.376044 0.169525 0.143545 -0.878461 0.152924 -0.592861 -0.904627 0.597547 0.839637 -0.736279 0.595040 0.570218 0.799865 0.784503 0.856927 0.004345 0.243552 -0.019893 -0.930207 0.416507 -0.148477 -0.245371 0.456425 0.621546 0.512620 -0.720311 -0.886040 0.493424 0.093713 0.755150 0.316406 0.778201 0.736006 -0.403403 -0.895190 0.750916 -0.184515 0.640230 0.157174 -0.263020 -0.917008 0.355392 -0.808733 -0.477007 -0.159481 -0.532436 -0.008779 -0.672694 -0.211498 0.843557 0.867011 0.444478 -0.364059 0.022631 -0.335581 -0.416927 -0.792962 -0.450656 0.034453 0.548383 -0.323434 0.581153 -0.502439 -0.408532 0.235287 0.766371 0.376342 -0.671527 -0.091811 0.263815 0.791440 -0.420992 -0.083710 0.380268 -0.716444 -0.657889 -0.186529 -0.241765 -0.452302 -0.576414 -0.245108 -0.102963 0.919264 -0.400005 0.774005 -0.156641 -0.448571 0.414042 -0.648385 -0.763548 0.929694 -0.513141 -0.208101 -0.310551 -0.835034 -0.967355 0.176315 0.663252
-1.037327 -0.803967 -0.380569 0.032360 -0.671712 0.002765 -0.161779 -0.676871 0.305376 0.147155 0.703587 -0.606675 -0.941252 0.855256 0.158423 -0.577297 0.327668 0.248305 -0.472085 0.325500 -1.017191 0.480998 -0.811974 0.496040 0.890553 0.369818 -0.408520 -0.559556 0.864708 0.516753 -0.694566 0.307444 -0.144625 -0.786236 -0.098994 -0.048637 -0.239390 0.642827 -0.725948 -0.217379 -0.274739 0.464496 0.944487 0.173586 0.102005 -0.133896 0.680336 0.922698 -0.459906 0.671560 -0.697715 -0.543341 0.218795 -0.001310 0.274961 0.143583 0.553240 0.531959 0.488011 -0.283164 -0.285351 -0.648819 0.846332 0.012751 -0.498287 -0.869185 -0.979325 0.458333 0.343636 0.018029 -0.679153 0.745630 -0.509125 0.225969 -0.547869 -0.695715 -0.037336 -0.066184 0.942694 0.811435 0.426900 0.329072 0.892297 0.320191 0.668790 0.975836 -0.160914 -0.280117 -0.158552 -0.877985 -0.001484 0.288435 -0.163494 -0.725392 1.106342 0.055304 -0.694665 0.213180 -0.663548 -0.081388
