-0.149277 -0.285835 0.900225 -0.821625
0.112976 -0.509032 -0.399467 -0.886640
-0.185354 0.061544 -0.151872 -0.071445
-1.180096 0.917115 -0.553132 -0.844076
-0.448595 0.308129 0.157924 -0.104152
0.904300 -0.186159 -0.867187 0.053816
-0.427589 0.904297 -0.027076 0.477814
-0.157203 -0.176623 -0.900439 -0.144029
0.471173 0.195236 -0.484250 0.545581
0.732543 -0.732928 0.055341 0.342879
-0.588239 -0.518663 -0.866156 -0.718711
0.103273 -0.387530 -0.780280 -0.270457
0.892030 0.364577 0.050170 -0.772151
-0.832525 -0.591928 0.700890 -0.278000
1.120651 -0.494356 -0.173570 -0.598616
-0.274562 0.179987 0.541516 0.377984
0.438263 -0.612069 -0.372543 0.042589
-1.097453 0.333283 -0.529525 -0.351284
-0.591885 0.567126 0.974433 -0.669019
0.233782 0.467042 -0.375613 -0.546606
0.065398 -0.449562 0.348590 0.519332
0.013051 0.379624 0.216113 0.713052
-0.945600 1.136966 -0.419376 0.593794
0.481028 0.003305 -0.738930 -0.259755
0.848542 -0.426613 0.353189 0.245143
-0.350304 -0.956956 0.280934 -0.426070
0.805102 0.472061 0.792859 -0.327093
0.588747 0.013647 0.026125 0.043522
0.388560 0.083187 0.286601 -0.330608
-0.541580 1.225325 0.440066 0.285464
0.849387 -0.425714 0.426308 0.624084
0.035694 -0.163982 0.779205 0.347546
-0.013080 0.485115 0.756507 0.009788
-0.574743 -0.666744 -0.078226 0.542915
-0.998960 -0.215479 -0.022333 -0.294461
-0.635615 0.093676 -0.603002 0.803674
-0.285463 -0.835719 -1.007959 -0.623197
-0.090064 0.833387 0.696732 -0.693271
0.729563 0.342022 0.850015 0.687954
-0.923224 0.813600 0.673288 0.981484
-0.112418 -0.863782 -0.769906 0.330226
-0.756799 0.125554 0.547501 -0.818756
-0.774266 0.598547 -0.410211 -0.476503
-0.631593 -0.417507 -0.554289 0.524360
-0.100499 0.419021 -0.854444 0.214242
1.124701 0.191328 0.075558 0.124875
0.197113 0.735814 0.911468 0.283346
-1.248008 0.157098 -0.608240 -0.198504
-0.138405 0.590108 0.691555 0.799915
0.877100 0.742378 0.881576 0.919053
-0.330946 -0.667784 0.888941 0.223527
0.538232 -0.337922 -0.689245 -0.240714
0.514827 -0.013999 -0.370053 -0.900863
-1.247665 1.305830 -0.642915 0.177181
-0.926508 -0.447807 0.248425 -0.345492
0.164668 -0.551849 -0.108178 0.185236
-0.816536 -1.042618 0.265251 -0.496052
-0.512953 0.482814 -0.144162 -0.938496
-0.874554 -0.421229 0.917066 -0.287303
0.306176 -0.279980 0.928754 0.448627
0.134942 0.133529 -0.295373 0.552749
0.448424 0.881031 -0.442262 -0.688778
0.768480 0.243147 -0.553911 0.028747
0.873428 -1.041848 -0.504654 -0.040870
-0.298245 -0.638440 0.678532 -0.342217
0.358693 0.093008 -0.245829 -0.528240
0.774590 -0.933375 0.949184 -0.304347
0.624863 0.672407 0.992683 0.081080
0.660030 0.789139 -0.946446 -0.379531
-0.124861 -0.323558 -0.175744 0.170058
0.866621 0.098327 -0.702041 -0.015350
0.292035 0.575976 -0.609681 -0.396135
0.304083 0.357147 0.744247 0.428164
-0.764944 -0.537744 -0.657147 0.862241
-0.435975 -0.862770 0.519677 -0.688071
-0.066485 0.877656 -0.706466 0.198242
0.732716 -0.662984 0.418881 -0.071125
-0.621068 0.317802 0.725984 -0.064245
-0.688824 -0.249812 -0.526667 0.210458
-0.260737 0.442723 -0.095118 -0.900268
-0.764357 -0.052522 0.195919 0.194663
0.658901 0.415521 -0.679330 0.183404
0.061900 0.167625 -0.388663 0.449314
0.606229 0.399161 0.618600 -0.657045
-0.014176 -0.359364 0.617766 0.284863
-0.483307 0.384462 0.295252 0.562474
-0.544089 0.686747 -0.276846 -0.476805
-0.143050 -0.433473 0.252676 -0.010448
-0.593110 0.631886 0.550757 0.660197
0.922256 0.419593 0.513112 -0.016836
0.966799 0.738169 -0.927679 0.522048
0.203057 0.935886 0.044917 -0.536803
0.684404 -0.451690 0.554926 0.428887
0.921043 -0.436623 -0.291266 -0.160238
-0.056863 0.994259 -0.503726 -0.594939
0.802091 -0.363906 -0.323880 -0.669358
-0.441354 -0.596246 0.479054 -0.456585
-0.845939 -0.058298 -0.716495 -0.148146
-1.179906 0.951267 -0.526304 0.426704
-0.656941 -0.313705 -0.745695 -0.308914
0.637698 0.913200 0.649150 0.553069
0.838971 -0.905004 0.215713 0.172231
-0.587641 0.906980 -0.256681 -0.838255
0.089232 0.466225 0.976801 0.531774
-0.461250 0.129547 -0.570100 -0.237489
-0.761704 -0.446698 0.825850 -0.314545
-0.063242 0.810186 0.892878 0.105376
-0.776704 0.316108 0.822164 -0.331916
0.694797 -1.006542 0.744193 -0.125350
-0.412031 -0.181220 0.337100 0.775026
0.969807 -0.376883 0.259485 -0.501724
0.030872 -0.944090 -0.287207 -0.672847
0.529924 -0.283630 0.757533 0.850525
-0.244003 -0.706958 0.292585 0.442544
0.396156 0.731699 0.194897 0.271222
0.297315 0.685176 0.496822 -0.626000
0.002892 0.887046 0.129659 0.368694
0.840348 0.032598 -0.846007 0.589710
0.949170 0.026811 0.535966 0.559424
-0.539871 0.443713 -0.423695 -0.081960
-0.052579 -0.446785 -0.383857 -0.777448
0.664755 0.096143 0.602895 -0.142424
0.329922 -0.572706 0.830971 0.302536
-0.760057 -0.579015 0.323351 0.600694
0.991867 0.153285 -0.225499 -0.230821
-0.228243 0.200781 -0.014013 0.252600
0.742186 -0.675879 0.866489 0.748315
0.046369 0.038003 0.690111 0.863979
