-0.359251 -0.210772 1.043030 -0.784034
-0.172716 -0.383685 -0.289214 -0.852048
-0.141859 -0.067989 -0.281485 0.015811
-1.010803 0.795206 -0.843287 -0.548738
-0.524076 0.559084 0.047016 0.057480
0.826989 -0.119380 -0.804090 0.019252
0.066133 0.648709 0.527580 -0.046701
0.056236 0.101114 -0.985915 -0.112803
0.537928 -0.083767 -0.499599 0.685918
0.622986 -0.777573 0.034527 0.563411
-0.779924 -0.400320 -0.750171 -0.601199
0.074020 -0.334532 -0.594174 -0.673457
0.614563 0.544592 -0.004690 -1.157945
-0.778787 -0.469633 0.622910 -0.169292
0.764023 -0.138310 -0.163306 -0.822357
-0.008563 -0.087885 0.585675 0.701183
0.335306 -0.834562 -0.290398 0.028671
-0.919490 0.195624 -0.909221 -0.386883
-0.375287 0.721908 0.842295 -0.759131
0.103533 0.274037 -0.356687 -0.330982
-0.204707 0.004460 0.297198 0.303733
-0.007054 0.471336 0.307729 0.552208
-0.854254 0.944390 -0.631302 0.506599
0.411268 -0.060875 -0.565639 -0.465304
0.652902 -0.538621 0.268669 -0.091707
-0.315793 -1.112497 0.366831 -0.855623
0.523515 0.622688 0.767504 -0.360238
0.288920 0.183662 0.254779 0.213243
0.168533 0.315188 0.317669 0.072027
-0.291847 0.853759 0.303825 -0.163909
0.662849 -0.156818 0.469143 0.460137
0.278612 -0.208921 0.628690 0.525169
-0.276443 0.376939 0.905679 -0.325864
-0.656411 -0.573146 -0.098583 0.505909
-1.106342 -0.181539 0.125287 -0.296619
-0.775328 0.213602 -0.542454 0.687614
-0.800080 -0.895364 -1.097474 -0.519477
0.063936 0.832780 0.891993 -0.466735
0.642734 0.516910 0.475725 0.778408
-1.058139 0.665618 0.552405 0.773207
-0.187245 -1.189632 -0.725768 0.135242
-0.713900 0.115766 0.714634 -0.820163
-0.850018 0.605455 -0.288766 -0.665266
-0.550573 -0.723071 -0.888270 0.384732
-0.198241 0.537725 -0.666092 0.176105
0.717307 0.645821 -0.119933 0.007750
0.278623 0.582716 0.807857 0.124501
-1.121878 -0.223402 -1.005118 -0.129132
-0.212744 0.336691 0.502582 0.907108
0.832549 0.932915 1.116814 0.859681
-0.225745 -0.633158 0.496233 -0.199259
0.416291 -0.361708 -0.414312 -0.494331
0.176119 0.100611 -0.473548 -1.097952
-0.939689 1.175968 -0.699639 0.077083
-0.689738 -0.365293 0.450492 -0.521548
-0.045518 -0.148568 -0.204427 0.037960
-0.810329 -1.089142 0.236154 0.114484
-0.678093 0.585570 -0.054869 -0.935769
-1.119039 -0.422641 0.837492 -0.219647
0.189864 -0.117669 0.622328 0.746806
0.230988 0.038159 -0.383190 0.652830
0.239499 0.918465 -0.677949 -0.447030
0.745985 0.160213 -0.450131 0.055415
0.710339 -0.695487 -0.373289 0.174113
-0.377665 -0.651390 0.735815 -0.175298
0.199211 -0.135371 -0.289044 -0.378879
0.763042 -0.852916 0.765459 -0.288293
0.450486 0.499830 1.015517 0.227230
0.628017 0.944910 -0.712269 -0.460960
-0.255542 -0.191521 -0.317079 0.277229
0.834658 0.084901 -0.386542 -0.082210
0.226936 0.565430 -0.660532 -0.556188
0.140771 0.321676 0.822592 0.652912
-0.685636 -0.487613 -1.085300 0.845763
-0.874314 -0.651946 0.482339 -0.614413
-0.137150 0.946957 -0.655825 0.575175
0.876721 -0.658585 0.328866 -0.309161
-0.659332 0.146981 0.944570 -0.304454
-0.362000 -0.353901 -0.490577 0.430921
-0.677614 0.751695 0.169371 -1.226496
-0.613756 -0.202919 0.034287 0.070941
0.749826 0.405307 -0.594847 0.088931
0.028548 0.441437 -0.343993 0.421192
0.329605 0.283221 0.516072 -0.637542
0.050317 -0.372710 0.846236 -0.129543
-0.459756 0.378144 -0.008083 1.311443
-0.432016 0.411036 -0.514042 -0.374062
-0.429087 -0.336538 0.198378 -0.429200
-0.771315 0.704280 0.558397 0.590574
0.938899 0.586194 0.681103 0.169914
0.822991 0.551210 -0.922495 0.986819
-0.133324 0.863966 0.112661 -0.507860
0.610588 -0.501463 0.581825 0.624048
0.864943 -0.457061 -0.405021 -0.082729
-0.167748 1.128691 -0.477397 -0.652250
0.674118 -0.617704 -0.267407 -0.465807
-0.308329 -0.475759 0.476331 -0.668623
-0.516537 0.076153 -0.665040 0.248046
-0.930522 0.455716 -0.556367 0.287253
-0.742359 -0.003241 -0.881329 -0.342823
0.275530 0.876231 0.531452 0.542942
0.679192 -0.835963 0.388200 -0.112226
-0.776621 0.818447 -0.487547 -0.878528
0.045224 0.300527 0.854984 0.198040
-0.421670 0.218843 -0.434235 -0.382054
-0.917456 -0.202267 0.783096 -0.345552
0.091693 0.633142 1.160941 -0.071383
-0.872168 0.539607 0.834314 -0.053017
0.368579 -0.990230 0.860842 -0.478284
-0.729731 0.089782 0.523340 0.682905
1.066232 -0.505076 0.200829 -0.645928
0.056447 -1.068538 -0.228941 -0.569023
0.489528 -0.834603 0.601298 0.681599
-0.349962 -0.869570 0.189236 0.318091
0.525225 0.340261 0.141609 0.197159
0.168678 0.936767 0.576780 -0.592151
0.008331 1.160058 0.213877 0.726824
0.740734 0.187079 -0.799694 0.665331
0.826784 0.132638 0.611408 0.596504
-0.486112 0.361153 -0.611435 -0.176343
-0.098247 -0.328596 -0.363704 -0.766828
0.452611 0.207564 0.668745 -0.137953
0.342820 -0.491125 1.114139 0.191516
-0.897605 -0.562092 0.004939 1.083885
0.953914 0.250607 -0.063229 -0.338160
-0.021280 0.018063 -0.215990 0.245808
0.873763 -0.909974 0.837428 0.575334
-0.118619 0.126452 0.961620 0.697584
