0.350814 0.410040 -0.058549 -0.004438 -0.024275 0.104246 -0.512367 -0.119865 -0.029833 0.659566 0.336220 0.619117 -0.578616 -0.706442 -0.085980 -0.471543 0.532427 -0.776461 0.502332 -0.686647 -0.276173 -0.187768 -0.006952 -0.240929 -0.618332 -0.733507 0.261149 0.512586 -0.201742 0.036435 -0.928138 0.435005 0.912194 -0.987038 -0.449037 0.676753 -0.467334 0.802396 -0.871343 0.363723 0.211066 0.276261 -0.796076 0.774999 -0.759111 0.343550 0.014733 0.169736 -0.485252 -0.174807 -0.676404 0.398289 0.255583 0.396562 0.969788 0.136502 -0.312875 -0.528467 0.915532 0.468628 0.413224 -0.114988 -0.679799 -0.137566 -0.010792 0.273781 0.795449 -0.612801 0.255145 0.522770 -0.756024 0.716071 0.264038 -0.289856 -0.984151 -0.392455 0.271735 0.252405 -0.170266 -0.870762 -0.640858 0.031738 0.527475 0.543555 -0.073367 0.368218 -0.282826 -0.903185 0.530122 -0.221286 -0.228135 -0.602514 -0.810963 -0.104655 -0.441244 0.629050 -0.679544 -0.656251 -0.345531 0.847653 0.517840 -0.153061 -0.788726 0.499225 -0.533059 -0.343021 -0.337298 -0.160899 0.668350 -0.505266 -0.585411 0.414424 -0.701397 0.132831 -0.645158 0.880594 -0.754106 -0.680832 -0.539724 0.882450 0.884325 -0.932623 0.341469 0.089272 -0.156440 -0.834171 -0.739318 0.399932
0.079219 0.733379 0.939056 -0.259569 -0.123336 0.852566 0.156842 -0.391759 0.034235 -0.056114 -0.474390 0.925105 -0.289436 -0.534874 0.297853 0.728511 -0.033610 -0.181520 -0.731538 0.967012 -0.970033 -0.169350 -0.613126 -0.131695 -0.554809 0.189817 0.186051 0.328651 -0.274409 0.765211 -0.314364 0.989447 0.504982 -0.132515 -0.005620 0.124768 0.531086 -0.290674 -0.708885 0.241758 0.802471 -0.408500 -0.866716 0.618436 -0.004135 -0.384373 -0.344448 -0.442436 -0.262308 0.927776 -0.188931 -0.491158 -0.820202 0.208311 0.987187 -0.452847 -0.134779 0.592210 0.569510 -0.529986 -0.914852 0.490917 0.519468 -0.503106 -0.762441 -0.869614 0.356578 0.645006 -0.607181 0.818671 0.095276 0.315221 -0.465070 -0.708223 -0.708231 -0.590727 0.863813 -0.782083 -0.269964 -0.442487 -0.100394 0.089960 -0.266797 -0.246959 0.053705 -0.097998 0.613272 0.697674 -0.709170 -0.371273 0.524243 -0.537434 0.765350 0.953512 -0.783330 0.263178 0.332524 -0.091055 -0.999025 -0.538927 -0.407638 -0.833523 -0.575401 0.185981 -0.021169 -0.528083 0.135575 0.406948 -0.951813 0.969187 0.762440 -0.358381 0.056405 -0.712457 -0.714668 0.773609 0.750491 -0.653436 -0.322710 0.600768 0.447103 0.121554 -0.274731 0.058507 -0.394924 -0.631015 0.661619 0.046517
0.043667 -0.527119 -0.203455 0.216442 0.729873 -0.767220 0.071450 0.141701 0.602437 -0.517480 -0.282087 0.674772 0.605986 0.992946 0.569053 0.814340 -0.367781 -0.600649 -0.321115 0.596453 0.466215 0.818465 0.118767 0.737681 0.844943 -0.897509 -0.163381 -0.768745 0.304579 -0.270027 -0.488829 -0.713557 -0.921614 0.002287 -0.614084 0.763023 -0.624150 0.576467 0.337398 0.913044 0.451916 0.090976 -0.281320 0.666336 -0.335384 -0.166825 -0.369762 -0.187796 -0.189841 -0.265713 0.647260 -0.369027 0.661283 0.972132 0.371223 0.830669 0.721320 0.498888 -0.471692 0.642615 -0.118491 0.676398 0.201638 0.363271 -0.133739 0.556432 0.719669 -0.649561 -0.865511 -0.353691 -0.837400 0.115408 0.877885 0.418390 -0.903082 -0.407471 0.238255 -0.457128 0.611501 0.693345 0.835340 -0.860264 0.462251 -0.049105 -0.672447 0.529913 0.165630 0.330577 1.000360 0.867187 -0.905800 0.022913 -0.772966 0.266912 -0.042485 0.347021 0.552752 1.051747 1.106887 0.817229 -0.036750 0.279412 -0.775825 0.271351 -0.483693 -0.211667 0.978741 -0.779522 -0.360415 -0.898811 -0.147174 0.923944 -0.540499 0.516850 0.453366 -0.585305 -0.142528 -0.448623 0.836927 0.769289 -0.187277 0.035686 -0.907658 0.836147 0.312598 0.662415 -0.268060 0.496618
0.454829 0.334293 -0.095908 0.687207 -0.741919 0.800616 -0.083093 0.419368 -0.278865 -0.743506 0.706198 0.568790 0.934776 0.119759 0.274816 0.661931 0.616581 -0.353333 0.153626 0.762811 0.228947 0.846650 0.743329 0.331611 -0.601405 0.185507 0.002439 0.065099 -0.808354 0.006409 -0.965783 -0.067264 -0.724001 0.200244 0.024609 0.492177 -0.807331 0.864931 0.266306 -0.871030 -0.147955 -0.332859 -0.416232 -0.241109 0.494996 0.209721 -1.030551 0.415890 0.423573 -0.092926 0.067051 -0.819556 -0.483861 -0.213338 0.290902 -0.294487 -0.293665 -0.814580 0.451289 0.358513 0.457208 0.592335 0.596992 -0.899167 0.440725 0.331899 -0.130472 -0.249191 0.563326 0.631488 -0.624148 0.631668 0.826208 0.157549 0.845063 -0.337081 -0.490813 0.516574 0.107108 -0.496976 -0.688715 0.081766 -0.928487 0.813926 0.187650 0.592354 0.816442 0.189091 -0.097256 -0.811852 0.836904 -0.512860 0.285589 0.146763 0.960599 0.458770 -0.897123 0.056556 0.007248 0.003275 0.966783 0.747095 0.044909 -0.140658 -0.004215 0.701500 -0.993255 -0.548101 -0.626615 -0.352193 -0.421187 -0.665134 -0.608087 0.512920 0.678618 0.586011 0.466494 0.647645 -0.321368 -0.811933 -0.810974 0.628957 0.682377 0.930419 -0.759520 0.881575 0.921056 0.740192
-0.146464 -0.808254 -0.173332 -0.285513 -0.868288 0.272337 0.836291 -0.995316 -0.694251 0.682221 0.805384 0.192663 -0.335394 -0.990933 0.113796 -0.610184 0.129914 -0.674744 -0.012367 0.977702 0.448555 0.329351 0.875853 0.653875 -0.297278 0.060345 0.733119 0.359860 -0.720798 -0.960549 -0.481599 -0.601943 0.293435 -0.266161 0.921018 -0.317205 0.985565 0.713442 0.453089 -0.344017 -0.454607 0.348232 -0.835693 -0.871893 -0.809860 -0.861542 -0.775016 0.713375 -0.349080 -0.596550 -0.806938 -0.341857 0.821789 -0.776015 -0.247800 -0.795830 -0.005268 0.909536 0.715378 0.152980 0.241156 0.536567 -0.649259 -0.447417 0.378287 0.340619 -0.942911 0.320044 -0.135373 -0.311953 -0.832081 0.003016 -0.754526 -0.197376 -0.288410 -0.555246 -0.719380 -0.655141 -0.734773 -0.994791 0.616947 0.170054 0.817484 -0.465632 0.596339 -0.893272 0.760139 0.925040 -0.767709 0.301727 -0.822953 0.498645 -0.742870 0.344641 0.774453 0.536386 0.102135 -0.383262 0.475473 0.176484 0.340742 -0.697830 0.424441 -0.591094 -0.720197 0.591992 0.156210 0.268414 -0.904324 -0.918630 0.056901 -0.832322 0.307679 0.991454 0.034386 -0.204654 0.549021 -0.021307 0.248956 0.214336 -0.147515 0.810673 -0.091475 -0.323942 0.841934 0.781163 0.428028 0.923014
-0.278340 -0.648579 -0.220083 0.146440 -0.586957 -0.303092 -0.285190 -0.747959 -0.673716 -0.645937 0.592300 0.662992 -0.332318 0.365335 0.116916 -0.772892 -0.482562 -0.820103 -0.816673 -0.809515 0.984370 -0.527086 -0.314735 0.554532 -0.677463 0.857682 -0.178375 0.929933 -0.108118 -0.373455 0.766098 0.472905 0.060796 0.770060 0.204077 -0.181903 0.336085 0.483691 0.923454 0.080745 0.573203 0.833707 -0.977344 -0.287838 0.555075 -0.029765 0.933972 0.510632 0.821618 0.461024 -0.391944 -0.180936 -0.109821 0.701653 0.822399 -0.699257 0.534317 0.325179 -0.139022 0.492744 -0.042061 -0.666778 0.509273 -0.116129 0.122744 0.416115 0.105725 -0.395057 -0.586166 -0.016824 -0.307581 -0.951102 0.809418 0.424319 0.121814 -0.131391 -0.350042 -0.041426 -0.518673 -0.332364 -0.357040 -0.743826 -0.770408 0.129525 -0.269543 -0.544670 -0.738094 0.505783 -0.048273 0.060395 0.383961 0.374597 -0.431155 -0.416379 -1.000385 0.852562 -0.825339 0.019989 0.894564 0.450558 -0.730004 -1.010221 -0.521086 -0.914240 0.044812 0.899062 0.764174 -0.030574 0.635635 0.160140 0.621648 -0.399594 0.096098 0.832501 -0.379623 0.832337 -0.024315 0.479619 -0.206504 0.864382 0.466167 -0.703516 -0.737941 -0.734271 -0.781988 0.705787 -0.534442 0.828925
0.920489 0.655403 0.491274 0.772802 0.294286 -0.058928 0.204766 0.621440 0.778152 -0.803432 0.700025 -0.978668 -0.947978 0.377260 0.934027 0.451546 -0.348552 -0.955049 -0.162303 0.338993 0.839291 -0.940938 -0.691952 0.683850 0.124496 0.388580 -0.465142 0.017484 -0.604610 -0.510440 -0.341247 0.108171 -0.283414 0.914651 -0.289902 -0.914689 0.723357 -0.153814 -0.422400 0.246112 0.189902 0.097996 -0.673422 0.922097 -0.121168 -0.779237 0.931462 -0.447088 -0.108579 0.942935 -0.562716 -0.721473 0.139313 0.140652 -0.497930 -0.436002 0.578899 -0.067471 -0.136617 -0.819063 -0.743598 -0.874943 0.259128 -0.578345 -0.467090 0.266054 0.458091 -0.415091 0.755979 -0.925503 0.433509 -0.497366 0.657882 0.023632 -0.425422 -0.034534 -0.171940 0.117817 0.792453 0.747034 -0.937701 -0.571148 0.475716 0.996891 -0.887963 0.091670 0.759871 0.740613 0.251097 -0.783986 0.502321 -0.883408 0.677635 -0.417346 0.833980 -0.859936 -0.497086 -0.265990 0.711271 -0.273130 -0.353466 -1.047073 -0.640477 0.062642 0.428569 -0.464382 0.042415 -0.148965 -0.614718 -1.007039 0.173729 0.882489 0.232480 -0.306468 0.343228 -0.867349 -0.622315 0.235230 0.557799 0.566382 -0.912674 0.634588 0.785537 0.228459 0.779888 -0.149733 -0.965945 -0.307391
0.465162 0.451308 -0.373215 -0.547501 0.084015 -0.740537 -0.669248 1.002499 -0.988273 0.329653 0.575930 0.789736 -0.914054 -0.450340 -0.364577 0.007444 0.589953 -0.248315 0.387026 0.703273 0.857579 -0.010883 -0.120755 0.771073 -0.149234 0.842488 0.299063 -0.538710 -0.767976 0.063205 0.342351 0.421774 -0.067093 0.224065 0.853826 -0.112741 -0.809290 -0.658320 0.886005 0.813389 -0.327052 -0.360437 -0.861719 -0.078627 -0.717135 0.859497 -0.177827 0.742023 -0.823519 -0.086571 -0.268889 -1.005107 0.475739 -0.244431 0.047238 0.907650 0.861261 -0.626751 0.117886 0.667210 0.056552 -0.030117 0.735336 0.462066 0.988137 -0.750973 -0.031991 -0.751987 -0.862473 -0.171825 -0.182649 -0.883353 -0.736005 0.901269 -0.270074 0.362676 0.143093 -0.398409 0.850044 0.362179 -0.229959 -0.371935 0.842652 -0.701077 0.068743 -0.762613 -0.060729 -0.551040 0.138587 0.875142 -0.456699 -0.409305 0.584243 -0.696242 -0.663673 0.566872 0.422501 0.149980 -0.846394 -0.901294 0.059719 0.330521 -0.512126 -0.976838 -0.017695 -0.468558 -0.096086 0.088961 -0.725785 0.148020 0.022756 -0.706005 -0.668284 -0.941127 -0.123082 0.906253 0.880456 0.301019 0.723288 0.711576 -0.034650 0.816823 -0.482422 0.900630 0.778704 -0.277035 0.095061 0.912192
-0.596383 0.033662 0.798768 0.448426 -0.298499 -0.924665 0.318768 -0.395656 0.882147 0.429564 0.176293 -0.925537 -0.799635 0.748585 -0.179590 -0.737542 0.115872 0.484103 -0.673522 -0.588066 -0.229534 0.202697 0.762575 0.503632 -0.993908 0.079414 -0.696899 0.758064 0.981392 -0.600705 0.868714 0.952879 0.976162 0.944941 -0.052447 0.870261 -0.387033 -0.250260 -0.811132 0.831156 -0.418028 -0.074019 -0.641303 0.709956 -0.607727 0.524462 -0.435120 -0.171811 0.892452 0.427772 0.848735 0.432441 -0.238497 -0.273669 0.682979 0.169095 -0.153773 -0.526245 0.835402 0.620063 0.918250 0.599499 0.502123 -0.546881 -0.185449 -0.130976 -0.740530 -0.515339 0.311341 0.632824 -0.022161 0.235043 0.247374 0.248722 -0.073913 0.155240 -0.360420 0.760739 0.211484 -0.793679 0.342564 -0.462731 0.440934 -0.754382 0.902825 0.305934 -0.282402 0.672155 0.477875 0.036724 0.322227 -0.065796 0.547561 -0.602547 -0.388903 -0.420325 -0.746242 0.170174 0.527098 0.736819 0.239969 0.451553 -0.416883 -0.187771 0.272042 0.599089 0.693577 0.894639 -0.235942 -0.085086 -0.629819 0.104299 0.549535 0.625639 -0.099766 -0.602320 0.107550 0.191984 0.398366 -0.108065 0.254191 0.930752 -0.032870 0.092824 -0.681909 -0.482958 0.363098 -0.755475
0.372385 0.500213 0.737506 0.363004 -0.617567 0.374225 0.895538 -0.194457 -0.071411 0.826659 0.717036 0.343031 -0.106033 -0.024919 0.212221 0.465852 -0.268231 0.754639 -0.927284 0.294127 -0.983003 0.567198 0.061128 0.506297 -0.904803 -0.891693 0.764608 -0.148837 -0.972545 0.498654 0.180040 -0.744045 0.399625 -0.092072 -0.617402 0.910940 -0.021490 -0.315335 0.611574 0.812030 0.880946 -1.005173 -0.762598 -1.003308 0.652952 0.936371 0.057200 -0.356181 -0.221403 -0.650666 0.444507 0.564439 -0.282287 -0.400608 -0.037307 -0.619507 -0.817837 -0.633037 -0.530081 -0.938944 -0.919733 -0.070826 0.621893 -0.615801 0.175794 0.334142 -0.085378 -0.941450 -0.533597 -0.797528 -0.597450 0.051916 -0.596237 0.583168 -0.584219 -0.257659 0.428788 0.448371 -0.650653 -0.197375 0.889010 -0.208557 -0.867133 0.041530 0.445073 -0.374880 0.601152 -0.213099 -0.892937 0.712432 -0.344583 -0.402694 -0.908994 0.020684 0.827437 -0.051630 -0.431608 0.569609 -0.537313 0.660853 0.102820 -0.540851 0.075386 -0.083499 0.731930 -0.131248 0.101828 0.277219 0.255939 0.415097 0.096159 -0.877866 0.519337 0.788216 -0.524309 -0.691397 -1.009013 0.210125 -0.689085 -1.088374 0.173682 0.039261 0.032358 -0.536499 -0.109529 -0.459533 0.964810 0.906502
0.806956 0.347693 0.081926 0.466185 0.720563 0.925881 0.305060 -0.405705 0.435573 0.211277 0.692263 0.459207 -0.504979 -0.323275 -0.422127 -0.399746 0.933816 -0.354600 0.848972 -0.038166 0.228835 -0.038675 0.807542 0.339763 0.720560 -0.366859 0.397205 -0.283172 0.036474 0.738994 0.872358 0.386666 -0.691525 0.571088 -0.876998 -0.176972 0.071050 -0.404558 -0.949511 0.367047 -0.534526 0.985724 0.800771 0.837974 -0.937462 0.746142 -0.758969 0.497555 0.062843 -0.186185 0.368812 0.309802 0.224565 0.242937 -0.205761 0.811725 -0.876597 -0.245571 -0.365063 -0.825039 -0.339620 -0.271622 0.738793 -0.081547 0.402113 0.959254 -0.782420 -0.051556 0.849608 -0.149193 -0.728732 0.522591 0.059585 0.879947 0.488580 -0.584915 0.232671 -0.670945 0.462130 -0.242251 -0.801153 0.073765 0.149856 0.631112 -0.118601 1.026780 -0.441719 0.569989 -0.775666 -0.638097 -0.518473 0.865466 0.232321 0.435346 0.381272 -0.622017 0.106866 0.428594 -0.192381 0.159199 0.237927 0.879295 0.822322 0.726785 0.706659 -0.382530 0.585737 -0.693834 0.863915 0.892118 0.370809 -0.999668 0.974076 -0.245811 -0.686427 -0.252264 -0.660619 0.936979 0.636165 0.947720 0.731880 -0.023968 0.648079 0.257552 0.789555 -0.793013 0.059850 -0.657092
0.259306 -0.016430 -0.944168 -0.223330 -0.884865 -0.908686 -0.641800 0.819911 -0.906295 0.624930 0.421132 0.071421 -0.916428 -0.500218 -0.736538 0.989057 0.497072 0.825818 0.940826 0.143932 0.811922 0.506028 0.862277 0.871029 0.076020 -0.755161 -0.807150 0.259219 0.364228 -0.735067 -0.322266 -0.089740 -0.863225 0.789908 0.220072 -0.503476 0.478261 0.880333 -0.154784 0.150777 0.022053 0.714767 0.817542 0.942868 -0.795541 -0.705488 -0.317252 -0.094718 0.083844 0.424158 -0.711491 0.333213 0.065796 0.037261 -0.990288 -0.637824 -0.641158 -0.124920 -0.654647 -0.373540 0.979702 0.312089 -0.595021 -0.262995 0.511899 0.334150 -0.573083 -0.432407 -0.145053 -0.517631 -0.978167 0.114430 -0.122967 -0.038224 -0.151400 -0.887346 0.886633 0.497698 0.362248 0.948777 -0.231426 -0.393651 0.432851 0.684405 -0.884043 -0.446215 -0.364206 0.319907 -0.583086 0.890058 0.505388 0.454813 -0.200242 -0.290876 0.281071 -0.933016 -0.243295 -0.995951 -0.250974 0.513303 -0.301868 -0.400501 -0.318922 0.543270 -0.400927 0.405952 -0.944469 -0.063731 -0.253298 -0.943269 0.987964 0.429429 -0.278322 0.818971 0.081654 0.577733 0.880413 0.950004 -0.058115 -0.539894 0.350317 0.200443 -0.924676 0.359097 -0.801181 0.113552 0.419530 0.684053
-0.035845 0.028915 -0.162667 0.256676 -0.096203 -0.591448 -0.153632 -0.403193 0.352161 0.933757 -0.517216 -0.318164 0.120787 -0.974809 0.907898 -0.504900 0.542885 -0.735668 0.187701 -0.047917 -0.165000 0.851797 -0.297369 -0.282843 0.655373 -0.014197 -0.506894 0.549914 -0.573588 0.901645 -0.544481 -0.520260 0.325980 -0.958906 -0.875675 0.545679 0.647314 0.212340 0.905374 0.207867 -0.212933 -0.126279 -0.196677 0.071730 -0.167354 0.926335 0.085633 0.259774 -0.755523 0.068518 -0.553655 0.353847 -1.021131 -0.915139 -0.070718 -0.781924 0.025151 -0.858447 -0.764709 0.688800 0.047574 -0.330303 -0.574838 -0.436190 0.311512 -0.324996 -0.351830 -0.504110 -0.137145 -0.506295 0.886035 0.719065 0.522899 0.263817 0.107619 -0.654239 -0.678232 -0.803894 0.000484 0.638510 -0.234000 -0.798166 -0.709090 0.919361 0.785352 0.568048 -0.581597 1.008483 -0.016151 -0.616638 0.701964 -0.214324 0.357649 -0.352167 0.274332 0.293354 0.308343 -0.219370 0.407327 -0.476027 -0.672688 0.161258 0.237971 0.001070 0.362649 -0.010123 -0.660892 -0.285574 0.487670 -0.572349 -0.405118 -0.974204 -0.544614 -0.881904 0.782381 0.359382 0.013310 -0.064962 0.975251 -0.374657 0.063841 -0.051872 -0.734608 0.478155 -0.625200 0.479127 0.589089 0.566026
-0.442090 0.847593 0.417083 -0.817990 -0.355925 0.674291 -0.804362 -0.305245 -0.145793 0.341761 -0.054007 -0.125139 0.575313 -0.048316 0.690548 0.927807 0.231971 0.870552 0.099051 0.972173 0.375271 0.893730 -0.473235 0.230542 0.590150 -0.229608 -0.190719 -0.333358 -0.817463 0.111096 0.746648 0.428838 -0.146950 0.827306 0.847806 0.837860 0.987005 -0.502497 0.599785 0.390023 0.797398 -1.023231 0.419245 -0.899575 0.749094 0.666355 -0.660501 0.594930 -0.382238 -0.712109 0.302003 -0.866347 0.780508 0.577822 0.638913 -0.919530 -0.721995 0.587892 -0.463496 -0.848063 0.386645 0.390353 -0.840572 -0.308619 0.720618 0.810648 -0.364566 -0.480721 -0.285553 -0.203706 0.196107 0.466998 0.815049 -0.357501 0.799607 -0.344138 -0.866152 -0.745705 0.409025 0.559956 0.510088 0.888075 0.979010 0.363726 0.760398 -0.462583 0.782495 -0.019519 0.799356 0.682490 0.816845 -0.478863 0.587331 0.939276 -0.790066 0.727242 0.268745 0.070497 -0.064166 0.380544 0.323576 0.757744 -0.454328 0.662529 0.490503 0.605462 -0.312076 -0.077556 -0.141722 -0.242724 0.234825 -0.621659 0.530621 0.070683 -0.111044 0.577392 -0.570130 -0.898041 0.726489 -0.042263 -0.525254 0.814110 -0.659844 -0.566791 0.349984 0.044158 -0.709208 0.702742
-0.055254 -0.346613 -0.302130 0.113116 0.165146 -0.708287 -0.374845 -0.714611 -0.095447 0.816076 -0.274112 0.722334 -0.400834 0.531476 -0.583021 0.151078 0.968313 0.451737 -0.630331 0.219259 -0.990804 -0.936478 -0.973131 -0.718446 0.070310 0.084491 0.080353 -0.484509 -0.897645 -0.431253 -0.289615 0.184371 0.935644 0.997214 0.070421 -0.828231 0.758836 0.712475 -0.216127 -0.677593 0.733954 -0.313138 -0.577820 1.009035 -0.958966 -0.081437 0.689540 0.801710 0.614708 0.077138 -0.037760 -0.979757 0.921499 -0.902757 0.400266 0.513655 1.038867 -0.260142 -0.272109 0.438279 0.510747 -0.171409 -0.909947 0.888228 0.956502 0.331630 0.274634 -0.606262 0.906409 -0.825331 -0.967611 -0.531833 -0.367032 0.679327 -0.242914 -0.953964 0.004494 -0.496215 0.940909 -0.310090 0.314043 -0.768685 0.247774 -0.324331 -0.104157 0.424410 -0.902254 -0.736502 -0.524788 -0.430189 0.988356 0.250173 -0.363088 -0.145050 -0.528605 0.489544 0.465304 -0.453771 -0.745965 0.095353 0.904478 -0.147820 -1.010369 0.126438 -0.104994 -0.874267 0.297779 0.666352 0.266654 -0.345955 -0.876239 -0.106207 -0.552336 -0.146870 0.189671 -0.284173 -0.462000 -0.930973 0.727606 0.429127 -0.803106 -0.169404 -0.118228 -0.769143 0.416645 0.870185 0.133140 0.149077
-0.201102 0.808193 -0.000827 -0.656970 -0.773466 0.430040 -0.294759 -0.854536 0.195791 0.066815 -0.917483 0.205690 0.420783 0.180452 -0.643320 -0.022065 0.471032 0.170682 -0.152659 -0.148833 -0.357920 -0.666946 0.505217 -0.497952 -0.431300 -0.269013 0.381679 0.589440 0.218454 -0.110407 -0.205090 -0.074733 0.658390 0.837931 0.254954 0.281877 0.085241 0.096384 0.482010 0.627382 0.361039 0.293828 -0.665031 0.271154 -0.485520 0.883627 0.691603 0.991309 -0.990673 0.068187 0.521340 0.767797 -0.254398 0.571821 -0.763539 -0.792717 -0.019245 0.818679 0.671744 0.209817 0.302507 0.861730 -0.687700 0.694596 0.096720 0.198659 0.938524 -0.477398 0.814196 0.229483 -0.334230 -0.301238 -0.849981 0.351056 -0.008145 -0.904687 -0.640570 -0.566718 0.674738 -0.063771 -0.515856 0.751327 0.207913 0.406589 -0.608739 -0.833682 -0.903526 -0.716004 0.864267 0.630447 0.666832 0.925442 -0.275792 -0.447704 -0.868039 0.676258 -0.812172 -0.429923 0.985961 -0.342952 0.718056 -0.066880 0.209409 -0.577578 0.095276 -0.621092 0.114068 0.178091 0.882791 0.327043 -0.879169 -0.178866 0.683369 0.710361 0.253313 0.678907 -0.516947 0.466271 0.475202 0.403836 0.364625 0.039347 -0.068346 -0.231481 -0.505520 -0.482468 -0.348451 -0.623646
-0.050666 0.566499 0.922319 0.916865 -0.830096 -0.641247 0.953543 0.423750 -0.535258 0.785663 0.465241 -0.026842 -0.595766 0.730147 0.431959 0.630899 -0.254018 -0.783402 0.715719 -0.121814 -0.564548 0.845642 0.465131 -0.873626 0.164773 -0.444421 -0.343519 -0.983339 0.716728 0.316756 -0.538238 0.142171 -0.938316 -0.906009 -0.116610 -0.423096 0.844629 0.533616 -0.328557 -0.859211 -0.575998 -0.539312 -0.340351 0.565764 0.012329 -0.059016 -1.026727 -0.246998 -0.449361 0.789476 0.264367 0.637333 -0.608381 0.650490 -0.440968 0.987853 -0.512455 -0.599236 0.252855 -0.150836 0.237534 0.190612 -0.737721 0.544279 -0.435217 -0.398442 0.618018 0.440645 0.949408 -0.703747 -0.399709 -0.188600 -0.337659 0.496660 0.422979 -0.395665 0.161647 1.015203 0.930296 0.429060 -0.134395 -0.459333 0.613219 -0.549265 0.525441 0.849062 0.263449 0.025520 -0.636755 -0.897127 -0.651023 -0.221911 0.254391 0.488217 0.481844 -0.265547 0.927151 0.660167 -0.566334 0.590099 -0.942973 0.757697 -0.811595 -0.115496 -0.372133 -0.100127 -0.598913 -0.578645 -0.088343 0.477515 -0.830195 0.557942 -0.625362 0.691587 -0.355133 0.490386 -0.303292 0.479696 0.076650 0.461023 0.214973 0.591305 -0.149804 -0.065883 0.040193 0.460475 0.724071 0.276938
-0.071952 0.384298 0.436902 0.437395 0.286201 0.939173 0.670641 0.199008 0.044338 -0.934406 0.153155 0.356627 0.913958 -0.753985 0.297020 0.775165 0.654933 0.159709 -0.334047 -0.634383 -0.480417 -0.536957 0.217849 0.615397 0.103598 0.205306 0.580504 -0.470029 0.081372 -0.185475 -0.757814 -0.920200 -0.229813 -0.488892 0.428563 -0.875005 0.909814 0.296240 -0.516184 0.975743 0.723305 -0.452981 -0.096429 -0.689907 -0.739423 0.401673 0.096278 0.650546 -0.359200 -0.918347 0.434631 0.202132 0.208794 -0.475411 0.202347 -0.285496 -0.451073 0.595898 0.179739 -0.016220 -0.848410 0.197218 -0.065153 -0.251323 0.857653 0.835881 0.847812 0.794647 0.096316 0.550922 0.830812 -0.482032 -0.943143 -0.980098 0.974358 0.714659 0.359279 -0.004895 -0.987418 -0.531697 0.787193 -0.299558 0.550724 -0.637787 0.945825 0.275045 0.284570 -0.882202 0.646549 0.297907 -0.385566 -0.962730 -0.538611 -0.317317 0.592023 -0.346534 -0.772289 -0.836757 0.270246 -0.478551 -0.086345 -0.617750 0.209469 -0.069295 -0.389277 -0.099061 -0.595533 0.588813 -0.493097 -0.250442 -0.573416 -0.286554 0.486936 -0.278304 0.699619 0.793551 0.297613 -0.660072 -0.887861 0.968458 -0.679218 -0.428084 0.822889 -0.689112 0.196952 0.276032 -0.532133 0.952240
0.652882 -0.035524 -0.210898 0.754872 -0.398573 0.672961 0.660356 0.843772 -0.684312 0.807687 -0.708500 0.376400 0.133170 0.795483 -0.942095 -0.858935 0.043792 -0.622540 -0.529595 0.883511 0.047950 -0.042801 -0.666821 -0.925103 0.490994 -0.143939 0.260426 -0.666895 0.726527 0.943685 -0.770697 0.559128 0.906063 0.474633 -0.088254 0.248611 -0.951456 0.609549 -0.401970 0.894370 -0.100661 -0.224654 0.886686 -0.753426 0.827314 0.259334 -0.327253 -0.906255 0.101772 0.448965 -0.852164 0.713771 -0.789345 -0.244874 -0.797109 0.155887 0.660950 0.883382 -0.319728 0.734092 -0.672954 -0.742470 -0.385196 -0.451288 0.057590 0.636877 -0.024725 0.396062 0.987843 -0.829683 0.656410 -0.907767 -0.809964 -0.810975 0.424368 0.515467 0.142902 0.538678 -0.748515 0.605440 -0.811474 -0.612220 -0.295988 -0.669708 0.270936 0.857841 -0.351186 -0.538241 0.845971 0.876915 0.652667 -0.620190 -0.962120 -0.108963 0.435430 0.666553 -0.610967 0.021200 0.441945 0.759114 -0.259352 -0.756384 -0.963846 0.028771 0.286568 -0.736391 0.593881 0.629674 0.170260 0.865550 0.403618 -1.016422 -0.666052 0.100212 -0.297504 0.076582 0.585158 -0.540002 0.744151 0.421774 0.923235 0.063497 0.334436 -0.284080 0.339503 0.557724 0.098898 0.971933
0.224169 -0.195988 -0.689536 0.449609 -0.077392 -0.584275 0.295848 0.301267 0.706217 -0.761394 0.304981 0.334767 -0.547949 0.837814 -0.504524 -0.609394 -0.755283 -0.528081 -0.960157 -0.831954 0.112516 0.726220 -0.044617 0.957867 -0.736376 0.085666 -0.876848 0.011741 0.971201 -0.293904 0.029748 -0.362620 0.523059 0.163307 -0.098475 0.035112 -0.246755 -0.643148 -0.036089 -0.950386 0.532543 -0.656857 -0.691233 -0.255170 -0.274787 0.012776 -0.512123 -0.506438 0.350140 -0.242192 -0.904396 0.539798 -0.573857 -0.066173 0.476360 -0.251019 0.252665 0.424849 0.922155 0.137765 0.309955 -0.499628 0.059715 -0.585843 0.232965 -0.785665 -0.579526 -0.793219 -0.413597 0.428765 0.219521 -0.334548 0.497796 -0.088926 -0.460569 0.608282 0.856765 -0.797585 -0.428480 -0.603917 -0.091643 -0.660666 0.378511 -0.963361 -0.314105 -0.990137 0.638878 -0.555557 -0.844932 -0.049954 -0.644717 -0.909106 0.935297 -0.386179 -0.712391 0.009643 -0.943558 0.759416 0.652876 -0.648054 -0.881173 0.990920 0.906771 0.557086 0.412788 -0.241884 -0.826950 -0.835090 0.146453 0.449314 0.609899 0.316098 0.266474 0.562112 -0.924784 -0.688228 -0.580080 -0.935150 -0.399754 0.321203 0.968627 0.476461 0.301118 -0.587756 -0.602181 -0.824652 -0.464464 -0.271096
-0.428923 0.441596 0.678086 0.296969 0.075369 0.843527 0.977579 0.135857 -0.031526 0.211914 0.211013 0.851114 -0.867603 0.850432 0.704331 0.867611 0.458167 0.684119 0.527785 -0.110587 0.547963 0.039139 -0.173551 0.594033 0.826360 0.324770 -0.934175 -0.131122 -0.994084 -0.526774 -0.266332 -0.920117 -0.724458 0.329075 0.829513 0.502728 -0.040181 -0.371916 -0.691742 -0.562823 -0.217860 0.611430 -0.411095 -0.730580 0.978763 0.975899 -0.690131 -0.880701 0.147467 -0.529057 0.220678 0.222061 0.254159 0.873290 0.846840 -0.125745 -0.221139 0.175350 -0.747996 0.238825 0.657545 -0.092267 0.569165 -0.231481 -0.268679 -0.002305 0.922465 -1.012711 0.786744 0.708214 -0.606944 -0.214392 -0.680247 -0.863469 -0.285970 -0.977370 -0.945448 -0.339725 0.946507 -0.824232 0.716441 0.085490 0.971684 0.786464 -0.620859 -0.800272 -0.685582 0.834622 -0.579496 -0.379476 -0.872087 -0.972557 -0.688754 -0.869191 -0.920925 0.905280 0.743388 0.813694 -0.115457 0.217516 -0.316347 -0.954754 -0.327042 0.106132 -0.041297 0.368380 0.216383 -0.742845 -0.480231 0.074554 -0.861432 0.397695 -0.842598 0.119920 0.610864 -0.739051 0.546321 0.152927 -0.769548 0.808963 0.339481 -0.254908 0.794997 0.525329 -0.713069 0.101077 0.866430 0.132625
0.342164 -0.685255 -0.962253 0.436379 0.870880 -0.789007 0.378930 -0.609597 -0.316380 0.148839 0.897809 -0.683865 0.441030 0.109078 -0.583674 0.509038 -0.529963 -0.831412 0.837136 -0.786029 -0.351237 0.404328 -0.252943 -0.155635 0.096579 0.753390 -0.444085 0.846104 0.976348 -0.631891 -0.941018 -0.943205 -0.351148 0.794655 0.768025 0.002795 0.677226 -0.249113 -0.189725 -0.859492 0.399187 -0.707500 0.888324 -0.829768 0.407395 0.261797 0.756283 -0.898135 0.882158 0.060536 -0.694215 -0.103678 0.149068 -0.654778 0.683078 -0.621235 0.421910 -0.468284 0.943336 -0.934235 -0.629809 0.526558 -0.431789 -0.851023 0.835138 -0.267177 0.790772 -0.191948 0.795068 0.325141 -0.130304 0.389508 0.334087 0.816854 -0.376925 0.129681 0.358057 0.226983 0.687546 -0.020418 0.142465 0.931712 0.189510 -0.469553 -0.759348 0.092766 0.586272 0.887601 0.734687 -0.441236 -0.504628 -0.743460 -0.562399 -0.548901 0.588909 0.458808 -0.294850 -0.373915 -0.871816 -0.787562 -0.003884 0.014875 -0.789892 -0.805997 -0.115205 0.700047 0.102039 0.335966 -0.214619 0.671326 0.781194 -0.014112 0.586213 -0.228241 -0.368423 0.441089 0.947469 0.522033 -0.954040 -0.611062 0.823788 0.636214 -0.966034 -0.686225 -0.884289 0.675026 0.007178 0.978532
-0.458492 0.789253 0.359391 -0.577907 0.657295 0.670612 0.415329 -0.737563 0.781085 -0.518928 -0.599499 0.861506 0.466925 -0.917616 -0.613506 0.981656 -0.906116 -0.979424 0.666768 0.479350 0.560876 0.355051 -0.694078 -1.000348 0.392439 -0.959673 -0.595447 0.852028 0.737212 -0.013431 -0.992475 -0.589615 0.852203 -0.253212 0.665427 0.167823 -0.552552 0.948284 0.609813 0.541265 0.999141 -0.287918 0.748712 -0.760901 -0.242594 0.780998 -0.411800 -0.968111 0.827401 -0.436468 0.921639 -0.719857 -0.680179 0.517732 -0.024161 -0.976842 -0.905348 -0.135795 -0.460454 0.833985 -0.392380 -0.780043 -0.737308 -0.536562 -0.763389 0.122081 -0.544822 -0.980223 0.719829 0.212994 -0.811457 -0.022938 -0.090142 -0.473757 -0.718670 -0.693788 0.241893 0.375885 -0.030781 0.920161 -0.360701 0.572944 0.652361 -0.816833 -0.389732 0.124171 -0.677006 -0.464817 -0.268440 0.080571 0.024705 0.605589 -0.562935 0.618687 0.071831 -0.066144 -0.567909 -0.366930 -0.597293 0.440477 0.805649 -0.877954 0.112017 0.082863 0.996018 -0.526521 -0.680468 -0.275865 0.514091 -0.489209 0.348178 0.454712 -0.034384 -0.103463 -0.384671 -0.369342 -0.114657 -0.348629 -0.996757 0.883108 0.100985 0.374552 0.034937 -0.637747 0.778384 0.970413 -0.894678 -0.034938
0.305588 0.530695 0.144436 -0.263404 0.720822 -0.454564 -0.696972 -0.092929 0.857798 -0.301079 0.273621 -0.813999 0.220233 0.240500 0.230858 -0.893983 0.673499 0.750494 0.245775 0.326573 -0.253933 -0.017655 0.850049 -0.632131 0.192752 0.259652 0.988250 0.933669 0.888370 -0.885654 -0.803675 0.726315 -0.512446 -0.196800 0.026300 0.044823 -0.481057 -0.445527 -0.995644 0.056915 -0.211858 -0.131542 -0.842146 1.002526 -0.391386 0.654758 0.921473 0.762155 0.885876 0.719011 0.340582 -0.852694 -0.575443 -0.160392 0.396999 -0.498024 0.990730 -0.154719 -0.927092 -0.996657 0.886453 0.549325 -0.058364 0.995262 0.484882 -0.003636 0.339178 0.347428 0.492235 0.611040 0.142282 0.283601 -0.994449 -0.326958 0.625991 -0.909973 -0.315921 0.364409 0.128645 -0.139870 -0.112493 -0.025247 0.146560 0.509171 0.609872 0.731281 -0.218760 -0.173629 -0.682526 -0.061146 0.041468 -0.537514 -0.776243 -0.583357 -0.260301 -0.095128 0.416029 0.255445 -0.944504 0.408919 0.552150 0.762302 -0.510745 0.350645 -0.906415 0.164174 0.865331 -0.228709 -0.826474 0.263418 -0.750850 0.924046 0.002869 -0.637891 0.714454 -0.285563 -0.781185 -0.093307 -0.412131 -0.841127 -0.927579 -0.220895 0.830393 0.957995 0.911997 -0.035614 0.125636 -0.343849
0.417368 0.987284 0.618651 -1.037280 0.745414 -0.338270 -1.020031 -0.276019 0.105720 0.495233 0.890189 -0.676841 -0.068561 0.097650 0.652918 -0.482790 -0.825604 0.172198 0.430222 -0.621971 -0.242028 -0.277147 -0.944271 0.449842 0.911002 -0.450601 -0.135980 -0.502687 -0.190534 -0.648834 0.989107 -0.372399 -0.617107 0.987095 0.462273 -0.965557 -0.321651 -0.547830 -0.386886 0.877645 0.019144 -0.794076 0.695406 0.294553 -0.185803 0.770836 -0.347936 -1.040354 -0.001867 -0.863394 0.963852 0.311618 0.978779 -0.306153 -0.992697 -0.032316 0.079093 0.417244 -0.549933 -0.485300 -0.902863 -0.440573 0.452969 -0.370512 -0.925269 -0.581006 0.241868 0.227502 0.767435 0.540394 -0.113898 -0.065884 -0.497350 -0.183442 -0.133492 0.956040 0.782128 0.036351 0.851855 0.795510 0.316867 -0.417373 -0.563237 -0.448402 0.270448 0.728993 0.627386 0.697087 -0.014996 0.625947 -0.846255 -0.326838 -0.092936 -0.571992 -0.572139 -0.618789 -0.428438 0.916680 -0.479515 -0.223600 0.766596 0.045932 0.244562 -0.055946 0.990957 0.086987 0.345286 0.866164 -0.831454 -0.723887 -0.830111 0.481110 0.511134 -0.514143 -0.432193 -0.199811 -0.115360 -0.138444 0.913127 -0.301262 0.943792 -0.732682 -0.855348 0.860655 0.676521 0.672950 -0.483213 0.323877
0.608648 0.047203 -0.425343 -0.379427 0.302545 -0.964163 -0.089197 0.259853 0.129117 0.538018 -0.989355 0.399880 0.717347 0.221786 0.800939 -0.386053 -0.218292 -0.172868 -0.938030 -0.887359 -0.315341 0.583072 -0.881051 -0.865782 0.403471 0.393511 -0.191270 0.697949 0.621012 -0.149391 0.502610 -0.269978 -0.758481 -0.681444 0.654915 0.414534 0.075723 -0.358563 0.470388 -0.438431 0.128237 -1.037140 0.042690 0.751159 0.357262 0.531923 0.329730 -0.759752 0.394959 0.048004 0.321695 0.449692 0.954935 -0.816302 -0.596567 -0.062824 0.699198 0.669679 0.242878 0.637768 0.846020 -0.537732 -0.848576 0.699005 -0.390532 0.390365 0.810260 0.158885 0.466300 0.639237 0.166938 0.072537 -0.655533 0.031179 0.434190 0.746959 0.850228 -1.028984 0.727600 -0.977679 -0.156025 -0.828331 -0.762515 0.613276 -0.795958 -0.274048 -0.764533 0.174884 0.124660 -0.495833 0.064933 0.233868 -0.087585 0.625407 0.870460 -0.255901 0.169638 -0.329931 -0.486290 0.203406 -0.012897 -0.536221 -0.211994 0.733542 -0.834396 -0.434258 0.828628 -1.000340 -0.673275 -0.650404 0.957112 0.134349 0.474348 -0.435964 0.645672 -0.523383 0.349445 0.347868 -0.059306 -0.540773 0.960957 0.284254 0.722932 -0.239915 -0.090696 0.919954 0.923889 0.050310
0.119313 0.627616 0.038716 -0.039704 -0.960935 -0.302287 -0.335290 0.440263 -0.043117 -0.359001 0.862584 -0.368978 -0.375354 0.906791 0.931065 0.099941 -0.617704 0.812771 -0.796833 0.967092 -0.411262 -0.315456 -0.393424 -0.382105 0.575216 -0.532397 0.376044 0.482525 -0.716749 0.818271 -0.526452 -0.768209 0.027993 -0.281316 0.739140 -0.207532 -0.024572 -0.627709 0.680314 0.083611 -0.356556 0.655386 0.152676 0.319954 -0.016346 0.831723 0.202948 0.153419 0.805847 0.437707 -0.769909 -0.003762 0.194449 0.098023 -0.663811 -0.648699 0.845678 -0.504946 -0.752198 -0.589938 -0.646498 -0.190621 -0.294472 -0.250915 -0.208753 -0.070141 -0.102802 -0.967091 -0.107855 -0.686423 -0.749090 -0.910571 -0.133734 -0.087981 0.333971 -0.548326 -0.779253 -0.232858 0.402135 0.042518 0.019435 0.265026 0.553315 -0.136573 -0.852764 0.127348 0.103474 -0.096577 0.613607 0.910550 0.125098 -0.282466 0.439207 0.975319 -0.403095 0.913276 -0.148888 -0.338604 0.951453 -0.097195 0.727463 0.153248 0.981603 -0.023378 -0.750661 0.186911 0.544447 0.100794 -0.058800 -0.691396 -0.836468 0.915631 -0.246538 0.859141 0.068328 -0.528511 -0.872124 -0.114780 -0.731740 -0.959459 -0.561301 0.041701 -0.272074 0.627791 0.660370 0.768418 0.985318 0.197499
-1.028378 0.636772 0.619255 0.017997 0.758782 0.781713 -0.779684 0.133422 0.368031 -0.724643 0.440481 0.590717 -0.548031 -0.158069 0.464016 -0.557070 0.614802 -0.555522 -0.352360 0.512120 -0.117569 0.541002 0.950599 -0.496396 -0.203823 0.420659 -0.059447 0.973944 0.019656 0.024589 0.022343 -0.320957 -0.571923 -0.866424 -0.263084 -0.337996 -0.236948 0.603930 -0.617864 0.796810 -0.308255 0.254639 -0.335432 0.678247 -0.077048 -0.495259 0.848084 0.977795 -0.579860 0.479444 0.881901 -0.191407 -0.882532 -0.357842 -0.069574 -0.021737 0.015831 -0.413066 -0.049130 -0.139679 0.026452 0.061893 0.614696 0.031814 -0.243600 0.069799 -0.734745 -0.566204 0.723211 0.083624 0.614507 -0.782689 0.524696 -0.615819 -0.298085 0.953915 0.390536 0.596428 0.086502 -0.341599 -0.664757 0.089648 -0.448583 0.076439 0.456776 -0.485604 0.815617 -0.116412 0.296826 0.121336 0.942000 -0.017112 0.324663 0.939523 0.050390 -0.139224 0.857246 -0.125800 0.082286 -0.964702 -0.638083 0.607500 0.320764 -0.278511 -0.366696 -0.014723 0.738372 -0.111276 0.930006 -0.798643 -0.814561 -0.692206 -0.678139 -0.648664 -0.215943 0.903714 0.621328 -0.793890 0.376418 -0.840566 -0.528631 0.968076 0.906329 -0.565908 -0.059757 -0.143001 -0.399647 -0.075488
-1.000261 -0.667777 0.205722 -0.695373 0.825050 0.285217 -0.141118 0.521351 -0.584471 -0.246896 0.572312 -0.035502 0.916814 0.970940 -0.602500 -0.463517 -0.679399 0.096669 -0.425542 -0.425755 -0.410181 0.769113 0.432387 -0.809545 0.311733 0.355111 0.759991 -0.250869 -0.122588 -0.341817 0.916829 0.875204 -0.004831 -0.010243 0.418301 0.053027 -0.946810 0.640458 -0.275145 -0.787301 -0.578467 -0.935159 0.437258 0.111050 0.223204 -0.170721 0.146328 -0.403083 -0.496718 -0.553252 0.588772 0.600812 0.551619 0.735844 0.539309 -0.498536 -0.606248 0.999038 0.002710 0.317051 -0.487019 -0.300136 0.466307 0.838346 -0.627164 -0.762826 -0.668567 -0.163908 0.440682 0.006493 -0.479743 0.689655 0.010356 0.037365 0.018151 -0.194009 0.418220 -0.433698 0.050863 0.790645 0.400956 0.755852 0.624131 -0.345646 0.904149 -0.101588 -0.701331 0.382913 -0.226321 0.518318 0.064228 -0.724527 0.707513 -0.024338 -0.772477 0.247960 -0.643890 0.671413 0.742690 0.726120 -0.787091 0.810032 -0.826210 0.657393 -0.563281 0.863863 -0.571456 -0.130312 0.051302 -0.160485 1.007109 -0.559272 -0.364544 -0.005649 -0.151638 0.996596 -0.396394 0.933205 0.598676 0.873950 -0.049589 0.822370 0.713553 -0.998252 0.930767 -0.635730 0.252613 -0.941013
0.227467 0.033775 -0.892839 -0.115220 -0.923331 0.889826 0.013270 0.757915 0.618807 0.257620 -0.389033 0.379204 -0.621033 -0.611177 -0.063583 0.965734 0.631978 -0.117053 -0.725378 -0.814837 0.458554 -0.725449 -0.650530 -0.530621 0.289820 -0.426685 -0.336221 0.106830 -0.763949 -1.008294 -0.661782 0.566182 0.938108 -0.608859 -0.047319 -0.959967 0.886370 -0.847338 0.430948 -0.840581 0.035130 0.581574 -0.856515 0.843840 -0.242897 1.098658 -0.908317 -0.357783 -0.299162 -0.057131 -0.403931 -0.946861 0.879072 -0.869254 0.737784 -0.284675 -0.588227 -0.878705 -0.596431 0.608136 -0.241810 -0.880179 -0.848477 -0.461503 0.855662 -0.185846 -0.371678 0.653780 0.717866 -0.421627 -0.250083 1.002506 0.700071 0.599301 -0.166715 -0.625809 -0.265409 -0.579665 0.595284 -0.834697 -0.324786 0.093880 0.214758 -0.617675 0.247263 -0.355622 -0.337376 -0.299751 0.739502 -0.743230 0.938067 -0.803434 -0.712062 0.518915 0.736240 -0.227536 0.669094 -0.891229 -0.259064 -0.008127 0.860374 -0.916413 0.502570 0.410080 0.887854 -0.837008 -0.369592 -0.687565 0.143316 0.097750 -0.186966 -0.158077 -0.761088 -0.809607 -0.470755 -0.637576 0.037293 -0.775176 -0.753261 0.110542 0.219603 0.336151 -0.807150 -0.180395 -0.790590 -0.838102 0.566543 0.294599
0.888397 -0.876715 0.551406 -0.178465 -0.307612 -0.850591 0.458789 0.574319 -0.888387 -0.141956 0.821994 0.441755 -0.955243 0.111267 0.892831 -0.051098 0.463398 0.650890 -0.566175 -0.429165 0.849270 -0.939913 -0.815367 -0.370867 -0.826137 -0.041456 -0.549287 -0.004057 -0.771249 -0.729948 -0.981635 0.727366 -0.746722 -0.643528 -0.951504 0.712848 -0.818765 -0.514461 0.960129 -0.044465 0.081080 -0.562727 0.848270 -0.748443 0.314106 0.757033 -0.789556 0.702794 0.994297 0.081700 -0.896517 -0.694133 -0.434302 -0.586057 0.219120 0.333837 0.287655 -0.839681 -0.873266 -0.259743 -0.302610 0.703486 -0.728739 -0.588486 0.619957 -0.804078 0.247857 -0.241713 0.616774 0.199576 -0.361985 0.897932 -0.391781 0.382855 -0.693964 0.987840 0.818739 0.593503 -0.336682 -0.663570 0.165248 0.769579 0.690942 0.915140 0.082797 -0.019002 -0.912807 -0.698243 -0.972262 -0.946379 -0.380838 -0.170110 0.346426 0.233227 -0.441198 0.346546 0.127296 -0.653969 0.941532 -0.038085 0.080023 -0.265298 -0.878806 -0.411492 0.131757 0.549301 0.187556 -0.232556 0.941046 0.103555 0.892910 -0.470688 -0.858776 -0.052331 0.923617 -0.174545 -0.053857 -0.486510 0.782660 -0.599242 -0.148246 0.707041 -0.595568 0.311827 0.580065 0.303477 -0.168008 0.737251
0.309816 0.283836 0.089201 0.611256 -0.841910 -0.111611 0.083624 0.122581 -0.844266 0.478342 -0.581019 -0.119760 0.876577 -0.532469 0.004950 0.097859 0.381917 0.494660 -0.007990 -0.108308 0.926879 -0.085550 -0.542524 -0.988677 0.137904 -0.364880 -0.314942 -0.056376 0.569070 0.850518 0.491825 -0.764146 -0.638727 0.717101 0.558981 0.966847 -0.094289 -0.541388 0.238229 0.862434 -0.614320 -0.003820 0.408485 0.593067 -0.814964 -0.292383 -0.873255 -0.178027 0.947681 0.732503 0.442632 0.762142 -0.598199 0.420571 -0.560923 -0.182737 -0.923425 0.223035 0.545907 -0.046717 -0.681712 0.997881 0.033771 0.350237 -0.745436 0.667702 0.503808 -0.524909 0.259669 0.582659 0.299035 0.107048 0.432464 0.375572 -0.643222 -0.609905 0.045259 0.048206 -0.348004 -0.811466 0.862855 0.878701 -0.038488 0.300097 0.858852 0.246476 0.590421 -0.143549 0.768846 -0.457442 -0.444197 0.395757 -0.664784 0.328177 0.929069 -0.832922 0.936353 0.285049 -0.023837 -0.769560 -0.164114 -0.402409 0.468827 0.457586 0.730666 0.173380 -0.755163 0.619408 -0.350714 -0.886017 0.573235 -0.059254 0.480283 0.718968 -0.368282 0.983239 -0.279037 0.614572 -0.853880 0.361374 0.474433 0.074901 -0.690931 0.788136 0.354827 -0.630990 -0.768289 -0.064899
0.930789 0.082526 -0.720741 -0.992837 -0.222557 -0.547481 -0.155125 -0.184333 0.404314 -0.980634 -0.543354 0.004622 0.175152 0.526657 0.969991 -0.052441 -0.233828 -0.492543 0.059430 0.510744 -0.690805 0.826071 0.385227 0.878967 0.278613 -0.783542 0.080764 0.035907 -0.672859 -0.419987 0.080020 -0.448797 -0.997289 -0.936133 0.877612 0.265327 0.778886 0.072096 0.023451 -0.495078 -0.250167 0.314156 -0.512124 0.473278 0.876972 0.075578 0.819201 -0.114369 0.940761 -0.246968 -0.829018 0.563796 0.577005 0.169490 0.112197 -0.354911 -0.873935 -0.398738 -0.276077 -0.116320 -0.301752 -0.675394 0.683564 0.847708 -0.774593 -0.895108 -0.803845 -0.624884 -0.834659 0.321442 0.682872 -0.027449 -0.742881 -0.481767 -0.400910 0.607942 -0.253214 0.188976 0.154792 -0.069450 -1.031124 -0.231521 -0.418060 0.790690 -0.115166 -0.387032 0.928942 -0.092393 -0.508421 -0.814500 0.077752 0.596804 -0.976714 -0.448633 -0.545981 0.818433 0.922889 -0.290773 -0.046369 -0.213264 0.665814 0.187689 0.091317 -0.683108 -0.611146 -0.296722 0.418062 0.343067 -0.869874 0.290858 0.907451 0.189816 -0.919085 -0.946160 -0.983567 0.492670 0.311792 -0.394864 0.746090 -0.234924 -0.570028 -0.284813 1.024608 0.183750 -0.727174 -0.698749 0.034417 0.242322
-0.946668 -0.368053 0.502792 -0.070100 -0.649458 -0.059489 -0.544538 -0.733510 0.600565 0.779037 -0.950508 -0.770635 -0.936948 0.922477 0.202912 0.129576 -0.318125 0.244472 0.667661 -0.292399 -0.965144 -0.420663 0.114917 -0.809584 -0.416962 -0.751339 0.947260 -0.556081 -0.723725 -0.132878 -0.794401 0.514639 -0.360885 -0.140547 -0.712192 -0.779597 -0.502541 0.477003 0.782785 -0.560536 -0.351977 -0.509969 -0.222954 -0.912447 -0.007829 -0.315100 -1.015229 -0.334904 0.731131 -0.127559 0.788787 -0.062301 0.238743 -0.386542 -0.924980 0.513937 0.330473 0.421585 -0.257484 0.954434 0.984286 0.578561 -0.429032 1.011999 0.508088 -0.002971 -0.163553 0.270949 0.384306 0.620839 0.869805 -0.910032 -0.842629 -0.190353 0.161538 0.945422 -0.246716 -0.858145 0.518325 0.424797 0.570714 0.057153 -0.600613 -0.762708 -0.941661 0.335864 -0.436867 -0.801090 -0.496584 0.515573 0.265327 0.571132 1.029857 -0.525643 -0.914826 0.078306 -0.528933 -0.319642 -0.923209 0.928911 0.551127 -0.377529 -0.242905 0.681212 0.060576 -0.253410 -0.830896 0.142248 -0.091590 -0.153372 0.131590 0.491898 -0.412932 -0.623764 -0.146177 0.904301 0.366519 -0.935882 -0.485157 0.334088 0.213602 -0.995701 -0.037772 0.501544 0.770243 0.450912 0.065435 -0.301060
-0.722203 0.271077 -0.005971 0.755790 -0.235952 -0.841721 -0.833995 0.585359 0.691089 -0.608370 -0.096153 -0.419472 0.918256 0.904032 0.245419 0.446981 0.341644 -0.499222 0.472936 -0.869860 -0.885176 0.239951 -0.502312 -0.108196 0.053207 -0.356060 0.900679 -0.894790 -0.600253 0.439580 0.222963 0.573752 0.998989 -0.737646 -0.924664 -0.464139 0.925558 -0.440185 -0.657111 0.677035 0.914452 -0.570827 -0.651791 0.366286 -0.680246 -0.557614 -0.806628 -0.655250 -0.142245 0.284592 0.407537 -0.422559 -0.396488 -0.941143 0.559661 0.201490 0.540062 -0.555199 0.874177 0.261321 0.128259 0.179710 -0.232710 -0.524070 -0.311715 0.091822 0.618335 -0.346284 -0.143283 0.078650 -0.051567 0.690106 -0.357003 0.976815 0.895284 0.693340 0.962349 0.278006 -0.105114 0.199569 0.645949 0.029035 -0.932161 0.991741 0.795696 0.250312 0.969007 0.382891 0.851474 -0.797145 0.427320 -0.210089 0.921261 -0.961842 0.788956 0.759218 0.253923 0.512395 -0.051726 0.759670 0.844790 -0.093382 0.585446 -0.821785 0.185255 0.356247 0.929029 -0.367136 0.841024 0.612038 0.986060 0.586970 -0.942245 -0.773427 0.528012 -0.523239 0.119083 0.197056 0.732518 0.219792 0.241730 -0.844204 0.635485 -0.144689 0.376266 0.745461 -0.471970 -0.479984
-0.666110 0.340201 0.536248 0.035312 0.095306 0.286605 0.280038 -0.181187 0.061293 -0.010468 0.755462 0.042667 0.210671 -0.836744 -0.566126 0.425298 0.151805 0.906054 -0.140481 -0.517392 -0.770060 -0.383292 -0.568381 -0.501763 -0.357259 0.276860 0.788115 -0.356905 -0.202246 0.571190 -0.879248 0.137761 -0.103677 0.399733 -0.566261 0.135438 -0.244155 0.710139 0.498945 -0.670948 0.614506 -0.229122 0.519638 0.154807 0.832560 0.841039 -0.261296 0.799053 -0.625829 0.023667 -0.465476 -0.990137 -0.344268 0.450973 -0.803598 -0.606029 0.029585 0.641031 -0.641838 0.015669 -0.132934 0.778171 0.556671 -0.972284 -0.159888 0.888622 -0.177089 0.827690 0.743311 -0.106668 0.913880 0.660911 0.471151 0.273528 -0.724367 -0.444910 -0.129700 -0.428013 0.691552 -0.456979 -0.451865 -0.455636 -0.682951 -0.532055 0.540381 -0.542234 -0.961866 0.222593 0.076972 0.498606 0.541225 0.255789 -0.699637 0.447569 -0.105930 0.452054 -0.333113 -0.800064 0.723689 0.272838 0.696882 0.766174 0.807151 -0.697631 0.086689 -0.518893 0.926437 0.768531 -0.049018 0.190663 -0.650243 0.655550 0.023341 0.610165 -0.823301 -0.983644 0.546646 -0.293227 -0.398426 -0.745728 -0.998712 -0.246284 0.949761 0.191466 -0.954579 0.384424 -0.719215 0.681028
-0.881849 -0.615302 -0.274591 -0.110245 0.115580 0.659762 -0.284681 0.754399 0.964148 -0.072970 -0.469658 -0.950418 0.045706 0.570208 0.881273 -0.801607 0.297460 0.044036 0.794537 -0.165000 0.077013 -0.834785 -0.135293 0.454326 -0.046626 -0.267253 -0.500649 0.055118 0.072560 -0.861757 0.778245 -0.172094 0.101795 0.700238 -0.036033 -0.713764 -0.831322 0.459365 0.912907 0.509818 0.139075 0.545935 -0.750085 0.435559 0.097145 0.917417 -0.247133 0.059417 -0.947401 -0.032404 0.325906 -0.598269 -0.353870 0.339330 -0.214744 0.788292 -0.652177 0.787434 0.377449 0.612597 -0.053200 -0.229125 0.045795 0.363413 0.077336 0.184662 -0.537882 0.486196 -0.063797 0.227644 -0.818327 -0.870796 -0.319377 0.143778 -0.115136 0.485497 -0.687571 0.411701 -0.928728 -0.565061 0.241491 -0.490213 -0.650654 0.751482 0.550371 0.759629 -0.856952 0.249566 0.912581 -0.846950 -0.951354 -0.991587 0.998480 -0.172358 0.068810 -0.357561 0.750263 -0.327005 -0.537292 0.466489 0.873247 -0.165410 0.467454 0.620419 -0.290512 0.452822 -0.806068 0.741912 0.898813 0.673560 0.371164 -0.369636 -0.640366 0.797945 0.616836 0.484489 0.029296 -0.321752 0.468181 0.991130 0.305550 0.563119 -0.535885 -0.629278 -0.752776 -0.009651 -0.929364 -0.578341
0.803788 -0.615182 -0.368426 -0.659135 0.561689 0.111333 -0.342077 0.583345 0.478321 0.687674 0.857711 -0.709532 -0.575373 -0.850667 0.065006 0.765945 0.271687 -0.446424 0.154652 -0.770110 0.499402 -0.648934 -0.301542 -0.113990 0.074471 -0.517545 -0.220237 -0.454561 0.786402 -0.705941 -0.109310 0.426177 -0.876699 -0.607469 -0.627941 -0.213230 0.777538 0.269297 -0.614150 -0.933601 0.653914 0.865676 0.506500 -0.870848 0.741637 0.406056 -0.453514 -0.084618 -0.646763 -0.939265 0.367204 0.915080 0.359261 0.226250 0.246053 -0.974731 0.829028 0.903728 0.312698 0.065023 -0.305286 1.045261 -0.681126 -0.146761 0.325990 -0.529259 -0.282223 0.347116 -0.360028 0.810105 -0.548493 0.924789 0.637531 -0.491491 0.072763 0.214608 -0.110521 0.775617 0.118867 0.533052 -0.158323 -0.260791 0.113126 -0.575160 -0.385130 0.937893 0.106989 -0.603539 0.695353 1.003139 0.567158 0.308773 0.737442 0.515565 -0.585693 0.943828 0.664267 0.351725 -0.352558 0.550884 -0.289276 0.740689 -0.168264 -0.073198 0.849092 -0.640695 0.376953 0.277161 -0.320242 0.346278 0.553512 -1.026870 -0.967493 0.426647 -0.593871 0.224587 0.299952 1.020732 0.238647 -0.705614 -0.299344 0.716339 0.408916 0.848736 -0.712986 -0.631047 0.391178 0.860031
-0.375569 -0.513333 -0.077807 -0.239228 -0.414460 0.416709 0.465910 -0.601016 0.132937 -0.268766 0.412439 -0.453451 -0.317155 -0.741436 0.642214 -0.978332 0.853120 -0.272805 0.696129 -0.763523 0.072845 0.969792 0.286372 0.328931 -0.189965 -0.283057 0.644004 0.347165 0.933021 -0.756683 0.402155 -0.517860 -0.944710 0.462489 0.373330 -0.957913 -0.355579 0.535137 0.681392 -0.597845 -0.897400 -0.557217 -0.361689 0.746715 -0.387130 0.300897 0.021813 0.512080 -0.481839 0.304456 0.899636 -0.251127 0.325635 0.476245 0.912219 -0.986984 -0.276239 -0.725267 -0.561466 0.617469 0.458261 -0.276017 -0.903192 0.493265 -0.103858 -0.739174 0.919190 -0.014469 0.614927 -0.491597 -0.292656 0.174229 0.942158 0.970589 -0.380182 0.132283 -0.337549 -0.712809 -0.598920 -0.666605 0.041468 -0.658054 0.016856 0.123129 0.118104 -0.491978 -0.074856 -0.095603 0.930161 0.249826 0.644621 -0.624502 0.252693 -0.632035 0.895928 -0.202811 0.042009 -0.222182 -0.384010 0.161392 -0.149589 -0.840388 -0.821628 -0.901240 0.784810 -0.059289 -0.664130 0.220620 -0.717926 -0.570168 -0.936431 -0.162210 -0.746535 0.306333 0.502231 -0.969212 0.276419 0.203469 0.805262 0.218572 -0.537339 -0.689575 -0.693402 0.020249 -0.937221 0.483911 -0.383025 -0.759566
0.638473 -0.352825 -0.833118 -0.126620 -0.441162 0.171201 -0.036153 0.879485 0.394348 0.336641 -0.460139 -0.308022 0.917906 0.840372 0.390844 0.899751 -0.156833 -0.024019 0.207908 -0.605086 -0.094455 0.570025 -0.090704 -0.442894 -0.930573 0.958335 0.066417 0.626304 -0.053354 -0.092912 -0.750436 0.586452 -0.319494 0.868019 0.497427 0.591674 -0.870554 -0.414592 0.634239 0.165586 0.926982 -0.041509 -0.552521 0.949720 0.167724 -0.822429 0.262283 -0.605415 0.457706 -0.257758 -0.169682 0.908808 0.110829 0.395204 0.365847 0.033647 0.274193 0.783531 -0.014949 -0.552155 0.044169 0.524579 -0.459822 0.877165 -0.335224 -0.095673 0.095869 -0.614475 -0.735508 -0.756957 -0.201671 0.688200 -0.067337 0.437467 -0.141792 0.515486 -0.112246 0.487298 -0.390557 0.163514 0.059141 -1.005082 0.657280 0.183703 -0.327275 -0.490391 -0.428997 -0.294787 -0.539242 0.919509 0.395535 0.000192 0.310223 -0.002739 -0.515044 0.296247 0.921051 -0.584015 -0.308626 0.190338 -0.622077 0.958228 0.512696 -0.430374 0.164211 0.586850 -0.070226 -0.967190 0.219891 -0.439552 0.725837 0.747342 -0.285690 0.514964 -0.659682 -0.818951 -0.797062 0.312611 -0.802211 -0.040239 0.621769 0.731445 0.177857 -0.009910 0.867760 -0.198245 -0.206373 0.399328
0.863710 -0.477383 -0.619410 0.939914 -0.027176 0.539882 0.178305 0.026058 0.277025 0.897367 0.831826 -0.148125 -0.081047 0.054071 -0.634594 0.120329 -0.798033 -0.499678 -0.075793 -0.000940 -0.264784 -0.163583 0.999969 0.882069 0.474462 0.759203 0.116556 0.472049 0.129802 0.184223 0.525295 -0.434917 -0.436592 -0.937292 0.334991 -0.113499 0.266098 -0.347617 0.933760 0.055274 0.084359 -0.075425 0.542787 0.771510 0.464744 -0.665234 0.078702 0.609612 0.998726 0.098682 -0.092771 -0.499744 0.344244 -0.683692 -0.847241 -0.470800 -0.163087 0.617482 0.997080 -0.056076 -0.700996 0.264430 -0.597136 -0.014997 0.605838 -0.491285 -0.667823 0.242875 -0.512310 -0.234629 -0.938684 0.440637 0.114080 0.163570 -0.599738 -0.803287 0.777041 -0.936079 -0.180253 0.518359 0.494468 -0.416377 0.623766 0.647592 -0.008170 0.790608 -0.702424 -0.000180 0.630703 -0.359867 -0.166925 0.524826 0.596920 0.600431 0.757741 -0.076714 0.338678 -0.685707 -0.232661 0.112985 0.534538 -0.315524 -0.111187 0.866468 -0.650326 -0.916711 -0.453826 -0.091611 -0.419375 0.119685 -0.515261 0.013275 0.666086 0.619768 0.750716 0.476863 -0.701763 0.239472 0.942466 -0.546919 -0.436372 0.322023 -0.885125 0.886652 -0.045632 -0.586062 0.848837 -0.818597
-0.537849 -0.731599 -0.176433 -0.188173 -0.717759 0.312923 0.945433 0.296879 0.454775 -0.899319 -0.672418 0.563863 0.409544 0.463197 -0.029846 -0.824409 0.869220 0.308741 -0.742472 -0.639886 -0.223379 -0.449550 0.496262 0.559109 0.743304 -0.828634 0.357676 -0.528379 -0.796104 0.968256 -0.625676 -0.356434 0.611000 -0.037606 -0.475850 -0.736351 -0.085106 0.099715 0.151732 0.040346 0.761823 -0.423390 0.923349 -0.362286 0.423800 -0.949611 -0.979581 -0.694457 -0.522883 0.504324 -0.033946 -0.039566 0.014656 -0.287932 0.232302 0.289646 -0.538869 0.185673 0.663348 0.930660 -0.811360 0.234978 -0.513884 0.682813 -0.215311 0.537378 -0.477467 0.022075 0.539563 -0.839347 -0.177042 -0.370315 0.331690 0.960509 -0.724829 0.645636 0.048658 0.698922 -0.371732 0.726321 -0.841591 0.296215 -0.439287 -0.360831 0.582705 -0.190275 -0.469805 0.851593 0.180341 -0.626119 0.434786 0.069194 0.536111 -0.037664 -0.841579 -0.464110 0.109968 -0.941669 0.455521 0.820413 -0.526179 0.295667 0.406629 0.162401 0.399719 0.587360 -0.916126 0.674999 0.819530 0.274169 -0.332269 0.005415 -0.553924 0.830637 -0.806499 0.782392 -0.240053 0.265155 0.773571 0.633269 -0.605228 0.840675 -0.255573 -0.503434 -0.555480 0.639204 0.761291 0.032139
-0.176712 0.300005 -0.656880 -0.782443 -0.585335 -0.680239 -0.489566 0.028591 -0.792165 0.959686 -0.932424 0.857513 0.749359 0.904456 0.134889 0.949094 0.267132 -0.675811 -1.026803 -0.183772 -0.381170 0.267211 0.018111 -0.692239 -0.576945 -0.396683 0.909525 0.107679 -0.323153 0.007106 0.770099 0.515879 -0.699317 0.073375 0.081063 -0.867476 0.106277 -1.004097 0.171191 -0.117934 0.811211 -0.676924 -0.550777 -0.687237 -0.952228 -0.652679 -0.000328 0.756609 -0.674262 0.075951 -0.649533 -0.091882 -0.257869 0.477873 0.138188 0.933996 0.448362 0.949515 -0.738091 0.880195 -0.291462 0.075052 -0.887008 -0.095017 -0.044154 -0.072624 0.712335 -0.382695 -0.756640 0.614089 -0.517822 -0.252558 -0.677339 0.815537 -0.050042 -0.400089 -0.441162 -0.683075 -0.955867 -0.305225 0.332456 -0.089061 0.867873 0.087164 -0.516111 0.257654 -0.480123 -0.922436 -0.738543 -0.907483 -0.590184 0.602412 0.421659 0.480555 0.129889 -0.711238 -0.243686 -0.666197 0.722175 -0.214174 0.748371 -0.886043 -0.888853 -0.470537 -0.124238 -0.196289 0.519995 0.799478 0.386551 0.029618 -0.045628 0.106671 -0.150634 0.060626 0.868534 0.420126 0.457685 -0.528092 -0.732986 0.154950 0.217819 0.746165 0.742401 -0.418340 -0.921265 -0.401219 0.741951 -0.056443
0.522884 -0.007165 0.830541 0.671107 -0.120234 0.106282 -0.899951 -0.054032 -0.699484 0.238722 0.500571 0.980845 0.087467 -0.940612 0.081041 0.195724 0.266799 0.196714 0.425253 -0.729048 0.224576 -0.102342 0.438693 -0.147568 -0.527147 -0.938215 0.537619 -0.348453 -0.201668 -0.015870 -0.716191 0.419609 -0.866069 -0.227546 0.583548 0.985096 -0.835776 0.184938 -0.010107 0.415031 -0.599825 -0.440125 0.863392 -0.309904 0.795258 0.309949 0.645213 0.732570 0.419609 -0.098988 -0.729931 0.397061 -0.386238 -0.235427 0.938552 -0.096635 0.662484 -0.443558 -0.204258 0.335931 0.125710 0.355038 0.073228 0.824910 -0.640895 0.357607 0.907258 0.218617 -0.565816 -0.359575 0.802163 0.253257 0.114872 -0.245759 0.865866 -0.713396 -0.627509 -0.541366 0.194062 -0.759584 0.094454 0.406638 -0.146580 0.595363 0.818539 0.129032 0.723318 -0.573687 0.638386 0.701714 0.067715 0.499851 -0.339760 -0.466551 -0.624959 -0.038537 -0.915392 0.145495 -0.576748 -0.876827 -0.895076 -0.806169 -0.489988 -0.983728 -0.690238 -0.072249 -0.121507 0.455858 0.800943 -0.388453 0.689670 0.499697 -0.025710 -0.100709 -0.817033 0.790471 0.345770 0.959910 0.536001 0.863218 -0.659182 -0.139259 0.257106 -0.666990 0.755377 -0.788165 -0.448584 0.833343
0.756584 -0.499761 -0.909507 0.146773 -0.075379 0.462681 -0.748183 -0.404447 -0.577028 0.414373 -0.089652 -0.499725 -0.934768 0.858393 -0.716645 0.819797 0.792750 0.437514 -0.667799 -0.350524 -0.340031 0.767783 -0.556985 -0.062830 0.970909 0.102792 -0.588837 -0.041680 0.754494 0.210103 -0.283685 -0.330348 0.178903 0.288352 -0.776303 0.724732 0.510844 0.590962 -0.083915 -0.344643 -0.485517 -0.384423 -0.515082 -0.959046 0.143470 0.414829 0.133954 0.558960 0.033877 -0.723251 0.356846 -0.259885 0.631424 0.641063 -0.320600 -0.930687 -0.260075 -0.858085 -0.576738 -0.595909 -0.665449 -0.846456 0.066777 0.320732 0.280236 0.899427 -0.928963 0.890978 0.298981 0.423738 -0.903937 0.914752 -0.791013 -0.025832 -0.528390 0.190411 -0.432844 -0.377555 0.450284 0.705842 0.910106 0.909548 -0.808447 0.775600 -0.692565 0.879081 -0.081345 -0.644160 -0.572764 0.006599 0.728976 0.638804 0.463901 0.989797 0.621377 0.188014 -0.079169 0.616343 -0.771230 -0.381234 0.597719 -0.509699 0.261928 0.178740 0.546723 -0.887669 -0.934564 0.749290 -0.443514 -0.263607 0.415988 0.526604 0.321998 -0.169347 0.834620 -0.034264 -0.180675 0.253137 -0.747315 -0.602665 -0.956984 -0.719251 -0.030048 0.747655 -0.987168 -0.687009 0.357933 -0.389332
-0.273538 0.318693 -0.155957 -0.466395 -0.109266 0.356005 0.621189 0.098312 0.715245 0.570363 -0.211698 0.113097 -0.111118 0.578105 0.069547 -0.090132 -0.990291 -0.770173 -0.781667 -0.272092 -0.004882 0.571686 -0.792288 -0.900333 -0.702947 -0.852961 0.794756 -0.599801 -0.466599 0.220736 0.375128 -0.277979 -0.324869 -0.640269 0.803025 0.581860 0.867570 -0.360752 -0.662727 -0.709534 0.632668 0.037534 -0.276683 0.398843 0.194597 0.056149 0.626804 0.370499 -0.433860 -0.764972 0.559111 -0.158343 -0.833316 0.526963 -0.768271 0.584612 -0.624416 0.134497 -0.949197 0.306507 -0.702120 -0.330014 -0.310129 -0.292315 0.555338 -0.987671 -0.817606 0.835485 -0.201895 -0.082856 -0.024776 -0.287524 0.476292 -0.506502 0.747176 -0.231289 -0.079765 0.681500 0.176168 -0.144655 -0.361291 0.509019 0.542894 0.008380 0.448659 0.566326 0.080366 0.191204 -0.382155 0.213805 -0.850409 0.508387 -0.798127 -0.125081 -0.269133 -0.102041 -0.765695 -0.250149 -0.196681 -0.068464 0.633841 -0.224962 0.487617 -0.112315 0.143008 0.751134 0.665691 -0.219218 0.862390 -0.055768 -0.356840 0.932741 0.915578 -0.679386 0.276941 0.663334 -0.009534 0.301862 0.449933 -0.597794 0.234013 -0.525402 0.677289 0.023894 -0.179795 -0.851620 0.016055 0.083511
-0.898410 -0.531433 -0.787123 0.870723 0.523364 -0.267147 0.566238 0.876222 -0.575566 0.313033 -0.207114 -0.891985 -0.709670 -0.574298 -0.182125 -0.147428 0.932783 0.856346 -0.621353 0.244931 -0.566292 0.153171 0.688802 0.410374 0.380731 -0.659937 0.840356 0.983432 0.471625 0.287258 -0.408072 -0.306074 -0.654203 -0.753815 -0.897461 0.180925 0.426831 -0.191996 -0.090622 -0.435423 -0.961972 -0.026560 -0.322524 0.405036 -0.124381 -0.292173 0.150507 0.617453 -0.063753 -0.666228 0.522225 -0.051815 -0.897244 -0.306505 0.363454 -0.948757 0.813188 0.995768 -0.751785 -0.345105 0.411506 -0.823916 -0.936317 -0.284424 0.957871 -0.404891 -0.656514 0.624609 -0.548368 0.061272 0.823316 -0.914121 -0.180081 0.872677 0.187731 -0.178475 0.957825 -0.021414 -0.637116 0.324067 -0.506172 -0.457293 -0.010296 0.764103 0.866036 -0.837176 -0.233656 0.081144 -0.275118 -0.712472 -0.025072 -0.641649 0.247429 -0.678272 -0.429668 0.820706 0.396509 -0.849915 0.155801 0.638281 -0.945803 -0.311502 0.847680 0.117438 -0.940270 -0.248858 0.267174 0.519512 0.431838 0.532781 1.002663 -0.680453 0.194651 0.827150 0.792330 0.267069 0.574331 0.256023 0.519273 -0.372795 0.800512 0.286162 0.189621 0.928215 -0.566593 0.699608 0.392295 0.955977
-0.430016 0.534738 -0.090104 -0.019912 0.973203 -0.685783 0.923030 -0.745891 0.663321 -0.571928 0.970637 0.334018 -0.257010 0.346658 -0.515269 -0.397360 0.643363 0.402049 0.812062 -0.476414 -0.412243 -0.572397 0.290272 0.530147 0.705417 0.732595 -0.549639 -0.739538 0.797125 0.619990 0.093412 -0.096848 0.885104 -0.846764 1.020364 0.896367 0.102801 -0.466655 0.199731 -0.157829 -0.398452 0.793728 -0.514943 -0.809990 0.241958 0.370562 0.757906 -0.630236 0.651387 0.631229 0.959220 0.432030 0.952632 0.068548 -1.002529 0.828997 0.614646 0.749713 -0.233952 -0.727185 0.979481 0.058559 -0.114885 -0.063293 0.473243 -0.750618 0.640700 0.530091 -0.442687 0.711812 -0.901260 -0.392160 0.056130 -0.814203 0.279712 -0.187997 0.563073 0.330690 0.304186 0.978350 -0.739834 -0.036640 -0.282033 -0.494329 -0.510254 -0.717978 0.829677 -0.493552 0.878726 -0.336062 -0.266205 0.582405 -0.834874 0.664724 -0.910309 -0.547197 -0.056826 0.390489 -0.033044 0.016200 -0.902181 -0.890617 -0.130898 -0.530995 -0.085533 0.567637 -0.409071 0.775195 -0.711337 0.983056 -0.434526 -0.224674 -0.418905 -0.338166 0.476633 -0.159026 0.435510 -0.450987 -0.115264 0.400426 -0.435258 -0.048314 0.708168 0.385799 -0.397695 -0.044870 0.921652 -0.906470
0.820405 -0.341334 0.596942 -0.197682 0.423830 0.042790 -0.225497 0.893583 -0.240503 0.011822 0.352095 -0.695026 -0.965563 0.398715 -0.993540 0.774117 -0.770109 -0.561195 0.056113 -0.579058 -0.344397 0.651415 -0.328943 -0.582817 -0.237124 -0.567414 0.436890 -0.966317 0.997251 -0.247834 0.011511 -0.294093 -0.333843 0.437658 0.443880 0.896274 0.206256 -0.993423 -0.455297 0.882189 0.254520 0.519458 -0.686828 -0.652749 -0.527012 -0.924025 -0.445606 0.028530 0.422345 0.505341 0.903166 0.009441 -0.216669 0.704992 -0.120141 0.705317 0.280161 -0.264616 0.044462 -0.220189 -0.491156 0.345102 -0.524789 0.972509 0.523188 -0.579751 0.813482 -0.318384 -0.640458 0.065866 -0.811876 -0.561624 0.586250 0.216922 -0.593806 0.148152 0.115458 0.369475 0.899045 -0.835214 -0.047307 -0.774810 0.904683 -0.361262 -0.062622 0.975444 -0.928396 -0.774706 0.359521 0.516282 -0.796224 -0.714292 0.021025 0.293072 -0.273752 -0.213033 -0.879443 -0.689834 -0.224804 0.403703 0.197224 0.282534 -0.389552 -0.174107 0.448491 0.203524 -0.016394 -0.128365 -0.911161 -0.783478 0.840997 0.260979 0.163711 -0.769769 -0.535966 -0.830114 0.254491 -0.915458 -0.172823 0.533341 -0.498497 -0.179629 0.410396 -0.441637 0.348422 0.879253 0.272051 -0.336489
0.730967 -0.583421 -0.075166 -0.659663 -0.471481 0.338458 -0.846997 -0.817293 0.097704 0.081113 0.631240 -0.968853 -0.252794 -0.378062 -0.711062 -0.327376 -0.370271 0.700677 -0.331201 0.456805 0.277306 -0.985270 -0.401987 0.842117 -0.636665 -0.110366 -0.693787 0.390399 -0.365006 -0.307929 -0.393859 -0.130271 -0.360037 0.608669 0.529823 0.990012 -0.582454 0.123019 0.788737 -0.610579 -0.686641 -0.168279 0.102438 0.125768 0.169578 0.465552 -0.356408 -0.515989 -0.526045 0.752765 -0.085144 0.222810 0.778506 0.752286 -0.143279 0.065907 -0.670546 0.696089 -0.066828 -0.342657 -0.732703 0.080096 -0.911411 0.333195 0.902702 0.912879 0.589838 -0.929272 -0.395203 -0.031022 0.784829 0.352820 -0.505631 -0.853014 -0.804259 0.400647 -0.701546 0.741528 0.646673 0.618194 -0.561105 0.438569 0.433691 0.310976 -0.893335 0.657794 -0.180985 -0.077782 0.778507 -0.233451 -0.969517 0.702630 -0.104913 0.235443 0.014750 0.710681 0.122717 -0.891862 0.139587 0.567961 0.917229 0.770170 -0.642882 -0.543773 0.808166 0.298387 0.010805 0.711503 -0.780931 0.351627 -0.498789 0.864338 0.581323 0.349051 -0.381025 -0.639861 -0.390232 -0.742748 -0.151274 -0.162866 0.951532 -0.950364 0.705576 0.506991 0.252552 0.878544 -0.208149 -0.632291
-0.663399 0.500085 0.964333 0.207041 0.010018 -0.964077 -0.998629 -0.301160 -0.166464 0.866963 -0.373870 0.335551 0.295933 0.620563 -0.199656 0.636360 -0.490112 0.115251 0.217463 -0.303895 0.148920 0.879777 0.960419 -0.077412 0.633968 -0.494479 -0.876351 -0.826272 0.603736 -0.374005 0.854833 -0.224355 0.450073 0.143827 -0.694918 -0.179075 0.372489 0.185544 -0.457374 0.573783 -0.351131 -0.181645 0.259283 0.194621 -0.470828 0.824540 -0.427953 0.356201 0.176895 0.282394 0.034179 -0.216618 -0.758163 0.652103 0.162773 -0.434285 0.682952 -0.429777 0.560034 0.673044 0.650916 0.465903 0.243737 0.157235 -0.784401 0.565926 0.983660 -0.183912 -0.380168 0.637879 -0.244302 -0.909747 -0.839566 0.245511 -0.021032 0.712220 -0.439793 0.043672 0.455023 0.900719 -0.833584 0.725076 0.421719 0.285927 0.132645 -0.916063 0.854206 -0.335794 -0.296290 0.493458 -0.693493 0.334367 -0.427735 0.067239 0.637021 -0.602591 0.981669 0.578986 -0.044062 0.630932 0.447940 -0.050534 -0.465064 -0.796876 -0.943917 -0.728507 -0.077814 0.250130 -0.891612 -0.014976 0.693434 -0.579884 0.885782 -0.052676 0.085351 -0.472980 0.581255 -0.689275 0.985708 -0.670462 0.906758 0.211084 0.221570 -0.275070 -0.783434 0.800708 -0.342638 -0.171052
-0.404768 -0.793882 0.593731 0.642273 0.335172 -0.908067 -0.607469 -0.085661 0.872978 0.748898 0.546986 0.758004 0.140621 -0.829077 -0.448862 -0.707960 0.506905 -0.133969 0.934297 -0.988884 0.583618 -0.080637 -0.304167 0.611558 0.420106 -0.371180 -0.898530 -0.008973 0.519448 -0.537822 0.814267 0.577814 -0.844188 -0.723326 -0.582736 -0.718511 0.148227 -0.102732 -0.288107 -0.588044 -0.965478 -0.788625 0.599854 -0.694035 -0.067317 -0.570655 0.806569 0.395777 0.574535 0.754812 0.888784 0.219586 -0.488349 -0.181568 -0.403015 -0.927534 0.842685 -0.380892 0.953146 0.923317 -0.929279 0.852318 -0.936645 -0.010646 1.009744 -0.018061 0.098035 -0.099842 0.426394 -0.863033 0.699240 -0.398682 -0.121128 0.189324 0.142735 0.553599 -0.555764 -0.509418 0.490415 -0.215145 -0.626185 0.521826 0.728434 0.154037 0.492576 -0.106026 -0.111462 0.179873 -0.535533 0.439313 0.838022 0.276712 -0.969261 -0.200328 0.156536 0.142351 -0.463343 0.384733 -0.224105 0.524495 0.183388 -1.031036 -0.418011 0.619556 0.818933 -0.069750 0.131232 0.828586 -0.637114 -0.896621 0.299570 -0.782888 -0.199824 -0.761388 -0.579072 -0.373124 0.308658 -0.634967 -0.139931 0.360726 -0.873423 -0.602277 -0.067028 0.633564 0.226773 0.114074 -0.678481 0.011552
-0.396884 0.799706 0.936706 -0.359166 -0.630863 0.941639 -0.474420 -0.188760 -0.189439 0.644467 0.334244 -0.703576 -0.923554 -0.353776 0.740049 0.751159 -0.173392 -1.002617 0.073398 0.122662 -0.573269 0.164039 0.259589 -0.004089 -0.397152 -0.511939 0.456739 0.887245 0.117596 -0.547240 -0.769125 0.386427 -0.847735 -0.475822 0.588465 0.512642 -0.518911 0.422057 0.472898 -0.120681 0.699499 0.913143 -0.858168 0.258465 -0.242538 -0.897011 -0.894457 -0.745422 0.717320 -0.010090 0.819875 0.525479 0.600779 0.689947 -0.083918 -0.181509 -0.843890 0.687286 0.330711 0.308109 0.733169 0.664020 -0.794386 0.554079 0.193528 0.240766 -0.565029 0.465727 0.788994 0.030458 -0.522410 0.435801 0.512204 0.954414 -0.472906 0.873557 0.635798 -0.386831 0.933301 0.636799 0.785064 -0.878065 -0.599017 -0.026930 0.719672 0.692070 -0.559038 0.668997 -0.016270 -0.441319 0.571467 0.836967 0.863970 0.098335 -0.146976 -0.352618 -0.832549 0.157581 -0.103569 -0.150450 -0.827541 -0.809861 -0.914011 -0.147617 -0.998116 0.458960 -0.137477 0.751026 0.535269 -0.062726 -0.199112 -0.723616 -0.900649 0.754075 -0.481809 -0.156523 -0.949154 -0.288054 -0.234016 -0.956314 -0.419483 0.204742 0.924051 -0.566737 -0.879460 -0.232402 -0.254204 0.828874
0.732509 0.943741 -0.577147 -0.921388 -0.341428 -0.900913 0.197884 0.312082 0.976982 -0.460751 0.582179 -0.325895 -0.957605 -0.253685 0.134863 0.747144 -0.274881 0.528321 -0.413330 -0.962922 -0.992551 0.351124 -0.048172 0.734802 0.139064 -0.184715 -0.383941 0.975089 -0.557037 -0.999501 0.395923 -0.283352 -0.371231 0.566765 -0.068883 0.894605 0.756308 0.792940 0.699067 -0.847401 -0.684558 0.693273 -1.005826 -0.559806 0.009276 -0.380960 -0.360234 -0.732662 0.887900 0.566578 0.037529 0.784833 -0.414366 -1.105905 -0.072114 0.075578 0.556265 0.399752 0.356638 -0.292430 0.848175 -0.708842 -0.410787 0.752454 0.449788 0.019868 0.831477 0.055991 0.290648 -0.524542 -0.139139 0.189206 0.144746 -0.562466 0.004861 -0.669120 0.455396 -0.210222 0.503273 -0.510215 -0.879358 0.962310 -0.331194 -0.057126 0.983399 0.825100 0.117679 -0.270024 -0.127110 0.065829 0.815136 -0.578487 -0.818531 -0.621020 -0.473441 0.259263 0.257996 0.899601 0.456091 0.199661 -0.396307 0.433412 0.540106 0.782350 0.676826 -0.369111 -0.656303 0.474791 0.344169 -0.500626 0.711800 -0.931733 0.168626 0.076090 -0.933015 0.899732 0.315358 0.410433 -0.239989 0.689070 -0.087426 -0.053660 0.144527 -0.528997 -0.029381 0.108269 0.022307 -0.675145
-0.260549 -0.108887 -0.449206 -0.089329 0.820103 -0.604090 -0.620453 0.804860 -0.840968 -0.729928 -0.033386 -0.486263 0.567458 -0.256840 0.438504 -0.033112 0.233325 -0.321838 0.228756 -0.381316 -0.898613 0.519680 0.028740 -0.966245 0.886946 0.795056 0.930108 -0.748769 0.304733 0.103982 0.474220 0.634276 0.442609 0.537015 0.344902 0.807116 0.601596 -0.599502 -0.748121 -0.890261 -0.690553 -0.417196 0.767233 -0.755379 -0.520323 0.568106 -0.431376 0.541863 0.465975 0.663582 0.886612 0.312412 -0.273904 -0.410745 -0.249991 -0.387019 -0.830818 0.551044 -0.891738 -0.639107 0.936785 0.863169 0.478059 -0.602897 -0.155897 -0.223393 -0.507375 -0.356617 0.757515 0.854991 0.468643 0.686945 -0.031162 -0.650905 0.270212 0.244972 -0.357954 0.313859 0.393244 0.479150 -0.298266 -0.401896 -0.951127 0.491885 -0.921629 -0.478713 -0.164986 -0.110329 0.326600 -0.515035 -0.638841 0.976396 -0.098412 0.236939 -0.010961 0.793784 -0.133463 -0.083560 0.176025 -0.103403 -0.002241 0.195427 -0.350490 0.900399 0.376760 -0.529204 0.655570 0.617108 0.192411 0.814028 0.744194 0.630889 -0.482786 0.509040 -0.746128 -0.745932 -0.501645 -0.780774 -0.901746 -0.934066 -0.862777 -0.990849 -0.525650 -0.342268 -0.259262 0.848749 0.408324 -0.817088
0.794432 0.396178 0.707926 -0.579238 0.647650 0.631905 0.201402 0.655320 0.523754 0.165689 -0.585636 -0.656287 0.477854 0.607092 0.331938 0.964692 0.764825 -0.054710 -0.355078 0.573792 -0.505742 0.099832 0.308958 -0.899252 -0.200101 -0.104124 0.977216 0.025454 -0.015105 0.319949 -0.829528 0.166492 0.328133 0.193396 -0.973848 -0.349040 0.441697 -0.240659 0.601049 0.517282 -0.101162 0.846098 0.536939 0.164676 -0.300677 -0.020262 -0.633872 0.557366 -0.264594 -0.251251 0.333484 -0.415017 -0.951552 0.071936 -0.475488 -0.038153 0.531560 -0.133597 -0.073073 0.873710 0.475322 0.006331 0.283177 -0.225462 -0.538497 -0.625816 -0.656458 0.143920 0.501494 0.118769 0.759257 0.232377 -0.495069 0.111065 0.893437 0.808981 -0.192197 -0.643395 -0.870885 0.798896 0.819913 -0.428776 -0.682597 -0.440101 0.653563 0.773052 0.271538 0.685777 0.557844 -0.581810 0.623408 -0.935173 0.317098 0.108128 -0.957231 -0.061126 0.741992 -0.667223 0.266833 0.824238 0.717631 0.791748 0.610910 0.112052 0.782873 -0.431210 -0.291208 0.879606 -0.845256 -0.358333 0.605880 0.643479 -0.915198 0.463081 0.118776 0.789769 -0.702745 0.053151 -0.996612 0.279968 0.557234 -0.736698 0.595332 0.152129 0.608016 0.801757 -0.588739 -0.937401
-0.751983 -0.890059 0.632747 -0.974935 -0.208687 0.186383 -0.940377 0.640156 0.058570 0.863582 -0.364350 0.231401 0.241610 0.642263 -0.188400 0.677572 -0.104892 0.739477 0.488131 0.813266 -0.199637 -0.532233 0.647229 -0.189228 0.394347 -0.036881 0.500204 -0.755875 -0.748371 0.399401 0.711030 0.597353 -0.593723 -0.857677 -0.531143 0.652894 0.786266 0.898085 -0.466474 -0.720575 -0.365568 0.760200 0.432812 -0.495629 -0.639346 -0.805898 -0.767518 -0.101356 0.344789 -0.194343 0.662757 -0.024153 0.243273 -0.790282 -0.716301 0.637968 0.137424 0.464401 -0.876163 0.029466 -0.661094 0.419827 -0.391693 0.616064 0.963407 0.689285 -0.263257 -0.919372 0.264506 -0.245594 0.262769 -0.065225 0.642897 0.318013 -0.083549 0.296118 0.792149 0.784420 -0.567666 -0.976033 -0.650667 0.611198 0.697792 0.173350 0.731015 -0.068006 0.840042 0.431539 -0.967468 0.481815 -0.408021 0.898669 0.604606 0.332117 0.270699 0.082995 -0.144675 0.859018 -0.876419 -0.915138 0.680389 -0.129205 0.257671 -0.837613 0.371994 0.891610 -0.954083 -0.547028 -0.859374 -0.451443 -0.142143 -0.774474 -0.191298 -0.374579 0.230227 0.689446 0.726065 -0.027270 0.652423 -0.181580 -0.530666 -0.049688 -0.180058 -0.948233 0.414006 0.626964 -0.600338 -0.731738
-0.187659 0.236614 -0.292999 0.567226 0.568286 -0.370000 0.399364 0.035527 -0.208499 0.413609 -0.478277 -0.116505 -0.087140 -0.101228 0.925039 -0.618774 0.185675 -0.925132 -0.864552 0.138464 -0.828517 0.872823 0.979250 0.993734 0.233514 0.716884 0.641374 -0.774682 -0.804066 0.072931 0.964807 -0.787605 0.100710 -0.353849 0.434315 -0.013037 0.570880 -0.243632 0.744943 -0.703215 -0.252928 -0.192359 0.624185 0.030420 0.345791 0.303276 -0.027042 -0.577488 0.873456 0.622423 -0.752524 -0.138367 0.099319 0.008475 0.555316 -0.685688 0.457510 -0.434456 0.126915 0.649105 -0.126041 0.697203 -0.885674 -0.175789 0.999437 0.754216 0.149122 -0.346218 -0.371913 0.576546 0.444138 0.396927 0.714251 0.923982 0.529546 0.362347 0.156008 -0.034160 0.982902 -0.039638 -0.537970 -0.168628 -0.175268 0.557777 0.906747 -0.712164 -0.810733 -0.034944 0.521649 0.113561 0.791845 0.269452 -0.860389 -0.518417 0.582221 0.498979 0.475269 -0.216390 0.703141 -0.248641 0.659856 -0.809917 0.161394 0.976333 -0.940152 -0.568337 0.867186 -0.969431 -0.909976 -0.954119 0.188199 -0.563956 0.835186 0.783910 0.414472 0.718932 -0.426526 -0.167948 -0.719498 -0.974969 -0.151063 -0.538820 0.139615 -0.039848 -0.972799 -0.090107 -0.124101 0.221924
-0.831480 -0.338395 0.429248 -0.851921 0.325697 0.514107 0.933582 -0.929824 0.129669 0.855119 -0.261684 -0.829719 -0.900157 -0.338480 -0.870354 -0.825274 0.847289 0.215560 0.799637 -0.939564 -0.188721 -0.762367 0.623257 0.682173 0.103130 0.446129 0.670623 0.101737 0.178441 -0.749437 -0.055128 -0.347913 0.439479 0.237865 -0.357502 -0.074262 -0.104147 -0.042108 -0.127669 0.981275 -0.465486 0.776412 0.138654 -0.983421 -0.275829 -0.405463 -0.609113 0.688748 -0.327518 -0.583705 -0.232586 -0.174891 0.500558 -0.434044 -0.544820 -0.756731 -0.120861 0.535327 0.145067 -0.357427 -0.191702 0.362145 -0.870661 0.515529 0.782714 -0.136715 0.875459 -0.446464 0.271200 -0.967696 0.841539 -0.768713 0.560339 0.688715 -0.064907 -0.990034 -0.061675 -0.284074 -0.989182 0.909036 -0.730615 0.392118 -0.017930 -0.670047 0.295111 0.629748 0.956076 -0.864230 0.861718 0.217056 -0.568915 -0.638800 0.746746 0.176617 0.265565 -0.074355 0.778553 -0.549537 0.113281 0.066194 0.964001 0.915148 -0.140335 -0.041257 0.783177 -0.228014 -0.745271 -0.736191 -0.212179 -0.032825 0.452613 -0.290131 -0.779820 0.278441 0.904442 -0.436761 0.972504 0.081685 0.276223 -0.761346 -0.063885 -0.255943 -0.771867 0.488296 0.752757 -0.892834 -0.799340 -0.657739
0.377616 0.029414 -0.118890 -0.537496 -0.305410 -0.297414 -0.559597 -0.105953 0.670719 0.274084 -0.057283 -0.530615 0.546076 -0.259548 -0.955230 0.746745 0.428307 -0.808998 0.882365 -0.712905 0.749625 -0.954534 -0.304215 -0.288278 0.283627 0.175517 -0.472152 -0.584071 0.519651 -1.005296 0.322159 -0.786329 0.841300 -0.561458 -0.869401 0.624192 -0.798672 -0.184592 0.464700 -0.586845 -0.401672 0.122324 -0.440818 -0.151615 0.329542 0.658399 0.446461 -0.585952 -0.588571 0.794865 -0.261249 0.520587 -0.842517 -0.068524 -0.789455 0.640143 0.730868 -0.584401 -0.926217 -0.262812 -0.133723 0.351819 -0.515475 -0.087826 0.121772 0.650194 -0.257305 -0.360320 -0.311729 0.402696 0.513136 -0.230292 -0.743993 0.969749 0.835821 0.443818 0.811129 -0.051477 0.042068 0.376043 -0.748664 0.531388 0.333482 -0.990754 0.637913 -0.199740 0.212791 -0.190365 -0.028692 0.353783 -0.892820 -0.048176 0.013382 -0.116315 -0.357525 0.357245 -0.380311 -0.864781 0.720271 0.174165 0.825468 -0.879385 -0.941085 0.905841 0.346260 -0.027286 0.679988 -0.637716 -0.476967 -0.971167 -0.240253 0.877710 -0.606662 0.111822 0.064099 -0.238130 -0.819419 0.783632 0.607517 0.631934 0.941010 0.835167 0.879728 0.843603 0.281289 -0.908011 0.582367 -0.078571
0.858302 -0.268725 0.566135 -0.529464 -0.755046 0.574808 -0.186144 0.237453 -0.678118 -0.369425 -0.309871 -0.562385 0.457931 0.832220 -0.136744 0.092326 -0.635113 0.815298 0.927650 -0.004357 0.819658 0.515141 0.010910 0.355405 0.436000 0.381597 0.113215 0.483048 -0.880425 0.747981 -0.357601 -0.736476 0.215133 -0.391640 0.265987 0.571204 -0.722262 0.660611 -0.954254 0.622976 -0.198456 -0.665431 -0.882617 0.375656 -0.924082 0.508431 0.626522 -0.783512 0.618468 0.441548 0.431074 -0.274330 0.545271 0.646232 -0.713125 0.810194 0.987837 -0.337660 -0.153379 0.520638 -0.066857 0.736209 0.752144 -0.509872 0.824299 -0.539990 -0.936992 0.649961 0.596334 0.567552 0.364272 0.887211 0.561156 -0.231333 0.424218 0.723827 0.923848 -0.464820 0.281815 -0.580859 -0.785794 -0.098584 -0.318363 0.152535 -0.069406 0.828733 -0.443866 -0.247286 0.595637 0.456917 -0.389025 -0.868432 -0.854808 -0.842037 0.156241 0.987985 -0.942976 0.457028 -0.097755 -0.695109 0.614373 0.287689 -0.315181 0.500068 -0.848372 -0.932838 -0.248490 -0.465237 -1.016897 0.217184 -0.750785 -0.922845 -0.156415 0.954080 0.018081 0.317422 -0.983901 -0.135957 -0.289665 0.342382 -0.640348 0.474982 -0.894531 -0.919242 -0.116403 0.964166 0.487317 -0.430295
-0.240645 -0.873350 0.912130 0.243838 0.546641 -0.629934 -0.747293 0.700545 -0.261952 -0.150879 0.017310 -0.144656 0.429790 0.867653 0.061639 -0.591099 -0.657440 -1.003387 -0.788093 0.743406 -0.036595 0.947392 -0.322733 0.467638 0.950965 0.070634 0.822938 -0.966803 -0.615744 -0.813685 0.211193 0.503881 -0.158189 0.102376 -0.194721 -0.918535 0.291291 -0.472195 -0.899811 0.083140 -0.042953 -0.649416 -0.102001 0.343422 -0.691369 0.782414 0.688203 -0.027886 0.527251 0.058460 0.860816 -0.022483 0.447952 -1.002671 -0.719769 -0.066449 0.168283 0.660963 0.454230 -0.405802 -0.208152 1.086229 0.563477 -0.896312 0.202092 0.487470 -0.486789 -0.730670 -0.810412 -0.147989 0.794181 -0.957958 0.800692 0.208295 0.322321 -0.494022 0.771978 0.913101 -0.062537 0.314607 -0.264569 -0.711098 0.014344 -0.715047 0.627497 -0.494496 -0.275653 -0.527083 0.341846 0.046568 0.970444 0.907214 -0.356340 0.100024 0.216667 -0.581004 -0.259400 0.863244 0.375849 -0.348837 0.860733 0.682182 0.541358 0.344986 -0.710418 -0.722849 -0.213887 -0.622019 0.513281 0.326349 0.289881 0.277968 0.255459 0.492634 -0.309430 0.827678 0.491154 0.083365 -0.703780 0.595139 -0.761789 0.291207 0.262854 0.089324 1.027602 -0.700530 -0.904142 0.777355
0.790806 -0.912158 -0.465866 -0.996259 0.849861 -0.782296 0.012553 0.680346 0.565723 0.970716 0.956986 -0.381442 0.970248 -0.943960 -0.371669 0.314991 0.035767 -0.381091 0.220753 -0.464902 -0.941189 -0.394672 -0.280341 -0.538778 -0.879462 0.823507 -0.801925 -0.004074 -0.472116 -0.027287 -0.261591 -0.352344 0.661106 -0.783284 0.015411 -0.140518 0.323724 -0.884312 -0.711733 0.582240 0.223499 -0.266022 0.338562 0.048701 0.666691 -0.442720 -0.953617 -0.640626 0.622385 -0.034621 -0.291585 -0.107183 -0.769438 0.186806 -0.864906 -0.925798 0.962145 0.100698 -1.001142 -0.318460 -0.928634 -0.413158 -0.500030 -0.708870 -0.002586 -0.599239 0.724539 -0.870142 0.123298 0.961709 0.039000 -0.028776 0.979333 0.404686 -0.031592 0.919929 0.572712 -0.755899 0.522074 -0.760264 0.889919 -0.726029 -0.111335 0.699817 0.108322 -0.005138 0.107000 0.805336 0.683901 -0.883545 -0.871147 -0.278038 0.328830 -0.236475 -0.396462 0.856970 0.722401 -0.797697 0.641890 -0.674173 -0.012104 -0.174112 -0.153501 0.565746 0.969504 0.655791 0.175769 0.562221 -0.148315 0.277525 0.120006 0.404596 -0.989412 -0.056313 -0.819102 -0.585828 0.800607 -0.868539 -0.061420 0.896109 0.424467 -0.298184 -0.550639 0.064140 -0.072172 -0.422435 -0.146090 0.039645
0.407639 -0.621264 0.590081 0.912392 -0.925247 0.094434 0.933496 -0.019033 0.007450 0.826898 -0.090678 -0.294429 0.515259 0.160827 -0.429472 0.705180 -0.174753 0.208355 -0.586215 -0.627902 0.372412 0.061670 1.134934 0.537634 0.737103 -0.109229 -0.415996 0.416869 0.602187 -0.794291 -0.092153 0.616641 0.393523 -0.246957 0.048276 -0.673938 0.326897 0.674894 -0.328443 0.053384 0.249488 0.830942 -0.375414 -0.928388 0.200097 -0.659657 0.536478 0.620717 -0.754480 -0.968451 -0.389585 -0.489138 0.451883 0.108360 0.896935 0.602665 0.544947 -0.671120 0.539991 -0.793536 -0.064358 0.108174 0.575768 -0.462454 -0.498338 -0.464056 0.136493 -0.726362 -0.338468 0.503214 0.606037 0.092320 -0.955855 0.720553 0.800457 0.785793 0.493675 0.183488 -0.131906 -0.254951 0.795771 0.085610 -0.548931 -0.319742 0.369844 0.285846 -0.699747 -0.672498 0.915723 0.552766 -0.339281 0.560221 -0.985394 0.181657 -0.200241 0.985257 -0.393666 -0.224390 -0.127513 -0.200237 -0.401482 0.395485 0.025813 -0.171170 -0.970813 -0.347484 -0.031212 0.175534 -0.701969 0.783161 0.404068 -0.073321 -0.270889 0.313912 0.154608 -0.093213 -0.288767 0.509775 -0.169418 -0.279723 0.194586 -0.603031 0.454984 -0.343401 0.050736 0.797081 -0.496641 -0.577928
0.849944 -0.326264 0.617126 -0.173667 -0.806617 0.650687 0.604484 -0.406610 0.898228 0.695620 -0.533575 0.296449 -0.383518 0.940894 0.690943 -0.346554 0.972124 0.026403 0.284751 0.123645 0.412971 -0.115798 -0.529761 -0.765392 0.196148 0.878749 0.397046 0.138985 -0.639836 0.485677 0.537690 0.792463 -0.129309 0.298675 0.337703 -0.186336 -0.171040 0.968139 0.641910 0.164470 -0.507042 -0.702811 -0.533616 0.155184 0.161267 0.727506 0.620763 0.740874 -0.008945 0.582031 0.606647 -0.196045 -0.224919 0.203145 0.823596 -0.422979 -0.881941 -0.774978 -0.549401 0.101955 0.507745 -0.576531 0.070639 0.465226 -0.305797 0.848689 0.632084 0.585408 -0.764983 -0.497016 -0.731113 0.971942 0.947216 -0.609666 0.611135 -0.199325 0.647383 -0.205658 -0.491256 -0.812496 0.476711 0.787372 0.613368 0.926956 0.735416 0.755029 0.525414 0.079734 -0.601649 0.781755 0.516000 0.241441 0.288621 -0.519672 0.822507 0.128985 -0.335414 -0.801563 -0.629950 0.207806 -0.468155 -0.499902 0.551877 0.180503 0.698015 -0.996735 -0.826348 -0.749514 -0.923402 -0.514197 0.582124 0.380471 0.376390 0.156700 0.734290 0.422458 0.609545 -0.938271 -0.031750 -0.632158 -0.195486 0.307670 -0.134924 -0.963317 0.219722 -0.146683 -0.457321 0.179032
-0.368104 0.728709 0.015978 0.867879 0.556802 0.130160 0.701610 0.106862 0.875346 -0.112821 -0.786712 -0.626965 -0.936653 -0.796536 0.066110 0.428314 -0.240142 -0.313493 -0.293231 0.837782 -0.033311 -0.757311 0.284590 -0.124364 0.895482 -0.855690 -0.443326 -0.345356 -0.068132 0.690196 0.941887 0.883019 0.573006 0.174127 0.916513 -0.810398 1.044540 0.184719 -0.526510 -0.056892 0.318762 0.222572 -0.012141 0.006723 0.985845 -0.735884 0.937020 -0.640965 -0.511832 -0.420240 0.119098 0.084435 0.734262 0.502964 -0.091656 0.110432 0.618444 0.251335 -0.958012 -0.257865 -0.373332 -0.545249 0.566802 0.423466 -0.358940 0.609516 -0.134072 0.569095 0.721189 0.904631 -0.652610 0.443235 -0.006511 0.750045 0.247834 0.129966 0.470633 0.737424 -0.561571 0.494544 0.558977 0.934146 0.786439 -0.708936 0.035401 0.505304 0.503289 0.056150 -0.499729 -0.082699 -0.884134 -0.998547 0.577073 0.412600 0.879565 0.221737 -0.287389 0.703231 0.649551 -0.961323 0.093766 -0.478071 -0.650853 -0.195494 -0.484230 -0.822679 -0.144985 0.715475 -0.219113 0.920033 -0.241938 -0.751090 0.303600 0.133239 -0.797441 -0.558233 0.446921 0.670559 0.927030 -0.399203 -0.886202 0.683911 -0.767424 -0.617321 0.325324 0.094064 -0.941797 -0.557640
-0.798622 0.469243 0.812967 0.490564 0.853728 -0.069189 0.426355 0.623831 -0.088617 -0.961137 -0.898573 0.328051 0.937088 -0.948215 -0.196169 0.773093 -0.717844 -0.535766 0.303554 0.196042 0.953739 -0.016913 -0.684365 0.825783 -0.711246 -0.775060 -0.526986 -0.601078 0.783552 -0.644578 0.903288 -0.150377 0.371799 0.314635 -0.809707 -0.557525 -0.293911 -0.157126 0.887708 0.571846 0.895631 0.122430 -0.786516 -0.659589 0.282915 0.870267 0.082480 -0.278739 -0.865652 0.441383 -0.768779 0.002724 -0.292010 0.795400 0.799159 0.259968 -0.996666 0.265094 -0.520840 0.830678 -0.772547 0.293956 -0.846905 0.282303 -0.824310 -0.147492 0.800559 -0.826223 -0.493957 -0.443498 -0.273949 -0.276219 -0.120386 0.733578 0.160649 -0.506651 0.593296 -0.086533 0.880339 -0.399007 0.624067 -0.069676 -0.727449 0.075713 0.000790 0.145895 -0.392393 -0.711110 0.937764 0.949666 0.026678 0.916168 -0.718823 -0.381757 0.269160 -0.001576 0.937829 0.652085 0.861728 -0.927574 -0.408747 0.158567 0.739352 0.827350 0.182566 0.653752 -0.618357 0.175932 0.458632 -0.786051 0.147116 0.876025 -0.348267 -0.194369 0.936701 0.276066 -0.187200 0.271200 -0.693930 -0.536157 -0.694370 -0.832607 -0.850737 -0.996603 -0.458634 -0.365188 -0.560331 0.139326
-0.653403 -0.954637 0.906570 -0.010367 -0.227494 -0.224974 -0.446379 -0.870440 0.194815 0.448413 -0.590676 -0.897212 -0.070537 0.460672 -0.458288 0.115724 -0.272918 0.305451 0.385512 0.718687 0.938323 0.799098 0.297347 -0.092127 0.051543 -0.776943 0.307301 0.776295 -0.641533 0.013669 -0.189169 -0.114559 -0.339540 0.626256 0.523406 -0.513494 -0.700253 0.984129 0.719879 0.333370 0.636413 0.662579 -0.071967 0.473657 -0.595399 -0.798289 -0.275789 0.919779 0.471474 0.450786 -0.681958 0.982637 -0.690124 -0.716102 -0.530796 0.750529 0.035789 0.063533 0.966163 0.965074 -0.880623 -0.914100 -0.838144 -0.491561 0.063983 0.359047 0.339288 -0.211421 -0.456723 -0.047270 0.563024 -0.785437 0.332398 0.486995 0.365093 -0.372993 -0.225395 0.976120 0.224236 -0.951157 0.568605 0.737601 0.193736 0.482624 0.563224 -0.076038 -0.521764 -0.081195 0.049811 -0.553788 0.075212 -0.720882 0.646953 -0.716426 -0.864522 -0.186003 -0.364669 0.205638 0.940251 0.059428 -0.759524 0.389755 -0.023453 0.631602 0.602990 0.153986 0.530819 0.287284 0.175308 0.653008 0.851682 -0.582296 0.681546 0.450300 0.071300 0.369020 0.237104 -0.480919 -0.622594 -0.792173 -0.622685 -0.994600 0.468707 0.801624 -0.035818 -0.850456 0.242765 0.655657
-0.443275 -0.601558 -0.011294 -0.433504 -0.224353 0.004474 0.499415 0.094964 0.556626 -0.831591 -0.352960 -0.057393 0.023769 -0.867411 0.934517 -0.342516 0.734263 0.967012 0.700604 -0.390922 -0.029881 0.976033 0.343457 0.580486 -0.813841 0.650604 -0.353637 0.708816 -0.898248 -0.456474 0.442796 -0.384698 0.013456 0.245305 -0.495877 -0.296469 -0.517075 0.874110 0.568425 0.353007 0.039557 0.570647 -0.293009 -0.891611 0.998737 -0.285232 0.137397 0.674189 0.727454 0.193333 0.064239 -0.392237 0.035546 -0.212137 -0.529438 0.755475 -0.688468 -0.817150 0.136731 0.209886 0.555667 0.400001 -0.257948 -0.479382 0.275455 -0.492196 -0.498096 0.548038 -0.435157 0.008200 0.566999 0.265901 -0.103753 -0.280694 0.244389 0.279365 0.926820 0.105454 -0.634625 0.378218 0.044591 0.097712 0.566464 -0.040437 -0.021848 -0.840067 -0.688131 -0.004192 0.606316 0.275483 -0.630494 -0.170634 -0.699157 0.006434 0.805929 -0.118308 -0.161952 -0.556567 0.082786 0.226786 -0.096463 0.342731 -0.975735 0.190363 0.919001 0.370199 0.480739 -0.696375 0.511229 0.126214 -0.912702 -0.926221 -0.865503 -1.024703 0.495330 0.558887 0.452495 -0.912453 -0.684839 -0.484059 0.030656 -0.760153 0.053386 -0.913701 0.646598 -0.236083 0.128924 0.004928
0.171529 0.072277 0.065767 -0.957064 -0.929204 -0.635544 -0.088075 -0.243062 -0.315475 0.198274 0.903133 0.784412 0.148149 -0.082357 -0.436391 -0.111035 0.748776 1.015521 -0.081255 -0.935435 -0.445816 -0.139176 0.693809 -0.457773 -0.053815 -0.191161 0.777205 0.083689 -0.120076 0.630817 0.482316 -0.581325 0.886456 -0.520822 0.263967 0.032956 0.538740 -0.669821 -0.561862 -0.423004 0.046555 -0.142387 1.011854 -0.585068 -0.764816 0.707915 -0.236155 -0.309310 -0.295091 0.231351 -0.255907 0.936001 -0.181046 -0.288637 -0.639279 0.563093 -0.907493 1.024527 -0.129803 0.349549 -0.986733 0.884819 -0.890023 0.323382 0.164194 0.228568 -0.342459 -0.155945 -0.631127 -0.999388 -0.019885 0.003975 -0.088379 -0.116616 0.174225 -0.966884 0.810322 -0.437029 -0.663037 0.380520 0.426714 -0.870508 0.610313 -0.529365 -0.486172 -0.117303 -0.887232 0.151084 0.363814 -0.825644 0.284188 0.757376 0.911531 -0.274043 0.254071 -0.733202 -0.559158 -0.635198 -0.840453 0.023285 0.945240 0.431244 -0.494567 0.648998 0.637461 -0.197293 -0.736132 -0.222314 -0.531499 0.721499 -0.453244 0.735339 -0.348314 0.069262 -0.853254 -0.087985 0.735604 -0.092390 0.962275 -0.572891 -0.458603 0.629491 0.517352 0.344311 0.862964 0.118251 -0.248270 -0.613126
-0.536739 0.321404 0.578498 0.666536 -0.343107 -0.168220 0.192538 0.626596 -0.597896 -0.349851 0.814238 0.058567 -0.124800 -0.159774 -0.653884 -0.531775 0.641107 -0.130093 0.374585 0.405333 0.708364 0.924131 0.862349 -0.502740 -0.366451 -0.038942 0.091166 0.352552 0.692093 0.581592 -0.134452 -0.235643 -0.080171 0.501336 -0.884148 -0.918326 -0.358300 0.572360 0.564897 -0.721870 -0.066630 -0.039644 0.853013 0.285906 -0.899742 -0.509225 -0.720698 -0.113292 0.743604 0.415603 0.728969 -0.758331 -0.934975 0.701832 -0.745833 0.107235 -0.297156 0.053393 0.079330 -0.063781 -0.736831 -0.373831 0.884714 0.110175 0.093042 0.719599 0.944616 -0.249804 -0.981184 0.190747 0.102033 -0.719975 -0.333111 -0.623134 -0.590184 0.211875 0.706077 -0.686654 -0.870976 -0.716085 -0.841059 -0.450790 -0.761519 0.011453 0.200277 -0.492623 -0.288000 -0.867362 0.502170 0.771235 -0.696479 0.857535 0.070124 -0.912832 0.721966 -0.648030 -0.529480 -0.544773 0.495488 -0.566531 -0.658847 0.351004 -0.592499 0.595809 0.883151 -0.489133 0.274292 0.091451 0.388286 0.917192 0.451013 0.771774 0.545552 0.952181 -0.193798 -0.351654 -0.629354 0.284491 -0.337266 0.822107 0.221633 0.837685 -0.553830 -0.427501 0.051506 -0.831940 -0.163905 -0.995409
0.056120 -0.678410 0.376283 0.533635 -0.097990 0.602185 -0.170596 -0.427843 -0.664635 0.303062 0.981355 0.575936 -0.108590 0.216212 0.314615 0.042510 -0.665322 0.080864 -0.709083 -0.082693 0.196287 -0.552886 -0.563330 0.875900 -0.940888 0.008335 0.276391 -0.996949 -0.818936 -0.967152 -0.244922 -0.927047 0.609922 0.732389 -0.915928 0.154351 0.123413 0.083003 0.079057 -0.617656 -0.733723 -0.510597 -0.222186 -0.616144 0.703663 0.017724 -0.374496 -0.743535 -0.761698 -0.109853 -0.351799 -0.872133 -0.295292 -0.508501 -0.892651 -0.184851 0.185415 -0.071819 0.540975 0.066877 -0.246999 -0.016315 -0.036051 1.033480 -0.000427 0.067185 -0.434640 -0.390263 0.934987 -0.500941 0.770214 0.464677 0.308620 -0.055482 0.753393 0.080320 0.746178 -0.953572 -0.652914 0.134224 0.186751 -0.821698 -0.506498 -0.084285 -0.114496 0.772046 -0.147182 0.673361 -0.303116 -0.194413 -0.008957 -0.226034 -0.494002 0.852383 0.985067 -0.549237 -0.206967 -0.403290 0.853944 -0.290166 0.029045 -0.888269 0.013714 0.603984 -0.416811 -0.549971 -0.846370 0.696047 0.895877 0.131927 0.464234 -0.160841 0.907941 0.830740 0.977425 -0.804411 0.574009 0.972814 -0.092258 -0.641857 0.569418 0.722634 -0.861633 0.333554 0.294205 -0.412933 -0.785221 0.892763
-0.403663 0.941386 -0.801189 0.215773 -0.272410 0.202993 -1.049315 -0.897611 0.448884 0.519724 -0.707142 -0.064872 0.653089 0.827523 -0.893762 -0.188746 -0.940766 -0.873627 -0.333938 0.343217 -0.287532 0.061543 0.868948 -0.345925 0.847869 -0.624406 0.339948 0.034316 0.604373 0.205495 0.514191 -0.283756 -0.385335 0.340186 -0.197395 0.707867 -0.373818 -0.980012 0.196229 0.022637 -0.671624 0.491873 -0.518341 0.035606 0.046196 -0.339529 0.038863 -0.796565 -0.161120 -0.359901 0.171503 0.520863 0.159573 -0.660712 -0.622831 0.223311 0.883872 0.489505 0.332820 0.790238 0.695293 0.786593 -0.196022 -0.523065 0.999941 -0.029656 -0.762563 0.102085 -0.928014 -0.277745 0.916163 -0.666432 -0.648538 -0.527776 0.526930 0.333503 0.532461 -0.929448 -0.591463 -0.817412 -0.835217 0.504905 -0.748081 -0.517991 0.190970 -0.090345 -0.482598 0.705201 0.229582 -0.485594 0.905385 0.733423 -0.122234 -0.713407 0.390683 -0.941341 0.301908 -0.353853 -0.277897 0.351550 0.727868 -0.991370 -0.176954 -0.069302 -0.676244 -0.436504 -0.512443 -0.514291 0.900203 0.615278 0.524747 0.935220 0.120469 -0.343995 -0.345501 0.721317 -0.840574 -0.427360 -0.884811 0.105218 -0.251135 -0.597431 0.828918 -0.549468 0.022946 0.332253 -0.870752 -0.557585
0.365053 0.660885 0.701672 0.649275 -0.513727 -0.043377 -0.672783 0.643747 0.298089 -0.700295 -0.962245 -0.824492 0.088900 0.169307 0.875170 -0.495134 0.202512 -0.798920 0.854061 0.108234 -0.811270 -0.472171 -0.290481 -0.670384 0.369036 -0.943957 -0.744868 0.775864 0.963880 0.834661 -0.105014 -0.693618 -0.265758 0.642609 0.901735 -0.769838 -0.567251 0.477544 -0.341710 0.747468 -0.975738 0.970761 0.010917 -0.704069 -0.595287 0.909396 0.730819 0.214880 -0.910236 -0.376020 0.754683 0.903376 -0.718665 0.533769 -0.690993 0.658046 0.018223 0.467986 0.615012 -0.351740 -0.454844 -0.448781 -0.870755 0.282789 0.658086 0.077539 0.574323 -0.067683 0.257273 0.321447 0.186195 0.340702 0.983431 -0.760577 -0.819880 0.295535 0.547698 0.309047 0.376247 0.764556 0.773046 -0.467027 -0.762464 0.938029 0.352211 -0.931757 -0.006561 0.983670 0.690824 -0.830053 -0.067287 0.877709 -0.133321 0.945843 0.412155 0.924247 -0.573805 -0.711086 0.291096 -0.676024 -0.551246 0.379038 0.976870 -0.164081 0.162112 0.636732 -0.830961 -0.284528 0.944390 0.990619 0.893321 0.842551 -0.925467 0.517594 0.024026 0.420074 -0.630893 0.809639 0.857535 -0.114107 0.646534 0.470608 -0.192258 -0.438129 -0.177554 0.650534 0.520231 -0.088203
0.593658 -0.487496 -0.131332 0.967031 -0.662821 0.615862 -0.445520 0.937953 0.343566 0.153340 -0.052797 0.545131 -0.861302 0.768278 -0.157382 0.775202 -0.778438 0.911843 0.572464 -0.924707 0.081037 0.607296 0.533984 -0.411490 -0.766932 -0.856014 0.364976 0.573668 0.786695 0.701684 0.681174 0.273692 0.269176 0.991372 0.214713 0.112864 -0.983644 0.727221 0.218867 -0.466263 -0.858206 0.463355 -0.227625 0.358777 0.201819 0.533673 0.673185 0.805379 0.054170 -0.207223 -0.577314 -0.213382 -0.262589 -0.404239 0.585071 -0.959536 0.227908 -0.527041 -0.720195 -0.133766 -0.958840 0.919366 0.804183 0.116345 -0.655355 0.499783 0.961282 0.955669 0.140284 0.609921 0.938682 -0.124295 0.199246 -0.080192 -0.491926 -0.835681 0.172955 0.285933 0.709454 0.201049 -0.089317 -0.052346 -0.200490 -0.168740 0.400058 0.765763 -0.377616 0.103469 -0.776015 0.373086 -0.281294 0.426705 -0.374014 0.586409 -0.892339 0.969785 0.456954 0.104294 0.146154 0.041052 -0.167507 -0.054080 -0.290561 -0.793319 0.485677 0.418497 -0.717918 -0.331361 0.639096 -0.844511 0.605110 0.779615 -0.426932 0.669230 0.725424 0.385672 -0.267522 -0.063816 -0.976531 -0.360156 0.805102 -0.103972 -0.056300 0.078901 -0.821603 -0.562633 -0.766618 -0.325777
-0.778808 0.770442 -0.297178 0.317194 0.722862 -0.308140 -0.723011 0.374562 -0.386950 0.731192 0.701636 -0.703903 0.006926 0.433831 -0.145559 0.492942 -0.792596 -0.387665 -0.677551 -0.249321 0.373671 -0.987821 -0.162544 0.952706 -0.340954 0.382462 0.031843 0.609348 -0.455441 0.473828 -0.283849 0.403233 -0.212710 -0.132546 -0.066258 -1.004673 0.059407 -0.577669 -0.418763 0.126323 -0.608979 -0.329820 0.443106 -0.594548 -0.277961 -0.324052 -0.797554 0.304223 0.439749 0.460871 -0.614633 -0.161748 0.072311 0.535241 -0.298200 -0.003297 -0.659794 0.021480 0.369924 -0.646393 -0.838537 -0.682447 -0.629865 0.710671 0.121386 -0.701988 0.793808 -0.557352 -0.481564 0.494436 0.000609 -0.370393 -0.612147 -0.637098 -0.065985 -0.420145 -0.916754 -0.310637 -0.542414 0.728957 -0.147602 -0.857533 0.757379 -0.130508 0.289899 -0.815807 0.860007 0.494262 0.184416 0.745982 0.578651 0.128334 0.603630 -0.551545 -0.778619 0.656013 0.398072 -0.936543 -0.450207 -0.034843 0.916948 0.531018 -0.251844 -0.562951 -0.294103 0.282431 0.070142 -0.534374 -0.854439 0.579882 -0.953181 0.004064 0.891659 -1.001558 0.467107 0.124947 0.354033 -0.667812 0.777812 -0.879649 0.829164 0.896529 -0.830731 0.152173 -0.721677 0.201469 -0.279682 0.281109
-0.199786 -0.033221 0.797373 0.674978 0.591424 0.375686 -0.362760 0.954593 -0.291781 -0.929655 -0.654242 -0.810292 -0.186971 -0.814399 -0.061357 1.000368 -0.168218 -0.603421 0.110788 -0.630618 -0.063400 -0.544847 -0.621712 0.026100 -0.481753 0.270743 -0.348822 0.814988 -0.358636 0.297590 0.040037 -0.878375 -0.426941 -0.535848 -0.802811 0.112679 0.017903 0.815695 -0.806636 -0.435176 0.921193 -0.484778 0.018223 -0.197975 -0.947595 -0.061997 -0.161771 -0.949699 0.375642 0.298319 -0.807284 0.696391 0.103950 0.757069 0.149046 0.812258 -0.850364 -0.432401 0.013234 0.073273 -0.998362 0.605258 0.452495 -0.360161 0.493490 -0.849837 0.757720 0.148311 0.077945 -0.518971 0.562418 0.897646 -0.655513 0.783755 -0.179812 -0.758716 -0.952699 -0.991982 0.379031 0.830576 -0.328411 -0.994540 -0.215119 0.434250 -0.536963 -0.899394 -0.530305 0.454997 -0.166461 0.128156 0.947183 0.036582 0.715885 0.797320 -0.935860 -0.743139 0.373533 0.420114 0.467463 0.983620 0.785195 -0.925608 -0.201657 -0.305693 -0.234768 0.021612 -0.656220 0.923519 0.027488 0.883018 0.957347 -0.344652 -0.210895 -0.400063 0.235146 0.238172 0.028749 -0.160000 0.794935 -0.894328 0.326194 -0.861070 0.266745 -0.785261 -0.249040 -0.559042 0.822229 0.126223
0.793575 -0.167444 -0.040069 0.454844 -0.511654 -0.436499 0.222252 -0.064863 0.541759 0.306749 0.366539 0.222451 0.354995 -0.312933 0.240917 0.435046 -0.719243 -0.772442 -0.310942 -0.526846 0.275754 -0.224498 0.447910 -0.239722 0.246361 0.292783 0.717140 -0.834728 0.477903 0.799193 1.011351 0.837071 -0.838190 0.181436 0.730139 0.187204 0.652615 -0.524695 -0.011004 0.286275 -0.498703 -0.767184 0.560436 0.117711 -0.828318 0.197217 -0.497827 0.388199 0.907504 -0.595087 0.796714 -0.988435 0.578845 0.966672 0.329851 0.976425 -0.018619 -0.867289 0.250414 -0.590412 0.239381 -0.560446 0.971583 -0.836069 -0.475282 -0.000489 -0.022305 0.352128 -0.636790 0.522834 -0.040567 -0.202929 0.782777 -0.128796 -0.777188 0.417648 0.164810 -0.039542 -0.603749 -0.032066 -0.721869 -0.423537 0.163593 0.590471 0.828234 0.077094 -0.586614 0.889959 0.120740 -0.114126 0.491239 0.453805 -0.934797 0.335695 -0.557983 0.840542 -0.981768 0.732768 -0.475151 -0.198329 -0.269884 -0.653576 0.022386 0.479877 0.417739 -0.180934 0.929860 -0.873189 -0.351281 -0.174641 0.673261 -0.243909 0.200717 0.270553 -0.303776 -0.503345 0.600432 -0.960329 -0.669731 -0.213430 0.903372 -0.017913 -0.905445 -0.516028 0.729325 -0.636612 0.793930 -0.408426
-0.821921 -0.915013 -0.830586 0.306067 0.694387 -0.332162 0.515128 0.208395 -0.652263 -0.733277 -0.393005 -0.586947 -0.182072 0.623510 -0.233052 -0.083448 0.553592 -0.294316 0.540060 -0.932697 0.447692 0.916337 -0.167613 -0.981610 -0.063800 0.569166 0.128118 0.465665 -0.754122 -0.981600 0.585601 -0.079054 0.778799 0.371258 -0.603648 0.804656 -0.255121 -0.761152 -0.942295 -0.064092 0.404297 0.746163 -0.202186 0.624622 0.427982 -0.445616 0.154453 -0.515307 -0.429409 0.585487 -0.036347 -0.178430 0.369383 0.593365 -0.706223 0.140970 -0.274658 -0.590856 0.120449 -0.138201 0.844239 -0.363306 -0.541976 0.148356 0.542310 0.641100 0.261502 0.885596 -0.262251 -0.680281 0.396065 -0.117338 -0.401075 0.534546 -0.212116 0.121279 -0.024436 -0.629412 0.322445 0.943767 0.453036 -0.134712 0.585529 -0.981880 -0.429146 -0.083903 0.133543 -0.658386 0.576440 -0.159358 -0.901742 -0.052815 -0.804127 0.895117 -0.707417 -0.012694 -0.442244 0.435348 0.262399 -0.331850 -0.957849 -0.760874 0.369495 -0.506435 -0.425227 0.475575 0.700965 0.960361 0.054716 -0.410161 0.134577 0.528223 -0.204174 0.917065 -0.139915 -0.319932 -0.333592 0.230198 0.442074 -0.470158 -0.131643 -0.240333 -0.364470 0.074805 0.745402 -0.929774 0.684318 0.809438
-0.352134 -0.761532 0.449895 -0.396760 -0.877687 0.645416 0.584209 0.278900 -0.918418 0.110845 0.777134 -0.458268 -0.467453 -0.879964 0.312924 0.246751 0.588635 0.167604 0.699101 -0.982152 -0.256130 0.723349 -0.556526 -0.299597 -0.000632 -0.909717 0.939287 0.262093 -0.587393 0.811900 0.294803 -0.805668 0.844401 0.514001 0.812766 -0.370766 0.962451 0.262672 0.509710 0.963347 -0.270447 0.850333 0.216453 0.657784 -0.401926 0.776332 -0.393329 -0.280010 -0.045337 0.542056 0.841004 -0.404755 0.515451 -0.539029 0.209495 0.658700 0.317001 -1.006385 0.203894 -0.658423 -0.702167 0.268568 -0.929555 0.999964 0.105881 0.889395 0.482711 -0.541221 0.067873 0.274506 0.676320 0.720665 0.922745 -0.174330 -0.379206 -0.263880 0.298348 -0.732050 -0.202080 -0.249656 -0.602483 0.575756 -0.575537 -0.634303 -0.697042 -0.687340 -0.386416 -0.532466 -0.846834 -0.967574 0.802701 0.379396 0.568375 0.145998 -0.954722 0.826479 -0.608446 0.753142 0.473525 0.560931 -0.007216 -0.810408 -0.627436 0.753072 -0.032854 -0.199151 0.528873 -0.452811 -0.296962 0.723325 -0.641176 0.409050 0.891691 -0.382509 0.045361 0.449341 -0.617114 -0.882953 -0.882486 0.157330 0.407678 -0.221530 -0.201856 -0.196778 -0.638487 0.828334 0.261254 -0.809251
-0.830195 -0.282723 0.943564 0.591933 1.034659 0.533654 -0.220464 0.540671 -0.803687 0.747864 0.292134 -0.530529 0.457008 -0.528252 -0.346269 -0.632976 -0.484409 0.660035 -0.446051 -0.383204 0.213812 0.106522 -0.030210 0.420265 -0.738026 -0.896245 -0.269618 -0.543422 -0.470115 0.060122 -0.548224 0.008814 0.103455 -0.009983 -0.242923 -0.450578 0.121383 0.397139 0.693802 0.450215 -0.135358 -0.717732 -0.297991 -0.012171 0.896828 0.932249 -0.059221 0.347209 -0.734658 0.135194 0.892670 -0.912786 -0.361235 0.988308 -0.748954 0.195807 -0.788291 -0.348619 -0.476318 0.630423 -0.030342 0.256477 -0.065771 -0.547692 -0.905788 -0.646849 0.422258 0.771823 0.238922 -0.779781 -0.402709 0.608491 -0.576900 0.355655 0.414277 -0.161157 -0.952405 0.350647 -0.554408 0.513811 -0.300402 0.618877 0.951676 0.718725 -0.235141 0.637860 0.325398 -0.555991 -0.581836 0.222585 0.942525 0.769992 0.710958 -0.328770 -0.833791 -0.285587 -0.515426 -0.048249 0.905159 0.014180 0.823153 0.691826 -0.154676 0.887277 0.549160 -0.382123 0.950826 0.023614 0.516863 0.190913 0.735059 -0.559574 -0.511093 0.404458 -0.436289 0.667313 -0.151190 0.194271 -0.782687 0.546565 -0.912382 -0.284408 0.467434 -0.794877 -0.483376 -0.320629 0.695518 0.766998
-0.950614 0.100445 -0.104944 0.163548 -0.779092 -0.901132 -0.715948 -0.177745 0.512386 -0.757556 -0.802600 0.320498 0.951345 -0.764181 0.566569 0.630428 -0.052628 -0.514033 0.311919 0.632604 -0.578239 -0.283494 -0.840655 0.985116 0.750644 0.396006 -0.720097 0.111436 -0.249902 0.732428 -0.474246 -0.751216 0.429248 0.844312 -0.079402 -0.289470 0.638453 0.016516 -0.575603 0.006198 -0.849490 0.378682 -0.030672 -0.201818 0.429391 0.076881 0.616902 0.929417 0.458555 -0.195526 -0.791873 0.013154 0.151318 0.008441 -0.467492 -0.735260 0.245661 -0.056939 0.164290 -0.763317 0.379755 0.462297 0.189484 0.626593 -0.427025 -0.491205 -0.222829 0.758656 0.417674 0.210933 -0.194072 0.159038 0.765540 0.605174 0.525521 0.191999 -0.123344 1.010921 0.203591 0.923885 0.786246 -0.264249 0.332646 -0.533640 0.005822 -0.491700 0.418866 -0.838926 -0.977614 -0.687024 0.538051 -0.814428 -0.748724 0.854148 0.426933 0.238147 -0.479664 0.472568 0.707694 -0.034012 -0.764986 0.098415 -0.092664 -0.220685 -0.441909 -0.765258 0.656024 0.180290 0.263841 -0.951738 -0.557403 -0.241495 -0.196935 -0.111594 -0.591374 0.397669 -0.503820 0.508315 0.265235 -0.840432 0.988399 0.882899 -0.783003 -0.337093 -0.440349 0.271305 0.354471 -0.038507
